-0.953157;-0.218468;-0.657771;-0.734148;0.401828;0.708154;-0.428484;0.49925;0.375153;
-0.411175;-0.030122;-0.210292;-0.400192;0.520275;0.791578;-0.163769;0.635143;0.648351;
-0.708101;-0.030043;-0.281033;-0.544475;0.469505;0.774026;-0.238885;0.600158;0.574033;
-0.63498;0.051447;-0.124653;-0.477174;0.492697;0.799425;-0.164297;0.639525;0.651848;
-0.778788;0.0823001;-0.10417;-0.534268;0.472302;0.79863;-0.178041;0.634669;0.638549;
-0.795607;0.140164;-0.00665224;-0.518923;0.477279;0.812334;-0.140604;0.655195;0.676861;
-0.885946;0.179704;0.043673;-0.545942;0.467466;0.816869;-0.133347;0.66055;0.683541;
-0.931709;0.22777;0.120088;-0.547698;0.466522;0.826215;-0.108332;0.674644;0.707714;
-1.00219;0.268643;0.179602;-0.563875;0.460573;0.832189;-0.0936895;0.683456;0.720577;
-1.05672;0.311645;0.247513;-0.571174;0.457759;0.839613;-0.0729002;0.695225;0.739095;
-1.11913;0.351372;0.309027;-0.583248;0.453309;0.845677;-0.0556438;0.705128;0.753362;
-1.17552;0.391055;0.372827;-0.592125;0.450006;0.852037;-0.0362662;0.715988;0.769206;
-1.23403;0.428869;0.433875;-0.602462;0.446222;0.857738;-0.0180704;0.726159;0.783258;
-1.28994;0.465938;0.495128;-0.611561;0.442896;0.863348;0.000858624;0.736599;0.797509;
-1.34602;0.501669;0.554897;-0.620996;0.439478;0.86855;0.0194044;0.746755;0.810833;
-1.4007;0.536463;0.614184;-0.629868;0.436279;0.873537;0.0382066;0.756947;0.823909;
-1.45492;0.570145;0.672436;-0.638704;0.433114;0.87821;0.0568911;0.766991;0.836372;
-1.50815;0.602869;0.729996;-0.647211;0.430084;0.882635;0.0756671;0.776993;0.848459;
-1.56072;0.6346;0.786691;-0.655566;0.427126;0.886786;0.0944098;0.786895;0.86006;
-1.61248;0.665409;0.842643;-0.663676;0.42427;0.890687;0.113185;0.79673;0.871261;
-1.66353;0.695305;0.897807;-0.671604;0.421493;0.894335;0.131951;0.80648;0.882038;
-1.71384;0.724331;0.95223;-0.679323;0.418803;0.897741;0.150726;0.816156;0.892428;
-1.76345;0.752508;1.00591;-0.686855;0.416192;0.900909;0.169496;0.825753;0.90243;
-1.81236;0.77987;1.05886;-0.694197;0.413658;0.903845;0.188264;0.835275;0.912067;
-1.8606;0.80644;1.1111;-0.701359;0.411198;0.906554;0.207024;0.84472;0.921347;
-1.90817;0.832248;1.16265;-0.708342;0.40881;0.909043;0.225776;0.85409;0.930285;
-1.95509;0.857317;1.21351;-0.715153;0.40649;0.911317;0.244516;0.863385;0.938891;
-2.00138;0.881672;1.26369;-0.721795;0.404236;0.913382;0.263242;0.872606;0.947178;
-2.04704;0.905338;1.31322;-0.728275;0.402045;0.915241;0.281951;0.881753;0.955157;
-2.09209;0.928337;1.3621;-0.734595;0.399916;0.916901;0.300643;0.890827;0.962839;
-2.13654;0.950692;1.41033;-0.74076;0.397845;0.918367;0.319314;0.899828;0.970234;
-2.18041;0.972424;1.45795;-0.746774;0.39583;0.919643;0.337963;0.908757;0.977352;
-2.2237;0.993554;1.50495;-0.752641;0.39387;0.920734;0.356588;0.917614;0.984202;
-2.26643;1.0141;1.55134;-0.758365;0.391961;0.921645;0.375186;0.926401;0.990795;
-2.30861;1.03409;1.59715;-0.763951;0.390103;0.92238;0.393757;0.935117;0.997139;
-2.35025;1.05353;1.64237;-0.7694;0.388292;0.922943;0.412299;0.943763;1.00324;
-2.39136;1.07244;1.68702;-0.774718;0.386528;0.92334;0.43081;0.95234;1.00911;
-2.43195;1.09084;1.73111;-0.779907;0.384809;0.923574;0.449289;0.960848;1.01476;
-2.47204;1.10876;1.77464;-0.784971;0.383132;0.923649;0.467734;0.969289;1.02019;
-2.51162;1.12619;1.81764;-0.789913;0.381496;0.92357;0.486145;0.977661;1.02542;
-2.55072;1.14317;1.8601;-0.794737;0.379899;0.923339;0.504518;0.985967;1.03044;
-2.58934;1.1597;1.90204;-0.799444;0.378341;0.922962;0.522855;0.994207;1.03527;
-2.62749;1.17579;1.94346;-0.804039;0.376819;0.922442;0.541153;1.00238;1.03991;
-2.66518;1.19148;1.98438;-0.808525;0.375332;0.921783;0.559411;1.01049;1.04437;
-2.70242;1.20675;2.02479;-0.812903;0.373879;0.920988;0.577628;1.01853;1.04865;
-2.73921;1.22164;2.06472;-0.817177;0.372458;0.92006;0.595804;1.02651;1.05276;
-2.77557;1.23615;2.10417;-0.821349;0.371069;0.919004;0.613937;1.03443;1.05671;
-2.81151;1.25029;2.14315;-0.825423;0.36971;0.917822;0.632027;1.04228;1.0605;
-2.84702;1.26408;2.18166;-0.8294;0.368379;0.916518;0.650073;1.05008;1.06414;
-2.88213;1.27752;2.21971;-0.833283;0.367077;0.915095;0.668073;1.05781;1.06764;
-2.91683;1.29063;2.25732;-0.837074;0.365801;0.913557;0.686027;1.06548;1.07099;
-2.95113;1.30342;2.29448;-0.840776;0.364552;0.911905;0.703935;1.07309;1.0742;
-2.98505;1.3159;2.3312;-0.844391;0.363327;0.910144;0.721796;1.08064;1.07728;
-3.01859;1.32808;2.3675;-0.847921;0.362126;0.908276;0.73961;1.08813;1.08023;
-3.05175;1.33996;2.40338;-0.851368;0.360948;0.906304;0.757374;1.09556;1.08306;
-3.08455;1.35156;2.43884;-0.854734;0.359793;0.904231;0.77509;1.10293;1.08576;
-3.11698;1.36288;2.47389;-0.858022;0.358659;0.90206;0.792757;1.11025;1.08835;
-3.14906;1.37394;2.50854;-0.861232;0.357545;0.899792;0.810374;1.11751;1.09083;
-3.18079;1.38474;2.5428;-0.864368;0.356452;0.897432;0.82794;1.12471;1.0932;
-3.21217;1.39529;2.57666;-0.86743;0.355378;0.894982;0.845456;1.13186;1.09546;
-3.24322;1.4056;2.61015;-0.870422;0.354323;0.892443;0.862921;1.13895;1.09763;
-3.27394;1.41567;2.64325;-0.873343;0.353285;0.889819;0.880334;1.14599;1.09969;
-3.30434;1.42551;2.67599;-0.876197;0.352265;0.887112;0.897696;1.15297;1.10166;
-3.33441;1.43513;2.70836;-0.878985;0.351262;0.884324;0.915006;1.15991;1.10354;
-3.36417;1.44454;2.74036;-0.881708;0.350275;0.881458;0.932263;1.16678;1.10533;
-3.39363;1.45374;2.77202;-0.884368;0.349304;0.878515;0.949468;1.17361;1.10703;
-3.42277;1.46274;2.80332;-0.886966;0.348347;0.875498;0.966619;1.18039;1.10865;
-3.45162;1.47154;2.83428;-0.889504;0.347406;0.87241;0.983718;1.18711;1.11019;
-3.48018;1.48015;2.86491;-0.891984;0.346479;0.869251;1.00076;1.19378;1.11165;
-3.50845;1.48857;2.89519;-0.894407;0.345565;0.866025;1.01776;1.20041;1.11304;
-3.53643;1.49682;2.92515;-0.896773;0.344665;0.862734;1.03469;1.20698;1.11435;
-3.56413;1.50489;2.95479;-0.899086;0.343778;0.859378;1.05158;1.21351;1.1156;
-3.59156;1.51279;2.98411;-0.901345;0.342903;0.855961;1.06841;1.21998;1.11677;
-3.61871;1.52053;3.01311;-0.903552;0.34204;0.852484;1.08519;1.22641;1.11788;
-3.6456;1.5281;3.0418;-0.905708;0.341189;0.848949;1.10191;1.23279;1.11892;
-3.67223;1.53553;3.07018;-0.907815;0.34035;0.845357;1.11858;1.23913;1.11991;
-3.6986;1.5428;3.09827;-0.909874;0.339521;0.841711;1.13519;1.24542;1.12083;
-3.72471;1.54992;3.12606;-0.911885;0.338704;0.838012;1.15175;1.25166;1.1217;
-3.75057;1.55691;3.15355;-0.91385;0.337897;0.834262;1.16826;1.25786;1.12251;
-3.77619;1.56375;3.18076;-0.915771;0.3371;0.830463;1.18471;1.26401;1.12326;
-3.80157;1.57046;3.20768;-0.917647;0.336313;0.826615;1.20111;1.27012;1.12396;
-3.8267;1.57704;3.23432;-0.919481;0.335535;0.822722;1.21745;1.27619;1.12461;
-3.8516;1.58349;3.26069;-0.921272;0.334767;0.818783;1.23374;1.28221;1.12522;
-3.87627;1.58982;3.28678;-0.923023;0.334008;0.814801;1.24998;1.28819;1.12577;
-3.90071;1.59603;3.31261;-0.924734;0.333258;0.810778;1.26616;1.29413;1.12628;
-3.92492;1.60212;3.33817;-0.926405;0.332517;0.806714;1.28228;1.30003;1.12674;
-3.94891;1.6081;3.36346;-0.928039;0.331784;0.802611;1.29835;1.30588;1.12716;
-3.97269;1.61397;3.3885;-0.929636;0.331059;0.79847;1.31437;1.3117;1.12754;
-3.99624;1.61973;3.41329;-0.931196;0.330342;0.794294;1.33033;1.31747;1.12788;
-4.01959;1.62538;3.43782;-0.93272;0.329633;0.790082;1.34624;1.3232;1.12818;
-4.04273;1.63094;3.46211;-0.93421;0.328932;0.785837;1.3621;1.3289;1.12844;
-4.06566;1.63639;3.48616;-0.935666;0.328238;0.781559;1.3779;1.33455;1.12866;
-4.08838;1.64175;3.50996;-0.937089;0.327551;0.77725;1.39365;1.34017;1.12885;
-4.11091;1.64701;3.53353;-0.93848;0.326871;0.772911;1.40934;1.34575;1.129;
-4.13324;1.65218;3.55686;-0.939839;0.326199;0.768544;1.42498;1.35129;1.12912;
-4.15537;1.65726;3.57996;-0.941167;0.325533;0.764149;1.44057;1.35679;1.12921;
-4.17731;1.66226;3.60283;-0.942465;0.324874;0.759727;1.4561;1.36226;1.12927;
-4.19906;1.66717;3.62547;-0.943734;0.324221;0.75528;1.47158;1.36768;1.12929;
-4.22062;1.67199;3.6479;-0.944974;0.323575;0.750808;1.48701;1.37308;1.12929;
-4.242;1.67674;3.6701;-0.946186;0.322935;0.746313;1.50238;1.37844;1.12926;
-4.2632;1.68141;3.69209;-0.94737;0.322301;0.741796;1.5177;1.38376;1.1292;
-4.28422;1.686;3.71387;-0.948528;0.321673;0.737257;1.53297;1.38905;1.12911;
-4.30506;1.69052;3.73543;-0.94966;0.321051;0.732698;1.54818;1.3943;1.129;
-4.32572;1.69497;3.75679;-0.950765;0.320435;0.72812;1.56334;1.39952;1.12886;
-4.34622;1.69934;3.77794;-0.951846;0.319824;0.723524;1.57845;1.4047;1.1287;
-4.36654;1.70365;3.79889;-0.952903;0.319219;0.718909;1.59351;1.40985;1.12852;
-4.3867;1.70788;3.81963;-0.953936;0.318619;0.714279;1.60851;1.41497;1.12831;
-4.40668;1.71206;3.84018;-0.954945;0.318024;0.709632;1.62347;1.42005;1.12808;
-4.42651;1.71616;3.86054;-0.955932;0.317435;0.704971;1.63837;1.42511;1.12783;
-4.44617;1.72021;3.8807;-0.956896;0.316851;0.700295;1.65322;1.43013;1.12756;
-4.46568;1.72419;3.90067;-0.957839;0.316272;0.695606;1.66802;1.43512;1.12727;
-4.48502;1.72812;3.92045;-0.95876;0.315697;0.690905;1.68276;1.44007;1.12696;
-4.50421;1.73199;3.94005;-0.959661;0.315128;0.686192;1.69746;1.445;1.12663;
-4.52325;1.7358;3.95946;-0.960541;0.314563;0.681468;1.7121;1.44989;1.12628;
-4.54214;1.73955;3.9787;-0.961402;0.314003;0.676734;1.72669;1.45476;1.12592;
-4.56087;1.74325;3.99775;-0.962244;0.313448;0.67199;1.74123;1.45959;1.12554;
-4.57946;1.7469;4.01663;-0.963066;0.312897;0.667237;1.75572;1.4644;1.12514;
-4.5979;1.7505;4.03533;-0.96387;0.312351;0.662477;1.77016;1.46917;1.12473;
-4.6162;1.75404;4.05386;-0.964656;0.311809;0.657709;1.78455;1.47392;1.1243;
-4.63436;1.75754;4.07222;-0.965425;0.311271;0.652934;1.79889;1.47864;1.12386;
-4.65237;1.76099;4.09041;-0.966176;0.310737;0.648153;1.81318;1.48332;1.1234;
-4.67025;1.76439;4.10844;-0.966911;0.310208;0.643366;1.82742;1.48798;1.12293;
-4.68798;1.76775;4.1263;-0.967629;0.309683;0.638575;1.84161;1.49262;1.12245;
-4.70559;1.77106;4.144;-0.968331;0.309161;0.633779;1.85576;1.49722;1.12196;
-4.72305;1.77433;4.16154;-0.969018;0.308644;0.62898;1.86985;1.5018;1.12145;
-4.74039;1.77755;4.17892;-0.969689;0.308131;0.624177;1.88389;1.50635;1.12093;
-4.75759;1.78073;4.19615;-0.970345;0.307621;0.619372;1.89788;1.51087;1.1204;
-4.77467;1.78388;4.21322;-0.970987;0.307115;0.614565;1.91183;1.51536;1.11985;
-4.79161;1.78698;4.23013;-0.971615;0.306613;0.609756;1.92572;1.51983;1.1193;
-4.80843;1.79004;4.2469;-0.972228;0.306114;0.604946;1.93957;1.52428;1.11874;
-4.82513;1.79306;4.26352;-0.972828;0.305619;0.600136;1.95337;1.52869;1.11816;
-4.8417;1.79605;4.27999;-0.973415;0.305128;0.595325;1.96712;1.53308;1.11758;
-4.85815;1.799;4.29631;-0.973989;0.30464;0.590515;1.98082;1.53745;1.11699;
-4.87448;1.80192;4.31249;-0.97455;0.304156;0.585706;1.99448;1.54179;1.11639;
-4.89069;1.80479;4.32852;-0.975099;0.303675;0.580899;2.00809;1.54611;1.11578;
-4.90678;1.80764;4.34442;-0.975636;0.303197;0.576093;2.02165;1.5504;1.11516;
-4.92275;1.81045;4.36018;-0.976161;0.302723;0.571289;2.03516;1.55466;1.11453;
-4.93861;1.81323;4.3758;-0.976675;0.302251;0.566488;2.04862;1.5589;1.1139;
-4.95435;1.81597;4.39128;-0.977177;0.301783;0.56169;2.06204;1.56312;1.11326;
-4.96998;1.81869;4.40663;-0.977669;0.301318;0.556896;2.07542;1.56732;1.11261;
-4.9855;1.82137;4.42184;-0.97815;0.300856;0.552105;2.08874;1.57149;1.11196;
-5.00091;1.82403;4.43693;-0.97862;0.300398;0.547319;2.10202;1.57563;1.1113;
-5.01621;1.82665;4.45188;-0.979081;0.299942;0.542537;2.11525;1.57976;1.11063;
-5.0314;1.82924;4.46671;-0.979531;0.299489;0.53776;2.12844;1.58386;1.10996;
-5.04649;1.83181;4.48141;-0.979971;0.299039;0.532989;2.14158;1.58794;1.10928;
-5.06147;1.83435;4.49598;-0.980403;0.298592;0.528223;2.15468;1.59199;1.10859;
-5.07634;1.83686;4.51043;-0.980825;0.298147;0.523463;2.16773;1.59602;1.1079;
-5.09111;1.83934;4.52476;-0.981238;0.297706;0.51871;2.18073;1.60004;1.10721;
-5.10578;1.8418;4.53896;-0.981642;0.297267;0.513963;2.19369;1.60402;1.10651;
-5.12034;1.84423;4.55304;-0.982037;0.296831;0.509223;2.20661;1.60799;1.10581;
-5.13481;1.84664;4.56701;-0.982425;0.296397;0.50449;2.21947;1.61194;1.1051;
-5.14918;1.84902;4.58086;-0.982804;0.295966;0.499765;2.2323;1.61586;1.10439;
-5.16345;1.85138;4.59459;-0.983175;0.295538;0.495048;2.24508;1.61976;1.10367;
-5.17762;1.85371;4.60821;-0.983538;0.295112;0.490339;2.25782;1.62365;1.10295;
-5.19169;1.85602;4.62171;-0.983894;0.294689;0.485638;2.27051;1.62751;1.10223;
-5.20567;1.85831;4.6351;-0.984242;0.294268;0.480945;2.28316;1.63135;1.1015;
-5.21956;1.86057;4.64838;-0.984583;0.293849;0.476262;2.29576;1.63517;1.10077;
-5.23335;1.86282;4.66155;-0.984918;0.293433;0.471588;2.30832;1.63897;1.10004;
-5.24705;1.86504;4.67461;-0.985245;0.293019;0.466923;2.32084;1.64274;1.0993;
-5.26066;1.86724;4.68756;-0.985565;0.292607;0.462268;2.33331;1.6465;1.09857;
-5.27417;1.86941;4.7004;-0.98588;0.292198;0.457622;2.34575;1.65024;1.09783;
-5.2876;1.87157;4.71314;-0.986187;0.291791;0.452987;2.35813;1.65396;1.09708;
-5.30094;1.87371;4.72578;-0.986489;0.291386;0.448362;2.37048;1.65766;1.09634;
-5.31419;1.87583;4.73831;-0.986785;0.290983;0.443747;2.38278;1.66134;1.09559;
-5.32736;1.87793;4.75074;-0.987074;0.290582;0.439143;2.39504;1.665;1.09484;
-5.34044;1.88001;4.76307;-0.987358;0.290184;0.43455;2.40726;1.66865;1.09409;
-5.35343;1.88207;4.7753;-0.987637;0.289787;0.429968;2.41944;1.67227;1.09334;
-5.36634;1.88411;4.78743;-0.98791;0.289392;0.425398;2.43157;1.67588;1.09259;
-5.37916;1.88614;4.79946;-0.988177;0.289;0.420838;2.44366;1.67946;1.09183;
-5.39191;1.88815;4.8114;-0.98844;0.288609;0.41629;2.45572;1.68303;1.09107;
-5.40457;1.89014;4.82324;-0.988697;0.28822;0.411754;2.46773;1.68658;1.09032;
-5.41714;1.89211;4.83498;-0.98895;0.287833;0.40723;2.47969;1.69011;1.08956;
-5.42964;1.89406;4.84663;-0.989198;0.287448;0.402718;2.49162;1.69362;1.0888;
-5.44206;1.896;4.85819;-0.989441;0.287065;0.398219;2.50351;1.69712;1.08804;
-5.4544;1.89793;4.86966;-0.98968;0.286683;0.393731;2.51535;1.7006;1.08728;
-5.46666;1.89983;4.88103;-0.989914;0.286304;0.389256;2.52716;1.70406;1.08652;
-5.47885;1.90172;4.89232;-0.990144;0.285926;0.384794;2.53892;1.7075;1.08576;
-5.49095;1.9036;4.90351;-0.99037;0.285549;0.380345;2.55065;1.71092;1.085;
-5.50299;1.90546;4.91462;-0.990592;0.285174;0.375908;2.56233;1.71433;1.08423;
-5.51494;1.90731;4.92564;-0.99081;0.284801;0.371485;2.57398;1.71772;1.08347;
-5.52682;1.90914;4.93657;-0.991024;0.28443;0.367075;2.58558;1.72109;1.08271;
-5.53863;1.91095;4.94742;-0.991235;0.28406;0.362678;2.59714;1.72445;1.08195;
-5.55037;1.91275;4.95818;-0.991442;0.283691;0.358294;2.60867;1.72779;1.08118;
-5.56203;1.91454;4.96886;-0.991645;0.283324;0.353924;2.62016;1.73112;1.08042;
-5.57362;1.91632;4.97945;-0.991845;0.282958;0.349568;2.6316;1.73442;1.07966;
-5.58513;1.91808;4.98997;-0.992041;0.282594;0.345225;2.64301;1.73771;1.0789;
-5.59658;1.91982;5.0004;-0.992235;0.282232;0.340896;2.65438;1.74099;1.07814;
-5.60796;1.92156;5.01075;-0.992425;0.28187;0.336581;2.66571;1.74425;1.07738;
-5.61927;1.92328;5.02102;-0.992612;0.28151;0.33228;2.677;1.74749;1.07662;
-5.63051;1.92499;5.03121;-0.992796;0.281152;0.327993;2.68826;1.75071;1.07586;
-5.64168;1.92668;5.04132;-0.992977;0.280794;0.32372;2.69947;1.75392;1.0751;
-5.65278;1.92836;5.05136;-0.993156;0.280438;0.319462;2.71065;1.75712;1.07435;
-5.66382;1.93003;5.06132;-0.993332;0.280083;0.315217;2.72179;1.7603;1.07359;
-5.67479;1.93169;5.0712;-0.993505;0.27973;0.310987;2.73289;1.76346;1.07284;
-5.6857;1.93334;5.08101;-0.993676;0.279377;0.306772;2.74395;1.76661;1.07208;
-5.69654;1.93497;5.09074;-0.993844;0.279026;0.302571;2.75498;1.76974;1.07133;
-5.70731;1.9366;5.1004;-0.99401;0.278676;0.298385;2.76597;1.77286;1.07058;
-5.71802;1.93821;5.10999;-0.994173;0.278327;0.294213;2.77692;1.77597;1.06983;
-5.72867;1.93981;5.1195;-0.994335;0.277979;0.290056;2.78783;1.77905;1.06908;
-5.73925;1.9414;5.12895;-0.994494;0.277632;0.285914;2.79871;1.78213;1.06833;
-5.74978;1.94298;5.13832;-0.994651;0.277286;0.281787;2.80955;1.78518;1.06758;
-5.76024;1.94455;5.14762;-0.994806;0.276942;0.277674;2.82036;1.78823;1.06684;
-5.77064;1.9461;5.15685;-0.994959;0.276598;0.273577;2.83113;1.79126;1.06609;
-5.78097;1.94765;5.16601;-0.99511;0.276255;0.269494;2.84186;1.79427;1.06535;
-5.79125;1.94919;5.1751;-0.995259;0.275913;0.265426;2.85255;1.79727;1.06461;
-5.80147;1.95071;5.18413;-0.995407;0.275572;0.261373;2.86321;1.80026;1.06387;
-5.81163;1.95223;5.19309;-0.995552;0.275232;0.257336;2.87384;1.80323;1.06314;
-5.82173;1.95374;5.20198;-0.995696;0.274893;0.253313;2.88443;1.80619;1.0624;
-5.83177;1.95523;5.21081;-0.995839;0.274554;0.249306;2.89498;1.80913;1.06167;
-5.84175;1.95672;5.21957;-0.99598;0.274217;0.245314;2.9055;1.81206;1.06094;
-5.85168;1.9582;5.22827;-0.996119;0.27388;0.241337;2.91598;1.81498;1.06021;
-5.86155;1.95967;5.2369;-0.996257;0.273544;0.237375;2.92642;1.81788;1.05948;
-5.87136;1.96113;5.24547;-0.996394;0.273209;0.233428;2.93684;1.82077;1.05875;
-5.88112;1.96257;5.25398;-0.996529;0.272874;0.229497;2.94721;1.82365;1.05803;
-5.89082;1.96402;5.26242;-0.996663;0.272541;0.225581;2.95755;1.82651;1.05731;
-5.90047;1.96545;5.27081;-0.996796;0.272208;0.22168;2.96786;1.82936;1.05659;
-5.91006;1.96687;5.27913;-0.996927;0.271875;0.217795;2.97813;1.83219;1.05587;
-5.9196;1.96828;5.28739;-0.997058;0.271544;0.213925;2.98837;1.83501;1.05515;
-5.92908;1.96969;5.29559;-0.997187;0.271213;0.21007;2.99858;1.83782;1.05444;
-5.93852;1.97109;5.30373;-0.997315;0.270882;0.206231;3.00875;1.84062;1.05373;
-5.94789;1.97248;5.31182;-0.997442;0.270552;0.202406;3.01888;1.8434;1.05302;
-5.95722;1.97386;5.31984;-0.997569;0.270223;0.198598;3.02899;1.84617;1.05231;
-5.96649;1.97523;5.32781;-0.997694;0.269894;0.194804;3.03905;1.84893;1.0516;
-5.97572;1.97659;5.33572;-0.997818;0.269566;0.191026;3.04909;1.85167;1.0509;
-5.98489;1.97795;5.34357;-0.997942;0.269238;0.187264;3.05909;1.85441;1.0502;
-5.99401;1.9793;5.35137;-0.998064;0.268911;0.183517;3.06906;1.85713;1.0495;
-6.00308;1.98064;5.35911;-0.998186;0.268585;0.179785;3.07899;1.85983;1.04881;
-6.0121;1.98197;5.3668;-0.998308;0.268258;0.176068;3.0889;1.86253;1.04811;
-6.02107;1.98329;5.37443;-0.998428;0.267933;0.172367;3.09877;1.86521;1.04742;
-6.02999;1.98461;5.38201;-0.998548;0.267607;0.168681;3.1086;1.86788;1.04674;
-6.03886;1.98592;5.38953;-0.998667;0.267282;0.165011;3.11841;1.87054;1.04605;
-6.04768;1.98722;5.397;-0.998786;0.266958;0.161356;3.12818;1.87318;1.04537;
-6.05646;1.98852;5.40442;-0.998904;0.266634;0.157716;3.13792;1.87581;1.04468;
-6.06519;1.98981;5.41178;-0.999021;0.26631;0.154091;3.14763;1.87844;1.04401;
-6.07387;1.99109;5.41909;-0.999138;0.265987;0.150482;3.1573;1.88105;1.04333;
-6.0825;1.99236;5.42636;-0.999255;0.265664;0.146888;3.16694;1.88364;1.04266;
-6.09109;1.99363;5.43357;-0.999371;0.265341;0.14331;3.17655;1.88623;1.04199;
-6.09963;1.99489;5.44073;-0.999486;0.265018;0.139746;3.18613;1.8888;1.04132;
-6.10813;1.99614;5.44784;-0.999601;0.264696;0.136198;3.19568;1.89137;1.04065;
-6.11658;1.99739;5.4549;-0.999716;0.264374;0.132665;3.2052;1.89392;1.03999;
-6.12498;1.99862;5.46191;-0.999831;0.264052;0.129148;3.21468;1.89646;1.03933;
-6.13334;1.99986;5.46887;-0.999945;0.263731;0.125645;3.22413;1.89898;1.03867;
-6.14165;2.00108;5.47579;-1.00006;0.26341;0.122158;3.23356;1.9015;1.03801;
-6.14993;2.0023;5.48265;-1.00017;0.263089;0.118686;3.24295;1.904;1.03736;
-6.15815;2.00352;5.48947;-1.00029;0.262768;0.115229;3.25231;1.9065;1.03671;
-6.16634;2.00472;5.49625;-1.0004;0.262447;0.111787;3.26164;1.90898;1.03606;
-6.17448;2.00592;5.50297;-1.00051;0.262127;0.10836;3.27094;1.91145;1.03542;
-6.18257;2.00712;5.50965;-1.00062;0.261807;0.104948;3.28021;1.91391;1.03478;
-6.19063;2.0083;5.51628;-1.00074;0.261486;0.101552;3.28944;1.91636;1.03414;
-6.19864;2.00949;5.52287;-1.00085;0.261166;0.0981698;3.29865;1.9188;1.0335;
-6.20661;2.01066;5.52941;-1.00096;0.260846;0.094803;3.30783;1.92123;1.03287;
-6.21454;2.01183;5.53591;-1.00107;0.260526;0.0914511;3.31698;1.92365;1.03224;
-6.22243;2.013;5.54237;-1.00119;0.260207;0.0881141;3.32609;1.92605;1.03161;
-6.23027;2.01415;5.54878;-1.0013;0.259887;0.0847921;3.33518;1.92845;1.03098;
-6.23808;2.0153;5.55514;-1.00141;0.259567;0.0814848;3.34424;1.93083;1.03036;
-6.24584;2.01645;5.56146;-1.00152;0.259248;0.0781924;3.35327;1.93321;1.02974;
-6.25357;2.01759;5.56774;-1.00163;0.258928;0.0749148;3.36227;1.93557;1.02912;
-6.26125;2.01873;5.57398;-1.00175;0.258609;0.0716519;3.37124;1.93792;1.02851;
-6.2689;2.01985;5.58018;-1.00186;0.258289;0.0684037;3.38018;1.94027;1.0279;
-6.27651;2.02098;5.58633;-1.00197;0.25797;0.0651702;3.38909;1.9426;1.02729;
-6.28407;2.0221;5.59244;-1.00208;0.25765;0.0619514;3.39797;1.94492;1.02668;
-6.2916;2.02321;5.59851;-1.00219;0.257331;0.0587472;3.40682;1.94723;1.02608;
-6.29909;2.02431;5.60455;-1.00231;0.257011;0.0555575;3.41565;1.94953;1.02548;
-6.30654;2.02542;5.61054;-1.00242;0.256692;0.0523824;3.42444;1.95182;1.02488;
-6.31396;2.02651;5.61649;-1.00253;0.256372;0.0492218;3.43321;1.95411;1.02429;
-6.32133;2.0276;5.6224;-1.00264;0.256052;0.0460757;3.44195;1.95638;1.02369;
-6.32867;2.02869;5.62827;-1.00276;0.255732;0.0429439;3.45066;1.95864;1.0231;
-6.33597;2.02977;5.6341;-1.00287;0.255413;0.0398266;3.45934;1.96089;1.02252;
-6.34324;2.03084;5.63989;-1.00298;0.255093;0.0367236;3.46799;1.96313;1.02193;
-6.35047;2.03191;5.64565;-1.00309;0.254773;0.0336349;3.47662;1.96536;1.02135;
-6.35766;2.03298;5.65136;-1.00321;0.254452;0.0305605;3.48521;1.96758;1.02077;
-6.36481;2.03404;5.65704;-1.00332;0.254132;0.0275004;3.49378;1.9698;1.0202;
-6.37193;2.03509;5.66268;-1.00343;0.253812;0.0244544;3.50233;1.972;1.01963;
-6.37902;2.03614;5.66829;-1.00355;0.253491;0.0214225;3.51084;1.97419;1.01906;
-6.38607;2.03719;5.67386;-1.00366;0.253171;0.0184048;3.51933;1.97637;1.01849;
-6.39308;2.03823;5.67939;-1.00378;0.25285;0.0154011;3.52779;1.97855;1.01793;
-6.40006;2.03926;5.68488;-1.00389;0.252529;0.0124114;3.53622;1.98071;1.01737;
-6.407;2.04029;5.69034;-1.00401;0.252208;0.00943571;3.54462;1.98287;1.01681;
-6.41391;2.04132;5.69576;-1.00412;0.251886;0.00647394;3.553;1.98501;1.01625;
-6.42079;2.04234;5.70115;-1.00424;0.251565;0.00352607;3.56135;1.98715;1.0157;
-6.42763;2.04335;5.7065;-1.00435;0.251243;0.000592043;3.56967;1.98928;1.01515;
-6.43444;2.04437;5.71182;-1.00447;0.250921;-0.00232818;3.57797;1.99139;1.0146;
-6.44121;2.04537;5.7171;-1.00458;0.250599;-0.00523466;3.58624;1.9935;1.01406;
-6.44795;2.04637;5.72235;-1.0047;0.250277;-0.00812742;3.59449;1.9956;1.01352;
-6.45466;2.04737;5.72757;-1.00482;0.249954;-0.0110065;3.6027;1.99769;1.01298;
-6.46134;2.04836;5.73275;-1.00493;0.249631;-0.013872;3.61089;1.99977;1.01244;
-6.46798;2.04935;5.73789;-1.00505;0.249308;-0.0167239;3.61906;2.00184;1.01191;
-6.47459;2.05034;5.74301;-1.00517;0.248985;-0.0195622;3.6272;2.00391;1.01138;
-6.48117;2.05132;5.74809;-1.00529;0.248661;-0.0223871;3.63531;2.00596;1.01085;
-6.48771;2.05229;5.75314;-1.0054;0.248338;-0.0251986;3.64339;2.00801;1.01033;
-6.49423;2.05326;5.75816;-1.00552;0.248014;-0.0279966;3.65145;2.01004;1.00981;
-6.50071;2.05423;5.76314;-1.00564;0.247689;-0.0307813;3.65949;2.01207;1.00929;
-6.50716;2.05519;5.76809;-1.00576;0.247365;-0.0335527;3.6675;2.01409;1.00877;
-6.51358;2.05615;5.77301;-1.00588;0.24704;-0.0363109;3.67548;2.0161;1.00826;
-6.51997;2.0571;5.7779;-1.006;0.246715;-0.0390558;3.68344;2.0181;1.00775;
-6.52633;2.05805;5.78276;-1.00612;0.246389;-0.0417876;3.69137;2.0201;1.00724;
-6.53266;2.059;5.78759;-1.00624;0.246064;-0.0445063;3.69927;2.02208;1.00674;
-6.53895;2.05994;5.79238;-1.00636;0.245738;-0.0472119;3.70716;2.02406;1.00624;
-6.54522;2.06087;5.79715;-1.00648;0.245411;-0.0499046;3.71501;2.02602;1.00574;
-6.55146;2.06181;5.80188;-1.0066;0.245085;-0.0525842;3.72284;2.02798;1.00524;
-6.55767;2.06273;5.80659;-1.00673;0.244758;-0.0552509;3.73065;2.02993;1.00475;
-6.56384;2.06366;5.81127;-1.00685;0.244431;-0.0579048;3.73843;2.03188;1.00426;
-6.56999;2.06458;5.81591;-1.00697;0.244103;-0.0605458;3.74619;2.03381;1.00377;
-6.57611;2.06549;5.82053;-1.00709;0.243775;-0.0631741;3.75392;2.03573;1.00328;
-6.5822;2.06641;5.82512;-1.00722;0.243447;-0.0657896;3.76163;2.03765;1.0028;
-6.58827;2.06732;5.82968;-1.00734;0.243118;-0.0683924;3.76931;2.03956;1.00232;
-6.5943;2.06822;5.83421;-1.00747;0.242789;-0.0709827;3.77697;2.04146;1.00184;
-6.6003;2.06912;5.83871;-1.00759;0.24246;-0.0735603;3.7846;2.04336;1.00137;
-6.60628;2.07002;5.84318;-1.00772;0.242131;-0.0761254;3.79221;2.04524;1.0009;
-6.61223;2.07091;5.84763;-1.00784;0.241801;-0.0786781;3.79979;2.04712;1.00043;
-6.61815;2.0718;5.85205;-1.00797;0.24147;-0.0812183;3.80736;2.04899;0.999961;
-6.62404;2.07268;5.85644;-1.00809;0.24114;-0.0837461;3.81489;2.05085;0.999497;
-6.62991;2.07357;5.8608;-1.00822;0.240809;-0.0862615;3.82241;2.0527;0.999036;
-6.63575;2.07444;5.86514;-1.00835;0.240477;-0.0887647;3.8299;2.05455;0.998578;
-6.64156;2.07532;5.86945;-1.00847;0.240146;-0.0912557;3.83736;2.05638;0.998123;
-6.64734;2.07619;5.87373;-1.0086;0.239814;-0.0937344;3.84481;2.05821;0.99767;
-6.6531;2.07705;5.87799;-1.00873;0.239481;-0.0962011;3.85222;2.06003;0.997219;
-6.65883;2.07792;5.88222;-1.00886;0.239148;-0.0986556;3.85962;2.06185;0.996772;
-6.66453;2.07878;5.88642;-1.00899;0.238815;-0.101098;3.86699;2.06365;0.996327;
-6.67021;2.07963;5.8906;-1.00912;0.238481;-0.103529;3.87434;2.06545;0.995885;
-6.67586;2.08048;5.89475;-1.00924;0.238147;-0.105947;3.88167;2.06724;0.995445;
-6.68148;2.08133;5.89888;-1.00937;0.237813;-0.108354;3.88897;2.06903;0.995008;
-6.68708;2.08218;5.90298;-1.0095;0.237478;-0.110749;3.89625;2.0708;0.994574;
-6.69266;2.08302;5.90706;-1.00964;0.237143;-0.113132;3.9035;2.07257;0.994142;
-6.6982;2.08385;5.91111;-1.00977;0.236808;-0.115503;3.91074;2.07433;0.993713;
-6.70373;2.08469;5.91514;-1.0099;0.236472;-0.117862;3.91795;2.07609;0.993286;
-6.70922;2.08552;5.91914;-1.01003;0.236135;-0.12021;3.92514;2.07783;0.992862;
-6.71469;2.08635;5.92312;-1.01016;0.235799;-0.122547;3.9323;2.07957;0.992441;
-6.72014;2.08717;5.92707;-1.01029;0.235462;-0.124871;3.93945;2.0813;0.992022;
-6.72556;2.08799;5.931;-1.01043;0.235124;-0.127185;3.94657;2.08303;0.991606;
-6.73096;2.08881;5.9349;-1.01056;0.234786;-0.129486;3.95366;2.08474;0.991192;
-6.73633;2.08962;5.93879;-1.01069;0.234448;-0.131777;3.96074;2.08645;0.990781;
-6.74168;2.09043;5.94264;-1.01083;0.234109;-0.134056;3.96779;2.08815;0.990373;
-6.74701;2.09124;5.94648;-1.01096;0.23377;-0.136324;3.97483;2.08985;0.989967;
-6.75231;2.09204;5.95029;-1.0111;0.23343;-0.13858;3.98184;2.09154;0.989564;
-6.75758;2.09284;5.95408;-1.01123;0.23309;-0.140825;3.98882;2.09322;0.989163;
-6.76283;2.09364;5.95785;-1.01137;0.23275;-0.143059;3.99579;2.09489;0.988764;
-6.76806;2.09443;5.96159;-1.01151;0.232409;-0.145282;4.00273;2.09656;0.988368;
-6.77327;2.09522;5.96531;-1.01164;0.232068;-0.147494;4.00966;2.09822;0.987975;
-6.77845;2.09601;5.96901;-1.01178;0.231727;-0.149695;4.01656;2.09987;0.987584;
-6.78361;2.09679;5.97268;-1.01192;0.231385;-0.151885;4.02344;2.10152;0.987196;
-6.78874;2.09757;5.97634;-1.01205;0.231042;-0.154064;4.03029;2.10316;0.98681;
-6.79386;2.09835;5.97997;-1.01219;0.2307;-0.156232;4.03713;2.10479;0.986427;
-6.79895;2.09912;5.98358;-1.01233;0.230356;-0.158389;4.04394;2.10641;0.986046;
-6.80401;2.0999;5.98717;-1.01247;0.230013;-0.160536;4.05074;2.10803;0.985667;
-6.80906;2.10066;5.99074;-1.01261;0.229669;-0.162672;4.05751;2.10964;0.985291;
-6.81408;2.10143;5.99428;-1.01274;0.229324;-0.164797;4.06426;2.11125;0.984917;
-6.81908;2.10219;5.99781;-1.01288;0.228979;-0.166911;4.07099;2.11285;0.984546;
-6.82406;2.10295;6.00131;-1.01302;0.228634;-0.169015;4.0777;2.11444;0.984178;
-6.82901;2.1037;6.0048;-1.01316;0.228288;-0.171108;4.08439;2.11602;0.983811;
-6.83395;2.10446;6.00826;-1.01331;0.227942;-0.173191;4.09106;2.1176;0.983447;
-6.83886;2.1052;6.0117;-1.01345;0.227596;-0.175264;4.0977;2.11917;0.983086;
-6.84375;2.10595;6.01512;-1.01359;0.227249;-0.177325;4.10433;2.12074;0.982726;
-6.84862;2.10669;6.01852;-1.01373;0.226902;-0.179377;4.11094;2.1223;0.98237;
-6.85347;2.10743;6.02191;-1.01387;0.226554;-0.181418;4.11752;2.12385;0.982015;
-6.85829;2.10817;6.02527;-1.01401;0.226206;-0.183449;4.12409;2.12539;0.981663;
-6.8631;2.10891;6.02861;-1.01416;0.225857;-0.18547;4.13063;2.12693;0.981313;
-6.86788;2.10964;6.03193;-1.0143;0.225508;-0.187481;4.13716;2.12847;0.980966;
-6.87264;2.11037;6.03523;-1.01444;0.225159;-0.189482;4.14366;2.12999;0.980621;
-6.87739;2.11109;6.03852;-1.01459;0.224809;-0.191472;4.15014;2.13151;0.980278;
-6.88211;2.11181;6.04178;-1.01473;0.224459;-0.193452;4.15661;2.13303;0.979938;
-6.88681;2.11253;6.04503;-1.01487;0.224109;-0.195423;4.16305;2.13453;0.9796;
-6.89149;2.11325;6.04825;-1.01502;0.223758;-0.197383;4.16947;2.13603;0.979264;
-6.89615;2.11396;6.05146;-1.01516;0.223406;-0.199334;4.17588;2.13753;0.97893;
-6.90079;2.11468;6.05465;-1.01531;0.223054;-0.201275;4.18226;2.13902;0.978599;
-6.90541;2.11538;6.05782;-1.01545;0.222702;-0.203206;4.18863;2.1405;0.97827;
-6.91001;2.11609;6.06097;-1.0156;0.22235;-0.205127;4.19497;2.14198;0.977944;
-6.91459;2.11679;6.0641;-1.01574;0.221997;-0.207039;4.2013;2.14345;0.977619;
-6.91915;2.11749;6.06722;-1.01589;0.221643;-0.208941;4.2076;2.14491;0.977297;
-6.92369;2.11819;6.07031;-1.01604;0.22129;-0.210833;4.21389;2.14637;0.976977;
-6.92821;2.11888;6.07339;-1.01618;0.220936;-0.212716;4.22016;2.14782;0.976659;
-6.93271;2.11957;6.07645;-1.01633;0.220581;-0.214589;4.2264;2.14927;0.976344;
-6.93719;2.12026;6.0795;-1.01648;0.220226;-0.216452;4.23263;2.15071;0.97603;
-6.94165;2.12095;6.08252;-1.01663;0.219871;-0.218307;4.23884;2.15214;0.975719;
-6.9461;2.12163;6.08553;-1.01677;0.219515;-0.220151;4.24503;2.15357;0.97541;
-6.95052;2.12231;6.08852;-1.01692;0.219159;-0.221987;4.2512;2.15499;0.975104;
-6.95493;2.12299;6.0915;-1.01707;0.218803;-0.223813;4.25736;2.15641;0.974799;
-6.95932;2.12366;6.09445;-1.01722;0.218446;-0.22563;4.26349;2.15782;0.974497;
-6.96368;2.12434;6.09739;-1.01737;0.218088;-0.227438;4.2696;2.15922;0.974196;
-6.96803;2.12501;6.10032;-1.01752;0.217731;-0.229236;4.2757;2.16062;0.973898;
-6.97236;2.12567;6.10322;-1.01767;0.217373;-0.231025;4.28178;2.16202;0.973602;
-6.97668;2.12634;6.10611;-1.01782;0.217015;-0.232806;4.28783;2.1634;0.973308;
-6.98097;2.127;6.10898;-1.01797;0.216656;-0.234577;4.29387;2.16478;0.973017;
-6.98525;2.12766;6.11184;-1.01812;0.216297;-0.236339;4.29989;2.16616;0.972727;
-6.98951;2.12832;6.11468;-1.01827;0.215937;-0.238093;4.3059;2.16753;0.972439;
-6.99375;2.12897;6.11751;-1.01842;0.215577;-0.239837;4.31188;2.1689;0.972154;
-6.99797;2.12962;6.12031;-1.01857;0.215217;-0.241572;4.31785;2.17025;0.971871;
-7.00217;2.13027;6.12311;-1.01872;0.214857;-0.243299;4.3238;2.17161;0.971589;
-7.00636;2.13092;6.12588;-1.01887;0.214496;-0.245017;4.32973;2.17296;0.97131;
-7.01053;2.13156;6.12864;-1.01902;0.214134;-0.246726;4.33564;2.1743;0.971033;
-7.01468;2.1322;6.13139;-1.01918;0.213773;-0.248426;4.34153;2.17564;0.970758;
-7.01881;2.13284;6.13412;-1.01933;0.213411;-0.250118;4.34741;2.17697;0.970485;
-7.02293;2.13348;6.13683;-1.01948;0.213048;-0.251801;4.35326;2.17829;0.970214;
-7.02703;2.13411;6.13953;-1.01963;0.212686;-0.253476;4.3591;2.17961;0.969945;
-7.03111;2.13474;6.14221;-1.01979;0.212323;-0.255142;4.36493;2.18093;0.969677;
-7.03518;2.13537;6.14488;-1.01994;0.211959;-0.256799;4.37073;2.18224;0.969412;
-7.03923;2.13599;6.14753;-1.02009;0.211596;-0.258448;4.37652;2.18354;0.969149;
-7.04326;2.13662;6.15017;-1.02024;0.211232;-0.260089;4.38229;2.18484;0.968888;
-7.04727;2.13724;6.15279;-1.0204;0.210867;-0.261721;4.38804;2.18613;0.968629;
-7.05127;2.13786;6.1554;-1.02055;0.210502;-0.263345;4.39377;2.18742;0.968372;
-7.05525;2.13847;6.15799;-1.02071;0.210137;-0.26496;4.39949;2.1887;0.968117;
-7.05922;2.13909;6.16057;-1.02086;0.209772;-0.266568;4.40519;2.18998;0.967864;
-7.06317;2.1397;6.16314;-1.02101;0.209406;-0.268167;4.41087;2.19125;0.967612;
-7.0671;2.14031;6.16569;-1.02117;0.20904;-0.269758;4.41653;2.19252;0.967363;
-7.07102;2.14092;6.16822;-1.02132;0.208674;-0.271341;4.42218;2.19378;0.967116;
-7.07492;2.14152;6.17075;-1.02148;0.208307;-0.272915;4.42781;2.19504;0.96687;
-7.0788;2.14212;6.17325;-1.02163;0.20794;-0.274482;4.43342;2.19629;0.966626;
-7.08267;2.14272;6.17575;-1.02179;0.207573;-0.276041;4.43902;2.19754;0.966385;
-7.08652;2.14332;6.17823;-1.02194;0.207205;-0.277591;4.4446;2.19878;0.966145;
-7.09035;2.14391;6.18069;-1.0221;0.206837;-0.279134;4.45016;2.20002;0.965907;
-7.09417;2.14451;6.18315;-1.02225;0.206469;-0.280669;4.45571;2.20125;0.965671;
-7.09798;2.1451;6.18558;-1.02241;0.2061;-0.282196;4.46123;2.20247;0.965437;
-7.10177;2.14569;6.18801;-1.02257;0.205732;-0.283715;4.46675;2.2037;0.965204;
-7.10554;2.14627;6.19042;-1.02272;0.205362;-0.285226;4.47224;2.20491;0.964974;
-7.1093;2.14686;6.19282;-1.02288;0.204993;-0.28673;4.47772;2.20612;0.964745;
-7.11304;2.14744;6.1952;-1.02303;0.204623;-0.288226;4.48318;2.20733;0.964518;
-7.11677;2.14802;6.19758;-1.02319;0.204253;-0.289714;4.48863;2.20853;0.964293;
-7.12048;2.14859;6.19994;-1.02335;0.203883;-0.291195;4.49406;2.20973;0.96407;
-7.12418;2.14917;6.20228;-1.0235;0.203513;-0.292668;4.49947;2.21092;0.963848;
-7.12786;2.14974;6.20461;-1.02366;0.203142;-0.294133;4.50487;2.21211;0.963628;
-7.13153;2.15031;6.20693;-1.02382;0.202771;-0.295591;4.51025;2.21329;0.96341;
-7.13518;2.15088;6.20924;-1.02398;0.202399;-0.297041;4.51561;2.21447;0.963194;
-7.13882;2.15144;6.21154;-1.02413;0.202027;-0.298484;4.52096;2.21564;0.96298;
-7.14244;2.15201;6.21382;-1.02429;0.201656;-0.29992;4.52629;2.21681;0.962767;
-7.14605;2.15257;6.21609;-1.02445;0.201283;-0.301348;4.5316;2.21797;0.962556;
-7.14964;2.15313;6.21834;-1.0246;0.200911;-0.302769;4.5369;2.21913;0.962347;
-7.15322;2.15368;6.22059;-1.02476;0.200538;-0.304182;4.54219;2.22028;0.96214;
-7.15679;2.15424;6.22282;-1.02492;0.200165;-0.305589;4.54746;2.22143;0.961934;
-7.16034;2.15479;6.22504;-1.02508;0.199792;-0.306988;4.55271;2.22258;0.96173;
-7.16387;2.15534;6.22725;-1.02524;0.199419;-0.30838;4.55794;2.22372;0.961528;
-7.16739;2.15589;6.22944;-1.02539;0.199045;-0.309764;4.56316;2.22485;0.961327;
-7.1709;2.15643;6.23163;-1.02555;0.198671;-0.311142;4.56837;2.22598;0.961128;
-7.17439;2.15698;6.2338;-1.02571;0.198297;-0.312512;4.57356;2.22711;0.960931;
-7.17787;2.15752;6.23596;-1.02587;0.197922;-0.313876;4.57873;2.22823;0.960736;
-7.18134;2.15806;6.23811;-1.02603;0.197548;-0.315232;4.58389;2.22934;0.960542;
-7.18479;2.1586;6.24025;-1.02618;0.197173;-0.316582;4.58903;2.23046;0.96035;
-7.18823;2.15913;6.24237;-1.02634;0.196798;-0.317924;4.59416;2.23156;0.960159;
-7.19165;2.15967;6.24448;-1.0265;0.196422;-0.31926;4.59927;2.23267;0.95997;
-7.19506;2.1602;6.24659;-1.02666;0.196047;-0.320589;4.60437;2.23377;0.959783;
-7.19846;2.16073;6.24868;-1.02682;0.195671;-0.32191;4.60945;2.23486;0.959597;
-7.20184;2.16125;6.25076;-1.02698;0.195295;-0.323225;4.61451;2.23595;0.959413;
-7.20521;2.16178;6.25282;-1.02714;0.194919;-0.324534;4.61956;2.23704;0.95923;
-7.20857;2.1623;6.25488;-1.0273;0.194542;-0.325835;4.6246;2.23812;0.95905;
-7.21191;2.16282;6.25693;-1.02745;0.194166;-0.32713;4.62962;2.23919;0.95887;
-7.21524;2.16334;6.25896;-1.02761;0.193789;-0.328418;4.63463;2.24027;0.958692;
-7.21856;2.16386;6.26099;-1.02777;0.193412;-0.3297;4.63962;2.24133;0.958516;
-7.22186;2.16437;6.263;-1.02793;0.193035;-0.330975;4.64459;2.2424;0.958342;
-7.22515;2.16489;6.265;-1.02809;0.192658;-0.332243;4.64955;2.24346;0.958169;
-7.22843;2.1654;6.26699;-1.02825;0.19228;-0.333505;4.6545;2.24451;0.957997;
-7.2317;2.16591;6.26897;-1.02841;0.191902;-0.33476;4.65943;2.24556;0.957827;
-7.23495;2.16642;6.27094;-1.02857;0.191524;-0.336009;4.66435;2.24661;0.957659;
-7.23819;2.16692;6.2729;-1.02873;0.191146;-0.337251;4.66925;2.24765;0.957492;
-7.24141;2.16742;6.27485;-1.02889;0.190768;-0.338487;4.67414;2.24869;0.957327;
-7.24463;2.16793;6.27679;-1.02905;0.19039;-0.339717;4.67901;2.24973;0.957163;
-7.24783;2.16842;6.27872;-1.02921;0.190011;-0.34094;4.68387;2.25076;0.957;
-7.25102;2.16892;6.28064;-1.02936;0.189632;-0.342157;4.68871;2.25178;0.956839;
-7.25419;2.16942;6.28254;-1.02952;0.189253;-0.343368;4.69354;2.2528;0.95668;
-7.25736;2.16991;6.28444;-1.02968;0.188874;-0.344572;4.69836;2.25382;0.956522;
-7.26051;2.1704;6.28633;-1.02984;0.188495;-0.34577;4.70316;2.25483;0.956366;
-7.26365;2.17089;6.2882;-1.03;0.188116;-0.346962;4.70794;2.25584;0.956211;
-7.26677;2.17138;6.29007;-1.03016;0.187736;-0.348148;4.71272;2.25685;0.956057;
-7.26989;2.17187;6.29193;-1.03032;0.187356;-0.349328;4.71747;2.25785;0.955905;
-7.27299;2.17235;6.29378;-1.03048;0.186977;-0.350502;4.72222;2.25885;0.955754;
-7.27608;2.17283;6.29561;-1.03064;0.186597;-0.351669;4.72695;2.25984;0.955605;
-7.27916;2.17331;6.29744;-1.0308;0.186217;-0.352831;4.73166;2.26083;0.955457;
-7.28222;2.17379;6.29926;-1.03096;0.185836;-0.353986;4.73637;2.26182;0.955311;
-7.28528;2.17427;6.30107;-1.03112;0.185456;-0.355136;4.74105;2.2628;0.955166;
-7.28832;2.17474;6.30287;-1.03128;0.185076;-0.356279;4.74573;2.26377;0.955023;
-7.29135;2.17522;6.30466;-1.03144;0.184695;-0.357417;4.75039;2.26475;0.95488;
-7.29437;2.17569;6.30644;-1.03159;0.184314;-0.358549;4.75503;2.26572;0.95474;
-7.29738;2.17616;6.30821;-1.03175;0.183933;-0.359675;4.75967;2.26668;0.9546;
-7.30037;2.17663;6.30997;-1.03191;0.183553;-0.360795;4.76429;2.26765;0.954462;
-7.30336;2.17709;6.31172;-1.03207;0.183171;-0.361909;4.76889;2.2686;0.954325;
-7.30633;2.17756;6.31346;-1.03223;0.18279;-0.363018;4.77348;2.26956;0.95419;
-7.30929;2.17802;6.3152;-1.03239;0.182409;-0.364121;4.77806;2.27051;0.954056;
-7.31224;2.17848;6.31692;-1.03255;0.182028;-0.365218;4.78262;2.27146;0.953924;
-7.31518;2.17894;6.31863;-1.03271;0.181646;-0.366309;4.78718;2.2724;0.953792;
-7.31811;2.17939;6.32034;-1.03287;0.181265;-0.367395;4.79171;2.27334;0.953662;
-7.32102;2.17985;6.32204;-1.03303;0.180883;-0.368475;4.79624;2.27427;0.953534;
-7.32393;2.1803;6.32373;-1.03319;0.180502;-0.36955;4.80075;2.2752;0.953406;
-7.32682;2.18075;6.32541;-1.03334;0.18012;-0.370619;4.80525;2.27613;0.95328;
-7.3297;2.1812;6.32708;-1.0335;0.179738;-0.371683;4.80973;2.27706;0.953156;
-7.33258;2.18165;6.32874;-1.03366;0.179356;-0.372741;4.8142;2.27798;0.953032;
-7.33544;2.1821;6.33039;-1.03382;0.178974;-0.373793;4.81866;2.27889;0.95291;
-7.33829;2.18254;6.33204;-1.03398;0.178592;-0.37484;4.8231;2.27981;0.952789;
-7.34112;2.18299;6.33367;-1.03414;0.17821;-0.375882;4.82754;2.28072;0.952669;
-7.34395;2.18343;6.3353;-1.0343;0.177828;-0.376918;4.83196;2.28162;0.952551;
-7.34677;2.18387;6.33692;-1.03446;0.177446;-0.377949;4.83636;2.28253;0.952434;
-7.34958;2.18431;6.33853;-1.03461;0.177063;-0.378974;4.84075;2.28342;0.952318;
-7.35237;2.18474;6.34013;-1.03477;0.176681;-0.379995;4.84513;2.28432;0.952204;
-7.35516;2.18518;6.34172;-1.03493;0.176299;-0.38101;4.8495;2.28521;0.95209;
-7.35793;2.18561;6.34331;-1.03509;0.175916;-0.382019;4.85385;2.2861;0.951978;
-7.3607;2.18604;6.34489;-1.03525;0.175534;-0.383024;4.8582;2.28698;0.951867;
-7.36345;2.18647;6.34646;-1.03541;0.175151;-0.384023;4.86252;2.28786;0.951757;
-7.36619;2.1869;6.34802;-1.03556;0.174769;-0.385017;4.86684;2.28874;0.951649;
-7.36892;2.18732;6.34957;-1.03572;0.174386;-0.386006;4.87114;2.28962;0.951542;
-7.37165;2.18775;6.35111;-1.03588;0.174004;-0.38699;4.87543;2.29049;0.951435;
-7.37436;2.18817;6.35265;-1.03604;0.173621;-0.387969;4.87971;2.29135;0.951331;
-7.37706;2.18859;6.35418;-1.03619;0.173238;-0.388942;4.88398;2.29222;0.951227;
-7.37975;2.18901;6.3557;-1.03635;0.172856;-0.389911;4.88823;2.29308;0.951124;
-7.38243;2.18943;6.35721;-1.03651;0.172473;-0.390874;4.89247;2.29394;0.951023;
-7.38511;2.18985;6.35872;-1.03667;0.17209;-0.391833;4.8967;2.29479;0.950923;
-7.38777;2.19026;6.36022;-1.03682;0.171708;-0.392786;4.90091;2.29564;0.950823;
-7.39042;2.19068;6.3617;-1.03698;0.171325;-0.393735;4.90512;2.29649;0.950726;
-7.39306;2.19109;6.36319;-1.03714;0.170942;-0.394679;4.90931;2.29733;0.950629;
-7.39569;2.1915;6.36466;-1.0373;0.17056;-0.395617;4.91349;2.29817;0.950533;
-7.39831;2.19191;6.36613;-1.03745;0.170177;-0.396551;4.91765;2.29901;0.950439;
-7.40093;2.19231;6.36759;-1.03761;0.169794;-0.397481;4.92181;2.29984;0.950345;
-7.40353;2.19272;6.36904;-1.03777;0.169412;-0.398405;4.92595;2.30067;0.950253;
-7.40612;2.19312;6.37048;-1.03792;0.169029;-0.399324;4.93008;2.3015;0.950162;
-7.4087;2.19352;6.37192;-1.03808;0.168647;-0.400239;4.9342;2.30232;0.950072;
-7.41128;2.19393;6.37335;-1.03824;0.168264;-0.401149;4.9383;2.30314;0.949983;
-7.41384;2.19432;6.37477;-1.03839;0.167881;-0.402054;4.9424;2.30396;0.949895;
-7.41639;2.19472;6.37618;-1.03855;0.167499;-0.402955;4.94648;2.30477;0.949808;
-7.41894;2.19512;6.37759;-1.0387;0.167116;-0.403851;4.95055;2.30558;0.949722;
-7.42147;2.19551;6.37899;-1.03886;0.166734;-0.404742;4.95461;2.30639;0.949637;
-7.424;2.19591;6.38039;-1.03902;0.166351;-0.405628;4.95866;2.30719;0.949554;
-7.42651;2.1963;6.38177;-1.03917;0.165969;-0.40651;4.96269;2.30799;0.949471;
-7.42902;2.19669;6.38315;-1.03933;0.165587;-0.407388;4.96671;2.30879;0.94939;
-7.43152;2.19708;6.38452;-1.03948;0.165204;-0.408261;4.97072;2.30959;0.949309;
-7.43401;2.19746;6.38589;-1.03964;0.164822;-0.409129;4.97472;2.31038;0.94923;
-7.43649;2.19785;6.38724;-1.03979;0.16444;-0.409993;4.97871;2.31117;0.949152;
-7.43896;2.19823;6.3886;-1.03995;0.164057;-0.410852;4.98269;2.31195;0.949074;
-7.44142;2.19862;6.38994;-1.0401;0.163675;-0.411707;4.98665;2.31274;0.948998;
-7.44387;2.199;6.39128;-1.04026;0.163293;-0.412557;4.99061;2.31352;0.948923;
-7.44631;2.19938;6.39261;-1.04041;0.162911;-0.413403;4.99455;2.31429;0.948848;
-7.44874;2.19976;6.39393;-1.04057;0.162529;-0.414245;4.99848;2.31507;0.948775;
-7.45117;2.20013;6.39525;-1.04072;0.162148;-0.415082;5.0024;2.31584;0.948703;
-7.45359;2.20051;6.39656;-1.04088;0.161766;-0.415915;5.0063;2.3166;0.948631;
-7.45599;2.20088;6.39786;-1.04103;0.161384;-0.416743;5.0102;2.31737;0.948561;
-7.45839;2.20125;6.39916;-1.04118;0.161002;-0.417567;5.01408;2.31813;0.948492;
-7.46078;2.20163;6.40045;-1.04134;0.160621;-0.418387;5.01796;2.31889;0.948423;
-7.46316;2.20199;6.40173;-1.04149;0.160239;-0.419203;5.02182;2.31964;0.948356;
-7.46553;2.20236;6.40301;-1.04164;0.159858;-0.420015;5.02567;2.32039;0.94829;
-7.46789;2.20273;6.40428;-1.0418;0.159477;-0.420822;5.02951;2.32114;0.948224;
-7.47025;2.2031;6.40554;-1.04195;0.159096;-0.421625;5.03334;2.32189;0.94816;
-7.47259;2.20346;6.4068;-1.0421;0.158714;-0.422424;5.03716;2.32263;0.948096;
-7.47493;2.20382;6.40805;-1.04226;0.158333;-0.423218;5.04096;2.32337;0.948033;
-7.47726;2.20418;6.4093;-1.04241;0.157952;-0.424009;5.04476;2.32411;0.947972;
-7.47958;2.20454;6.41054;-1.04256;0.157572;-0.424795;5.04854;2.32485;0.947911;
-7.48189;2.2049;6.41177;-1.04272;0.157191;-0.425578;5.05232;2.32558;0.947851;
-7.48419;2.20526;6.413;-1.04287;0.15681;-0.426356;5.05608;2.32631;0.947792;
-7.48649;2.20561;6.41422;-1.04302;0.15643;-0.42713;5.05983;2.32703;0.947734;
-7.48878;2.20597;6.41543;-1.04317;0.15605;-0.4279;5.06357;2.32776;0.947677;
-7.49105;2.20632;6.41664;-1.04332;0.155669;-0.428666;5.0673;2.32848;0.947621;
-7.49332;2.20667;6.41784;-1.04348;0.155289;-0.429429;5.07102;2.32919;0.947565;
-7.49558;2.20702;6.41904;-1.04363;0.154909;-0.430187;5.07473;2.32991;0.947511;
-7.49784;2.20737;6.42023;-1.04378;0.154529;-0.430941;5.07843;2.33062;0.947457;
-7.50008;2.20772;6.42141;-1.04393;0.15415;-0.431691;5.08212;2.33133;0.947405;
-7.50232;2.20807;6.42259;-1.04408;0.15377;-0.432438;5.08579;2.33204;0.947353;
-7.50455;2.20841;6.42376;-1.04423;0.153391;-0.433181;5.08946;2.33274;0.947302;
-7.50677;2.20875;6.42493;-1.04438;0.153011;-0.433919;5.09312;2.33344;0.947252;
-7.50898;2.2091;6.42609;-1.04453;0.152632;-0.434654;5.09676;2.33414;0.947203;
-7.51119;2.20944;6.42725;-1.04468;0.152253;-0.435385;5.10039;2.33484;0.947154;
-7.51338;2.20978;6.42839;-1.04483;0.151874;-0.436112;5.10402;2.33553;0.947107;
-7.51557;2.21012;6.42954;-1.04498;0.151495;-0.436836;5.10763;2.33622;0.94706;
-7.51775;2.21045;6.43067;-1.04513;0.151117;-0.437555;5.11123;2.33691;0.947015;
-7.51993;2.21079;6.43181;-1.04528;0.150738;-0.438271;5.11483;2.33759;0.94697;
-7.52209;2.21112;6.43293;-1.04543;0.15036;-0.438983;5.11841;2.33827;0.946925;
-7.52425;2.21146;6.43405;-1.04558;0.149982;-0.439692;5.12198;2.33895;0.946882;
-7.5264;2.21179;6.43517;-1.04573;0.149604;-0.440397;5.12554;2.33963;0.946839;
-7.52854;2.21212;6.43628;-1.04588;0.149226;-0.441098;5.12909;2.34031;0.946798;
-7.53068;2.21245;6.43738;-1.04603;0.148848;-0.441795;5.13264;2.34098;0.946757;
-7.5328;2.21278;6.43848;-1.04618;0.148471;-0.442489;5.13617;2.34165;0.946717;
-7.53492;2.2131;6.43957;-1.04632;0.148093;-0.443179;5.13969;2.34231;0.946677;
-7.53703;2.21343;6.44066;-1.04647;0.147716;-0.443866;5.1432;2.34298;0.946639;
-7.53914;2.21375;6.44174;-1.04662;0.147339;-0.444549;5.1467;2.34364;0.946601;
-7.54123;2.21408;6.44282;-1.04677;0.146963;-0.445228;5.15019;2.3443;0.946564;
-7.54332;2.2144;6.44389;-1.04692;0.146586;-0.445904;5.15367;2.34495;0.946528;
-7.5454;2.21472;6.44496;-1.04706;0.14621;-0.446577;5.15714;2.34561;0.946493;
-7.54748;2.21504;6.44602;-1.04721;0.145833;-0.447246;5.1606;2.34626;0.946458;
-7.54954;2.21536;6.44707;-1.04736;0.145457;-0.447911;5.16405;2.34691;0.946424;
-7.5516;2.21567;6.44812;-1.0475;0.145081;-0.448573;5.16749;2.34755;0.946391;
-7.55365;2.21599;6.44917;-1.04765;0.144706;-0.449232;5.17092;2.3482;0.946359;
-7.5557;2.2163;6.45021;-1.0478;0.14433;-0.449887;5.17435;2.34884;0.946327;
-7.55774;2.21662;6.45124;-1.04794;0.143955;-0.450538;5.17776;2.34948;0.946296;
-7.55977;2.21693;6.45227;-1.04809;0.14358;-0.451186;5.18116;2.35011;0.946266;
-7.56179;2.21724;6.4533;-1.04824;0.143205;-0.451831;5.18455;2.35075;0.946237;
-7.5638;2.21755;6.45431;-1.04838;0.14283;-0.452473;5.18793;2.35138;0.946208;
-7.56581;2.21786;6.45533;-1.04853;0.142456;-0.453111;5.19131;2.35201;0.94618;
-7.56781;2.21817;6.45634;-1.04867;0.142082;-0.453746;5.19467;2.35263;0.946153;
-7.56981;2.21847;6.45734;-1.04882;0.141708;-0.454377;5.19802;2.35326;0.946126;
-7.5718;2.21878;6.45834;-1.04896;0.141334;-0.455005;5.20136;2.35388;0.9461;
-7.57378;2.21908;6.45934;-1.04911;0.14096;-0.45563;5.2047;2.3545;0.946075;
-7.57575;2.21938;6.46033;-1.04925;0.140587;-0.456252;5.20802;2.35511;0.946051;
-7.57771;2.21969;6.46131;-1.0494;0.140214;-0.45687;5.21134;2.35573;0.946027;
-7.57967;2.21999;6.46229;-1.04954;0.139841;-0.457486;5.21464;2.35634;0.946004;
-7.58163;2.22029;6.46327;-1.04968;0.139468;-0.458098;5.21794;2.35695;0.945982;
-7.58357;2.22058;6.46424;-1.04983;0.139096;-0.458706;5.22123;2.35756;0.94596;
-7.58551;2.22088;6.4652;-1.04997;0.138723;-0.459312;5.2245;2.35816;0.945939;
-7.58744;2.22118;6.46616;-1.05011;0.138351;-0.459914;5.22777;2.35877;0.945919;
-7.58937;2.22147;6.46712;-1.05026;0.13798;-0.460514;5.23103;2.35937;0.945899;
-7.59128;2.22176;6.46807;-1.0504;0.137608;-0.46111;5.23428;2.35996;0.94588;
-7.5932;2.22206;6.46902;-1.05054;0.137237;-0.461703;5.23752;2.36056;0.945862;
-7.5951;2.22235;6.46996;-1.05068;0.136866;-0.462293;5.24075;2.36115;0.945844;
-7.597;2.22264;6.4709;-1.05083;0.136495;-0.46288;5.24397;2.36175;0.945827;
-7.59889;2.22293;6.47183;-1.05097;0.136124;-0.463464;5.24718;2.36233;0.945811;
-7.60077;2.22322;6.47276;-1.05111;0.135754;-0.464044;5.25039;2.36292;0.945795;
-7.60265;2.2235;6.47368;-1.05125;0.135384;-0.464622;5.25358;2.36351;0.94578;
-7.60452;2.22379;6.4746;-1.05139;0.135014;-0.465197;5.25677;2.36409;0.945766;
-7.60639;2.22407;6.47552;-1.05153;0.134645;-0.465768;5.25994;2.36467;0.945752;
-7.60825;2.22436;6.47643;-1.05167;0.134275;-0.466337;5.26311;2.36525;0.945739;
-7.6101;2.22464;6.47733;-1.05181;0.133906;-0.466903;5.26627;2.36582;0.945726;
-7.61194;2.22492;6.47823;-1.05196;0.133537;-0.467466;5.26941;2.36639;0.945715;
-7.61378;2.2252;6.47913;-1.0521;0.133169;-0.468025;5.27255;2.36697;0.945703;
-7.61561;2.22548;6.48002;-1.05224;0.132801;-0.468582;5.27569;2.36754;0.945693;
-7.61744;2.22576;6.48091;-1.05238;0.132433;-0.469136;5.27881;2.3681;0.945682;
-7.61926;2.22604;6.4818;-1.05251;0.132065;-0.469687;5.28192;2.36867;0.945673;
-7.62107;2.22631;6.48267;-1.05265;0.131697;-0.470236;5.28502;2.36923;0.945664;
-7.62288;2.22659;6.48355;-1.05279;0.13133;-0.470781;5.28812;2.36979;0.945656;
-7.62468;2.22686;6.48442;-1.05293;0.130963;-0.471323;5.29121;2.37035;0.945648;
-7.62648;2.22713;6.48529;-1.05307;0.130597;-0.471863;5.29428;2.3709;0.945641;
-7.62826;2.22741;6.48615;-1.05321;0.13023;-0.4724;5.29735;2.37146;0.945634;
-7.63005;2.22768;6.48701;-1.05335;0.129864;-0.472934;5.30041;2.37201;0.945628;
-7.63182;2.22795;6.48786;-1.05349;0.129498;-0.473465;5.30347;2.37256;0.945623;
-7.63359;2.22821;6.48871;-1.05362;0.129133;-0.473994;5.30651;2.37311;0.945618;
-7.63536;2.22848;6.48956;-1.05376;0.128768;-0.474519;5.30954;2.37365;0.945614;
-7.63711;2.22875;6.4904;-1.0539;0.128403;-0.475042;5.31257;2.3742;0.94561;
-7.63886;2.22901;6.49124;-1.05404;0.128038;-0.475562;5.31559;2.37474;0.945607;
-7.64061;2.22928;6.49207;-1.05417;0.127674;-0.47608;5.3186;2.37528;0.945604;
-7.64235;2.22954;6.4929;-1.05431;0.12731;-0.476595;5.3216;2.37581;0.945602;
-7.64408;2.22981;6.49373;-1.05445;0.126946;-0.477107;5.32459;2.37635;0.945601;
-7.64581;2.23007;6.49455;-1.05458;0.126582;-0.477616;5.32757;2.37688;0.9456;
-7.64753;2.23033;6.49537;-1.05472;0.126219;-0.478123;5.33055;2.37741;0.9456;
-7.64925;2.23059;6.49618;-1.05485;0.125856;-0.478627;5.33351;2.37794;0.9456;
-7.65096;2.23085;6.49699;-1.05499;0.125494;-0.479128;5.33647;2.37847;0.9456;
-7.65266;2.2311;6.4978;-1.05512;0.125132;-0.479627;5.33942;2.379;0.945602;
-7.65436;2.23136;6.4986;-1.05526;0.12477;-0.480123;5.34236;2.37952;0.945603;
-7.65605;2.23162;6.4994;-1.05539;0.124408;-0.480617;5.34529;2.38004;0.945606;
-7.65773;2.23187;6.50019;-1.05553;0.124047;-0.481108;5.34822;2.38056;0.945608;
-7.65941;2.23213;6.50098;-1.05566;0.123686;-0.481596;5.35113;2.38108;0.945612;
-7.66109;2.23238;6.50177;-1.0558;0.123325;-0.482082;5.35404;2.38159;0.945615;
-7.66276;2.23263;6.50255;-1.05593;0.122964;-0.482565;5.35694;2.38211;0.94562;
-7.66442;2.23288;6.50333;-1.05606;0.122604;-0.483046;5.35983;2.38262;0.945624;
-7.66608;2.23313;6.50411;-1.0562;0.122245;-0.483524;5.36272;2.38313;0.94563;
-7.66773;2.23338;6.50488;-1.05633;0.121885;-0.484;5.36559;2.38363;0.945636;
-7.66938;2.23363;6.50565;-1.05646;0.121526;-0.484473;5.36846;2.38414;0.945642;
-7.67102;2.23387;6.50641;-1.0566;0.121167;-0.484944;5.37132;2.38464;0.945649;
-7.67265;2.23412;6.50717;-1.05673;0.120809;-0.485412;5.37417;2.38515;0.945656;
-7.67428;2.23437;6.50793;-1.05686;0.120451;-0.485878;5.37701;2.38565;0.945664;
-7.6759;2.23461;6.50868;-1.05699;0.120093;-0.486342;5.37985;2.38614;0.945672;
-7.67752;2.23485;6.50943;-1.05713;0.119735;-0.486803;5.38268;2.38664;0.94568;
-7.67913;2.2351;6.51018;-1.05726;0.119378;-0.487261;5.38549;2.38713;0.94569;
-7.68074;2.23534;6.51092;-1.05739;0.119021;-0.487717;5.38831;2.38763;0.945699;
-7.68234;2.23558;6.51166;-1.05752;0.118665;-0.488171;5.39111;2.38812;0.945709;
-7.68394;2.23582;6.5124;-1.05765;0.118309;-0.488622;5.3939;2.38861;0.94572;
-7.68553;2.23606;6.51313;-1.05778;0.117953;-0.489071;5.39669;2.38909;0.945731;
-7.68711;2.23629;6.51386;-1.05791;0.117597;-0.489518;5.39947;2.38958;0.945742;
-7.68869;2.23653;6.51458;-1.05804;0.117242;-0.489962;5.40224;2.39006;0.945754;
-7.69027;2.23677;6.5153;-1.05817;0.116887;-0.490404;5.40501;2.39054;0.945767;
-7.69184;2.237;6.51602;-1.0583;0.116533;-0.490844;5.40776;2.39102;0.945779;
-7.6934;2.23724;6.51674;-1.05843;0.116179;-0.491281;5.41051;2.3915;0.945793;
-7.69496;2.23747;6.51745;-1.05856;0.115825;-0.491716;5.41325;2.39198;0.945806;
-7.69651;2.2377;6.51816;-1.05869;0.115471;-0.492149;5.41598;2.39245;0.945821;
-7.69806;2.23793;6.51886;-1.05882;0.115118;-0.49258;5.41871;2.39292;0.945835;
-7.6996;2.23816;6.51956;-1.05895;0.114766;-0.493008;5.42143;2.39339;0.94585;
-7.70114;2.23839;6.52026;-1.05907;0.114413;-0.493434;5.42414;2.39386;0.945865;
-7.70267;2.23862;6.52095;-1.0592;0.114061;-0.493857;5.42684;2.39433;0.945881;
-7.7042;2.23885;6.52165;-1.05933;0.11371;-0.494279;5.42953;2.39479;0.945898;
-7.70572;2.23908;6.52233;-1.05946;0.113358;-0.494698;5.43222;2.39526;0.945914;
-7.70724;2.2393;6.52302;-1.05958;0.113007;-0.495115;5.4349;2.39572;0.945931;
-7.70875;2.23953;6.5237;-1.05971;0.112657;-0.49553;5.43757;2.39618;0.945949;
-7.71025;2.23975;6.52438;-1.05984;0.112306;-0.495943;5.44024;2.39664;0.945967;
-7.71175;2.23998;6.52505;-1.05996;0.111957;-0.496353;5.4429;2.3971;0.945985;
-7.71325;2.2402;6.52572;-1.06009;0.111607;-0.496762;5.44554;2.39755;0.946004;
-7.71474;2.24042;6.52639;-1.06022;0.111258;-0.497168;5.44819;2.398;0.946023;
-7.71623;2.24064;6.52706;-1.06034;0.110909;-0.497572;5.45082;2.39845;0.946042;
-7.71771;2.24086;6.52772;-1.06047;0.110561;-0.497974;5.45345;2.3989;0.946062;
-7.71919;2.24108;6.52838;-1.06059;0.110213;-0.498374;5.45607;2.39935;0.946083;
-7.72066;2.2413;6.52903;-1.06072;0.109865;-0.498772;5.45868;2.3998;0.946103;
-7.72212;2.24152;6.52969;-1.06084;0.109518;-0.499167;5.46129;2.40024;0.946124;
-7.72358;2.24174;6.53034;-1.06097;0.109171;-0.499561;5.46388;2.40069;0.946146;
-7.72504;2.24195;6.53098;-1.06109;0.108824;-0.499952;5.46648;2.40113;0.946167;
-7.72649;2.24217;6.53163;-1.06122;0.108478;-0.500342;5.46906;2.40157;0.94619;
-7.72794;2.24238;6.53227;-1.06134;0.108132;-0.500729;5.47164;2.40201;0.946212;
-7.72938;2.2426;6.53291;-1.06147;0.107787;-0.501114;5.4742;2.40244;0.946235;
-7.73082;2.24281;6.53354;-1.06159;0.107442;-0.501498;5.47677;2.40288;0.946258;
-7.73225;2.24302;6.53417;-1.06171;0.107097;-0.501879;5.47932;2.40331;0.946282;
-7.73368;2.24323;6.5348;-1.06183;0.106753;-0.502258;5.48187;2.40374;0.946306;
-7.7351;2.24344;6.53543;-1.06196;0.106409;-0.502635;5.48441;2.40417;0.94633;
-7.73652;2.24365;6.53605;-1.06208;0.106065;-0.503011;5.48694;2.4046;0.946355;
-7.73793;2.24386;6.53667;-1.0622;0.105722;-0.503384;5.48947;2.40503;0.94638;
-7.73934;2.24407;6.53728;-1.06232;0.105379;-0.503755;5.49199;2.40546;0.946406;
-7.74074;2.24428;6.5379;-1.06245;0.105037;-0.504125;5.4945;2.40588;0.946431;
-7.74214;2.24448;6.53851;-1.06257;0.104695;-0.504492;5.497;2.4063;0.946458;
-7.74354;2.24469;6.53912;-1.06269;0.104353;-0.504858;5.4995;2.40672;0.946484;
-7.74492;2.24489;6.53972;-1.06281;0.104012;-0.505221;5.50199;2.40714;0.946511;
-7.74631;2.2451;6.54032;-1.06293;0.103671;-0.505583;5.50448;2.40756;0.946538;
-7.74769;2.2453;6.54092;-1.06305;0.103331;-0.505943;5.50695;2.40797;0.946565;
-7.74907;2.2455;6.54152;-1.06317;0.102991;-0.5063;5.50943;2.40839;0.946593;
-7.75044;2.24571;6.54211;-1.06329;0.102651;-0.506656;5.51189;2.4088;0.946621;
-7.7518;2.24591;6.5427;-1.06341;0.102312;-0.50701;5.51434;2.40921;0.94665;
-7.75317;2.24611;6.54329;-1.06353;0.101973;-0.507363;5.51679;2.40962;0.946679;
-7.75452;2.24631;6.54388;-1.06365;0.101634;-0.507713;5.51924;2.41003;0.946708;
-7.75588;2.24651;6.54446;-1.06377;0.101296;-0.508061;5.52167;2.41044;0.946737;
-7.75722;2.2467;6.54504;-1.06389;0.100959;-0.508408;5.5241;2.41084;0.946767;
-7.75857;2.2469;6.54562;-1.06401;0.100621;-0.508753;5.52652;2.41125;0.946797;
-7.75991;2.2471;6.54619;-1.06413;0.100284;-0.509096;5.52894;2.41165;0.946827;
-7.76124;2.24729;6.54677;-1.06424;0.099948;-0.509437;5.53135;2.41205;0.946858;
-7.76257;2.24749;6.54733;-1.06436;0.0996119;-0.509777;5.53375;2.41245;0.946889;
-7.7639;2.24768;6.5479;-1.06448;0.0992762;-0.510114;5.53615;2.41285;0.94692;
-7.76522;2.24788;6.54846;-1.0646;0.098941;-0.51045;5.53854;2.41324;0.946952;
-7.76654;2.24807;6.54903;-1.06471;0.0986061;-0.510784;5.54092;2.41364;0.946983;
-7.76785;2.24826;6.54958;-1.06483;0.0982717;-0.511116;5.54329;2.41403;0.947016;
-7.76916;2.24845;6.55014;-1.06495;0.0979376;-0.511447;5.54566;2.41442;0.947048;
-7.77047;2.24864;6.55069;-1.06506;0.097604;-0.511775;5.54802;2.41482;0.947081;
-7.77177;2.24883;6.55124;-1.06518;0.0972707;-0.512102;5.55038;2.4152;0.947114;
-7.77306;2.24902;6.55179;-1.0653;0.0969379;-0.512428;5.55273;2.41559;0.947147;
-7.77435;2.24921;6.55234;-1.06541;0.0966055;-0.512751;5.55507;2.41598;0.947181;
-7.77564;2.2494;6.55288;-1.06553;0.0962735;-0.513073;5.55741;2.41636;0.947215;
-7.77693;2.24959;6.55342;-1.06564;0.0959419;-0.513393;5.55974;2.41675;0.947249;
-7.7782;2.24977;6.55396;-1.06576;0.0956107;-0.513712;5.56206;2.41713;0.947283;
-7.77948;2.24996;6.5545;-1.06587;0.0952799;-0.514028;5.56438;2.41751;0.947318;
-7.78075;2.25014;6.55503;-1.06599;0.0949496;-0.514344;5.56669;2.41789;0.947353;
-7.78202;2.25033;6.55556;-1.0661;0.0946196;-0.514657;5.56899;2.41827;0.947388;
-7.78328;2.25051;6.55609;-1.06622;0.0942901;-0.514969;5.57129;2.41864;0.947423;
-7.78454;2.25069;6.55661;-1.06633;0.093961;-0.515279;5.57358;2.41902;0.947459;
-7.78579;2.25088;6.55714;-1.06644;0.0936323;-0.515587;5.57586;2.41939;0.947495;
-7.78704;2.25106;6.55766;-1.06656;0.0933041;-0.515894;5.57814;2.41976;0.947532;
-7.78829;2.25124;6.55817;-1.06667;0.0929762;-0.516199;5.58041;2.42013;0.947568;
-7.78953;2.25142;6.55869;-1.06678;0.0926488;-0.516503;5.58268;2.4205;0.947605;
-7.79076;2.2516;6.5592;-1.0669;0.0923218;-0.516805;5.58494;2.42087;0.947642;
-7.792;2.25178;6.55972;-1.06701;0.0919952;-0.517105;5.58719;2.42124;0.947679;
-7.79323;2.25195;6.56022;-1.06712;0.091669;-0.517404;5.58944;2.4216;0.947717;
-7.79445;2.25213;6.56073;-1.06723;0.0913433;-0.517701;5.59168;2.42197;0.947755;
-7.79567;2.25231;6.56123;-1.06734;0.091018;-0.517997;5.59391;2.42233;0.947793;
-7.79689;2.25248;6.56174;-1.06746;0.0906931;-0.518291;5.59614;2.42269;0.947831;
-7.7981;2.25266;6.56224;-1.06757;0.0903686;-0.518583;5.59836;2.42305;0.947869;
-7.79931;2.25283;6.56273;-1.06768;0.0900446;-0.518874;5.60058;2.42341;0.947908;
-7.80052;2.25301;6.56323;-1.06779;0.089721;-0.519164;5.60279;2.42377;0.947947;
-7.80172;2.25318;6.56372;-1.0679;0.0893978;-0.519452;5.60499;2.42413;0.947986;
-7.80292;2.25335;6.56421;-1.06801;0.089075;-0.519738;5.60719;2.42448;0.948026;
-7.80411;2.25353;6.5647;-1.06812;0.0887527;-0.520023;5.60938;2.42483;0.948066;
-7.8053;2.2537;6.56518;-1.06823;0.0884308;-0.520306;5.61157;2.42519;0.948105;
-7.80649;2.25387;6.56567;-1.06834;0.0881093;-0.520588;5.61375;2.42554;0.948146;
-7.80767;2.25404;6.56615;-1.06845;0.0877883;-0.520868;5.61592;2.42589;0.948186;
-7.80885;2.25421;6.56663;-1.06856;0.0874676;-0.521147;5.61809;2.42624;0.948227;
-7.81002;2.25438;6.5671;-1.06867;0.0871475;-0.521424;5.62025;2.42658;0.948267;
-7.81119;2.25455;6.56758;-1.06878;0.0868277;-0.5217;5.6224;2.42693;0.948308;
-7.81236;2.25471;6.56805;-1.06888;0.0865084;-0.521974;5.62455;2.42727;0.94835;
-7.81352;2.25488;6.56852;-1.06899;0.0861895;-0.522247;5.6267;2.42762;0.948391;
-7.81468;2.25505;6.56899;-1.0691;0.0858711;-0.522519;5.62883;2.42796;0.948433;
-7.81584;2.25521;6.56945;-1.06921;0.0855531;-0.522789;5.63097;2.4283;0.948475;
-7.81699;2.25538;6.56992;-1.06932;0.0852355;-0.523057;5.63309;2.42864;0.948517;
-7.81814;2.25554;6.57038;-1.06942;0.0849183;-0.523324;5.63521;2.42898;0.948559;
-7.81928;2.2557;6.57084;-1.06953;0.0846016;-0.52359;5.63732;2.42932;0.948601;
-7.82042;2.25587;6.57129;-1.06964;0.0842854;-0.523854;5.63943;2.42965;0.948644;
-7.82156;2.25603;6.57175;-1.06974;0.0839695;-0.524117;5.64153;2.42999;0.948687;
-7.82269;2.25619;6.5722;-1.06985;0.0836541;-0.524379;5.64363;2.43032;0.94873;
-7.82382;2.25635;6.57265;-1.06996;0.0833392;-0.524639;5.64572;2.43065;0.948773;
-7.82495;2.25651;6.5731;-1.07006;0.0830247;-0.524898;5.64781;2.43098;0.948817;
-7.82607;2.25667;6.57355;-1.07017;0.0827106;-0.525155;5.64988;2.43131;0.94886;
-7.82719;2.25683;6.57399;-1.07027;0.0823969;-0.525411;5.65196;2.43164;0.948904;
-7.8283;2.25699;6.57444;-1.07038;0.0820837;-0.525665;5.65403;2.43197;0.948948;
-7.82941;2.25715;6.57488;-1.07048;0.081771;-0.525919;5.65609;2.4323;0.948993;
-7.83052;2.25731;6.57532;-1.07059;0.0814587;-0.526171;5.65814;2.43262;0.949037;
-7.83163;2.25747;6.57575;-1.07069;0.0811468;-0.526421;5.66019;2.43295;0.949082;
-7.83273;2.25762;6.57619;-1.0708;0.0808353;-0.52667;5.66224;2.43327;0.949126;
-7.83382;2.25778;6.57662;-1.0709;0.0805244;-0.526918;5.66428;2.43359;0.949171;
-7.83492;2.25793;6.57705;-1.071;0.0802138;-0.527165;5.66631;2.43391;0.949216;
-7.83601;2.25809;6.57748;-1.07111;0.0799037;-0.52741;5.66834;2.43423;0.949262;
-7.83709;2.25824;6.5779;-1.07121;0.079594;-0.527654;5.67036;2.43455;0.949307;
-7.83818;2.2584;6.57833;-1.07131;0.0792848;-0.527897;5.67238;2.43487;0.949353;
-7.83926;2.25855;6.57875;-1.07142;0.0789761;-0.528138;5.67439;2.43518;0.949399;
-7.84033;2.2587;6.57917;-1.07152;0.0786677;-0.528378;5.67639;2.4355;0.949445;
-7.84141;2.25885;6.57959;-1.07162;0.0783599;-0.528617;5.67839;2.43581;0.949491;
-7.84247;2.25901;6.58001;-1.07172;0.0780524;-0.528854;5.68039;2.43612;0.949537;
-7.84354;2.25916;6.58042;-1.07182;0.0777454;-0.52909;5.68238;2.43643;0.949584;
-7.8446;2.25931;6.58084;-1.07193;0.0774389;-0.529325;5.68436;2.43674;0.94963;
-7.84566;2.25946;6.58125;-1.07203;0.0771328;-0.529559;5.68634;2.43705;0.949677;
-7.84672;2.2596;6.58166;-1.07213;0.0768271;-0.529791;5.68831;2.43736;0.949724;
-7.84777;2.25975;6.58206;-1.07223;0.0765219;-0.530023;5.69028;2.43767;0.949771;
-7.84882;2.2599;6.58247;-1.07233;0.0762172;-0.530252;5.69224;2.43797;0.949818;
-7.84986;2.26005;6.58287;-1.07243;0.0759129;-0.530481;5.6942;2.43828;0.949866;
-7.8509;2.2602;6.58328;-1.07253;0.075609;-0.530709;5.69615;2.43858;0.949913;
-7.85194;2.26034;6.58368;-1.07263;0.0753056;-0.530935;5.69809;2.43888;0.949961;
-7.85298;2.26049;6.58407;-1.07273;0.0750027;-0.53116;5.70004;2.43919;0.950009;
-7.85401;2.26063;6.58447;-1.07283;0.0747002;-0.531384;5.70197;2.43949;0.950057;
-7.85504;2.26078;6.58486;-1.07293;0.0743981;-0.531607;5.7039;2.43979;0.950105;
-7.85607;2.26092;6.58526;-1.07303;0.0740965;-0.531828;5.70582;2.44008;0.950154;
-7.85709;2.26106;6.58565;-1.07313;0.0737953;-0.532048;5.70774;2.44038;0.950202;
-7.85811;2.26121;6.58604;-1.07323;0.0734946;-0.532267;5.70966;2.44068;0.950251;
-7.85912;2.26135;6.58643;-1.07333;0.0731944;-0.532485;5.71157;2.44097;0.950299;
-7.86013;2.26149;6.58681;-1.07342;0.0728946;-0.532702;5.71347;2.44127;0.950348;
-7.86114;2.26163;6.58719;-1.07352;0.0725952;-0.532918;5.71537;2.44156;0.950397;
-7.86215;2.26177;6.58758;-1.07362;0.0722963;-0.533132;5.71726;2.44185;0.950446;
-7.86315;2.26191;6.58796;-1.07372;0.0719979;-0.533345;5.71915;2.44214;0.950496;
-7.86415;2.26205;6.58834;-1.07382;0.0716999;-0.533557;5.72103;2.44243;0.950545;
-7.86515;2.26219;6.58871;-1.07391;0.0714023;-0.533768;5.72291;2.44272;0.950595;
-7.86614;2.26233;6.58909;-1.07401;0.0711053;-0.533978;5.72478;2.44301;0.950644;
-7.86713;2.26247;6.58946;-1.07411;0.0708086;-0.534187;5.72665;2.44329;0.950694;
-7.86812;2.26261;6.58983;-1.0742;0.0705124;-0.534395;5.72851;2.44358;0.950744;
-7.8691;2.26275;6.5902;-1.0743;0.0702167;-0.534601;5.73036;2.44386;0.950794;
-7.87008;2.26288;6.59057;-1.0744;0.0699214;-0.534806;5.73222;2.44415;0.950844;
-7.87106;2.26302;6.59094;-1.07449;0.0696266;-0.535011;5.73406;2.44443;0.950894;
-7.87203;2.26315;6.5913;-1.07459;0.0693322;-0.535214;5.7359;2.44471;0.950945;
-7.87301;2.26329;6.59167;-1.07468;0.0690383;-0.535416;5.73774;2.44499;0.950995;
-7.87397;2.26342;6.59203;-1.07478;0.0687449;-0.535617;5.73957;2.44527;0.951046;
-7.87494;2.26356;6.59239;-1.07487;0.0684519;-0.535817;5.7414;2.44555;0.951097;
-7.8759;2.26369;6.59275;-1.07497;0.0681593;-0.536016;5.74322;2.44583;0.951148;
-7.87686;2.26382;6.5931;-1.07506;0.0678672;-0.536213;5.74504;2.4461;0.951199;
-7.87782;2.26396;6.59346;-1.07516;0.0675756;-0.53641;5.74685;2.44638;0.95125;
-7.87877;2.26409;6.59381;-1.07525;0.0672844;-0.536606;5.74865;2.44665;0.951301;
-7.87972;2.26422;6.59417;-1.07534;0.0669937;-0.5368;5.75045;2.44693;0.951352;
-7.88067;2.26435;6.59452;-1.07544;0.0667034;-0.536994;5.75225;2.4472;0.951404;
-7.88161;2.26448;6.59486;-1.07553;0.0664136;-0.537186;5.75404;2.44747;0.951455;
-7.88255;2.26461;6.59521;-1.07562;0.0661242;-0.537378;5.75583;2.44774;0.951507;
-7.88349;2.26474;6.59556;-1.07572;0.0658353;-0.537568;5.75761;2.44801;0.951559;
-7.88442;2.26487;6.5959;-1.07581;0.0655469;-0.537758;5.75939;2.44828;0.95161;
-7.88536;2.265;6.59624;-1.0759;0.0652589;-0.537946;5.76116;2.44855;0.951662;
-7.88629;2.26513;6.59658;-1.076;0.0649713;-0.538133;5.76293;2.44881;0.951714;
-7.88721;2.26526;6.59692;-1.07609;0.0646843;-0.53832;5.76469;2.44908;0.951766;
-7.88813;2.26538;6.59726;-1.07618;0.0643976;-0.538505;5.76645;2.44935;0.951819;
-7.88906;2.26551;6.5976;-1.07627;0.0641115;-0.538689;5.7682;2.44961;0.951871;
-7.88997;2.26564;6.59793;-1.07636;0.0638258;-0.538873;5.76995;2.44987;0.951923;
-7.89089;2.26576;6.59827;-1.07645;0.0635405;-0.539055;5.77169;2.45013;0.951976;
-7.8918;2.26589;6.5986;-1.07655;0.0632557;-0.539236;5.77343;2.4504;0.952029;
-7.89271;2.26601;6.59893;-1.07664;0.0629714;-0.539417;5.77516;2.45066;0.952081;
-7.89361;2.26614;6.59926;-1.07673;0.0626875;-0.539596;5.77689;2.45092;0.952134;
-7.89452;2.26626;6.59959;-1.07682;0.0624041;-0.539774;5.77862;2.45117;0.952187;
-7.89542;2.26638;6.59991;-1.07691;0.0621211;-0.539952;5.78033;2.45143;0.95224;
-7.89631;2.26651;6.60024;-1.077;0.0618386;-0.540128;5.78205;2.45169;0.952293;
-7.89721;2.26663;6.60056;-1.07709;0.0615565;-0.540304;5.78376;2.45194;0.952346;
-7.8981;2.26675;6.60088;-1.07718;0.0612749;-0.540478;5.78546;2.4522;0.952399;
-7.89899;2.26687;6.6012;-1.07727;0.0609938;-0.540652;5.78717;2.45245;0.952452;
-7.89988;2.26699;6.60152;-1.07736;0.0607131;-0.540825;5.78886;2.45271;0.952506;
-7.90076;2.26712;6.60184;-1.07744;0.0604329;-0.540997;5.79055;2.45296;0.952559;
-7.90164;2.26724;6.60215;-1.07753;0.0601531;-0.541167;5.79224;2.45321;0.952613;
-7.90252;2.26736;6.60247;-1.07762;0.0598738;-0.541337;5.79392;2.45346;0.952666;
-7.90339;2.26748;6.60278;-1.07771;0.0595949;-0.541506;5.7956;2.45371;0.95272;
-7.90427;2.26759;6.60309;-1.0778;0.0593166;-0.541674;5.79727;2.45396;0.952774;
-7.90514;2.26771;6.6034;-1.07789;0.0590386;-0.541841;5.79894;2.4542;0.952828;
-7.906;2.26783;6.60371;-1.07797;0.0587611;-0.542008;5.8006;2.45445;0.952882;
-7.90687;2.26795;6.60402;-1.07806;0.0584841;-0.542173;5.80226;2.4547;0.952935;
-7.90773;2.26807;6.60432;-1.07815;0.0582075;-0.542337;5.80392;2.45494;0.95299;
-7.90859;2.26818;6.60463;-1.07824;0.0579314;-0.542501;5.80557;2.45519;0.953044;
-7.90944;2.2683;6.60493;-1.07832;0.0576558;-0.542664;5.80721;2.45543;0.953098;
-7.9103;2.26841;6.60523;-1.07841;0.0573806;-0.542825;5.80886;2.45567;0.953152;
-7.91115;2.26853;6.60553;-1.0785;0.0571058;-0.542986;5.81049;2.45591;0.953206;
-7.912;2.26865;6.60583;-1.07858;0.0568316;-0.543146;5.81212;2.45615;0.953261;
-7.91284;2.26876;6.60613;-1.07867;0.0565577;-0.543305;5.81375;2.45639;0.953315;
-7.91368;2.26887;6.60642;-1.07875;0.0562844;-0.543464;5.81538;2.45663;0.95337;
-7.91452;2.26899;6.60672;-1.07884;0.0560115;-0.543621;5.817;2.45687;0.953424;
-7.91536;2.2691;6.60701;-1.07892;0.055739;-0.543778;5.81861;2.45711;0.953479;
-7.9162;2.26921;6.60731;-1.07901;0.055467;-0.543933;5.82022;2.45735;0.953533;
-7.91703;2.26933;6.6076;-1.07909;0.0551955;-0.544088;5.82183;2.45758;0.953588;
-7.91786;2.26944;6.60789;-1.07918;0.0549244;-0.544242;5.82343;2.45782;0.953643;
-7.91869;2.26955;6.60818;-1.07926;0.0546538;-0.544395;5.82502;2.45805;0.953698;
-7.91951;2.26966;6.60846;-1.07935;0.0543836;-0.544548;5.82662;2.45828;0.953753;
-7.92033;2.26977;6.60875;-1.07943;0.0541139;-0.544699;5.82821;2.45852;0.953808;
-7.92115;2.26988;6.60903;-1.07952;0.0538446;-0.54485;5.82979;2.45875;0.953863;
-7.92197;2.26999;6.60932;-1.0796;0.0535758;-0.545;5.83137;2.45898;0.953918;
-7.92278;2.2701;6.6096;-1.07968;0.0533075;-0.545149;5.83294;2.45921;0.953973;
-7.9236;2.27021;6.60988;-1.07977;0.0530396;-0.545297;5.83452;2.45944;0.954028;
-7.92441;2.27032;6.61016;-1.07985;0.0527722;-0.545444;5.83608;2.45967;0.954083;
-7.92521;2.27043;6.61044;-1.07993;0.0525052;-0.545591;5.83764;2.45989;0.954138;
-7.92602;2.27054;6.61071;-1.08002;0.0522387;-0.545737;5.8392;2.46012;0.954194;
-7.92682;2.27064;6.61099;-1.0801;0.0519726;-0.545882;5.84076;2.46035;0.954249;
-7.92762;2.27075;6.61127;-1.08018;0.051707;-0.546026;5.84231;2.46057;0.954304;
-7.92841;2.27086;6.61154;-1.08026;0.0514418;-0.546169;5.84385;2.4608;0.95436;
-7.92921;2.27096;6.61181;-1.08035;0.0511771;-0.546312;5.84539;2.46102;0.954415;
-7.93;2.27107;6.61208;-1.08043;0.0509129;-0.546454;5.84693;2.46124;0.954471;
-7.93079;2.27118;6.61235;-1.08051;0.0506491;-0.546595;5.84846;2.46146;0.954526;
-7.93158;2.27128;6.61262;-1.08059;0.0503857;-0.546735;5.84999;2.46169;0.954582;
-7.93236;2.27139;6.61289;-1.08067;0.0501229;-0.546875;5.85152;2.46191;0.954638;
-7.93314;2.27149;6.61315;-1.08075;0.0498604;-0.547013;5.85304;2.46213;0.954693;
-7.93392;2.27159;6.61342;-1.08083;0.0495985;-0.547151;5.85455;2.46235;0.954749;
-7.9347;2.2717;6.61368;-1.08091;0.0493369;-0.547288;5.85607;2.46256;0.954805;
-7.93548;2.2718;6.61394;-1.08099;0.0490759;-0.547425;5.85757;2.46278;0.954861;
-7.93625;2.2719;6.61421;-1.08108;0.0488153;-0.547561;5.85908;2.463;0.954916;
-7.93702;2.27201;6.61447;-1.08116;0.0485551;-0.547696;5.86058;2.46321;0.954972;
-7.93779;2.27211;6.61473;-1.08124;0.0482954;-0.54783;5.86207;2.46343;0.955028;
-7.93855;2.27221;6.61498;-1.08131;0.0480361;-0.547963;5.86357;2.46364;0.955084;
-7.93932;2.27231;6.61524;-1.08139;0.0477773;-0.548096;5.86505;2.46386;0.95514;
-7.94008;2.27241;6.6155;-1.08147;0.047519;-0.548228;5.86654;2.46407;0.955196;
-7.94083;2.27251;6.61575;-1.08155;0.0472611;-0.54836;5.86802;2.46428;0.955252;
-7.94159;2.27261;6.616;-1.08163;0.0470037;-0.54849;5.86949;2.46449;0.955308;
-7.94234;2.27271;6.61626;-1.08171;0.0467467;-0.54862;5.87097;2.4647;0.955364;
-7.9431;2.27281;6.61651;-1.08179;0.0464901;-0.548749;5.87243;2.46491;0.95542;
-7.94384;2.27291;6.61676;-1.08187;0.0462341;-0.548878;5.8739;2.46512;0.955476;
-7.94459;2.27301;6.61701;-1.08194;0.0459784;-0.549005;5.87536;2.46533;0.955532;
-7.94534;2.27311;6.61725;-1.08202;0.0457232;-0.549132;5.87681;2.46554;0.955588;
-7.94608;2.27321;6.6175;-1.0821;0.0454685;-0.549259;5.87826;2.46575;0.955645;
-7.94682;2.2733;6.61775;-1.08218;0.0452142;-0.549384;5.87971;2.46595;0.955701;
-7.94756;2.2734;6.61799;-1.08226;0.0449604;-0.549509;5.88116;2.46616;0.955757;
-7.94829;2.2735;6.61823;-1.08233;0.044707;-0.549633;5.8826;2.46636;0.955813;
-7.94902;2.2736;6.61848;-1.08241;0.0444541;-0.549757;5.88403;2.46657;0.95587;
-7.94975;2.27369;6.61872;-1.08249;0.0442016;-0.54988;5.88546;2.46677;0.955926;
-7.95048;2.27379;6.61896;-1.08256;0.0439496;-0.550002;5.88689;2.46698;0.955982;
-7.95121;2.27388;6.6192;-1.08264;0.043698;-0.550123;5.88832;2.46718;0.956039;
-7.95193;2.27398;6.61943;-1.08272;0.0434469;-0.550244;5.88974;2.46738;0.956095;
-7.95266;2.27407;6.61967;-1.08279;0.0431962;-0.550364;5.89115;2.46758;0.956151;
-7.95338;2.27417;6.61991;-1.08287;0.042946;-0.550484;5.89257;2.46778;0.956208;
-7.95409;2.27426;6.62014;-1.08294;0.0426962;-0.550603;5.89398;2.46798;0.956264;
-7.95481;2.27436;6.62038;-1.08302;0.0424468;-0.550721;5.89538;2.46818;0.95632;
-7.95552;2.27445;6.62061;-1.08309;0.0421979;-0.550839;5.89678;2.46838;0.956377;
-7.95623;2.27454;6.62084;-1.08317;0.0419495;-0.550955;5.89818;2.46857;0.956433;
-7.95694;2.27464;6.62107;-1.08324;0.0417015;-0.551072;5.89957;2.46877;0.95649;
-7.95765;2.27473;6.6213;-1.08332;0.041454;-0.551187;5.90096;2.46897;0.956546;
-7.95835;2.27482;6.62153;-1.08339;0.0412069;-0.551302;5.90235;2.46916;0.956603;
-7.95905;2.27491;6.62176;-1.08347;0.0409602;-0.551416;5.90373;2.46936;0.956659;
-7.95975;2.275;6.62198;-1.08354;0.040714;-0.55153;5.90511;2.46955;0.956716;
-7.96045;2.27509;6.62221;-1.08362;0.0404682;-0.551643;5.90649;2.46974;0.956772;
-7.96115;2.27518;6.62244;-1.08369;0.0402229;-0.551756;5.90786;2.46994;0.956828;
-7.96184;2.27527;6.62266;-1.08376;0.0399781;-0.551867;5.90923;2.47013;0.956885;
-7.96253;2.27536;6.62288;-1.08384;0.0397336;-0.551978;5.91059;2.47032;0.956941;
-7.96322;2.27545;6.6231;-1.08391;0.0394896;-0.552089;5.91195;2.47051;0.956998;
-7.96391;2.27554;6.62332;-1.08398;0.0392461;-0.552199;5.91331;2.4707;0.957054;
-7.96459;2.27563;6.62354;-1.08406;0.039003;-0.552308;5.91466;2.47089;0.957111;
-7.96528;2.27572;6.62376;-1.08413;0.0387604;-0.552417;5.91601;2.47108;0.957168;
-7.96596;2.27581;6.62398;-1.0842;0.0385182;-0.552525;5.91735;2.47126;0.957224;
-7.96664;2.2759;6.6242;-1.08427;0.0382764;-0.552633;5.9187;2.47145;0.957281;
-7.96731;2.27599;6.62441;-1.08435;0.0380351;-0.552739;5.92003;2.47164;0.957337;
-7.96799;2.27607;6.62463;-1.08442;0.0377942;-0.552846;5.92137;2.47183;0.957394;
-7.96866;2.27616;6.62484;-1.08449;0.0375538;-0.552951;5.9227;2.47201;0.95745;
-7.96933;2.27625;6.62506;-1.08456;0.0373138;-0.553056;5.92403;2.4722;0.957507;
-7.97;2.27633;6.62527;-1.08463;0.0370742;-0.553161;5.92535;2.47238;0.957563;
-7.97067;2.27642;6.62548;-1.0847;0.0368351;-0.553265;5.92667;2.47256;0.95762;
-7.97133;2.27651;6.62569;-1.08478;0.0365965;-0.553368;5.92799;2.47275;0.957676;
-7.972;2.27659;6.6259;-1.08485;0.0363582;-0.553471;5.9293;2.47293;0.957733;
-7.97266;2.27668;6.62611;-1.08492;0.0361204;-0.553573;5.93061;2.47311;0.957789;
-7.97331;2.27676;6.62631;-1.08499;0.0358831;-0.553675;5.93192;2.47329;0.957846;
-7.97397;2.27685;6.62652;-1.08506;0.0356462;-0.553776;5.93322;2.47347;0.957902;
-7.97463;2.27693;6.62673;-1.08513;0.0354097;-0.553876;5.93452;2.47365;0.957959;
-7.97528;2.27701;6.62693;-1.0852;0.0351737;-0.553976;5.93581;2.47383;0.958015;
-7.97593;2.2771;6.62714;-1.08527;0.0349381;-0.554076;5.93711;2.47401;0.958072;
-7.97658;2.27718;6.62734;-1.08534;0.034703;-0.554175;5.9384;2.47419;0.958128;
-7.97722;2.27726;6.62754;-1.08541;0.0344682;-0.554273;5.93968;2.47436;0.958185;
-7.97787;2.27735;6.62774;-1.08548;0.034234;-0.55437;5.94096;2.47454;0.958241;
-7.97851;2.27743;6.62794;-1.08555;0.0340001;-0.554468;5.94224;2.47472;0.958297;
-7.97915;2.27751;6.62814;-1.08562;0.0337667;-0.554564;5.94351;2.47489;0.958354;
-7.97979;2.27759;6.62834;-1.08568;0.0335338;-0.55466;5.94479;2.47507;0.95841;
-7.98043;2.27768;6.62854;-1.08575;0.0333012;-0.554756;5.94605;2.47524;0.958467;
-7.98106;2.27776;6.62873;-1.08582;0.0330691;-0.554851;5.94732;2.47542;0.958523;
-7.9817;2.27784;6.62893;-1.08589;0.0328375;-0.554945;5.94858;2.47559;0.958579;
-7.98233;2.27792;6.62913;-1.08596;0.0326062;-0.555039;5.94984;2.47576;0.958636;
-7.98296;2.278;6.62932;-1.08603;0.0323755;-0.555133;5.95109;2.47593;0.958692;
-7.98358;2.27808;6.62951;-1.08609;0.0321451;-0.555225;5.95234;2.47611;0.958749;
-7.98421;2.27816;6.62971;-1.08616;0.0319152;-0.555318;5.95359;2.47628;0.958805;
-7.98483;2.27824;6.6299;-1.08623;0.0316857;-0.55541;5.95483;2.47645;0.958861;
-7.98546;2.27832;6.63009;-1.0863;0.0314566;-0.555501;5.95607;2.47662;0.958917;
-7.98608;2.2784;6.63028;-1.08636;0.031228;-0.555592;5.95731;2.47678;0.958974;
-7.98669;2.27847;6.63047;-1.08643;0.0309998;-0.555682;5.95854;2.47695;0.95903;
-7.98731;2.27855;6.63066;-1.0865;0.0307721;-0.555772;5.95977;2.47712;0.959086;
-7.98792;2.27863;6.63084;-1.08656;0.0305447;-0.555861;5.961;2.47729;0.959142;
-7.98854;2.27871;6.63103;-1.08663;0.0303178;-0.55595;5.96223;2.47746;0.959199;
-7.98915;2.27879;6.63122;-1.0867;0.0300914;-0.556038;5.96345;2.47762;0.959255;
-7.98975;2.27886;6.6314;-1.08676;0.0298653;-0.556126;5.96466;2.47779;0.959311;
-7.99036;2.27894;6.63159;-1.08683;0.0296397;-0.556213;5.96588;2.47795;0.959367;
-7.99097;2.27902;6.63177;-1.0869;0.0294146;-0.5563;5.96709;2.47812;0.959423;
-7.99157;2.27909;6.63195;-1.08696;0.0291898;-0.556386;5.9683;2.47828;0.959479;
-7.99217;2.27917;6.63213;-1.08703;0.0289655;-0.556472;5.9695;2.47844;0.959535;
-7.99277;2.27924;6.63231;-1.08709;0.0287416;-0.556557;5.9707;2.47861;0.959591;
-7.99337;2.27932;6.63249;-1.08716;0.0285181;-0.556642;5.9719;2.47877;0.959648;
-7.99396;2.2794;6.63267;-1.08722;0.0282951;-0.556726;5.97309;2.47893;0.959704;
-7.99456;2.27947;6.63285;-1.08729;0.0280725;-0.55681;5.97429;2.47909;0.95976;
-7.99515;2.27954;6.63303;-1.08735;0.0278503;-0.556893;5.97547;2.47925;0.959815;
-7.99574;2.27962;6.63321;-1.08742;0.0276286;-0.556976;5.97666;2.47941;0.959871;
-7.99633;2.27969;6.63338;-1.08748;0.0274072;-0.557058;5.97784;2.47957;0.959927;
-7.99692;2.27977;6.63356;-1.08754;0.0271863;-0.55714;5.97902;2.47973;0.959983;
-7.9975;2.27984;6.63373;-1.08761;0.0269658;-0.557222;5.98019;2.47989;0.960039;
-7.99809;2.27991;6.63391;-1.08767;0.0267458;-0.557303;5.98137;2.48005;0.960095;
-7.99867;2.27999;6.63408;-1.08774;0.0265262;-0.557383;5.98254;2.48021;0.960151;
-7.99925;2.28006;6.63425;-1.0878;0.0263069;-0.557463;5.9837;2.48036;0.960207;
-7.99983;2.28013;6.63443;-1.08786;0.0260882;-0.557543;5.98486;2.48052;0.960262;
-8.0004;2.2802;6.6346;-1.08793;0.0258698;-0.557622;5.98602;2.48068;0.960318;
-8.00098;2.28028;6.63477;-1.08799;0.0256519;-0.557701;5.98718;2.48083;0.960374;
-8.00155;2.28035;6.63494;-1.08805;0.0254343;-0.557779;5.98833;2.48099;0.960429;
-8.00212;2.28042;6.63511;-1.08812;0.0252172;-0.557857;5.98948;2.48114;0.960485;
-8.00269;2.28049;6.63527;-1.08818;0.0250006;-0.557934;5.99063;2.48129;0.960541;
-8.00326;2.28056;6.63544;-1.08824;0.0247843;-0.558011;5.99178;2.48145;0.960596;
-8.00383;2.28063;6.63561;-1.0883;0.0245685;-0.558088;5.99292;2.4816;0.960652;
-8.00439;2.2807;6.63577;-1.08836;0.0243531;-0.558164;5.99406;2.48175;0.960707;
-8.00495;2.28077;6.63594;-1.08843;0.0241381;-0.558239;5.99519;2.4819;0.960763;
-8.00551;2.28084;6.6361;-1.08849;0.0239235;-0.558315;5.99632;2.48205;0.960818;
-8.00607;2.28091;6.63627;-1.08855;0.0237093;-0.558389;5.99745;2.48221;0.960874;
-8.00663;2.28098;6.63643;-1.08861;0.0234956;-0.558464;5.99858;2.48236;0.960929;
-8.00719;2.28105;6.63659;-1.08867;0.0232822;-0.558537;5.9997;2.48251;0.960984;
-8.00774;2.28112;6.63675;-1.08873;0.0230693;-0.558611;6.00082;2.48265;0.96104;
-8.00829;2.28119;6.63692;-1.0888;0.0228568;-0.558684;6.00194;2.4828;0.961095;
-8.00885;2.28126;6.63708;-1.08886;0.0226448;-0.558757;6.00305;2.48295;0.96115;
-8.0094;2.28133;6.63724;-1.08892;0.0224331;-0.558829;6.00416;2.4831;0.961205;
-8.00994;2.28139;6.63739;-1.08898;0.0222219;-0.558901;6.00527;2.48325;0.96126;
-8.01049;2.28146;6.63755;-1.08904;0.022011;-0.558972;6.00637;2.48339;0.961316;
-8.01103;2.28153;6.63771;-1.0891;0.0218006;-0.559043;6.00747;2.48354;0.961371;
-8.01158;2.2816;6.63787;-1.08916;0.0215906;-0.559113;6.00857;2.48369;0.961426;
-8.01212;2.28166;6.63802;-1.08922;0.021381;-0.559184;6.00967;2.48383;0.961481;
-8.01266;2.28173;6.63818;-1.08928;0.0211718;-0.559253;6.01076;2.48398;0.961536;
-8.0132;2.2818;6.63833;-1.08934;0.0209631;-0.559323;6.01185;2.48412;0.961591;
-8.01373;2.28186;6.63849;-1.0894;0.0207547;-0.559392;6.01294;2.48426;0.961646;
-8.01427;2.28193;6.63864;-1.08946;0.0205468;-0.55946;6.01402;2.48441;0.9617;
-8.0148;2.28199;6.63879;-1.08952;0.0203392;-0.559528;6.01511;2.48455;0.961755;
-8.01533;2.28206;6.63895;-1.08958;0.0201321;-0.559596;6.01618;2.48469;0.96181;
-8.01586;2.28213;6.6391;-1.08963;0.0199254;-0.559663;6.01726;2.48483;0.961865;
-8.01639;2.28219;6.63925;-1.08969;0.0197191;-0.55973;6.01833;2.48497;0.96192;
-8.01692;2.28226;6.6394;-1.08975;0.0195132;-0.559797;6.0194;2.48512;0.961974;
-8.01744;2.28232;6.63955;-1.08981;0.0193077;-0.559863;6.02047;2.48526;0.962029;
-8.01797;2.28238;6.6397;-1.08987;0.0191026;-0.559929;6.02153;2.4854;0.962083;
-8.01849;2.28245;6.63984;-1.08993;0.018898;-0.559994;6.02259;2.48554;0.962138;
-8.01901;2.28251;6.63999;-1.08998;0.0186937;-0.560059;6.02365;2.48567;0.962192;
