-1.16277;-0.0615907;-0.774013;-0.215459;0.232979;0.214771;0.351504;-0.197511;-0.0620166;
-0.597817;0.122796;-0.312113;0.125144;0.35259;0.301402;0.617913;-0.0534147;0.226643;
-0.895067;0.113504;-0.382315;-0.0304292;0.300913;0.289396;0.535118;-0.0808609;0.156111;
-0.814111;0.187677;-0.220143;0.0319305;0.323964;0.319838;0.605118;-0.0333312;0.242294;
-0.959163;0.209356;-0.199643;-0.03614;0.302167;0.323867;0.583311;-0.0312957;0.23296;
-0.969355;0.260016;-0.0972013;-0.0265524;0.307011;0.342734;0.615861;-0.00274647;0.278939;
-1.05952;0.291098;-0.0460638;-0.0632002;0.295956;0.351874;0.615745;0.00941933;0.290382;
-1.10033;0.331972;0.0341003;-0.0714932;0.294617;0.366119;0.63537;0.0310512;0.32147;
-1.16942;0.365035;0.0950674;-0.0962075;0.287621;0.376573;0.643276;0.0466295;0.339692;
-1.22012;0.400959;0.165899;-0.110422;0.284208;0.388611;0.658383;0.0654981;0.36465;
-1.28047;0.433385;0.22917;-0.130305;0.278828;0.399018;0.669329;0.0820499;0.384601;
-1.33368;0.466192;0.295372;-0.146169;0.274804;0.40974;0.682925;0.0996536;0.406625;
-1.38982;0.49711;0.358249;-0.163826;0.270142;0.419626;0.695087;0.116295;0.426509;
-1.4429;0.527551;0.42157;-0.179815;0.266027;0.429378;0.708249;0.133183;0.446799;
-1.49652;0.556725;0.483116;-0.196211;0.261748;0.438592;0.720953;0.149599;0.466004;
-1.54857;0.585154;0.544237;-0.211792;0.257722;0.447524;0.734061;0.165974;0.485037;
-1.60032;0.612577;0.604158;-0.227295;0.253697;0.456036;0.747057;0.182057;0.503381;
-1.65104;0.639197;0.663365;-0.242297;0.249816;0.464222;0.760239;0.198;0.521366;
-1.70119;0.664941;0.721599;-0.257058;0.245991;0.472042;0.773425;0.213717;0.538821;
-1.75053;0.689897;0.779039;-0.271437;0.242268;0.479532;0.786716;0.229262;0.555871;
-1.79922;0.714056;0.835605;-0.285528;0.238616;0.486685;0.800049;0.244608;0.572463;
-1.84719;0.737467;0.89137;-0.299287;0.235049;0.493518;0.813455;0.259774;0.58865;
-1.8945;0.760142;0.946316;-0.312752;0.231554;0.500033;0.826911;0.274753;0.604422;
-1.94114;0.782114;1.00048;-0.325911;0.228135;0.506243;0.840425;0.289554;0.619804;
-1.98715;0.803401;1.05386;-0.338781;0.224785;0.512152;0.853986;0.304174;0.634801;
-2.03251;0.824031;1.10648;-0.351362;0.221505;0.51777;0.867597;0.318619;0.64943;
-2.07726;0.844022;1.15836;-0.363666;0.218291;0.523103;0.881252;0.33289;0.663698;
-2.1214;0.863399;1.2095;-0.375696;0.215141;0.528158;0.89495;0.34699;0.677619;
-2.16495;0.88218;1.25993;-0.387459;0.212054;0.532944;0.908686;0.360921;0.691202;
-2.20791;0.900388;1.30965;-0.398961;0.209026;0.537467;0.922459;0.374685;0.704458;
-2.25031;0.91804;1.35868;-0.410208;0.206057;0.541733;0.936266;0.388285;0.717395;
-2.29215;0.935157;1.40703;-0.421206;0.203144;0.54575;0.950105;0.401723;0.730025;
-2.33344;0.951755;1.45471;-0.43196;0.200285;0.549524;0.963973;0.415002;0.742356;
-2.3742;0.967853;1.50174;-0.442476;0.197479;0.553061;0.977867;0.428123;0.754397;
-2.41443;0.983467;1.54813;-0.452759;0.194724;0.556367;0.991786;0.441089;0.766157;
-2.45415;0.998613;1.59389;-0.462816;0.192018;0.55945;1.00573;0.453903;0.777644;
-2.49337;1.01331;1.63903;-0.472649;0.18936;0.562314;1.01969;0.466566;0.788865;
-2.53209;1.02757;1.68357;-0.482266;0.186748;0.564965;1.03367;0.479081;0.79983;
-2.57034;1.0414;1.72751;-0.491671;0.184182;0.567409;1.04767;0.49145;0.810544;
-2.6081;1.05483;1.77086;-0.500868;0.181658;0.569652;1.06168;0.503675;0.821016;
-2.64541;1.06786;1.81364;-0.509863;0.179178;0.571698;1.0757;0.515758;0.831253;
-2.68225;1.08052;1.85586;-0.51866;0.176738;0.573554;1.08973;0.527701;0.841261;
-2.71866;1.0928;1.89753;-0.527263;0.174337;0.575224;1.10377;0.539506;0.851046;
-2.75462;1.10473;1.93865;-0.535677;0.171976;0.576714;1.11782;0.551176;0.860616;
-2.79016;1.11631;1.97924;-0.543906;0.169652;0.578027;1.13188;0.562712;0.869976;
-2.82527;1.12756;2.0193;-0.551954;0.167364;0.57917;1.14594;0.574116;0.879132;
-2.85997;1.13849;2.05885;-0.559826;0.165111;0.580145;1.16;0.585391;0.88809;
-2.89427;1.14911;2.09789;-0.567525;0.162893;0.580959;1.17407;0.596538;0.896855;
-2.92817;1.15942;2.13644;-0.575055;0.160709;0.581616;1.18813;0.607559;0.905432;
-2.96168;1.16945;2.17449;-0.58242;0.158556;0.582119;1.20219;0.618455;0.913828;
-2.99481;1.17919;2.21207;-0.589624;0.156436;0.582473;1.21625;0.62923;0.922046;
-3.02756;1.18865;2.24917;-0.59667;0.154346;0.582682;1.23031;0.639884;0.930092;
-3.05994;1.19786;2.28582;-0.603561;0.152286;0.58275;1.24436;0.650419;0.93797;
-3.09196;1.20681;2.322;-0.610302;0.150255;0.58268;1.25841;0.660838;0.945684;
-3.12363;1.21551;2.35774;-0.616896;0.148253;0.582478;1.27245;0.671141;0.95324;
-3.15494;1.22397;2.39304;-0.623346;0.146279;0.582145;1.28648;0.681331;0.960641;
-3.18592;1.2322;2.4279;-0.629654;0.144331;0.581687;1.3005;0.691409;0.967892;
-3.21656;1.2402;2.46234;-0.635825;0.14241;0.581106;1.31451;0.701377;0.974996;
-3.24686;1.24799;2.49636;-0.64186;0.140514;0.580405;1.32851;0.711237;0.981957;
-3.27685;1.25556;2.52996;-0.647764;0.138644;0.579589;1.34249;0.72099;0.988779;
-3.30651;1.26293;2.56316;-0.653539;0.136798;0.578661;1.35647;0.730637;0.995465;
-3.33586;1.27011;2.59597;-0.659188;0.134975;0.577622;1.37043;0.74018;1.00202;
-3.3649;1.27709;2.62838;-0.664714;0.133177;0.576478;1.38437;0.749622;1.00844;
-3.39364;1.28389;2.66041;-0.670118;0.131401;0.57523;1.39831;0.758962;1.01474;
-3.42208;1.29051;2.69205;-0.675405;0.129647;0.573881;1.41222;0.768204;1.02092;
-3.45022;1.29695;2.72332;-0.680576;0.127915;0.572435;1.42612;0.777347;1.02698;
-3.47808;1.30323;2.75423;-0.685635;0.126205;0.570895;1.44;0.786394;1.03292;
-3.50566;1.30934;2.78477;-0.690583;0.124516;0.569262;1.45386;0.795346;1.03875;
-3.53296;1.3153;2.81496;-0.695422;0.122847;0.567539;1.4677;0.804205;1.04447;
-3.55998;1.3211;2.8448;-0.700156;0.121198;0.56573;1.48153;0.812971;1.05008;
-3.58673;1.32675;2.87429;-0.704787;0.119568;0.563837;1.49533;0.821647;1.05559;
-3.61322;1.33225;2.90345;-0.709316;0.117958;0.561862;1.50912;0.830233;1.06099;
-3.63945;1.33762;2.93227;-0.713746;0.116367;0.559807;1.52288;0.83873;1.06629;
-3.66542;1.34285;2.96076;-0.718079;0.114794;0.557675;1.53662;0.847141;1.0715;
-3.69114;1.34795;2.98892;-0.722317;0.11324;0.555469;1.55034;0.855465;1.0766;
-3.71661;1.35292;3.01677;-0.726463;0.111703;0.55319;1.56404;0.863706;1.08162;
-3.74183;1.35777;3.0443;-0.730517;0.110184;0.55084;1.57771;0.871862;1.08654;
-3.76682;1.3625;3.07153;-0.734483;0.108682;0.548422;1.59136;0.879937;1.09138;
-3.79156;1.36711;3.09845;-0.738361;0.107196;0.545938;1.60499;0.887931;1.09613;
-3.81608;1.37161;3.12507;-0.742154;0.105727;0.54339;1.61859;0.895845;1.10079;
-3.84036;1.376;3.15139;-0.745864;0.104275;0.540779;1.63217;0.903681;1.10537;
-3.86442;1.38028;3.17742;-0.749492;0.102838;0.538108;1.64572;0.911438;1.10987;
-3.88825;1.38446;3.20317;-0.753041;0.101417;0.535379;1.65925;0.91912;1.11429;
-3.91186;1.38854;3.22863;-0.756511;0.100012;0.532593;1.67275;0.926726;1.11863;
-3.93526;1.39252;3.25381;-0.759904;0.0986214;0.529752;1.68622;0.934257;1.1229;
-3.95844;1.39641;3.27872;-0.763223;0.097246;0.526858;1.69967;0.941716;1.12709;
-3.98142;1.4002;3.30336;-0.766468;0.0958852;0.523913;1.7131;0.949102;1.13121;
-4.00418;1.4039;3.32774;-0.769642;0.0945388;0.520917;1.72649;0.956417;1.13526;
-4.02675;1.40752;3.35185;-0.772745;0.0932067;0.517874;1.73986;0.963661;1.13924;
-4.04911;1.41106;3.3757;-0.775779;0.0918885;0.514784;1.7532;0.970836;1.14315;
-4.07127;1.41451;3.39929;-0.778746;0.090584;0.511649;1.76651;0.977943;1.14699;
-4.09324;1.41788;3.42263;-0.781646;0.0892931;0.508471;1.7798;0.984983;1.15077;
-4.11501;1.42118;3.44573;-0.784483;0.0880156;0.50525;1.79306;0.991956;1.15449;
-4.13659;1.4244;3.46858;-0.787256;0.0867512;0.501989;1.80629;0.998864;1.15814;
-4.15799;1.42755;3.49119;-0.789967;0.0854997;0.498689;1.81949;1.00571;1.16174;
-4.1792;1.43063;3.51356;-0.792617;0.0842609;0.49535;1.83266;1.01249;1.16527;
-4.20023;1.43363;3.5357;-0.795208;0.0830348;0.491975;1.8458;1.0192;1.16875;
-4.22108;1.43658;3.55761;-0.79774;0.081821;0.488565;1.85892;1.02586;1.17217;
-4.24175;1.43945;3.57928;-0.800216;0.0806194;0.485121;1.872;1.03245;1.17553;
-4.26225;1.44227;3.60074;-0.802636;0.0794298;0.481644;1.88505;1.03898;1.17884;
-4.28258;1.44502;3.62197;-0.805002;0.0782521;0.478135;1.89808;1.04545;1.18209;
-4.30273;1.44771;3.64298;-0.807313;0.0770861;0.474597;1.91107;1.05187;1.18529;
-4.32272;1.45035;3.66378;-0.809573;0.0759316;0.471028;1.92404;1.05822;1.18844;
-4.34254;1.45293;3.68436;-0.811781;0.0747885;0.467432;1.93698;1.06452;1.19154;
-4.3622;1.45545;3.70474;-0.813939;0.0736565;0.463809;1.94988;1.07077;1.19459;
-4.38169;1.45792;3.7249;-0.816048;0.0725357;0.460159;1.96276;1.07695;1.19759;
-4.40103;1.46034;3.74487;-0.818108;0.0714257;0.456485;1.9756;1.08308;1.20055;
-4.42021;1.4627;3.76463;-0.820122;0.0703265;0.452787;1.98841;1.08916;1.20345;
-4.43923;1.46502;3.78419;-0.822089;0.0692379;0.449066;2.0012;1.09519;1.20631;
-4.4581;1.46729;3.80355;-0.824011;0.0681598;0.445323;2.01395;1.10116;1.20913;
-4.47682;1.46952;3.82273;-0.825888;0.0670921;0.441559;2.02667;1.10707;1.2119;
-4.49539;1.4717;3.84171;-0.827722;0.0660345;0.437774;2.03936;1.11294;1.21463;
-4.51381;1.47383;3.8605;-0.829514;0.064987;0.433971;2.05202;1.11876;1.21732;
-4.53209;1.47592;3.8791;-0.831264;0.0639494;0.430149;2.06465;1.12452;1.21997;
-4.55022;1.47797;3.89752;-0.832973;0.0629216;0.42631;2.07725;1.13024;1.22257;
-4.56821;1.47998;3.91576;-0.834642;0.0619035;0.422454;2.08982;1.13591;1.22514;
-4.58606;1.48195;3.93382;-0.836272;0.0608949;0.418583;2.10235;1.14153;1.22766;
-4.60378;1.48388;3.95171;-0.837863;0.0598957;0.414696;2.11486;1.1471;1.23015;
-4.62135;1.48578;3.96942;-0.839417;0.0589059;0.410795;2.12733;1.15262;1.2326;
-4.63879;1.48763;3.98695;-0.840935;0.0579252;0.406881;2.13977;1.1581;1.23501;
-4.65609;1.48946;4.00432;-0.842416;0.0569536;0.402953;2.15218;1.16353;1.23739;
-4.67327;1.49124;4.02152;-0.843862;0.055991;0.399014;2.16456;1.16892;1.23973;
-4.69031;1.493;4.03855;-0.845273;0.0550371;0.395064;2.17691;1.17426;1.24204;
-4.70723;1.49472;4.05542;-0.84665;0.054092;0.391102;2.18922;1.17956;1.24431;
-4.72401;1.49641;4.07213;-0.847995;0.0531555;0.387131;2.20151;1.18481;1.24655;
-4.74067;1.49806;4.08868;-0.849307;0.0522275;0.383151;2.21376;1.19002;1.24875;
-4.75721;1.49969;4.10506;-0.850587;0.0513079;0.379161;2.22598;1.19519;1.25093;
-4.77362;1.50129;4.1213;-0.851835;0.0503966;0.375164;2.23817;1.20032;1.25307;
-4.78991;1.50286;4.13738;-0.853054;0.0494934;0.371159;2.25033;1.2054;1.25518;
-4.80609;1.5044;4.15331;-0.854242;0.0485984;0.367148;2.26245;1.21044;1.25726;
-4.82214;1.50591;4.16908;-0.855401;0.0477112;0.36313;2.27455;1.21545;1.2593;
-4.83807;1.5074;4.18471;-0.856532;0.046832;0.359106;2.28661;1.22041;1.26132;
-4.85389;1.50886;4.2002;-0.857634;0.0459605;0.355077;2.29864;1.22533;1.26331;
-4.8696;1.5103;4.21554;-0.858709;0.0450967;0.351044;2.31064;1.23022;1.26527;
-4.88519;1.51171;4.23073;-0.859757;0.0442405;0.347006;2.32261;1.23506;1.26721;
-4.90066;1.5131;4.24578;-0.860778;0.0433917;0.342965;2.33455;1.23987;1.26911;
-4.91603;1.51446;4.2607;-0.861774;0.0425503;0.33892;2.34645;1.24463;1.27099;
-4.93129;1.5158;4.27548;-0.862744;0.0417162;0.334873;2.35832;1.24937;1.27284;
-4.94644;1.51712;4.29012;-0.863689;0.0408893;0.330824;2.37017;1.25406;1.27467;
-4.96148;1.51841;4.30462;-0.864611;0.0400694;0.326773;2.38198;1.25872;1.27647;
-4.97641;1.51969;4.319;-0.865508;0.0392566;0.322721;2.39375;1.26334;1.27824;
-4.99124;1.52095;4.33324;-0.866382;0.0384507;0.318668;2.4055;1.26793;1.27999;
-5.00597;1.52218;4.34735;-0.867233;0.0376516;0.314615;2.41722;1.27248;1.28172;
-5.02059;1.5234;4.36133;-0.868062;0.0368593;0.310561;2.4289;1.27699;1.28342;
-5.03511;1.52459;4.37519;-0.868869;0.0360736;0.306508;2.44055;1.28147;1.28509;
-5.04953;1.52577;4.38892;-0.869654;0.0352945;0.302456;2.45217;1.28592;1.28675;
-5.06386;1.52693;4.40253;-0.870419;0.0345218;0.298405;2.46376;1.29033;1.28838;
-5.07808;1.52807;4.41601;-0.871163;0.0337555;0.294356;2.47532;1.29472;1.28999;
-5.0922;1.52919;4.42938;-0.871887;0.0329956;0.290308;2.48685;1.29906;1.29157;
-5.10623;1.5303;4.44262;-0.872591;0.0322419;0.286263;2.49834;1.30338;1.29314;
-5.12016;1.53139;4.45575;-0.873276;0.0314943;0.28222;2.50981;1.30766;1.29468;
-5.134;1.53247;4.46876;-0.873942;0.0307528;0.278181;2.52124;1.31191;1.29621;
-5.14775;1.53352;4.48165;-0.874589;0.0300172;0.274145;2.53264;1.31613;1.29771;
-5.1614;1.53457;4.49443;-0.875218;0.0292876;0.270112;2.54401;1.32032;1.29919;
-5.17496;1.5356;4.50709;-0.87583;0.0285638;0.266083;2.55535;1.32448;1.30065;
-5.18843;1.53661;4.51965;-0.876424;0.0278457;0.262059;2.56666;1.3286;1.30209;
-5.20181;1.53761;4.53209;-0.877001;0.0271334;0.258039;2.57794;1.3327;1.30351;
-5.2151;1.53859;4.54443;-0.877562;0.0264266;0.254024;2.58918;1.33676;1.30492;
-5.2283;1.53957;4.55666;-0.878106;0.0257253;0.250014;2.6004;1.3408;1.3063;
-5.24142;1.54052;4.56878;-0.878634;0.0250295;0.246009;2.61158;1.34481;1.30767;
-5.25445;1.54147;4.58079;-0.879146;0.024339;0.24201;2.62273;1.34879;1.30902;
-5.26739;1.5424;4.5927;-0.879644;0.0236538;0.238017;2.63386;1.35274;1.31035;
-5.28025;1.54332;4.60451;-0.880126;0.0229739;0.23403;2.64495;1.35666;1.31166;
-5.29302;1.54423;4.61621;-0.880594;0.0222991;0.230049;2.65601;1.36056;1.31296;
-5.30572;1.54513;4.62782;-0.881047;0.0216294;0.226076;2.66704;1.36442;1.31424;
-5.31833;1.54601;4.63932;-0.881486;0.0209647;0.222108;2.67804;1.36826;1.3155;
-5.33086;1.54689;4.65073;-0.881912;0.020305;0.218148;2.689;1.37207;1.31674;
-5.3433;1.54775;4.66204;-0.882324;0.0196501;0.214196;2.69994;1.37586;1.31797;
-5.35567;1.5486;4.67325;-0.882722;0.019;0.210251;2.71085;1.37962;1.31919;
-5.36796;1.54944;4.68436;-0.883108;0.0183547;0.206313;2.72173;1.38335;1.32039;
-5.38018;1.55028;4.69539;-0.883482;0.017714;0.202384;2.73257;1.38706;1.32157;
-5.39231;1.5511;4.70631;-0.883843;0.017078;0.198462;2.74339;1.39074;1.32274;
-5.40437;1.55191;4.71715;-0.884192;0.0164464;0.194549;2.75418;1.39439;1.32389;
-5.41635;1.55271;4.72789;-0.884529;0.0158194;0.190645;2.76493;1.39802;1.32503;
-5.42825;1.5535;4.73855;-0.884854;0.0151968;0.186749;2.77566;1.40163;1.32615;
-5.44008;1.55429;4.74911;-0.885168;0.0145785;0.182861;2.78635;1.40521;1.32726;
-5.45184;1.55506;4.75959;-0.885472;0.0139645;0.178983;2.79702;1.40876;1.32835;
-5.46353;1.55583;4.76997;-0.885764;0.0133547;0.175114;2.80766;1.41229;1.32944;
-5.47514;1.55658;4.78028;-0.886046;0.0127491;0.171255;2.81826;1.4158;1.3305;
-5.48668;1.55733;4.79049;-0.886317;0.0121476;0.167405;2.82884;1.41929;1.33156;
-5.49815;1.55807;4.80062;-0.886578;0.0115501;0.163564;2.83938;1.42275;1.3326;
-5.50954;1.55881;4.81067;-0.88683;0.0109566;0.159733;2.8499;1.42618;1.33363;
-5.52087;1.55953;4.82063;-0.887071;0.010367;0.155913;2.86039;1.4296;1.33464;
-5.53213;1.56025;4.83051;-0.887303;0.0097813;0.152102;2.87084;1.43299;1.33565;
-5.54332;1.56096;4.84031;-0.887526;0.0091994;0.148301;2.88127;1.43636;1.33664;
-5.55444;1.56166;4.85003;-0.88774;0.00862124;0.144511;2.89167;1.4397;1.33761;
-5.56549;1.56236;4.85967;-0.887945;0.00804678;0.140731;2.90204;1.44303;1.33858;
-5.57648;1.56304;4.86923;-0.888141;0.00747595;0.136962;2.91238;1.44633;1.33954;
-5.5874;1.56373;4.87872;-0.888329;0.00690871;0.133203;2.92269;1.44961;1.34048;
-5.59826;1.5644;4.88812;-0.888509;0.00634499;0.129455;2.93297;1.45287;1.34141;
-5.60905;1.56507;4.89745;-0.88868;0.00578474;0.125718;2.94322;1.4561;1.34233;
-5.61977;1.56573;4.90671;-0.888844;0.00522791;0.121992;2.95344;1.45932;1.34324;
-5.63043;1.56639;4.91589;-0.889;0.00467444;0.118277;2.96363;1.46251;1.34414;
-5.64103;1.56704;4.92499;-0.889148;0.00412429;0.114573;2.9738;1.46569;1.34503;
-5.65157;1.56768;4.93402;-0.889289;0.0035774;0.110881;2.98393;1.46884;1.3459;
-5.66204;1.56832;4.94298;-0.889422;0.00303372;0.107199;2.99404;1.47197;1.34677;
-5.67245;1.56895;4.95187;-0.889549;0.0024932;0.10353;3.00412;1.47509;1.34763;
-5.6828;1.56957;4.96068;-0.889669;0.00195579;0.0998714;3.01417;1.47818;1.34847;
-5.69309;1.57019;4.96943;-0.889782;0.00142144;0.0962248;3.02419;1.48125;1.34931;
-5.70332;1.57081;4.9781;-0.889888;0.000890103;0.0925899;3.03418;1.48431;1.35013;
-5.71349;1.57142;4.98671;-0.889988;0.000361725;0.0889667;3.04414;1.48734;1.35095;
-5.7236;1.57202;4.99525;-0.890082;-0.000163739;0.0853554;3.05408;1.49036;1.35176;
-5.73365;1.57262;5.00372;-0.89017;-0.000686335;0.0817559;3.06398;1.49335;1.35256;
-5.74364;1.57322;5.01212;-0.890251;-0.00120611;0.0781684;3.07386;1.49633;1.35334;
-5.75358;1.57381;5.02046;-0.890327;-0.00172311;0.0745929;3.08371;1.49929;1.35412;
-5.76345;1.57439;5.02873;-0.890397;-0.00223739;0.0710295;3.09353;1.50223;1.35489;
-5.77328;1.57497;5.03694;-0.890462;-0.00274898;0.0674783;3.10333;1.50515;1.35565;
-5.78304;1.57555;5.04508;-0.890521;-0.00325794;0.0639392;3.11309;1.50805;1.35641;
-5.79275;1.57612;5.05316;-0.890575;-0.0037643;0.0604124;3.12283;1.51093;1.35715;
-5.8024;1.57669;5.06118;-0.890624;-0.00426811;0.0568979;3.13254;1.5138;1.35789;
-5.812;1.57725;5.06913;-0.890667;-0.00476941;0.0533957;3.14222;1.51665;1.35861;
-5.82155;1.57781;5.07702;-0.890706;-0.00526825;0.0499059;3.15188;1.51948;1.35933;
-5.83104;1.57836;5.08485;-0.89074;-0.00576467;0.0464286;3.1615;1.52229;1.36004;
-5.84047;1.57891;5.09262;-0.890769;-0.00625871;0.0429637;3.1711;1.52509;1.36075;
-5.84986;1.57946;5.10033;-0.890794;-0.00675041;0.0395113;3.18068;1.52787;1.36144;
-5.85919;1.58;5.10798;-0.890815;-0.00723982;0.0360715;3.19022;1.53063;1.36213;
-5.86847;1.58054;5.11557;-0.890831;-0.00772696;0.0326442;3.19974;1.53338;1.36281;
-5.87769;1.58107;5.12311;-0.890842;-0.00821189;0.0292296;3.20923;1.53611;1.36348;
-5.88687;1.5816;5.13058;-0.89085;-0.00869463;0.0258276;3.21869;1.53882;1.36415;
-5.89599;1.58213;5.138;-0.890854;-0.00917524;0.0224382;3.22812;1.54151;1.36481;
-5.90507;1.58265;5.14536;-0.890854;-0.00965375;0.0190616;3.23753;1.54419;1.36546;
-5.91409;1.58317;5.15267;-0.89085;-0.0101302;0.0156977;3.24691;1.54686;1.3661;
-5.92307;1.58369;5.15992;-0.890842;-0.0106046;0.0123465;3.25627;1.5495;1.36674;
-5.93199;1.5842;5.16711;-0.890831;-0.011077;0.00900811;3.26559;1.55213;1.36737;
-5.94087;1.58471;5.17425;-0.890816;-0.0115475;0.00568249;3.27489;1.55475;1.36799;
-5.94969;1.58522;5.18134;-0.890798;-0.0120161;0.00236967;3.28417;1.55735;1.3686;
-5.95847;1.58572;5.18837;-0.890776;-0.0124827;-0.000930334;3.29341;1.55993;1.36921;
-5.9672;1.58622;5.19535;-0.890751;-0.0129476;-0.00421751;3.30263;1.5625;1.36982;
-5.97588;1.58672;5.20227;-0.890723;-0.0134106;-0.00749184;3.31183;1.56505;1.37041;
-5.98452;1.58721;5.20915;-0.890692;-0.0138718;-0.0107533;3.32099;1.56759;1.371;
-5.99311;1.5877;5.21597;-0.890658;-0.0143313;-0.0140019;3.33013;1.57011;1.37159;
-6.00165;1.58819;5.22274;-0.890622;-0.0147891;-0.0172377;3.33925;1.57262;1.37217;
-6.01015;1.58867;5.22947;-0.890582;-0.0152452;-0.0204605;3.34834;1.57512;1.37274;
-6.0186;1.58916;5.23614;-0.89054;-0.0156997;-0.0236705;3.3574;1.5776;1.3733;
-6.027;1.58964;5.24276;-0.890495;-0.0161525;-0.0268676;3.36644;1.58006;1.37387;
-6.03536;1.59011;5.24933;-0.890447;-0.0166038;-0.0300518;3.37544;1.58251;1.37442;
-6.04368;1.59059;5.25586;-0.890397;-0.0170535;-0.033223;3.38443;1.58494;1.37497;
-6.05195;1.59106;5.26233;-0.890345;-0.0175018;-0.0363815;3.39339;1.58737;1.37551;
-6.06018;1.59153;5.26876;-0.89029;-0.0179485;-0.039527;3.40232;1.58977;1.37605;
-6.06836;1.59199;5.27514;-0.890233;-0.0183937;-0.0426596;3.41123;1.59217;1.37658;
-6.0765;1.59246;5.28147;-0.890174;-0.0188376;-0.0457793;3.42011;1.59455;1.37711;
-6.0846;1.59292;5.28776;-0.890112;-0.01928;-0.0488862;3.42896;1.59691;1.37763;
-6.09265;1.59338;5.294;-0.890049;-0.019721;-0.0519801;3.43779;1.59926;1.37815;
-6.10066;1.59384;5.3002;-0.889983;-0.0201608;-0.0550612;3.44659;1.6016;1.37866;
-6.10863;1.59429;5.30634;-0.889916;-0.0205992;-0.0581295;3.45537;1.60393;1.37916;
-6.11656;1.59474;5.31245;-0.889847;-0.0210363;-0.0611849;3.46413;1.60624;1.37967;
-6.12445;1.59519;5.31851;-0.889776;-0.0214721;-0.0642274;3.47285;1.60854;1.38016;
-6.13229;1.59564;5.32453;-0.889703;-0.0219068;-0.0672571;3.48156;1.61082;1.38065;
-6.1401;1.59608;5.3305;-0.889628;-0.0223402;-0.070274;3.49024;1.61309;1.38114;
-6.14786;1.59653;5.33643;-0.889552;-0.0227724;-0.0732781;3.49889;1.61535;1.38162;
-6.15558;1.59697;5.34232;-0.889474;-0.0232035;-0.0762694;3.50752;1.6176;1.3821;
-6.16327;1.59741;5.34816;-0.889395;-0.0236335;-0.0792479;3.51612;1.61983;1.38257;
-6.17091;1.59784;5.35396;-0.889314;-0.0240624;-0.0822136;3.5247;1.62205;1.38304;
-6.17851;1.59828;5.35972;-0.889232;-0.0244901;-0.0851666;3.53325;1.62426;1.38351;
-6.18608;1.59871;5.36544;-0.889149;-0.0249169;-0.0881069;3.54178;1.62646;1.38397;
-6.19361;1.59914;5.37112;-0.889064;-0.0253426;-0.0910344;3.55028;1.62864;1.38442;
-6.20109;1.59957;5.37676;-0.888978;-0.0257672;-0.0939493;3.55876;1.63081;1.38487;
-6.20854;1.6;5.38235;-0.888891;-0.026191;-0.0968515;3.56722;1.63297;1.38532;
-6.21595;1.60042;5.38791;-0.888802;-0.0266137;-0.099741;3.57565;1.63512;1.38576;
-6.22333;1.60085;5.39343;-0.888713;-0.0270355;-0.102618;3.58405;1.63726;1.3862;
-6.23066;1.60127;5.39891;-0.888622;-0.0274564;-0.105482;3.59244;1.63938;1.38663;
-6.23796;1.60169;5.40435;-0.88853;-0.0278764;-0.108334;3.60079;1.64149;1.38707;
-6.24523;1.6021;5.40975;-0.888438;-0.0282955;-0.111173;3.60913;1.64359;1.38749;
-6.25245;1.60252;5.41511;-0.888344;-0.0287138;-0.114;3.61744;1.64568;1.38792;
-6.25964;1.60293;5.42043;-0.88825;-0.0291313;-0.116814;3.62572;1.64776;1.38833;
-6.26679;1.60335;5.42572;-0.888154;-0.0295479;-0.119615;3.63398;1.64982;1.38875;
-6.27391;1.60376;5.43097;-0.888058;-0.0299638;-0.122404;3.64222;1.65188;1.38916;
-6.28099;1.60416;5.43619;-0.887961;-0.0303789;-0.125181;3.65043;1.65392;1.38957;
-6.28804;1.60457;5.44136;-0.887864;-0.0307932;-0.127945;3.65862;1.65595;1.38997;
-6.29505;1.60498;5.4465;-0.887765;-0.0312068;-0.130697;3.66679;1.65797;1.39038;
-6.30202;1.60538;5.45161;-0.887666;-0.0316197;-0.133437;3.67493;1.65998;1.39077;
-6.30896;1.60578;5.45668;-0.887567;-0.0320319;-0.136164;3.68305;1.66198;1.39117;
-6.31587;1.60618;5.46171;-0.887466;-0.0324435;-0.138878;3.69115;1.66396;1.39156;
-6.32274;1.60658;5.46671;-0.887366;-0.0328544;-0.141581;3.69922;1.66594;1.39195;
-6.32958;1.60698;5.47167;-0.887264;-0.0332646;-0.144271;3.70727;1.66791;1.39233;
-6.33638;1.60738;5.4766;-0.887162;-0.0336742;-0.146949;3.7153;1.66986;1.39271;
-6.34316;1.60777;5.4815;-0.88706;-0.0340833;-0.149615;3.7233;1.67181;1.39309;
-6.34989;1.60817;5.48636;-0.886958;-0.0344917;-0.152269;3.73128;1.67374;1.39346;
-6.3566;1.60856;5.49118;-0.886855;-0.0348996;-0.154911;3.73924;1.67566;1.39383;
-6.36327;1.60895;5.49598;-0.886751;-0.0353069;-0.15754;3.74717;1.67758;1.3942;
-6.36991;1.60934;5.50074;-0.886647;-0.0357137;-0.160158;3.75508;1.67948;1.39457;
-6.37651;1.60972;5.50547;-0.886543;-0.03612;-0.162763;3.76297;1.68137;1.39493;
-6.38309;1.61011;5.51017;-0.886439;-0.0365258;-0.165357;3.77083;1.68325;1.39529;
-6.38963;1.61049;5.51483;-0.886335;-0.0369311;-0.167938;3.77867;1.68513;1.39565;
-6.39614;1.61088;5.51946;-0.88623;-0.0373359;-0.170508;3.78649;1.68699;1.396;
-6.40262;1.61126;5.52406;-0.886125;-0.0377402;-0.173066;3.79429;1.68884;1.39635;
-6.40907;1.61164;5.52863;-0.88602;-0.0381442;-0.175611;3.80207;1.69068;1.3967;
-6.41548;1.61202;5.53317;-0.885915;-0.0385476;-0.178145;3.80982;1.69252;1.39705;
-6.42187;1.6124;5.53768;-0.885809;-0.0389507;-0.180668;3.81755;1.69434;1.39739;
-6.42823;1.61277;5.54216;-0.885704;-0.0393534;-0.183178;3.82526;1.69615;1.39773;
-6.43455;1.61315;5.5466;-0.885598;-0.0397557;-0.185677;3.83294;1.69796;1.39807;
-6.44084;1.61352;5.55102;-0.885493;-0.0401576;-0.188164;3.8406;1.69975;1.3984;
-6.44711;1.61389;5.5554;-0.885387;-0.0405592;-0.190639;3.84825;1.70154;1.39874;
-6.45334;1.61427;5.55976;-0.885282;-0.0409604;-0.193103;3.85586;1.70331;1.39907;
-6.45955;1.61464;5.56409;-0.885176;-0.0413613;-0.195555;3.86346;1.70508;1.39939;
-6.46572;1.615;5.56839;-0.885071;-0.0417618;-0.197996;3.87104;1.70683;1.39972;
-6.47186;1.61537;5.57266;-0.884965;-0.0421621;-0.200425;3.87859;1.70858;1.40004;
-6.47798;1.61574;5.5769;-0.88486;-0.042562;-0.202843;3.88612;1.71032;1.40036;
-6.48407;1.6161;5.58111;-0.884755;-0.0429617;-0.205249;3.89363;1.71205;1.40068;
-6.49013;1.61647;5.5853;-0.88465;-0.0433611;-0.207644;3.90112;1.71377;1.401;
-6.49616;1.61683;5.58945;-0.884545;-0.0437602;-0.210028;3.90858;1.71548;1.40131;
-6.50216;1.61719;5.59358;-0.88444;-0.0441591;-0.2124;3.91603;1.71718;1.40162;
-6.50813;1.61755;5.59768;-0.884335;-0.0445578;-0.214761;3.92345;1.71887;1.40193;
-6.51407;1.61791;5.60176;-0.884231;-0.0449562;-0.217111;3.93085;1.72056;1.40224;
-6.51999;1.61827;5.6058;-0.884127;-0.0453544;-0.219449;3.93824;1.72224;1.40254;
-6.52588;1.61863;5.60982;-0.884023;-0.0457524;-0.221777;3.94559;1.7239;1.40284;
-6.53174;1.61898;5.61382;-0.883919;-0.0461502;-0.224093;3.95293;1.72556;1.40314;
-6.53758;1.61934;5.61779;-0.883816;-0.0465478;-0.226398;3.96025;1.72721;1.40344;
-6.54338;1.61969;5.62173;-0.883713;-0.0469452;-0.228692;3.96755;1.72885;1.40374;
-6.54916;1.62004;5.62564;-0.88361;-0.0473425;-0.230975;3.97482;1.73048;1.40403;
-6.55492;1.62039;5.62953;-0.883507;-0.0477396;-0.233248;3.98207;1.73211;1.40433;
-6.56064;1.62074;5.6334;-0.883405;-0.0481365;-0.235509;3.98931;1.73373;1.40462;
-6.56634;1.62109;5.63723;-0.883303;-0.0485333;-0.237759;3.99652;1.73533;1.40491;
-6.57202;1.62144;5.64105;-0.883202;-0.04893;-0.239999;4.00371;1.73693;1.40519;
-6.57767;1.62179;5.64484;-0.8831;-0.0493266;-0.242227;4.01088;1.73852;1.40548;
-6.58329;1.62214;5.6486;-0.883;-0.049723;-0.244445;4.01803;1.74011;1.40576;
-6.58888;1.62248;5.65234;-0.882899;-0.0501193;-0.246653;4.02516;1.74168;1.40604;
-6.59445;1.62282;5.65605;-0.882799;-0.0505156;-0.248849;4.03227;1.74325;1.40632;
-6.6;1.62317;5.65974;-0.8827;-0.0509117;-0.251035;4.03936;1.74481;1.4066;
-6.60552;1.62351;5.66341;-0.882601;-0.0513078;-0.25321;4.04643;1.74636;1.40688;
-6.61101;1.62385;5.66705;-0.882502;-0.0517037;-0.255375;4.05347;1.7479;1.40715;
-6.61648;1.62419;5.67067;-0.882404;-0.0520997;-0.257529;4.0605;1.74944;1.40743;
-6.62192;1.62453;5.67427;-0.882306;-0.0524955;-0.259673;4.06751;1.75097;1.4077;
-6.62734;1.62487;5.67784;-0.882208;-0.0528913;-0.261806;4.0745;1.75249;1.40797;
-6.63273;1.6252;5.68139;-0.882111;-0.0532871;-0.263929;4.08146;1.754;1.40823;
-6.6381;1.62554;5.68492;-0.882015;-0.0536828;-0.266041;4.08841;1.7555;1.4085;
-6.64345;1.62587;5.68842;-0.881919;-0.0540784;-0.268144;4.09534;1.757;1.40877;
-6.64877;1.62621;5.6919;-0.881824;-0.0544741;-0.270236;4.10224;1.75849;1.40903;
-6.65407;1.62654;5.69536;-0.881729;-0.0548697;-0.272317;4.10913;1.75997;1.40929;
-6.65934;1.62687;5.6988;-0.881635;-0.0552653;-0.274389;4.116;1.76145;1.40955;
-6.66459;1.6272;5.70221;-0.881541;-0.0556609;-0.27645;4.12285;1.76291;1.40981;
-6.66982;1.62753;5.70561;-0.881447;-0.0560565;-0.278501;4.12967;1.76437;1.41007;
-6.67502;1.62786;5.70898;-0.881355;-0.0564521;-0.280542;4.13648;1.76583;1.41032;
-6.6802;1.62819;5.71233;-0.881262;-0.0568477;-0.282573;4.14327;1.76727;1.41058;
-6.68536;1.62852;5.71566;-0.881171;-0.0572433;-0.284594;4.15004;1.76871;1.41083;
-6.69049;1.62884;5.71897;-0.88108;-0.057639;-0.286605;4.15679;1.77014;1.41108;
-6.6956;1.62917;5.72225;-0.880989;-0.0580346;-0.288606;4.16352;1.77156;1.41133;
-6.70069;1.62949;5.72552;-0.880899;-0.0584303;-0.290598;4.17023;1.77298;1.41158;
-6.70575;1.62982;5.72876;-0.88081;-0.058826;-0.292579;4.17692;1.77439;1.41183;
-6.71079;1.63014;5.73199;-0.880721;-0.0592218;-0.294551;4.1836;1.77579;1.41208;
-6.71581;1.63046;5.73519;-0.880633;-0.0596176;-0.296513;4.19025;1.77719;1.41232;
-6.72081;1.63078;5.73838;-0.880546;-0.0600134;-0.298465;4.19688;1.77858;1.41257;
-6.72579;1.6311;5.74154;-0.880459;-0.0604093;-0.300407;4.2035;1.77996;1.41281;
-6.73074;1.63142;5.74468;-0.880372;-0.0608052;-0.30234;4.2101;1.78133;1.41305;
-6.73567;1.63174;5.74781;-0.880287;-0.0612012;-0.304263;4.21667;1.7827;1.41329;
-6.74058;1.63205;5.75091;-0.880202;-0.0615973;-0.306177;4.22323;1.78406;1.41353;
-6.74547;1.63237;5.754;-0.880117;-0.0619934;-0.308081;4.22977;1.78542;1.41377;
-6.75034;1.63268;5.75706;-0.880033;-0.0623896;-0.309976;4.23629;1.78677;1.414;
-6.75518;1.633;5.76011;-0.87995;-0.0627859;-0.311861;4.2428;1.78811;1.41424;
-6.76001;1.63331;5.76314;-0.879868;-0.0631823;-0.313737;4.24928;1.78944;1.41447;
-6.76481;1.63362;5.76615;-0.879786;-0.0635787;-0.315604;4.25574;1.79077;1.41471;
-6.76959;1.63394;5.76914;-0.879705;-0.0639752;-0.317461;4.26219;1.79209;1.41494;
-6.77436;1.63425;5.77211;-0.879624;-0.0643718;-0.319309;4.26862;1.79341;1.41517;
-6.7791;1.63456;5.77506;-0.879544;-0.0647685;-0.321147;4.27503;1.79472;1.4154;
-6.78382;1.63487;5.778;-0.879465;-0.0651653;-0.322977;4.28142;1.79602;1.41563;
-6.78852;1.63517;5.78091;-0.879386;-0.0655622;-0.324797;4.28779;1.79731;1.41586;
-6.7932;1.63548;5.78381;-0.879308;-0.0659591;-0.326608;4.29415;1.7986;1.41608;
-6.79785;1.63579;5.78669;-0.879231;-0.0663562;-0.328411;4.30048;1.79989;1.41631;
-6.80249;1.63609;5.78955;-0.879154;-0.0667534;-0.330204;4.3068;1.80117;1.41654;
-6.80711;1.6364;5.7924;-0.879078;-0.0671506;-0.331988;4.3131;1.80244;1.41676;
-6.81171;1.6367;5.79523;-0.879003;-0.067548;-0.333763;4.31939;1.8037;1.41698;
-6.81629;1.637;5.79804;-0.878928;-0.0679455;-0.335529;4.32565;1.80496;1.4172;
-6.82085;1.63731;5.80083;-0.878855;-0.0683431;-0.337287;4.3319;1.80621;1.41743;
-6.82539;1.63761;5.80361;-0.878781;-0.0687409;-0.339035;4.33813;1.80746;1.41765;
-6.82991;1.63791;5.80637;-0.878709;-0.0691387;-0.340775;4.34434;1.8087;1.41787;
-6.83441;1.63821;5.80911;-0.878637;-0.0695366;-0.342506;4.35053;1.80993;1.41808;
-6.83889;1.63851;5.81183;-0.878566;-0.0699347;-0.344228;4.3567;1.81116;1.4183;
-6.84335;1.6388;5.81454;-0.878495;-0.0703329;-0.345942;4.36286;1.81239;1.41852;
-6.8478;1.6391;5.81723;-0.878425;-0.0707312;-0.347647;4.369;1.8136;1.41873;
-6.85222;1.6394;5.81991;-0.878356;-0.0711296;-0.349343;4.37513;1.81481;1.41895;
-6.85663;1.63969;5.82257;-0.878288;-0.0715282;-0.351031;4.38123;1.81602;1.41916;
-6.86102;1.63999;5.82521;-0.87822;-0.0719269;-0.35271;4.38732;1.81722;1.41938;
-6.86538;1.64028;5.82784;-0.878153;-0.0723257;-0.35438;4.39339;1.81841;1.41959;
-6.86973;1.64058;5.83045;-0.878087;-0.0727246;-0.356043;4.39944;1.8196;1.4198;
-6.87407;1.64087;5.83304;-0.878021;-0.0731236;-0.357697;4.40548;1.82078;1.42001;
-6.87838;1.64116;5.83562;-0.877956;-0.0735228;-0.359342;4.4115;1.82196;1.42022;
-6.88267;1.64145;5.83819;-0.877892;-0.0739222;-0.360979;4.4175;1.82313;1.42043;
-6.88695;1.64174;5.84074;-0.877828;-0.0743216;-0.362608;4.42348;1.82429;1.42064;
-6.89121;1.64203;5.84327;-0.877765;-0.0747212;-0.364229;4.42945;1.82545;1.42085;
-6.89545;1.64232;5.84579;-0.877703;-0.0751209;-0.365841;4.4354;1.82661;1.42105;
-6.89967;1.6426;5.84829;-0.877642;-0.0755207;-0.367445;4.44133;1.82776;1.42126;
-6.90388;1.64289;5.85078;-0.877581;-0.0759207;-0.369041;4.44725;1.8289;1.42147;
-6.90807;1.64318;5.85325;-0.877521;-0.0763208;-0.370629;4.45315;1.83004;1.42167;
-6.91224;1.64346;5.85571;-0.877461;-0.0767211;-0.372209;4.45903;1.83117;1.42188;
-6.91639;1.64375;5.85815;-0.877403;-0.0771214;-0.37378;4.4649;1.8323;1.42208;
-6.92053;1.64403;5.86058;-0.877344;-0.077522;-0.375344;4.47074;1.83342;1.42228;
-6.92464;1.64431;5.86299;-0.877287;-0.0779226;-0.3769;4.47658;1.83454;1.42248;
-6.92874;1.64459;5.86539;-0.87723;-0.0783234;-0.378448;4.48239;1.83565;1.42268;
-6.93283;1.64487;5.86778;-0.877175;-0.0787243;-0.379988;4.48819;1.83675;1.42289;
-6.9369;1.64515;5.87015;-0.877119;-0.0791253;-0.38152;4.49397;1.83785;1.42309;
-6.94095;1.64543;5.87251;-0.877065;-0.0795265;-0.383044;4.49974;1.83895;1.42329;
-6.94498;1.64571;5.87485;-0.877011;-0.0799278;-0.384561;4.50549;1.84004;1.42348;
-6.949;1.64599;5.87718;-0.876958;-0.0803293;-0.38607;4.51122;1.84112;1.42368;
-6.953;1.64627;5.8795;-0.876905;-0.0807309;-0.387571;4.51694;1.8422;1.42388;
-6.95698;1.64654;5.8818;-0.876853;-0.0811326;-0.389064;4.52264;1.84328;1.42408;
-6.96095;1.64682;5.88409;-0.876802;-0.0815344;-0.39055;4.52833;1.84435;1.42427;
-6.9649;1.6471;5.88636;-0.876752;-0.0819364;-0.392028;4.534;1.84541;1.42447;
-6.96883;1.64737;5.88862;-0.876702;-0.0823385;-0.393499;4.53965;1.84647;1.42466;
-6.97275;1.64764;5.89087;-0.876653;-0.0827408;-0.394962;4.54528;1.84753;1.42486;
-6.97665;1.64792;5.8931;-0.876604;-0.0831431;-0.396417;4.5509;1.84858;1.42505;
-6.98054;1.64819;5.89532;-0.876556;-0.0835456;-0.397865;4.55651;1.84963;1.42525;
-6.98441;1.64846;5.89753;-0.876509;-0.0839482;-0.399306;4.5621;1.85067;1.42544;
-6.98826;1.64873;5.89973;-0.876463;-0.084351;-0.400739;4.56767;1.8517;1.42563;
-6.9921;1.649;5.90191;-0.876417;-0.0847539;-0.402165;4.57323;1.85273;1.42582;
-6.99593;1.64927;5.90408;-0.876372;-0.0851569;-0.403584;4.57877;1.85376;1.42602;
-6.99973;1.64954;5.90624;-0.876328;-0.08556;-0.404995;4.58429;1.85478;1.42621;
-7.00353;1.6498;5.90838;-0.876284;-0.0859633;-0.4064;4.5898;1.85579;1.4264;
-7.0073;1.65007;5.91051;-0.876241;-0.0863666;-0.407796;4.5953;1.85681;1.42659;
-7.01106;1.65034;5.91263;-0.876199;-0.0867701;-0.409186;4.60078;1.85781;1.42678;
-7.01481;1.6506;5.91474;-0.876157;-0.0871738;-0.410569;4.60624;1.85882;1.42696;
-7.01854;1.65086;5.91683;-0.876116;-0.0875775;-0.411944;4.61169;1.85981;1.42715;
-7.02226;1.65113;5.91892;-0.876075;-0.0879814;-0.413312;4.61712;1.86081;1.42734;
-7.02596;1.65139;5.92099;-0.876036;-0.0883853;-0.414674;4.62253;1.86179;1.42753;
-7.02964;1.65165;5.92305;-0.875996;-0.0887894;-0.416028;4.62794;1.86278;1.42772;
-7.03332;1.65191;5.92509;-0.875958;-0.0891936;-0.417375;4.63332;1.86376;1.4279;
-7.03697;1.65218;5.92713;-0.87592;-0.0895979;-0.418716;4.63869;1.86473;1.42809;
-7.04061;1.65244;5.92915;-0.875883;-0.0900024;-0.420049;4.64405;1.8657;1.42827;
-7.04424;1.65269;5.93116;-0.875846;-0.0904069;-0.421376;4.64939;1.86667;1.42846;
-7.04785;1.65295;5.93316;-0.875811;-0.0908116;-0.422696;4.65471;1.86763;1.42864;
-7.05145;1.65321;5.93515;-0.875775;-0.0912163;-0.424009;4.66002;1.86859;1.42883;
-7.05503;1.65347;5.93713;-0.875741;-0.0916212;-0.425315;4.66532;1.86954;1.42901;
-7.0586;1.65372;5.93909;-0.875707;-0.0920261;-0.426614;4.6706;1.87049;1.42919;
-7.06216;1.65398;5.94104;-0.875673;-0.0924312;-0.427907;4.67586;1.87143;1.42938;
-7.0657;1.65423;5.94299;-0.875641;-0.0928364;-0.429193;4.68111;1.87237;1.42956;
-7.06923;1.65449;5.94492;-0.875608;-0.0932416;-0.430472;4.68635;1.8733;1.42974;
-7.07274;1.65474;5.94684;-0.875577;-0.093647;-0.431745;4.69157;1.87424;1.42992;
-7.07624;1.65499;5.94875;-0.875546;-0.0940524;-0.433011;4.69678;1.87516;1.4301;
-7.07972;1.65525;5.95065;-0.875516;-0.094458;-0.434271;4.70197;1.87608;1.43029;
-7.08319;1.6555;5.95254;-0.875486;-0.0948636;-0.435524;4.70714;1.877;1.43047;
-7.08665;1.65575;5.95441;-0.875457;-0.0952694;-0.436771;4.71231;1.87792;1.43065;
-7.09009;1.656;5.95628;-0.875429;-0.0956752;-0.438011;4.71745;1.87883;1.43083;
-7.09352;1.65625;5.95813;-0.875401;-0.0960811;-0.439245;4.72259;1.87973;1.43101;
-7.09694;1.6565;5.95998;-0.875374;-0.0964871;-0.440472;4.7277;1.88063;1.43118;
-7.10034;1.65674;5.96181;-0.875347;-0.0968932;-0.441693;4.73281;1.88153;1.43136;
-7.10373;1.65699;5.96364;-0.875321;-0.0972993;-0.442908;4.7379;1.88242;1.43154;
-7.10711;1.65724;5.96545;-0.875296;-0.0977055;-0.444116;4.74297;1.88331;1.43172;
-7.11047;1.65748;5.96725;-0.875271;-0.0981118;-0.445318;4.74803;1.8842;1.4319;
-7.11382;1.65773;5.96905;-0.875247;-0.0985182;-0.446514;4.75308;1.88508;1.43207;
-7.11716;1.65797;5.97083;-0.875223;-0.0989247;-0.447704;4.75811;1.88596;1.43225;
-7.12048;1.65822;5.9726;-0.8752;-0.0993312;-0.448887;4.76313;1.88683;1.43243;
-7.12379;1.65846;5.97437;-0.875178;-0.0997378;-0.450065;4.76813;1.8877;1.4326;
-7.12709;1.6587;5.97612;-0.875156;-0.100144;-0.451236;4.77312;1.88857;1.43278;
-7.13037;1.65894;5.97786;-0.875135;-0.100551;-0.452401;4.7781;1.88943;1.43295;
-7.13364;1.65918;5.9796;-0.875114;-0.100958;-0.45356;4.78306;1.89028;1.43313;
-7.1369;1.65942;5.98132;-0.875094;-0.101365;-0.454713;4.78801;1.89114;1.4333;
-7.14015;1.65966;5.98303;-0.875075;-0.101772;-0.45586;4.79294;1.89199;1.43348;
-7.14338;1.6599;5.98474;-0.875056;-0.102179;-0.457001;4.79786;1.89283;1.43365;
-7.1466;1.66014;5.98643;-0.875037;-0.102586;-0.458137;4.80277;1.89368;1.43383;
-7.14981;1.66038;5.98812;-0.875019;-0.102993;-0.459266;4.80766;1.89451;1.434;
-7.15301;1.66061;5.98979;-0.875002;-0.1034;-0.460389;4.81254;1.89535;1.43417;
-7.15619;1.66085;5.99146;-0.874985;-0.103807;-0.461507;4.8174;1.89618;1.43435;
-7.15936;1.66108;5.99312;-0.874969;-0.104214;-0.462618;4.82226;1.89701;1.43452;
-7.16252;1.66132;5.99476;-0.874953;-0.104621;-0.463724;4.82709;1.89783;1.43469;
-7.16567;1.66155;5.9964;-0.874938;-0.105029;-0.464824;4.83192;1.89865;1.43486;
-7.1688;1.66179;5.99803;-0.874924;-0.105436;-0.465919;4.83673;1.89947;1.43503;
-7.17192;1.66202;5.99965;-0.87491;-0.105843;-0.467008;4.84152;1.90028;1.43521;
-7.17503;1.66225;6.00126;-0.874896;-0.106251;-0.468091;4.84631;1.90109;1.43538;
-7.17813;1.66248;6.00286;-0.874883;-0.106658;-0.469168;4.85108;1.90189;1.43555;
-7.18122;1.66271;6.00446;-0.874871;-0.107065;-0.47024;4.85583;1.9027;1.43572;
-7.18429;1.66294;6.00604;-0.874859;-0.107473;-0.471306;4.86058;1.90349;1.43589;
-7.18736;1.66317;6.00762;-0.874847;-0.10788;-0.472367;4.86531;1.90429;1.43606;
-7.19041;1.6634;6.00918;-0.874837;-0.108288;-0.473422;4.87002;1.90508;1.43623;
-7.19345;1.66363;6.01074;-0.874826;-0.108695;-0.474471;4.87473;1.90587;1.4364;
-7.19647;1.66385;6.01229;-0.874816;-0.109103;-0.475515;4.87942;1.90665;1.43657;
-7.19949;1.66408;6.01383;-0.874807;-0.10951;-0.476554;4.88409;1.90743;1.43674;
-7.20249;1.66431;6.01537;-0.874798;-0.109918;-0.477587;4.88876;1.90821;1.4369;
-7.20549;1.66453;6.01689;-0.87479;-0.110326;-0.478615;4.89341;1.90898;1.43707;
-7.20847;1.66476;6.01841;-0.874782;-0.110733;-0.479637;4.89805;1.90975;1.43724;
-7.21144;1.66498;6.01991;-0.874775;-0.111141;-0.480654;4.90267;1.91052;1.43741;
-7.2144;1.6652;6.02141;-0.874768;-0.111548;-0.481666;4.90728;1.91128;1.43758;
-7.21735;1.66543;6.0229;-0.874762;-0.111956;-0.482673;4.91188;1.91204;1.43774;
-7.22028;1.66565;6.02439;-0.874756;-0.112363;-0.483674;4.91647;1.9128;1.43791;
-7.22321;1.66587;6.02586;-0.874751;-0.112771;-0.48467;4.92104;1.91355;1.43808;
-7.22612;1.66609;6.02733;-0.874746;-0.113178;-0.485661;4.9256;1.9143;1.43824;
-7.22903;1.66631;6.02879;-0.874741;-0.113586;-0.486646;4.93015;1.91505;1.43841;
-7.23192;1.66653;6.03024;-0.874737;-0.113993;-0.487627;4.93468;1.91579;1.43858;
-7.2348;1.66675;6.03168;-0.874734;-0.114401;-0.488602;4.9392;1.91653;1.43874;
-7.23767;1.66697;6.03311;-0.874731;-0.114808;-0.489572;4.94371;1.91727;1.43891;
-7.24053;1.66718;6.03454;-0.874729;-0.115216;-0.490537;4.94821;1.918;1.43907;
-7.24338;1.6674;6.03596;-0.874726;-0.115623;-0.491497;4.95269;1.91873;1.43924;
-7.24622;1.66762;6.03737;-0.874725;-0.116031;-0.492452;4.95717;1.91946;1.43941;
-7.24905;1.66783;6.03877;-0.874724;-0.116438;-0.493402;4.96163;1.92018;1.43957;
-7.25186;1.66805;6.04017;-0.874723;-0.116845;-0.494347;4.96607;1.9209;1.43973;
-7.25467;1.66826;6.04156;-0.874723;-0.117252;-0.495287;4.97051;1.92162;1.4399;
-7.25747;1.66847;6.04294;-0.874723;-0.11766;-0.496222;4.97493;1.92234;1.44006;
-7.26025;1.66869;6.04431;-0.874724;-0.118067;-0.497152;4.97934;1.92305;1.44023;
-7.26303;1.6689;6.04568;-0.874725;-0.118474;-0.498078;4.98374;1.92376;1.44039;
-7.26579;1.66911;6.04703;-0.874727;-0.118881;-0.498998;4.98812;1.92446;1.44055;
-7.26855;1.66932;6.04839;-0.874729;-0.119288;-0.499914;4.99249;1.92516;1.44072;
-7.27129;1.66953;6.04973;-0.874731;-0.119695;-0.500824;4.99685;1.92586;1.44088;
-7.27402;1.66974;6.05107;-0.874734;-0.120102;-0.501731;5.0012;1.92656;1.44104;
-7.27675;1.66995;6.05239;-0.874737;-0.120509;-0.502632;5.00554;1.92725;1.44121;
-7.27946;1.67016;6.05372;-0.874741;-0.120916;-0.503528;5.00986;1.92794;1.44137;
-7.28216;1.67037;6.05503;-0.874745;-0.121323;-0.50442;5.01417;1.92863;1.44153;
-7.28486;1.67058;6.05634;-0.87475;-0.121729;-0.505307;5.01847;1.92931;1.44169;
-7.28754;1.67078;6.05764;-0.874755;-0.122136;-0.50619;5.02276;1.92999;1.44185;
-7.29021;1.67099;6.05893;-0.87476;-0.122542;-0.507068;5.02704;1.93067;1.44202;
-7.29288;1.67119;6.06022;-0.874766;-0.122949;-0.507941;5.0313;1.93135;1.44218;
-7.29553;1.6714;6.0615;-0.874772;-0.123355;-0.508809;5.03555;1.93202;1.44234;
-7.29818;1.6716;6.06277;-0.874779;-0.123762;-0.509673;5.0398;1.93269;1.4425;
-7.30081;1.67181;6.06404;-0.874786;-0.124168;-0.510533;5.04402;1.93335;1.44266;
-7.30343;1.67201;6.0653;-0.874794;-0.124574;-0.511388;5.04824;1.93402;1.44282;
-7.30605;1.67221;6.06655;-0.874801;-0.12498;-0.512238;5.05245;1.93468;1.44298;
-7.30865;1.67241;6.0678;-0.87481;-0.125386;-0.513084;5.05664;1.93533;1.44314;
-7.31125;1.67262;6.06904;-0.874818;-0.125792;-0.513926;5.06082;1.93599;1.4433;
-7.31383;1.67282;6.07027;-0.874827;-0.126198;-0.514763;5.06499;1.93664;1.44346;
-7.31641;1.67302;6.0715;-0.874837;-0.126603;-0.515596;5.06915;1.93729;1.44362;
-7.31898;1.67322;6.07271;-0.874846;-0.127009;-0.516424;5.0733;1.93794;1.44378;
-7.32154;1.67341;6.07393;-0.874857;-0.127414;-0.517248;5.07743;1.93858;1.44394;
-7.32408;1.67361;6.07513;-0.874867;-0.12782;-0.518068;5.08156;1.93922;1.4441;
-7.32662;1.67381;6.07633;-0.874878;-0.128225;-0.518883;5.08567;1.93986;1.44426;
-7.32915;1.67401;6.07753;-0.874889;-0.12863;-0.519694;5.08977;1.94049;1.44442;
-7.33167;1.6742;6.07872;-0.874901;-0.129035;-0.520501;5.09386;1.94113;1.44458;
-7.33418;1.6744;6.0799;-0.874913;-0.12944;-0.521303;5.09794;1.94176;1.44473;
-7.33668;1.67459;6.08107;-0.874925;-0.129845;-0.522101;5.102;1.94238;1.44489;
-7.33918;1.67479;6.08224;-0.874938;-0.13025;-0.522895;5.10606;1.94301;1.44505;
-7.34166;1.67498;6.0834;-0.874951;-0.130654;-0.523685;5.1101;1.94363;1.44521;
-7.34414;1.67518;6.08456;-0.874964;-0.131059;-0.524471;5.11414;1.94425;1.44536;
-7.3466;1.67537;6.08571;-0.874978;-0.131463;-0.525252;5.11816;1.94487;1.44552;
-7.34906;1.67556;6.08685;-0.874992;-0.131867;-0.52603;5.12217;1.94548;1.44568;
-7.35151;1.67575;6.08799;-0.875007;-0.132271;-0.526803;5.12617;1.94609;1.44584;
-7.35394;1.67594;6.08912;-0.875022;-0.132675;-0.527572;5.13016;1.9467;1.44599;
-7.35637;1.67613;6.09025;-0.875037;-0.133079;-0.528337;5.13413;1.94731;1.44615;
-7.3588;1.67632;6.09137;-0.875052;-0.133483;-0.529098;5.1381;1.94791;1.44631;
-7.36121;1.67651;6.09248;-0.875068;-0.133886;-0.529856;5.14206;1.94851;1.44646;
-7.36361;1.6767;6.09359;-0.875084;-0.134289;-0.530609;5.146;1.94911;1.44662;
-7.36601;1.67689;6.09469;-0.875101;-0.134693;-0.531358;5.14993;1.9497;1.44678;
-7.36839;1.67708;6.09579;-0.875117;-0.135096;-0.532103;5.15386;1.9503;1.44693;
-7.37077;1.67727;6.09688;-0.875134;-0.135498;-0.532844;5.15777;1.95089;1.44709;
-7.37314;1.67745;6.09797;-0.875152;-0.135901;-0.533581;5.16167;1.95148;1.44724;
-7.3755;1.67764;6.09905;-0.87517;-0.136304;-0.534315;5.16556;1.95206;1.4474;
-7.37785;1.67782;6.10012;-0.875188;-0.136706;-0.535044;5.16944;1.95264;1.44755;
-7.3802;1.67801;6.10119;-0.875206;-0.137108;-0.53577;5.17331;1.95323;1.44771;
-7.38253;1.67819;6.10225;-0.875225;-0.13751;-0.536492;5.17717;1.9538;1.44786;
-7.38486;1.67838;6.10331;-0.875244;-0.137912;-0.53721;5.18101;1.95438;1.44802;
-7.38718;1.67856;6.10436;-0.875263;-0.138314;-0.537924;5.18485;1.95495;1.44817;
-7.38949;1.67874;6.1054;-0.875283;-0.138716;-0.538634;5.18868;1.95552;1.44833;
-7.39179;1.67892;6.10644;-0.875303;-0.139117;-0.539341;5.19249;1.95609;1.44848;
-7.39408;1.67911;6.10748;-0.875323;-0.139518;-0.540044;5.1963;1.95666;1.44864;
-7.39637;1.67929;6.10851;-0.875343;-0.139919;-0.540743;5.20009;1.95722;1.44879;
-7.39865;1.67947;6.10953;-0.875364;-0.14032;-0.541438;5.20387;1.95778;1.44894;
-7.40091;1.67965;6.11055;-0.875385;-0.140721;-0.54213;5.20765;1.95834;1.4491;
-7.40318;1.67983;6.11157;-0.875406;-0.141121;-0.542818;5.21141;1.9589;1.44925;
-7.40543;1.68;6.11258;-0.875428;-0.141521;-0.543503;5.21516;1.95945;1.4494;
-7.40767;1.68018;6.11358;-0.87545;-0.141921;-0.544183;5.2189;1.96001;1.44956;
-7.40991;1.68036;6.11458;-0.875472;-0.142321;-0.544861;5.22264;1.96055;1.44971;
-7.41214;1.68054;6.11557;-0.875494;-0.142721;-0.545534;5.22636;1.9611;1.44986;
-7.41436;1.68071;6.11656;-0.875517;-0.14312;-0.546204;5.23007;1.96165;1.45001;
-7.41657;1.68089;6.11754;-0.87554;-0.14352;-0.546871;5.23377;1.96219;1.45017;
-7.41878;1.68106;6.11852;-0.875563;-0.143919;-0.547534;5.23746;1.96273;1.45032;
-7.42098;1.68124;6.11949;-0.875587;-0.144318;-0.548193;5.24114;1.96327;1.45047;
-7.42317;1.68141;6.12046;-0.875611;-0.144716;-0.548849;5.24481;1.9638;1.45062;
-7.42535;1.68159;6.12142;-0.875635;-0.145115;-0.549502;5.24847;1.96434;1.45078;
-7.42752;1.68176;6.12238;-0.875659;-0.145513;-0.550151;5.25212;1.96487;1.45093;
-7.42969;1.68193;6.12333;-0.875684;-0.145911;-0.550796;5.25576;1.9654;1.45108;
-7.43185;1.6821;6.12428;-0.875709;-0.146309;-0.551439;5.25939;1.96593;1.45123;
-7.434;1.68228;6.12522;-0.875734;-0.146706;-0.552077;5.26301;1.96645;1.45138;
-7.43614;1.68245;6.12616;-0.875759;-0.147103;-0.552713;5.26662;1.96697;1.45153;
-7.43828;1.68262;6.12709;-0.875785;-0.147501;-0.553345;5.27022;1.96749;1.45168;
-7.44041;1.68279;6.12802;-0.87581;-0.147897;-0.553973;5.27381;1.96801;1.45183;
-7.44253;1.68296;6.12894;-0.875836;-0.148294;-0.554598;5.27739;1.96853;1.45198;
-7.44464;1.68313;6.12986;-0.875863;-0.14869;-0.55522;5.28096;1.96904;1.45213;
-7.44675;1.68329;6.13078;-0.875889;-0.149087;-0.555839;5.28452;1.96955;1.45228;
-7.44885;1.68346;6.13168;-0.875916;-0.149483;-0.556454;5.28807;1.97006;1.45243;
-7.45094;1.68363;6.13259;-0.875943;-0.149878;-0.557066;5.29162;1.97057;1.45258;
-7.45303;1.6838;6.13349;-0.87597;-0.150274;-0.557675;5.29515;1.97108;1.45273;
-7.4551;1.68396;6.13439;-0.875998;-0.150669;-0.558281;5.29867;1.97158;1.45288;
-7.45717;1.68413;6.13528;-0.876025;-0.151064;-0.558883;5.30218;1.97208;1.45303;
-7.45923;1.68429;6.13616;-0.876053;-0.151459;-0.559482;5.30568;1.97258;1.45318;
-7.46129;1.68446;6.13704;-0.876081;-0.151853;-0.560078;5.30918;1.97308;1.45333;
-7.46334;1.68462;6.13792;-0.87611;-0.152247;-0.560671;5.31266;1.97357;1.45348;
-7.46538;1.68479;6.13879;-0.876138;-0.152641;-0.561261;5.31613;1.97406;1.45363;
-7.46741;1.68495;6.13966;-0.876167;-0.153035;-0.561847;5.3196;1.97455;1.45378;
-7.46944;1.68511;6.14053;-0.876196;-0.153428;-0.562431;5.32305;1.97504;1.45393;
-7.47146;1.68527;6.14139;-0.876225;-0.153821;-0.563011;5.32649;1.97553;1.45408;
-7.47347;1.68544;6.14224;-0.876254;-0.154214;-0.563588;5.32993;1.97602;1.45422;
-7.47548;1.6856;6.14309;-0.876284;-0.154607;-0.564162;5.33336;1.9765;1.45437;
-7.47748;1.68576;6.14394;-0.876314;-0.154999;-0.564733;5.33677;1.97698;1.45452;
-7.47947;1.68592;6.14478;-0.876344;-0.155391;-0.565301;5.34018;1.97746;1.45467;
-7.48145;1.68608;6.14562;-0.876374;-0.155783;-0.565866;5.34358;1.97793;1.45481;
-7.48343;1.68624;6.14645;-0.876404;-0.156175;-0.566428;5.34697;1.97841;1.45496;
-7.4854;1.6864;6.14728;-0.876435;-0.156566;-0.566987;5.35034;1.97888;1.45511;
-7.48737;1.68655;6.14811;-0.876466;-0.156957;-0.567543;5.35371;1.97935;1.45526;
-7.48932;1.68671;6.14893;-0.876497;-0.157348;-0.568097;5.35708;1.97982;1.4554;
-7.49128;1.68687;6.14975;-0.876528;-0.157738;-0.568647;5.36043;1.98029;1.45555;
-7.49322;1.68703;6.15056;-0.876559;-0.158128;-0.569194;5.36377;1.98076;1.4557;
-7.49516;1.68718;6.15137;-0.876591;-0.158518;-0.569738;5.3671;1.98122;1.45584;
-7.49709;1.68734;6.15217;-0.876623;-0.158907;-0.570279;5.37043;1.98168;1.45599;
-7.49901;1.68749;6.15297;-0.876655;-0.159297;-0.570818;5.37374;1.98214;1.45614;
-7.50093;1.68765;6.15377;-0.876687;-0.159686;-0.571353;5.37705;1.9826;1.45628;
-7.50284;1.6878;6.15456;-0.876719;-0.160074;-0.571886;5.38034;1.98305;1.45643;
-7.50474;1.68796;6.15535;-0.876751;-0.160463;-0.572416;5.38363;1.98351;1.45657;
-7.50664;1.68811;6.15613;-0.876784;-0.160851;-0.572943;5.38691;1.98396;1.45672;
-7.50853;1.68826;6.15692;-0.876817;-0.161239;-0.573467;5.39018;1.98441;1.45687;
-7.51042;1.68841;6.15769;-0.87685;-0.161626;-0.573989;5.39344;1.98486;1.45701;
-7.5123;1.68857;6.15846;-0.876883;-0.162013;-0.574507;5.39669;1.9853;1.45716;
-7.51417;1.68872;6.15923;-0.876916;-0.1624;-0.575023;5.39993;1.98575;1.4573;
-7.51603;1.68887;6.16;-0.876949;-0.162787;-0.575536;5.40317;1.98619;1.45745;
-7.51789;1.68902;6.16076;-0.876983;-0.163173;-0.576047;5.40639;1.98663;1.45759;
-7.51974;1.68917;6.16152;-0.877017;-0.163559;-0.576555;5.40961;1.98707;1.45773;
-7.52159;1.68932;6.16227;-0.877051;-0.163944;-0.577059;5.41282;1.98751;1.45788;
-7.52343;1.68947;6.16302;-0.877085;-0.16433;-0.577562;5.41602;1.98795;1.45802;
-7.52526;1.68961;6.16377;-0.877119;-0.164715;-0.578061;5.41921;1.98838;1.45817;
-7.52709;1.68976;6.16451;-0.877153;-0.165099;-0.578558;5.42239;1.98881;1.45831;
-7.52891;1.68991;6.16525;-0.877188;-0.165484;-0.579052;5.42556;1.98924;1.45846;
-7.53073;1.69006;6.16598;-0.877223;-0.165868;-0.579544;5.42872;1.98967;1.4586;
-7.53254;1.6902;6.16671;-0.877257;-0.166251;-0.580033;5.43188;1.9901;1.45874;
-7.53434;1.69035;6.16744;-0.877292;-0.166635;-0.580519;5.43503;1.99052;1.45889;
-7.53614;1.6905;6.16817;-0.877327;-0.167018;-0.581003;5.43816;1.99095;1.45903;
-7.53793;1.69064;6.16889;-0.877363;-0.1674;-0.581484;5.44129;1.99137;1.45917;
-7.53971;1.69079;6.1696;-0.877398;-0.167783;-0.581963;5.44441;1.99179;1.45931;
-7.54149;1.69093;6.17032;-0.877434;-0.168165;-0.582439;5.44753;1.99221;1.45946;
-7.54326;1.69107;6.17103;-0.877469;-0.168547;-0.582912;5.45063;1.99262;1.4596;
-7.54503;1.69122;6.17173;-0.877505;-0.168928;-0.583383;5.45373;1.99304;1.45974;
-7.54679;1.69136;6.17244;-0.877541;-0.169309;-0.583852;5.45681;1.99345;1.45988;
-7.54854;1.6915;6.17314;-0.877577;-0.16969;-0.584318;5.45989;1.99386;1.46003;
-7.55029;1.69164;6.17383;-0.877613;-0.17007;-0.584781;5.46296;1.99427;1.46017;
-7.55203;1.69179;6.17452;-0.87765;-0.17045;-0.585242;5.46602;1.99468;1.46031;
-7.55377;1.69193;6.17521;-0.877686;-0.17083;-0.5857;5.46908;1.99509;1.46045;
-7.5555;1.69207;6.1759;-0.877723;-0.171209;-0.586156;5.47212;1.99549;1.46059;
-7.55723;1.69221;6.17658;-0.877759;-0.171588;-0.58661;5.47516;1.9959;1.46074;
-7.55895;1.69235;6.17726;-0.877796;-0.171966;-0.587061;5.47819;1.9963;1.46088;
-7.56066;1.69249;6.17793;-0.877833;-0.172345;-0.58751;5.48121;1.9967;1.46102;
-7.56237;1.69263;6.17861;-0.87787;-0.172723;-0.587956;5.48422;1.9971;1.46116;
-7.56407;1.69276;6.17927;-0.877907;-0.1731;-0.5884;5.48722;1.99749;1.4613;
-7.56577;1.6929;6.17994;-0.877945;-0.173477;-0.588842;5.49022;1.99789;1.46144;
-7.56746;1.69304;6.1806;-0.877982;-0.173854;-0.589281;5.49321;1.99828;1.46158;
-7.56914;1.69318;6.18126;-0.87802;-0.174231;-0.589718;5.49619;1.99868;1.46172;
-7.57082;1.69331;6.18192;-0.878057;-0.174607;-0.590152;5.49916;1.99907;1.46186;
-7.57249;1.69345;6.18257;-0.878095;-0.174982;-0.590584;5.50212;1.99945;1.462;
-7.57416;1.69359;6.18322;-0.878133;-0.175358;-0.591014;5.50508;1.99984;1.46214;
-7.57582;1.69372;6.18386;-0.878171;-0.175733;-0.591441;5.50802;2.00023;1.46228;
-7.57748;1.69386;6.18451;-0.878209;-0.176107;-0.591867;5.51096;2.00061;1.46242;
-7.57913;1.69399;6.18515;-0.878247;-0.176482;-0.59229;5.51389;2.001;1.46256;
-7.58078;1.69412;6.18578;-0.878285;-0.176856;-0.59271;5.51682;2.00138;1.4627;
-7.58242;1.69426;6.18642;-0.878323;-0.177229;-0.593129;5.51973;2.00176;1.46284;
-7.58405;1.69439;6.18705;-0.878362;-0.177602;-0.593545;5.52264;2.00214;1.46298;
-7.58568;1.69452;6.18767;-0.8784;-0.177975;-0.593959;5.52554;2.00251;1.46311;
-7.58731;1.69466;6.1883;-0.878439;-0.178347;-0.59437;5.52843;2.00289;1.46325;
-7.58892;1.69479;6.18892;-0.878478;-0.17872;-0.59478;5.53131;2.00326;1.46339;
-7.59054;1.69492;6.18954;-0.878517;-0.179091;-0.595187;5.53419;2.00363;1.46353;
-7.59215;1.69505;6.19015;-0.878555;-0.179462;-0.595592;5.53706;2.004;1.46367;
-7.59375;1.69518;6.19076;-0.878594;-0.179833;-0.595995;5.53992;2.00437;1.46381;
-7.59534;1.69531;6.19137;-0.878634;-0.180204;-0.596396;5.54277;2.00474;1.46394;
-7.59694;1.69544;6.19198;-0.878673;-0.180574;-0.596794;5.54561;2.00511;1.46408;
-7.59852;1.69557;6.19258;-0.878712;-0.180944;-0.597191;5.54845;2.00547;1.46422;
-7.6001;1.6957;6.19318;-0.878751;-0.181313;-0.597585;5.55128;2.00584;1.46436;
-7.60168;1.69583;6.19378;-0.878791;-0.181682;-0.597977;5.5541;2.0062;1.46449;
-7.60325;1.69596;6.19438;-0.87883;-0.18205;-0.598367;5.55691;2.00656;1.46463;
-7.60482;1.69608;6.19497;-0.87887;-0.182419;-0.598755;5.55972;2.00692;1.46477;
-7.60638;1.69621;6.19556;-0.87891;-0.182786;-0.599141;5.56252;2.00728;1.4649;
-7.60793;1.69634;6.19614;-0.878949;-0.183154;-0.599525;5.56531;2.00763;1.46504;
-7.60948;1.69646;6.19672;-0.878989;-0.183521;-0.599907;5.56809;2.00799;1.46518;
-7.61103;1.69659;6.1973;-0.879029;-0.183887;-0.600286;5.57087;2.00834;1.46531;
-7.61257;1.69672;6.19788;-0.879069;-0.184253;-0.600664;5.57364;2.00869;1.46545;
-7.6141;1.69684;6.19846;-0.879109;-0.184619;-0.60104;5.5764;2.00904;1.46558;
-7.61563;1.69697;6.19903;-0.879149;-0.184985;-0.601413;5.57915;2.00939;1.46572;
-7.61716;1.69709;6.1996;-0.879189;-0.18535;-0.601785;5.5819;2.00974;1.46586;
-7.61868;1.69722;6.20016;-0.87923;-0.185714;-0.602154;5.58463;2.01009;1.46599;
-7.62019;1.69734;6.20073;-0.87927;-0.186078;-0.602522;5.58737;2.01043;1.46613;
-7.6217;1.69746;6.20129;-0.87931;-0.186442;-0.602888;5.59009;2.01078;1.46626;
-7.62321;1.69758;6.20184;-0.879351;-0.186806;-0.603251;5.59281;2.01112;1.4664;
-7.62471;1.69771;6.2024;-0.879391;-0.187168;-0.603613;5.59551;2.01146;1.46653;
-7.6262;1.69783;6.20295;-0.879432;-0.187531;-0.603973;5.59822;2.0118;1.46667;
-7.62769;1.69795;6.2035;-0.879472;-0.187893;-0.60433;5.60091;2.01214;1.4668;
-7.62918;1.69807;6.20405;-0.879513;-0.188255;-0.604686;5.6036;2.01248;1.46693;
-7.63066;1.69819;6.20459;-0.879554;-0.188616;-0.60504;5.60628;2.01281;1.46707;
-7.63213;1.69831;6.20514;-0.879595;-0.188977;-0.605392;5.60895;2.01315;1.4672;
-7.6336;1.69843;6.20568;-0.879635;-0.189338;-0.605742;5.61161;2.01348;1.46734;
-7.63507;1.69855;6.20621;-0.879676;-0.189698;-0.60609;5.61427;2.01381;1.46747;
-7.63653;1.69867;6.20675;-0.879717;-0.190057;-0.606437;5.61692;2.01414;1.4676;
-7.63798;1.69879;6.20728;-0.879758;-0.190417;-0.606781;5.61957;2.01447;1.46774;
-7.63944;1.69891;6.20781;-0.879799;-0.190775;-0.607124;5.6222;2.0148;1.46787;
-7.64088;1.69903;6.20833;-0.879841;-0.191134;-0.607464;5.62483;2.01513;1.468;
-7.64232;1.69915;6.20886;-0.879882;-0.191492;-0.607803;5.62745;2.01545;1.46814;
-7.64376;1.69926;6.20938;-0.879923;-0.191849;-0.60814;5.63007;2.01578;1.46827;
-7.64519;1.69938;6.2099;-0.879964;-0.192206;-0.608476;5.63268;2.0161;1.4684;
-7.64662;1.6995;6.21041;-0.880006;-0.192563;-0.608809;5.63528;2.01642;1.46853;
-7.64805;1.69961;6.21093;-0.880047;-0.192919;-0.609141;5.63787;2.01674;1.46867;
-7.64946;1.69973;6.21144;-0.880088;-0.193275;-0.609471;5.64046;2.01706;1.4688;
-7.65088;1.69985;6.21195;-0.88013;-0.193631;-0.609799;5.64304;2.01738;1.46893;
-7.65229;1.69996;6.21246;-0.880171;-0.193986;-0.610125;5.64561;2.0177;1.46906;
-7.65369;1.70008;6.21296;-0.880213;-0.19434;-0.610449;5.64818;2.01801;1.46919;
-7.65509;1.70019;6.21346;-0.880254;-0.194694;-0.610772;5.65074;2.01833;1.46932;
-7.65649;1.7003;6.21396;-0.880296;-0.195048;-0.611093;5.65329;2.01864;1.46946;
-7.65788;1.70042;6.21446;-0.880338;-0.195401;-0.611412;5.65583;2.01895;1.46959;
-7.65927;1.70053;6.21495;-0.880379;-0.195754;-0.61173;5.65837;2.01926;1.46972;
-7.66065;1.70064;6.21545;-0.880421;-0.196106;-0.612046;5.6609;2.01957;1.46985;
-7.66203;1.70076;6.21594;-0.880463;-0.196458;-0.61236;5.66343;2.01988;1.46998;
-7.6634;1.70087;6.21642;-0.880505;-0.19681;-0.612672;5.66595;2.02019;1.47011;
-7.66477;1.70098;6.21691;-0.880546;-0.197161;-0.612983;5.66846;2.02049;1.47024;
-7.66613;1.70109;6.21739;-0.880588;-0.197512;-0.613292;5.67096;2.0208;1.47037;
-7.66749;1.7012;6.21787;-0.88063;-0.197862;-0.613599;5.67346;2.0211;1.4705;
-7.66885;1.70131;6.21835;-0.880672;-0.198212;-0.613905;5.67595;2.0214;1.47063;
-7.6702;1.70143;6.21883;-0.880714;-0.198561;-0.614209;5.67843;2.02171;1.47076;
-7.67155;1.70154;6.2193;-0.880756;-0.19891;-0.614511;5.68091;2.02201;1.47089;
-7.67289;1.70164;6.21977;-0.880798;-0.199258;-0.614812;5.68338;2.0223;1.47102;
-7.67423;1.70175;6.22024;-0.88084;-0.199606;-0.615111;5.68585;2.0226;1.47115;
-7.67556;1.70186;6.22071;-0.880882;-0.199954;-0.615409;5.6883;2.0229;1.47128;
-7.67689;1.70197;6.22117;-0.880924;-0.200301;-0.615705;5.69075;2.02319;1.4714;
-7.67822;1.70208;6.22164;-0.880966;-0.200648;-0.615999;5.6932;2.02349;1.47153;
-7.67954;1.70219;6.2221;-0.881008;-0.200994;-0.616291;5.69564;2.02378;1.47166;
-7.68086;1.7023;6.22256;-0.88105;-0.20134;-0.616583;5.69807;2.02407;1.47179;
-7.68217;1.7024;6.22301;-0.881093;-0.201685;-0.616872;5.70049;2.02436;1.47192;
-7.68348;1.70251;6.22347;-0.881135;-0.20203;-0.61716;5.70291;2.02465;1.47205;
-7.68478;1.70262;6.22392;-0.881177;-0.202374;-0.617446;5.70532;2.02494;1.47217;
-7.68608;1.70272;6.22437;-0.881219;-0.202718;-0.617731;5.70773;2.02523;1.4723;
-7.68738;1.70283;6.22482;-0.881261;-0.203062;-0.618014;5.71012;2.02552;1.47243;
-7.68867;1.70293;6.22526;-0.881304;-0.203405;-0.618296;5.71252;2.0258;1.47256;
-7.68996;1.70304;6.22571;-0.881346;-0.203748;-0.618576;5.7149;2.02609;1.47268;
-7.69124;1.70314;6.22615;-0.881388;-0.20409;-0.618855;5.71728;2.02637;1.47281;
-7.69252;1.70325;6.22659;-0.881431;-0.204432;-0.619132;5.71965;2.02665;1.47294;
-7.6938;1.70335;6.22702;-0.881473;-0.204773;-0.619408;5.72202;2.02693;1.47306;
-7.69507;1.70346;6.22746;-0.881515;-0.205114;-0.619682;5.72438;2.02721;1.47319;
-7.69634;1.70356;6.22789;-0.881558;-0.205454;-0.619954;5.72673;2.02749;1.47332;
-7.6976;1.70366;6.22832;-0.8816;-0.205794;-0.620226;5.72908;2.02777;1.47344;
-7.69886;1.70377;6.22875;-0.881642;-0.206133;-0.620495;5.73142;2.02805;1.47357;
-7.70011;1.70387;6.22918;-0.881685;-0.206472;-0.620763;5.73376;2.02832;1.47369;
-7.70136;1.70397;6.2296;-0.881727;-0.206811;-0.62103;5.73609;2.0286;1.47382;
-7.70261;1.70407;6.23003;-0.881769;-0.207149;-0.621295;5.73841;2.02887;1.47394;
-7.70386;1.70417;6.23045;-0.881812;-0.207487;-0.621559;5.74072;2.02914;1.47407;
-7.70509;1.70428;6.23087;-0.881854;-0.207824;-0.621822;5.74303;2.02941;1.4742;
-7.70633;1.70438;6.23128;-0.881897;-0.20816;-0.622083;5.74534;2.02968;1.47432;
-7.70756;1.70448;6.2317;-0.881939;-0.208497;-0.622342;5.74763;2.02995;1.47444;
-7.70879;1.70458;6.23211;-0.881981;-0.208832;-0.6226;5.74993;2.03022;1.47457;
-7.71001;1.70468;6.23252;-0.882024;-0.209168;-0.622857;5.75221;2.03049;1.47469;
-7.71123;1.70478;6.23293;-0.882066;-0.209502;-0.623112;5.75449;2.03076;1.47482;
-7.71245;1.70488;6.23334;-0.882109;-0.209837;-0.623366;5.75676;2.03102;1.47494;
-7.71366;1.70497;6.23375;-0.882151;-0.210171;-0.623619;5.75903;2.03129;1.47507;
-7.71487;1.70507;6.23415;-0.882193;-0.210504;-0.62387;5.76129;2.03155;1.47519;
-7.71607;1.70517;6.23455;-0.882236;-0.210837;-0.62412;5.76354;2.03181;1.47531;
-7.71727;1.70527;6.23495;-0.882278;-0.21117;-0.624368;5.76579;2.03207;1.47544;
-7.71847;1.70537;6.23535;-0.882321;-0.211502;-0.624615;5.76803;2.03233;1.47556;
-7.71966;1.70546;6.23575;-0.882363;-0.211833;-0.624861;5.77027;2.03259;1.47568;
-7.72085;1.70556;6.23614;-0.882405;-0.212164;-0.625105;5.7725;2.03285;1.47581;
-7.72204;1.70566;6.23653;-0.882448;-0.212495;-0.625349;5.77473;2.03311;1.47593;
-7.72322;1.70575;6.23692;-0.88249;-0.212825;-0.62559;5.77694;2.03337;1.47605;
-7.7244;1.70585;6.23731;-0.882533;-0.213155;-0.625831;5.77916;2.03362;1.47617;
-7.72557;1.70595;6.2377;-0.882575;-0.213484;-0.62607;5.78136;2.03388;1.4763;
-7.72674;1.70604;6.23808;-0.882617;-0.213813;-0.626307;5.78356;2.03413;1.47642;
-7.72791;1.70614;6.23847;-0.88266;-0.214141;-0.626544;5.78576;2.03438;1.47654;
-7.72907;1.70623;6.23885;-0.882702;-0.214469;-0.626779;5.78795;2.03463;1.47666;
-7.73023;1.70633;6.23923;-0.882744;-0.214796;-0.627013;5.79013;2.03488;1.47678;
-7.73139;1.70642;6.23961;-0.882787;-0.215123;-0.627246;5.79231;2.03513;1.4769;
-7.73254;1.70651;6.23998;-0.882829;-0.21545;-0.627477;5.79448;2.03538;1.47703;
-7.73369;1.70661;6.24036;-0.882871;-0.215776;-0.627707;5.79664;2.03563;1.47715;
-7.73484;1.7067;6.24073;-0.882914;-0.216101;-0.627936;5.7988;2.03588;1.47727;
-7.73598;1.70679;6.2411;-0.882956;-0.216426;-0.628163;5.80096;2.03612;1.47739;
-7.73711;1.70689;6.24147;-0.882998;-0.216751;-0.62839;5.80311;2.03637;1.47751;
-7.73825;1.70698;6.24184;-0.883041;-0.217075;-0.628615;5.80525;2.03661;1.47763;
-7.73938;1.70707;6.24221;-0.883083;-0.217398;-0.628839;5.80739;2.03686;1.47775;
-7.74051;1.70716;6.24257;-0.883125;-0.217721;-0.629061;5.80952;2.0371;1.47787;
-7.74163;1.70725;6.24293;-0.883167;-0.218044;-0.629283;5.81164;2.03734;1.47799;
-7.74275;1.70734;6.24329;-0.88321;-0.218366;-0.629503;5.81376;2.03758;1.47811;
-7.74387;1.70744;6.24365;-0.883252;-0.218688;-0.629722;5.81588;2.03782;1.47823;
-7.74498;1.70753;6.24401;-0.883294;-0.219009;-0.62994;5.81798;2.03806;1.47835;
-7.74609;1.70762;6.24437;-0.883336;-0.21933;-0.630156;5.82009;2.0383;1.47847;
-7.7472;1.70771;6.24472;-0.883378;-0.21965;-0.630371;5.82218;2.03854;1.47859;
-7.7483;1.7078;6.24507;-0.88342;-0.21997;-0.630586;5.82427;2.03877;1.47871;
-7.7494;1.70789;6.24543;-0.883462;-0.220289;-0.630799;5.82636;2.03901;1.47882;
-7.7505;1.70797;6.24578;-0.883505;-0.220608;-0.631011;5.82844;2.03924;1.47894;
-7.75159;1.70806;6.24612;-0.883547;-0.220926;-0.631221;5.83052;2.03947;1.47906;
-7.75268;1.70815;6.24647;-0.883589;-0.221244;-0.631431;5.83258;2.03971;1.47918;
-7.75376;1.70824;6.24681;-0.883631;-0.221561;-0.631639;5.83465;2.03994;1.4793;
-7.75485;1.70833;6.24716;-0.883673;-0.221878;-0.631846;5.83671;2.04017;1.47941;
-7.75592;1.70842;6.2475;-0.883715;-0.222195;-0.632052;5.83876;2.0404;1.47953;
-7.757;1.7085;6.24784;-0.883757;-0.222511;-0.632257;5.84081;2.04063;1.47965;
-7.75807;1.70859;6.24818;-0.883799;-0.222826;-0.632461;5.84285;2.04086;1.47977;
-7.75914;1.70868;6.24851;-0.883841;-0.223141;-0.632664;5.84488;2.04108;1.47988;
-7.76021;1.70876;6.24885;-0.883883;-0.223455;-0.632865;5.84691;2.04131;1.48;
-7.76127;1.70885;6.24918;-0.883924;-0.223769;-0.633066;5.84894;2.04154;1.48012;
-7.76233;1.70894;6.24952;-0.883966;-0.224083;-0.633265;5.85096;2.04176;1.48023;
-7.76338;1.70902;6.24985;-0.884008;-0.224396;-0.633464;5.85297;2.04199;1.48035;
-7.76444;1.70911;6.25018;-0.88405;-0.224709;-0.633661;5.85498;2.04221;1.48047;
-7.76549;1.70919;6.2505;-0.884092;-0.225021;-0.633857;5.85699;2.04243;1.48058;
-7.76653;1.70928;6.25083;-0.884133;-0.225332;-0.634052;5.85899;2.04265;1.4807;
-7.76757;1.70936;6.25116;-0.884175;-0.225643;-0.634246;5.86098;2.04287;1.48081;
-7.76861;1.70945;6.25148;-0.884217;-0.225954;-0.634439;5.86297;2.04309;1.48093;
-7.76965;1.70953;6.2518;-0.884259;-0.226264;-0.63463;5.86495;2.04331;1.48105;
-7.77068;1.70961;6.25212;-0.8843;-0.226574;-0.634821;5.86693;2.04353;1.48116;
-7.77171;1.7097;6.25244;-0.884342;-0.226883;-0.635011;5.8689;2.04375;1.48128;
-7.77274;1.70978;6.25276;-0.884383;-0.227192;-0.6352;5.87086;2.04397;1.48139;
-7.77376;1.70986;6.25307;-0.884425;-0.2275;-0.635387;5.87283;2.04418;1.48151;
-7.77478;1.70995;6.25339;-0.884466;-0.227808;-0.635574;5.87478;2.0444;1.48162;
-7.7758;1.71003;6.2537;-0.884508;-0.228115;-0.635759;5.87673;2.04461;1.48173;
-7.77682;1.71011;6.25401;-0.884549;-0.228422;-0.635944;5.87868;2.04483;1.48185;
-7.77783;1.71019;6.25432;-0.884591;-0.228728;-0.636127;5.88062;2.04504;1.48196;
-7.77884;1.71027;6.25463;-0.884632;-0.229034;-0.63631;5.88255;2.04525;1.48208;
-7.77984;1.71036;6.25494;-0.884674;-0.229339;-0.636491;5.88449;2.04546;1.48219;
-7.78084;1.71044;6.25524;-0.884715;-0.229644;-0.636672;5.88641;2.04567;1.4823;
-7.78184;1.71052;6.25555;-0.884756;-0.229948;-0.636851;5.88833;2.04588;1.48242;
-7.78284;1.7106;6.25585;-0.884797;-0.230252;-0.63703;5.89024;2.04609;1.48253;
-7.78383;1.71068;6.25615;-0.884839;-0.230556;-0.637207;5.89215;2.0463;1.48264;
-7.78482;1.71076;6.25646;-0.88488;-0.230858;-0.637384;5.89406;2.04651;1.48276;
-7.7858;1.71084;6.25675;-0.884921;-0.231161;-0.637559;5.89596;2.04671;1.48287;
-7.78679;1.71092;6.25705;-0.884962;-0.231463;-0.637734;5.89785;2.04692;1.48298;
-7.78777;1.711;6.25735;-0.885003;-0.231764;-0.637907;5.89974;2.04713;1.48309;
-7.78875;1.71108;6.25764;-0.885044;-0.232065;-0.63808;5.90163;2.04733;1.48321;
-7.78972;1.71115;6.25794;-0.885085;-0.232366;-0.638252;5.90351;2.04753;1.48332;
-7.79069;1.71123;6.25823;-0.885126;-0.232666;-0.638422;5.90538;2.04774;1.48343;
-7.79166;1.71131;6.25852;-0.885167;-0.232965;-0.638592;5.90725;2.04794;1.48354;
-7.79263;1.71139;6.25881;-0.885208;-0.233264;-0.638761;5.90912;2.04814;1.48365;
-7.79359;1.71147;6.2591;-0.885249;-0.233563;-0.638929;5.91097;2.04834;1.48376;
-7.79455;1.71154;6.25939;-0.88529;-0.233861;-0.639096;5.91283;2.04854;1.48387;
-7.7955;1.71162;6.25967;-0.885331;-0.234158;-0.639262;5.91468;2.04874;1.48399;
-7.79646;1.7117;6.25996;-0.885372;-0.234455;-0.639427;5.91652;2.04894;1.4841;
-7.79741;1.71178;6.26024;-0.885412;-0.234752;-0.639591;5.91836;2.04914;1.48421;
-7.79836;1.71185;6.26052;-0.885453;-0.235048;-0.639754;5.9202;2.04933;1.48432;
-7.7993;1.71193;6.2608;-0.885494;-0.235344;-0.639917;5.92203;2.04953;1.48443;
-7.80024;1.712;6.26108;-0.885534;-0.235639;-0.640078;5.92385;2.04973;1.48454;
-7.80118;1.71208;6.26136;-0.885575;-0.235933;-0.640239;5.92567;2.04992;1.48465;
-7.80212;1.71216;6.26164;-0.885615;-0.236228;-0.640398;5.92749;2.05011;1.48476;
-7.80305;1.71223;6.26191;-0.885656;-0.236521;-0.640557;5.9293;2.05031;1.48487;
-7.80398;1.71231;6.26219;-0.885696;-0.236814;-0.640715;5.93111;2.0505;1.48498;
-7.80491;1.71238;6.26246;-0.885737;-0.237107;-0.640872;5.93291;2.05069;1.48508;
-7.80584;1.71245;6.26273;-0.885777;-0.237399;-0.641028;5.9347;2.05088;1.48519;
-7.80676;1.71253;6.26301;-0.885817;-0.237691;-0.641183;5.93649;2.05107;1.4853;
-7.80768;1.7126;6.26328;-0.885858;-0.237982;-0.641338;5.93828;2.05126;1.48541;
-7.80859;1.71268;6.26354;-0.885898;-0.238273;-0.641491;5.94006;2.05145;1.48552;
-7.80951;1.71275;6.26381;-0.885938;-0.238563;-0.641644;5.94184;2.05164;1.48563;
-7.81042;1.71282;6.26408;-0.885978;-0.238853;-0.641796;5.94361;2.05183;1.48574;
-7.81133;1.7129;6.26434;-0.886018;-0.239142;-0.641947;5.94538;2.05202;1.48584;
-7.81223;1.71297;6.26461;-0.886058;-0.239431;-0.642097;5.94714;2.0522;1.48595;
-7.81314;1.71304;6.26487;-0.886098;-0.23972;-0.642246;5.9489;2.05239;1.48606;
-7.81404;1.71311;6.26513;-0.886138;-0.240007;-0.642395;5.95066;2.05258;1.48617;
-7.81493;1.71319;6.26539;-0.886178;-0.240295;-0.642543;5.95241;2.05276;1.48627;
-7.81583;1.71326;6.26565;-0.886218;-0.240582;-0.642689;5.95415;2.05294;1.48638;
-7.81672;1.71333;6.26591;-0.886258;-0.240868;-0.642835;5.95589;2.05313;1.48649;
-7.81761;1.7134;6.26616;-0.886298;-0.241154;-0.642981;5.95762;2.05331;1.48659;
-7.8185;1.71347;6.26642;-0.886338;-0.241439;-0.643125;5.95936;2.05349;1.4867;
-7.81938;1.71354;6.26667;-0.886377;-0.241724;-0.643269;5.96108;2.05367;1.48681;
-7.82026;1.71361;6.26693;-0.886417;-0.242009;-0.643411;5.9628;2.05385;1.48691;
-7.82114;1.71368;6.26718;-0.886457;-0.242293;-0.643553;5.96452;2.05403;1.48702;
-7.82201;1.71376;6.26743;-0.886496;-0.242576;-0.643694;5.96623;2.05421;1.48713;
-7.82289;1.71383;6.26768;-0.886536;-0.242859;-0.643835;5.96794;2.05439;1.48723;
-7.82376;1.7139;6.26793;-0.886575;-0.243142;-0.643974;5.96964;2.05457;1.48734;
-7.82463;1.71396;6.26818;-0.886615;-0.243424;-0.644113;5.97134;2.05475;1.48744;
-7.82549;1.71403;6.26842;-0.886654;-0.243705;-0.644251;5.97304;2.05493;1.48755;
-7.82635;1.7141;6.26867;-0.886693;-0.243986;-0.644389;5.97473;2.0551;1.48765;
-7.82721;1.71417;6.26891;-0.886733;-0.244267;-0.644525;5.97641;2.05528;1.48776;
-7.82807;1.71424;6.26916;-0.886772;-0.244547;-0.644661;5.97809;2.05545;1.48786;
-7.82893;1.71431;6.2694;-0.886811;-0.244827;-0.644796;5.97977;2.05563;1.48797;
-7.82978;1.71438;6.26964;-0.88685;-0.245106;-0.64493;5.98144;2.0558;1.48807;
-7.83063;1.71445;6.26988;-0.886889;-0.245384;-0.645063;5.98311;2.05597;1.48817;
-7.83148;1.71451;6.27012;-0.886928;-0.245663;-0.645196;5.98477;2.05615;1.48828;
-7.83232;1.71458;6.27036;-0.886967;-0.24594;-0.645328;5.98643;2.05632;1.48838;
-7.83316;1.71465;6.27059;-0.887006;-0.246217;-0.645459;5.98808;2.05649;1.48849;
-7.834;1.71472;6.27083;-0.887045;-0.246494;-0.64559;5.98973;2.05666;1.48859;
-7.83484;1.71478;6.27106;-0.887084;-0.24677;-0.64572;5.99138;2.05683;1.48869;
-7.83567;1.71485;6.2713;-0.887123;-0.247046;-0.645849;5.99302;2.057;1.4888;
-7.83651;1.71492;6.27153;-0.887162;-0.247321;-0.645977;5.99466;2.05717;1.4889;
-7.83734;1.71498;6.27176;-0.8872;-0.247596;-0.646104;5.99629;2.05734;1.489;
-7.83816;1.71505;6.27199;-0.887239;-0.247871;-0.646231;5.99792;2.0575;1.4891;
-7.83899;1.71511;6.27222;-0.887278;-0.248144;-0.646357;5.99954;2.05767;1.48921;
-7.83981;1.71518;6.27245;-0.887316;-0.248418;-0.646483;6.00116;2.05784;1.48931;
-7.84063;1.71525;6.27268;-0.887355;-0.248691;-0.646608;6.00278;2.058;1.48941;
-7.84145;1.71531;6.27291;-0.887393;-0.248963;-0.646732;6.00439;2.05817;1.48951;
-7.84226;1.71538;6.27313;-0.887432;-0.249235;-0.646855;6.00599;2.05833;1.48962;
-7.84307;1.71544;6.27336;-0.88747;-0.249506;-0.646978;6.0076;2.0585;1.48972;
-7.84388;1.71551;6.27358;-0.887508;-0.249777;-0.647099;6.00919;2.05866;1.48982;
-7.84469;1.71557;6.2738;-0.887546;-0.250048;-0.647221;6.01079;2.05882;1.48992;
-7.8455;1.71563;6.27402;-0.887585;-0.250318;-0.647341;6.01238;2.05898;1.49002;
-7.8463;1.7157;6.27425;-0.887623;-0.250587;-0.647461;6.01396;2.05915;1.49012;
-7.8471;1.71576;6.27447;-0.887661;-0.250856;-0.64758;6.01555;2.05931;1.49022;
-7.8479;1.71583;6.27468;-0.887699;-0.251125;-0.647699;6.01712;2.05947;1.49032;
-7.84869;1.71589;6.2749;-0.887737;-0.251393;-0.647817;6.0187;2.05963;1.49042;
-7.84949;1.71595;6.27512;-0.887775;-0.25166;-0.647934;6.02026;2.05979;1.49052;
-7.85028;1.71601;6.27533;-0.887813;-0.251928;-0.64805;6.02183;2.05995;1.49062;
-7.85107;1.71608;6.27555;-0.88785;-0.252194;-0.648166;6.02339;2.06011;1.49072;
-7.85185;1.71614;6.27576;-0.887888;-0.25246;-0.648282;6.02495;2.06026;1.49082;
-7.85264;1.7162;6.27598;-0.887926;-0.252726;-0.648396;6.0265;2.06042;1.49092;
-7.85342;1.71626;6.27619;-0.887964;-0.252991;-0.64851;6.02805;2.06058;1.49102;
-7.8542;1.71633;6.2764;-0.888001;-0.253256;-0.648623;6.02959;2.06073;1.49112;
-7.85497;1.71639;6.27661;-0.888039;-0.25352;-0.648736;6.03113;2.06089;1.49122;
-7.85575;1.71645;6.27682;-0.888076;-0.253784;-0.648848;6.03267;2.06104;1.49132;
-7.85652;1.71651;6.27703;-0.888114;-0.254047;-0.648959;6.0342;2.0612;1.49142;
-7.85729;1.71657;6.27724;-0.888151;-0.25431;-0.64907;6.03573;2.06135;1.49152;
-7.85806;1.71663;6.27744;-0.888188;-0.254573;-0.64918;6.03725;2.06151;1.49161;
-7.85882;1.71669;6.27765;-0.888226;-0.254834;-0.64929;6.03877;2.06166;1.49171;
-7.85958;1.71675;6.27785;-0.888263;-0.255096;-0.649398;6.04029;2.06181;1.49181;
-7.86035;1.71681;6.27806;-0.8883;-0.255357;-0.649507;6.0418;2.06196;1.49191;
-7.8611;1.71688;6.27826;-0.888337;-0.255617;-0.649614;6.04331;2.06211;1.49201;
-7.86186;1.71694;6.27846;-0.888374;-0.255877;-0.649721;6.04481;2.06226;1.4921;
-7.86261;1.71699;6.27866;-0.888411;-0.256137;-0.649828;6.04631;2.06241;1.4922;
-7.86337;1.71705;6.27886;-0.888448;-0.256396;-0.649933;6.04781;2.06256;1.4923;
-7.86412;1.71711;6.27906;-0.888485;-0.256654;-0.650039;6.0493;2.06271;1.49239;
-7.86486;1.71717;6.27926;-0.888522;-0.256912;-0.650143;6.05079;2.06286;1.49249;
-7.86561;1.71723;6.27946;-0.888559;-0.25717;-0.650247;6.05227;2.06301;1.49259;
-7.86635;1.71729;6.27966;-0.888595;-0.257427;-0.650351;6.05375;2.06316;1.49268;
-7.86709;1.71735;6.27985;-0.888632;-0.257684;-0.650453;6.05523;2.0633;1.49278;
-7.86783;1.71741;6.28005;-0.888669;-0.25794;-0.650556;6.0567;2.06345;1.49288;
-7.86857;1.71747;6.28024;-0.888705;-0.258196;-0.650657;6.05817;2.0636;1.49297;
-7.8693;1.71752;6.28044;-0.888742;-0.258451;-0.650758;6.05963;2.06374;1.49307;
-7.87003;1.71758;6.28063;-0.888778;-0.258706;-0.650859;6.06109;2.06389;1.49316;
-7.87076;1.71764;6.28082;-0.888815;-0.25896;-0.650959;6.06255;2.06403;1.49326;
-7.87149;1.7177;6.28101;-0.888851;-0.259214;-0.651058;6.064;2.06418;1.49336;
-7.87222;1.71776;6.2812;-0.888887;-0.259467;-0.651157;6.06545;2.06432;1.49345;
-7.87294;1.71781;6.28139;-0.888924;-0.25972;-0.651255;6.0669;2.06446;1.49355;
-7.87366;1.71787;6.28158;-0.88896;-0.259973;-0.651353;6.06834;2.06461;1.49364;
-7.87438;1.71793;6.28177;-0.888996;-0.260225;-0.65145;6.06978;2.06475;1.49373;
-7.8751;1.71798;6.28196;-0.889032;-0.260476;-0.651546;6.07121;2.06489;1.49383;
-7.87581;1.71804;6.28214;-0.889068;-0.260727;-0.651642;6.07264;2.06503;1.49392;
-7.87652;1.7181;6.28233;-0.889104;-0.260978;-0.651738;6.07407;2.06517;1.49402;
-7.87723;1.71815;6.28251;-0.88914;-0.261228;-0.651833;6.07549;2.06531;1.49411;
-7.87794;1.71821;6.2827;-0.889175;-0.261478;-0.651927;6.07691;2.06545;1.49421;
-7.87865;1.71826;6.28288;-0.889211;-0.261727;-0.652021;6.07833;2.06559;1.4943;
-7.87935;1.71832;6.28306;-0.889247;-0.261975;-0.652114;6.07974;2.06573;1.49439;
-7.88006;1.71837;6.28324;-0.889283;-0.262224;-0.652207;6.08115;2.06587;1.49449;
-7.88076;1.71843;6.28342;-0.889318;-0.262472;-0.652299;6.08255;2.066;1.49458;
-7.88145;1.71848;6.2836;-0.889354;-0.262719;-0.652391;6.08395;2.06614;1.49467;
-7.88215;1.71854;6.28378;-0.889389;-0.262966;-0.652482;6.08535;2.06628;1.49476;
-7.88284;1.71859;6.28396;-0.889425;-0.263212;-0.652572;6.08674;2.06641;1.49486;
-7.88354;1.71865;6.28414;-0.88946;-0.263458;-0.652662;6.08813;2.06655;1.49495;
-7.88423;1.7187;6.28431;-0.889495;-0.263703;-0.652752;6.08951;2.06669;1.49504;
-7.88491;1.71876;6.28449;-0.889531;-0.263949;-0.652841;6.0909;2.06682;1.49513;
-7.8856;1.71881;6.28467;-0.889566;-0.264193;-0.65293;6.09228;2.06695;1.49523;
-7.88628;1.71886;6.28484;-0.889601;-0.264437;-0.653018;6.09365;2.06709;1.49532;
-7.88697;1.71892;6.28501;-0.889636;-0.264681;-0.653105;6.09502;2.06722;1.49541;
-7.88765;1.71897;6.28519;-0.889671;-0.264924;-0.653192;6.09639;2.06735;1.4955;
-7.88832;1.71902;6.28536;-0.889706;-0.265167;-0.653279;6.09775;2.06749;1.49559;
-7.889;1.71908;6.28553;-0.889741;-0.265409;-0.653365;6.09911;2.06762;1.49568;
-7.88967;1.71913;6.2857;-0.889776;-0.265651;-0.65345;6.10047;2.06775;1.49577;
-7.89035;1.71918;6.28587;-0.88981;-0.265892;-0.653535;6.10182;2.06788;1.49586;
-7.89102;1.71924;6.28604;-0.889845;-0.266133;-0.65362;6.10317;2.06801;1.49596;
-7.89169;1.71929;6.28621;-0.88988;-0.266373;-0.653704;6.10452;2.06814;1.49605;
-7.89235;1.71934;6.28638;-0.889914;-0.266613;-0.653788;6.10586;2.06827;1.49614;
-7.89302;1.71939;6.28654;-0.889949;-0.266853;-0.653871;6.1072;2.0684;1.49623;
-7.89368;1.71944;6.28671;-0.889983;-0.267092;-0.653953;6.10854;2.06853;1.49632;
-7.89434;1.7195;6.28688;-0.890018;-0.26733;-0.654035;6.10987;2.06866;1.49641;
-7.895;1.71955;6.28704;-0.890052;-0.267568;-0.654117;6.1112;2.06879;1.4965;
-7.89565;1.7196;6.28721;-0.890087;-0.267806;-0.654198;6.11252;2.06892;1.49658;
-7.89631;1.71965;6.28737;-0.890121;-0.268043;-0.654279;6.11384;2.06904;1.49667;
-7.89696;1.7197;6.28753;-0.890155;-0.26828;-0.654359;6.11516;2.06917;1.49676;
-7.89761;1.71975;6.28769;-0.890189;-0.268516;-0.654439;6.11648;2.0693;1.49685;
-7.89826;1.7198;6.28786;-0.890223;-0.268752;-0.654518;6.11779;2.06942;1.49694;
-7.89891;1.71985;6.28802;-0.890257;-0.268988;-0.654597;6.1191;2.06955;1.49703;
-7.89955;1.7199;6.28818;-0.890291;-0.269222;-0.654676;6.1204;2.06967;1.49712;
-7.9002;1.71996;6.28834;-0.890325;-0.269457;-0.654753;6.1217;2.0698;1.49721;
-7.90084;1.72001;6.2885;-0.890359;-0.269691;-0.654831;6.123;2.06992;1.49729;
-7.90148;1.72006;6.28865;-0.890393;-0.269925;-0.654908;6.12429;2.07004;1.49738;
-7.90211;1.72011;6.28881;-0.890426;-0.270158;-0.654985;6.12558;2.07017;1.49747;
-7.90275;1.72015;6.28897;-0.89046;-0.27039;-0.655061;6.12687;2.07029;1.49756;
-7.90338;1.7202;6.28912;-0.890494;-0.270623;-0.655136;6.12815;2.07041;1.49765;
-7.90402;1.72025;6.28928;-0.890527;-0.270854;-0.655212;6.12943;2.07054;1.49773;
-7.90465;1.7203;6.28943;-0.890561;-0.271086;-0.655287;6.13071;2.07066;1.49782;
-7.90527;1.72035;6.28959;-0.890594;-0.271317;-0.655361;6.13198;2.07078;1.49791;
-7.9059;1.7204;6.28974;-0.890628;-0.271547;-0.655435;6.13326;2.0709;1.49799;
-7.90653;1.72045;6.28989;-0.890661;-0.271777;-0.655508;6.13452;2.07102;1.49808;
-7.90715;1.7205;6.29005;-0.890694;-0.272007;-0.655581;6.13579;2.07114;1.49817;
-7.90777;1.72055;6.2902;-0.890727;-0.272236;-0.655654;6.13705;2.07126;1.49825;
-7.90839;1.72059;6.29035;-0.89076;-0.272464;-0.655726;6.1383;2.07138;1.49834;
-7.90901;1.72064;6.2905;-0.890794;-0.272693;-0.655798;6.13956;2.0715;1.49843;
-7.90962;1.72069;6.29065;-0.890827;-0.27292;-0.65587;6.14081;2.07162;1.49851;
-7.91024;1.72074;6.2908;-0.890859;-0.273148;-0.655941;6.14206;2.07173;1.4986;
-7.91085;1.72079;6.29095;-0.890892;-0.273375;-0.656011;6.1433;2.07185;1.49868;
-7.91146;1.72083;6.29109;-0.890925;-0.273601;-0.656081;6.14454;2.07197;1.49877;
-7.91207;1.72088;6.29124;-0.890958;-0.273827;-0.656151;6.14578;2.07208;1.49885;
-7.91267;1.72093;6.29139;-0.890991;-0.274052;-0.65622;6.14701;2.0722;1.49894;
-7.91328;1.72098;6.29153;-0.891023;-0.274278;-0.656289;6.14824;2.07232;1.49902;
-7.91388;1.72102;6.29168;-0.891056;-0.274502;-0.656358;6.14947;2.07243;1.49911;
-7.91449;1.72107;6.29182;-0.891089;-0.274726;-0.656426;6.15069;2.07255;1.49919;
-7.91508;1.72112;6.29197;-0.891121;-0.27495;-0.656494;6.15192;2.07266;1.49928;
-7.91568;1.72116;6.29211;-0.891153;-0.275174;-0.656561;6.15313;2.07278;1.49936;
-7.91628;1.72121;6.29225;-0.891186;-0.275396;-0.656628;6.15435;2.07289;1.49945;
-7.91687;1.72125;6.2924;-0.891218;-0.275619;-0.656694;6.15556;2.073;1.49953;
-7.91747;1.7213;6.29254;-0.89125;-0.275841;-0.656761;6.15677;2.07312;1.49961;
-7.91806;1.72135;6.29268;-0.891282;-0.276062;-0.656826;6.15797;2.07323;1.4997;
-7.91865;1.72139;6.29282;-0.891315;-0.276284;-0.656892;6.15918;2.07334;1.49978;
-7.91924;1.72144;6.29296;-0.891347;-0.276504;-0.656957;6.16038;2.07346;1.49986;
-7.91982;1.72148;6.2931;-0.891379;-0.276725;-0.657021;6.16157;2.07357;1.49995;
-7.92041;1.72153;6.29324;-0.891411;-0.276944;-0.657086;6.16277;2.07368;1.50003;
-7.92099;1.72157;6.29338;-0.891443;-0.277164;-0.657149;6.16395;2.07379;1.50011;
-7.92157;1.72162;6.29351;-0.891474;-0.277383;-0.657213;6.16514;2.0739;1.5002;
-7.92215;1.72166;6.29365;-0.891506;-0.277601;-0.657276;6.16632;2.07401;1.50028;
-7.92273;1.72171;6.29379;-0.891538;-0.277819;-0.657339;6.16751;2.07412;1.50036;
-7.9233;1.72175;6.29392;-0.891569;-0.278037;-0.657401;6.16868;2.07423;1.50044;
-7.92388;1.7218;6.29406;-0.891601;-0.278254;-0.657463;6.16986;2.07434;1.50053;
-7.92445;1.72184;6.29419;-0.891633;-0.278471;-0.657525;6.17103;2.07445;1.50061;
-7.92502;1.72189;6.29433;-0.891664;-0.278687;-0.657586;6.1722;2.07456;1.50069;
-7.92559;1.72193;6.29446;-0.891695;-0.278903;-0.657647;6.17336;2.07466;1.50077;
-7.92616;1.72197;6.29459;-0.891727;-0.279119;-0.657707;6.17452;2.07477;1.50085;
-7.92673;1.72202;6.29472;-0.891758;-0.279334;-0.657767;6.17568;2.07488;1.50093;
-7.92729;1.72206;6.29486;-0.891789;-0.279548;-0.657827;6.17684;2.07499;1.50101;
-7.92785;1.7221;6.29499;-0.891821;-0.279763;-0.657887;6.17799;2.07509;1.5011;
-7.92842;1.72215;6.29512;-0.891852;-0.279976;-0.657946;6.17914;2.0752;1.50118;
-7.92898;1.72219;6.29525;-0.891883;-0.28019;-0.658005;6.18029;2.07531;1.50126;
-7.92953;1.72223;6.29538;-0.891914;-0.280403;-0.658063;6.18143;2.07541;1.50134;
-7.93009;1.72228;6.29551;-0.891945;-0.280615;-0.658121;6.18257;2.07552;1.50142;
-7.93064;1.72232;6.29564;-0.891975;-0.280827;-0.658179;6.18371;2.07562;1.5015;
-7.9312;1.72236;6.29576;-0.892006;-0.281039;-0.658236;6.18484;2.07573;1.50158;
-7.93175;1.7224;6.29589;-0.892037;-0.28125;-0.658293;6.18598;2.07583;1.50166;
-7.9323;1.72245;6.29602;-0.892068;-0.281461;-0.65835;6.1871;2.07593;1.50174;
-7.93285;1.72249;6.29615;-0.892098;-0.281671;-0.658406;6.18823;2.07604;1.50182;
-7.9334;1.72253;6.29627;-0.892129;-0.281881;-0.658462;6.18935;2.07614;1.5019;
-7.93394;1.72257;6.2964;-0.89216;-0.282091;-0.658518;6.19047;2.07624;1.50198;
-7.93449;1.72262;6.29652;-0.89219;-0.2823;-0.658573;6.19159;2.07635;1.50205;
-7.93503;1.72266;6.29665;-0.89222;-0.282508;-0.658628;6.1927;2.07645;1.50213;
-7.93557;1.7227;6.29677;-0.892251;-0.282717;-0.658683;6.19382;2.07655;1.50221;
-7.93611;1.72274;6.29689;-0.892281;-0.282924;-0.658737;6.19492;2.07665;1.50229;
-7.93665;1.72278;6.29702;-0.892311;-0.283132;-0.658791;6.19603;2.07675;1.50237;
