0.160919;-0.0937687;-0.3647;0.0625229;0.276235;0.0180794;-0.0492196;0.746892;-0.0806858;
-0.130848;-0.122045;-0.480422;-0.0945804;0.225638;-0.000684196;-0.143514;0.702501;-0.172937;
-0.205492;-0.102106;-0.461724;-0.126499;0.217013;0.00478044;-0.150246;0.700467;-0.175145;
-0.249369;-0.0758243;-0.42448;-0.140748;0.214341;0.0135329;-0.144663;0.704408;-0.164934;
-0.287287;-0.0487185;-0.384052;-0.151618;0.212801;0.0227816;-0.136775;0.709432;-0.152585;
-0.323794;-0.0217944;-0.343253;-0.161727;0.211511;0.0320157;-0.128416;0.714641;-0.139981;
-0.359788;0.00475417;-0.302636;-0.171591;0.210294;0.0411352;-0.119948;0.719858;-0.12749;
-0.395451;0.0308932;-0.262307;-0.181315;0.209116;0.050121;-0.111444;0.725047;-0.115183;
-0.430819;0.0566206;-0.222287;-0.190919;0.207968;0.0589702;-0.102918;0.730203;-0.103071;
-0.465903;0.0819405;-0.182577;-0.200409;0.20685;0.0676832;-0.0943739;0.735325;-0.0911553;
-0.500706;0.106859;-0.143176;-0.209787;0.205759;0.076261;-0.0858124;0.740411;-0.0794328;
-0.535232;0.13138;-0.104081;-0.219053;0.204696;0.0847047;-0.0772341;0.745464;-0.0679008;
-0.569481;0.155512;-0.0652889;-0.22821;0.20366;0.0930154;-0.0686395;0.750482;-0.0565563;
-0.603457;0.179259;-0.026798;-0.237258;0.20265;0.101194;-0.0600292;0.755467;-0.0453965;
-0.637163;0.202627;0.0113948;-0.246198;0.201665;0.109243;-0.0514036;0.760418;-0.0344185;
-0.670601;0.225621;0.0492923;-0.255031;0.200706;0.117162;-0.0427631;0.765336;-0.0236194;
-0.703773;0.248249;0.086897;-0.263759;0.199771;0.124953;-0.0341082;0.770222;-0.0129964;
-0.736681;0.270514;0.124212;-0.272382;0.19886;0.132616;-0.0254394;0.775076;-0.00254665;
-0.769329;0.292423;0.161239;-0.280902;0.197972;0.140155;-0.0167572;0.779898;0.00773256;
-0.801719;0.313981;0.197982;-0.289319;0.197108;0.147568;-0.00806194;0.784688;0.017844;
-0.833853;0.335195;0.234443;-0.297636;0.196265;0.154859;0.000645865;0.789447;0.0277903;
-0.865734;0.356068;0.270625;-0.305852;0.195445;0.162027;0.00936577;0.794176;0.0375743;
-0.897365;0.376607;0.30653;-0.313969;0.194645;0.169075;0.0180973;0.798873;0.0471985;
-0.928747;0.396817;0.342161;-0.321988;0.193867;0.176002;0.0268401;0.803541;0.0566656;
-0.959884;0.416703;0.377521;-0.32991;0.193109;0.182812;0.0355936;0.808179;0.0659782;
-0.990778;0.436271;0.412612;-0.337737;0.19237;0.189504;0.0443574;0.812787;0.0751387;
-1.02143;0.455526;0.447437;-0.345469;0.191652;0.196081;0.0531312;0.817366;0.0841498;
-1.05185;0.474472;0.481999;-0.353108;0.190952;0.202543;0.0619143;0.821916;0.0930139;
-1.08202;0.493115;0.5163;-0.360654;0.19027;0.208891;0.0707065;0.826437;0.101733;
-1.11197;0.51146;0.550343;-0.368109;0.189607;0.215127;0.0795073;0.830931;0.110311;
-1.14169;0.529513;0.58413;-0.375474;0.188961;0.221253;0.0883163;0.835396;0.118748;
-1.17117;0.547276;0.617664;-0.382749;0.188332;0.227268;0.0971331;0.839834;0.127049;
-1.20043;0.564757;0.650948;-0.389937;0.18772;0.233175;0.105957;0.844244;0.135214;
-1.22947;0.581959;0.683983;-0.397037;0.187125;0.238974;0.114788;0.848628;0.143246;
-1.25829;0.598887;0.716773;-0.404052;0.186545;0.244667;0.123626;0.852985;0.151148;
-1.28689;0.615545;0.749319;-0.410981;0.185981;0.250255;0.13247;0.857315;0.158921;
-1.31527;0.631939;0.781625;-0.417827;0.185432;0.255739;0.141319;0.861619;0.166568;
-1.34344;0.648072;0.813692;-0.42459;0.184898;0.261121;0.150174;0.865898;0.174091;
-1.37139;0.66395;0.845523;-0.431271;0.184378;0.266401;0.159034;0.87015;0.181492;
-1.39914;0.679576;0.877121;-0.437871;0.183872;0.271581;0.167899;0.874378;0.188774;
-1.42668;0.694955;0.908488;-0.444392;0.18338;0.276661;0.176768;0.87858;0.195937;
-1.45401;0.710091;0.939626;-0.450834;0.182902;0.281644;0.185641;0.882758;0.202985;
-1.48114;0.724989;0.970537;-0.457197;0.182436;0.286529;0.194517;0.886911;0.209918;
-1.50808;0.739651;1.00122;-0.463484;0.181983;0.291319;0.203397;0.891041;0.21674;
-1.53481;0.754083;1.03169;-0.469696;0.181543;0.296014;0.21228;0.895146;0.223452;
-1.56135;0.768289;1.06193;-0.475832;0.181115;0.300615;0.221165;0.899227;0.230056;
-1.58769;0.782272;1.09196;-0.481894;0.180698;0.305124;0.230052;0.903285;0.236553;
-1.61384;0.796036;1.12177;-0.487883;0.180293;0.309542;0.238941;0.90732;0.242946;
-1.6398;0.809585;1.15137;-0.493801;0.179899;0.313869;0.247832;0.911332;0.249236;
-1.66558;0.822922;1.18076;-0.499647;0.179516;0.318107;0.256724;0.915321;0.255426;
-1.69117;0.836052;1.20993;-0.505422;0.179143;0.322256;0.265617;0.919288;0.261516;
-1.71657;0.848978;1.23891;-0.511129;0.178781;0.326319;0.274511;0.923232;0.267509;
-1.7418;0.861703;1.26767;-0.516766;0.178429;0.330295;0.283405;0.927155;0.273406;
-1.76684;0.874232;1.29623;-0.522337;0.178086;0.334187;0.292299;0.931056;0.279208;
-1.79171;0.886566;1.3246;-0.52784;0.177754;0.337994;0.301193;0.934935;0.284918;
-1.8164;0.898711;1.35276;-0.533278;0.17743;0.341718;0.310086;0.938793;0.290537;
-1.84092;0.910669;1.38073;-0.53865;0.177116;0.34536;0.318978;0.94263;0.296067;
-1.86526;0.922443;1.4085;-0.543958;0.17681;0.348921;0.32787;0.946446;0.301509;
-1.88944;0.934036;1.43608;-0.549203;0.176513;0.352402;0.33676;0.950242;0.306864;
-1.91345;0.945452;1.46346;-0.554385;0.176224;0.355804;0.345648;0.954017;0.312134;
-1.93729;0.956694;1.49066;-0.559506;0.175944;0.359128;0.354535;0.957771;0.317321;
-1.96096;0.967765;1.51767;-0.564565;0.175671;0.362374;0.363419;0.961506;0.322426;
-1.98448;0.978668;1.54449;-0.569565;0.175406;0.365545;0.372301;0.965221;0.32745;
-2.00783;0.989405;1.57113;-0.574504;0.175149;0.36864;0.381181;0.968916;0.332394;
-2.03103;0.99998;1.59759;-0.579385;0.174898;0.37166;0.390058;0.972592;0.337261;
-2.05407;1.0104;1.62387;-0.584209;0.174655;0.374607;0.398931;0.976249;0.342051;
-2.07695;1.02065;1.64997;-0.588975;0.174419;0.377481;0.407802;0.979887;0.346766;
-2.09967;1.03076;1.67589;-0.593684;0.17419;0.380284;0.416669;0.983505;0.351406;
-2.12225;1.04071;1.70164;-0.598338;0.173967;0.383016;0.425532;0.987106;0.355974;
-2.14467;1.05051;1.72721;-0.602937;0.173751;0.385677;0.434391;0.990687;0.36047;
-2.16695;1.06017;1.75262;-0.607481;0.17354;0.38827;0.443246;0.994251;0.364896;
-2.18908;1.06969;1.77785;-0.611972;0.173336;0.390795;0.452097;0.997796;0.369252;
-2.21106;1.07906;1.80291;-0.61641;0.173138;0.393252;0.460944;1.00132;0.37354;
-2.2329;1.08829;1.82781;-0.620795;0.172945;0.395642;0.469785;1.00483;0.377762;
-2.25459;1.09739;1.85254;-0.625129;0.172758;0.397967;0.478622;1.00833;0.381918;
-2.27614;1.10636;1.87711;-0.629412;0.172577;0.400226;0.487453;1.0118;0.386009;
-2.29756;1.11519;1.90151;-0.633645;0.1724;0.402422;0.49628;1.01526;0.390036;
-2.31883;1.12389;1.92576;-0.637828;0.172229;0.404554;0.505101;1.0187;0.394001;
-2.33997;1.13246;1.94984;-0.641962;0.172063;0.406624;0.513916;1.02212;0.397904;
-2.36097;1.14092;1.97377;-0.646047;0.171901;0.408632;0.522725;1.02553;0.401747;
-2.38184;1.14924;1.99754;-0.650085;0.171745;0.410578;0.531529;1.02892;0.40553;
-2.40257;1.15745;2.02116;-0.654076;0.171593;0.412465;0.540326;1.03229;0.409255;
-2.42318;1.16554;2.04462;-0.65802;0.171445;0.414292;0.549117;1.03565;0.412922;
-2.44365;1.17351;2.06793;-0.661918;0.171302;0.416061;0.557902;1.03899;0.416533;
-2.464;1.18136;2.09109;-0.66577;0.171162;0.417771;0.56668;1.04232;0.420088;
-2.48421;1.18911;2.1141;-0.669578;0.171027;0.419424;0.575451;1.04562;0.423588;
-2.5043;1.19674;2.13696;-0.673341;0.170896;0.42102;0.584216;1.04892;0.427034;
-2.52427;1.20426;2.15968;-0.677061;0.170769;0.422561;0.592973;1.0522;0.430428;
-2.54411;1.21168;2.18225;-0.680737;0.170646;0.424046;0.601723;1.05546;0.433769;
-2.56383;1.21899;2.20468;-0.684371;0.170526;0.425477;0.610466;1.05871;0.437059;
-2.58343;1.2262;2.22696;-0.687963;0.17041;0.426854;0.619202;1.06194;0.440299;
-2.60291;1.23331;2.2491;-0.691513;0.170297;0.428178;0.62793;1.06516;0.443489;
-2.62227;1.24031;2.27111;-0.695022;0.170188;0.42945;0.63665;1.06836;0.446631;
-2.64152;1.24722;2.29297;-0.69849;0.170082;0.43067;0.645363;1.07155;0.449724;
-2.66064;1.25403;2.3147;-0.701919;0.169979;0.431838;0.654068;1.07472;0.45277;
-2.67966;1.26075;2.33629;-0.705307;0.169879;0.432957;0.662764;1.07788;0.45577;
-2.69855;1.26737;2.35774;-0.708657;0.169783;0.434025;0.671453;1.08102;0.458724;
-2.71734;1.2739;2.37906;-0.711968;0.169689;0.435044;0.680133;1.08415;0.461633;
-2.73601;1.28034;2.40025;-0.715241;0.169598;0.436014;0.688805;1.08727;0.464498;
-2.75458;1.28669;2.42131;-0.718477;0.169509;0.436937;0.697469;1.09037;0.46732;
-2.77303;1.29296;2.44224;-0.721675;0.169424;0.437812;0.706124;1.09346;0.470098;
-2.79137;1.29914;2.46303;-0.724836;0.169341;0.43864;0.71477;1.09654;0.472835;
-2.80961;1.30523;2.4837;-0.727962;0.16926;0.439423;0.723407;1.0996;0.47553;
-2.82774;1.31124;2.50424;-0.731051;0.169183;0.440159;0.732036;1.10265;0.478184;
-2.84577;1.31717;2.52466;-0.734105;0.169107;0.440851;0.740656;1.10568;0.480798;
-2.86369;1.32302;2.54495;-0.737124;0.169034;0.441498;0.749267;1.1087;0.483373;
-2.8815;1.32879;2.56512;-0.740109;0.168963;0.442101;0.757868;1.11171;0.485908;
-2.89922;1.33448;2.58516;-0.74306;0.168894;0.442661;0.766461;1.11471;0.488406;
-2.91683;1.3401;2.60508;-0.745976;0.168827;0.443178;0.775044;1.11769;0.490866;
-2.93435;1.34564;2.62489;-0.74886;0.168763;0.443653;0.783618;1.12066;0.493288;
-2.95176;1.3511;2.64457;-0.751711;0.1687;0.444087;0.792182;1.12361;0.495674;
-2.96907;1.35649;2.66413;-0.754529;0.168639;0.444479;0.800737;1.12656;0.498025;
-2.98629;1.36182;2.68358;-0.757315;0.168581;0.444831;0.809282;1.12949;0.50034;
-3.00341;1.36707;2.70291;-0.760069;0.168524;0.445142;0.817818;1.13241;0.50262;
-3.02044;1.37225;2.72212;-0.762793;0.168469;0.445414;0.826344;1.13532;0.504866;
-3.03737;1.37736;2.74122;-0.765485;0.168415;0.445647;0.83486;1.13821;0.507078;
-3.0542;1.38241;2.7602;-0.768147;0.168364;0.445841;0.843367;1.1411;0.509257;
-3.07094;1.38739;2.77908;-0.770778;0.168314;0.445998;0.851863;1.14397;0.511403;
-3.08759;1.39231;2.79784;-0.77338;0.168265;0.446116;0.860349;1.14683;0.513517;
-3.10415;1.39716;2.81649;-0.775952;0.168218;0.446198;0.868826;1.14968;0.5156;
-3.12062;1.40195;2.83503;-0.778495;0.168173;0.446243;0.877292;1.15251;0.517651;
-3.137;1.40668;2.85346;-0.78101;0.168129;0.446252;0.885748;1.15534;0.519671;
-3.15328;1.41135;2.87178;-0.783496;0.168087;0.446225;0.894194;1.15815;0.521662;
-3.16948;1.41595;2.88999;-0.785953;0.168046;0.446163;0.90263;1.16095;0.523622;
-3.1856;1.4205;2.9081;-0.788384;0.168006;0.446067;0.911055;1.16374;0.525553;
-3.20162;1.42499;2.92611;-0.790786;0.167968;0.445936;0.91947;1.16652;0.527456;
-3.21756;1.42942;2.944;-0.793162;0.16793;0.445771;0.927874;1.16929;0.529329;
-3.23342;1.4338;2.9618;-0.795511;0.167894;0.445573;0.936269;1.17205;0.531175;
-3.24919;1.43812;2.97949;-0.797833;0.16786;0.445342;0.944652;1.17479;0.532994;
-3.26487;1.44239;2.99708;-0.80013;0.167826;0.445078;0.953025;1.17753;0.534785;
-3.28048;1.44661;3.01456;-0.8024;0.167794;0.444783;0.961387;1.18025;0.536549;
-3.296;1.45077;3.03195;-0.804645;0.167762;0.444455;0.969739;1.18297;0.538287;
-3.31144;1.45488;3.04924;-0.806865;0.167732;0.444097;0.97808;1.18567;0.539999;
-3.3268;1.45894;3.06643;-0.80906;0.167703;0.443707;0.986411;1.18837;0.541686;
-3.34208;1.46294;3.08352;-0.81123;0.167675;0.443287;0.99473;1.19105;0.543347;
-3.35728;1.4669;3.10051;-0.813376;0.167647;0.442837;1.00304;1.19372;0.544984;
-3.3724;1.47081;3.11741;-0.815498;0.167621;0.442358;1.01134;1.19638;0.546596;
-3.38744;1.47468;3.13421;-0.817596;0.167596;0.441849;1.01962;1.19904;0.548184;
-3.40241;1.47849;3.15091;-0.81967;0.167571;0.441311;1.0279;1.20168;0.549749;
-3.4173;1.48226;3.16752;-0.821722;0.167547;0.440745;1.03617;1.20431;0.55129;
-3.43211;1.48598;3.18404;-0.82375;0.167525;0.440151;1.04442;1.20693;0.552808;
-3.44684;1.48966;3.20046;-0.825756;0.167503;0.439529;1.05266;1.20955;0.554303;
-3.46151;1.4933;3.21679;-0.827739;0.167482;0.438879;1.0609;1.21215;0.555777;
-3.4761;1.49689;3.23303;-0.8297;0.167461;0.438203;1.06912;1.21474;0.557228;
-3.49061;1.50044;3.24918;-0.83164;0.167441;0.4375;1.07733;1.21733;0.558657;
-3.50505;1.50394;3.26524;-0.833557;0.167423;0.436771;1.08553;1.2199;0.560065;
-3.51942;1.5074;3.28121;-0.835454;0.167404;0.436016;1.09371;1.22246;0.561452;
-3.53372;1.51083;3.29709;-0.837329;0.167387;0.435235;1.10189;1.22502;0.562819;
-3.54795;1.51421;3.31289;-0.839183;0.16737;0.434429;1.11006;1.22757;0.564165;
-3.5621;1.51755;3.32859;-0.841017;0.167354;0.433599;1.11821;1.2301;0.56549;
-3.57619;1.52086;3.34421;-0.84283;0.167338;0.432743;1.12635;1.23263;0.566796;
-3.5902;1.52412;3.35974;-0.844623;0.167323;0.431864;1.13449;1.23515;0.568083;
-3.60415;1.52735;3.37519;-0.846396;0.167309;0.430961;1.14261;1.23766;0.56935;
-3.61803;1.53054;3.39055;-0.848149;0.167295;0.430034;1.15072;1.24016;0.570598;
-3.63184;1.53369;3.40583;-0.849883;0.167282;0.429084;1.15881;1.24265;0.571827;
-3.64559;1.53681;3.42103;-0.851598;0.167269;0.428111;1.1669;1.24513;0.573038;
-3.65926;1.53989;3.43614;-0.853293;0.167257;0.427115;1.17498;1.24761;0.574231;
-3.67288;1.54293;3.45117;-0.85497;0.167246;0.426097;1.18304;1.25007;0.575406;
-3.68642;1.54595;3.46612;-0.856628;0.167235;0.425057;1.19109;1.25253;0.576563;
-3.6999;1.54892;3.48099;-0.858268;0.167224;0.423996;1.19914;1.25498;0.577703;
-3.71332;1.55187;3.49577;-0.859889;0.167214;0.422913;1.20717;1.25742;0.578826;
-3.72667;1.55478;3.51048;-0.861493;0.167204;0.421809;1.21518;1.25985;0.579932;
-3.73996;1.55765;3.52511;-0.863078;0.167195;0.420684;1.22319;1.26227;0.581021;
-3.75319;1.5605;3.53966;-0.864646;0.167186;0.419539;1.23119;1.26468;0.582093;
-3.76635;1.56331;3.55413;-0.866197;0.167178;0.418374;1.23917;1.26709;0.58315;
-3.77945;1.5661;3.56852;-0.867731;0.16717;0.417189;1.24715;1.26949;0.58419;
-3.79249;1.56885;3.58284;-0.869247;0.167162;0.415984;1.25511;1.27188;0.585215;
-3.80547;1.57157;3.59708;-0.870747;0.167155;0.414759;1.26306;1.27426;0.586224;
-3.81838;1.57426;3.61125;-0.872231;0.167149;0.413516;1.271;1.27663;0.587218;
-3.83124;1.57692;3.62534;-0.873697;0.167142;0.412254;1.27892;1.279;0.588197;
-3.84404;1.57956;3.63935;-0.875148;0.167136;0.410973;1.28684;1.28136;0.589161;
-3.85678;1.58216;3.65329;-0.876583;0.167131;0.409674;1.29474;1.28371;0.590111;
-3.86946;1.58474;3.66716;-0.878001;0.167125;0.408357;1.30264;1.28605;0.591045;
-3.88208;1.58729;3.68095;-0.879404;0.16712;0.407022;1.31052;1.28838;0.591966;
-3.89464;1.58981;3.69467;-0.880792;0.167116;0.40567;1.31839;1.29071;0.592873;
-3.90715;1.5923;3.70832;-0.882164;0.167111;0.4043;1.32625;1.29303;0.593765;
-3.9196;1.59477;3.7219;-0.883521;0.167107;0.402914;1.33409;1.29534;0.594644;
-3.93199;1.59721;3.73541;-0.884863;0.167103;0.40151;1.34193;1.29764;0.59551;
-3.94432;1.59963;3.74884;-0.88619;0.1671;0.40009;1.34975;1.29994;0.596362;
-3.9566;1.60202;3.76221;-0.887503;0.167097;0.398654;1.35756;1.30223;0.597201;
-3.96883;1.60439;3.77551;-0.888801;0.167094;0.397202;1.36537;1.30451;0.598027;
-3.981;1.60673;3.78874;-0.890085;0.167091;0.395734;1.37316;1.30678;0.598841;
-3.99311;1.60904;3.80189;-0.891354;0.167089;0.39425;1.38093;1.30905;0.599642;
-4.00517;1.61134;3.81499;-0.89261;0.167087;0.392751;1.3887;1.31131;0.60043;
-4.01718;1.6136;3.82801;-0.893852;0.167085;0.391237;1.39645;1.31356;0.601206;
-4.02913;1.61585;3.84097;-0.89508;0.167084;0.389708;1.4042;1.31581;0.601971;
-4.04103;1.61807;3.85386;-0.896294;0.167082;0.388165;1.41193;1.31805;0.602723;
-4.05288;1.62027;3.86668;-0.897496;0.167081;0.386607;1.41965;1.32028;0.603464;
-4.06468;1.62245;3.87944;-0.898683;0.16708;0.385035;1.42736;1.3225;0.604193;
-4.07642;1.62461;3.89213;-0.899858;0.16708;0.383448;1.43506;1.32472;0.60491;
-4.08811;1.62674;3.90476;-0.90102;0.167079;0.381848;1.44274;1.32693;0.605616;
-4.09976;1.62885;3.91732;-0.902169;0.167079;0.380234;1.45042;1.32913;0.606312;
-4.11135;1.63095;3.92982;-0.903306;0.167079;0.378607;1.45808;1.33133;0.606996;
-4.12289;1.63302;3.94226;-0.904429;0.167079;0.376967;1.46573;1.33352;0.607669;
-4.13438;1.63507;3.95463;-0.905541;0.167079;0.375314;1.47337;1.3357;0.608332;
-4.14582;1.6371;3.96694;-0.90664;0.16708;0.373648;1.481;1.33788;0.608984;
-4.15721;1.63911;3.97919;-0.907727;0.167081;0.371969;1.48862;1.34005;0.609626;
-4.16855;1.6411;3.99137;-0.908802;0.167082;0.370278;1.49622;1.34221;0.610258;
-4.17984;1.64307;4.0035;-0.909866;0.167083;0.368575;1.50381;1.34437;0.610879;
-4.19109;1.64502;4.01556;-0.910917;0.167084;0.36686;1.5114;1.34652;0.611491;
-4.20228;1.64695;4.02757;-0.911957;0.167086;0.365133;1.51897;1.34866;0.612093;
-4.21343;1.64887;4.03951;-0.912986;0.167087;0.363394;1.52653;1.3508;0.612685;
-4.22453;1.65076;4.05139;-0.914003;0.167089;0.361644;1.53408;1.35293;0.613267;
-4.23559;1.65264;4.06322;-0.915009;0.167091;0.359883;1.54161;1.35506;0.61384;
-4.2466;1.6545;4.07498;-0.916004;0.167093;0.35811;1.54914;1.35718;0.614404;
-4.25756;1.65634;4.08669;-0.916988;0.167095;0.356327;1.55665;1.35929;0.614959;
-4.26847;1.65817;4.09834;-0.917962;0.167097;0.354533;1.56415;1.36139;0.615504;
-4.27934;1.65998;4.10993;-0.918924;0.1671;0.352729;1.57165;1.36349;0.616041;
-4.29017;1.66177;4.12146;-0.919876;0.167103;0.350914;1.57913;1.36559;0.616568;
-4.30095;1.66354;4.13294;-0.920817;0.167105;0.349088;1.58659;1.36767;0.617087;
-4.31168;1.6653;4.14436;-0.921748;0.167108;0.347253;1.59405;1.36976;0.617598;
-4.32237;1.66704;4.15573;-0.922669;0.167111;0.345408;1.6015;1.37183;0.6181;
-4.33302;1.66877;4.16703;-0.92358;0.167115;0.343553;1.60893;1.3739;0.618593;
-4.34362;1.67048;4.17829;-0.92448;0.167118;0.341689;1.61635;1.37596;0.619079;
-4.35418;1.67217;4.18948;-0.925371;0.167121;0.339815;1.62376;1.37802;0.619556;
-4.36469;1.67385;4.20063;-0.926252;0.167125;0.337932;1.63116;1.38007;0.620025;
-4.37517;1.67551;4.21172;-0.927123;0.167129;0.33604;1.63855;1.38212;0.620486;
-4.38559;1.67716;4.22275;-0.927985;0.167132;0.334139;1.64593;1.38416;0.620939;
-4.39598;1.6788;4.23373;-0.928837;0.167136;0.33223;1.6533;1.38619;0.621385;
-4.40633;1.68042;4.24466;-0.92968;0.16714;0.330311;1.66065;1.38822;0.621823;
-4.41663;1.68202;4.25553;-0.930513;0.167144;0.328385;1.668;1.39024;0.622254;
-4.42689;1.68361;4.26636;-0.931337;0.167149;0.32645;1.67533;1.39226;0.622677;
-4.43711;1.68519;4.27713;-0.932153;0.167153;0.324506;1.68265;1.39427;0.623092;
-4.44729;1.68675;4.28784;-0.932959;0.167157;0.322555;1.68996;1.39628;0.623501;
-4.45742;1.6883;4.29851;-0.933756;0.167162;0.320596;1.69726;1.39828;0.623902;
-4.46752;1.68984;4.30912;-0.934545;0.167166;0.318629;1.70454;1.40027;0.624296;
-4.47758;1.69136;4.31969;-0.935325;0.167171;0.316655;1.71182;1.40226;0.624684;
-4.48759;1.69287;4.3302;-0.936096;0.167176;0.314673;1.71909;1.40424;0.625064;
-4.49757;1.69437;4.34066;-0.936859;0.167181;0.312684;1.72634;1.40622;0.625438;
-4.50751;1.69585;4.35108;-0.937613;0.167186;0.310687;1.73358;1.40819;0.625805;
-4.5174;1.69732;4.36144;-0.938359;0.167191;0.308684;1.74081;1.41016;0.626165;
-4.52726;1.69878;4.37176;-0.939097;0.167196;0.306674;1.74803;1.41212;0.626519;
-4.53708;1.70023;4.38202;-0.939827;0.167201;0.304656;1.75524;1.41408;0.626867;
-4.54686;1.70166;4.39224;-0.940548;0.167206;0.302633;1.76244;1.41603;0.627208;
-4.55661;1.70309;4.4024;-0.941262;0.167212;0.300602;1.76963;1.41798;0.627543;
-4.56631;1.7045;4.41252;-0.941968;0.167217;0.298566;1.7768;1.41992;0.627871;
-4.57598;1.7059;4.4226;-0.942666;0.167223;0.296523;1.78397;1.42185;0.628194;
-4.58561;1.70728;4.43262;-0.943356;0.167228;0.294473;1.79112;1.42378;0.62851;
-4.5952;1.70866;4.4426;-0.944039;0.167234;0.292418;1.79826;1.42571;0.628821;
-4.60475;1.71002;4.45253;-0.944714;0.167239;0.290357;1.80539;1.42763;0.629126;
-4.61427;1.71138;4.46241;-0.945382;0.167245;0.28829;1.81251;1.42954;0.629424;
-4.62375;1.71272;4.47225;-0.946042;0.167251;0.286218;1.81962;1.43145;0.629718;
-4.6332;1.71405;4.48204;-0.946696;0.167257;0.28414;1.82672;1.43336;0.630005;
-4.64261;1.71537;4.49179;-0.947342;0.167263;0.282056;1.83381;1.43526;0.630287;
-4.65198;1.71669;4.50149;-0.94798;0.167269;0.279967;1.84088;1.43715;0.630564;
-4.66131;1.71799;4.51114;-0.948612;0.167275;0.277873;1.84795;1.43904;0.630835;
-4.67062;1.71928;4.52075;-0.949237;0.167281;0.275774;1.855;1.44092;0.6311;
-4.67988;1.72056;4.53032;-0.949855;0.167287;0.27367;1.86205;1.4428;0.631361;
-4.68911;1.72183;4.53984;-0.950466;0.167293;0.27156;1.86908;1.44468;0.631616;
-4.69831;1.72309;4.54932;-0.95107;0.1673;0.269447;1.8761;1.44655;0.631866;
-4.70747;1.72434;4.55875;-0.951667;0.167306;0.267328;1.88311;1.44841;0.632111;
-4.71659;1.72558;4.56814;-0.952258;0.167312;0.265205;1.89011;1.45027;0.63235;
-4.72568;1.72681;4.57749;-0.952843;0.167319;0.263077;1.8971;1.45213;0.632585;
-4.73474;1.72803;4.58679;-0.953421;0.167325;0.260945;1.90408;1.45398;0.632815;
-4.74377;1.72925;4.59605;-0.953993;0.167332;0.258809;1.91105;1.45583;0.63304;
-4.75276;1.73045;4.60527;-0.954558;0.167338;0.256669;1.918;1.45767;0.633261;
-4.76171;1.73164;4.61444;-0.955117;0.167345;0.254524;1.92495;1.45951;0.633476;
-4.77063;1.73283;4.62358;-0.95567;0.167351;0.252376;1.93188;1.46134;0.633687;
-4.77952;1.73401;4.63267;-0.956217;0.167358;0.250224;1.93881;1.46317;0.633894;
-4.78838;1.73517;4.64172;-0.956757;0.167364;0.248068;1.94572;1.46499;0.634096;
-4.79721;1.73633;4.65073;-0.957292;0.167371;0.245908;1.95262;1.46681;0.634293;
-4.806;1.73748;4.6597;-0.957821;0.167378;0.243745;1.95951;1.46862;0.634486;
-4.81476;1.73863;4.66863;-0.958344;0.167385;0.241578;1.96639;1.47043;0.634675;
-4.82348;1.73976;4.67752;-0.958861;0.167391;0.239408;1.97326;1.47223;0.634859;
-4.83218;1.74089;4.68636;-0.959372;0.167398;0.237234;1.98012;1.47403;0.635039;
-4.84084;1.742;4.69517;-0.959878;0.167405;0.235057;1.98697;1.47583;0.635215;
-4.84947;1.74311;4.70394;-0.960378;0.167412;0.232878;1.99381;1.47762;0.635386;
-4.85807;1.74422;4.71267;-0.960873;0.167419;0.230695;2.00064;1.47941;0.635554;
-4.86664;1.74531;4.72136;-0.961362;0.167426;0.228509;2.00745;1.48119;0.635718;
-4.87518;1.7464;4.73001;-0.961846;0.167433;0.22632;2.01426;1.48297;0.635877;
-4.88369;1.74747;4.73862;-0.962324;0.167439;0.224129;2.02106;1.48474;0.636033;
-4.89216;1.74855;4.74719;-0.962797;0.167446;0.221934;2.02784;1.48651;0.636184;
-4.90061;1.74961;4.75572;-0.963265;0.167453;0.219737;2.03461;1.48828;0.636332;
-4.90903;1.75067;4.76422;-0.963727;0.16746;0.217538;2.04138;1.49004;0.636476;
-4.91741;1.75171;4.77268;-0.964185;0.167467;0.215336;2.04813;1.49179;0.636617;
-4.92577;1.75276;4.7811;-0.964637;0.167474;0.213132;2.05487;1.49354;0.636753;
-4.93409;1.75379;4.78948;-0.965085;0.167481;0.210925;2.06161;1.49529;0.636886;
-4.94239;1.75482;4.79783;-0.965527;0.167488;0.208717;2.06833;1.49704;0.637016;
-4.95065;1.75584;4.80614;-0.965965;0.167495;0.206506;2.07504;1.49878;0.637141;
-4.95889;1.75685;4.81441;-0.966397;0.167502;0.204293;2.08174;1.50051;0.637264;
-4.9671;1.75786;4.82264;-0.966825;0.167509;0.202078;2.08843;1.50224;0.637383;
-4.97527;1.75886;4.83084;-0.967248;0.167516;0.199861;2.09511;1.50397;0.637498;
-4.98342;1.75985;4.839;-0.967667;0.167523;0.197642;2.10178;1.50569;0.63761;
-4.99154;1.76084;4.84713;-0.96808;0.16753;0.195421;2.10844;1.50741;0.637719;
-4.99964;1.76182;4.85522;-0.968489;0.167537;0.193199;2.11509;1.50912;0.637824;
-5.0077;1.7628;4.86328;-0.968894;0.167544;0.190975;2.12172;1.51083;0.637926;
-5.01574;1.76376;4.8713;-0.969294;0.167551;0.18875;2.12835;1.51254;0.638025;
-5.02374;1.76472;4.87928;-0.96969;0.167558;0.186523;2.13497;1.51424;0.638121;
-5.03172;1.76568;4.88723;-0.970081;0.167565;0.184294;2.14158;1.51594;0.638214;
-5.03967;1.76663;4.89515;-0.970468;0.167572;0.182064;2.14817;1.51764;0.638303;
-5.0476;1.76757;4.90303;-0.970851;0.167578;0.179833;2.15476;1.51933;0.63839;
-5.05549;1.76851;4.91088;-0.971229;0.167585;0.177601;2.16134;1.52101;0.638473;
-5.06336;1.76944;4.91869;-0.971603;0.167592;0.175368;2.1679;1.5227;0.638554;
-5.0712;1.77037;4.92647;-0.971973;0.167599;0.173133;2.17446;1.52437;0.638631;
-5.07902;1.77129;4.93421;-0.972339;0.167606;0.170897;2.181;1.52605;0.638706;
-5.08681;1.7722;4.94193;-0.972701;0.167613;0.168661;2.18754;1.52772;0.638778;
-5.09457;1.77311;4.9496;-0.973058;0.167619;0.166423;2.19406;1.52939;0.638847;
-5.1023;1.77401;4.95725;-0.973412;0.167626;0.164185;2.20058;1.53105;0.638913;
-5.11001;1.77491;4.96486;-0.973762;0.167633;0.161945;2.20708;1.53271;0.638976;
-5.11769;1.7758;4.97244;-0.974108;0.167639;0.159706;2.21358;1.53436;0.639037;
-5.12535;1.77669;4.97999;-0.97445;0.167646;0.157465;2.22006;1.53601;0.639095;
-5.13298;1.77757;4.9875;-0.974788;0.167653;0.155224;2.22654;1.53766;0.639151;
-5.14058;1.77844;4.99498;-0.975123;0.167659;0.152982;2.233;1.53931;0.639203;
-5.14816;1.77931;5.00243;-0.975454;0.167666;0.15074;2.23946;1.54095;0.639254;
-5.15571;1.78018;5.00985;-0.975781;0.167672;0.148497;2.2459;1.54258;0.639301;
-5.16324;1.78104;5.01724;-0.976104;0.167679;0.146254;2.25233;1.54422;0.639346;
-5.17074;1.78189;5.02459;-0.976424;0.167685;0.14401;2.25876;1.54584;0.639389;
-5.17821;1.78274;5.03192;-0.97674;0.167691;0.141766;2.26517;1.54747;0.639429;
-5.18566;1.78359;5.03921;-0.977053;0.167698;0.139522;2.27158;1.54909;0.639467;
-5.19309;1.78443;5.04647;-0.977362;0.167704;0.137278;2.27797;1.55071;0.639502;
-5.20049;1.78527;5.0537;-0.977668;0.16771;0.135034;2.28435;1.55232;0.639535;
-5.20786;1.7861;5.0609;-0.977971;0.167716;0.132789;2.29073;1.55393;0.639566;
-5.21522;1.78692;5.06807;-0.97827;0.167723;0.130545;2.29709;1.55554;0.639595;
-5.22254;1.78774;5.07521;-0.978565;0.167729;0.128301;2.30345;1.55714;0.639621;
-5.22985;1.78856;5.08232;-0.978858;0.167735;0.126056;2.30979;1.55874;0.639645;
-5.23712;1.78937;5.0894;-0.979147;0.167741;0.123812;2.31613;1.56034;0.639666;
-5.24438;1.79018;5.09645;-0.979433;0.167747;0.121568;2.32245;1.56193;0.639686;
-5.25161;1.79098;5.10347;-0.979715;0.167752;0.119324;2.32876;1.56352;0.639703;
-5.25881;1.79178;5.11046;-0.979995;0.167758;0.117081;2.33507;1.56511;0.639719;
-5.266;1.79258;5.11742;-0.980272;0.167764;0.114837;2.34136;1.56669;0.639732;
-5.27316;1.79337;5.12435;-0.980545;0.167769;0.112595;2.34765;1.56827;0.639743;
-5.28029;1.79415;5.13125;-0.980815;0.167775;0.110352;2.35392;1.56984;0.639752;
-5.2874;1.79493;5.13812;-0.981083;0.167781;0.10811;2.36019;1.57141;0.639759;
-5.29449;1.79571;5.14497;-0.981347;0.167786;0.105869;2.36645;1.57298;0.639764;
-5.30156;1.79648;5.15179;-0.981608;0.167791;0.103628;2.37269;1.57455;0.639767;
-5.3086;1.79725;5.15857;-0.981867;0.167797;0.101387;2.37893;1.57611;0.639768;
-5.31562;1.79802;5.16533;-0.982122;0.167802;0.0991474;2.38516;1.57767;0.639768;
-5.32262;1.79878;5.17207;-0.982375;0.167807;0.0969083;2.39137;1.57922;0.639765;
-5.32959;1.79953;5.17877;-0.982625;0.167812;0.0946699;2.39758;1.58077;0.63976;
-5.33654;1.80029;5.18545;-0.982872;0.167817;0.0924323;2.40378;1.58232;0.639754;
-5.34347;1.80103;5.1921;-0.983116;0.167822;0.0901955;2.40996;1.58386;0.639746;
-5.35038;1.80178;5.19872;-0.983358;0.167827;0.0879595;2.41614;1.5854;0.639736;
-5.35726;1.80252;5.20531;-0.983597;0.167831;0.0857243;2.42231;1.58694;0.639724;
-5.36412;1.80326;5.21188;-0.983833;0.167836;0.0834901;2.42847;1.58847;0.639711;
-5.37096;1.80399;5.21842;-0.984067;0.16784;0.0812568;2.43462;1.59;0.639696;
-5.37778;1.80472;5.22493;-0.984298;0.167845;0.0790245;2.44076;1.59153;0.639679;
-5.38458;1.80545;5.23142;-0.984527;0.167849;0.0767933;2.44689;1.59306;0.63966;
-5.39135;1.80617;5.23788;-0.984753;0.167854;0.0745631;2.45301;1.59458;0.63964;
-5.39811;1.80689;5.24431;-0.984976;0.167858;0.072334;2.45912;1.59609;0.639619;
-5.40484;1.8076;5.25072;-0.985197;0.167862;0.070106;2.46522;1.59761;0.639595;
-5.41155;1.80831;5.2571;-0.985415;0.167866;0.0678792;2.47132;1.59912;0.63957;
-5.41824;1.80902;5.26345;-0.985631;0.16787;0.0656537;2.4774;1.60063;0.639544;
-5.4249;1.80973;5.26978;-0.985845;0.167873;0.0634293;2.48347;1.60213;0.639516;
-5.43155;1.81043;5.27608;-0.986056;0.167877;0.0612063;2.48954;1.60363;0.639486;
-5.43818;1.81113;5.28236;-0.986265;0.16788;0.0589845;2.49559;1.60513;0.639455;
-5.44478;1.81182;5.28861;-0.986472;0.167884;0.0567641;2.50164;1.60663;0.639422;
-5.45136;1.81251;5.29484;-0.986676;0.167887;0.0545451;2.50767;1.60812;0.639388;
-5.45793;1.8132;5.30104;-0.986878;0.16789;0.0523275;2.5137;1.60961;0.639353;
-5.46447;1.81389;5.30722;-0.987078;0.167894;0.0501113;2.51972;1.61109;0.639316;
-5.47099;1.81457;5.31337;-0.987276;0.167897;0.0478966;2.52572;1.61257;0.639278;
-5.47749;1.81524;5.31949;-0.987471;0.167899;0.0456834;2.53172;1.61405;0.639238;
-5.48398;1.81592;5.3256;-0.987664;0.167902;0.0434718;2.53771;1.61553;0.639197;
-5.49044;1.81659;5.33167;-0.987855;0.167905;0.0412617;2.54369;1.617;0.639155;
-5.49688;1.81726;5.33773;-0.988044;0.167907;0.0390532;2.54966;1.61847;0.639111;
-5.5033;1.81793;5.34376;-0.988231;0.16791;0.0368464;2.55562;1.61994;0.639066;
-5.5097;1.81859;5.34976;-0.988416;0.167912;0.0346412;2.56157;1.6214;0.63902;
-5.51608;1.81925;5.35574;-0.988599;0.167914;0.0324377;2.56752;1.62286;0.638972;
-5.52244;1.8199;5.3617;-0.988779;0.167916;0.0302359;2.57345;1.62432;0.638923;
-5.52878;1.82056;5.36763;-0.988958;0.167918;0.0280358;2.57938;1.62577;0.638873;
-5.53511;1.82121;5.37354;-0.989135;0.167919;0.0258375;2.58529;1.62722;0.638822;
-5.54141;1.82186;5.37942;-0.98931;0.167921;0.0236411;2.5912;1.62867;0.63877;
-5.54769;1.8225;5.38529;-0.989483;0.167923;0.0214464;2.59709;1.63012;0.638716;
-5.55396;1.82314;5.39112;-0.989654;0.167924;0.0192536;2.60298;1.63156;0.638661;
-5.5602;1.82378;5.39694;-0.989823;0.167925;0.0170627;2.60886;1.633;0.638605;
-5.56643;1.82442;5.40273;-0.98999;0.167926;0.0148737;2.61473;1.63444;0.638548;
-5.57264;1.82505;5.4085;-0.990155;0.167927;0.0126866;2.62059;1.63587;0.63849;
-5.57882;1.82568;5.41425;-0.990319;0.167928;0.0105015;2.62644;1.6373;0.638431;
-5.58499;1.82631;5.41997;-0.990481;0.167928;0.00831838;2.63228;1.63873;0.638371;
-5.59114;1.82694;5.42567;-0.990641;0.167929;0.00613725;2.63812;1.64015;0.638309;
-5.59727;1.82756;5.43135;-0.990799;0.167929;0.00395816;2.64394;1.64157;0.638247;
-5.60339;1.82818;5.43701;-0.990955;0.167929;0.00178112;2.64975;1.64299;0.638183;
-5.60948;1.8288;5.44264;-0.99111;0.167929;-0.000393836;2.65556;1.64441;0.638119;
-5.61556;1.82941;5.44826;-0.991263;0.167929;-0.00256669;2.66136;1.64582;0.638053;
-5.62162;1.83002;5.45385;-0.991415;0.167929;-0.00473742;2.66715;1.64723;0.637987;
-5.62766;1.83063;5.45941;-0.991564;0.167928;-0.006906;2.67293;1.64863;0.637919;
-5.63368;1.83124;5.46496;-0.991713;0.167927;-0.0090724;2.6787;1.65004;0.637851;
-5.63968;1.83184;5.47049;-0.991859;0.167927;-0.0112366;2.68446;1.65144;0.637781;
-5.64567;1.83245;5.47599;-0.992004;0.167926;-0.0133986;2.69021;1.65284;0.637711;
-5.65163;1.83305;5.48147;-0.992147;0.167924;-0.0155584;2.69595;1.65423;0.63764;
-5.65758;1.83364;5.48693;-0.992289;0.167923;-0.0177159;2.70169;1.65562;0.637568;
-5.66352;1.83424;5.49237;-0.992429;0.167922;-0.0198711;2.70741;1.65701;0.637495;
-5.66943;1.83483;5.49779;-0.992568;0.16792;-0.022024;2.71313;1.6584;0.637421;
-5.67533;1.83542;5.50318;-0.992705;0.167918;-0.0241746;2.71884;1.65978;0.637346;
-5.68121;1.83601;5.50856;-0.992841;0.167916;-0.0263229;2.72454;1.66117;0.63727;
-5.68707;1.83659;5.51392;-0.992975;0.167914;-0.0284688;2.73023;1.66254;0.637194;
-5.69291;1.83718;5.51925;-0.993108;0.167912;-0.0306123;2.73591;1.66392;0.637117;
-5.69874;1.83776;5.52456;-0.993239;0.167909;-0.0327534;2.74158;1.66529;0.637039;
-5.70455;1.83834;5.52986;-0.993369;0.167906;-0.0348921;2.74725;1.66666;0.63696;
-5.71034;1.83891;5.53513;-0.993498;0.167904;-0.0370284;2.7529;1.66803;0.63688;
-5.71612;1.83948;5.54038;-0.993625;0.167901;-0.0391622;2.75855;1.66939;0.6368;
-5.72187;1.84006;5.54561;-0.993751;0.167897;-0.0412936;2.76419;1.67075;0.636718;
-5.72762;1.84063;5.55083;-0.993876;0.167894;-0.0434224;2.76982;1.67211;0.636636;
-5.73334;1.84119;5.55602;-0.993999;0.16789;-0.0455488;2.77544;1.67347;0.636554;
-5.73905;1.84176;5.56119;-0.994121;0.167886;-0.0476726;2.78105;1.67482;0.63647;
-5.74474;1.84232;5.56634;-0.994241;0.167882;-0.0497939;2.78665;1.67617;0.636386;
-5.75041;1.84288;5.57148;-0.99436;0.167878;-0.0519126;2.79225;1.67752;0.636301;
-5.75607;1.84344;5.57659;-0.994478;0.167874;-0.0540287;2.79783;1.67887;0.636216;
-5.76171;1.844;5.58168;-0.994595;0.167869;-0.0561423;2.80341;1.68021;0.63613;
-5.76734;1.84455;5.58676;-0.994711;0.167864;-0.0582532;2.80898;1.68155;0.636043;
-5.77295;1.8451;5.59181;-0.994825;0.167859;-0.0603616;2.81454;1.68288;0.635955;
-5.77854;1.84565;5.59685;-0.994938;0.167854;-0.0624672;2.82009;1.68422;0.635867;
-5.78412;1.8462;5.60186;-0.99505;0.167849;-0.0645703;2.82564;1.68555;0.635778;
-5.78968;1.84675;5.60686;-0.995161;0.167843;-0.0666706;2.83117;1.68688;0.635689;
-5.79522;1.84729;5.61184;-0.99527;0.167837;-0.0687683;2.8367;1.68821;0.635599;
-5.80075;1.84784;5.6168;-0.995378;0.167831;-0.0708633;2.84221;1.68953;0.635508;
-5.80626;1.84838;5.62174;-0.995486;0.167825;-0.0729556;2.84772;1.69085;0.635417;
-5.81176;1.84891;5.62666;-0.995592;0.167819;-0.0750451;2.85322;1.69217;0.635325;
-5.81724;1.84945;5.63156;-0.995697;0.167812;-0.0771319;2.85872;1.69348;0.635233;
-5.8227;1.84999;5.63645;-0.995801;0.167805;-0.0792159;2.8642;1.6948;0.63514;
-5.82815;1.85052;5.64132;-0.995904;0.167798;-0.0812972;2.86968;1.69611;0.635046;
-5.83359;1.85105;5.64616;-0.996006;0.167791;-0.0833757;2.87514;1.69742;0.634952;
-5.839;1.85158;5.65099;-0.996106;0.167783;-0.0854514;2.8806;1.69872;0.634858;
-5.84441;1.8521;5.65581;-0.996206;0.167775;-0.0875243;2.88605;1.70002;0.634763;
-5.84979;1.85263;5.6606;-0.996305;0.167768;-0.0895944;2.89149;1.70132;0.634667;
-5.85517;1.85315;5.66538;-0.996403;0.167759;-0.0916616;2.89693;1.70262;0.634571;
-5.86052;1.85367;5.67013;-0.996499;0.167751;-0.093726;2.90235;1.70392;0.634475;
-5.86586;1.85419;5.67487;-0.996595;0.167742;-0.0957876;2.90777;1.70521;0.634377;
-5.87119;1.85471;5.6796;-0.99669;0.167733;-0.0978463;2.91318;1.7065;0.63428;
-5.8765;1.85523;5.6843;-0.996784;0.167724;-0.0999021;2.91858;1.70779;0.634182;
-5.8818;1.85574;5.68899;-0.996876;0.167715;-0.101955;2.92397;1.70907;0.634084;
-5.88708;1.85626;5.69366;-0.996968;0.167706;-0.104005;2.92935;1.71035;0.633985;
-5.89234;1.85677;5.69831;-0.997059;0.167696;-0.106052;2.93473;1.71163;0.633885;
-5.8976;1.85728;5.70295;-0.99715;0.167686;-0.108096;2.9401;1.71291;0.633786;
-5.90283;1.85778;5.70756;-0.997239;0.167675;-0.110137;2.94546;1.71419;0.633685;
-5.90806;1.85829;5.71217;-0.997327;0.167665;-0.112176;2.95081;1.71546;0.633585;
-5.91326;1.85879;5.71675;-0.997414;0.167654;-0.114211;2.95615;1.71673;0.633484;
-5.91846;1.8593;5.72132;-0.997501;0.167643;-0.116244;2.96149;1.71799;0.633382;
-5.92363;1.8598;5.72587;-0.997587;0.167632;-0.118273;2.96681;1.71926;0.633281;
-5.9288;1.8603;5.7304;-0.997672;0.167621;-0.120299;2.97213;1.72052;0.633179;
-5.93395;1.86079;5.73492;-0.997756;0.167609;-0.122323;2.97744;1.72178;0.633076;
-5.93908;1.86129;5.73942;-0.997839;0.167597;-0.124343;2.98274;1.72304;0.632973;
-5.9442;1.86178;5.7439;-0.997921;0.167585;-0.126361;2.98804;1.72429;0.63287;
-5.94931;1.86228;5.74837;-0.998003;0.167572;-0.128375;2.99332;1.72555;0.632766;
-5.9544;1.86277;5.75282;-0.998084;0.16756;-0.130386;2.9986;1.7268;0.632662;
-5.95948;1.86326;5.75725;-0.998164;0.167547;-0.132395;3.00387;1.72804;0.632558;
-5.96454;1.86375;5.76167;-0.998243;0.167534;-0.1344;3.00913;1.72929;0.632454;
-5.96959;1.86423;5.76607;-0.998322;0.16752;-0.136402;3.01438;1.73053;0.632349;
-5.97463;1.86472;5.77045;-0.9984;0.167507;-0.138401;3.01963;1.73177;0.632243;
-5.97965;1.8652;5.77482;-0.998477;0.167493;-0.140397;3.02487;1.73301;0.632138;
-5.98466;1.86568;5.77918;-0.998553;0.167478;-0.14239;3.0301;1.73424;0.632032;
-5.98966;1.86616;5.78352;-0.998629;0.167464;-0.14438;3.03532;1.73548;0.631926;
-5.99464;1.86664;5.78784;-0.998704;0.167449;-0.146367;3.04053;1.73671;0.63182;
-5.99961;1.86712;5.79214;-0.998778;0.167434;-0.148351;3.04574;1.73794;0.631713;
-6.00456;1.86759;5.79643;-0.998852;0.167419;-0.150332;3.05094;1.73916;0.631606;
-6.0095;1.86807;5.80071;-0.998925;0.167403;-0.152309;3.05612;1.74038;0.631499;
-6.01443;1.86854;5.80497;-0.998997;0.167388;-0.154283;3.06131;1.74161;0.631392;
-6.01934;1.86901;5.80921;-0.999068;0.167372;-0.156255;3.06648;1.74282;0.631284;
-6.02424;1.86948;5.81344;-0.999139;0.167355;-0.158223;3.07165;1.74404;0.631176;
-6.02913;1.86995;5.81765;-0.99921;0.167339;-0.160188;3.0768;1.74525;0.631068;
-6.034;1.87042;5.82185;-0.999279;0.167322;-0.16215;3.08196;1.74647;0.63096;
-6.03886;1.87089;5.82603;-0.999348;0.167305;-0.164108;3.0871;1.74768;0.630851;
-6.04371;1.87135;5.8302;-0.999417;0.167287;-0.166064;3.09223;1.74888;0.630742;
-6.04854;1.87181;5.83436;-0.999485;0.16727;-0.168016;3.09736;1.75009;0.630633;
-6.05336;1.87228;5.83849;-0.999552;0.167252;-0.169965;3.10248;1.75129;0.630524;
-6.05817;1.87274;5.84262;-0.999619;0.167234;-0.171911;3.10759;1.75249;0.630415;
-6.06296;1.87319;5.84672;-0.999685;0.167215;-0.173854;3.11269;1.75369;0.630305;
-6.06774;1.87365;5.85082;-0.99975;0.167196;-0.175794;3.11779;1.75488;0.630195;
-6.07251;1.87411;5.8549;-0.999815;0.167177;-0.17773;3.12288;1.75607;0.630085;
-6.07727;1.87456;5.85896;-0.99988;0.167158;-0.179663;3.12796;1.75727;0.629975;
-6.08201;1.87502;5.86301;-0.999943;0.167138;-0.181593;3.13303;1.75845;0.629865;
-6.08674;1.87547;5.86705;-1.00001;0.167119;-0.18352;3.1381;1.75964;0.629755;
-6.09146;1.87592;5.87107;-1.00007;0.167098;-0.185444;3.14315;1.76082;0.629644;
-6.09617;1.87637;5.87507;-1.00013;0.167078;-0.187364;3.1482;1.762;0.629533;
-6.10086;1.87682;5.87906;-1.00019;0.167057;-0.189281;3.15324;1.76318;0.629423;
-6.10554;1.87727;5.88304;-1.00025;0.167036;-0.191195;3.15828;1.76436;0.629312;
-6.11021;1.87771;5.88701;-1.00032;0.167015;-0.193106;3.1633;1.76554;0.6292;
-6.11486;1.87816;5.89096;-1.00038;0.166993;-0.195014;3.16832;1.76671;0.629089;
-6.1195;1.8786;5.89489;-1.00044;0.166971;-0.196918;3.17333;1.76788;0.628978;
-6.12413;1.87904;5.89881;-1.0005;0.166949;-0.198819;3.17834;1.76905;0.628866;
-6.12875;1.87948;5.90272;-1.00055;0.166927;-0.200717;3.18333;1.77021;0.628755;
-6.13336;1.87992;5.90662;-1.00061;0.166904;-0.202611;3.18832;1.77138;0.628643;
-6.13795;1.88036;5.9105;-1.00067;0.166881;-0.204502;3.1933;1.77254;0.628531;
-6.14253;1.8808;5.91436;-1.00073;0.166858;-0.20639;3.19828;1.7737;0.628419;
-6.1471;1.88123;5.91822;-1.00079;0.166834;-0.208275;3.20324;1.77485;0.628307;
-6.15166;1.88167;5.92205;-1.00084;0.16681;-0.210157;3.2082;1.77601;0.628195;
-6.15621;1.8821;5.92588;-1.0009;0.166786;-0.212035;3.21315;1.77716;0.628083;
-6.16074;1.88254;5.92969;-1.00095;0.166761;-0.21391;3.2181;1.77831;0.627971;
-6.16526;1.88297;5.93349;-1.00101;0.166736;-0.215781;3.22303;1.77946;0.627859;
-6.16977;1.8834;5.93728;-1.00106;0.166711;-0.21765;3.22796;1.7806;0.627746;
-6.17427;1.88383;5.94105;-1.00112;0.166686;-0.219515;3.23288;1.78175;0.627634;
-6.17875;1.88425;5.94481;-1.00117;0.16666;-0.221377;3.2378;1.78289;0.627521;
-6.18323;1.88468;5.94855;-1.00123;0.166634;-0.223235;3.2427;1.78403;0.627409;
-6.18769;1.88511;5.95229;-1.00128;0.166608;-0.22509;3.2476;1.78516;0.627296;
-6.19214;1.88553;5.95601;-1.00133;0.166581;-0.226942;3.25249;1.7863;0.627184;
-6.19658;1.88595;5.95971;-1.00139;0.166554;-0.228791;3.25738;1.78743;0.627071;
-6.20101;1.88637;5.96341;-1.00144;0.166527;-0.230637;3.26225;1.78856;0.626958;
-6.20543;1.8868;5.96709;-1.00149;0.166499;-0.232479;3.26712;1.78969;0.626846;
-6.20983;1.88722;5.97076;-1.00154;0.166471;-0.234317;3.27198;1.79082;0.626733;
-6.21422;1.88763;5.97441;-1.00159;0.166443;-0.236153;3.27684;1.79194;0.62662;
-6.21861;1.88805;5.97805;-1.00164;0.166415;-0.237985;3.28169;1.79306;0.626507;
-6.22298;1.88847;5.98169;-1.0017;0.166386;-0.239814;3.28653;1.79418;0.626395;
-6.22733;1.88888;5.9853;-1.00175;0.166357;-0.24164;3.29136;1.7953;0.626282;
-6.23168;1.8893;5.98891;-1.0018;0.166327;-0.243462;3.29618;1.79642;0.626169;
-6.23602;1.88971;5.9925;-1.00185;0.166297;-0.245281;3.301;1.79753;0.626056;
-6.24035;1.89012;5.99608;-1.00189;0.166267;-0.247097;3.30581;1.79864;0.625943;
-6.24466;1.89053;5.99965;-1.00194;0.166237;-0.248909;3.31062;1.79975;0.625831;
-6.24896;1.89094;6.0032;-1.00199;0.166206;-0.250718;3.31541;1.80086;0.625718;
-6.25326;1.89135;6.00675;-1.00204;0.166175;-0.252524;3.3202;1.80196;0.625605;
-6.25754;1.89176;6.01028;-1.00209;0.166144;-0.254326;3.32498;1.80307;0.625492;
-6.26181;1.89217;6.0138;-1.00214;0.166112;-0.256126;3.32976;1.80417;0.62538;
-6.26607;1.89257;6.0173;-1.00218;0.16608;-0.257921;3.33453;1.80527;0.625267;
-6.27031;1.89298;6.0208;-1.00223;0.166048;-0.259714;3.33929;1.80636;0.625154;
-6.27455;1.89338;6.02428;-1.00228;0.166015;-0.261503;3.34404;1.80746;0.625042;
-6.27878;1.89379;6.02775;-1.00233;0.165982;-0.263289;3.34878;1.80855;0.624929;
-6.28299;1.89419;6.03121;-1.00237;0.165949;-0.265072;3.35352;1.80964;0.624817;
-6.2872;1.89459;6.03466;-1.00242;0.165916;-0.266851;3.35826;1.81073;0.624704;
-6.29139;1.89499;6.03809;-1.00246;0.165882;-0.268627;3.36298;1.81182;0.624592;
-6.29558;1.89539;6.04151;-1.00251;0.165847;-0.270399;3.3677;1.8129;0.624479;
-6.29975;1.89579;6.04493;-1.00256;0.165813;-0.272169;3.37241;1.81398;0.624367;
-6.30391;1.89618;6.04833;-1.0026;0.165778;-0.273935;3.37711;1.81506;0.624255;
-6.30807;1.89658;6.05172;-1.00265;0.165743;-0.275698;3.38181;1.81614;0.624142;
-6.31221;1.89697;6.05509;-1.00269;0.165707;-0.277457;3.3865;1.81722;0.62403;
-6.31634;1.89737;6.05846;-1.00274;0.165671;-0.279213;3.39118;1.81829;0.623918;
-6.32046;1.89776;6.06181;-1.00278;0.165635;-0.280966;3.39585;1.81936;0.623806;
-6.32457;1.89815;6.06515;-1.00283;0.165599;-0.282715;3.40052;1.82043;0.623694;
-6.32867;1.89854;6.06849;-1.00287;0.165562;-0.284461;3.40518;1.8215;0.623582;
-6.33276;1.89893;6.07181;-1.00291;0.165525;-0.286204;3.40984;1.82257;0.623471;
-6.33684;1.89932;6.07511;-1.00296;0.165487;-0.287944;3.41449;1.82363;0.623359;
-6.34091;1.89971;6.07841;-1.003;0.165449;-0.28968;3.41913;1.82469;0.623247;
-6.34497;1.9001;6.0817;-1.00304;0.165411;-0.291413;3.42376;1.82575;0.623136;
-6.34901;1.90048;6.08497;-1.00309;0.165373;-0.293142;3.42839;1.82681;0.623024;
-6.35305;1.90087;6.08824;-1.00313;0.165334;-0.294869;3.433;1.82787;0.622913;
-6.35708;1.90125;6.09149;-1.00317;0.165295;-0.296592;3.43762;1.82892;0.622802;
-6.3611;1.90164;6.09473;-1.00322;0.165255;-0.298311;3.44222;1.82997;0.622691;
-6.36511;1.90202;6.09797;-1.00326;0.165215;-0.300027;3.44682;1.83102;0.62258;
-6.36911;1.9024;6.10119;-1.0033;0.165175;-0.301741;3.45141;1.83207;0.622469;
-6.37309;1.90278;6.1044;-1.00334;0.165135;-0.30345;3.456;1.83312;0.622358;
-6.37707;1.90316;6.10759;-1.00338;0.165094;-0.305157;3.46058;1.83416;0.622247;
-6.38104;1.90354;6.11078;-1.00343;0.165052;-0.30686;3.46515;1.8352;0.622137;
-6.385;1.90392;6.11396;-1.00347;0.165011;-0.30856;3.46971;1.83624;0.622026;
-6.38895;1.9043;6.11713;-1.00351;0.164969;-0.310256;3.47427;1.83728;0.621916;
-6.39289;1.90467;6.12028;-1.00355;0.164927;-0.311949;3.47882;1.83832;0.621806;
-6.39682;1.90505;6.12343;-1.00359;0.164884;-0.313639;3.48337;1.83935;0.621695;
-6.40074;1.90542;6.12657;-1.00363;0.164841;-0.315326;3.4879;1.84039;0.621585;
-6.40465;1.9058;6.12969;-1.00367;0.164798;-0.317009;3.49243;1.84142;0.621476;
-6.40855;1.90617;6.1328;-1.00371;0.164755;-0.318689;3.49696;1.84244;0.621366;
-6.41244;1.90654;6.13591;-1.00376;0.164711;-0.320366;3.50147;1.84347;0.621256;
-6.41632;1.90691;6.139;-1.0038;0.164666;-0.322039;3.50598;1.8445;0.621147;
-6.42019;1.90728;6.14209;-1.00384;0.164622;-0.32371;3.51049;1.84552;0.621038;
-6.42405;1.90765;6.14516;-1.00388;0.164577;-0.325376;3.51498;1.84654;0.620929;
-6.4279;1.90802;6.14822;-1.00392;0.164532;-0.32704;3.51947;1.84756;0.62082;
-6.43175;1.90839;6.15128;-1.00396;0.164486;-0.3287;3.52396;1.84858;0.620711;
-6.43558;1.90876;6.15432;-1.004;0.16444;-0.330357;3.52843;1.84959;0.620602;
-6.4394;1.90912;6.15735;-1.00404;0.164394;-0.332011;3.5329;1.8506;0.620493;
-6.44322;1.90949;6.16037;-1.00408;0.164347;-0.333662;3.53737;1.85162;0.620385;
-6.44702;1.90985;6.16339;-1.00412;0.1643;-0.335309;3.54182;1.85262;0.620277;
-6.45082;1.91022;6.16639;-1.00416;0.164253;-0.336953;3.54627;1.85363;0.620169;
-6.45461;1.91058;6.16938;-1.0042;0.164205;-0.338593;3.55072;1.85464;0.620061;
-6.45838;1.91094;6.17237;-1.00424;0.164157;-0.340231;3.55516;1.85564;0.619953;
-6.46215;1.9113;6.17534;-1.00428;0.164109;-0.341865;3.55959;1.85664;0.619845;
-6.46591;1.91166;6.1783;-1.00431;0.16406;-0.343496;3.56401;1.85764;0.619738;
-6.46966;1.91202;6.18126;-1.00435;0.164011;-0.345123;3.56843;1.85864;0.619631;
-6.4734;1.91238;6.1842;-1.00439;0.163961;-0.346748;3.57284;1.85964;0.619524;
-6.47713;1.91274;6.18713;-1.00443;0.163912;-0.348369;3.57724;1.86063;0.619417;
-6.48086;1.9131;6.19006;-1.00447;0.163861;-0.349987;3.58164;1.86163;0.61931;
-6.48457;1.91345;6.19297;-1.00451;0.163811;-0.351601;3.58603;1.86262;0.619204;
-6.48828;1.91381;6.19588;-1.00455;0.16376;-0.353212;3.59041;1.8636;0.619097;
-6.49197;1.91416;6.19878;-1.00459;0.163709;-0.35482;3.59479;1.86459;0.618991;
-6.49566;1.91452;6.20166;-1.00463;0.163657;-0.356425;3.59916;1.86558;0.618885;
-6.49934;1.91487;6.20454;-1.00467;0.163606;-0.358027;3.60353;1.86656;0.618779;
-6.50301;1.91522;6.20741;-1.0047;0.163553;-0.359625;3.60789;1.86754;0.618673;
-6.50667;1.91557;6.21027;-1.00474;0.163501;-0.36122;3.61224;1.86852;0.618568;
-6.51032;1.91592;6.21311;-1.00478;0.163448;-0.362812;3.61658;1.8695;0.618463;
-6.51396;1.91627;6.21595;-1.00482;0.163395;-0.364401;3.62092;1.87048;0.618358;
-6.5176;1.91662;6.21879;-1.00486;0.163341;-0.365986;3.62526;1.87145;0.618253;
-6.52122;1.91697;6.22161;-1.0049;0.163287;-0.367568;3.62958;1.87242;0.618148;
-6.52484;1.91732;6.22442;-1.00493;0.163233;-0.369147;3.6339;1.87339;0.618044;
-6.52845;1.91767;6.22722;-1.00497;0.163178;-0.370723;3.63821;1.87436;0.617939;
-6.53205;1.91801;6.23002;-1.00501;0.163123;-0.372296;3.64252;1.87533;0.617835;
-6.53564;1.91836;6.2328;-1.00505;0.163068;-0.373865;3.64682;1.87629;0.617731;
-6.53922;1.9187;6.23558;-1.00509;0.163012;-0.375431;3.65112;1.87726;0.617628;
-6.54279;1.91905;6.23834;-1.00513;0.162956;-0.376994;3.6554;1.87822;0.617524;
-6.54636;1.91939;6.2411;-1.00516;0.162899;-0.378554;3.65969;1.87918;0.617421;
-6.54992;1.91973;6.24385;-1.0052;0.162843;-0.38011;3.66396;1.88014;0.617318;
-6.55346;1.92008;6.24659;-1.00524;0.162786;-0.381664;3.66823;1.88109;0.617215;
-6.557;1.92042;6.24932;-1.00528;0.162728;-0.383214;3.67249;1.88205;0.617112;
-6.56054;1.92076;6.25205;-1.00532;0.16267;-0.384761;3.67675;1.883;0.61701;
-6.56406;1.9211;6.25476;-1.00536;0.162612;-0.386304;3.681;1.88395;0.616907;
-6.56757;1.92144;6.25747;-1.00539;0.162553;-0.387845;3.68524;1.8849;0.616805;
-6.57108;1.92178;6.26016;-1.00543;0.162495;-0.389382;3.68948;1.88585;0.616704;
-6.57458;1.92211;6.26285;-1.00547;0.162435;-0.390916;3.69371;1.88679;0.616602;
-6.57807;1.92245;6.26553;-1.00551;0.162376;-0.392447;3.69794;1.88774;0.616501;
-6.58155;1.92279;6.2682;-1.00555;0.162316;-0.393975;3.70215;1.88868;0.6164;
-6.58502;1.92312;6.27086;-1.00558;0.162255;-0.3955;3.70637;1.88962;0.616299;
-6.58849;1.92346;6.27352;-1.00562;0.162195;-0.397021;3.71057;1.89056;0.616198;
-6.59195;1.92379;6.27616;-1.00566;0.162134;-0.39854;3.71477;1.89149;0.616097;
-6.59539;1.92412;6.2788;-1.0057;0.162072;-0.400055;3.71897;1.89243;0.615997;
-6.59884;1.92446;6.28143;-1.00574;0.162011;-0.401567;3.72316;1.89336;0.615897;
-6.60227;1.92479;6.28405;-1.00577;0.161949;-0.403076;3.72734;1.89429;0.615797;
-6.60569;1.92512;6.28666;-1.00581;0.161886;-0.404582;3.73151;1.89522;0.615698;
-6.60911;1.92545;6.28926;-1.00585;0.161823;-0.406084;3.73568;1.89615;0.615598;
-6.61252;1.92578;6.29186;-1.00589;0.16176;-0.407584;3.73984;1.89708;0.615499;
-6.61592;1.92611;6.29445;-1.00593;0.161697;-0.40908;3.744;1.898;0.6154;
-6.61931;1.92644;6.29702;-1.00596;0.161633;-0.410573;3.74815;1.89893;0.615302;
-6.6227;1.92676;6.29959;-1.006;0.161569;-0.412063;3.7523;1.89985;0.615203;
-6.62608;1.92709;6.30216;-1.00604;0.161504;-0.41355;3.75644;1.90077;0.615105;
-6.62944;1.92742;6.30471;-1.00608;0.161439;-0.415034;3.76057;1.90168;0.615007;
-6.63281;1.92774;6.30726;-1.00612;0.161374;-0.416515;3.76469;1.9026;0.61491;
-6.63616;1.92807;6.3098;-1.00616;0.161308;-0.417992;3.76881;1.90351;0.614812;
-6.63951;1.92839;6.31233;-1.00619;0.161242;-0.419467;3.77293;1.90443;0.614715;
-6.64284;1.92872;6.31485;-1.00623;0.161176;-0.420938;3.77704;1.90534;0.614618;
-6.64617;1.92904;6.31736;-1.00627;0.161109;-0.422407;3.78114;1.90625;0.614521;
-6.6495;1.92936;6.31987;-1.00631;0.161042;-0.423872;3.78524;1.90715;0.614425;
-6.65281;1.92968;6.32237;-1.00635;0.160975;-0.425334;3.78933;1.90806;0.614329;
-6.65612;1.93001;6.32486;-1.00638;0.160907;-0.426793;3.79341;1.90896;0.614233;
-6.65942;1.93033;6.32734;-1.00642;0.160839;-0.428249;3.79749;1.90987;0.614137;
-6.66271;1.93065;6.32981;-1.00646;0.16077;-0.429702;3.80156;1.91077;0.614041;
-6.66599;1.93096;6.33228;-1.0065;0.160702;-0.431151;3.80563;1.91167;0.613946;
-6.66927;1.93128;6.33474;-1.00654;0.160632;-0.432598;3.80969;1.91257;0.613851;
-6.67254;1.9316;6.33719;-1.00658;0.160563;-0.434042;3.81374;1.91346;0.613756;
-6.6758;1.93192;6.33964;-1.00662;0.160493;-0.435482;3.81779;1.91436;0.613662;
-6.67906;1.93223;6.34207;-1.00665;0.160423;-0.43692;3.82183;1.91525;0.613567;
-6.6823;1.93255;6.3445;-1.00669;0.160352;-0.438354;3.82587;1.91614;0.613473;
-6.68554;1.93287;6.34692;-1.00673;0.160281;-0.439786;3.8299;1.91703;0.61338;
-6.68877;1.93318;6.34934;-1.00677;0.16021;-0.441214;3.83392;1.91792;0.613286;
-6.692;1.93349;6.35174;-1.00681;0.160138;-0.442639;3.83794;1.9188;0.613193;
-6.69522;1.93381;6.35414;-1.00685;0.160066;-0.444062;3.84195;1.91969;0.6131;
-6.69843;1.93412;6.35653;-1.00689;0.159994;-0.445481;3.84596;1.92057;0.613007;
-6.70163;1.93443;6.35891;-1.00693;0.159921;-0.446897;3.84996;1.92145;0.612915;
-6.70482;1.93474;6.36129;-1.00696;0.159848;-0.44831;3.85396;1.92233;0.612823;
-6.70801;1.93506;6.36366;-1.007;0.159775;-0.44972;3.85795;1.92321;0.612731;
-6.71119;1.93537;6.36602;-1.00704;0.159701;-0.451127;3.86193;1.92408;0.612639;
-6.71436;1.93568;6.36838;-1.00708;0.159627;-0.452531;3.86591;1.92496;0.612547;
-6.71753;1.93598;6.37072;-1.00712;0.159552;-0.453933;3.86988;1.92583;0.612456;
-6.72069;1.93629;6.37306;-1.00716;0.159477;-0.455331;3.87385;1.9267;0.612365;
-6.72384;1.9366;6.37539;-1.0072;0.159402;-0.456726;3.87781;1.92757;0.612275;
-6.72699;1.93691;6.37772;-1.00724;0.159327;-0.458118;3.88176;1.92844;0.612184;
-6.73012;1.93721;6.38004;-1.00728;0.159251;-0.459507;3.88571;1.92931;0.612094;
-6.73325;1.93752;6.38235;-1.00732;0.159175;-0.460893;3.88965;1.93017;0.612004;
-6.73638;1.93783;6.38465;-1.00736;0.159098;-0.462276;3.89359;1.93103;0.611915;
-6.73949;1.93813;6.38695;-1.0074;0.159021;-0.463656;3.89752;1.9319;0.611825;
-6.7426;1.93843;6.38924;-1.00744;0.158944;-0.465034;3.90145;1.93276;0.611736;
-6.7457;1.93874;6.39152;-1.00748;0.158866;-0.466408;3.90537;1.93361;0.611648;
-6.7488;1.93904;6.39379;-1.00752;0.158788;-0.467779;3.90928;1.93447;0.611559;
-6.75189;1.93934;6.39606;-1.00756;0.15871;-0.469147;3.91319;1.93533;0.611471;
-6.75497;1.93964;6.39832;-1.0076;0.158631;-0.470513;3.91709;1.93618;0.611383;
-6.75804;1.93995;6.40058;-1.00764;0.158552;-0.471875;3.92099;1.93703;0.611295;
-6.76111;1.94025;6.40283;-1.00768;0.158473;-0.473234;3.92488;1.93788;0.611208;
-6.76417;1.94055;6.40507;-1.00772;0.158393;-0.474591;3.92877;1.93873;0.61112;
-6.76722;1.94085;6.4073;-1.00776;0.158313;-0.475944;3.93265;1.93958;0.611033;
-6.77027;1.94114;6.40953;-1.0078;0.158232;-0.477295;3.93652;1.94042;0.610947;
-6.77331;1.94144;6.41175;-1.00784;0.158151;-0.478643;3.94039;1.94127;0.61086;
-6.77634;1.94174;6.41396;-1.00788;0.15807;-0.479987;3.94425;1.94211;0.610774;
-6.77937;1.94204;6.41617;-1.00792;0.157989;-0.481329;3.94811;1.94295;0.610688;
-6.78239;1.94233;6.41837;-1.00796;0.157907;-0.482668;3.95196;1.94379;0.610603;
-6.7854;1.94263;6.42056;-1.008;0.157825;-0.484004;3.95581;1.94463;0.610518;
-6.78841;1.94293;6.42275;-1.00804;0.157742;-0.485337;3.95965;1.94547;0.610433;
-6.79141;1.94322;6.42493;-1.00808;0.157659;-0.486667;3.96349;1.9463;0.610348;
-6.7944;1.94351;6.4271;-1.00812;0.157576;-0.487995;3.96732;1.94713;0.610263;
-6.79739;1.94381;6.42927;-1.00816;0.157493;-0.489319;3.97114;1.94797;0.610179;
-6.80037;1.9441;6.43143;-1.0082;0.157409;-0.490641;3.97496;1.9488;0.610095;
-6.80334;1.94439;6.43358;-1.00824;0.157324;-0.491959;3.97877;1.94963;0.610012;
-6.80631;1.94469;6.43573;-1.00828;0.15724;-0.493275;3.98258;1.95045;0.609928;
-6.80927;1.94498;6.43787;-1.00832;0.157155;-0.494588;3.98638;1.95128;0.609845;
-6.81222;1.94527;6.44;-1.00837;0.157069;-0.495898;3.99018;1.9521;0.609762;
-6.81517;1.94556;6.44213;-1.00841;0.156984;-0.497205;3.99397;1.95292;0.60968;
-6.81811;1.94585;6.44425;-1.00845;0.156898;-0.498509;3.99775;1.95375;0.609597;
-6.82104;1.94614;6.44636;-1.00849;0.156811;-0.499811;4.00153;1.95457;0.609515;
-6.82397;1.94642;6.44847;-1.00853;0.156725;-0.501109;4.00531;1.95538;0.609434;
-6.82689;1.94671;6.45057;-1.00857;0.156638;-0.502405;4.00908;1.9562;0.609352;
-6.8298;1.947;6.45267;-1.00861;0.15655;-0.503698;4.01284;1.95701;0.609271;
-6.83271;1.94729;6.45476;-1.00866;0.156463;-0.504988;4.0166;1.95783;0.60919;
-6.83561;1.94757;6.45684;-1.0087;0.156375;-0.506275;4.02035;1.95864;0.60911;
-6.8385;1.94786;6.45892;-1.00874;0.156286;-0.507559;4.0241;1.95945;0.609029;
-6.84139;1.94814;6.46099;-1.00878;0.156197;-0.508841;4.02784;1.96026;0.608949;
-6.84427;1.94843;6.46305;-1.00882;0.156108;-0.51012;4.03158;1.96107;0.60887;
-6.84715;1.94871;6.46511;-1.00887;0.156019;-0.511396;4.03531;1.96187;0.60879;
-6.85002;1.949;6.46716;-1.00891;0.155929;-0.512669;4.03903;1.96268;0.608711;
-6.85288;1.94928;6.46921;-1.00895;0.155839;-0.513939;4.04275;1.96348;0.608632;
-6.85574;1.94956;6.47125;-1.00899;0.155749;-0.515206;4.04647;1.96428;0.608553;
-6.85859;1.94984;6.47328;-1.00904;0.155658;-0.516471;4.05018;1.96508;0.608475;
-6.86144;1.95013;6.47531;-1.00908;0.155567;-0.517733;4.05388;1.96588;0.608397;
-6.86427;1.95041;6.47733;-1.00912;0.155475;-0.518992;4.05758;1.96668;0.608319;
-6.86711;1.95069;6.47934;-1.00916;0.155383;-0.520249;4.06127;1.96747;0.608242;
-6.86993;1.95097;6.48135;-1.00921;0.155291;-0.521502;4.06496;1.96827;0.608164;
-6.87275;1.95125;6.48335;-1.00925;0.155199;-0.522753;4.06864;1.96906;0.608087;
-6.87556;1.95152;6.48535;-1.00929;0.155106;-0.524001;4.07232;1.96985;0.608011;
-6.87837;1.9518;6.48734;-1.00934;0.155013;-0.525246;4.07599;1.97064;0.607934;
-6.88117;1.95208;6.48933;-1.00938;0.154919;-0.526489;4.07966;1.97143;0.607858;
-6.88397;1.95236;6.49131;-1.00942;0.154825;-0.527729;4.08332;1.97222;0.607782;
-6.88676;1.95263;6.49328;-1.00946;0.154731;-0.528966;4.08697;1.973;0.607707;
-6.88954;1.95291;6.49525;-1.00951;0.154637;-0.5302;4.09063;1.97379;0.607632;
-6.89232;1.95319;6.49721;-1.00955;0.154542;-0.531431;4.09427;1.97457;0.607557;
-6.89509;1.95346;6.49917;-1.0096;0.154447;-0.53266;4.09791;1.97535;0.607482;
-6.89785;1.95374;6.50112;-1.00964;0.154351;-0.533886;4.10155;1.97613;0.607408;
-6.90061;1.95401;6.50306;-1.00968;0.154255;-0.53511;4.10518;1.97691;0.607333;
-6.90337;1.95428;6.505;-1.00973;0.154159;-0.53633;4.1088;1.97768;0.60726;
-6.90611;1.95456;6.50693;-1.00977;0.154063;-0.537548;4.11242;1.97846;0.607186;
-6.90885;1.95483;6.50886;-1.00981;0.153966;-0.538764;4.11603;1.97923;0.607113;
-6.91159;1.9551;6.51078;-1.00986;0.153869;-0.539976;4.11964;1.98001;0.60704;
-6.91432;1.95537;6.5127;-1.0099;0.153771;-0.541186;4.12325;1.98078;0.606967;
-6.91704;1.95564;6.51461;-1.00995;0.153673;-0.542393;4.12684;1.98155;0.606895;
-6.91976;1.95591;6.51651;-1.00999;0.153575;-0.543598;4.13044;1.98232;0.606822;
-6.92247;1.95618;6.51841;-1.01004;0.153476;-0.544799;4.13403;1.98308;0.606751;
-6.92518;1.95645;6.5203;-1.01008;0.153378;-0.545998;4.13761;1.98385;0.606679;
-6.92788;1.95672;6.52219;-1.01013;0.153278;-0.547195;4.14119;1.98461;0.606608;
-6.93057;1.95699;6.52407;-1.01017;0.153179;-0.548388;4.14476;1.98537;0.606537;
-6.93326;1.95726;6.52595;-1.01021;0.153079;-0.54958;4.14833;1.98613;0.606466;
-6.93594;1.95752;6.52782;-1.01026;0.152979;-0.550768;4.15189;1.98689;0.606396;
-6.93862;1.95779;6.52968;-1.0103;0.152879;-0.551954;4.15545;1.98765;0.606325;
-6.94129;1.95806;6.53154;-1.01035;0.152778;-0.553137;4.159;1.98841;0.606255;
-6.94396;1.95832;6.5334;-1.0104;0.152677;-0.554317;4.16255;1.98917;0.606186;
-6.94662;1.95859;6.53525;-1.01044;0.152575;-0.555495;4.16609;1.98992;0.606117;
-6.94927;1.95885;6.53709;-1.01049;0.152473;-0.55667;4.16962;1.99067;0.606048;
-6.95192;1.95912;6.53893;-1.01053;0.152371;-0.557843;4.17316;1.99142;0.605979;
-6.95456;1.95938;6.54076;-1.01058;0.152269;-0.559013;4.17668;1.99217;0.60591;
-6.9572;1.95965;6.54259;-1.01062;0.152166;-0.56018;4.1802;1.99292;0.605842;
-6.95983;1.95991;6.54441;-1.01067;0.152063;-0.561345;4.18372;1.99367;0.605774;
-6.96246;1.96017;6.54623;-1.01071;0.15196;-0.562507;4.18723;1.99441;0.605707;
-6.96508;1.96043;6.54804;-1.01076;0.151856;-0.563666;4.19074;1.99516;0.605639;
-6.96769;1.96069;6.54985;-1.01081;0.151752;-0.564823;4.19424;1.9959;0.605572;
-6.9703;1.96096;6.55165;-1.01085;0.151647;-0.565978;4.19774;1.99664;0.605506;
-6.97291;1.96122;6.55344;-1.0109;0.151543;-0.567129;4.20123;1.99738;0.605439;
-6.97551;1.96148;6.55523;-1.01094;0.151438;-0.568278;4.20471;1.99812;0.605373;
-6.9781;1.96174;6.55702;-1.01099;0.151332;-0.569425;4.2082;1.99886;0.605307;
-6.98069;1.96199;6.5588;-1.01104;0.151227;-0.570569;4.21167;1.9996;0.605241;
-6.98327;1.96225;6.56058;-1.01108;0.151121;-0.57171;4.21514;2.00033;0.605176;
-6.98584;1.96251;6.56235;-1.01113;0.151014;-0.572849;4.21861;2.00107;0.605111;
-6.98842;1.96277;6.56411;-1.01118;0.150908;-0.573985;4.22207;2.0018;0.605046;
-6.99098;1.96303;6.56587;-1.01122;0.150801;-0.575119;4.22553;2.00253;0.604982;
-6.99354;1.96328;6.56762;-1.01127;0.150694;-0.57625;4.22898;2.00326;0.604917;
-6.9961;1.96354;6.56937;-1.01132;0.150586;-0.577379;4.23243;2.00399;0.604853;
-6.99865;1.96379;6.57112;-1.01137;0.150478;-0.578505;4.23587;2.00471;0.60479;
-7.00119;1.96405;6.57286;-1.01141;0.15037;-0.579628;4.23931;2.00544;0.604726;
-7.00373;1.9643;6.57459;-1.01146;0.150262;-0.580749;4.24274;2.00616;0.604663;
-7.00626;1.96456;6.57632;-1.01151;0.150153;-0.581868;4.24616;2.00688;0.6046;
-7.00879;1.96481;6.57805;-1.01156;0.150044;-0.582984;4.24959;2.00761;0.604538;
-7.01131;1.96507;6.57976;-1.0116;0.149934;-0.584097;4.253;2.00833;0.604476;
-7.01383;1.96532;6.58148;-1.01165;0.149824;-0.585208;4.25642;2.00905;0.604414;
-7.01634;1.96557;6.58319;-1.0117;0.149714;-0.586316;4.25982;2.00976;0.604352;
-7.01885;1.96582;6.58489;-1.01175;0.149604;-0.587422;4.26323;2.01048;0.604291;
-7.02135;1.96607;6.58659;-1.01179;0.149493;-0.588525;4.26662;2.01119;0.60423;
-7.02385;1.96633;6.58829;-1.01184;0.149382;-0.589626;4.27002;2.01191;0.604169;
-7.02634;1.96658;6.58998;-1.01189;0.149271;-0.590725;4.2734;2.01262;0.604108;
-7.02882;1.96683;6.59166;-1.01194;0.149159;-0.591821;4.27679;2.01333;0.604048;
-7.0313;1.96708;6.59334;-1.01199;0.149048;-0.592914;4.28017;2.01404;0.603988;
-7.03378;1.96732;6.59502;-1.01204;0.148935;-0.594005;4.28354;2.01475;0.603928;
-7.03625;1.96757;6.59669;-1.01208;0.148823;-0.595094;4.28691;2.01545;0.603869;
-7.03872;1.96782;6.59835;-1.01213;0.14871;-0.59618;4.29027;2.01616;0.603809;
-7.04118;1.96807;6.60002;-1.01218;0.148597;-0.597263;4.29363;2.01686;0.603751;
-7.04363;1.96832;6.60167;-1.01223;0.148483;-0.598344;4.29699;2.01757;0.603692;
-7.04608;1.96856;6.60332;-1.01228;0.14837;-0.599423;4.30034;2.01827;0.603634;
-7.04853;1.96881;6.60497;-1.01233;0.148255;-0.600499;4.30368;2.01897;0.603576;
-7.05097;1.96906;6.60661;-1.01238;0.148141;-0.601573;4.30702;2.01967;0.603518;
-7.0534;1.9693;6.60825;-1.01243;0.148026;-0.602644;4.31036;2.02037;0.60346;
-7.05583;1.96955;6.60988;-1.01247;0.147911;-0.603713;4.31369;2.02106;0.603403;
-7.05825;1.96979;6.61151;-1.01252;0.147796;-0.60478;4.31701;2.02176;0.603346;
-7.06067;1.97003;6.61313;-1.01257;0.147681;-0.605844;4.32033;2.02245;0.603289;
-7.06309;1.97028;6.61475;-1.01262;0.147565;-0.606905;4.32365;2.02314;0.603233;
-7.0655;1.97052;6.61637;-1.01267;0.147449;-0.607964;4.32696;2.02384;0.603177;
-7.0679;1.97076;6.61798;-1.01272;0.147332;-0.609021;4.33027;2.02453;0.603121;
-7.0703;1.97101;6.61958;-1.01277;0.147215;-0.610076;4.33357;2.02522;0.603066;
-7.0727;1.97125;6.62118;-1.01282;0.147098;-0.611128;4.33687;2.0259;0.60301;
-7.07509;1.97149;6.62278;-1.01287;0.146981;-0.612177;4.34016;2.02659;0.602955;
-7.07747;1.97173;6.62437;-1.01292;0.146863;-0.613224;4.34345;2.02727;0.6029;
-7.07985;1.97197;6.62596;-1.01297;0.146745;-0.614269;4.34673;2.02796;0.602846;
-7.08223;1.97221;6.62754;-1.01302;0.146627;-0.615312;4.35001;2.02864;0.602792;
-7.0846;1.97245;6.62912;-1.01307;0.146508;-0.616352;4.35328;2.02932;0.602738;
-7.08696;1.97269;6.63069;-1.01312;0.14639;-0.61739;4.35655;2.03;0.602684;
-7.08932;1.97293;6.63226;-1.01317;0.14627;-0.618425;4.35982;2.03068;0.602631;
-7.09168;1.97317;6.63382;-1.01322;0.146151;-0.619458;4.36308;2.03136;0.602578;
-7.09403;1.97341;6.63538;-1.01327;0.146031;-0.620489;4.36633;2.03203;0.602525;
-7.09638;1.97364;6.63694;-1.01333;0.145911;-0.621517;4.36959;2.03271;0.602472;
-7.09872;1.97388;6.63849;-1.01338;0.145791;-0.622543;4.37283;2.03338;0.60242;
-7.10105;1.97412;6.64004;-1.01343;0.14567;-0.623566;4.37607;2.03406;0.602368;
-7.10339;1.97435;6.64158;-1.01348;0.145549;-0.624588;4.37931;2.03473;0.602316;
-7.10571;1.97459;6.64312;-1.01353;0.145428;-0.625607;4.38254;2.0354;0.602265;
-7.10803;1.97482;6.64465;-1.01358;0.145307;-0.626623;4.38577;2.03607;0.602214;
-7.11035;1.97506;6.64618;-1.01363;0.145185;-0.627638;4.38899;2.03673;0.602163;
-7.11266;1.97529;6.64771;-1.01368;0.145063;-0.62865;4.39221;2.0374;0.602112;
-7.11497;1.97553;6.64923;-1.01373;0.144941;-0.629659;4.39543;2.03807;0.602062;
-7.11728;1.97576;6.65075;-1.01379;0.144818;-0.630667;4.39864;2.03873;0.602012;
-7.11957;1.976;6.65226;-1.01384;0.144695;-0.631672;4.40184;2.03939;0.601962;
-7.12187;1.97623;6.65377;-1.01389;0.144572;-0.632674;4.40504;2.04005;0.601912;
-7.12416;1.97646;6.65527;-1.01394;0.144449;-0.633675;4.40824;2.04071;0.601863;
-7.12644;1.97669;6.65677;-1.01399;0.144325;-0.634673;4.41143;2.04137;0.601814;
-7.12872;1.97692;6.65827;-1.01404;0.144201;-0.635669;4.41462;2.04203;0.601765;
-7.131;1.97715;6.65976;-1.0141;0.144076;-0.636663;4.4178;2.04269;0.601717;
-7.13327;1.97739;6.66125;-1.01415;0.143952;-0.637654;4.42098;2.04334;0.601669;
-7.13553;1.97762;6.66273;-1.0142;0.143827;-0.638643;4.42415;2.044;0.601621;
-7.1378;1.97785;6.66421;-1.01425;0.143702;-0.63963;4.42732;2.04465;0.601573;
-7.14005;1.97807;6.66568;-1.01431;0.143576;-0.640614;4.43049;2.0453;0.601526;
-7.1423;1.9783;6.66715;-1.01436;0.143451;-0.641597;4.43365;2.04595;0.601478;
-7.14455;1.97853;6.66862;-1.01441;0.143325;-0.642577;4.4368;2.0466;0.601432;
-7.1468;1.97876;6.67008;-1.01446;0.143198;-0.643554;4.43995;2.04725;0.601385;
-7.14903;1.97899;6.67154;-1.01452;0.143072;-0.64453;4.4431;2.0479;0.601339;
-7.15127;1.97922;6.673;-1.01457;0.142945;-0.645503;4.44624;2.04854;0.601293;
-7.1535;1.97944;6.67445;-1.01462;0.142818;-0.646474;4.44938;2.04919;0.601247;
-7.15572;1.97967;6.67589;-1.01467;0.142691;-0.647443;4.45251;2.04983;0.601201;
-7.15794;1.9799;6.67734;-1.01473;0.142563;-0.64841;4.45564;2.05047;0.601156;
-7.16016;1.98012;6.67877;-1.01478;0.142435;-0.649374;4.45877;2.05111;0.601111;
-7.16237;1.98035;6.68021;-1.01483;0.142307;-0.650336;4.46189;2.05175;0.601066;
-7.16458;1.98057;6.68164;-1.01489;0.142178;-0.651296;4.465;2.05239;0.601022;
-7.16678;1.9808;6.68307;-1.01494;0.14205;-0.652254;4.46812;2.05303;0.600977;
-7.16898;1.98102;6.68449;-1.01499;0.141921;-0.65321;4.47122;2.05367;0.600933;
-7.17118;1.98124;6.68591;-1.01505;0.141791;-0.654163;4.47432;2.0543;0.60089;
-7.17337;1.98147;6.68732;-1.0151;0.141662;-0.655114;4.47742;2.05494;0.600846;
-7.17555;1.98169;6.68873;-1.01515;0.141532;-0.656063;4.48052;2.05557;0.600803;
-7.17773;1.98191;6.69014;-1.01521;0.141402;-0.65701;4.48361;2.0562;0.60076;
-7.17991;1.98213;6.69154;-1.01526;0.141272;-0.657955;4.48669;2.05683;0.600717;
-7.18208;1.98236;6.69294;-1.01532;0.141141;-0.658897;4.48977;2.05746;0.600675;
-7.18425;1.98258;6.69434;-1.01537;0.14101;-0.659837;4.49285;2.05809;0.600633;
-7.18641;1.9828;6.69573;-1.01542;0.140879;-0.660776;4.49592;2.05872;0.600591;
-7.18857;1.98302;6.69712;-1.01548;0.140747;-0.661712;4.49899;2.05934;0.600549;
-7.19073;1.98324;6.6985;-1.01553;0.140616;-0.662645;4.50205;2.05997;0.600508;
-7.19288;1.98346;6.69988;-1.01559;0.140484;-0.663577;4.50511;2.06059;0.600467;
-7.19502;1.98368;6.70126;-1.01564;0.140352;-0.664507;4.50817;2.06121;0.600426;
-7.19717;1.9839;6.70263;-1.01569;0.140219;-0.665434;4.51122;2.06183;0.600385;
-7.1993;1.98411;6.704;-1.01575;0.140087;-0.666359;4.51426;2.06245;0.600345;
-7.20144;1.98433;6.70536;-1.0158;0.139954;-0.667282;4.51731;2.06307;0.600305;
-7.20357;1.98455;6.70672;-1.01586;0.13982;-0.668203;4.52034;2.06369;0.600265;
-7.20569;1.98477;6.70808;-1.01591;0.139687;-0.669122;4.52338;2.06431;0.600226;
-7.20781;1.98498;6.70943;-1.01597;0.139553;-0.670039;4.52641;2.06492;0.600186;
-7.20993;1.9852;6.71078;-1.01602;0.139419;-0.670954;4.52943;2.06554;0.600147;
-7.21204;1.98542;6.71213;-1.01608;0.139285;-0.671866;4.53245;2.06615;0.600108;
-7.21415;1.98563;6.71347;-1.01613;0.13915;-0.672777;4.53547;2.06676;0.60007;
-7.21625;1.98585;6.71481;-1.01619;0.139015;-0.673685;4.53848;2.06737;0.600032;
-7.21835;1.98606;6.71615;-1.01624;0.13888;-0.674591;4.54149;2.06798;0.599994;
-7.22045;1.98628;6.71748;-1.0163;0.138745;-0.675495;4.54449;2.06859;0.599956;
-7.22254;1.98649;6.71881;-1.01635;0.13861;-0.676397;4.54749;2.0692;0.599918;
-7.22463;1.9867;6.72013;-1.01641;0.138474;-0.677297;4.55049;2.06981;0.599881;
-7.22671;1.98692;6.72145;-1.01646;0.138338;-0.678195;4.55348;2.07041;0.599844;
-7.22879;1.98713;6.72277;-1.01652;0.138201;-0.679091;4.55647;2.07102;0.599807;
-7.23087;1.98734;6.72408;-1.01658;0.138065;-0.679985;4.55945;2.07162;0.599771;
-7.23294;1.98756;6.72539;-1.01663;0.137928;-0.680876;4.56243;2.07222;0.599734;
-7.23501;1.98777;6.7267;-1.01669;0.137791;-0.681766;4.5654;2.07282;0.599698;
-7.23707;1.98798;6.728;-1.01674;0.137654;-0.682653;4.56837;2.07342;0.599662;
-7.23913;1.98819;6.7293;-1.0168;0.137516;-0.683539;4.57134;2.07402;0.599627;
-7.24118;1.9884;6.73059;-1.01685;0.137378;-0.684422;4.5743;2.07462;0.599592;
-7.24323;1.98861;6.73189;-1.01691;0.13724;-0.685304;4.57726;2.07522;0.599557;
-7.24528;1.98882;6.73318;-1.01697;0.137102;-0.686183;4.58021;2.07581;0.599522;
-7.24732;1.98903;6.73446;-1.01702;0.136964;-0.687061;4.58316;2.07641;0.599487;
-7.24936;1.98924;6.73574;-1.01708;0.136825;-0.687936;4.58611;2.077;0.599453;
-7.2514;1.98945;6.73702;-1.01713;0.136686;-0.688809;4.58905;2.07759;0.599419;
-7.25343;1.98966;6.7383;-1.01719;0.136547;-0.68968;4.59199;2.07818;0.599385;
-7.25545;1.98986;6.73957;-1.01725;0.136407;-0.69055;4.59492;2.07877;0.599352;
-7.25748;1.99007;6.74083;-1.0173;0.136267;-0.691417;4.59785;2.07936;0.599318;
-7.2595;1.99028;6.7421;-1.01736;0.136127;-0.692282;4.60078;2.07995;0.599285;
-7.26151;1.99049;6.74336;-1.01742;0.135987;-0.693145;4.6037;2.08054;0.599252;
-7.26352;1.99069;6.74462;-1.01747;0.135847;-0.694007;4.60661;2.08112;0.59922;
-7.26553;1.9909;6.74587;-1.01753;0.135706;-0.694866;4.60953;2.08171;0.599187;
-7.26753;1.9911;6.74712;-1.01759;0.135565;-0.695723;4.61244;2.08229;0.599155;
-7.26953;1.99131;6.74837;-1.01764;0.135424;-0.696578;4.61534;2.08287;0.599123;
-7.27153;1.99151;6.74961;-1.0177;0.135283;-0.697432;4.61824;2.08345;0.599092;
-7.27352;1.99172;6.75086;-1.01776;0.135141;-0.698283;4.62114;2.08404;0.59906;
-7.27551;1.99192;6.75209;-1.01782;0.134999;-0.699132;4.62403;2.08461;0.599029;
-7.27749;1.99213;6.75333;-1.01787;0.134857;-0.69998;4.62692;2.08519;0.598998;
-7.27947;1.99233;6.75456;-1.01793;0.134715;-0.700825;4.6298;2.08577;0.598968;
-7.28145;1.99253;6.75579;-1.01799;0.134572;-0.701668;4.63268;2.08635;0.598937;
-7.28342;1.99274;6.75701;-1.01804;0.134429;-0.70251;4.63556;2.08692;0.598907;
-7.28539;1.99294;6.75823;-1.0181;0.134286;-0.703349;4.63843;2.0875;0.598877;
-7.28735;1.99314;6.75945;-1.01816;0.134143;-0.704187;4.6413;2.08807;0.598848;
-7.28931;1.99334;6.76066;-1.01822;0.134;-0.705023;4.64416;2.08864;0.598818;
-7.29127;1.99354;6.76187;-1.01827;0.133856;-0.705856;4.64702;2.08921;0.598789;
-7.29322;1.99375;6.76308;-1.01833;0.133712;-0.706688;4.64988;2.08978;0.59876;
-7.29517;1.99395;6.76429;-1.01839;0.133568;-0.707518;4.65273;2.09035;0.598731;
-7.29712;1.99415;6.76549;-1.01845;0.133423;-0.708346;4.65558;2.09092;0.598703;
-7.29906;1.99435;6.76669;-1.0185;0.133279;-0.709172;4.65843;2.09148;0.598674;
-7.301;1.99455;6.76788;-1.01856;0.133134;-0.709996;4.66127;2.09205;0.598646;
-7.30293;1.99475;6.76907;-1.01862;0.132989;-0.710818;4.6641;2.09261;0.598619;
-7.30486;1.99494;6.77026;-1.01868;0.132843;-0.711638;4.66694;2.09318;0.598591;
-7.30679;1.99514;6.77145;-1.01874;0.132698;-0.712457;4.66976;2.09374;0.598564;
-7.30871;1.99534;6.77263;-1.01879;0.132552;-0.713273;4.67259;2.0943;0.598537;
-7.31063;1.99554;6.77381;-1.01885;0.132406;-0.714088;4.67541;2.09486;0.59851;
-7.31255;1.99574;6.77498;-1.01891;0.13226;-0.7149;4.67823;2.09542;0.598483;
-7.31446;1.99593;6.77616;-1.01897;0.132114;-0.715711;4.68104;2.09598;0.598457;
-7.31637;1.99613;6.77733;-1.01903;0.131967;-0.71652;4.68385;2.09654;0.59843;
-7.31827;1.99633;6.77849;-1.01909;0.13182;-0.717327;4.68665;2.09709;0.598405;
-7.32018;1.99652;6.77966;-1.01914;0.131673;-0.718132;4.68946;2.09765;0.598379;
-7.32207;1.99672;6.78082;-1.0192;0.131526;-0.718935;4.69225;2.0982;0.598353;
-7.32397;1.99691;6.78197;-1.01926;0.131378;-0.719737;4.69505;2.09876;0.598328;
-7.32586;1.99711;6.78313;-1.01932;0.131231;-0.720536;4.69784;2.09931;0.598303;
-7.32774;1.9973;6.78428;-1.01938;0.131083;-0.721334;4.70062;2.09986;0.598278;
-7.32963;1.9975;6.78543;-1.01944;0.130935;-0.722129;4.7034;2.10041;0.598254;
-7.33151;1.99769;6.78657;-1.0195;0.130786;-0.722923;4.70618;2.10096;0.598229;
-7.33338;1.99788;6.78771;-1.01955;0.130638;-0.723715;4.70896;2.10151;0.598205;
-7.33525;1.99808;6.78885;-1.01961;0.130489;-0.724506;4.71173;2.10206;0.598181;
-7.33712;1.99827;6.78999;-1.01967;0.13034;-0.725294;4.71449;2.1026;0.598158;
-7.33899;1.99846;6.79112;-1.01973;0.130191;-0.726081;4.71726;2.10315;0.598134;
-7.34085;1.99865;6.79225;-1.01979;0.130041;-0.726865;4.72001;2.10369;0.598111;
-7.34271;1.99885;6.79338;-1.01985;0.129892;-0.727648;4.72277;2.10423;0.598088;
-7.34456;1.99904;6.7945;-1.01991;0.129742;-0.728429;4.72552;2.10478;0.598065;
-7.34641;1.99923;6.79562;-1.01997;0.129592;-0.729209;4.72827;2.10532;0.598043;
-7.34826;1.99942;6.79674;-1.02003;0.129442;-0.729986;4.73101;2.10586;0.59802;
-7.3501;1.99961;6.79786;-1.02009;0.129291;-0.730762;4.73375;2.1064;0.597998;
-7.35194;1.9998;6.79897;-1.02015;0.129141;-0.731536;4.73649;2.10694;0.597976;
-7.35378;1.99999;6.80008;-1.0202;0.12899;-0.732308;4.73922;2.10747;0.597955;
-7.35562;2.00018;6.80118;-1.02026;0.128839;-0.733078;4.74195;2.10801;0.597933;
-7.35745;2.00037;6.80229;-1.02032;0.128687;-0.733846;4.74467;2.10854;0.597912;
-7.35927;2.00056;6.80339;-1.02038;0.128536;-0.734613;4.74739;2.10908;0.597891;
-7.36109;2.00074;6.80449;-1.02044;0.128384;-0.735378;4.75011;2.10961;0.59787;
-7.36291;2.00093;6.80558;-1.0205;0.128232;-0.736141;4.75282;2.11014;0.59785;
-7.36473;2.00112;6.80667;-1.02056;0.12808;-0.736902;4.75553;2.11068;0.59783;
-7.36654;2.00131;6.80776;-1.02062;0.127928;-0.737662;4.75824;2.11121;0.597809;
-7.36835;2.00149;6.80885;-1.02068;0.127776;-0.738419;4.76094;2.11174;0.59779;
-7.37016;2.00168;6.80993;-1.02074;0.127623;-0.739175;4.76364;2.11226;0.59777;
-7.37196;2.00187;6.81101;-1.0208;0.12747;-0.73993;4.76633;2.11279;0.59775;
-7.37376;2.00205;6.81209;-1.02086;0.127317;-0.740682;4.76903;2.11332;0.597731;
-7.37555;2.00224;6.81316;-1.02092;0.127164;-0.741433;4.77171;2.11384;0.597712;
-7.37735;2.00242;6.81424;-1.02098;0.12701;-0.742182;4.7744;2.11437;0.597693;
-7.37914;2.00261;6.8153;-1.02104;0.126857;-0.742929;4.77708;2.11489;0.597675;
-7.38092;2.00279;6.81637;-1.0211;0.126703;-0.743674;4.77975;2.11541;0.597656;
-7.3827;2.00298;6.81743;-1.02116;0.126549;-0.744418;4.78242;2.11594;0.597638;
-7.38448;2.00316;6.81849;-1.02122;0.126395;-0.74516;4.78509;2.11646;0.59762;
-7.38626;2.00335;6.81955;-1.02128;0.12624;-0.7459;4.78776;2.11698;0.597603;
-7.38803;2.00353;6.82061;-1.02134;0.126086;-0.746639;4.79042;2.1175;0.597585;
-7.3898;2.00371;6.82166;-1.0214;0.125931;-0.747376;4.79308;2.11801;0.597568;
-7.39156;2.00389;6.82271;-1.02146;0.125776;-0.748111;4.79573;2.11853;0.597551;
-7.39333;2.00408;6.82376;-1.02152;0.125621;-0.748844;4.79838;2.11905;0.597534;
-7.39508;2.00426;6.8248;-1.02158;0.125465;-0.749576;4.80103;2.11956;0.597517;
-7.39684;2.00444;6.82584;-1.02164;0.12531;-0.750306;4.80367;2.12008;0.597501;
-7.39859;2.00462;6.82688;-1.0217;0.125154;-0.751034;4.80631;2.12059;0.597484;
-7.40034;2.0048;6.82792;-1.02176;0.124998;-0.75176;4.80895;2.1211;0.597468;
-7.40209;2.00498;6.82895;-1.02182;0.124842;-0.752485;4.81158;2.12161;0.597453;
-7.40383;2.00516;6.82998;-1.02189;0.124686;-0.753208;4.81421;2.12212;0.597437;
-7.40557;2.00534;6.83101;-1.02195;0.124529;-0.75393;4.81683;2.12263;0.597421;
-7.4073;2.00552;6.83203;-1.02201;0.124373;-0.75465;4.81945;2.12314;0.597406;
-7.40904;2.0057;6.83306;-1.02207;0.124216;-0.755368;4.82207;2.12365;0.597391;
-7.41076;2.00588;6.83408;-1.02213;0.124059;-0.756084;4.82468;2.12416;0.597376;
-7.41249;2.00606;6.8351;-1.02219;0.123902;-0.756799;4.8273;2.12466;0.597362;
-7.41421;2.00624;6.83611;-1.02225;0.123744;-0.757512;4.8299;2.12517;0.597347;
-7.41593;2.00642;6.83712;-1.02231;0.123587;-0.758223;4.83251;2.12567;0.597333;
-7.41765;2.00659;6.83813;-1.02237;0.123429;-0.758933;4.83511;2.12617;0.597319;
-7.41936;2.00677;6.83914;-1.02243;0.123271;-0.759641;4.8377;2.12667;0.597306;
-7.42107;2.00695;6.84014;-1.02249;0.123113;-0.760347;4.84029;2.12718;0.597292;
-7.42278;2.00713;6.84114;-1.02255;0.122955;-0.761052;4.84288;2.12768;0.597279;
-7.42448;2.0073;6.84214;-1.02262;0.122796;-0.761755;4.84547;2.12818;0.597265;
-7.42618;2.00748;6.84314;-1.02268;0.122638;-0.762457;4.84805;2.12867;0.597252;
-7.42788;2.00765;6.84413;-1.02274;0.122479;-0.763157;4.85063;2.12917;0.59724;
-7.42958;2.00783;6.84512;-1.0228;0.12232;-0.763855;4.8532;2.12967;0.597227;
-7.43127;2.00801;6.84611;-1.02286;0.122161;-0.764551;4.85577;2.13016;0.597215;
-7.43295;2.00818;6.8471;-1.02292;0.122001;-0.765246;4.85834;2.13066;0.597203;
-7.43464;2.00835;6.84808;-1.02298;0.121842;-0.765939;4.86091;2.13115;0.597191;
-7.43632;2.00853;6.84906;-1.02304;0.121682;-0.766631;4.86347;2.13164;0.597179;
-7.438;2.0087;6.85004;-1.0231;0.121522;-0.767321;4.86602;2.13214;0.597167;
-7.43967;2.00888;6.85102;-1.02317;0.121362;-0.76801;4.86858;2.13263;0.597156;
-7.44135;2.00905;6.85199;-1.02323;0.121202;-0.768696;4.87113;2.13312;0.597145;
-7.44302;2.00922;6.85296;-1.02329;0.121042;-0.769382;4.87367;2.13361;0.597134;
-7.44468;2.0094;6.85393;-1.02335;0.120882;-0.770065;4.87622;2.1341;0.597123;
-7.44635;2.00957;6.8549;-1.02341;0.120721;-0.770747;4.87876;2.13458;0.597112;
-7.44801;2.00974;6.85586;-1.02347;0.12056;-0.771428;4.88129;2.13507;0.597102;
-7.44966;2.00991;6.85682;-1.02353;0.120399;-0.772106;4.88383;2.13556;0.597092;
-7.45132;2.01008;6.85778;-1.0236;0.120238;-0.772784;4.88636;2.13604;0.597082;
-7.45297;2.01025;6.85874;-1.02366;0.120077;-0.773459;4.88888;2.13652;0.597072;
-7.45461;2.01043;6.85969;-1.02372;0.119915;-0.774133;4.8914;2.13701;0.597062;
-7.45626;2.0106;6.86064;-1.02378;0.119753;-0.774806;4.89392;2.13749;0.597053;
-7.4579;2.01077;6.86159;-1.02384;0.119592;-0.775477;4.89644;2.13797;0.597044;
-7.45954;2.01094;6.86254;-1.0239;0.11943;-0.776146;4.89895;2.13845;0.597035;
-7.46118;2.01111;6.86348;-1.02397;0.119268;-0.776814;4.90146;2.13893;0.597026;
-7.46281;2.01127;6.86442;-1.02403;0.119105;-0.77748;4.90396;2.13941;0.597017;
-7.46444;2.01144;6.86536;-1.02409;0.118943;-0.778145;4.90647;2.13989;0.597009;
-7.46606;2.01161;6.8663;-1.02415;0.11878;-0.778808;4.90896;2.14036;0.597001;
-7.46769;2.01178;6.86723;-1.02421;0.118617;-0.779469;4.91146;2.14084;0.596993;
-7.46931;2.01195;6.86817;-1.02428;0.118455;-0.780129;4.91395;2.14132;0.596985;
-7.47093;2.01212;6.8691;-1.02434;0.118291;-0.780788;4.91644;2.14179;0.596977;
-7.47254;2.01228;6.87002;-1.0244;0.118128;-0.781445;4.91892;2.14226;0.596969;
-7.47415;2.01245;6.87095;-1.02446;0.117965;-0.7821;4.9214;2.14274;0.596962;
-7.47576;2.01262;6.87187;-1.02452;0.117801;-0.782754;4.92388;2.14321;0.596955;
-7.47737;2.01278;6.87279;-1.02459;0.117638;-0.783406;4.92636;2.14368;0.596948;
-7.47897;2.01295;6.87371;-1.02465;0.117474;-0.784057;4.92883;2.14415;0.596941;
-7.48057;2.01312;6.87462;-1.02471;0.11731;-0.784706;4.93129;2.14462;0.596935;
-7.48217;2.01328;6.87554;-1.02477;0.117146;-0.785354;4.93376;2.14509;0.596928;
-7.48376;2.01345;6.87645;-1.02483;0.116981;-0.786;4.93622;2.14555;0.596922;
-7.48535;2.01361;6.87736;-1.0249;0.116817;-0.786644;4.93868;2.14602;0.596916;
-7.48694;2.01378;6.87826;-1.02496;0.116652;-0.787288;4.94113;2.14649;0.59691;
-7.48853;2.01394;6.87917;-1.02502;0.116488;-0.787929;4.94358;2.14695;0.596905;
-7.49011;2.01411;6.88007;-1.02508;0.116323;-0.788569;4.94603;2.14742;0.596899;
-7.49169;2.01427;6.88097;-1.02514;0.116158;-0.789208;4.94847;2.14788;0.596894;
-7.49327;2.01443;6.88186;-1.02521;0.115992;-0.789845;4.95092;2.14834;0.596889;
-7.49484;2.0146;6.88276;-1.02527;0.115827;-0.790481;4.95335;2.1488;0.596884;
-7.49641;2.01476;6.88365;-1.02533;0.115662;-0.791115;4.95579;2.14926;0.596879;
-7.49798;2.01492;6.88454;-1.02539;0.115496;-0.791747;4.95822;2.14972;0.596875;
-7.49954;2.01509;6.88543;-1.02546;0.11533;-0.792379;4.96065;2.15018;0.59687;
-7.50111;2.01525;6.88631;-1.02552;0.115164;-0.793008;4.96307;2.15064;0.596866;
-7.50267;2.01541;6.8872;-1.02558;0.114998;-0.793636;4.96549;2.1511;0.596862;
-7.50422;2.01557;6.88808;-1.02564;0.114832;-0.794263;4.96791;2.15155;0.596858;
-7.50578;2.01573;6.88896;-1.0257;0.114666;-0.794888;4.97032;2.15201;0.596854;
-7.50733;2.01589;6.88983;-1.02577;0.114499;-0.795512;4.97273;2.15246;0.596851;
-7.50888;2.01605;6.89071;-1.02583;0.114333;-0.796135;4.97514;2.15292;0.596848;
-7.51042;2.01621;6.89158;-1.02589;0.114166;-0.796755;4.97755;2.15337;0.596845;
-7.51196;2.01637;6.89245;-1.02595;0.113999;-0.797375;4.97995;2.15382;0.596842;
-7.5135;2.01653;6.89332;-1.02602;0.113832;-0.797993;4.98235;2.15428;0.596839;
-7.51504;2.01669;6.89418;-1.02608;0.113665;-0.798609;4.98474;2.15473;0.596836;
-7.51658;2.01685;6.89505;-1.02614;0.113498;-0.799224;4.98713;2.15518;0.596834;
-7.51811;2.01701;6.89591;-1.0262;0.11333;-0.799838;4.98952;2.15562;0.596832;
-7.51964;2.01717;6.89677;-1.02627;0.113163;-0.80045;4.9919;2.15607;0.596829;
-7.52116;2.01733;6.89763;-1.02633;0.112995;-0.801061;4.99429;2.15652;0.596828;
-7.52269;2.01749;6.89848;-1.02639;0.112827;-0.80167;4.99666;2.15697;0.596826;
-7.52421;2.01764;6.89933;-1.02645;0.112659;-0.802278;4.99904;2.15741;0.596824;
-7.52572;2.0178;6.90018;-1.02652;0.112491;-0.802884;5.00141;2.15786;0.596823;
-7.52724;2.01796;6.90103;-1.02658;0.112323;-0.803489;5.00378;2.1583;0.596822;
-7.52875;2.01812;6.90188;-1.02664;0.112154;-0.804093;5.00615;2.15875;0.596821;
-7.53026;2.01827;6.90272;-1.02671;0.111986;-0.804695;5.00851;2.15919;0.59682;
-7.53177;2.01843;6.90356;-1.02677;0.111817;-0.805296;5.01087;2.15963;0.596819;
-7.53327;2.01859;6.9044;-1.02683;0.111649;-0.805895;5.01322;2.16007;0.596819;
-7.53477;2.01874;6.90524;-1.02689;0.11148;-0.806493;5.01558;2.16051;0.596818;
-7.53627;2.0189;6.90608;-1.02696;0.111311;-0.80709;5.01793;2.16095;0.596818;
-7.53777;2.01905;6.90691;-1.02702;0.111142;-0.807685;5.02027;2.16139;0.596818;
-7.53926;2.01921;6.90774;-1.02708;0.110972;-0.808279;5.02262;2.16183;0.596818;
-7.54075;2.01936;6.90857;-1.02714;0.110803;-0.808871;5.02495;2.16226;0.596818;
