0.0904681;0.536883;-0.159699;0.468702;0.630084;0.00946641;0.0818793;-0.129014;-0.250794;
-0.320021;0.477201;-0.353325;0.239537;0.553187;-0.0218916;-0.0644733;-0.19353;-0.392631;
-0.409185;0.489501;-0.348232;0.196028;0.539;-0.0175347;-0.0806445;-0.194941;-0.399978;
-0.4531;0.511652;-0.315666;0.178685;0.533761;-0.00828227;-0.0785298;-0.187584;-0.388706;
-0.488765;0.535216;-0.278484;0.166085;0.530152;0.00172462;-0.0731425;-0.178713;-0.374308;
-0.522611;0.558728;-0.240656;0.154502;0.526898;0.0117668;-0.0670922;-0.169587;-0.359473;
-0.555883;0.58191;-0.202945;0.143218;0.523753;0.0217059;-0.0608833;-0.160451;-0.344717;
-0.588827;0.604714;-0.1655;0.13209;0.520667;0.0315153;-0.0546155;-0.151351;-0.330139;
-0.621492;0.627133;-0.128349;0.121088;0.517629;0.0411907;-0.048309;-0.142297;-0.315757;
-0.653892;0.649172;-0.0914934;0.110208;0.514638;0.0507316;-0.0419684;-0.133291;-0.301571;
-0.68603;0.670838;-0.054933;0.0994452;0.511691;0.060139;-0.0355952;-0.124334;-0.28758;
-0.717909;0.692135;-0.0186654;0.0888;0.508789;0.0694135;-0.0291901;-0.115425;-0.27378;
-0.749533;0.713071;0.0173123;0.0782709;0.50593;0.0785562;-0.0227538;-0.106564;-0.260169;
-0.780902;0.73365;0.0530024;0.0678568;0.503114;0.087568;-0.016287;-0.0977523;-0.246744;
-0.81202;0.75388;0.0884077;0.0575566;0.500339;0.0964499;-0.00979042;-0.0889883;-0.233501;
-0.84289;0.773766;0.123531;0.0473693;0.497605;0.105203;-0.00326464;-0.0802725;-0.220438;
-0.873512;0.793314;0.158374;0.0372937;0.494912;0.113828;0.00328967;-0.0716047;-0.207553;
-0.903891;0.81253;0.19294;0.0273289;0.492259;0.122326;0.00987187;-0.0629848;-0.194842;
-0.934029;0.831419;0.227232;0.0174736;0.489644;0.130699;0.0164813;-0.0544127;-0.182302;
-0.963927;0.849987;0.261252;0.00772679;0.487068;0.138946;0.0231173;-0.0458883;-0.169932;
-0.993589;0.86824;0.295003;-0.00191258;0.484529;0.14707;0.0297793;-0.0374114;-0.157727;
-1.02302;0.886183;0.328488;-0.0114456;0.482027;0.155071;0.0364666;-0.0289818;-0.145686;
-1.05221;0.903822;0.361708;-0.0208735;0.479561;0.162951;0.0431787;-0.0205994;-0.133806;
-1.08118;0.921161;0.394666;-0.0301971;0.477131;0.17071;0.0499148;-0.012264;-0.122085;
-1.10992;0.938207;0.427366;-0.0394178;0.474736;0.178349;0.0566744;-0.00397546;-0.110519;
-1.13843;0.954965;0.459809;-0.0485365;0.472376;0.18587;0.0634569;0.00426645;-0.0991072;
-1.16673;0.971439;0.491998;-0.0575543;0.470049;0.193274;0.0702617;0.0124619;-0.0878461;
-1.1948;0.987634;0.523936;-0.0664724;0.467755;0.200562;0.0770882;0.0206111;-0.0767334;
-1.22266;1.00356;0.555624;-0.0752917;0.465494;0.207734;0.0839358;0.0287142;-0.0657669;
-1.2503;1.01921;0.587066;-0.0840134;0.463265;0.214793;0.090804;0.0367715;-0.0549442;
-1.27773;1.0346;0.618265;-0.0926385;0.461067;0.221738;0.0976921;0.0447832;-0.0442631;
-1.30494;1.04973;0.649221;-0.101168;0.4589;0.228572;0.1046;0.0527495;-0.0337211;
-1.33195;1.06461;0.679938;-0.109603;0.456764;0.235296;0.111526;0.0606707;-0.0233162;
-1.35876;1.07923;0.710419;-0.117945;0.454657;0.241909;0.118471;0.0685469;-0.0130461;
-1.38535;1.09361;0.740665;-0.126195;0.452579;0.248415;0.125433;0.0763784;-0.00290861;
-1.41175;1.10775;0.770679;-0.134353;0.45053;0.254813;0.132413;0.0841654;0.00709835;
-1.43795;1.12166;0.800463;-0.142421;0.44851;0.261104;0.139409;0.0919082;0.0169769;
-1.46395;1.13533;0.830019;-0.1504;0.446517;0.267291;0.146422;0.0996071;0.0267291;
-1.48976;1.14877;0.859351;-0.15829;0.444551;0.273373;0.15345;0.107262;0.0363569;
-1.51537;1.16199;0.88846;-0.166093;0.442612;0.279353;0.160493;0.114874;0.0458624;
-1.5408;1.17499;0.917347;-0.17381;0.440699;0.28523;0.167552;0.122442;0.0552475;
-1.56603;1.18778;0.946017;-0.181442;0.438813;0.291007;0.174624;0.129968;0.0645141;
-1.59108;1.20035;0.97447;-0.18899;0.436951;0.296684;0.18171;0.137451;0.0736642;
-1.61594;1.21271;1.00271;-0.196454;0.435114;0.302263;0.188809;0.144891;0.0826995;
-1.64063;1.22487;1.03074;-0.203836;0.433302;0.307743;0.195921;0.152289;0.091622;
-1.66513;1.23683;1.05855;-0.211137;0.431514;0.313128;0.203046;0.159646;0.100433;
-1.68945;1.2486;1.08616;-0.218357;0.42975;0.318417;0.210182;0.166961;0.109135;
-1.7136;1.26017;1.11357;-0.225498;0.428009;0.323611;0.21733;0.174234;0.11773;
-1.73757;1.27154;1.14077;-0.23256;0.426291;0.328713;0.224489;0.181466;0.126218;
-1.76137;1.28274;1.16777;-0.239545;0.424595;0.333721;0.231658;0.188658;0.134603;
-1.785;1.29375;1.19457;-0.246453;0.422921;0.338639;0.238838;0.195809;0.142884;
-1.80845;1.30458;1.22117;-0.253285;0.421269;0.343466;0.246027;0.202919;0.151065;
-1.83175;1.31523;1.24758;-0.260042;0.419638;0.348205;0.253225;0.20999;0.159147;
-1.85487;1.32571;1.27379;-0.266725;0.418028;0.352854;0.260433;0.217021;0.16713;
-1.87784;1.33603;1.29981;-0.273336;0.416439;0.357417;0.267649;0.224012;0.175018;
-1.90064;1.34617;1.32564;-0.279873;0.41487;0.361893;0.274874;0.230964;0.18281;
-1.92328;1.35615;1.35129;-0.28634;0.41332;0.366285;0.282106;0.237878;0.190509;
-1.94577;1.36597;1.37675;-0.292736;0.411791;0.370592;0.289345;0.244752;0.198117;
-1.9681;1.37563;1.40202;-0.299062;0.410281;0.374815;0.296592;0.251589;0.205634;
-1.99027;1.38514;1.42711;-0.305319;0.408789;0.378957;0.303845;0.258387;0.213062;
-2.01229;1.39449;1.45203;-0.311508;0.407316;0.383017;0.311105;0.265147;0.220402;
-2.03416;1.4037;1.47676;-0.317629;0.405862;0.386996;0.318371;0.27187;0.227656;
-2.05588;1.41276;1.50131;-0.323684;0.404425;0.390896;0.325642;0.278555;0.234825;
-2.07745;1.42167;1.52569;-0.329674;0.403006;0.394718;0.332919;0.285204;0.241911;
-2.09888;1.43044;1.5499;-0.335598;0.401605;0.398461;0.340201;0.291816;0.248914;
-2.12016;1.43907;1.57394;-0.341458;0.40022;0.402128;0.347488;0.298391;0.255836;
-2.14129;1.44757;1.5978;-0.347255;0.398853;0.40572;0.354779;0.30493;0.262678;
-2.16229;1.45593;1.6215;-0.352989;0.397502;0.409236;0.362074;0.311433;0.269441;
-2.18314;1.46416;1.64503;-0.358662;0.396167;0.412678;0.369373;0.3179;0.276127;
-2.20386;1.47226;1.6684;-0.364273;0.394849;0.416048;0.376676;0.324332;0.282736;
-2.22444;1.48024;1.6916;-0.369823;0.393546;0.419344;0.383982;0.330729;0.289271;
-2.24488;1.48809;1.71464;-0.375314;0.392258;0.42257;0.39129;0.337091;0.295731;
-2.26519;1.49582;1.73751;-0.380745;0.390986;0.425725;0.398602;0.343418;0.302119;
-2.28536;1.50342;1.76023;-0.386119;0.389729;0.42881;0.405916;0.34971;0.308434;
-2.30541;1.51091;1.7828;-0.391434;0.388487;0.431826;0.413232;0.355969;0.314679;
-2.32532;1.51828;1.8052;-0.396693;0.38726;0.434774;0.42055;0.362194;0.320854;
-2.3451;1.52554;1.82746;-0.401895;0.386046;0.437655;0.427869;0.368385;0.326961;
-2.36476;1.53269;1.84956;-0.407041;0.384847;0.440469;0.43519;0.374542;0.333;
-2.38429;1.53973;1.8715;-0.412133;0.383662;0.443218;0.442512;0.380667;0.338972;
-2.40369;1.54665;1.8933;-0.41717;0.38249;0.445902;0.449835;0.386758;0.344878;
-2.42298;1.55348;1.91495;-0.422153;0.381332;0.448522;0.457159;0.392817;0.35072;
-2.44213;1.5602;1.93645;-0.427083;0.380188;0.451079;0.464483;0.398844;0.356498;
-2.46117;1.56681;1.95781;-0.431961;0.379056;0.453573;0.471807;0.404838;0.362213;
-2.48009;1.57333;1.97902;-0.436787;0.377937;0.456005;0.479131;0.410801;0.367866;
-2.49889;1.57974;2.00009;-0.441561;0.376831;0.458376;0.486456;0.416731;0.373458;
-2.51757;1.58606;2.02102;-0.446285;0.375737;0.460687;0.493779;0.422631;0.37899;
-2.53614;1.59229;2.0418;-0.450959;0.374656;0.462939;0.501102;0.428499;0.384462;
-2.55459;1.59842;2.06245;-0.455583;0.373586;0.465131;0.508424;0.434336;0.389876;
-2.57292;1.60445;2.08296;-0.460158;0.372529;0.467266;0.515746;0.440142;0.395233;
-2.59114;1.6104;2.10333;-0.464685;0.371483;0.469343;0.523066;0.445918;0.400532;
-2.60926;1.61626;2.12357;-0.469164;0.370449;0.471363;0.530384;0.451664;0.405776;
-2.62726;1.62203;2.14367;-0.473596;0.369427;0.473328;0.537701;0.45738;0.410964;
-2.64515;1.62772;2.16364;-0.477981;0.368416;0.475237;0.545016;0.463065;0.416098;
-2.66293;1.63332;2.18348;-0.48232;0.367415;0.477091;0.552329;0.468722;0.421179;
-2.68061;1.63884;2.20319;-0.486614;0.366426;0.478892;0.55964;0.474348;0.426206;
-2.69817;1.64427;2.22277;-0.490862;0.365448;0.480639;0.566949;0.479946;0.431181;
-2.71564;1.64963;2.24222;-0.495065;0.36448;0.482334;0.574255;0.485515;0.436105;
-2.733;1.65491;2.26154;-0.499225;0.363523;0.483977;0.581559;0.491055;0.440978;
-2.75025;1.66011;2.28074;-0.503341;0.362576;0.485568;0.58886;0.496566;0.445801;
-2.76741;1.66523;2.29981;-0.507414;0.361639;0.487109;0.596158;0.502049;0.450575;
-2.78446;1.67028;2.31876;-0.511444;0.360712;0.488599;0.603453;0.507504;0.4553;
-2.80141;1.67526;2.33759;-0.515432;0.359795;0.49004;0.610744;0.512932;0.459977;
-2.81827;1.68016;2.35629;-0.519379;0.358888;0.491432;0.618032;0.518331;0.464606;
-2.83502;1.685;2.37488;-0.523284;0.357991;0.492776;0.625317;0.523703;0.469189;
-2.85168;1.68976;2.39334;-0.527149;0.357103;0.494073;0.632598;0.529048;0.473726;
-2.86824;1.69445;2.41169;-0.530973;0.356224;0.495322;0.639875;0.534366;0.478217;
-2.8847;1.69908;2.42992;-0.534758;0.355355;0.496525;0.647148;0.539657;0.482664;
-2.90107;1.70364;2.44803;-0.538503;0.354495;0.497681;0.654417;0.544921;0.487066;
-2.91735;1.70814;2.46603;-0.54221;0.353644;0.498793;0.661682;0.550159;0.491424;
-2.93353;1.71257;2.48392;-0.545878;0.352801;0.49986;0.668943;0.555371;0.49574;
-2.94962;1.71694;2.50169;-0.549508;0.351968;0.500882;0.676199;0.560557;0.500013;
-2.96562;1.72125;2.51935;-0.5531;0.351143;0.501861;0.68345;0.565716;0.504244;
-2.98153;1.72549;2.5369;-0.556656;0.350327;0.502797;0.690697;0.57085;0.508433;
-2.99735;1.72968;2.55434;-0.560174;0.349519;0.50369;0.697939;0.575959;0.512582;
-3.01308;1.73381;2.57166;-0.563657;0.348719;0.504542;0.705176;0.581042;0.51669;
-3.02873;1.73788;2.58889;-0.567103;0.347928;0.505351;0.712408;0.586101;0.520759;
-3.04428;1.74189;2.606;-0.570514;0.347145;0.50612;0.719635;0.591134;0.524788;
-3.05975;1.74585;2.623;-0.57389;0.34637;0.506849;0.726857;0.596142;0.528779;
-3.07514;1.74975;2.63991;-0.577231;0.345602;0.507537;0.734074;0.601127;0.532731;
-3.09044;1.7536;2.6567;-0.580538;0.344843;0.508186;0.741284;0.606086;0.536646;
-3.10565;1.75739;2.67339;-0.583811;0.344091;0.508796;0.74849;0.611022;0.540523;
-3.12078;1.76113;2.68998;-0.58705;0.343347;0.509367;0.75569;0.615933;0.544364;
-3.13583;1.76483;2.70647;-0.590256;0.342611;0.509901;0.762884;0.620821;0.548168;
-3.1508;1.76847;2.72286;-0.593429;0.341882;0.510396;0.770072;0.625685;0.551936;
-3.16569;1.77206;2.73914;-0.59657;0.34116;0.510855;0.777254;0.630525;0.555669;
-3.18049;1.7756;2.75533;-0.599678;0.340445;0.511278;0.78443;0.635343;0.559366;
-3.19522;1.77909;2.77142;-0.602755;0.339738;0.511664;0.791601;0.640137;0.56303;
-3.20986;1.78254;2.78741;-0.605801;0.339038;0.512014;0.798765;0.644908;0.566659;
-3.22443;1.78594;2.8033;-0.608815;0.338344;0.51233;0.805923;0.649656;0.570254;
-3.23893;1.78929;2.81909;-0.611799;0.337658;0.512611;0.813074;0.654382;0.573816;
-3.25334;1.7926;2.8348;-0.614752;0.336978;0.512857;0.820219;0.659085;0.577346;
-3.26768;1.79586;2.8504;-0.617676;0.336306;0.513069;0.827358;0.663765;0.580842;
-3.28194;1.79908;2.86591;-0.620569;0.335639;0.513248;0.83449;0.668424;0.584307;
-3.29613;1.80226;2.88133;-0.623433;0.33498;0.513394;0.841615;0.673061;0.58774;
-3.31024;1.80539;2.89666;-0.626268;0.334327;0.513508;0.848734;0.677676;0.591142;
-3.32428;1.80849;2.91189;-0.629075;0.33368;0.513589;0.855846;0.682269;0.594513;
-3.33825;1.81154;2.92704;-0.631853;0.33304;0.513639;0.862951;0.68684;0.597854;
-3.35214;1.81455;2.94209;-0.634603;0.332406;0.513657;0.87005;0.691391;0.601164;
-3.36596;1.81752;2.95706;-0.637324;0.331779;0.513644;0.877141;0.69592;0.604444;
-3.37971;1.82046;2.97193;-0.640019;0.331157;0.5136;0.884225;0.700428;0.607695;
-3.3934;1.82335;2.98672;-0.642686;0.330542;0.513527;0.891303;0.704915;0.610917;
-3.40701;1.82621;3.00142;-0.645326;0.329932;0.513424;0.898373;0.709381;0.61411;
-3.42055;1.82903;3.01604;-0.64794;0.329329;0.513291;0.905435;0.713826;0.617275;
-3.43402;1.83181;3.03056;-0.650527;0.328731;0.513129;0.912491;0.718252;0.620412;
-3.44742;1.83456;3.04501;-0.653089;0.32814;0.512939;0.919539;0.722656;0.623521;
-3.46076;1.83727;3.05937;-0.655624;0.327554;0.51272;0.92658;0.727041;0.626603;
-3.47403;1.83995;3.07364;-0.658134;0.326973;0.512474;0.933614;0.731406;0.629657;
-3.48723;1.8426;3.08783;-0.660619;0.326399;0.5122;0.94064;0.73575;0.632685;
-3.50036;1.84521;3.10194;-0.663079;0.32583;0.511898;0.947659;0.740075;0.635686;
-3.51343;1.84778;3.11597;-0.665514;0.325266;0.51157;0.95467;0.744381;0.638661;
-3.52644;1.85032;3.12991;-0.667924;0.324708;0.511216;0.961673;0.748666;0.641611;
-3.53938;1.85284;3.14378;-0.670311;0.324155;0.510835;0.968669;0.752933;0.644534;
-3.55226;1.85532;3.15756;-0.672673;0.323608;0.510429;0.975657;0.75718;0.647433;
-3.56507;1.85776;3.17127;-0.675012;0.323066;0.509997;0.982637;0.761408;0.650306;
-3.57782;1.86018;3.18489;-0.677328;0.322529;0.50954;0.989609;0.765618;0.653155;
-3.59051;1.86257;3.19844;-0.67962;0.321997;0.509058;0.996574;0.769808;0.65598;
-3.60313;1.86493;3.21191;-0.68189;0.321471;0.508551;1.00353;0.77398;0.65878;
-3.6157;1.86726;3.22531;-0.684136;0.320949;0.508021;1.01048;0.778133;0.661556;
-3.6282;1.86956;3.23863;-0.686361;0.320433;0.507467;1.01742;0.782267;0.664309;
-3.64064;1.87183;3.25187;-0.688563;0.319922;0.506889;1.02435;0.786384;0.667039;
-3.65302;1.87407;3.26503;-0.690743;0.319415;0.506288;1.03128;0.790482;0.669745;
-3.66534;1.87629;3.27813;-0.692902;0.318913;0.505664;1.0382;0.794562;0.672429;
-3.67761;1.87847;3.29114;-0.695039;0.318416;0.505018;1.0451;0.798624;0.67509;
-3.68981;1.88064;3.30409;-0.697155;0.317924;0.504349;1.052;0.802669;0.677729;
-3.70196;1.88277;3.31696;-0.699249;0.317437;0.503658;1.0589;0.806695;0.680346;
-3.71405;1.88488;3.32976;-0.701323;0.316954;0.502946;1.06578;0.810705;0.682941;
-3.72608;1.88697;3.34249;-0.703377;0.316476;0.502212;1.07266;0.814696;0.685514;
-3.73805;1.88902;3.35514;-0.70541;0.316002;0.501457;1.07952;0.818671;0.688066;
-3.74997;1.89106;3.36773;-0.707423;0.315533;0.500681;1.08638;0.822628;0.690597;
-3.76183;1.89307;3.38025;-0.709415;0.315069;0.499885;1.09324;0.826568;0.693107;
-3.77364;1.89505;3.39269;-0.711388;0.314609;0.499068;1.10008;0.830491;0.695597;
-3.78539;1.89702;3.40507;-0.713342;0.314153;0.498231;1.10691;0.834397;0.698066;
-3.79709;1.89896;3.41738;-0.715276;0.313702;0.497375;1.11374;0.838286;0.700514;
-3.80873;1.90087;3.42961;-0.717191;0.313255;0.496499;1.12056;0.842159;0.702943;
-3.82032;1.90277;3.44179;-0.719088;0.312812;0.495604;1.12737;0.846016;0.705352;
-3.83185;1.90464;3.45389;-0.720965;0.312374;0.49469;1.13417;0.849855;0.707742;
-3.84333;1.90649;3.46593;-0.722824;0.31194;0.493757;1.14096;0.853679;0.710112;
-3.85476;1.90832;3.4779;-0.724665;0.31151;0.492806;1.14774;0.857486;0.712463;
-3.86614;1.91012;3.48981;-0.726487;0.311084;0.491837;1.15452;0.861277;0.714794;
-3.87746;1.91191;3.50165;-0.728291;0.310662;0.49085;1.16128;0.865052;0.717108;
-3.88873;1.91367;3.51343;-0.730078;0.310244;0.489845;1.16804;0.868812;0.719402;
-3.89995;1.91542;3.52514;-0.731847;0.30983;0.488823;1.17479;0.872555;0.721679;
-3.91112;1.91714;3.53679;-0.733599;0.30942;0.487783;1.18153;0.876283;0.723937;
-3.92224;1.91885;3.54837;-0.735333;0.309014;0.486727;1.18826;0.879995;0.726177;
-3.93331;1.92053;3.55989;-0.737051;0.308612;0.485653;1.19499;0.883692;0.728399;
-3.94433;1.9222;3.57135;-0.738751;0.308214;0.484564;1.2017;0.887374;0.730604;
-3.9553;1.92385;3.58275;-0.740435;0.307819;0.483458;1.20841;0.89104;0.732791;
-3.96622;1.92548;3.59409;-0.742102;0.307429;0.482336;1.21511;0.894691;0.734961;
-3.97709;1.92709;3.60536;-0.743753;0.307042;0.481198;1.22179;0.898327;0.737114;
-3.98792;1.92868;3.61658;-0.745388;0.306659;0.480045;1.22847;0.901947;0.73925;
-3.99869;1.93026;3.62773;-0.747007;0.306279;0.478876;1.23515;0.905553;0.741369;
-4.00942;1.93181;3.63883;-0.74861;0.305903;0.477692;1.24181;0.909145;0.743472;
-4.0201;1.93335;3.64986;-0.750197;0.305531;0.476493;1.24846;0.912721;0.745558;
-4.03073;1.93488;3.66084;-0.751768;0.305163;0.47528;1.25511;0.916283;0.747628;
-4.04132;1.93638;3.67176;-0.753325;0.304797;0.474052;1.26174;0.91983;0.749682;
-4.05186;1.93787;3.68262;-0.754866;0.304436;0.47281;1.26837;0.923363;0.75172;
-4.06235;1.93935;3.69342;-0.756392;0.304078;0.471553;1.27499;0.926882;0.753743;
-4.0728;1.94081;3.70416;-0.757903;0.303723;0.470283;1.2816;0.930387;0.755749;
-4.08321;1.94225;3.71485;-0.759399;0.303372;0.468999;1.2882;0.933877;0.757741;
-4.09356;1.94368;3.72548;-0.760881;0.303024;0.467702;1.29479;0.937353;0.759717;
-4.10388;1.94509;3.73606;-0.762348;0.30268;0.466391;1.30137;0.940815;0.761677;
-4.11414;1.94648;3.74658;-0.763801;0.302339;0.465067;1.30795;0.944264;0.763623;
-4.12437;1.94786;3.75704;-0.765239;0.302001;0.46373;1.31451;0.947698;0.765554;
-4.13455;1.94923;3.76745;-0.766664;0.301666;0.462381;1.32107;0.951119;0.767471;
-4.14469;1.95058;3.77781;-0.768075;0.301335;0.461019;1.32762;0.954526;0.769372;
-4.15478;1.95192;3.78811;-0.769472;0.301007;0.459644;1.33416;0.95792;0.77126;
-4.16483;1.95324;3.79836;-0.770856;0.300682;0.458258;1.34069;0.9613;0.773133;
-4.17484;1.95455;3.80855;-0.772226;0.300361;0.456859;1.34721;0.964667;0.774992;
-4.1848;1.95585;3.81869;-0.773582;0.300042;0.455449;1.35372;0.968021;0.776837;
-4.19473;1.95713;3.82878;-0.774926;0.299726;0.454027;1.36022;0.971362;0.778668;
-4.20461;1.9584;3.83882;-0.776257;0.299414;0.452594;1.36671;0.974689;0.780485;
-4.21445;1.95966;3.8488;-0.777574;0.299105;0.451149;1.3732;0.978003;0.782289;
-4.22425;1.9609;3.85873;-0.778879;0.298798;0.449694;1.37968;0.981304;0.784079;
-4.234;1.96213;3.86861;-0.780171;0.298495;0.448227;1.38614;0.984593;0.785856;
-4.24372;1.96335;3.87844;-0.781451;0.298195;0.44675;1.3926;0.987869;0.78762;
-4.2534;1.96455;3.88822;-0.782718;0.297897;0.445262;1.39905;0.991131;0.789371;
-4.26303;1.96575;3.89795;-0.783973;0.297603;0.443763;1.40549;0.994382;0.791108;
-4.27263;1.96693;3.90763;-0.785215;0.297311;0.442254;1.41192;0.997619;0.792833;
-4.28218;1.9681;3.91726;-0.786446;0.297023;0.440736;1.41834;1.00084;0.794545;
-4.2917;1.96926;3.92684;-0.787665;0.296737;0.439207;1.42476;1.00406;0.796245;
-4.30118;1.9704;3.93638;-0.788872;0.296454;0.437668;1.43116;1.00726;0.797932;
-4.31061;1.97154;3.94586;-0.790067;0.296174;0.43612;1.43756;1.01045;0.799606;
-4.32001;1.97266;3.9553;-0.791251;0.295896;0.434562;1.44394;1.01362;0.801268;
-4.32938;1.97377;3.96468;-0.792424;0.295622;0.432995;1.45032;1.01679;0.802919;
-4.3387;1.97488;3.97402;-0.793585;0.29535;0.431419;1.45669;1.01994;0.804557;
-4.34798;1.97597;3.98332;-0.794734;0.29508;0.429833;1.46305;1.02308;0.806183;
-4.35723;1.97705;3.99256;-0.795873;0.294814;0.428239;1.4694;1.02621;0.807797;
-4.36644;1.97812;4.00176;-0.797001;0.29455;0.426636;1.47574;1.02932;0.8094;
-4.37561;1.97918;4.01091;-0.798118;0.294289;0.425025;1.48207;1.03243;0.810991;
-4.38475;1.98023;4.02002;-0.799224;0.29403;0.423405;1.48839;1.03552;0.812571;
-4.39385;1.98127;4.02908;-0.800319;0.293774;0.421776;1.49471;1.0386;0.814139;
-4.40291;1.9823;4.0381;-0.801404;0.29352;0.42014;1.50101;1.04167;0.815696;
-4.41193;1.98332;4.04707;-0.802478;0.293269;0.418495;1.50731;1.04473;0.817242;
-4.42092;1.98433;4.05599;-0.803542;0.293021;0.416842;1.5136;1.04777;0.818776;
-4.42988;1.98533;4.06488;-0.804596;0.292775;0.415182;1.51988;1.05081;0.8203;
-4.4388;1.98632;4.07371;-0.80564;0.292532;0.413514;1.52614;1.05383;0.821813;
-4.44768;1.9873;4.08251;-0.806673;0.292291;0.411839;1.5324;1.05684;0.823315;
-4.45653;1.98827;4.09126;-0.807697;0.292052;0.410156;1.53866;1.05985;0.824806;
-4.46534;1.98924;4.09996;-0.808711;0.291816;0.408465;1.5449;1.06284;0.826287;
-4.47412;1.99019;4.10863;-0.809715;0.291582;0.406768;1.55113;1.06582;0.827757;
-4.48286;1.99114;4.11725;-0.81071;0.291351;0.405064;1.55736;1.06878;0.829217;
-4.49157;1.99208;4.12582;-0.811694;0.291122;0.403353;1.56357;1.07174;0.830666;
-4.50024;1.99301;4.13436;-0.81267;0.290895;0.401635;1.56978;1.07469;0.832105;
-4.50888;1.99393;4.14285;-0.813636;0.290671;0.39991;1.57598;1.07762;0.833535;
-4.51749;1.99484;4.15131;-0.814593;0.290449;0.398179;1.58216;1.08055;0.834954;
-4.52606;1.99574;4.15972;-0.81554;0.290229;0.396441;1.58834;1.08346;0.836363;
-4.5346;1.99664;4.16809;-0.816479;0.290012;0.394697;1.59451;1.08637;0.837762;
-4.54311;1.99753;4.17641;-0.817409;0.289796;0.392947;1.60068;1.08926;0.839151;
-4.55159;1.99841;4.1847;-0.818329;0.289583;0.391191;1.60683;1.09214;0.840531;
-4.56003;1.99928;4.19295;-0.819241;0.289373;0.389429;1.61297;1.09502;0.841901;
-4.56844;2.00015;4.20116;-0.820144;0.289164;0.387661;1.61911;1.09788;0.843262;
-4.57681;2.00101;4.20933;-0.821039;0.288957;0.385887;1.62523;1.10073;0.844613;
-4.58516;2.00186;4.21745;-0.821925;0.288753;0.384108;1.63135;1.10357;0.845954;
-4.59347;2.0027;4.22554;-0.822802;0.288551;0.382323;1.63746;1.1064;0.847287;
-4.60175;2.00354;4.23359;-0.823671;0.288351;0.380533;1.64356;1.10922;0.84861;
-4.61;2.00436;4.2416;-0.824532;0.288153;0.378737;1.64965;1.11203;0.849924;
-4.61821;2.00519;4.24957;-0.825385;0.287957;0.376936;1.65573;1.11484;0.851229;
-4.6264;2.006;4.25751;-0.826229;0.287763;0.375131;1.6618;1.11763;0.852525;
-4.63456;2.00681;4.2654;-0.827065;0.287571;0.37332;1.66786;1.12041;0.853812;
-4.64268;2.00761;4.27326;-0.827894;0.287382;0.371504;1.67392;1.12318;0.85509;
-4.65077;2.0084;4.28108;-0.828714;0.287194;0.369683;1.67996;1.12594;0.85636;
-4.65884;2.00919;4.28886;-0.829527;0.287008;0.367858;1.686;1.12869;0.857621;
-4.66687;2.00997;4.29661;-0.830332;0.286824;0.366028;1.69203;1.13143;0.858873;
-4.67487;2.01075;4.30432;-0.831129;0.286642;0.364194;1.69805;1.13417;0.860117;
-4.68285;2.01152;4.31199;-0.831919;0.286462;0.362355;1.70406;1.13689;0.861352;
-4.69079;2.01228;4.31963;-0.832701;0.286284;0.360512;1.71006;1.1396;0.862579;
-4.6987;2.01303;4.32722;-0.833475;0.286108;0.358665;1.71605;1.14231;0.863797;
-4.70659;2.01378;4.33479;-0.834243;0.285934;0.356813;1.72203;1.145;0.865007;
-4.71444;2.01453;4.34231;-0.835003;0.285762;0.354958;1.72801;1.14769;0.866209;
-4.72227;2.01527;4.34981;-0.835755;0.285591;0.353098;1.73397;1.15036;0.867403;
-4.73006;2.016;4.35726;-0.836501;0.285423;0.351235;1.73993;1.15303;0.868589;
-4.73783;2.01672;4.36468;-0.837239;0.285256;0.349368;1.74588;1.15569;0.869767;
-4.74557;2.01745;4.37207;-0.837971;0.285091;0.347497;1.75182;1.15833;0.870937;
-4.75328;2.01816;4.37942;-0.838696;0.284927;0.345623;1.75775;1.16097;0.872099;
-4.76096;2.01887;4.38674;-0.839413;0.284766;0.343745;1.76367;1.1636;0.873254;
-4.76862;2.01957;4.39402;-0.840124;0.284606;0.341864;1.76958;1.16622;0.8744;
-4.77624;2.02027;4.40127;-0.840828;0.284448;0.339979;1.77549;1.16883;0.875539;
-4.78384;2.02097;4.40848;-0.841526;0.284292;0.338091;1.78138;1.17144;0.87667;
-4.79141;2.02165;4.41566;-0.842216;0.284138;0.3362;1.78727;1.17403;0.877794;
-4.79895;2.02234;4.42281;-0.842901;0.283985;0.334306;1.79315;1.17662;0.878911;
-4.80647;2.02301;4.42993;-0.843579;0.283834;0.332408;1.79902;1.17919;0.880019;
-4.81396;2.02369;4.43701;-0.84425;0.283684;0.330508;1.80488;1.18176;0.881121;
-4.82142;2.02435;4.44405;-0.844915;0.283536;0.328605;1.81073;1.18432;0.882215;
-4.82885;2.02502;4.45107;-0.845574;0.28339;0.326699;1.81657;1.18687;0.883302;
-4.83626;2.02567;4.45805;-0.846226;0.283246;0.324791;1.8224;1.18941;0.884382;
-4.84364;2.02633;4.465;-0.846873;0.283103;0.322879;1.82823;1.19194;0.885455;
-4.851;2.02697;4.47192;-0.847513;0.282962;0.320966;1.83405;1.19447;0.88652;
-4.85832;2.02762;4.47881;-0.848147;0.282822;0.319049;1.83985;1.19698;0.887579;
-4.86563;2.02826;4.48566;-0.848775;0.282684;0.31713;1.84565;1.19949;0.888631;
-4.8729;2.02889;4.49249;-0.849397;0.282547;0.315209;1.85144;1.20199;0.889675;
-4.88015;2.02952;4.49928;-0.850014;0.282412;0.313286;1.85722;1.20448;0.890713;
-4.88738;2.03015;4.50604;-0.850624;0.282279;0.31136;1.863;1.20696;0.891745;
-4.89457;2.03077;4.51277;-0.851229;0.282146;0.309433;1.86876;1.20943;0.892769;
-4.90175;2.03138;4.51947;-0.851828;0.282016;0.307503;1.87452;1.2119;0.893787;
-4.90889;2.03199;4.52614;-0.852422;0.281887;0.305571;1.88026;1.21436;0.894798;
-4.91602;2.0326;4.53278;-0.85301;0.281759;0.303637;1.886;1.21681;0.895802;
-4.92311;2.03321;4.53938;-0.853592;0.281633;0.301702;1.89173;1.21925;0.8968;
-4.93019;2.0338;4.54596;-0.854169;0.281509;0.299764;1.89745;1.22168;0.897792;
-4.93723;2.0344;4.55251;-0.85474;0.281385;0.297825;1.90317;1.22411;0.898777;
-4.94426;2.03499;4.55903;-0.855306;0.281264;0.295884;1.90887;1.22652;0.899755;
-4.95125;2.03558;4.56552;-0.855867;0.281143;0.293942;1.91457;1.22893;0.900728;
-4.95823;2.03616;4.57198;-0.856422;0.281024;0.291997;1.92025;1.23133;0.901694;
-4.96518;2.03674;4.57841;-0.856973;0.280907;0.290052;1.92593;1.23373;0.902654;
-4.9721;2.03732;4.58481;-0.857518;0.28079;0.288105;1.9316;1.23611;0.903607;
-4.979;2.03789;4.59118;-0.858058;0.280675;0.286157;1.93726;1.23849;0.904555;
-4.98588;2.03846;4.59753;-0.858593;0.280562;0.284207;1.94291;1.24086;0.905496;
-4.99273;2.03902;4.60384;-0.859122;0.28045;0.282256;1.94856;1.24322;0.906432;
-4.99956;2.03958;4.61013;-0.859647;0.280339;0.280304;1.95419;1.24558;0.907361;
-5.00637;2.04014;4.61639;-0.860167;0.280229;0.27835;1.95982;1.24792;0.908285;
-5.01315;2.04069;4.62262;-0.860682;0.280121;0.276396;1.96544;1.25026;0.909202;
-5.01991;2.04124;4.62882;-0.861193;0.280014;0.274441;1.97105;1.2526;0.910114;
-5.02665;2.04179;4.635;-0.861698;0.279908;0.272484;1.97665;1.25492;0.91102;
-5.03336;2.04233;4.64114;-0.862199;0.279804;0.270527;1.98224;1.25724;0.91192;
-5.04005;2.04287;4.64726;-0.862695;0.2797;0.268569;1.98783;1.25955;0.912815;
-5.04672;2.04341;4.65336;-0.863187;0.279598;0.26661;1.9934;1.26185;0.913703;
-5.05336;2.04394;4.65942;-0.863674;0.279498;0.26465;1.99897;1.26414;0.914587;
-5.05998;2.04447;4.66546;-0.864156;0.279398;0.26269;2.00453;1.26643;0.915464;
-5.06658;2.045;4.67147;-0.864634;0.2793;0.260729;2.01008;1.26871;0.916336;
-5.07316;2.04552;4.67746;-0.865107;0.279203;0.258767;2.01562;1.27098;0.917203;
-5.07971;2.04604;4.68342;-0.865576;0.279107;0.256805;2.02116;1.27325;0.918064;
-5.08625;2.04656;4.68935;-0.866041;0.279012;0.254842;2.02668;1.27551;0.918919;
-5.09276;2.04707;4.69526;-0.866501;0.278918;0.252879;2.0322;1.27776;0.919769;
-5.09924;2.04758;4.70114;-0.866957;0.278826;0.250915;2.03771;1.28;0.920614;
-5.10571;2.04809;4.70699;-0.867409;0.278734;0.248951;2.04321;1.28224;0.921454;
-5.11216;2.04859;4.71282;-0.867856;0.278644;0.246987;2.0487;1.28447;0.922288;
-5.11858;2.04909;4.71863;-0.8683;0.278555;0.245022;2.05419;1.28669;0.923117;
-5.12498;2.04959;4.72441;-0.868739;0.278467;0.243058;2.05966;1.2889;0.923941;
-5.13136;2.05009;4.73016;-0.869174;0.27838;0.241093;2.06513;1.29111;0.92476;
-5.13772;2.05058;4.73589;-0.869605;0.278294;0.239128;2.07059;1.29331;0.925574;
-5.14406;2.05107;4.74159;-0.870032;0.278209;0.237162;2.07604;1.29551;0.926382;
-5.15038;2.05156;4.74727;-0.870455;0.278125;0.235197;2.08148;1.2977;0.927186;
-5.15667;2.05204;4.75292;-0.870875;0.278042;0.233232;2.08691;1.29988;0.927984;
-5.16295;2.05253;4.75855;-0.87129;0.277961;0.231267;2.09234;1.30205;0.928778;
-5.1692;2.05301;4.76416;-0.871702;0.27788;0.229302;2.09776;1.30422;0.929567;
-5.17543;2.05348;4.76974;-0.872109;0.2778;0.227337;2.10317;1.30638;0.93035;
-5.18165;2.05396;4.77529;-0.872513;0.277721;0.225372;2.10857;1.30853;0.931129;
-5.18784;2.05443;4.78082;-0.872914;0.277644;0.223408;2.11396;1.31068;0.931904;
-5.19401;2.0549;4.78633;-0.87331;0.277567;0.221444;2.11934;1.31282;0.932673;
-5.20016;2.05536;4.79182;-0.873703;0.277491;0.21948;2.12472;1.31496;0.933438;
-5.2063;2.05583;4.79728;-0.874092;0.277417;0.217516;2.13009;1.31708;0.934198;
-5.21241;2.05629;4.80271;-0.874478;0.277343;0.215553;2.13545;1.3192;0.934953;
-5.2185;2.05675;4.80813;-0.87486;0.27727;0.21359;2.1408;1.32132;0.935703;
-5.22457;2.0572;4.81352;-0.875239;0.277198;0.211628;2.14614;1.32343;0.936449;
-5.23062;2.05766;4.81889;-0.875614;0.277127;0.209666;2.15148;1.32553;0.937191;
-5.23665;2.05811;4.82423;-0.875986;0.277057;0.207705;2.1568;1.32762;0.937928;
-5.24267;2.05856;4.82955;-0.876354;0.276988;0.205744;2.16212;1.32971;0.93866;
-5.24866;2.05901;4.83485;-0.876719;0.276919;0.203784;2.16743;1.33179;0.939388;
-5.25463;2.05945;4.84013;-0.87708;0.276852;0.201825;2.17274;1.33387;0.940112;
-5.26059;2.0599;4.84538;-0.877438;0.276785;0.199866;2.17803;1.33594;0.940831;
-5.26652;2.06034;4.85061;-0.877793;0.27672;0.197908;2.18332;1.338;0.941545;
-5.27244;2.06077;4.85582;-0.878145;0.276655;0.19595;2.18859;1.34006;0.942256;
-5.27834;2.06121;4.86101;-0.878494;0.276591;0.193994;2.19387;1.34211;0.942962;
-5.28421;2.06164;4.86617;-0.878839;0.276528;0.192038;2.19913;1.34415;0.943664;
-5.29007;2.06208;4.87132;-0.879181;0.276465;0.190083;2.20438;1.34619;0.944361;
-5.29591;2.06251;4.87644;-0.87952;0.276404;0.188129;2.20963;1.34822;0.945054;
-5.30174;2.06293;4.88154;-0.879856;0.276343;0.186176;2.21487;1.35025;0.945744;
-5.30754;2.06336;4.88662;-0.880189;0.276283;0.184224;2.2201;1.35227;0.946429;
-5.31332;2.06378;4.89167;-0.880519;0.276224;0.182273;2.22532;1.35428;0.947109;
-5.31909;2.0642;4.89671;-0.880846;0.276166;0.180323;2.23053;1.35629;0.947786;
-5.32484;2.06462;4.90172;-0.881169;0.276108;0.178374;2.23574;1.35829;0.948459;
-5.33057;2.06504;4.90672;-0.88149;0.276052;0.176426;2.24094;1.36028;0.949127;
-5.33628;2.06546;4.91169;-0.881808;0.275996;0.174479;2.24613;1.36227;0.949792;
-5.34197;2.06587;4.91664;-0.882123;0.27594;0.172533;2.25131;1.36426;0.950453;
-5.34765;2.06628;4.92157;-0.882436;0.275886;0.170588;2.25648;1.36623;0.951109;
-5.35331;2.06669;4.92648;-0.882745;0.275832;0.168645;2.26165;1.3682;0.951762;
-5.35895;2.0671;4.93137;-0.883052;0.275779;0.166703;2.26681;1.37017;0.952411;
-5.36457;2.06751;4.93624;-0.883356;0.275727;0.164762;2.27196;1.37213;0.953056;
-5.37017;2.06791;4.94109;-0.883657;0.275675;0.162822;2.2771;1.37408;0.953697;
-5.37576;2.06831;4.94592;-0.883955;0.275624;0.160883;2.28223;1.37603;0.954335;
-5.38133;2.06872;4.95073;-0.884251;0.275574;0.158946;2.28736;1.37797;0.954968;
-5.38688;2.06911;4.95552;-0.884544;0.275524;0.157011;2.29248;1.37991;0.955598;
-5.39241;2.06951;4.96029;-0.884835;0.275475;0.155076;2.29759;1.38184;0.956224;
-5.39793;2.06991;4.96504;-0.885122;0.275427;0.153143;2.30269;1.38377;0.956846;
-5.40343;2.0703;4.96977;-0.885408;0.275379;0.151212;2.30779;1.38569;0.957465;
-5.40891;2.07069;4.97448;-0.88569;0.275332;0.149282;2.31288;1.3876;0.95808;
-5.41438;2.07108;4.97917;-0.88597;0.275286;0.147353;2.31796;1.38951;0.958691;
-5.41983;2.07147;4.98384;-0.886248;0.275241;0.145426;2.32303;1.39141;0.959299;
-5.42526;2.07186;4.98849;-0.886523;0.275195;0.143501;2.32809;1.39331;0.959903;
-5.43067;2.07225;4.99313;-0.886796;0.275151;0.141577;2.33315;1.3952;0.960504;
-5.43607;2.07263;4.99774;-0.887066;0.275107;0.139655;2.3382;1.39709;0.961101;
-5.44145;2.07301;5.00233;-0.887334;0.275064;0.137734;2.34324;1.39897;0.961695;
-5.44682;2.07339;5.00691;-0.8876;0.275021;0.135815;2.34827;1.40084;0.962285;
-5.45217;2.07377;5.01147;-0.887863;0.274979;0.133898;2.3533;1.40271;0.962871;
-5.4575;2.07415;5.01601;-0.888123;0.274938;0.131982;2.35832;1.40457;0.963455;
-5.46282;2.07453;5.02053;-0.888382;0.274897;0.130068;2.36333;1.40643;0.964034;
-5.46812;2.0749;5.02503;-0.888638;0.274857;0.128156;2.36833;1.40829;0.964611;
-5.4734;2.07528;5.02951;-0.888892;0.274817;0.126245;2.37332;1.41013;0.965184;
-5.47867;2.07565;5.03398;-0.889144;0.274778;0.124336;2.37831;1.41198;0.965754;
-5.48392;2.07602;5.03843;-0.889393;0.274739;0.122429;2.38329;1.41381;0.96632;
-5.48915;2.07639;5.04285;-0.88964;0.274701;0.120524;2.38826;1.41565;0.966883;
-5.49437;2.07676;5.04727;-0.889885;0.274663;0.118621;2.39322;1.41747;0.967443;
-5.49957;2.07712;5.05166;-0.890128;0.274626;0.116719;2.39818;1.41929;0.968;
-5.50476;2.07749;5.05604;-0.890369;0.27459;0.11482;2.40313;1.42111;0.968553;
-5.50993;2.07785;5.06039;-0.890608;0.274554;0.112922;2.40807;1.42292;0.969103;
-5.51509;2.07821;5.06473;-0.890844;0.274518;0.111026;2.413;1.42472;0.96965;
-5.52023;2.07857;5.06906;-0.891079;0.274483;0.109132;2.41793;1.42652;0.970194;
-5.52536;2.07893;5.07336;-0.891311;0.274448;0.10724;2.42285;1.42832;0.970735;
-5.53047;2.07929;5.07765;-0.891542;0.274414;0.10535;2.42776;1.43011;0.971272;
-5.53556;2.07965;5.08192;-0.89177;0.274381;0.103462;2.43266;1.43189;0.971807;
-5.54064;2.08;5.08617;-0.891996;0.274347;0.101576;2.43756;1.43367;0.972338;
-5.5457;2.08036;5.09041;-0.892221;0.274315;0.0996925;2.44245;1.43545;0.972866;
-5.55075;2.08071;5.09463;-0.892443;0.274282;0.0978106;2.44733;1.43722;0.973392;
-5.55578;2.08106;5.09883;-0.892664;0.274251;0.0959307;2.4522;1.43898;0.973914;
-5.5608;2.08141;5.10302;-0.892883;0.274219;0.094053;2.45706;1.44074;0.974433;
-5.5658;2.08176;5.10719;-0.893099;0.274188;0.0921773;2.46192;1.4425;0.97495;
-5.57079;2.08211;5.11134;-0.893314;0.274158;0.0903038;2.46677;1.44425;0.975463;
-5.57577;2.08246;5.11548;-0.893527;0.274128;0.0884324;2.47162;1.44599;0.975974;
-5.58073;2.0828;5.1196;-0.893738;0.274098;0.0865631;2.47645;1.44773;0.976481;
-5.58567;2.08315;5.1237;-0.893948;0.274069;0.084696;2.48128;1.44947;0.976986;
-5.5906;2.08349;5.12779;-0.894155;0.27404;0.082831;2.4861;1.4512;0.977488;
-5.59551;2.08383;5.13186;-0.894361;0.274011;0.0809683;2.49091;1.45292;0.977987;
-5.60041;2.08417;5.13591;-0.894565;0.273983;0.0791078;2.49572;1.45464;0.978483;
-5.6053;2.08451;5.13995;-0.894768;0.273955;0.0772495;2.50052;1.45636;0.978976;
-5.61017;2.08485;5.14397;-0.894968;0.273928;0.0753934;2.50531;1.45807;0.979467;
-5.61503;2.08519;5.14798;-0.895167;0.273901;0.0735396;2.51009;1.45977;0.979955;
-5.61987;2.08553;5.15197;-0.895364;0.273874;0.071688;2.51487;1.46147;0.98044;
-5.6247;2.08586;5.15594;-0.89556;0.273848;0.0698387;2.51964;1.46317;0.980922;
-5.62951;2.08619;5.1599;-0.895754;0.273822;0.0679918;2.5244;1.46486;0.981402;
-5.63431;2.08653;5.16385;-0.895946;0.273797;0.0661471;2.52916;1.46655;0.981879;
-5.6391;2.08686;5.16778;-0.896137;0.273771;0.0643048;2.5339;1.46823;0.982353;
-5.64387;2.08719;5.17169;-0.896326;0.273746;0.0624648;2.53864;1.4699;0.982824;
-5.64863;2.08752;5.17559;-0.896513;0.273722;0.0606271;2.54337;1.47158;0.983293;
-5.65337;2.08785;5.17947;-0.896699;0.273698;0.0587919;2.5481;1.47324;0.983759;
-5.6581;2.08818;5.18334;-0.896883;0.273674;0.0569589;2.55282;1.47491;0.984223;
-5.66282;2.08851;5.18719;-0.897066;0.27365;0.0551284;2.55753;1.47657;0.984684;
-5.66752;2.08883;5.19102;-0.897247;0.273627;0.0533003;2.56223;1.47822;0.985143;
-5.67221;2.08916;5.19485;-0.897427;0.273604;0.0514746;2.56693;1.47987;0.985599;
-5.67689;2.08948;5.19865;-0.897605;0.273581;0.0496513;2.57162;1.48151;0.986052;
-5.68155;2.0898;5.20245;-0.897782;0.273559;0.0478305;2.5763;1.48315;0.986503;
-5.6862;2.09013;5.20622;-0.897957;0.273536;0.0460121;2.58097;1.48479;0.986951;
-5.69083;2.09045;5.20999;-0.898131;0.273515;0.0441962;2.58564;1.48642;0.987397;
-5.69545;2.09077;5.21373;-0.898303;0.273493;0.0423828;2.5903;1.48805;0.987841;
-5.70006;2.09109;5.21747;-0.898474;0.273472;0.0405718;2.59495;1.48967;0.988281;
-5.70466;2.09141;5.22119;-0.898644;0.27345;0.0387633;2.5996;1.49129;0.98872;
-5.70924;2.09172;5.22489;-0.898812;0.27343;0.0369574;2.60424;1.4929;0.989156;
-5.71381;2.09204;5.22858;-0.898979;0.273409;0.0351539;2.60887;1.49451;0.98959;
-5.71836;2.09235;5.23226;-0.899144;0.273389;0.033353;2.61349;1.49611;0.990021;
-5.7229;2.09267;5.23592;-0.899308;0.273369;0.0315546;2.61811;1.49771;0.99045;
-5.72743;2.09298;5.23957;-0.899471;0.273349;0.0297588;2.62272;1.49931;0.990877;
-5.73195;2.0933;5.2432;-0.899633;0.273329;0.0279655;2.62732;1.5009;0.991301;
-5.73645;2.09361;5.24682;-0.899793;0.27331;0.0261748;2.63192;1.50248;0.991723;
-5.74094;2.09392;5.25043;-0.899952;0.273291;0.0243867;2.63651;1.50407;0.992142;
-5.74542;2.09423;5.25402;-0.900109;0.273272;0.0226011;2.64109;1.50565;0.99256;
-5.74989;2.09454;5.2576;-0.900266;0.273253;0.0208182;2.64566;1.50722;0.992975;
-5.75434;2.09485;5.26117;-0.900421;0.273234;0.0190379;2.65023;1.50879;0.993387;
-5.75878;2.09516;5.26472;-0.900575;0.273216;0.0172601;2.65479;1.51035;0.993798;
-5.76321;2.09546;5.26825;-0.900727;0.273198;0.015485;2.65934;1.51191;0.994206;
-5.76762;2.09577;5.27178;-0.900879;0.27318;0.0137126;2.66389;1.51347;0.994612;
-5.77203;2.09607;5.27529;-0.901029;0.273162;0.0119427;2.66843;1.51502;0.995016;
-5.77641;2.09638;5.27879;-0.901178;0.273144;0.0101756;2.67296;1.51657;0.995418;
-5.78079;2.09668;5.28227;-0.901326;0.273127;0.00841103;2.67749;1.51812;0.995817;
-5.78516;2.09699;5.28574;-0.901472;0.27311;0.00664917;2.68201;1.51966;0.996214;
-5.78951;2.09729;5.2892;-0.901618;0.273092;0.00488999;2.68652;1.52119;0.996609;
-5.79385;2.09759;5.29264;-0.901762;0.273076;0.00313348;2.69102;1.52272;0.997002;
-5.79818;2.09789;5.29608;-0.901906;0.273059;0.00137966;2.69552;1.52425;0.997393;
-5.8025;2.09819;5.29949;-0.902048;0.273042;-0.000371461;2.70001;1.52577;0.997782;
-5.8068;2.09849;5.3029;-0.902189;0.273026;-0.00211988;2.7045;1.52729;0.998169;
-5.81109;2.09879;5.30629;-0.902329;0.273009;-0.00386559;2.70897;1.52881;0.998553;
-5.81537;2.09909;5.30967;-0.902468;0.272993;-0.00560858;2.71344;1.53032;0.998936;
-5.81964;2.09938;5.31304;-0.902606;0.272977;-0.00734885;2.71791;1.53182;0.999316;
-5.8239;2.09968;5.31639;-0.902742;0.272961;-0.00908639;2.72236;1.53333;0.999695;
-5.82814;2.09997;5.31974;-0.902878;0.272945;-0.0108212;2.72681;1.53483;1.00007;
-5.83237;2.10027;5.32306;-0.903013;0.27293;-0.0125532;2.73125;1.53632;1.00045;
-5.83659;2.10056;5.32638;-0.903146;0.272914;-0.0142825;2.73569;1.53781;1.00082;
-5.8408;2.10086;5.32969;-0.903279;0.272899;-0.0160091;2.74012;1.5393;1.00119;
-5.845;2.10115;5.33298;-0.903411;0.272883;-0.0177329;2.74454;1.54078;1.00156;
-5.84919;2.10144;5.33626;-0.903541;0.272868;-0.0194539;2.74895;1.54226;1.00192;
-5.85336;2.10173;5.33952;-0.903671;0.272853;-0.0211721;2.75336;1.54373;1.00229;
-5.85752;2.10202;5.34278;-0.9038;0.272838;-0.0228876;2.75776;1.54521;1.00265;
-5.86167;2.10231;5.34602;-0.903928;0.272823;-0.0246003;2.76216;1.54667;1.00301;
-5.86581;2.1026;5.34925;-0.904055;0.272808;-0.0263102;2.76655;1.54814;1.00337;
-5.86994;2.10289;5.35247;-0.90418;0.272793;-0.0280173;2.77093;1.54959;1.00373;
-5.87406;2.10318;5.35568;-0.904305;0.272778;-0.0297215;2.7753;1.55105;1.00408;
-5.87816;2.10346;5.35887;-0.904429;0.272764;-0.031423;2.77967;1.5525;1.00444;
-5.88226;2.10375;5.36206;-0.904553;0.272749;-0.0331217;2.78403;1.55395;1.00479;
-5.88634;2.10404;5.36523;-0.904675;0.272735;-0.0348175;2.78839;1.55539;1.00514;
-5.89041;2.10432;5.36839;-0.904796;0.27272;-0.0365106;2.79273;1.55683;1.00548;
-5.89447;2.10461;5.37154;-0.904917;0.272706;-0.0382008;2.79708;1.55827;1.00583;
-5.89852;2.10489;5.37467;-0.905036;0.272692;-0.0398881;2.80141;1.5597;1.00617;
-5.90256;2.10517;5.3778;-0.905155;0.272677;-0.0415727;2.80574;1.56113;1.00652;
-5.90659;2.10546;5.38091;-0.905273;0.272663;-0.0432544;2.81006;1.56255;1.00686;
-5.91061;2.10574;5.38401;-0.90539;0.272649;-0.0449332;2.81437;1.56397;1.00719;
-5.91461;2.10602;5.3871;-0.905506;0.272635;-0.0466092;2.81868;1.56539;1.00753;
-5.91861;2.1063;5.39018;-0.905621;0.272621;-0.0482824;2.82298;1.56681;1.00787;
-5.92259;2.10658;5.39325;-0.905736;0.272607;-0.0499527;2.82728;1.56821;1.0082;
-5.92656;2.10686;5.3963;-0.90585;0.272593;-0.0516201;2.83156;1.56962;1.00853;
-5.93053;2.10714;5.39935;-0.905963;0.272579;-0.0532847;2.83584;1.57102;1.00886;
-5.93448;2.10742;5.40238;-0.906075;0.272565;-0.0549464;2.84012;1.57242;1.00919;
-5.93842;2.1077;5.4054;-0.906186;0.272551;-0.0566052;2.84439;1.57382;1.00952;
-5.94235;2.10797;5.40842;-0.906297;0.272537;-0.0582612;2.84865;1.57521;1.00984;
-5.94627;2.10825;5.41142;-0.906407;0.272523;-0.0599142;2.8529;1.5766;1.01016;
-5.95018;2.10853;5.41441;-0.906516;0.272509;-0.0615644;2.85715;1.57798;1.01048;
-5.95408;2.1088;5.41738;-0.906625;0.272495;-0.0632118;2.86139;1.57936;1.0108;
-5.95796;2.10908;5.42035;-0.906732;0.272482;-0.0648562;2.86563;1.58074;1.01112;
-5.96184;2.10935;5.42331;-0.906839;0.272468;-0.0664977;2.86986;1.58211;1.01144;
-5.96571;2.10962;5.42625;-0.906945;0.272454;-0.0681364;2.87408;1.58348;1.01175;
-5.96957;2.1099;5.42919;-0.907051;0.27244;-0.0697721;2.8783;1.58485;1.01207;
-5.97341;2.11017;5.43211;-0.907156;0.272426;-0.071405;2.8825;1.58621;1.01238;
-5.97725;2.11044;5.43503;-0.90726;0.272412;-0.073035;2.88671;1.58757;1.01269;
-5.98107;2.11071;5.43793;-0.907363;0.272398;-0.074662;2.8909;1.58892;1.013;
-5.98489;2.11099;5.44083;-0.907466;0.272384;-0.0762862;2.89509;1.59027;1.0133;
-5.9887;2.11126;5.44371;-0.907568;0.27237;-0.0779074;2.89928;1.59162;1.01361;
-5.99249;2.11153;5.44658;-0.907669;0.272356;-0.0795257;2.90345;1.59297;1.01391;
-5.99628;2.1118;5.44944;-0.90777;0.272342;-0.0811412;2.90762;1.59431;1.01422;
-6.00005;2.11206;5.45229;-0.90787;0.272328;-0.0827537;2.91179;1.59565;1.01452;
-6.00382;2.11233;5.45513;-0.90797;0.272314;-0.0843633;2.91595;1.59698;1.01482;
-6.00757;2.1126;5.45797;-0.908068;0.2723;-0.0859699;2.9201;1.59831;1.01511;
-6.01132;2.11287;5.46079;-0.908167;0.272286;-0.0875737;2.92424;1.59964;1.01541;
-6.01505;2.11314;5.4636;-0.908264;0.272272;-0.0891745;2.92838;1.60096;1.0157;
-6.01878;2.1134;5.4664;-0.908361;0.272257;-0.0907724;2.93251;1.60228;1.016;
-6.02249;2.11367;5.46919;-0.908457;0.272243;-0.0923674;2.93664;1.6036;1.01629;
-6.0262;2.11393;5.47197;-0.908553;0.272229;-0.0939595;2.94076;1.60491;1.01658;
-6.02989;2.1142;5.47474;-0.908648;0.272214;-0.0955486;2.94487;1.60623;1.01687;
-6.03358;2.11446;5.4775;-0.908743;0.2722;-0.0971348;2.94898;1.60753;1.01716;
-6.03726;2.11473;5.48025;-0.908837;0.272185;-0.0987181;2.95308;1.60884;1.01744;
-6.04092;2.11499;5.48299;-0.90893;0.272171;-0.100298;2.95717;1.61014;1.01773;
-6.04458;2.11525;5.48572;-0.909023;0.272156;-0.101876;2.96126;1.61143;1.01801;
-6.04823;2.11552;5.48844;-0.909115;0.272142;-0.10345;2.96534;1.61273;1.01829;
-6.05187;2.11578;5.49115;-0.909207;0.272127;-0.105022;2.96942;1.61402;1.01857;
-6.05549;2.11604;5.49386;-0.909298;0.272112;-0.106591;2.97349;1.6153;1.01885;
-6.05911;2.1163;5.49655;-0.909389;0.272097;-0.108156;2.97755;1.61659;1.01913;
-6.06272;2.11656;5.49923;-0.909479;0.272082;-0.109719;2.98161;1.61787;1.0194;
-6.06632;2.11682;5.5019;-0.909569;0.272067;-0.111279;2.98566;1.61915;1.01968;
-6.06991;2.11708;5.50457;-0.909658;0.272052;-0.112836;2.9897;1.62042;1.01995;
-6.07349;2.11734;5.50722;-0.909746;0.272036;-0.11439;2.99374;1.62169;1.02022;
-6.07707;2.1176;5.50987;-0.909834;0.272021;-0.115941;2.99777;1.62296;1.02049;
-6.08063;2.11786;5.5125;-0.909922;0.272006;-0.117489;3.0018;1.62422;1.02076;
-6.08418;2.11811;5.51513;-0.910009;0.27199;-0.119034;3.00582;1.62548;1.02103;
-6.08773;2.11837;5.51774;-0.910095;0.271974;-0.120576;3.00983;1.62674;1.0213;
-6.09126;2.11863;5.52035;-0.910181;0.271959;-0.122115;3.01384;1.62799;1.02156;
-6.09479;2.11888;5.52295;-0.910267;0.271943;-0.123652;3.01784;1.62925;1.02183;
-6.0983;2.11914;5.52554;-0.910352;0.271927;-0.125185;3.02183;1.63049;1.02209;
-6.10181;2.1194;5.52812;-0.910437;0.271911;-0.126715;3.02582;1.63174;1.02235;
-6.10531;2.11965;5.53069;-0.910521;0.271895;-0.128243;3.0298;1.63298;1.02261;
-6.1088;2.11991;5.53325;-0.910604;0.271878;-0.129767;3.03378;1.63422;1.02287;
-6.11228;2.12016;5.53581;-0.910688;0.271862;-0.131289;3.03775;1.63546;1.02313;
-6.11575;2.12041;5.53835;-0.91077;0.271846;-0.132808;3.04171;1.63669;1.02339;
-6.11921;2.12067;5.54088;-0.910853;0.271829;-0.134324;3.04567;1.63792;1.02364;
-6.12267;2.12092;5.54341;-0.910935;0.271812;-0.135836;3.04962;1.63914;1.0239;
-6.12611;2.12117;5.54593;-0.911016;0.271795;-0.137346;3.05357;1.64037;1.02415;
-6.12955;2.12142;5.54844;-0.911097;0.271778;-0.138853;3.05751;1.64159;1.0244;
-6.13297;2.12168;5.55094;-0.911178;0.271761;-0.140357;3.06144;1.6428;1.02465;
-6.13639;2.12193;5.55343;-0.911258;0.271744;-0.141858;3.06537;1.64402;1.0249;
-6.1398;2.12218;5.55591;-0.911338;0.271727;-0.143356;3.06929;1.64523;1.02515;
-6.1432;2.12243;5.55838;-0.911417;0.271709;-0.144852;3.07321;1.64643;1.0254;
-6.14659;2.12268;5.56085;-0.911496;0.271692;-0.146344;3.07712;1.64764;1.02564;
-6.14998;2.12293;5.56331;-0.911575;0.271674;-0.147833;3.08102;1.64884;1.02589;
-6.15335;2.12318;5.56575;-0.911653;0.271656;-0.14932;3.08492;1.65004;1.02613;
-6.15672;2.12343;5.56819;-0.911731;0.271638;-0.150803;3.08881;1.65123;1.02637;
-6.16008;2.12367;5.57062;-0.911809;0.27162;-0.152284;3.0927;1.65243;1.02661;
-6.16342;2.12392;5.57305;-0.911886;0.271601;-0.153761;3.09658;1.65362;1.02685;
-6.16676;2.12417;5.57546;-0.911962;0.271583;-0.155236;3.10045;1.6548;1.02709;
-6.1701;2.12442;5.57787;-0.912039;0.271564;-0.156708;3.10432;1.65599;1.02733;
-6.17342;2.12466;5.58026;-0.912115;0.271546;-0.158176;3.10818;1.65717;1.02756;
-6.17674;2.12491;5.58265;-0.91219;0.271527;-0.159642;3.11204;1.65835;1.0278;
-6.18004;2.12516;5.58504;-0.912266;0.271508;-0.161105;3.11589;1.65952;1.02803;
-6.18334;2.1254;5.58741;-0.91234;0.271488;-0.162565;3.11973;1.66069;1.02827;
-6.18663;2.12565;5.58977;-0.912415;0.271469;-0.164023;3.12357;1.66186;1.0285;
-6.18991;2.12589;5.59213;-0.912489;0.271449;-0.165477;3.1274;1.66303;1.02873;
-6.19319;2.12614;5.59448;-0.912563;0.27143;-0.166928;3.13123;1.66419;1.02896;
-6.19645;2.12638;5.59682;-0.912637;0.27141;-0.168377;3.13505;1.66535;1.02919;
-6.19971;2.12662;5.59915;-0.91271;0.27139;-0.169822;3.13886;1.66651;1.02942;
-6.20296;2.12687;5.60147;-0.912783;0.271369;-0.171265;3.14267;1.66766;1.02964;
-6.2062;2.12711;5.60379;-0.912855;0.271349;-0.172704;3.14648;1.66881;1.02987;
-6.20943;2.12735;5.6061;-0.912928;0.271328;-0.174141;3.15027;1.66996;1.03009;
-6.21265;2.12759;5.6084;-0.913;0.271308;-0.175575;3.15407;1.67111;1.03032;
-6.21587;2.12784;5.61069;-0.913071;0.271287;-0.177006;3.15785;1.67225;1.03054;
-6.21908;2.12808;5.61298;-0.913143;0.271266;-0.178434;3.16163;1.67339;1.03076;
-6.22228;2.12832;5.61525;-0.913214;0.271245;-0.179859;3.16541;1.67453;1.03098;
-6.22547;2.12856;5.61752;-0.913284;0.271223;-0.181281;3.16917;1.67566;1.0312;
-6.22865;2.1288;5.61978;-0.913355;0.271201;-0.182701;3.17294;1.67679;1.03142;
-6.23183;2.12904;5.62204;-0.913425;0.27118;-0.184117;3.17669;1.67792;1.03164;
-6.235;2.12928;5.62428;-0.913495;0.271158;-0.185531;3.18044;1.67905;1.03185;
-6.23816;2.12952;5.62652;-0.913565;0.271136;-0.186941;3.18419;1.68017;1.03207;
-6.24131;2.12976;5.62875;-0.913634;0.271113;-0.188349;3.18793;1.68129;1.03228;
-6.24446;2.12999;5.63098;-0.913703;0.271091;-0.189754;3.19166;1.68241;1.0325;
-6.24759;2.13023;5.63319;-0.913772;0.271068;-0.191156;3.19539;1.68352;1.03271;
-6.25072;2.13047;5.6354;-0.91384;0.271045;-0.192555;3.19911;1.68463;1.03292;
-6.25384;2.13071;5.6376;-0.913909;0.271022;-0.193951;3.20283;1.68574;1.03313;
-6.25696;2.13095;5.63979;-0.913977;0.270999;-0.195345;3.20654;1.68685;1.03334;
-6.26006;2.13118;5.64198;-0.914044;0.270975;-0.196735;3.21025;1.68795;1.03355;
-6.26316;2.13142;5.64416;-0.914112;0.270951;-0.198123;3.21395;1.68905;1.03376;
-6.26625;2.13165;5.64633;-0.914179;0.270927;-0.199507;3.21764;1.69015;1.03397;
-6.26933;2.13189;5.64849;-0.914246;0.270903;-0.200889;3.22133;1.69125;1.03417;
-6.27241;2.13213;5.65065;-0.914313;0.270879;-0.202268;3.22501;1.69234;1.03438;
-6.27548;2.13236;5.6528;-0.914379;0.270855;-0.203644;3.22869;1.69343;1.03458;
-6.27854;2.13259;5.65494;-0.914446;0.27083;-0.205018;3.23236;1.69452;1.03478;
-6.28159;2.13283;5.65708;-0.914512;0.270805;-0.206388;3.23603;1.6956;1.03499;
-6.28463;2.13306;5.6592;-0.914577;0.27078;-0.207756;3.23969;1.69669;1.03519;
-6.28767;2.1333;5.66132;-0.914643;0.270755;-0.20912;3.24334;1.69777;1.03539;
-6.2907;2.13353;5.66344;-0.914708;0.270729;-0.210482;3.24699;1.69884;1.03559;
-6.29372;2.13376;5.66554;-0.914774;0.270703;-0.211841;3.25064;1.69992;1.03579;
-6.29674;2.134;5.66764;-0.914839;0.270677;-0.213197;3.25427;1.70099;1.03598;
-6.29975;2.13423;5.66974;-0.914903;0.270651;-0.214551;3.25791;1.70206;1.03618;
-6.30275;2.13446;5.67182;-0.914968;0.270625;-0.215901;3.26153;1.70312;1.03638;
-6.30574;2.13469;5.6739;-0.915032;0.270598;-0.217249;3.26515;1.70419;1.03657;
-6.30873;2.13492;5.67597;-0.915096;0.270571;-0.218594;3.26877;1.70525;1.03677;
-6.31171;2.13515;5.67804;-0.91516;0.270544;-0.219936;3.27238;1.70631;1.03696;
-6.31468;2.13538;5.68009;-0.915224;0.270517;-0.221275;3.27599;1.70736;1.03715;
-6.31764;2.13561;5.68214;-0.915287;0.27049;-0.222611;3.27958;1.70842;1.03734;
-6.3206;2.13584;5.68419;-0.915351;0.270462;-0.223945;3.28318;1.70947;1.03753;
-6.32355;2.13607;5.68622;-0.915414;0.270434;-0.225275;3.28677;1.71052;1.03772;
-6.32649;2.1363;5.68825;-0.915477;0.270406;-0.226603;3.29035;1.71156;1.03791;
-6.32942;2.13653;5.69028;-0.915539;0.270378;-0.227928;3.29393;1.71261;1.0381;
-6.33235;2.13676;5.6923;-0.915602;0.270349;-0.229251;3.2975;1.71365;1.03829;
-6.33527;2.13699;5.69431;-0.915664;0.27032;-0.23057;3.30107;1.71468;1.03848;
-6.33819;2.13722;5.69631;-0.915727;0.270291;-0.231887;3.30463;1.71572;1.03866;
-6.34109;2.13744;5.69831;-0.915789;0.270262;-0.2332;3.30818;1.71675;1.03885;
-6.34399;2.13767;5.7003;-0.91585;0.270233;-0.234511;3.31173;1.71778;1.03903;
-6.34689;2.1379;5.70228;-0.915912;0.270203;-0.23582;3.31528;1.71881;1.03922;
-6.34977;2.13813;5.70426;-0.915974;0.270173;-0.237125;3.31882;1.71984;1.0394;
-6.35265;2.13835;5.70623;-0.916035;0.270143;-0.238428;3.32235;1.72086;1.03958;
-6.35552;2.13858;5.70819;-0.916096;0.270112;-0.239728;3.32588;1.72188;1.03976;
-6.35839;2.1388;5.71015;-0.916157;0.270082;-0.241025;3.3294;1.7229;1.03994;
-6.36125;2.13903;5.7121;-0.916218;0.270051;-0.242319;3.33292;1.72391;1.04012;
-6.3641;2.13925;5.71404;-0.916279;0.27002;-0.24361;3.33643;1.72493;1.0403;
-6.36694;2.13948;5.71598;-0.916339;0.269988;-0.244899;3.33994;1.72594;1.04048;
-6.36978;2.1397;5.71792;-0.9164;0.269957;-0.246185;3.34344;1.72695;1.04066;
-6.37261;2.13993;5.71984;-0.91646;0.269925;-0.247468;3.34694;1.72795;1.04083;
-6.37544;2.14015;5.72176;-0.91652;0.269893;-0.248749;3.35043;1.72895;1.04101;
-6.37825;2.14038;5.72367;-0.91658;0.269861;-0.250027;3.35391;1.72996;1.04119;
-6.38106;2.1406;5.72558;-0.91664;0.269828;-0.251302;3.35739;1.73095;1.04136;
-6.38387;2.14082;5.72748;-0.9167;0.269795;-0.252574;3.36087;1.73195;1.04153;
-6.38666;2.14104;5.72938;-0.916759;0.269762;-0.253843;3.36434;1.73294;1.04171;
-6.38945;2.14127;5.73126;-0.916819;0.269729;-0.25511;3.3678;1.73394;1.04188;
-6.39224;2.14149;5.73315;-0.916878;0.269696;-0.256374;3.37126;1.73492;1.04205;
-6.39501;2.14171;5.73502;-0.916937;0.269662;-0.257635;3.37472;1.73591;1.04222;
-6.39778;2.14193;5.73689;-0.916996;0.269628;-0.258893;3.37817;1.73689;1.04239;
-6.40055;2.14215;5.73875;-0.917055;0.269594;-0.260149;3.38161;1.73788;1.04256;
-6.40331;2.14237;5.74061;-0.917114;0.269559;-0.261402;3.38505;1.73886;1.04273;
-6.40606;2.1426;5.74246;-0.917173;0.269524;-0.262652;3.38848;1.73983;1.0429;
-6.4088;2.14282;5.74431;-0.917231;0.269489;-0.2639;3.39191;1.74081;1.04307;
-6.41154;2.14304;5.74615;-0.91729;0.269454;-0.265145;3.39533;1.74178;1.04323;
-6.41427;2.14326;5.74798;-0.917348;0.269419;-0.266387;3.39875;1.74275;1.0434;
-6.41699;2.14347;5.74981;-0.917406;0.269383;-0.267626;3.40216;1.74372;1.04356;
-6.41971;2.14369;5.75163;-0.917464;0.269347;-0.268863;3.40557;1.74468;1.04373;
-6.42242;2.14391;5.75345;-0.917522;0.269311;-0.270097;3.40897;1.74565;1.04389;
-6.42513;2.14413;5.75526;-0.91758;0.269274;-0.271329;3.41237;1.74661;1.04406;
-6.42783;2.14435;5.75706;-0.917638;0.269238;-0.272557;3.41576;1.74757;1.04422;
-6.43052;2.14457;5.75886;-0.917696;0.269201;-0.273783;3.41914;1.74852;1.04438;
-6.43321;2.14478;5.76065;-0.917753;0.269163;-0.275006;3.42253;1.74948;1.04454;
-6.43589;2.145;5.76244;-0.917811;0.269126;-0.276227;3.4259;1.75043;1.0447;
-6.43856;2.14522;5.76422;-0.917868;0.269088;-0.277445;3.42927;1.75138;1.04486;
-6.44123;2.14544;5.76599;-0.917925;0.26905;-0.27866;3.43264;1.75232;1.04502;
-6.44389;2.14565;5.76776;-0.917983;0.269012;-0.279873;3.436;1.75327;1.04518;
-6.44654;2.14587;5.76953;-0.91804;0.268973;-0.281082;3.43935;1.75421;1.04534;
-6.44919;2.14608;5.77129;-0.918097;0.268935;-0.28229;3.4427;1.75515;1.0455;
-6.45183;2.1463;5.77304;-0.918154;0.268896;-0.283494;3.44605;1.75609;1.04565;
-6.45447;2.14652;5.77478;-0.91821;0.268856;-0.284696;3.44939;1.75702;1.04581;
-6.4571;2.14673;5.77653;-0.918267;0.268817;-0.285895;3.45273;1.75796;1.04597;
-6.45972;2.14695;5.77826;-0.918324;0.268777;-0.287092;3.45606;1.75889;1.04612;
-6.46234;2.14716;5.77999;-0.91838;0.268737;-0.288286;3.45938;1.75982;1.04628;
-6.46495;2.14737;5.78172;-0.918437;0.268697;-0.289477;3.4627;1.76074;1.04643;
-6.46756;2.14759;5.78343;-0.918493;0.268656;-0.290666;3.46602;1.76167;1.04658;
-6.47016;2.1478;5.78515;-0.918549;0.268615;-0.291852;3.46933;1.76259;1.04673;
-6.47275;2.14802;5.78686;-0.918606;0.268574;-0.293035;3.47263;1.76351;1.04689;
-6.47534;2.14823;5.78856;-0.918662;0.268533;-0.294216;3.47593;1.76443;1.04704;
-6.47792;2.14844;5.79026;-0.918718;0.268491;-0.295394;3.47923;1.76535;1.04719;
-6.48049;2.14865;5.79195;-0.918774;0.268449;-0.29657;3.48251;1.76626;1.04734;
-6.48306;2.14887;5.79363;-0.91883;0.268407;-0.297743;3.4858;1.76717;1.04749;
-6.48563;2.14908;5.79532;-0.918886;0.268365;-0.298913;3.48908;1.76808;1.04764;
-6.48818;2.14929;5.79699;-0.918941;0.268322;-0.300081;3.49235;1.76899;1.04779;
-6.49073;2.1495;5.79866;-0.918997;0.268279;-0.301246;3.49562;1.76989;1.04793;
-6.49328;2.14971;5.80033;-0.919053;0.268236;-0.302408;3.49889;1.7708;1.04808;
-6.49582;2.14992;5.80199;-0.919108;0.268193;-0.303568;3.50215;1.7717;1.04823;
-6.49835;2.15013;5.80364;-0.919164;0.268149;-0.304725;3.5054;1.7726;1.04838;
-6.50088;2.15034;5.80529;-0.919219;0.268105;-0.30588;3.50865;1.77349;1.04852;
-6.5034;2.15055;5.80693;-0.919275;0.268061;-0.307032;3.5119;1.77439;1.04867;
-6.50592;2.15076;5.80857;-0.91933;0.268016;-0.308182;3.51514;1.77528;1.04881;
-6.50843;2.15097;5.81021;-0.919385;0.267971;-0.309329;3.51838;1.77617;1.04895;
-6.51093;2.15118;5.81183;-0.919441;0.267926;-0.310473;3.52161;1.77706;1.0491;
-6.51343;2.15139;5.81346;-0.919496;0.267881;-0.311615;3.52483;1.77794;1.04924;
-6.51593;2.1516;5.81508;-0.919551;0.267835;-0.312755;3.52805;1.77883;1.04938;
-6.51841;2.15181;5.81669;-0.919606;0.26779;-0.313891;3.53127;1.77971;1.04953;
-6.52089;2.15202;5.8183;-0.919661;0.267743;-0.315026;3.53448;1.78059;1.04967;
-6.52337;2.15222;5.8199;-0.919716;0.267697;-0.316157;3.53769;1.78147;1.04981;
-6.52584;2.15243;5.8215;-0.919771;0.26765;-0.317286;3.54089;1.78234;1.04995;
-6.5283;2.15264;5.82309;-0.919826;0.267603;-0.318413;3.54408;1.78321;1.05009;
-6.53076;2.15285;5.82468;-0.919881;0.267556;-0.319537;3.54727;1.78409;1.05023;
-6.53322;2.15305;5.82626;-0.919935;0.267509;-0.320658;3.55046;1.78496;1.05037;
-6.53566;2.15326;5.82784;-0.91999;0.267461;-0.321777;3.55364;1.78582;1.0505;
-6.53811;2.15347;5.82941;-0.920045;0.267413;-0.322894;3.55682;1.78669;1.05064;
-6.54054;2.15367;5.83098;-0.920099;0.267365;-0.324008;3.55999;1.78755;1.05078;
-6.54297;2.15388;5.83254;-0.920154;0.267316;-0.325119;3.56316;1.78841;1.05092;
-6.5454;2.15408;5.8341;-0.920208;0.267268;-0.326228;3.56632;1.78927;1.05105;
-6.54782;2.15429;5.83565;-0.920263;0.267219;-0.327335;3.56948;1.79013;1.05119;
-6.55023;2.15449;5.8372;-0.920317;0.267169;-0.328438;3.57263;1.79098;1.05132;
-6.55264;2.1547;5.83875;-0.920372;0.26712;-0.32954;3.57578;1.79184;1.05146;
-6.55504;2.1549;5.84028;-0.920426;0.26707;-0.330639;3.57893;1.79269;1.05159;
-6.55744;2.15511;5.84182;-0.920481;0.26702;-0.331735;3.58206;1.79354;1.05173;
-6.55983;2.15531;5.84335;-0.920535;0.266969;-0.332829;3.5852;1.79438;1.05186;
-6.56222;2.15551;5.84487;-0.920589;0.266919;-0.333921;3.58833;1.79523;1.05199;
-6.5646;2.15572;5.84639;-0.920643;0.266868;-0.33501;3.59145;1.79607;1.05212;
-6.56698;2.15592;5.84791;-0.920698;0.266816;-0.336096;3.59457;1.79691;1.05226;
-6.56935;2.15612;5.84942;-0.920752;0.266765;-0.33718;3.59769;1.79775;1.05239;
-6.57171;2.15632;5.85092;-0.920806;0.266713;-0.338262;3.6008;1.79859;1.05252;
-6.57407;2.15653;5.85242;-0.92086;0.266661;-0.339341;3.6039;1.79943;1.05265;
-6.57643;2.15673;5.85392;-0.920914;0.266609;-0.340417;3.607;1.80026;1.05278;
-6.57878;2.15693;5.85541;-0.920968;0.266556;-0.341492;3.6101;1.80109;1.05291;
-6.58112;2.15713;5.8569;-0.921022;0.266504;-0.342563;3.61319;1.80192;1.05304;
-6.58346;2.15733;5.85838;-0.921076;0.26645;-0.343633;3.61628;1.80275;1.05317;
-6.58579;2.15753;5.85986;-0.92113;0.266397;-0.3447;3.61936;1.80357;1.05329;
-6.58812;2.15774;5.86133;-0.921184;0.266343;-0.345764;3.62244;1.8044;1.05342;
-6.59044;2.15794;5.8628;-0.921238;0.26629;-0.346826;3.62551;1.80522;1.05355;
-6.59276;2.15814;5.86426;-0.921292;0.266235;-0.347886;3.62858;1.80604;1.05368;
-6.59507;2.15834;5.86572;-0.921346;0.266181;-0.348943;3.63165;1.80686;1.0538;
-6.59738;2.15854;5.86718;-0.9214;0.266126;-0.349998;3.6347;1.80767;1.05393;
-6.59968;2.15873;5.86863;-0.921454;0.266071;-0.35105;3.63776;1.80849;1.05405;
-6.60198;2.15893;5.87008;-0.921508;0.266016;-0.3521;3.64081;1.8093;1.05418;
-6.60427;2.15913;5.87152;-0.921561;0.26596;-0.353147;3.64385;1.81011;1.0543;
-6.60655;2.15933;5.87295;-0.921615;0.265905;-0.354193;3.64689;1.81092;1.05443;
-6.60884;2.15953;5.87439;-0.921669;0.265849;-0.355235;3.64993;1.81172;1.05455;
-6.61111;2.15973;5.87582;-0.921723;0.265792;-0.356276;3.65296;1.81253;1.05467;
-6.61338;2.15993;5.87724;-0.921776;0.265736;-0.357314;3.65599;1.81333;1.0548;
-6.61565;2.16012;5.87866;-0.92183;0.265679;-0.358349;3.65901;1.81413;1.05492;
-6.61791;2.16032;5.88007;-0.921884;0.265622;-0.359382;3.66203;1.81493;1.05504;
-6.62017;2.16052;5.88149;-0.921938;0.265564;-0.360413;3.66504;1.81573;1.05516;
-6.62242;2.16071;5.88289;-0.921991;0.265507;-0.361442;3.66805;1.81652;1.05528;
-6.62466;2.16091;5.88429;-0.922045;0.265449;-0.362468;3.67106;1.81732;1.0554;
-6.6269;2.16111;5.88569;-0.922099;0.26539;-0.363491;3.67406;1.81811;1.05553;
-6.62914;2.1613;5.88709;-0.922152;0.265332;-0.364513;3.67705;1.8189;1.05565;
-6.63137;2.1615;5.88848;-0.922206;0.265273;-0.365532;3.68004;1.81969;1.05576;
-6.6336;2.1617;5.88986;-0.922259;0.265214;-0.366548;3.68303;1.82047;1.05588;
-6.63582;2.16189;5.89124;-0.922313;0.265155;-0.367563;3.68601;1.82126;1.056;
-6.63803;2.16209;5.89262;-0.922367;0.265095;-0.368575;3.68899;1.82204;1.05612;
-6.64024;2.16228;5.89399;-0.92242;0.265035;-0.369584;3.69196;1.82282;1.05624;
-6.64245;2.16248;5.89536;-0.922474;0.264975;-0.370592;3.69493;1.8236;1.05636;
-6.64465;2.16267;5.89672;-0.922527;0.264915;-0.371597;3.69789;1.82438;1.05647;
-6.64685;2.16286;5.89808;-0.922581;0.264854;-0.372599;3.70085;1.82515;1.05659;
-6.64904;2.16306;5.89944;-0.922635;0.264793;-0.3736;3.70381;1.82593;1.05671;
-6.65122;2.16325;5.90079;-0.922688;0.264732;-0.374598;3.70676;1.8267;1.05682;
-6.65341;2.16344;5.90214;-0.922742;0.264671;-0.375594;3.7097;1.82747;1.05694;
-6.65558;2.16364;5.90348;-0.922795;0.264609;-0.376587;3.71264;1.82824;1.05705;
-6.65776;2.16383;5.90482;-0.922849;0.264547;-0.377578;3.71558;1.829;1.05717;
-6.65992;2.16402;5.90616;-0.922902;0.264485;-0.378567;3.71851;1.82977;1.05728;
-6.66208;2.16422;5.90749;-0.922956;0.264422;-0.379554;3.72144;1.83053;1.0574;
-6.66424;2.16441;5.90882;-0.923009;0.26436;-0.380538;3.72436;1.83129;1.05751;
-6.6664;2.1646;5.91014;-0.923063;0.264297;-0.38152;3.72728;1.83205;1.05763;
-6.66854;2.16479;5.91146;-0.923116;0.264233;-0.3825;3.7302;1.83281;1.05774;
-6.67069;2.16498;5.91277;-0.92317;0.26417;-0.383477;3.73311;1.83357;1.05785;
-6.67283;2.16517;5.91409;-0.923224;0.264106;-0.384452;3.73602;1.83432;1.05796;
-6.67496;2.16536;5.91539;-0.923277;0.264042;-0.385425;3.73892;1.83507;1.05808;
-6.67709;2.16555;5.9167;-0.923331;0.263977;-0.386396;3.74182;1.83582;1.05819;
-6.67921;2.16574;5.918;-0.923384;0.263913;-0.387364;3.74471;1.83657;1.0583;
-6.68133;2.16594;5.91929;-0.923438;0.263848;-0.38833;3.7476;1.83732;1.05841;
-6.68345;2.16612;5.92058;-0.923491;0.263783;-0.389294;3.75048;1.83806;1.05852;
-6.68556;2.16631;5.92187;-0.923545;0.263717;-0.390256;3.75336;1.83881;1.05863;
-6.68767;2.1665;5.92316;-0.923598;0.263652;-0.391215;3.75624;1.83955;1.05874;
-6.68977;2.16669;5.92444;-0.923652;0.263586;-0.392172;3.75911;1.84029;1.05885;
-6.69186;2.16688;5.92571;-0.923705;0.263519;-0.393127;3.76198;1.84103;1.05896;
-6.69396;2.16707;5.92699;-0.923759;0.263453;-0.39408;3.76484;1.84177;1.05907;
-6.69604;2.16726;5.92825;-0.923812;0.263386;-0.395031;3.7677;1.8425;1.05918;
-6.69813;2.16745;5.92952;-0.923866;0.263319;-0.395979;3.77055;1.84324;1.05929;
-6.70021;2.16764;5.93078;-0.92392;0.263252;-0.396925;3.7734;1.84397;1.05939;
-6.70228;2.16782;5.93204;-0.923973;0.263184;-0.397869;3.77625;1.8447;1.0595;
-6.70435;2.16801;5.93329;-0.924027;0.263117;-0.39881;3.77909;1.84543;1.05961;
-6.70642;2.1682;5.93454;-0.92408;0.263048;-0.39975;3.78193;1.84615;1.05972;
-6.70848;2.16838;5.93579;-0.924134;0.26298;-0.400687;3.78476;1.84688;1.05982;
-6.71053;2.16857;5.93703;-0.924187;0.262912;-0.401622;3.78759;1.8476;1.05993;
-6.71258;2.16876;5.93827;-0.924241;0.262843;-0.402555;3.79041;1.84832;1.06004;
-6.71463;2.16894;5.9395;-0.924295;0.262774;-0.403486;3.79323;1.84904;1.06014;
-6.71667;2.16913;5.94073;-0.924348;0.262704;-0.404414;3.79605;1.84976;1.06025;
-6.71871;2.16932;5.94196;-0.924402;0.262635;-0.405341;3.79886;1.85048;1.06035;
-6.72075;2.1695;5.94318;-0.924456;0.262565;-0.406265;3.80167;1.8512;1.06046;
-6.72278;2.16969;5.94441;-0.924509;0.262495;-0.407187;3.80447;1.85191;1.06056;
-6.7248;2.16987;5.94562;-0.924563;0.262424;-0.408107;3.80727;1.85262;1.06066;
-6.72682;2.17006;5.94683;-0.924616;0.262354;-0.409025;3.81007;1.85333;1.06077;
-6.72884;2.17024;5.94804;-0.92467;0.262283;-0.40994;3.81286;1.85404;1.06087;
-6.73085;2.17042;5.94925;-0.924724;0.262212;-0.410853;3.81564;1.85475;1.06097;
-6.73286;2.17061;5.95045;-0.924777;0.26214;-0.411765;3.81843;1.85545;1.06108;
-6.73486;2.17079;5.95165;-0.924831;0.262068;-0.412674;3.8212;1.85616;1.06118;
-6.73686;2.17098;5.95285;-0.924885;0.261997;-0.413581;3.82398;1.85686;1.06128;
-6.73885;2.17116;5.95404;-0.924939;0.261924;-0.414486;3.82675;1.85756;1.06138;
-6.74084;2.17134;5.95523;-0.924992;0.261852;-0.415388;3.82951;1.85826;1.06149;
-6.74283;2.17153;5.95641;-0.925046;0.261779;-0.416289;3.83228;1.85896;1.06159;
-6.74481;2.17171;5.95759;-0.9251;0.261706;-0.417188;3.83503;1.85965;1.06169;
-6.74679;2.17189;5.95877;-0.925154;0.261633;-0.418084;3.83779;1.86035;1.06179;
-6.74876;2.17207;5.95994;-0.925207;0.26156;-0.418978;3.84054;1.86104;1.06189;
-6.75073;2.17225;5.96111;-0.925261;0.261486;-0.41987;3.84328;1.86173;1.06199;
-6.7527;2.17244;5.96228;-0.925315;0.261412;-0.42076;3.84602;1.86242;1.06209;
-6.75466;2.17262;5.96344;-0.925369;0.261338;-0.421648;3.84876;1.86311;1.06219;
-6.75661;2.1728;5.9646;-0.925422;0.261263;-0.422534;3.85149;1.8638;1.06229;
-6.75856;2.17298;5.96576;-0.925476;0.261188;-0.423418;3.85422;1.86448;1.06239;
-6.76051;2.17316;5.96691;-0.92553;0.261113;-0.4243;3.85695;1.86517;1.06249;
-6.76246;2.17334;5.96806;-0.925584;0.261038;-0.425179;3.85967;1.86585;1.06259;
-6.7644;2.17352;5.96921;-0.925638;0.260963;-0.426057;3.86238;1.86653;1.06268;
-6.76633;2.1737;5.97035;-0.925692;0.260887;-0.426933;3.8651;1.86721;1.06278;
-6.76826;2.17388;5.97149;-0.925746;0.260811;-0.427806;3.8678;1.86788;1.06288;
-6.77019;2.17406;5.97263;-0.925799;0.260735;-0.428677;3.87051;1.86856;1.06298;
-6.77211;2.17424;5.97376;-0.925853;0.260658;-0.429547;3.87321;1.86923;1.06307;
-6.77403;2.17442;5.97489;-0.925907;0.260581;-0.430414;3.8759;1.86991;1.06317;
-6.77595;2.1746;5.97602;-0.925961;0.260504;-0.431279;3.8786;1.87058;1.06327;
-6.77786;2.17478;5.97714;-0.926015;0.260427;-0.432142;3.88128;1.87125;1.06336;
-6.77976;2.17496;5.97826;-0.926069;0.26035;-0.433003;3.88397;1.87192;1.06346;
-6.78167;2.17513;5.97938;-0.926123;0.260272;-0.433862;3.88665;1.87258;1.06356;
-6.78356;2.17531;5.98049;-0.926177;0.260194;-0.43472;3.88933;1.87325;1.06365;
-6.78546;2.17549;5.9816;-0.926231;0.260116;-0.435575;3.892;1.87391;1.06375;
-6.78735;2.17567;5.98271;-0.926285;0.260037;-0.436428;3.89467;1.87457;1.06384;
-6.78924;2.17584;5.98381;-0.926339;0.259959;-0.437279;3.89733;1.87523;1.06394;
-6.79112;2.17602;5.98491;-0.926393;0.25988;-0.438128;3.89999;1.87589;1.06403;
-6.793;2.1762;5.98601;-0.926447;0.2598;-0.438974;3.90265;1.87655;1.06413;
-6.79487;2.17637;5.98711;-0.926502;0.259721;-0.439819;3.9053;1.87721;1.06422;
-6.79674;2.17655;5.9882;-0.926556;0.259641;-0.440662;3.90795;1.87786;1.06431;
-6.79861;2.17673;5.98928;-0.92661;0.259561;-0.441503;3.91059;1.87852;1.06441;
-6.80047;2.1769;5.99037;-0.926664;0.259481;-0.442342;3.91323;1.87917;1.0645;
-6.80233;2.17708;5.99145;-0.926718;0.259401;-0.443179;3.91587;1.87982;1.06459;
-6.80418;2.17725;5.99253;-0.926772;0.25932;-0.444014;3.9185;1.88047;1.06469;
-6.80603;2.17743;5.9936;-0.926826;0.259239;-0.444847;3.92113;1.88111;1.06478;
-6.80788;2.1776;5.99468;-0.926881;0.259158;-0.445678;3.92375;1.88176;1.06487;
-6.80972;2.17778;5.99574;-0.926935;0.259077;-0.446507;3.92637;1.8824;1.06496;
-6.81156;2.17795;5.99681;-0.926989;0.258995;-0.447334;3.92899;1.88305;1.06506;
-6.8134;2.17813;5.99787;-0.927043;0.258913;-0.44816;3.9316;1.88369;1.06515;
-6.81523;2.1783;5.99893;-0.927098;0.258831;-0.448983;3.93421;1.88433;1.06524;
-6.81706;2.17847;5.99999;-0.927152;0.258749;-0.449804;3.93682;1.88497;1.06533;
-6.81888;2.17865;6.00104;-0.927206;0.258666;-0.450623;3.93942;1.8856;1.06542;
-6.8207;2.17882;6.00209;-0.927261;0.258583;-0.451441;3.94202;1.88624;1.06551;
-6.82252;2.17899;6.00314;-0.927315;0.2585;-0.452256;3.94461;1.88687;1.0656;
-6.82433;2.17917;6.00418;-0.927369;0.258417;-0.453069;3.9472;1.88751;1.06569;
-6.82614;2.17934;6.00522;-0.927424;0.258334;-0.453881;3.94979;1.88814;1.06578;
-6.82794;2.17951;6.00626;-0.927478;0.25825;-0.45469;3.95237;1.88877;1.06587;
-6.82974;2.17968;6.0073;-0.927532;0.258166;-0.455498;3.95495;1.8894;1.06596;
-6.83154;2.17986;6.00833;-0.927587;0.258082;-0.456304;3.95752;1.89003;1.06605;
-6.83333;2.18003;6.00936;-0.927641;0.257997;-0.457107;3.96009;1.89065;1.06614;
-6.83512;2.1802;6.01039;-0.927696;0.257912;-0.457909;3.96266;1.89128;1.06623;
-6.83691;2.18037;6.01141;-0.92775;0.257827;-0.458709;3.96522;1.8919;1.06632;
-6.83869;2.18054;6.01243;-0.927805;0.257742;-0.459507;3.96778;1.89252;1.06641;
-6.84047;2.18071;6.01345;-0.927859;0.257657;-0.460303;3.97034;1.89314;1.06649;
-6.84224;2.18088;6.01446;-0.927914;0.257571;-0.461098;3.97289;1.89376;1.06658;
-6.84401;2.18105;6.01547;-0.927968;0.257485;-0.46189;3.97543;1.89438;1.06667;
-6.84578;2.18122;6.01648;-0.928023;0.257399;-0.462681;3.97798;1.89499;1.06676;
-6.84754;2.18139;6.01749;-0.928077;0.257313;-0.463469;3.98052;1.89561;1.06684;
-6.8493;2.18156;6.01849;-0.928132;0.257226;-0.464256;3.98305;1.89622;1.06693;
-6.85106;2.18173;6.01949;-0.928187;0.25714;-0.465041;3.98559;1.89683;1.06702;
-6.85281;2.1819;6.02049;-0.928241;0.257053;-0.465824;3.98812;1.89744;1.0671;
-6.85456;2.18207;6.02148;-0.928296;0.256965;-0.466605;3.99064;1.89805;1.06719;
-6.85631;2.18224;6.02247;-0.92835;0.256878;-0.467384;3.99316;1.89866;1.06728;
-6.85805;2.18241;6.02346;-0.928405;0.25679;-0.468161;3.99568;1.89927;1.06736;
-6.85978;2.18258;6.02445;-0.92846;0.256702;-0.468937;3.99819;1.89987;1.06745;
-6.86152;2.18274;6.02543;-0.928514;0.256614;-0.46971;4.0007;1.90048;1.06753;
-6.86325;2.18291;6.02641;-0.928569;0.256526;-0.470482;4.00321;1.90108;1.06762;
-6.86498;2.18308;6.02739;-0.928624;0.256437;-0.471252;4.00571;1.90168;1.06771;
-6.8667;2.18325;6.02836;-0.928679;0.256348;-0.47202;4.00821;1.90228;1.06779;
-6.86842;2.18341;6.02934;-0.928733;0.256259;-0.472787;4.01071;1.90288;1.06788;
-6.87014;2.18358;6.0303;-0.928788;0.25617;-0.473551;4.0132;1.90348;1.06796;
-6.87185;2.18375;6.03127;-0.928843;0.256081;-0.474314;4.01569;1.90407;1.06804;
-6.87356;2.18391;6.03223;-0.928898;0.255991;-0.475074;4.01817;1.90467;1.06813;
-6.87526;2.18408;6.0332;-0.928953;0.255901;-0.475833;4.02065;1.90526;1.06821;
-6.87697;2.18425;6.03415;-0.929008;0.255811;-0.47659;4.02313;1.90585;1.0683;
-6.87866;2.18441;6.03511;-0.929062;0.255721;-0.477346;4.0256;1.90644;1.06838;
-6.88036;2.18458;6.03606;-0.929117;0.25563;-0.478099;4.02807;1.90703;1.06846;
-6.88205;2.18474;6.03701;-0.929172;0.255539;-0.478851;4.03053;1.90762;1.06855;
-6.88374;2.18491;6.03796;-0.929227;0.255448;-0.479601;4.033;1.90821;1.06863;
-6.88542;2.18507;6.0389;-0.929282;0.255357;-0.480349;4.03545;1.90879;1.06871;
-6.8871;2.18524;6.03984;-0.929337;0.255265;-0.481095;4.03791;1.90937;1.0688;
-6.88878;2.1854;6.04078;-0.929392;0.255174;-0.48184;4.04036;1.90996;1.06888;
-6.89046;2.18557;6.04172;-0.929447;0.255082;-0.482583;4.04281;1.91054;1.06896;
-6.89213;2.18573;6.04265;-0.929502;0.25499;-0.483324;4.04525;1.91112;1.06904;
-6.89379;2.1859;6.04358;-0.929557;0.254898;-0.484063;4.04769;1.9117;1.06913;
-6.89546;2.18606;6.04451;-0.929612;0.254805;-0.4848;4.05013;1.91228;1.06921;
-6.89712;2.18622;6.04544;-0.929667;0.254712;-0.485536;4.05256;1.91285;1.06929;
-6.89878;2.18639;6.04636;-0.929722;0.254619;-0.48627;4.05499;1.91343;1.06937;
-6.90043;2.18655;6.04728;-0.929777;0.254526;-0.487002;4.05742;1.914;1.06945;
-6.90208;2.18671;6.0482;-0.929832;0.254433;-0.487732;4.05984;1.91457;1.06953;
-6.90373;2.18687;6.04912;-0.929888;0.254339;-0.488461;4.06226;1.91514;1.06961;
-6.90537;2.18704;6.05003;-0.929943;0.254245;-0.489188;4.06467;1.91571;1.06969;
-6.90701;2.1872;6.05094;-0.929998;0.254151;-0.489913;4.06708;1.91628;1.06977;
-6.90865;2.18736;6.05185;-0.930053;0.254057;-0.490636;4.06949;1.91685;1.06985;
-6.91028;2.18752;6.05275;-0.930108;0.253963;-0.491358;4.07189;1.91742;1.06993;
-6.91191;2.18768;6.05366;-0.930163;0.253868;-0.492077;4.0743;1.91798;1.07001;
-6.91354;2.18784;6.05456;-0.930219;0.253773;-0.492796;4.07669;1.91854;1.07009;
-6.91516;2.18801;6.05545;-0.930274;0.253678;-0.493512;4.07909;1.91911;1.07017;
-6.91678;2.18817;6.05635;-0.930329;0.253583;-0.494227;4.08148;1.91967;1.07025;
-6.9184;2.18833;6.05724;-0.930384;0.253487;-0.49494;4.08386;1.92023;1.07033;
-6.92001;2.18849;6.05813;-0.93044;0.253392;-0.495651;4.08625;1.92079;1.07041;
-6.92162;2.18865;6.05902;-0.930495;0.253296;-0.496361;4.08862;1.92134;1.07049;
-6.92323;2.18881;6.0599;-0.93055;0.2532;-0.497068;4.091;1.9219;1.07057;
-6.92483;2.18897;6.06078;-0.930605;0.253104;-0.497775;4.09337;1.92246;1.07065;
-6.92643;2.18913;6.06166;-0.930661;0.253007;-0.498479;4.09574;1.92301;1.07073;
-6.92803;2.18929;6.06254;-0.930716;0.25291;-0.499182;4.09811;1.92356;1.07081;
-6.92962;2.18944;6.06342;-0.930771;0.252813;-0.499883;4.10047;1.92411;1.07088;
-6.93121;2.1896;6.06429;-0.930827;0.252716;-0.500582;4.10283;1.92466;1.07096;
-6.9328;2.18976;6.06516;-0.930882;0.252619;-0.50128;4.10518;1.92521;1.07104;
-6.93438;2.18992;6.06603;-0.930938;0.252522;-0.501976;4.10753;1.92576;1.07112;
-6.93597;2.19008;6.06689;-0.930993;0.252424;-0.50267;4.10988;1.92631;1.07119;
-6.93754;2.19024;6.06776;-0.931048;0.252326;-0.503363;4.11223;1.92685;1.07127;
-6.93912;2.19039;6.06862;-0.931104;0.252228;-0.504054;4.11457;1.92739;1.07135;
-6.94069;2.19055;6.06947;-0.931159;0.25213;-0.504743;4.1169;1.92794;1.07143;
-6.94226;2.19071;6.07033;-0.931215;0.252031;-0.505431;4.11924;1.92848;1.0715;
-6.94382;2.19087;6.07118;-0.93127;0.251932;-0.506117;4.12157;1.92902;1.07158;
-6.94538;2.19102;6.07203;-0.931326;0.251834;-0.506801;4.1239;1.92956;1.07166;
-6.94694;2.19118;6.07288;-0.931381;0.251734;-0.507484;4.12622;1.9301;1.07173;
-6.9485;2.19134;6.07373;-0.931437;0.251635;-0.508165;4.12854;1.93063;1.07181;
-6.95005;2.19149;6.07457;-0.931492;0.251536;-0.508844;4.13086;1.93117;1.07189;
-6.9516;2.19165;6.07541;-0.931548;0.251436;-0.509522;4.13317;1.9317;1.07196;
-6.95315;2.1918;6.07625;-0.931603;0.251336;-0.510198;4.13548;1.93224;1.07204;
-6.95469;2.19196;6.07709;-0.931659;0.251236;-0.510872;4.13779;1.93277;1.07211;
-6.95623;2.19211;6.07792;-0.931715;0.251136;-0.511545;4.14009;1.9333;1.07219;
-6.95776;2.19227;6.07876;-0.93177;0.251036;-0.512216;4.14239;1.93383;1.07226;
-6.9593;2.19242;6.07959;-0.931826;0.250935;-0.512886;4.14469;1.93436;1.07234;
-6.96083;2.19258;6.08041;-0.931881;0.250834;-0.513554;4.14698;1.93489;1.07241;
-6.96236;2.19273;6.08124;-0.931937;0.250733;-0.51422;4.14927;1.93541;1.07249;
-6.96388;2.19289;6.08206;-0.931993;0.250632;-0.514885;4.15156;1.93594;1.07256;
-6.9654;2.19304;6.08288;-0.932048;0.250531;-0.515548;4.15384;1.93646;1.07264;
-6.96692;2.1932;6.0837;-0.932104;0.250429;-0.51621;4.15612;1.93699;1.07271;
-6.96844;2.19335;6.08452;-0.93216;0.250327;-0.51687;4.15839;1.93751;1.07279;
-6.96995;2.1935;6.08533;-0.932215;0.250225;-0.517528;4.16067;1.93803;1.07286;
-6.97146;2.19366;6.08614;-0.932271;0.250123;-0.518185;4.16294;1.93855;1.07294;
-6.97296;2.19381;6.08695;-0.932327;0.250021;-0.51884;4.1652;1.93907;1.07301;
-6.97447;2.19396;6.08776;-0.932383;0.249918;-0.519493;4.16747;1.93958;1.07308;
-6.97597;2.19412;6.08856;-0.932438;0.249816;-0.520145;4.16973;1.9401;1.07316;
-6.97746;2.19427;6.08937;-0.932494;0.249713;-0.520796;4.17198;1.94061;1.07323;
-6.97896;2.19442;6.09017;-0.93255;0.24961;-0.521445;4.17423;1.94113;1.0733;
-6.98045;2.19457;6.09096;-0.932606;0.249507;-0.522092;4.17648;1.94164;1.07338;
-6.98194;2.19472;6.09176;-0.932661;0.249403;-0.522738;4.17873;1.94215;1.07345;
-6.98342;2.19488;6.09255;-0.932717;0.2493;-0.523382;4.18097;1.94266;1.07352;
-6.9849;2.19503;6.09334;-0.932773;0.249196;-0.524024;4.18321;1.94317;1.0736;
-6.98638;2.19518;6.09413;-0.932829;0.249092;-0.524665;4.18545;1.94368;1.07367;
-6.98786;2.19533;6.09492;-0.932885;0.248988;-0.525305;4.18768;1.94419;1.07374;
-6.98933;2.19548;6.09571;-0.93294;0.248884;-0.525943;4.18991;1.94469;1.07381;
-6.9908;2.19563;6.09649;-0.932996;0.248779;-0.526579;4.19214;1.9452;1.07389;
-6.99227;2.19578;6.09727;-0.933052;0.248674;-0.527214;4.19436;1.9457;1.07396;
-6.99373;2.19593;6.09805;-0.933108;0.24857;-0.527847;4.19658;1.9462;1.07403;
-6.99519;2.19608;6.09882;-0.933164;0.248465;-0.528479;4.1988;1.94671;1.0741;
-6.99665;2.19623;6.0996;-0.93322;0.248359;-0.529109;4.20101;1.94721;1.07417;
-6.99811;2.19638;6.10037;-0.933276;0.248254;-0.529738;4.20322;1.94771;1.07425;
-6.99956;2.19653;6.10114;-0.933331;0.248149;-0.530365;4.20543;1.9482;1.07432;
-7.00101;2.19668;6.10191;-0.933387;0.248043;-0.530991;4.20763;1.9487;1.07439;
-7.00246;2.19683;6.10267;-0.933443;0.247937;-0.531615;4.20983;1.9492;1.07446;
-7.0039;2.19698;6.10344;-0.933499;0.247831;-0.532237;4.21203;1.94969;1.07453;
-7.00534;2.19712;6.1042;-0.933555;0.247725;-0.532859;4.21422;1.95019;1.0746;
-7.00678;2.19727;6.10496;-0.933611;0.247618;-0.533478;4.21641;1.95068;1.07467;
-7.00822;2.19742;6.10572;-0.933667;0.247512;-0.534096;4.2186;1.95117;1.07474;
-7.00965;2.19757;6.10647;-0.933723;0.247405;-0.534713;4.22079;1.95166;1.07481;
-7.01108;2.19772;6.10723;-0.933779;0.247298;-0.535328;4.22297;1.95215;1.07488;
-7.01251;2.19786;6.10798;-0.933835;0.247191;-0.535942;4.22514;1.95264;1.07495;
-7.01393;2.19801;6.10873;-0.933891;0.247084;-0.536554;4.22732;1.95313;1.07502;
-7.01535;2.19816;6.10947;-0.933947;0.246977;-0.537164;4.22949;1.95361;1.07509;
-7.01677;2.1983;6.11022;-0.934003;0.246869;-0.537773;4.23166;1.9541;1.07516;
-7.01819;2.19845;6.11096;-0.934059;0.246761;-0.538381;4.23382;1.95458;1.07523;
-7.0196;2.1986;6.1117;-0.934115;0.246653;-0.538987;4.23599;1.95507;1.0753;
-7.02101;2.19874;6.11244;-0.934171;0.246545;-0.539592;4.23814;1.95555;1.07537;
-7.02242;2.19889;6.11318;-0.934227;0.246437;-0.540195;4.2403;1.95603;1.07544;
-7.02382;2.19903;6.11391;-0.934283;0.246329;-0.540797;4.24245;1.95651;1.07551;
-7.02522;2.19918;6.11465;-0.934339;0.24622;-0.541397;4.2446;1.95699;1.07558;
-7.02662;2.19933;6.11538;-0.934395;0.246112;-0.541996;4.24675;1.95747;1.07565;
-7.02802;2.19947;6.11611;-0.934451;0.246003;-0.542593;4.24889;1.95795;1.07572;
-7.02941;2.19962;6.11683;-0.934507;0.245894;-0.543189;4.25103;1.95842;1.07579;
-7.0308;2.19976;6.11756;-0.934563;0.245784;-0.543784;4.25317;1.9589;1.07586;
-7.03219;2.1999;6.11828;-0.934619;0.245675;-0.544377;4.2553;1.95937;1.07593;
-7.03358;2.20005;6.119;-0.934675;0.245566;-0.544969;4.25743;1.95984;1.076;
-7.03496;2.20019;6.11972;-0.934731;0.245456;-0.545559;4.25956;1.96032;1.07606;
-7.03634;2.20034;6.12044;-0.934787;0.245346;-0.546147;4.26168;1.96079;1.07613;
-7.03772;2.20048;6.12115;-0.934843;0.245236;-0.546735;4.2638;1.96126;1.0762;
-7.03909;2.20062;6.12187;-0.934899;0.245126;-0.547321;4.26592;1.96173;1.07627;
-7.04046;2.20077;6.12258;-0.934955;0.245016;-0.547905;4.26803;1.96219;1.07634;
-7.04183;2.20091;6.12329;-0.935011;0.244905;-0.548488;4.27015;1.96266;1.0764;
-7.0432;2.20105;6.12399;-0.935068;0.244795;-0.54907;4.27226;1.96313;1.07647;
-7.04456;2.2012;6.1247;-0.935124;0.244684;-0.54965;4.27436;1.96359;1.07654;
-7.04592;2.20134;6.1254;-0.93518;0.244573;-0.550229;4.27646;1.96405;1.07661;
-7.04728;2.20148;6.1261;-0.935236;0.244462;-0.550806;4.27856;1.96452;1.07668;
-7.04864;2.20162;6.1268;-0.935292;0.244351;-0.551382;4.28066;1.96498;1.07674;
-7.04999;2.20176;6.1275;-0.935348;0.244239;-0.551956;4.28275;1.96544;1.07681;
-7.05134;2.20191;6.1282;-0.935404;0.244128;-0.55253;4.28484;1.9659;1.07688;
-7.05269;2.20205;6.12889;-0.93546;0.244016;-0.553101;4.28693;1.96636;1.07694;
-7.05403;2.20219;6.12958;-0.935516;0.243904;-0.553672;4.28901;1.96682;1.07701;
-7.05537;2.20233;6.13027;-0.935572;0.243792;-0.554241;4.29109;1.96727;1.07708;
-7.05671;2.20247;6.13096;-0.935629;0.24368;-0.554808;4.29317;1.96773;1.07714;
-7.05805;2.20261;6.13165;-0.935685;0.243568;-0.555374;4.29525;1.96818;1.07721;
-7.05939;2.20275;6.13233;-0.935741;0.243456;-0.555939;4.29732;1.96864;1.07728;
-7.06072;2.20289;6.13302;-0.935797;0.243343;-0.556503;4.29939;1.96909;1.07734;
-7.06205;2.20303;6.1337;-0.935853;0.24323;-0.557065;4.30145;1.96954;1.07741;
-7.06337;2.20317;6.13438;-0.935909;0.243118;-0.557625;4.30352;1.96999;1.07748;
-7.0647;2.20331;6.13505;-0.935965;0.243005;-0.558185;4.30558;1.97044;1.07754;
-7.06602;2.20345;6.13573;-0.936021;0.242892;-0.558743;4.30763;1.97089;1.07761;
-7.06734;2.20359;6.1364;-0.936078;0.242778;-0.559299;4.30969;1.97134;1.07768;
-7.06865;2.20373;6.13707;-0.936134;0.242665;-0.559855;4.31174;1.97179;1.07774;
-7.06997;2.20387;6.13775;-0.93619;0.242551;-0.560408;4.31378;1.97223;1.07781;
-7.07128;2.20401;6.13841;-0.936246;0.242438;-0.560961;4.31583;1.97268;1.07787;
-7.07259;2.20415;6.13908;-0.936302;0.242324;-0.561512;4.31787;1.97312;1.07794;
-7.0739;2.20428;6.13974;-0.936358;0.24221;-0.562062;4.31991;1.97357;1.078;
-7.0752;2.20442;6.14041;-0.936414;0.242096;-0.562611;4.32194;1.97401;1.07807;
-7.0765;2.20456;6.14107;-0.93647;0.241981;-0.563158;4.32398;1.97445;1.07813;
-7.0778;2.2047;6.14173;-0.936527;0.241867;-0.563704;4.32601;1.97489;1.0782;
-7.07909;2.20484;6.14239;-0.936583;0.241752;-0.564248;4.32803;1.97533;1.07826;
-7.08039;2.20497;6.14304;-0.936639;0.241638;-0.564791;4.33006;1.97577;1.07833;
-7.08168;2.20511;6.1437;-0.936695;0.241523;-0.565333;4.33208;1.97621;1.07839;
-7.08297;2.20525;6.14435;-0.936751;0.241408;-0.565874;4.3341;1.97664;1.07846;
-7.08425;2.20538;6.145;-0.936807;0.241293;-0.566413;4.33611;1.97708;1.07852;
-7.08554;2.20552;6.14565;-0.936863;0.241178;-0.566951;4.33812;1.97751;1.07859;
-7.08682;2.20566;6.14629;-0.936919;0.241062;-0.567487;4.34013;1.97795;1.07865;
-7.0881;2.20579;6.14694;-0.936975;0.240947;-0.568023;4.34214;1.97838;1.07872;
-7.08937;2.20593;6.14758;-0.937032;0.240831;-0.568556;4.34414;1.97881;1.07878;
-7.09065;2.20607;6.14822;-0.937088;0.240716;-0.569089;4.34614;1.97924;1.07884;
-7.09192;2.2062;6.14886;-0.937144;0.2406;-0.56962;4.34814;1.97967;1.07891;
-7.09319;2.20634;6.1495;-0.9372;0.240484;-0.570151;4.35013;1.9801;1.07897;
-7.09445;2.20647;6.15014;-0.937256;0.240368;-0.570679;4.35213;1.98053;1.07904;
-7.09572;2.20661;6.15077;-0.937312;0.240251;-0.571207;4.35411;1.98096;1.0791;
-7.09698;2.20674;6.15141;-0.937368;0.240135;-0.571733;4.3561;1.98138;1.07916;
-7.09824;2.20688;6.15204;-0.937424;0.240018;-0.572258;4.35808;1.98181;1.07923;
-7.0995;2.20701;6.15267;-0.93748;0.239902;-0.572781;4.36006;1.98223;1.07929;
