-0.630378;0.580156;0.0443212;0.0885656;0.679433;0.426584;0.0889408;0.253838;0.374531;
-0.876411;0.549814;-0.0552241;-0.0478081;0.632285;0.407623;0.00811821;0.220741;0.29447;
-0.938803;0.560861;-0.0415721;-0.0782115;0.621065;0.40908;0.00169163;0.224051;0.290583;
-0.973599;0.577921;-0.0112273;-0.0926839;0.615307;0.413554;0.00640544;0.232769;0.297981;
-1.00299;0.595887;0.0220668;-0.104045;0.610622;0.418516;0.0132486;0.242457;0.3074;
-1.03114;0.613806;0.0557418;-0.11469;0.606187;0.423495;0.0205357;0.252287;0.317109;
-1.05886;0.631491;0.0892871;-0.125101;0.601839;0.428396;0.0279304;0.262094;0.326764;
-1.08634;0.648908;0.122601;-0.135373;0.597543;0.433203;0.0353639;0.271844;0.336299;
-1.11359;0.666054;0.155666;-0.145528;0.593292;0.437911;0.0428221;0.281531;0.345699;
-1.14065;0.682931;0.188478;-0.155571;0.589084;0.442523;0.0503015;0.291154;0.354966;
-1.1675;0.699544;0.221041;-0.165504;0.584919;0.447037;0.0578011;0.300713;0.3641;
-1.19414;0.715897;0.253355;-0.175328;0.580796;0.451457;0.0653202;0.31021;0.373104;
-1.2206;0.731995;0.285424;-0.185045;0.576714;0.455783;0.0728583;0.319643;0.381979;
-1.24685;0.747841;0.317249;-0.194655;0.572673;0.460016;0.0804148;0.329014;0.390727;
-1.27291;0.763439;0.348833;-0.20416;0.568672;0.464157;0.0879893;0.338324;0.399351;
-1.29878;0.778795;0.380178;-0.21356;0.564711;0.468207;0.0955812;0.347572;0.407853;
-1.32446;0.793912;0.411286;-0.222858;0.560789;0.472168;0.10319;0.356759;0.416233;
-1.34995;0.808794;0.44216;-0.232053;0.556907;0.476041;0.110815;0.365885;0.424495;
-1.37526;0.823444;0.472802;-0.241148;0.553062;0.479827;0.118457;0.374952;0.43264;
-1.40038;0.837868;0.503214;-0.250143;0.549255;0.483526;0.126113;0.383959;0.44067;
-1.42532;0.852069;0.533398;-0.259039;0.545486;0.487141;0.133785;0.392907;0.448587;
-1.45008;0.86605;0.563357;-0.267837;0.541754;0.490672;0.141471;0.401797;0.456392;
-1.47466;0.879815;0.593092;-0.27654;0.538058;0.49412;0.149172;0.410628;0.464088;
-1.49907;0.893369;0.622607;-0.285146;0.534398;0.497487;0.156886;0.419402;0.471676;
-1.5233;0.906714;0.651902;-0.293658;0.530774;0.500772;0.164613;0.428119;0.479157;
-1.54736;0.919854;0.68098;-0.302077;0.527185;0.503979;0.172353;0.436778;0.486534;
-1.57125;0.932793;0.709844;-0.310404;0.52363;0.507106;0.180105;0.445382;0.493809;
-1.59497;0.945534;0.738495;-0.318639;0.520109;0.510156;0.187869;0.45393;0.500981;
-1.61852;0.95808;0.766935;-0.326784;0.516623;0.51313;0.195645;0.462422;0.508055;
-1.64191;0.970435;0.795166;-0.33484;0.513169;0.516028;0.203431;0.47086;0.51503;
-1.66513;0.982602;0.823191;-0.342807;0.509749;0.518852;0.211229;0.479243;0.521909;
-1.68819;0.994585;0.851012;-0.350688;0.506361;0.521602;0.219036;0.487572;0.528692;
-1.71109;1.00639;0.878629;-0.358482;0.503005;0.52428;0.226853;0.495847;0.535383;
-1.73384;1.01801;0.906046;-0.36619;0.49968;0.526886;0.23468;0.504069;0.541981;
-1.75642;1.02946;0.933265;-0.373815;0.496387;0.529422;0.242515;0.512239;0.548488;
-1.77886;1.04073;0.960287;-0.381356;0.493124;0.531888;0.25036;0.520356;0.554907;
-1.80114;1.05184;0.987113;-0.388815;0.489892;0.534285;0.258212;0.528421;0.561238;
-1.82326;1.06278;1.01375;-0.396193;0.48669;0.536615;0.266072;0.536435;0.567482;
-1.84524;1.07355;1.04019;-0.403489;0.483518;0.538877;0.27394;0.544398;0.573641;
-1.86707;1.08417;1.06644;-0.410707;0.480375;0.541074;0.281816;0.552311;0.579717;
-1.88875;1.09462;1.09251;-0.417846;0.477261;0.543206;0.289698;0.560173;0.58571;
-1.91029;1.10492;1.11839;-0.424906;0.474175;0.545273;0.297586;0.567985;0.591623;
-1.93168;1.11507;1.14409;-0.43189;0.471118;0.547277;0.305481;0.575749;0.597455;
-1.95293;1.12507;1.1696;-0.438799;0.468088;0.549218;0.313381;0.583463;0.603209;
-1.97404;1.13492;1.19494;-0.445631;0.465085;0.551098;0.321287;0.591129;0.608886;
-1.99501;1.14463;1.22009;-0.45239;0.46211;0.552917;0.329198;0.598746;0.614486;
-2.01584;1.15419;1.24507;-0.459075;0.459161;0.554676;0.337114;0.606316;0.620012;
-2.03653;1.16361;1.26987;-0.465688;0.456239;0.556376;0.345035;0.613839;0.625464;
-2.05709;1.1729;1.2945;-0.472229;0.453343;0.558017;0.352959;0.621315;0.630843;
-2.07752;1.18205;1.31896;-0.478699;0.450472;0.559601;0.360888;0.628744;0.63615;
-2.09782;1.19106;1.34325;-0.485099;0.447627;0.561128;0.368821;0.636127;0.641388;
-2.11798;1.19995;1.36737;-0.49143;0.444807;0.562599;0.376756;0.643464;0.646556;
-2.13801;1.20871;1.39132;-0.497692;0.442012;0.564015;0.384695;0.650756;0.651655;
-2.15792;1.21734;1.41511;-0.503887;0.439241;0.565376;0.392637;0.658003;0.656688;
-2.1777;1.22584;1.43873;-0.510015;0.436494;0.566684;0.400581;0.665206;0.661654;
-2.19735;1.23423;1.46219;-0.516076;0.433771;0.567938;0.408527;0.672364;0.666555;
-2.21688;1.24249;1.48549;-0.522073;0.431071;0.56914;0.416476;0.679478;0.671392;
-2.23629;1.25064;1.50863;-0.528004;0.428395;0.570291;0.424426;0.686549;0.676166;
-2.25558;1.25867;1.53162;-0.533872;0.425741;0.571391;0.432378;0.693576;0.680877;
-2.27474;1.26658;1.55444;-0.539676;0.42311;0.57244;0.44033;0.700561;0.685527;
-2.29379;1.27439;1.57712;-0.545419;0.420502;0.57344;0.448284;0.707503;0.690117;
-2.31271;1.28208;1.59964;-0.551099;0.417915;0.574392;0.456239;0.714404;0.694648;
-2.33152;1.28967;1.622;-0.556719;0.415351;0.575295;0.464194;0.721262;0.69912;
-2.35022;1.29715;1.64422;-0.562278;0.412807;0.576151;0.47215;0.728079;0.703534;
-2.3688;1.30452;1.66628;-0.567777;0.410286;0.576959;0.480105;0.734855;0.707891;
-2.38726;1.31179;1.6882;-0.573218;0.407784;0.577722;0.488061;0.741591;0.712193;
-2.40562;1.31896;1.70998;-0.5786;0.405304;0.578439;0.496016;0.748286;0.716439;
-2.42386;1.32603;1.7316;-0.583925;0.402844;0.579111;0.503971;0.754941;0.720631;
-2.44199;1.333;1.75309;-0.589193;0.400405;0.579739;0.511924;0.761556;0.72477;
-2.46002;1.33988;1.77443;-0.594405;0.397985;0.580324;0.519877;0.768132;0.728856;
-2.47793;1.34666;1.79563;-0.599561;0.395585;0.580865;0.527829;0.774669;0.73289;
-2.49574;1.35334;1.81669;-0.604662;0.393204;0.581363;0.535779;0.781167;0.736873;
-2.51345;1.35994;1.83761;-0.609709;0.390843;0.58182;0.543728;0.787626;0.740806;
-2.53105;1.36644;1.8584;-0.614702;0.388501;0.582236;0.551675;0.794048;0.744689;
-2.54854;1.37286;1.87905;-0.619641;0.386177;0.58261;0.55962;0.800432;0.748523;
-2.56593;1.37919;1.89956;-0.624529;0.383872;0.582945;0.567562;0.806778;0.752309;
-2.58322;1.38543;1.91994;-0.629364;0.381586;0.58324;0.575503;0.813087;0.756047;
-2.60041;1.39159;1.94019;-0.634148;0.379317;0.583496;0.583441;0.81936;0.759739;
-2.6175;1.39767;1.9603;-0.638881;0.377066;0.583713;0.591377;0.825595;0.763384;
-2.63449;1.40366;1.98029;-0.643565;0.374833;0.583892;0.599309;0.831795;0.766984;
-2.65139;1.40958;2.00015;-0.648198;0.372618;0.584034;0.607239;0.837958;0.77054;
-2.66818;1.41541;2.01988;-0.652782;0.370419;0.584139;0.615166;0.844086;0.774051;
-2.68488;1.42117;2.03948;-0.657318;0.368238;0.584208;0.623089;0.850179;0.777519;
-2.70149;1.42685;2.05896;-0.661806;0.366073;0.584241;0.631009;0.856236;0.780944;
-2.718;1.43246;2.07831;-0.666247;0.363925;0.584238;0.638925;0.862259;0.784326;
-2.73442;1.43799;2.09754;-0.670641;0.361794;0.5842;0.646838;0.868247;0.787667;
-2.75074;1.44345;2.11665;-0.674988;0.359679;0.584128;0.654746;0.8742;0.790967;
-2.76697;1.44883;2.13563;-0.67929;0.35758;0.584022;0.662651;0.88012;0.794227;
-2.78311;1.45415;2.1545;-0.683546;0.355497;0.583882;0.670551;0.886006;0.797447;
-2.79917;1.4594;2.17325;-0.687757;0.353429;0.58371;0.678448;0.891859;0.800627;
-2.81513;1.46458;2.19188;-0.691924;0.351377;0.583505;0.686339;0.897679;0.803769;
-2.831;1.46969;2.21039;-0.696048;0.34934;0.583268;0.694227;0.903465;0.806872;
-2.84679;1.47474;2.22878;-0.700128;0.347319;0.582999;0.702109;0.909219;0.809938;
-2.86249;1.47972;2.24706;-0.704165;0.345312;0.582699;0.709987;0.914941;0.812967;
-2.8781;1.48464;2.26523;-0.70816;0.343321;0.582369;0.71786;0.92063;0.815959;
-2.89363;1.48949;2.28329;-0.712113;0.341343;0.582008;0.725728;0.926288;0.818915;
-2.90908;1.49428;2.30123;-0.716024;0.339381;0.581617;0.73359;0.931914;0.821835;
-2.92444;1.49902;2.31906;-0.719895;0.337433;0.581197;0.741448;0.937509;0.82472;
-2.93972;1.50369;2.33678;-0.723725;0.335498;0.580747;0.7493;0.943073;0.827571;
-2.95491;1.5083;2.35439;-0.727515;0.333578;0.580269;0.757146;0.948606;0.830387;
-2.97003;1.51285;2.37189;-0.731266;0.331672;0.579763;0.764987;0.954108;0.83317;
-2.98506;1.51735;2.38929;-0.734977;0.329779;0.579229;0.772822;0.95958;0.83592;
-3.00001;1.52179;2.40658;-0.738649;0.3279;0.578668;0.780652;0.965022;0.838637;
-3.01489;1.52618;2.42376;-0.742284;0.326035;0.57808;0.788475;0.970434;0.841322;
-3.02968;1.53051;2.44084;-0.74588;0.324182;0.577465;0.796293;0.975816;0.843974;
-3.0444;1.53479;2.45781;-0.749439;0.322343;0.576824;0.804104;0.981169;0.846596;
-3.05904;1.53901;2.47468;-0.752961;0.320517;0.576157;0.81191;0.986493;0.849186;
-3.07361;1.54318;2.49145;-0.756446;0.318703;0.575464;0.819709;0.991788;0.851746;
-3.08809;1.54731;2.50812;-0.759895;0.316902;0.574746;0.827501;0.997054;0.854276;
-3.10251;1.55138;2.52469;-0.763309;0.315114;0.574004;0.835287;1.00229;0.856776;
-3.11684;1.5554;2.54116;-0.766687;0.313338;0.573237;0.843067;1.0075;0.859246;
-3.13111;1.55937;2.55753;-0.770029;0.311574;0.572446;0.85084;1.01268;0.861688;
-3.1453;1.5633;2.5738;-0.773337;0.309823;0.571632;0.858606;1.01784;0.864101;
-3.15942;1.56717;2.58997;-0.776611;0.308083;0.570794;0.866365;1.02296;0.866486;
-3.17346;1.571;2.60605;-0.779851;0.306356;0.569933;0.874118;1.02806;0.868843;
-3.18744;1.57479;2.62203;-0.783057;0.30464;0.569049;0.881864;1.03313;0.871173;
-3.20134;1.57853;2.63792;-0.786231;0.302936;0.568143;0.889602;1.03818;0.873476;
-3.21517;1.58222;2.65371;-0.789371;0.301243;0.567215;0.897334;1.04319;0.875752;
-3.22894;1.58587;2.66941;-0.792479;0.299562;0.566265;0.905058;1.04818;0.878001;
-3.24263;1.58948;2.68502;-0.795555;0.297892;0.565294;0.912775;1.05315;0.880225;
-3.25626;1.59304;2.70053;-0.798599;0.296233;0.564302;0.920485;1.05809;0.882423;
-3.26981;1.59657;2.71596;-0.801612;0.294585;0.563289;0.928188;1.063;0.884596;
-3.2833;1.60005;2.73129;-0.804593;0.292948;0.562255;0.935883;1.06789;0.886743;
-3.29673;1.60349;2.74654;-0.807544;0.291322;0.561202;0.94357;1.07275;0.888866;
-3.31008;1.60689;2.76169;-0.810465;0.289707;0.560128;0.95125;1.07759;0.890965;
-3.32337;1.61025;2.77676;-0.813355;0.288102;0.559035;0.958923;1.0824;0.89304;
-3.3366;1.61358;2.79174;-0.816216;0.286508;0.557923;0.966587;1.08718;0.895091;
-3.34976;1.61686;2.80663;-0.819047;0.284924;0.556792;0.974244;1.09194;0.897118;
-3.36286;1.62011;2.82144;-0.821849;0.283351;0.555642;0.981893;1.09668;0.899123;
-3.37589;1.62332;2.83616;-0.824622;0.281788;0.554474;0.989535;1.10139;0.901104;
-3.38886;1.62649;2.85079;-0.827367;0.280234;0.553287;0.997168;1.10608;0.903064;
-3.40176;1.62963;2.86535;-0.830084;0.278691;0.552083;1.00479;1.11074;0.905001;
-3.41461;1.63273;2.87982;-0.832773;0.277158;0.550861;1.01241;1.11538;0.906916;
-3.42739;1.6358;2.8942;-0.835434;0.275634;0.549622;1.02002;1.12;0.908809;
-3.44011;1.63883;2.90851;-0.838068;0.27412;0.548366;1.02762;1.12459;0.910681;
-3.45277;1.64183;2.92273;-0.840675;0.272616;0.547093;1.03521;1.12916;0.912532;
-3.46537;1.64479;2.93687;-0.843256;0.271121;0.545804;1.0428;1.13371;0.914362;
-3.47791;1.64773;2.95093;-0.84581;0.269636;0.544498;1.05038;1.13823;0.916171;
-3.49039;1.65063;2.96491;-0.848337;0.26816;0.543176;1.05794;1.14274;0.91796;
-3.50282;1.65349;2.97881;-0.850839;0.266693;0.541838;1.0655;1.14721;0.919729;
-3.51518;1.65633;2.99264;-0.853316;0.265235;0.540485;1.07306;1.15167;0.921479;
-3.52749;1.65914;3.00638;-0.855767;0.263787;0.539117;1.0806;1.1561;0.923208;
-3.53973;1.66191;3.02005;-0.858193;0.262347;0.537734;1.08813;1.16051;0.924919;
-3.55193;1.66465;3.03364;-0.860594;0.260917;0.536335;1.09566;1.1649;0.92661;
-3.56406;1.66737;3.04716;-0.862971;0.259495;0.534923;1.10318;1.16927;0.928283;
-3.57614;1.67005;3.0606;-0.865324;0.258081;0.533495;1.11069;1.17362;0.929937;
-3.58816;1.67271;3.07396;-0.867652;0.256677;0.532054;1.11819;1.17794;0.931572;
-3.60013;1.67534;3.08725;-0.869957;0.255281;0.530599;1.12568;1.18225;0.933189;
-3.61204;1.67794;3.10047;-0.872239;0.253893;0.52913;1.13316;1.18653;0.934789;
-3.6239;1.68051;3.11361;-0.874497;0.252514;0.527648;1.14064;1.19079;0.936371;
-3.6357;1.68306;3.12669;-0.876732;0.251143;0.526152;1.1481;1.19503;0.937935;
-3.64745;1.68557;3.13968;-0.878944;0.249781;0.524644;1.15556;1.19925;0.939482;
-3.65915;1.68807;3.15261;-0.881134;0.248427;0.523122;1.16301;1.20345;0.941012;
-3.67079;1.69053;3.16547;-0.883302;0.24708;0.521588;1.17045;1.20763;0.942525;
-3.68238;1.69297;3.17825;-0.885448;0.245742;0.520042;1.17788;1.21178;0.944021;
-3.69392;1.69539;3.19097;-0.887572;0.244412;0.518484;1.1853;1.21592;0.945501;
-3.7054;1.69777;3.20361;-0.889674;0.243089;0.516913;1.19271;1.22004;0.946965;
-3.71684;1.70014;3.21619;-0.891755;0.241775;0.515331;1.20011;1.22414;0.948413;
-3.72822;1.70248;3.2287;-0.893815;0.240468;0.513737;1.20751;1.22822;0.949845;
-3.73956;1.7048;3.24114;-0.895854;0.239169;0.512131;1.21489;1.23228;0.951261;
-3.75084;1.70709;3.25351;-0.897872;0.237877;0.510515;1.22227;1.23632;0.952662;
-3.76207;1.70936;3.26582;-0.89987;0.236593;0.508887;1.22964;1.24034;0.954047;
-3.77326;1.71161;3.27805;-0.901848;0.235316;0.507249;1.237;1.24434;0.955417;
-3.78439;1.71383;3.29023;-0.903806;0.234047;0.5056;1.24435;1.24832;0.956773;
-3.79547;1.71603;3.30233;-0.905743;0.232785;0.50394;1.25169;1.25229;0.958113;
-3.80651;1.71821;3.31438;-0.907662;0.231531;0.502271;1.25902;1.25623;0.95944;
-3.8175;1.72037;3.32635;-0.90956;0.230283;0.500591;1.26634;1.26016;0.960751;
-3.82844;1.7225;3.33827;-0.91144;0.229043;0.498901;1.27365;1.26407;0.962049;
-3.83933;1.72462;3.35012;-0.913301;0.22781;0.497201;1.28096;1.26796;0.963332;
-3.85018;1.72671;3.3619;-0.915142;0.226584;0.495492;1.28825;1.27183;0.964602;
-3.86098;1.72879;3.37363;-0.916966;0.225364;0.493773;1.29554;1.27568;0.965857;
-3.87173;1.73084;3.38529;-0.91877;0.224152;0.492045;1.30281;1.27952;0.9671;
-3.88244;1.73288;3.39689;-0.920557;0.222947;0.490308;1.31008;1.28334;0.968328;
-3.8931;1.73489;3.40842;-0.922325;0.221748;0.488563;1.31733;1.28714;0.969544;
-3.90371;1.73688;3.4199;-0.924076;0.220556;0.486808;1.32458;1.29092;0.970746;
-3.91428;1.73886;3.43132;-0.925809;0.219371;0.485045;1.33182;1.29469;0.971936;
-3.92481;1.74081;3.44267;-0.927525;0.218192;0.483273;1.33905;1.29844;0.973113;
-3.93529;1.74275;3.45397;-0.929223;0.21702;0.481493;1.34627;1.30217;0.974277;
-3.94572;1.74467;3.4652;-0.930904;0.215854;0.479705;1.35348;1.30588;0.975428;
-3.95611;1.74657;3.47638;-0.932568;0.214695;0.477909;1.36068;1.30958;0.976568;
-3.96646;1.74846;3.4875;-0.934216;0.213542;0.476105;1.36787;1.31326;0.977695;
-3.97676;1.75032;3.49856;-0.935846;0.212396;0.474293;1.37506;1.31692;0.978809;
-3.98703;1.75217;3.50956;-0.937461;0.211256;0.472474;1.38223;1.32057;0.979912;
-3.99724;1.754;3.52051;-0.939059;0.210122;0.470647;1.38939;1.3242;0.981004;
-4.00742;1.75581;3.5314;-0.940641;0.208994;0.468814;1.39655;1.32781;0.982083;
-4.01755;1.75761;3.54223;-0.942207;0.207873;0.466973;1.40369;1.33141;0.983151;
-4.02764;1.75939;3.55301;-0.943758;0.206757;0.465125;1.41083;1.33499;0.984208;
-4.03769;1.76116;3.56373;-0.945293;0.205647;0.46327;1.41795;1.33856;0.985253;
-4.0477;1.7629;3.57439;-0.946812;0.204544;0.461409;1.42507;1.34211;0.986287;
-4.05767;1.76464;3.585;-0.948316;0.203446;0.459541;1.43217;1.34564;0.98731;
-4.06759;1.76635;3.59556;-0.949805;0.202355;0.457666;1.43927;1.34916;0.988323;
-4.07748;1.76805;3.60606;-0.951279;0.201269;0.455785;1.44636;1.35267;0.989324;
-4.08733;1.76974;3.61651;-0.952739;0.200189;0.453899;1.45344;1.35615;0.990315;
-4.09713;1.77141;3.6269;-0.954183;0.199114;0.452006;1.4605;1.35962;0.991296;
-4.10689;1.77307;3.63724;-0.955613;0.198046;0.450107;1.46756;1.36308;0.992265;
-4.11662;1.77471;3.64753;-0.957029;0.196983;0.448202;1.47461;1.36652;0.993225;
-4.12631;1.77633;3.65777;-0.958431;0.195925;0.446292;1.48165;1.36995;0.994175;
-4.13595;1.77795;3.66795;-0.959818;0.194873;0.444376;1.48868;1.37336;0.995114;
-4.14556;1.77955;3.67808;-0.961192;0.193827;0.442455;1.4957;1.37676;0.996044;
-4.15513;1.78113;3.68816;-0.962552;0.192786;0.440528;1.50271;1.38014;0.996963;
-4.16466;1.7827;3.69819;-0.963898;0.191751;0.438596;1.50972;1.38351;0.997873;
-4.17416;1.78426;3.70817;-0.965231;0.190721;0.436659;1.51671;1.38686;0.998773;
-4.18361;1.7858;3.7181;-0.96655;0.189696;0.434717;1.52369;1.3902;0.999664;
-4.19303;1.78733;3.72798;-0.967856;0.188676;0.432771;1.53066;1.39352;1.00055;
-4.20241;1.78885;3.73781;-0.969149;0.187662;0.430819;1.53763;1.39683;1.00142;
-4.21175;1.79035;3.74759;-0.970429;0.186653;0.428863;1.54458;1.40013;1.00228;
-4.22106;1.79185;3.75732;-0.971697;0.185649;0.426903;1.55152;1.40341;1.00313;
-4.23033;1.79333;3.767;-0.972951;0.184651;0.424938;1.55846;1.40667;1.00398;
-4.23956;1.79479;3.77664;-0.974193;0.183657;0.422969;1.56538;1.40993;1.00482;
-4.24876;1.79625;3.78622;-0.975423;0.182669;0.420995;1.5723;1.41317;1.00564;
-4.25792;1.79769;3.79576;-0.97664;0.181685;0.419018;1.57921;1.41639;1.00646;
-4.26704;1.79912;3.80525;-0.977845;0.180707;0.417036;1.5861;1.4196;1.00727;
-4.27613;1.80054;3.81469;-0.979039;0.179733;0.415051;1.59299;1.4228;1.00807;
-4.28519;1.80195;3.82409;-0.98022;0.178764;0.413061;1.59986;1.42599;1.00886;
-4.2942;1.80334;3.83344;-0.981389;0.177801;0.411069;1.60673;1.42916;1.00965;
-4.30319;1.80473;3.84274;-0.982547;0.176842;0.409072;1.61359;1.43232;1.01043;
-4.31214;1.8061;3.852;-0.983693;0.175887;0.407072;1.62044;1.43546;1.01119;
-4.32105;1.80746;3.86121;-0.984828;0.174938;0.405069;1.62728;1.4386;1.01195;
-4.32993;1.80881;3.87038;-0.985951;0.173993;0.403062;1.63411;1.44171;1.01271;
-4.33878;1.81015;3.8795;-0.987063;0.173053;0.401052;1.64092;1.44482;1.01345;
-4.34759;1.81148;3.88858;-0.988164;0.172118;0.399039;1.64773;1.44791;1.01419;
-4.35637;1.8128;3.89761;-0.989254;0.171187;0.397023;1.65453;1.45099;1.01491;
-4.36512;1.81411;3.9066;-0.990333;0.170261;0.395004;1.66132;1.45406;1.01564;
-4.37383;1.81541;3.91555;-0.991402;0.169339;0.392982;1.66811;1.45712;1.01635;
-4.38251;1.8167;3.92445;-0.992459;0.168422;0.390958;1.67488;1.46016;1.01705;
-4.39115;1.81798;3.93331;-0.993507;0.167509;0.388931;1.68164;1.46319;1.01775;
-4.39977;1.81925;3.94212;-0.994543;0.166601;0.386901;1.68839;1.46621;1.01844;
-4.40835;1.82051;3.9509;-0.99557;0.165697;0.384869;1.69513;1.46921;1.01913;
-4.4169;1.82176;3.95963;-0.996586;0.164797;0.382834;1.70187;1.47221;1.01981;
-4.42542;1.823;3.96831;-0.997592;0.163902;0.380797;1.70859;1.47519;1.02048;
-4.4339;1.82423;3.97696;-0.998588;0.163011;0.378757;1.7153;1.47816;1.02114;
-4.44235;1.82545;3.98557;-0.999574;0.162124;0.376716;1.72201;1.48111;1.02179;
-4.45078;1.82666;3.99413;-1.00055;0.161242;0.374672;1.7287;1.48406;1.02244;
-4.45917;1.82786;4.00265;-1.00152;0.160364;0.372627;1.73539;1.48699;1.02309;
-4.46752;1.82906;4.01113;-1.00247;0.15949;0.370579;1.74206;1.48991;1.02372;
-4.47585;1.83024;4.01957;-1.00342;0.15862;0.36853;1.74873;1.49282;1.02435;
-4.48415;1.83142;4.02797;-1.00436;0.157754;0.366478;1.75538;1.49572;1.02497;
-4.49242;1.83258;4.03633;-1.00529;0.156892;0.364426;1.76203;1.49861;1.02559;
-4.50065;1.83374;4.04465;-1.00621;0.156035;0.362371;1.76867;1.50148;1.0262;
-4.50886;1.83489;4.05293;-1.00712;0.155181;0.360315;1.7753;1.50434;1.0268;
-4.51704;1.83604;4.06117;-1.00802;0.154332;0.358257;1.78191;1.5072;1.0274;
-4.52518;1.83717;4.06937;-1.00891;0.153486;0.356198;1.78852;1.51004;1.02799;
-4.5333;1.8383;4.07754;-1.00979;0.152644;0.354138;1.79512;1.51287;1.02857;
-4.54138;1.83941;4.08566;-1.01067;0.151806;0.352076;1.80171;1.51568;1.02915;
-4.54944;1.84052;4.09375;-1.01153;0.150973;0.350013;1.80829;1.51849;1.02972;
-4.55747;1.84163;4.1018;-1.01239;0.150142;0.347949;1.81486;1.52129;1.03029;
-4.56547;1.84272;4.10981;-1.01324;0.149316;0.345884;1.82142;1.52407;1.03085;
-4.57344;1.84381;4.11778;-1.01408;0.148494;0.343818;1.82797;1.52685;1.0314;
-4.58138;1.84489;4.12571;-1.01491;0.147675;0.341751;1.83451;1.52961;1.03195;
-4.58929;1.84596;4.13361;-1.01574;0.14686;0.339683;1.84105;1.53236;1.03249;
-4.59718;1.84702;4.14147;-1.01655;0.146049;0.337614;1.84757;1.53511;1.03303;
-4.60503;1.84808;4.1493;-1.01736;0.145241;0.335545;1.85408;1.53784;1.03356;
-4.61286;1.84913;4.15708;-1.01816;0.144437;0.333474;1.86059;1.54056;1.03409;
-4.62066;1.85017;4.16483;-1.01895;0.143637;0.331403;1.86708;1.54327;1.03461;
-4.62843;1.85121;4.17255;-1.01973;0.142841;0.329332;1.87357;1.54597;1.03512;
-4.63617;1.85223;4.18023;-1.02051;0.142047;0.32726;1.88004;1.54866;1.03563;
-4.64389;1.85325;4.18787;-1.02128;0.141258;0.325188;1.88651;1.55134;1.03614;
-4.65158;1.85427;4.19548;-1.02204;0.140472;0.323115;1.89296;1.55401;1.03664;
-4.65924;1.85528;4.20305;-1.02279;0.139689;0.321042;1.89941;1.55667;1.03713;
-4.66688;1.85628;4.21059;-1.02353;0.13891;0.318968;1.90585;1.55932;1.03762;
-4.67448;1.85727;4.21809;-1.02427;0.138135;0.316894;1.91228;1.56195;1.0381;
-4.68207;1.85826;4.22556;-1.025;0.137363;0.314821;1.91869;1.56458;1.03858;
-4.68962;1.85924;4.23299;-1.02573;0.136594;0.312747;1.9251;1.5672;1.03905;
-4.69715;1.86022;4.24039;-1.02644;0.135829;0.310673;1.9315;1.56981;1.03952;
-4.70465;1.86119;4.24776;-1.02715;0.135067;0.308599;1.93789;1.57241;1.03999;
-4.71213;1.86215;4.25509;-1.02785;0.134308;0.306525;1.94428;1.575;1.04045;
-4.71958;1.86311;4.26239;-1.02855;0.133552;0.304451;1.95065;1.57758;1.0409;
-4.727;1.86406;4.26966;-1.02924;0.1328;0.302377;1.95701;1.58015;1.04135;
-4.7344;1.865;4.27689;-1.02992;0.132052;0.300303;1.96336;1.58271;1.04179;
-4.74177;1.86594;4.28409;-1.03059;0.131306;0.29823;1.96971;1.58526;1.04223;
-4.74912;1.86687;4.29125;-1.03126;0.130564;0.296157;1.97604;1.5878;1.04267;
-4.75644;1.8678;4.29839;-1.03192;0.129824;0.294084;1.98237;1.59033;1.0431;
-4.76373;1.86872;4.30549;-1.03258;0.129088;0.292012;1.98868;1.59285;1.04352;
-4.771;1.86963;4.31256;-1.03323;0.128355;0.28994;1.99499;1.59537;1.04395;
-4.77825;1.87054;4.31959;-1.03387;0.127626;0.287869;2.00128;1.59787;1.04436;
-4.78547;1.87145;4.3266;-1.0345;0.126899;0.285798;2.00757;1.60037;1.04478;
-4.79267;1.87235;4.33357;-1.03513;0.126175;0.283728;2.01385;1.60285;1.04518;
-4.79984;1.87324;4.34051;-1.03576;0.125455;0.281658;2.02012;1.60533;1.04559;
-4.80699;1.87413;4.34742;-1.03637;0.124737;0.279589;2.02638;1.60779;1.04599;
-4.81411;1.87501;4.3543;-1.03698;0.124023;0.277521;2.03263;1.61025;1.04638;
-4.82121;1.87589;4.36115;-1.03759;0.123311;0.275453;2.03887;1.6127;1.04678;
-4.82828;1.87676;4.36797;-1.03819;0.122603;0.273386;2.0451;1.61514;1.04716;
-4.83533;1.87762;4.37476;-1.03878;0.121897;0.271321;2.05132;1.61757;1.04755;
-4.84236;1.87849;4.38151;-1.03937;0.121195;0.269256;2.05754;1.61999;1.04793;
-4.84936;1.87934;4.38824;-1.03995;0.120495;0.267192;2.06374;1.62241;1.0483;
-4.85634;1.88019;4.39494;-1.04052;0.119798;0.265128;2.06994;1.62481;1.04867;
-4.8633;1.88104;4.4016;-1.04109;0.119104;0.263066;2.07612;1.62721;1.04904;
-4.87023;1.88188;4.40824;-1.04166;0.118413;0.261005;2.0823;1.6296;1.0494;
-4.87714;1.88272;4.41485;-1.04221;0.117725;0.258945;2.08847;1.63198;1.04976;
-4.88403;1.88355;4.42143;-1.04277;0.117039;0.256886;2.09462;1.63435;1.05012;
-4.89089;1.88438;4.42798;-1.04331;0.116356;0.254829;2.10077;1.63671;1.05047;
-4.89773;1.8852;4.4345;-1.04386;0.115676;0.252772;2.10691;1.63906;1.05082;
-4.90455;1.88602;4.44099;-1.04439;0.114999;0.250717;2.11304;1.64141;1.05117;
-4.91134;1.88683;4.44745;-1.04493;0.114325;0.248663;2.11917;1.64374;1.05151;
-4.91811;1.88764;4.45388;-1.04545;0.113653;0.24661;2.12528;1.64607;1.05184;
-4.92486;1.88844;4.46029;-1.04597;0.112984;0.244559;2.13138;1.64839;1.05218;
-4.93159;1.88924;4.46667;-1.04649;0.112318;0.242509;2.13748;1.6507;1.05251;
-4.9383;1.89004;4.47302;-1.047;0.111654;0.24046;2.14356;1.65301;1.05284;
-4.94498;1.89083;4.47934;-1.0475;0.110993;0.238413;2.14964;1.6553;1.05316;
-4.95164;1.89162;4.48563;-1.04801;0.110334;0.236367;2.1557;1.65759;1.05348;
-4.95828;1.8924;4.4919;-1.0485;0.109678;0.234323;2.16176;1.65987;1.0538;
-4.9649;1.89318;4.49814;-1.04899;0.109025;0.232281;2.16781;1.66214;1.05411;
-4.9715;1.89395;4.50435;-1.04948;0.108374;0.23024;2.17385;1.6644;1.05442;
-4.97807;1.89472;4.51054;-1.04996;0.107726;0.2282;2.17988;1.66666;1.05472;
-4.98462;1.89549;4.51669;-1.05044;0.107081;0.226162;2.1859;1.66891;1.05503;
-4.99115;1.89625;4.52283;-1.05091;0.106437;0.224126;2.19191;1.67115;1.05533;
-4.99767;1.89701;4.52893;-1.05138;0.105797;0.222092;2.19792;1.67338;1.05563;
-5.00415;1.89776;4.53501;-1.05184;0.105159;0.220059;2.20391;1.6756;1.05592;
-5.01062;1.89851;4.54106;-1.0523;0.104523;0.218028;2.2099;1.67782;1.05621;
-5.01707;1.89926;4.54708;-1.05275;0.10389;0.215999;2.21587;1.68003;1.0565;
-5.0235;1.9;4.55308;-1.0532;0.103259;0.213972;2.22184;1.68223;1.05678;
-5.0299;1.90074;4.55906;-1.05364;0.10263;0.211946;2.2278;1.68442;1.05706;
-5.03629;1.90147;4.56501;-1.05408;0.102004;0.209922;2.23375;1.68661;1.05734;
-5.04265;1.9022;4.57093;-1.05452;0.101381;0.207901;2.23969;1.68879;1.05762;
-5.049;1.90293;4.57682;-1.05495;0.100759;0.205881;2.24562;1.69096;1.05789;
-5.05532;1.90365;4.5827;-1.05538;0.10014;0.203863;2.25154;1.69312;1.05816;
-5.06163;1.90437;4.58854;-1.0558;0.0995236;0.201847;2.25746;1.69528;1.05843;
-5.06791;1.90509;4.59436;-1.05622;0.0989092;0.199833;2.26336;1.69743;1.05869;
-5.07417;1.9058;4.60016;-1.05664;0.0982971;0.197822;2.26926;1.69957;1.05895;
-5.08042;1.90651;4.60593;-1.05705;0.0976874;0.195812;2.27515;1.7017;1.05921;
-5.08664;1.90722;4.61168;-1.05746;0.0970798;0.193804;2.28103;1.70383;1.05946;
-5.09284;1.90792;4.6174;-1.05786;0.0964746;0.191799;2.2869;1.70595;1.05972;
-5.09903;1.90862;4.6231;-1.05826;0.0958715;0.189795;2.29276;1.70806;1.05997;
-5.10519;1.90932;4.62877;-1.05865;0.0952707;0.187794;2.29861;1.71017;1.06021;
-5.11134;1.91001;4.63442;-1.05904;0.094672;0.185795;2.30445;1.71227;1.06046;
-5.11746;1.9107;4.64005;-1.05943;0.0940756;0.183798;2.31028;1.71436;1.0607;
-5.12357;1.91138;4.64565;-1.05981;0.0934813;0.181803;2.31611;1.71644;1.06094;
-5.12966;1.91206;4.65123;-1.06019;0.0928892;0.179811;2.32193;1.71852;1.06118;
-5.13573;1.91274;4.65678;-1.06057;0.0922992;0.177821;2.32773;1.72059;1.06141;
-5.14178;1.91342;4.66231;-1.06094;0.0917113;0.175833;2.33353;1.72266;1.06164;
-5.14781;1.91409;4.66782;-1.06131;0.0911256;0.173847;2.33932;1.72471;1.06187;
-5.15382;1.91476;4.6733;-1.06168;0.0905419;0.171864;2.34511;1.72676;1.0621;
-5.15981;1.91543;4.67876;-1.06204;0.0899604;0.169883;2.35088;1.7288;1.06232;
-5.16578;1.91609;4.6842;-1.0624;0.0893808;0.167905;2.35664;1.73084;1.06254;
-5.17174;1.91675;4.68962;-1.06275;0.0888034;0.165929;2.3624;1.73287;1.06276;
-5.17768;1.91741;4.69501;-1.0631;0.088228;0.163955;2.36814;1.73489;1.06298;
-5.18359;1.91806;4.70038;-1.06345;0.0876546;0.161984;2.37388;1.73691;1.06319;
-5.18949;1.91871;4.70573;-1.0638;0.0870832;0.160015;2.37961;1.73892;1.0634;
-5.19538;1.91936;4.71105;-1.06414;0.0865138;0.158049;2.38533;1.74092;1.06361;
-5.20124;1.92001;4.71636;-1.06447;0.0859464;0.156085;2.39104;1.74292;1.06382;
-5.20709;1.92065;4.72164;-1.06481;0.085381;0.154124;2.39675;1.74491;1.06403;
-5.21291;1.92129;4.7269;-1.06514;0.0848175;0.152165;2.40244;1.74689;1.06423;
-5.21872;1.92193;4.73214;-1.06547;0.084256;0.150209;2.40813;1.74887;1.06443;
-5.22452;1.92256;4.73735;-1.06579;0.0836963;0.148256;2.41381;1.75084;1.06463;
-5.23029;1.92319;4.74254;-1.06612;0.0831387;0.146305;2.41948;1.7528;1.06483;
-5.23605;1.92382;4.74772;-1.06643;0.0825829;0.144356;2.42514;1.75476;1.06502;
-5.24179;1.92445;4.75287;-1.06675;0.082029;0.142411;2.43079;1.75671;1.06521;
-5.24751;1.92507;4.758;-1.06706;0.0814769;0.140467;2.43643;1.75865;1.0654;
-5.25321;1.92569;4.76311;-1.06737;0.0809268;0.138527;2.44206;1.76059;1.06559;
-5.2589;1.92631;4.76819;-1.06768;0.0803785;0.136589;2.44769;1.76252;1.06578;
-5.26457;1.92693;4.77326;-1.06798;0.079832;0.134654;2.45331;1.76445;1.06596;
-5.27022;1.92754;4.77831;-1.06828;0.0792873;0.132721;2.45892;1.76637;1.06614;
-5.27585;1.92815;4.78333;-1.06858;0.0787445;0.130792;2.46452;1.76828;1.06632;
-5.28147;1.92876;4.78833;-1.06887;0.0782035;0.128865;2.47011;1.77019;1.0665;
-5.28707;1.92936;4.79332;-1.06917;0.0776642;0.12694;2.47569;1.77209;1.06667;
-5.29266;1.92996;4.79828;-1.06946;0.0771267;0.125019;2.48127;1.77399;1.06685;
-5.29822;1.93056;4.80322;-1.06974;0.076591;0.1231;2.48684;1.77588;1.06702;
-5.30377;1.93116;4.80815;-1.07003;0.0760571;0.121184;2.49239;1.77776;1.06719;
-5.30931;1.93176;4.81305;-1.07031;0.0755249;0.119271;2.49794;1.77964;1.06736;
-5.31482;1.93235;4.81793;-1.07058;0.0749944;0.117361;2.50348;1.78151;1.06752;
-5.32032;1.93294;4.82279;-1.07086;0.0744656;0.115453;2.50902;1.78337;1.06769;
-5.32581;1.93353;4.82764;-1.07113;0.0739385;0.113549;2.51454;1.78523;1.06785;
-5.33128;1.93411;4.83246;-1.0714;0.0734131;0.111647;2.52006;1.78708;1.06801;
-5.33673;1.9347;4.83726;-1.07167;0.0728894;0.109748;2.52557;1.78893;1.06817;
-5.34216;1.93528;4.84205;-1.07194;0.0723674;0.107852;2.53107;1.79077;1.06833;
-5.34758;1.93586;4.84681;-1.0722;0.071847;0.105959;2.53656;1.79261;1.06848;
-5.35298;1.93643;4.85156;-1.07246;0.0713283;0.104069;2.54204;1.79444;1.06864;
-5.35837;1.93701;4.85629;-1.07272;0.0708112;0.102181;2.54751;1.79626;1.06879;
-5.36374;1.93758;4.86099;-1.07297;0.0702957;0.100297;2.55298;1.79808;1.06894;
-5.3691;1.93815;4.86568;-1.07322;0.0697819;0.0984154;2.55844;1.79989;1.06909;
-5.37444;1.93871;4.87035;-1.07347;0.0692696;0.0965369;2.56389;1.8017;1.06923;
-5.37976;1.93928;4.875;-1.07372;0.068759;0.0946613;2.56933;1.8035;1.06938;
-5.38507;1.93984;4.87963;-1.07397;0.0682499;0.0927887;2.57476;1.8053;1.06952;
-5.39036;1.9404;4.88425;-1.07421;0.0677424;0.0909191;2.58018;1.80709;1.06966;
-5.39564;1.94096;4.88884;-1.07445;0.0672364;0.0890525;2.5856;1.80887;1.0698;
-5.4009;1.94152;4.89342;-1.07469;0.066732;0.0871889;2.59101;1.81065;1.06994;
-5.40614;1.94207;4.89797;-1.07493;0.0662291;0.0853283;2.59641;1.81242;1.07008;
-5.41137;1.94263;4.90251;-1.07516;0.0657278;0.0834707;2.6018;1.81419;1.07022;
-5.41659;1.94318;4.90704;-1.07539;0.0652279;0.0816161;2.60718;1.81595;1.07035;
-5.42179;1.94372;4.91154;-1.07562;0.0647296;0.0797646;2.61256;1.81771;1.07048;
-5.42697;1.94427;4.91603;-1.07585;0.0642328;0.0779162;2.61793;1.81946;1.07061;
-5.43214;1.94482;4.92049;-1.07608;0.0637374;0.0760708;2.62329;1.82121;1.07074;
-5.4373;1.94536;4.92494;-1.0763;0.0632435;0.0742284;2.62864;1.82295;1.07087;
-5.44244;1.9459;4.92938;-1.07652;0.0627511;0.0723892;2.63398;1.82469;1.071;
-5.44756;1.94644;4.93379;-1.07674;0.0622602;0.070553;2.63931;1.82642;1.07112;
-5.45267;1.94697;4.93819;-1.07696;0.0617706;0.0687199;2.64464;1.82814;1.07125;
-5.45776;1.94751;4.94257;-1.07717;0.0612826;0.0668899;2.64996;1.82986;1.07137;
-5.46284;1.94804;4.94693;-1.07739;0.0607959;0.065063;2.65527;1.83157;1.07149;
-5.46791;1.94857;4.95127;-1.0776;0.0603107;0.0632393;2.66057;1.83328;1.07161;
-5.47296;1.9491;4.9556;-1.07781;0.0598268;0.0614186;2.66586;1.83499;1.07173;
-5.478;1.94963;4.95991;-1.07801;0.0593444;0.0596011;2.67115;1.83669;1.07184;
-5.48302;1.95015;4.96421;-1.07822;0.0588633;0.0577867;2.67643;1.83838;1.07196;
-5.48803;1.95067;4.96849;-1.07842;0.0583837;0.0559755;2.6817;1.84007;1.07207;
-5.49302;1.9512;4.97275;-1.07862;0.0579054;0.0541674;2.68696;1.84175;1.07218;
-5.498;1.95172;4.97699;-1.07882;0.0574284;0.0523625;2.69221;1.84343;1.0723;
-5.50296;1.95223;4.98122;-1.07902;0.0569528;0.0505608;2.69746;1.8451;1.07241;
-5.50791;1.95275;4.98543;-1.07922;0.0564785;0.0487622;2.7027;1.84677;1.07251;
-5.51285;1.95326;4.98962;-1.07941;0.0560056;0.0469668;2.70793;1.84843;1.07262;
-5.51777;1.95378;4.9938;-1.0796;0.055534;0.0451746;2.71315;1.85009;1.07273;
-5.52268;1.95429;4.99796;-1.07979;0.0550637;0.0433856;2.71836;1.85174;1.07283;
-5.52757;1.9548;5.0021;-1.07998;0.0545947;0.0415997;2.72357;1.85339;1.07294;
-5.53245;1.9553;5.00623;-1.08017;0.054127;0.0398171;2.72877;1.85504;1.07304;
-5.53732;1.95581;5.01035;-1.08035;0.0536606;0.0380377;2.73396;1.85667;1.07314;
-5.54217;1.95631;5.01444;-1.08054;0.0531954;0.0362615;2.73914;1.85831;1.07324;
-5.54701;1.95681;5.01852;-1.08072;0.0527316;0.0344885;2.74431;1.85994;1.07334;
-5.55184;1.95731;5.02259;-1.0809;0.0522689;0.0327187;2.74948;1.86156;1.07344;
-5.55665;1.95781;5.02664;-1.08108;0.0518076;0.0309522;2.75464;1.86318;1.07354;
-5.56145;1.95831;5.03067;-1.08126;0.0513474;0.0291889;2.75979;1.86479;1.07363;
-5.56623;1.95881;5.03469;-1.08143;0.0508885;0.0274288;2.76493;1.8664;1.07373;
-5.571;1.9593;5.03869;-1.08161;0.0504309;0.025672;2.77007;1.86801;1.07382;
-5.57576;1.95979;5.04268;-1.08178;0.0499744;0.0239184;2.77519;1.8696;1.07391;
-5.5805;1.96028;5.04665;-1.08195;0.0495192;0.022168;2.78031;1.8712;1.074;
-5.58523;1.96077;5.0506;-1.08212;0.0490651;0.020421;2.78542;1.87279;1.07409;
-5.58995;1.96126;5.05455;-1.08229;0.0486123;0.0186771;2.79053;1.87438;1.07418;
-5.59466;1.96175;5.05847;-1.08245;0.0481606;0.0169366;2.79562;1.87596;1.07427;
-5.59935;1.96223;5.06238;-1.08262;0.0477101;0.0151993;2.80071;1.87753;1.07436;
-5.60403;1.96271;5.06628;-1.08278;0.0472608;0.0134653;2.80579;1.8791;1.07444;
-5.60869;1.96319;5.07016;-1.08294;0.0468126;0.0117345;2.81087;1.88067;1.07453;
-5.61334;1.96367;5.07402;-1.0831;0.0463656;0.010007;2.81593;1.88223;1.07461;
-5.61798;1.96415;5.07788;-1.08326;0.0459197;0.00828286;2.82099;1.88379;1.07469;
-5.62261;1.96463;5.08171;-1.08342;0.045475;0.00656195;2.82604;1.88534;1.07477;
-5.62722;1.96511;5.08553;-1.08357;0.0450314;0.00484432;2.83108;1.88689;1.07486;
-5.63183;1.96558;5.08934;-1.08373;0.0445889;0.00312999;2.83611;1.88844;1.07494;
-5.63641;1.96605;5.09313;-1.08388;0.0441475;0.00141894;2.84114;1.88997;1.07501;
-5.64099;1.96652;5.09691;-1.08403;0.0437072;-0.000288805;2.84616;1.89151;1.07509;
-5.64555;1.96699;5.10067;-1.08418;0.043268;-0.00199326;2.85117;1.89304;1.07517;
-5.6501;1.96746;5.10442;-1.08433;0.0428299;-0.00369441;2.85617;1.89457;1.07525;
-5.65464;1.96793;5.10816;-1.08448;0.0423929;-0.00539226;2.86117;1.89609;1.07532;
-5.65917;1.96839;5.11188;-1.08463;0.041957;-0.00708681;2.86616;1.89761;1.07539;
-5.66368;1.96886;5.11559;-1.08477;0.0415221;-0.00877805;2.87114;1.89912;1.07547;
-5.66818;1.96932;5.11928;-1.08492;0.0410883;-0.010466;2.87611;1.90063;1.07554;
-5.67267;1.96978;5.12296;-1.08506;0.0406556;-0.0121506;2.88108;1.90213;1.07561;
-5.67714;1.97024;5.12662;-1.0852;0.0402239;-0.0138319;2.88603;1.90363;1.07568;
-5.68161;1.9707;5.13027;-1.08534;0.0397932;-0.0155099;2.89098;1.90513;1.07575;
-5.68606;1.97115;5.13391;-1.08548;0.0393636;-0.0171846;2.89593;1.90662;1.07582;
-5.6905;1.97161;5.13754;-1.08562;0.038935;-0.0188559;2.90086;1.9081;1.07589;
-5.69493;1.97206;5.14115;-1.08576;0.0385074;-0.020524;2.90579;1.90959;1.07596;
-5.69934;1.97252;5.14474;-1.08589;0.0380808;-0.0221887;2.91071;1.91106;1.07602;
-5.70374;1.97297;5.14832;-1.08603;0.0376552;-0.0238501;2.91562;1.91254;1.07609;
-5.70814;1.97342;5.15189;-1.08616;0.0372306;-0.0255082;2.92053;1.91401;1.07615;
-5.71251;1.97387;5.15545;-1.08629;0.036807;-0.027163;2.92543;1.91547;1.07622;
-5.71688;1.97432;5.15899;-1.08643;0.0363844;-0.0288144;2.93032;1.91694;1.07628;
-5.72124;1.97476;5.16252;-1.08656;0.0359628;-0.0304625;2.9352;1.91839;1.07634;
-5.72558;1.97521;5.16604;-1.08669;0.0355421;-0.0321073;2.94008;1.91985;1.07641;
-5.72991;1.97565;5.16954;-1.08681;0.0351224;-0.0337487;2.94494;1.9213;1.07647;
-5.73423;1.97609;5.17303;-1.08694;0.0347036;-0.0353869;2.9498;1.92274;1.07653;
-5.73854;1.97654;5.17651;-1.08707;0.0342858;-0.0370217;2.95466;1.92418;1.07659;
-5.74284;1.97698;5.17997;-1.08719;0.033869;-0.0386531;2.9595;1.92562;1.07665;
-5.74713;1.97741;5.18342;-1.08731;0.0334531;-0.0402813;2.96434;1.92705;1.0767;
-5.7514;1.97785;5.18686;-1.08744;0.0330381;-0.0419061;2.96917;1.92848;1.07676;
-5.75566;1.97829;5.19029;-1.08756;0.032624;-0.0435276;2.974;1.9299;1.07682;
-5.75992;1.97872;5.1937;-1.08768;0.0322108;-0.0451458;2.97881;1.93132;1.07687;
-5.76416;1.97916;5.1971;-1.0878;0.0317986;-0.0467606;2.98362;1.93274;1.07693;
-5.76838;1.97959;5.20049;-1.08792;0.0313873;-0.0483721;2.98842;1.93415;1.07698;
-5.7726;1.98002;5.20386;-1.08804;0.0309768;-0.0499803;2.99322;1.93556;1.07704;
-5.77681;1.98045;5.20723;-1.08815;0.0305673;-0.0515851;2.998;1.93697;1.07709;
-5.781;1.98088;5.21058;-1.08827;0.0301586;-0.0531866;3.00278;1.93837;1.07714;
-5.78519;1.98131;5.21391;-1.08838;0.0297509;-0.0547848;3.00756;1.93976;1.0772;
-5.78936;1.98174;5.21724;-1.0885;0.029344;-0.0563797;3.01232;1.94116;1.07725;
-5.79352;1.98216;5.22055;-1.08861;0.0289379;-0.0579712;3.01708;1.94255;1.0773;
-5.79767;1.98259;5.22385;-1.08872;0.0285328;-0.0595594;3.02183;1.94393;1.07735;
-5.80181;1.98301;5.22714;-1.08883;0.0281285;-0.0611443;3.02657;1.94531;1.0774;
-5.80594;1.98343;5.23042;-1.08895;0.027725;-0.0627259;3.03131;1.94669;1.07745;
-5.81006;1.98385;5.23368;-1.08906;0.0273224;-0.0643041;3.03604;1.94806;1.07749;
-5.81416;1.98427;5.23694;-1.08916;0.0269206;-0.065879;3.04076;1.94943;1.07754;
-5.81826;1.98469;5.24018;-1.08927;0.0265197;-0.0674506;3.04547;1.9508;1.07759;
-5.82234;1.98511;5.24341;-1.08938;0.0261196;-0.0690189;3.05018;1.95216;1.07764;
-5.82642;1.98553;5.24662;-1.08949;0.0257203;-0.0705838;3.05488;1.95352;1.07768;
-5.83048;1.98594;5.24983;-1.08959;0.0253218;-0.0721455;3.05957;1.95487;1.07773;
-5.83454;1.98636;5.25302;-1.0897;0.0249241;-0.0737038;3.06426;1.95622;1.07777;
-5.83858;1.98677;5.2562;-1.0898;0.0245273;-0.0752588;3.06894;1.95757;1.07782;
-5.84261;1.98718;5.25937;-1.0899;0.0241312;-0.0768105;3.07361;1.95891;1.07786;
-5.84663;1.98759;5.26253;-1.09;0.023736;-0.0783588;3.07828;1.96025;1.0779;
-5.85064;1.988;5.26568;-1.09011;0.0233415;-0.0799039;3.08293;1.96159;1.07794;
-5.85464;1.98841;5.26882;-1.09021;0.0229478;-0.0814456;3.08758;1.96292;1.07799;
-5.85863;1.98882;5.27194;-1.09031;0.0225549;-0.0829841;3.09223;1.96425;1.07803;
-5.86261;1.98923;5.27505;-1.09041;0.0221627;-0.0845192;3.09686;1.96558;1.07807;
-5.86658;1.98963;5.27816;-1.0905;0.0217714;-0.086051;3.10149;1.9669;1.07811;
-5.87054;1.99004;5.28125;-1.0906;0.0213808;-0.0875796;3.10611;1.96821;1.07815;
-5.87449;1.99044;5.28433;-1.0907;0.0209909;-0.0891048;3.11073;1.96953;1.07819;
-5.87842;1.99084;5.2874;-1.0908;0.0206018;-0.0906267;3.11534;1.97084;1.07823;
-5.88235;1.99125;5.29045;-1.09089;0.0202135;-0.0921453;3.11994;1.97215;1.07827;
-5.88627;1.99165;5.2935;-1.09099;0.0198259;-0.0936607;3.12453;1.97345;1.0783;
-5.89018;1.99205;5.29653;-1.09108;0.019439;-0.0951727;3.12912;1.97475;1.07834;
-5.89407;1.99245;5.29956;-1.09117;0.0190529;-0.0966815;3.1337;1.97605;1.07838;
-5.89796;1.99284;5.30257;-1.09127;0.0186674;-0.0981869;3.13827;1.97734;1.07841;
-5.90184;1.99324;5.30557;-1.09136;0.0182828;-0.0996891;3.14284;1.97863;1.07845;
-5.90571;1.99364;5.30857;-1.09145;0.0178988;-0.101188;3.1474;1.97991;1.07849;
-5.90956;1.99403;5.31155;-1.09154;0.0175155;-0.102684;3.15195;1.9812;1.07852;
-5.91341;1.99442;5.31452;-1.09163;0.017133;-0.104176;3.15649;1.98247;1.07856;
-5.91725;1.99482;5.31748;-1.09172;0.0167511;-0.105665;3.16103;1.98375;1.07859;
-5.92108;1.99521;5.32043;-1.09181;0.01637;-0.107151;3.16556;1.98502;1.07862;
-5.92489;1.9956;5.32337;-1.0919;0.0159895;-0.108633;3.17009;1.98629;1.07866;
-5.9287;1.99599;5.32629;-1.09199;0.0156098;-0.110112;3.17461;1.98755;1.07869;
-5.9325;1.99638;5.32921;-1.09208;0.0152307;-0.111588;3.17912;1.98882;1.07872;
-5.93629;1.99677;5.33212;-1.09216;0.0148523;-0.113061;3.18362;1.99007;1.07876;
-5.94007;1.99715;5.33502;-1.09225;0.0144745;-0.114531;3.18812;1.99133;1.07879;
-5.94384;1.99754;5.3379;-1.09233;0.0140975;-0.115997;3.19261;1.99258;1.07882;
-5.9476;1.99792;5.34078;-1.09242;0.0137211;-0.11746;3.19709;1.99383;1.07885;
-5.95135;1.99831;5.34364;-1.0925;0.0133454;-0.118919;3.20157;1.99507;1.07888;
-5.95509;1.99869;5.3465;-1.09259;0.0129703;-0.120376;3.20604;1.99631;1.07891;
-5.95882;1.99907;5.34935;-1.09267;0.0125959;-0.121829;3.2105;1.99755;1.07894;
-5.96254;1.99946;5.35218;-1.09275;0.0122221;-0.123279;3.21496;1.99879;1.07897;
-5.96625;1.99984;5.35501;-1.09284;0.0118489;-0.124725;3.21941;2.00002;1.079;
-5.96996;2.00022;5.35782;-1.09292;0.0114764;-0.126169;3.22385;2.00125;1.07903;
-5.97365;2.00059;5.36063;-1.093;0.0111046;-0.127609;3.22828;2.00247;1.07906;
-5.97733;2.00097;5.36342;-1.09308;0.0107334;-0.129046;3.23271;2.00369;1.07909;
-5.98101;2.00135;5.36621;-1.09316;0.0103628;-0.13048;3.23714;2.00491;1.07911;
-5.98467;2.00173;5.36899;-1.09324;0.00999278;-0.13191;3.24155;2.00612;1.07914;
-5.98833;2.0021;5.37175;-1.09332;0.00962342;-0.133338;3.24596;2.00734;1.07917;
-5.99197;2.00248;5.37451;-1.0934;0.00925467;-0.134762;3.25036;2.00854;1.07919;
-5.99561;2.00285;5.37725;-1.09348;0.00888654;-0.136183;3.25476;2.00975;1.07922;
-5.99924;2.00322;5.37999;-1.09355;0.008519;-0.1376;3.25915;2.01095;1.07925;
-6.00286;2.00359;5.38272;-1.09363;0.00815207;-0.139015;3.26353;2.01215;1.07927;
-6.00647;2.00396;5.38544;-1.09371;0.00778574;-0.140426;3.2679;2.01335;1.0793;
-6.01007;2.00433;5.38815;-1.09378;0.00742;-0.141834;3.27227;2.01454;1.07932;
-6.01366;2.0047;5.39084;-1.09386;0.00705485;-0.143239;3.27664;2.01573;1.07935;
-6.01725;2.00507;5.39353;-1.09393;0.00669029;-0.14464;3.28099;2.01691;1.07937;
-6.02082;2.00544;5.39621;-1.09401;0.0063263;-0.146039;3.28534;2.0181;1.0794;
-6.02439;2.0058;5.39888;-1.09408;0.0059629;-0.147434;3.28968;2.01928;1.07942;
-6.02794;2.00617;5.40155;-1.09416;0.00560007;-0.148826;3.29402;2.02045;1.07945;
-6.03149;2.00653;5.4042;-1.09423;0.0052378;-0.150215;3.29835;2.02163;1.07947;
-6.03503;2.0069;5.40684;-1.09431;0.00487611;-0.151601;3.30267;2.0228;1.07949;
-6.03856;2.00726;5.40947;-1.09438;0.00451498;-0.152983;3.30699;2.02397;1.07951;
-6.04208;2.00762;5.4121;-1.09445;0.0041544;-0.154363;3.3113;2.02513;1.07954;
-6.04559;2.00799;5.41471;-1.09452;0.00379438;-0.155739;3.3156;2.02629;1.07956;
-6.0491;2.00835;5.41732;-1.09459;0.00343492;-0.157112;3.3199;2.02745;1.07958;
-6.05259;2.00871;5.41992;-1.09467;0.00307599;-0.158482;3.32419;2.02861;1.0796;
-6.05608;2.00907;5.42251;-1.09474;0.00271762;-0.159849;3.32847;2.02976;1.07963;
-6.05955;2.00942;5.42508;-1.09481;0.00235978;-0.161212;3.33275;2.03091;1.07965;
-6.06302;2.00978;5.42765;-1.09488;0.00200248;-0.162573;3.33702;2.03205;1.07967;
-6.06648;2.01014;5.43022;-1.09495;0.00164572;-0.16393;3.34128;2.0332;1.07969;
-6.06994;2.01049;5.43277;-1.09502;0.00128948;-0.165284;3.34554;2.03434;1.07971;
-6.07338;2.01085;5.43531;-1.09509;0.000933772;-0.166635;3.34979;2.03548;1.07973;
-6.07681;2.0112;5.43785;-1.09515;0.000578584;-0.167983;3.35403;2.03661;1.07975;
-6.08024;2.01156;5.44037;-1.09522;0.000223916;-0.169328;3.35827;2.03774;1.07977;
-6.08366;2.01191;5.44289;-1.09529;-0.000130236;-0.17067;3.3625;2.03887;1.07979;
-6.08707;2.01226;5.4454;-1.09536;-0.000483876;-0.172008;3.36673;2.04;1.07981;
-6.09047;2.01261;5.4479;-1.09543;-0.000837007;-0.173344;3.37095;2.04112;1.07983;
-6.09386;2.01296;5.45039;-1.09549;-0.00118963;-0.174676;3.37516;2.04224;1.07985;
-6.09725;2.01331;5.45287;-1.09556;-0.00154175;-0.176005;3.37937;2.04335;1.07987;
-6.10062;2.01366;5.45535;-1.09563;-0.00189338;-0.177331;3.38357;2.04447;1.07989;
-6.10399;2.01401;5.45781;-1.09569;-0.00224451;-0.178654;3.38776;2.04558;1.0799;
-6.10735;2.01436;5.46027;-1.09576;-0.00259514;-0.179974;3.39195;2.04669;1.07992;
-6.1107;2.0147;5.46272;-1.09582;-0.00294529;-0.181291;3.39613;2.04779;1.07994;
-6.11405;2.01505;5.46516;-1.09589;-0.00329495;-0.182605;3.4003;2.0489;1.07996;
-6.11738;2.01539;5.46759;-1.09595;-0.00364413;-0.183916;3.40447;2.05;1.07998;
-6.12071;2.01574;5.47002;-1.09602;-0.00399283;-0.185223;3.40863;2.05109;1.07999;
-6.12403;2.01608;5.47243;-1.09608;-0.00434105;-0.186528;3.41279;2.05219;1.08001;
-6.12734;2.01642;5.47484;-1.09615;-0.00468879;-0.187829;3.41694;2.05328;1.08003;
-6.13064;2.01677;5.47724;-1.09621;-0.00503607;-0.189128;3.42108;2.05437;1.08005;
-6.13393;2.01711;5.47963;-1.09627;-0.00538288;-0.190423;3.42522;2.05545;1.08006;
-6.13722;2.01745;5.48201;-1.09634;-0.00572923;-0.191715;3.42935;2.05653;1.08008;
-6.1405;2.01779;5.48439;-1.0964;-0.00607511;-0.193005;3.43347;2.05761;1.0801;
-6.14377;2.01813;5.48675;-1.09646;-0.00642054;-0.194291;3.43759;2.05869;1.08011;
-6.14703;2.01846;5.48911;-1.09652;-0.00676551;-0.195574;3.4417;2.05977;1.08013;
-6.15029;2.0188;5.49146;-1.09659;-0.00711003;-0.196854;3.44581;2.06084;1.08014;
-6.15354;2.01914;5.4938;-1.09665;-0.0074541;-0.198131;3.44991;2.06191;1.08016;
-6.15678;2.01948;5.49614;-1.09671;-0.00779772;-0.199406;3.454;2.06297;1.08018;
-6.16001;2.01981;5.49847;-1.09677;-0.0081409;-0.200677;3.45809;2.06404;1.08019;
-6.16323;2.02015;5.50079;-1.09683;-0.00848364;-0.201945;3.46217;2.0651;1.08021;
-6.16645;2.02048;5.5031;-1.09689;-0.00882594;-0.20321;3.46624;2.06616;1.08022;
-6.16966;2.02081;5.5054;-1.09695;-0.00916781;-0.204472;3.47031;2.06721;1.08024;
-6.17286;2.02115;5.50769;-1.09701;-0.00950924;-0.205731;3.47437;2.06826;1.08025;
-6.17605;2.02148;5.50998;-1.09708;-0.00985025;-0.206987;3.47843;2.06931;1.08027;
-6.17923;2.02181;5.51226;-1.09713;-0.0101908;-0.20824;3.48248;2.07036;1.08028;
-6.18241;2.02214;5.51453;-1.09719;-0.010531;-0.20949;3.48652;2.07141;1.0803;
-6.18558;2.02247;5.5168;-1.09725;-0.0108707;-0.210737;3.49056;2.07245;1.08031;
-6.18874;2.0228;5.51906;-1.09731;-0.01121;-0.211981;3.49459;2.07349;1.08033;
-6.1919;2.02313;5.52131;-1.09737;-0.0115489;-0.213223;3.49861;2.07452;1.08034;
-6.19505;2.02345;5.52355;-1.09743;-0.0118874;-0.214461;3.50263;2.07556;1.08035;
-6.19819;2.02378;5.52578;-1.09749;-0.0122255;-0.215696;3.50665;2.07659;1.08037;
-6.20132;2.02411;5.52801;-1.09755;-0.0125632;-0.216928;3.51065;2.07762;1.08038;
-6.20444;2.02443;5.53023;-1.09761;-0.0129004;-0.218158;3.51466;2.07865;1.0804;
-6.20756;2.02476;5.53244;-1.09767;-0.0132373;-0.219384;3.51865;2.07967;1.08041;
-6.21067;2.02508;5.53465;-1.09772;-0.0135737;-0.220607;3.52264;2.08069;1.08042;
-6.21377;2.02541;5.53684;-1.09778;-0.0139098;-0.221828;3.52662;2.08171;1.08044;
-6.21687;2.02573;5.53903;-1.09784;-0.0142455;-0.223046;3.5306;2.08272;1.08045;
-6.21996;2.02605;5.54121;-1.0979;-0.0145807;-0.22426;3.53457;2.08374;1.08047;
-6.22304;2.02637;5.54339;-1.09795;-0.0149156;-0.225472;3.53854;2.08475;1.08048;
-6.22611;2.02669;5.54556;-1.09801;-0.0152501;-0.226681;3.54249;2.08576;1.08049;
-6.22918;2.02701;5.54772;-1.09807;-0.0155842;-0.227887;3.54645;2.08676;1.0805;
-6.23223;2.02733;5.54987;-1.09812;-0.0159179;-0.22909;3.55039;2.08777;1.08052;
-6.23529;2.02765;5.55202;-1.09818;-0.0162513;-0.23029;3.55434;2.08877;1.08053;
-6.23833;2.02797;5.55416;-1.09824;-0.0165842;-0.231487;3.55827;2.08977;1.08054;
-6.24137;2.02829;5.55629;-1.09829;-0.0169168;-0.232681;3.5622;2.09076;1.08056;
-6.2444;2.02861;5.55842;-1.09835;-0.0172491;-0.233873;3.56612;2.09176;1.08057;
-6.24742;2.02892;5.56053;-1.0984;-0.0175809;-0.235061;3.57004;2.09275;1.08058;
-6.25044;2.02924;5.56264;-1.09846;-0.0179124;-0.236247;3.57395;2.09373;1.0806;
-6.25344;2.02955;5.56475;-1.09852;-0.0182435;-0.237429;3.57786;2.09472;1.08061;
-6.25645;2.02987;5.56685;-1.09857;-0.0185742;-0.238609;3.58176;2.0957;1.08062;
-6.25944;2.03018;5.56894;-1.09863;-0.0189046;-0.239786;3.58565;2.09668;1.08063;
-6.26243;2.03049;5.57102;-1.09868;-0.0192346;-0.240961;3.58954;2.09766;1.08065;
-6.26541;2.03081;5.5731;-1.09874;-0.0195643;-0.242132;3.59342;2.09864;1.08066;
-6.26838;2.03112;5.57517;-1.09879;-0.0198936;-0.2433;3.5973;2.09961;1.08067;
-6.27135;2.03143;5.57723;-1.09885;-0.0202226;-0.244466;3.60117;2.10058;1.08068;
-6.27431;2.03174;5.57928;-1.0989;-0.0205512;-0.245629;3.60503;2.10155;1.08069;
-6.27726;2.03205;5.58133;-1.09895;-0.0208794;-0.246789;3.60889;2.10252;1.08071;
-6.28021;2.03236;5.58338;-1.09901;-0.0212074;-0.247946;3.61274;2.10348;1.08072;
-6.28314;2.03267;5.58541;-1.09906;-0.0215349;-0.2491;3.61659;2.10444;1.08073;
-6.28608;2.03298;5.58744;-1.09912;-0.0218622;-0.250252;3.62043;2.1054;1.08074;
-6.289;2.03328;5.58946;-1.09917;-0.022189;-0.2514;3.62427;2.10636;1.08075;
-6.29192;2.03359;5.59148;-1.09922;-0.0225156;-0.252546;3.6281;2.10732;1.08077;
-6.29483;2.0339;5.59349;-1.09928;-0.0228418;-0.253689;3.63192;2.10827;1.08078;
-6.29774;2.0342;5.59549;-1.09933;-0.0231677;-0.25483;3.63574;2.10922;1.08079;
-6.30063;2.03451;5.59749;-1.09939;-0.0234932;-0.255967;3.63955;2.11016;1.0808;
-6.30353;2.03481;5.59947;-1.09944;-0.0238184;-0.257102;3.64336;2.11111;1.08081;
-6.30641;2.03512;5.60146;-1.09949;-0.0241433;-0.258234;3.64716;2.11205;1.08083;
-6.30929;2.03542;5.60343;-1.09955;-0.0244679;-0.259363;3.65095;2.11299;1.08084;
-6.31216;2.03572;5.6054;-1.0996;-0.0247921;-0.260489;3.65474;2.11393;1.08085;
-6.31502;2.03603;5.60737;-1.09965;-0.025116;-0.261613;3.65853;2.11487;1.08086;
-6.31788;2.03633;5.60932;-1.0997;-0.0254396;-0.262734;3.66231;2.1158;1.08087;
-6.32073;2.03663;5.61128;-1.09976;-0.0257629;-0.263852;3.66608;2.11673;1.08088;
-6.32358;2.03693;5.61322;-1.09981;-0.0260858;-0.264967;3.66984;2.11766;1.0809;
-6.32642;2.03723;5.61516;-1.09986;-0.0264085;-0.26608;3.67361;2.11859;1.08091;
-6.32925;2.03753;5.61709;-1.09992;-0.0267308;-0.26719;3.67736;2.11951;1.08092;
-6.33207;2.03782;5.61902;-1.09997;-0.0270528;-0.268297;3.68111;2.12043;1.08093;
-6.33489;2.03812;5.62093;-1.10002;-0.0273745;-0.269402;3.68485;2.12135;1.08094;
-6.3377;2.03842;5.62285;-1.10007;-0.0276959;-0.270503;3.68859;2.12227;1.08095;
-6.34051;2.03872;5.62475;-1.10012;-0.028017;-0.271602;3.69233;2.12319;1.08097;
-6.34331;2.03901;5.62666;-1.10018;-0.0283378;-0.272699;3.69605;2.1241;1.08098;
-6.3461;2.03931;5.62855;-1.10023;-0.0286583;-0.273792;3.69978;2.12501;1.08099;
-6.34889;2.0396;5.63044;-1.10028;-0.0289784;-0.274883;3.70349;2.12592;1.081;
-6.35167;2.0399;5.63232;-1.10033;-0.0292983;-0.275971;3.7072;2.12683;1.08101;
-6.35444;2.04019;5.6342;-1.10038;-0.0296179;-0.277057;3.71091;2.12773;1.08102;
-6.35721;2.04048;5.63607;-1.10044;-0.0299372;-0.278139;3.71461;2.12863;1.08104;
-6.35997;2.04078;5.63793;-1.10049;-0.0302562;-0.279219;3.7183;2.12953;1.08105;
-6.36273;2.04107;5.63979;-1.10054;-0.0305749;-0.280297;3.72199;2.13043;1.08106;
-6.36548;2.04136;5.64164;-1.10059;-0.0308933;-0.281372;3.72567;2.13132;1.08107;
-6.36822;2.04165;5.64349;-1.10064;-0.0312115;-0.282444;3.72935;2.13222;1.08108;
-6.37095;2.04194;5.64533;-1.10069;-0.0315293;-0.283513;3.73302;2.13311;1.08109;
-6.37368;2.04223;5.64716;-1.10074;-0.0318469;-0.28458;3.73669;2.134;1.08111;
-6.37641;2.04252;5.64899;-1.1008;-0.0321641;-0.285644;3.74035;2.13488;1.08112;
-6.37912;2.04281;5.65081;-1.10085;-0.0324811;-0.286706;3.744;2.13577;1.08113;
-6.38184;2.0431;5.65263;-1.1009;-0.0327978;-0.287764;3.74765;2.13665;1.08114;
-6.38454;2.04339;5.65444;-1.10095;-0.0331143;-0.288821;3.7513;2.13753;1.08115;
-6.38724;2.04367;5.65624;-1.101;-0.0334304;-0.289874;3.75493;2.13841;1.08116;
-6.38993;2.04396;5.65804;-1.10105;-0.0337463;-0.290925;3.75857;2.13929;1.08118;
-6.39262;2.04424;5.65984;-1.1011;-0.0340619;-0.291974;3.7622;2.14016;1.08119;
-6.3953;2.04453;5.66163;-1.10115;-0.0343772;-0.293019;3.76582;2.14103;1.0812;
-6.39797;2.04481;5.66341;-1.1012;-0.0346923;-0.294063;3.76943;2.1419;1.08121;
-6.40064;2.0451;5.66518;-1.10125;-0.0350071;-0.295103;3.77305;2.14277;1.08122;
-6.40331;2.04538;5.66695;-1.10131;-0.0353216;-0.296141;3.77665;2.14363;1.08123;
-6.40596;2.04567;5.66872;-1.10136;-0.0356358;-0.297176;3.78025;2.1445;1.08125;
-6.40861;2.04595;5.67048;-1.10141;-0.0359498;-0.298209;3.78385;2.14536;1.08126;
-6.41126;2.04623;5.67223;-1.10146;-0.0362635;-0.299239;3.78744;2.14622;1.08127;
-6.4139;2.04651;5.67398;-1.10151;-0.036577;-0.300267;3.79102;2.14708;1.08128;
-6.41653;2.04679;5.67572;-1.10156;-0.0368902;-0.301292;3.7946;2.14793;1.08129;
-6.41916;2.04707;5.67746;-1.10161;-0.0372031;-0.302314;3.79818;2.14878;1.08131;
-6.42178;2.04735;5.67919;-1.10166;-0.0375158;-0.303334;3.80174;2.14963;1.08132;
-6.42439;2.04763;5.68092;-1.10171;-0.0378282;-0.304352;3.80531;2.15048;1.08133;
-6.427;2.04791;5.68264;-1.10176;-0.0381404;-0.305366;3.80886;2.15133;1.08134;
-6.4296;2.04819;5.68435;-1.10181;-0.0384523;-0.306379;3.81242;2.15218;1.08135;
-6.4322;2.04847;5.68606;-1.10186;-0.038764;-0.307388;3.81596;2.15302;1.08137;
-6.43479;2.04874;5.68777;-1.10191;-0.0390754;-0.308396;3.81951;2.15386;1.08138;
-6.43738;2.04902;5.68947;-1.10196;-0.0393865;-0.3094;3.82304;2.1547;1.08139;
-6.43996;2.0493;5.69116;-1.10201;-0.0396974;-0.310402;3.82657;2.15554;1.0814;
-6.44253;2.04957;5.69285;-1.10206;-0.0400081;-0.311402;3.8301;2.15637;1.08142;
-6.4451;2.04985;5.69453;-1.10211;-0.0403185;-0.312399;3.83362;2.1572;1.08143;
-6.44766;2.05012;5.69621;-1.10216;-0.0406287;-0.313394;3.83714;2.15803;1.08144;
-6.45022;2.0504;5.69788;-1.10221;-0.0409386;-0.314386;3.84065;2.15886;1.08145;
-6.45277;2.05067;5.69955;-1.10226;-0.0412483;-0.315376;3.84415;2.15969;1.08147;
-6.45532;2.05094;5.70121;-1.10231;-0.0415577;-0.316363;3.84765;2.16051;1.08148;
-6.45786;2.05122;5.70287;-1.10236;-0.0418669;-0.317347;3.85114;2.16134;1.08149;
-6.46039;2.05149;5.70452;-1.10241;-0.0421759;-0.318329;3.85463;2.16216;1.0815;
-6.46292;2.05176;5.70616;-1.10246;-0.0424846;-0.319309;3.85812;2.16298;1.08152;
-6.46545;2.05203;5.7078;-1.10251;-0.0427931;-0.320286;3.8616;2.16379;1.08153;
-6.46796;2.0523;5.70944;-1.10256;-0.0431013;-0.321261;3.86507;2.16461;1.08154;
-6.47048;2.05257;5.71107;-1.10261;-0.0434093;-0.322233;3.86854;2.16542;1.08155;
-6.47298;2.05284;5.7127;-1.10266;-0.0437171;-0.323203;3.872;2.16623;1.08157;
-6.47548;2.05311;5.71432;-1.10271;-0.0440247;-0.324171;3.87546;2.16704;1.08158;
-6.47798;2.05338;5.71593;-1.10276;-0.044332;-0.325136;3.87891;2.16785;1.08159;
-6.48047;2.05364;5.71754;-1.10281;-0.0446391;-0.326098;3.88236;2.16866;1.08161;
-6.48295;2.05391;5.71915;-1.10287;-0.0449459;-0.327058;3.8858;2.16946;1.08162;
-6.48543;2.05418;5.72075;-1.10292;-0.0452526;-0.328016;3.88924;2.17026;1.08163;
-6.48791;2.05444;5.72234;-1.10297;-0.045559;-0.328971;3.89267;2.17106;1.08165;
-6.49037;2.05471;5.72393;-1.10302;-0.0458652;-0.329924;3.8961;2.17186;1.08166;
-6.49284;2.05498;5.72552;-1.10307;-0.0461711;-0.330874;3.89952;2.17266;1.08167;
-6.49529;2.05524;5.7271;-1.10312;-0.0464768;-0.331822;3.90294;2.17345;1.08169;
-6.49774;2.0555;5.72867;-1.10317;-0.0467824;-0.332768;3.90635;2.17424;1.0817;
-6.50019;2.05577;5.73024;-1.10322;-0.0470876;-0.333711;3.90976;2.17503;1.08171;
-6.50263;2.05603;5.73181;-1.10327;-0.0473927;-0.334652;3.91316;2.17582;1.08173;
-6.50507;2.05629;5.73337;-1.10332;-0.0476976;-0.33559;3.91655;2.17661;1.08174;
-6.5075;2.05656;5.73493;-1.10337;-0.0480022;-0.336526;3.91994;2.17739;1.08176;
-6.50992;2.05682;5.73648;-1.10342;-0.0483066;-0.33746;3.92333;2.17817;1.08177;
-6.51234;2.05708;5.73802;-1.10347;-0.0486108;-0.338391;3.92671;2.17896;1.08178;
-6.51476;2.05734;5.73956;-1.10352;-0.0489148;-0.33932;3.93009;2.17974;1.0818;
-6.51717;2.0576;5.7411;-1.10357;-0.0492186;-0.340247;3.93346;2.18051;1.08181;
-6.51957;2.05786;5.74263;-1.10362;-0.0495221;-0.341171;3.93683;2.18129;1.08183;
-6.52197;2.05812;5.74416;-1.10367;-0.0498255;-0.342093;3.94019;2.18206;1.08184;
-6.52436;2.05838;5.74568;-1.10372;-0.0501286;-0.343012;3.94354;2.18283;1.08185;
-6.52675;2.05864;5.7472;-1.10377;-0.0504315;-0.343929;3.94689;2.1836;1.08187;
-6.52913;2.0589;5.74871;-1.10382;-0.0507343;-0.344844;3.95024;2.18437;1.08188;
-6.53151;2.05915;5.75022;-1.10387;-0.0510368;-0.345757;3.95358;2.18514;1.0819;
-6.53388;2.05941;5.75173;-1.10392;-0.0513391;-0.346667;3.95692;2.1859;1.08191;
-6.53625;2.05967;5.75322;-1.10397;-0.0516412;-0.347575;3.96025;2.18667;1.08193;
-6.53861;2.05992;5.75472;-1.10402;-0.051943;-0.34848;3.96358;2.18743;1.08194;
-6.54097;2.06018;5.75621;-1.10407;-0.0522447;-0.349384;3.9669;2.18819;1.08196;
-6.54332;2.06043;5.75769;-1.10412;-0.0525462;-0.350284;3.97021;2.18894;1.08197;
-6.54567;2.06069;5.75917;-1.10417;-0.0528475;-0.351183;3.97353;2.1897;1.08199;
-6.54801;2.06094;5.76065;-1.10422;-0.0531486;-0.352079;3.97683;2.19045;1.082;
-6.55035;2.0612;5.76212;-1.10427;-0.0534494;-0.352974;3.98013;2.19121;1.08202;
-6.55268;2.06145;5.76359;-1.10432;-0.0537501;-0.353865;3.98343;2.19196;1.08203;
-6.55501;2.0617;5.76505;-1.10437;-0.0540506;-0.354755;3.98672;2.19271;1.08205;
-6.55733;2.06195;5.76651;-1.10442;-0.0543509;-0.355642;3.99001;2.19345;1.08206;
-6.55964;2.06221;5.76796;-1.10447;-0.0546509;-0.356527;3.99329;2.1942;1.08208;
-6.56196;2.06246;5.76941;-1.10452;-0.0549508;-0.35741;3.99657;2.19494;1.08209;
-6.56426;2.06271;5.77086;-1.10457;-0.0552505;-0.35829;3.99984;2.19568;1.08211;
-6.56656;2.06296;5.7723;-1.10462;-0.05555;-0.359168;4.00311;2.19642;1.08213;
-6.56886;2.06321;5.77373;-1.10467;-0.0558493;-0.360044;4.00637;2.19716;1.08214;
-6.57115;2.06346;5.77516;-1.10472;-0.0561484;-0.360918;4.00963;2.1979;1.08216;
-6.57344;2.06371;5.77659;-1.10477;-0.0564473;-0.36179;4.01288;2.19863;1.08217;
-6.57572;2.06395;5.77801;-1.10482;-0.056746;-0.362659;4.01613;2.19937;1.08219;
-6.578;2.0642;5.77943;-1.10487;-0.0570445;-0.363526;4.01937;2.2001;1.0822;
-6.58027;2.06445;5.78085;-1.10492;-0.0573429;-0.364391;4.02261;2.20083;1.08222;
-6.58254;2.0647;5.78226;-1.10497;-0.057641;-0.365253;4.02584;2.20156;1.08224;
-6.5848;2.06494;5.78366;-1.10502;-0.057939;-0.366113;4.02907;2.20228;1.08225;
-6.58706;2.06519;5.78506;-1.10507;-0.0582367;-0.366972;4.0323;2.20301;1.08227;
-6.58931;2.06544;5.78646;-1.10512;-0.0585343;-0.367828;4.03552;2.20373;1.08229;
-6.59156;2.06568;5.78785;-1.10517;-0.0588317;-0.368681;4.03873;2.20445;1.0823;
-6.5938;2.06593;5.78924;-1.10522;-0.0591289;-0.369533;4.04194;2.20517;1.08232;
-6.59604;2.06617;5.79062;-1.10527;-0.0594259;-0.370382;4.04514;2.20589;1.08234;
-6.59827;2.06641;5.792;-1.10532;-0.0597228;-0.371229;4.04834;2.20661;1.08235;
-6.6005;2.06666;5.79338;-1.10537;-0.0600194;-0.372074;4.05154;2.20732;1.08237;
-6.60273;2.0669;5.79475;-1.10542;-0.0603159;-0.372917;4.05473;2.20803;1.08239;
-6.60494;2.06714;5.79612;-1.10548;-0.0606122;-0.373758;4.05792;2.20875;1.08241;
-6.60716;2.06738;5.79748;-1.10553;-0.0609083;-0.374597;4.0611;2.20946;1.08242;
-6.60937;2.06763;5.79884;-1.10558;-0.0612042;-0.375433;4.06427;2.21016;1.08244;
-6.61157;2.06787;5.8002;-1.10563;-0.0614999;-0.376267;4.06744;2.21087;1.08246;
-6.61377;2.06811;5.80155;-1.10568;-0.0617955;-0.377099;4.07061;2.21158;1.08248;
-6.61597;2.06835;5.80289;-1.10573;-0.0620909;-0.377929;4.07377;2.21228;1.08249;
-6.61816;2.06859;5.80424;-1.10578;-0.0623861;-0.378757;4.07693;2.21298;1.08251;
-6.62035;2.06883;5.80558;-1.10583;-0.0626811;-0.379583;4.08008;2.21368;1.08253;
-6.62253;2.06907;5.80691;-1.10588;-0.062976;-0.380406;4.08323;2.21438;1.08255;
-6.62471;2.0693;5.80824;-1.10593;-0.0632706;-0.381227;4.08638;2.21508;1.08256;
-6.62688;2.06954;5.80957;-1.10598;-0.0635651;-0.382047;4.08951;2.21577;1.08258;
-6.62905;2.06978;5.81089;-1.10603;-0.0638594;-0.382864;4.09265;2.21646;1.0826;
-6.63121;2.07002;5.81221;-1.10608;-0.0641536;-0.383679;4.09578;2.21716;1.08262;
-6.63337;2.07025;5.81352;-1.10614;-0.0644475;-0.384492;4.0989;2.21785;1.08264;
-6.63552;2.07049;5.81483;-1.10619;-0.0647413;-0.385303;4.10202;2.21854;1.08266;
-6.63767;2.07073;5.81614;-1.10624;-0.0650349;-0.386112;4.10514;2.21922;1.08268;
-6.63982;2.07096;5.81744;-1.10629;-0.0653284;-0.386918;4.10825;2.21991;1.08269;
-6.64196;2.0712;5.81874;-1.10634;-0.0656217;-0.387723;4.11136;2.22059;1.08271;
-6.64409;2.07143;5.82004;-1.10639;-0.0659148;-0.388525;4.11446;2.22128;1.08273;
-6.64623;2.07167;5.82133;-1.10644;-0.0662077;-0.389326;4.11756;2.22196;1.08275;
-6.64835;2.0719;5.82262;-1.10649;-0.0665005;-0.390124;4.12065;2.22264;1.08277;
-6.65048;2.07213;5.8239;-1.10654;-0.066793;-0.390921;4.12374;2.22331;1.08279;
-6.65259;2.07237;5.82518;-1.1066;-0.0670855;-0.391715;4.12682;2.22399;1.08281;
-6.65471;2.0726;5.82646;-1.10665;-0.0673777;-0.392507;4.1299;2.22466;1.08283;
-6.65682;2.07283;5.82773;-1.1067;-0.0676698;-0.393297;4.13297;2.22534;1.08285;
-6.65892;2.07306;5.829;-1.10675;-0.0679617;-0.394085;4.13604;2.22601;1.08287;
-6.66102;2.07329;5.83026;-1.1068;-0.0682535;-0.394872;4.13911;2.22668;1.08289;
-6.66312;2.07352;5.83152;-1.10685;-0.068545;-0.395656;4.14217;2.22735;1.08291;
-6.66521;2.07375;5.83278;-1.1069;-0.0688364;-0.396438;4.14523;2.22802;1.08293;
-6.6673;2.07398;5.83403;-1.10696;-0.0691277;-0.397218;4.14828;2.22868;1.08295;
-6.66938;2.07421;5.83528;-1.10701;-0.0694188;-0.397996;4.15133;2.22935;1.08297;
-6.67146;2.07444;5.83652;-1.10706;-0.0697097;-0.398771;4.15437;2.23001;1.08299;
-6.67353;2.07467;5.83777;-1.10711;-0.0700004;-0.399545;4.15741;2.23067;1.08301;
-6.6756;2.0749;5.839;-1.10716;-0.070291;-0.400317;4.16044;2.23133;1.08303;
-6.67767;2.07513;5.84024;-1.10721;-0.0705814;-0.401087;4.16347;2.23199;1.08305;
-6.67973;2.07535;5.84147;-1.10727;-0.0708717;-0.401855;4.16649;2.23264;1.08307;
-6.68178;2.07558;5.8427;-1.10732;-0.0711618;-0.402621;4.16951;2.2333;1.08309;
-6.68384;2.07581;5.84392;-1.10737;-0.0714517;-0.403385;4.17253;2.23395;1.08311;
-6.68589;2.07603;5.84514;-1.10742;-0.0717415;-0.404147;4.17554;2.2346;1.08313;
-6.68793;2.07626;5.84636;-1.10747;-0.0720311;-0.404907;4.17855;2.23526;1.08315;
-6.68997;2.07648;5.84757;-1.10752;-0.0723206;-0.405665;4.18155;2.2359;1.08317;
-6.692;2.07671;5.84878;-1.10758;-0.0726099;-0.406421;4.18455;2.23655;1.08319;
-6.69404;2.07693;5.84998;-1.10763;-0.072899;-0.407175;4.18754;2.2372;1.08322;
-6.69606;2.07716;5.85119;-1.10768;-0.073188;-0.407928;4.19053;2.23784;1.08324;
-6.69809;2.07738;5.85238;-1.10773;-0.0734768;-0.408678;4.19352;2.23849;1.08326;
-6.7001;2.0776;5.85358;-1.10778;-0.0737654;-0.409426;4.1965;2.23913;1.08328;
-6.70212;2.07783;5.85477;-1.10784;-0.0740539;-0.410172;4.19947;2.23977;1.0833;
-6.70413;2.07805;5.85596;-1.10789;-0.0743422;-0.410917;4.20244;2.24041;1.08332;
-6.70614;2.07827;5.85714;-1.10794;-0.0746304;-0.411659;4.20541;2.24105;1.08335;
-6.70814;2.07849;5.85832;-1.10799;-0.0749184;-0.412399;4.20837;2.24168;1.08337;
-6.71014;2.07871;5.8595;-1.10804;-0.0752063;-0.413138;4.21133;2.24232;1.08339;
-6.71213;2.07894;5.86067;-1.1081;-0.075494;-0.413875;4.21429;2.24295;1.08341;
-6.71412;2.07916;5.86184;-1.10815;-0.0757816;-0.414609;4.21724;2.24358;1.08344;
-6.7161;2.07938;5.86301;-1.1082;-0.0760689;-0.415342;4.22018;2.24421;1.08346;
-6.71809;2.0796;5.86418;-1.10825;-0.0763562;-0.416073;4.22312;2.24484;1.08348;
-6.72006;2.07981;5.86534;-1.10831;-0.0766433;-0.416802;4.22606;2.24547;1.0835;
-6.72204;2.08003;5.86649;-1.10836;-0.0769302;-0.417529;4.22899;2.24609;1.08353;
-6.72401;2.08025;5.86765;-1.10841;-0.077217;-0.418254;4.23192;2.24672;1.08355;
-6.72597;2.08047;5.8688;-1.10846;-0.0775036;-0.418978;4.23485;2.24734;1.08357;
-6.72793;2.08069;5.86994;-1.10852;-0.07779;-0.419699;4.23776;2.24796;1.0836;
-6.72989;2.0809;5.87108;-1.10857;-0.0780764;-0.420419;4.24068;2.24858;1.08362;
-6.73184;2.08112;5.87222;-1.10862;-0.0783625;-0.421136;4.24359;2.2492;1.08364;
-6.73379;2.08134;5.87336;-1.10867;-0.0786485;-0.421852;4.2465;2.24982;1.08367;
-6.73574;2.08155;5.87449;-1.10873;-0.0789344;-0.422566;4.2494;2.25044;1.08369;
-6.73768;2.08177;5.87562;-1.10878;-0.0792201;-0.423278;4.2523;2.25105;1.08371;
-6.73961;2.08198;5.87675;-1.10883;-0.0795056;-0.423988;4.25519;2.25167;1.08374;
-6.74155;2.0822;5.87787;-1.10889;-0.079791;-0.424697;4.25808;2.25228;1.08376;
-6.74348;2.08241;5.87899;-1.10894;-0.0800763;-0.425403;4.26097;2.25289;1.08378;
-6.7454;2.08263;5.88011;-1.10899;-0.0803614;-0.426108;4.26385;2.2535;1.08381;
-6.74732;2.08284;5.88122;-1.10904;-0.0806463;-0.426811;4.26672;2.25411;1.08383;
-6.74924;2.08305;5.88233;-1.1091;-0.0809311;-0.427512;4.2696;2.25471;1.08386;
-6.75115;2.08327;5.88344;-1.10915;-0.0812157;-0.428211;4.27246;2.25532;1.08388;
-6.75306;2.08348;5.88454;-1.1092;-0.0815002;-0.428908;4.27533;2.25592;1.08391;
-6.75497;2.08369;5.88564;-1.10926;-0.0817846;-0.429604;4.27819;2.25652;1.08393;
-6.75687;2.0839;5.88674;-1.10931;-0.0820688;-0.430298;4.28104;2.25713;1.08396;
-6.75877;2.08411;5.88784;-1.10936;-0.0823528;-0.430989;4.2839;2.25773;1.08398;
-6.76066;2.08432;5.88893;-1.10941;-0.0826367;-0.43168;4.28674;2.25832;1.084;
-6.76255;2.08454;5.89001;-1.10947;-0.0829205;-0.432368;4.28959;2.25892;1.08403;
-6.76444;2.08475;5.8911;-1.10952;-0.0832041;-0.433054;4.29243;2.25952;1.08406;
-6.76632;2.08495;5.89218;-1.10957;-0.0834875;-0.433739;4.29526;2.26011;1.08408;
-6.7682;2.08516;5.89326;-1.10963;-0.0837708;-0.434422;4.29809;2.26071;1.08411;
-6.77007;2.08537;5.89433;-1.10968;-0.084054;-0.435103;4.30092;2.2613;1.08413;
-6.77195;2.08558;5.8954;-1.10973;-0.084337;-0.435782;4.30374;2.26189;1.08416;
-6.77381;2.08579;5.89647;-1.10979;-0.0846199;-0.43646;4.30656;2.26248;1.08418;
-6.77568;2.086;5.89754;-1.10984;-0.0849026;-0.437136;4.30937;2.26307;1.08421;
-6.77754;2.08621;5.8986;-1.10989;-0.0851851;-0.43781;4.31218;2.26365;1.08423;
-6.77939;2.08641;5.89966;-1.10995;-0.0854676;-0.438482;4.31499;2.26424;1.08426;
-6.78124;2.08662;5.90072;-1.11;-0.0857498;-0.439152;4.31779;2.26482;1.08429;
-6.78309;2.08683;5.90177;-1.11006;-0.086032;-0.439821;4.32059;2.2654;1.08431;
-6.78494;2.08703;5.90282;-1.11011;-0.086314;-0.440488;4.32338;2.26599;1.08434;
-6.78678;2.08724;5.90387;-1.11016;-0.0865958;-0.441153;4.32617;2.26657;1.08437;
-6.78862;2.08744;5.90491;-1.11022;-0.0868775;-0.441817;4.32895;2.26715;1.08439;
-6.79045;2.08765;5.90595;-1.11027;-0.0871591;-0.442478;4.33174;2.26772;1.08442;
-6.79228;2.08785;5.90699;-1.11032;-0.0874405;-0.443138;4.33451;2.2683;1.08445;
-6.7941;2.08806;5.90803;-1.11038;-0.0877217;-0.443797;4.33729;2.26887;1.08447;
-6.79593;2.08826;5.90906;-1.11043;-0.0880028;-0.444453;4.34005;2.26945;1.0845;
-6.79775;2.08846;5.91009;-1.11049;-0.0882838;-0.445108;4.34282;2.27002;1.08453;
-6.79956;2.08866;5.91112;-1.11054;-0.0885646;-0.445761;4.34558;2.27059;1.08455;
-6.80137;2.08887;5.91214;-1.11059;-0.0888453;-0.446412;4.34834;2.27116;1.08458;
-6.80318;2.08907;5.91316;-1.11065;-0.0891259;-0.447062;4.35109;2.27173;1.08461;
-6.80498;2.08927;5.91418;-1.1107;-0.0894063;-0.44771;4.35384;2.2723;1.08464;
-6.80678;2.08947;5.91519;-1.11076;-0.0896865;-0.448356;4.35658;2.27286;1.08466;
-6.80858;2.08967;5.9162;-1.11081;-0.0899666;-0.449001;4.35932;2.27343;1.08469;
-6.81037;2.08987;5.91721;-1.11086;-0.0902466;-0.449644;4.36206;2.27399;1.08472;
-6.81216;2.09008;5.91822;-1.11092;-0.0905264;-0.450285;4.36479;2.27456;1.08475;
-6.81395;2.09028;5.91922;-1.11097;-0.0908061;-0.450924;4.36752;2.27512;1.08477;
-6.81573;2.09047;5.92022;-1.11103;-0.0910857;-0.451562;4.37025;2.27568;1.0848;
-6.81751;2.09067;5.92122;-1.11108;-0.0913651;-0.452198;4.37297;2.27624;1.08483;
-6.81929;2.09087;5.92221;-1.11113;-0.0916443;-0.452833;4.37568;2.27679;1.08486;
-6.82106;2.09107;5.92321;-1.11119;-0.0919234;-0.453466;4.3784;2.27735;1.08489;
-6.82283;2.09127;5.92419;-1.11124;-0.0922024;-0.454097;4.38111;2.2779;1.08492;
-6.82459;2.09147;5.92518;-1.1113;-0.0924813;-0.454726;4.38381;2.27846;1.08494;
-6.82635;2.09166;5.92616;-1.11135;-0.0927599;-0.455354;4.38651;2.27901;1.08497;
-6.82811;2.09186;5.92714;-1.11141;-0.0930385;-0.45598;4.38921;2.27956;1.085;
-6.82987;2.09206;5.92812;-1.11146;-0.0933169;-0.456605;4.3919;2.28011;1.08503;
-6.83162;2.09225;5.9291;-1.11152;-0.0935952;-0.457228;4.39459;2.28066;1.08506;
-6.83336;2.09245;5.93007;-1.11157;-0.0938733;-0.457849;4.39727;2.28121;1.08509;
-6.83511;2.09265;5.93104;-1.11162;-0.0941513;-0.458469;4.39996;2.28176;1.08512;
-6.83685;2.09284;5.932;-1.11168;-0.0944291;-0.459087;4.40263;2.2823;1.08515;
-6.83858;2.09304;5.93297;-1.11173;-0.0947068;-0.459703;4.40531;2.28285;1.08518;
-6.84032;2.09323;5.93393;-1.11179;-0.0949844;-0.460318;4.40798;2.28339;1.08521;
-6.84205;2.09343;5.93489;-1.11184;-0.0952618;-0.460931;4.41064;2.28393;1.08524;
-6.84377;2.09362;5.93584;-1.1119;-0.0955391;-0.461542;4.4133;2.28447;1.08527;
-6.8455;2.09381;5.93679;-1.11195;-0.0958163;-0.462152;4.41596;2.28501;1.0853;
-6.84722;2.09401;5.93774;-1.11201;-0.0960933;-0.46276;4.41861;2.28555;1.08533;
-6.84893;2.0942;5.93869;-1.11206;-0.0963701;-0.463367;4.42126;2.28609;1.08536;
-6.85065;2.09439;5.93964;-1.11212;-0.0966469;-0.463972;4.42391;2.28662;1.08539;
-6.85235;2.09458;5.94058;-1.11217;-0.0969235;-0.464576;4.42655;2.28716;1.08542;
-6.85406;2.09478;5.94152;-1.11223;-0.0971999;-0.465178;4.42919;2.28769;1.08545;
-6.85576;2.09497;5.94245;-1.11228;-0.0974762;-0.465778;4.43182;2.28822;1.08548;
-6.85746;2.09516;5.94339;-1.11234;-0.0977524;-0.466377;4.43446;2.28875;1.08551;
-6.85916;2.09535;5.94432;-1.11239;-0.0980284;-0.466974;4.43708;2.28928;1.08554;
-6.86085;2.09554;5.94525;-1.11245;-0.0983043;-0.467569;4.43971;2.28981;1.08557;
-6.86254;2.09573;5.94617;-1.1125;-0.0985801;-0.468163;4.44232;2.29034;1.0856;
-6.86423;2.09592;5.9471;-1.11256;-0.0988557;-0.468756;4.44494;2.29087;1.08563;
-6.86591;2.09611;5.94802;-1.11261;-0.0991311;-0.469347;4.44755;2.29139;1.08566;
-6.86759;2.0963;5.94894;-1.11267;-0.0994065;-0.469936;4.45016;2.29192;1.0857;
-6.86926;2.09649;5.94985;-1.11272;-0.0996817;-0.470524;4.45276;2.29244;1.08573;
-6.87094;2.09667;5.95076;-1.11278;-0.0999567;-0.47111;4.45536;2.29296;1.08576;
-6.87261;2.09686;5.95167;-1.11283;-0.100232;-0.471695;4.45796;2.29348;1.08579;
-6.87427;2.09705;5.95258;-1.11289;-0.100506;-0.472278;4.46055;2.294;1.08582;
-6.87593;2.09724;5.95349;-1.11294;-0.100781;-0.472859;4.46314;2.29452;1.08585;
-6.87759;2.09742;5.95439;-1.113;-0.101056;-0.473439;4.46573;2.29504;1.08589;
-6.87925;2.09761;5.95529;-1.11305;-0.10133;-0.474018;4.46831;2.29556;1.08592;
-6.8809;2.0978;5.95619;-1.11311;-0.101604;-0.474595;4.47088;2.29607;1.08595;
-6.88255;2.09798;5.95708;-1.11316;-0.101878;-0.47517;4.47346;2.29658;1.08598;
-6.8842;2.09817;5.95798;-1.11322;-0.102152;-0.475744;4.47603;2.2971;1.08601;
-6.88584;2.09835;5.95887;-1.11328;-0.102426;-0.476317;4.47859;2.29761;1.08605;
-6.88748;2.09854;5.95975;-1.11333;-0.1027;-0.476887;4.48116;2.29812;1.08608;
-6.88912;2.09872;5.96064;-1.11339;-0.102973;-0.477457;4.48371;2.29863;1.08611;
-6.89075;2.09891;5.96152;-1.11344;-0.103247;-0.478025;4.48627;2.29914;1.08614;
-6.89238;2.09909;5.9624;-1.1135;-0.10352;-0.478591;4.48882;2.29965;1.08618;
-6.89401;2.09927;5.96328;-1.11355;-0.103793;-0.479156;4.49137;2.30015;1.08621;
-6.89564;2.09946;5.96415;-1.11361;-0.104066;-0.479719;4.49391;2.30066;1.08624;
-6.89726;2.09964;5.96503;-1.11366;-0.104339;-0.480281;4.49645;2.30116;1.08628;
-6.89887;2.09982;5.9659;-1.11372;-0.104612;-0.480842;4.49899;2.30166;1.08631;
-6.90049;2.1;5.96677;-1.11378;-0.104884;-0.481401;4.50152;2.30217;1.08634;
-6.9021;2.10019;5.96763;-1.11383;-0.105157;-0.481958;4.50405;2.30267;1.08638;
-6.90371;2.10037;5.96849;-1.11389;-0.105429;-0.482514;4.50658;2.30317;1.08641;
-6.90531;2.10055;5.96935;-1.11394;-0.105701;-0.483069;4.5091;2.30367;1.08644;
-6.90692;2.10073;5.97021;-1.114;-0.105973;-0.483622;4.51162;2.30416;1.08648;
-6.90851;2.10091;5.97107;-1.11406;-0.106245;-0.484173;4.51413;2.30466;1.08651;
-6.91011;2.10109;5.97192;-1.11411;-0.106517;-0.484723;4.51664;2.30516;1.08654;
-6.9117;2.10127;5.97277;-1.11417;-0.106788;-0.485272;4.51915;2.30565;1.08658;
-6.91329;2.10145;5.97362;-1.11422;-0.10706;-0.485819;4.52165;2.30614;1.08661;
-6.91488;2.10163;5.97447;-1.11428;-0.107331;-0.486365;4.52415;2.30664;1.08665;
-6.91646;2.10181;5.97531;-1.11433;-0.107602;-0.486909;4.52665;2.30713;1.08668;
-6.91804;2.10199;5.97615;-1.11439;-0.107873;-0.487452;4.52914;2.30762;1.08671;
-6.91962;2.10217;5.97699;-1.11445;-0.108144;-0.487994;4.53163;2.30811;1.08675;
-6.92119;2.10234;5.97783;-1.1145;-0.108415;-0.488534;4.53411;2.30859;1.08678;
-6.92277;2.10252;5.97866;-1.11456;-0.108686;-0.489072;4.5366;2.30908;1.08682;
-6.92433;2.1027;5.9795;-1.11461;-0.108956;-0.489609;4.53907;2.30957;1.08685;
-6.9259;2.10287;5.98033;-1.11467;-0.109227;-0.490145;4.54155;2.31005;1.08689;
-6.92746;2.10305;5.98115;-1.11473;-0.109497;-0.490679;4.54402;2.31054;1.08692;
-6.92902;2.10323;5.98198;-1.11478;-0.109767;-0.491212;4.54649;2.31102;1.08696;
-6.93058;2.1034;5.9828;-1.11484;-0.110037;-0.491744;4.54895;2.3115;1.08699;
-6.93213;2.10358;5.98362;-1.1149;-0.110307;-0.492274;4.55141;2.31198;1.08703;
-6.93368;2.10375;5.98444;-1.11495;-0.110577;-0.492802;4.55387;2.31246;1.08706;
-6.93523;2.10393;5.98526;-1.11501;-0.110846;-0.49333;4.55632;2.31294;1.0871;
-6.93677;2.1041;5.98607;-1.11506;-0.111116;-0.493855;4.55877;2.31342;1.08713;
-6.93831;2.10428;5.98688;-1.11512;-0.111385;-0.49438;4.56121;2.31389;1.08717;
-6.93985;2.10445;5.98769;-1.11518;-0.111654;-0.494903;4.56366;2.31437;1.08721;
-6.94138;2.10463;5.9885;-1.11523;-0.111923;-0.495425;4.5661;2.31484;1.08724;
-6.94292;2.1048;5.9893;-1.11529;-0.112192;-0.495945;4.56853;2.31532;1.08728;
-6.94445;2.10497;5.99011;-1.11535;-0.112461;-0.496464;4.57096;2.31579;1.08731;
-6.94597;2.10515;5.99091;-1.1154;-0.112729;-0.496981;4.57339;2.31626;1.08735;
-6.94749;2.10532;5.99171;-1.11546;-0.112998;-0.497498;4.57582;2.31673;1.08739;
-6.94902;2.10549;5.9925;-1.11552;-0.113266;-0.498012;4.57824;2.3172;1.08742;
-6.95053;2.10566;5.99329;-1.11557;-0.113534;-0.498526;4.58065;2.31767;1.08746;
-6.95205;2.10583;5.99409;-1.11563;-0.113802;-0.499038;4.58307;2.31814;1.0875;
-6.95356;2.10601;5.99488;-1.11568;-0.11407;-0.499549;4.58548;2.3186;1.08753;
-6.95507;2.10618;5.99566;-1.11574;-0.114338;-0.500058;4.58789;2.31907;1.08757;
-6.95657;2.10635;5.99645;-1.1158;-0.114606;-0.500566;4.59029;2.31953;1.0876;
-6.95808;2.10652;5.99723;-1.11585;-0.114873;-0.501073;4.59269;2.32;1.08764;
-6.95958;2.10669;5.99801;-1.11591;-0.115141;-0.501578;4.59509;2.32046;1.08768;
-6.96107;2.10686;5.99879;-1.11597;-0.115408;-0.502082;4.59748;2.32092;1.08772;
-6.96257;2.10703;5.99957;-1.11602;-0.115675;-0.502584;4.59987;2.32138;1.08775;
-6.96406;2.1072;6.00034;-1.11608;-0.115942;-0.503086;4.60226;2.32184;1.08779;
-6.96555;2.10736;6.00111;-1.11614;-0.116209;-0.503586;4.60464;2.3223;1.08783;
-6.96703;2.10753;6.00188;-1.11619;-0.116475;-0.504084;4.60702;2.32276;1.08786;
-6.96852;2.1077;6.00265;-1.11625;-0.116742;-0.504582;4.60939;2.32321;1.0879;
-6.97;2.10787;6.00342;-1.11631;-0.117008;-0.505077;4.61177;2.32367;1.08794;
-6.97147;2.10804;6.00418;-1.11636;-0.117275;-0.505572;4.61414;2.32413;1.08798;
-6.97295;2.1082;6.00494;-1.11642;-0.117541;-0.506065;4.6165;2.32458;1.08802;
-6.97442;2.10837;6.0057;-1.11648;-0.117807;-0.506557;4.61886;2.32503;1.08805;
-6.97589;2.10854;6.00646;-1.11653;-0.118073;-0.507048;4.62122;2.32548;1.08809;
-6.97736;2.1087;6.00722;-1.11659;-0.118338;-0.507538;4.62358;2.32593;1.08813;
-6.97882;2.10887;6.00797;-1.11665;-0.118604;-0.508026;4.62593;2.32638;1.08817;
-6.98028;2.10903;6.00872;-1.1167;-0.118869;-0.508512;4.62828;2.32683;1.08821;
-6.98174;2.1092;6.00947;-1.11676;-0.119135;-0.508998;4.63062;2.32728;1.08824;
-6.98319;2.10936;6.01022;-1.11682;-0.1194;-0.509482;4.63297;2.32773;1.08828;
-6.98464;2.10953;6.01096;-1.11688;-0.119665;-0.509965;4.6353;2.32817;1.08832;
-6.98609;2.10969;6.0117;-1.11693;-0.11993;-0.510447;4.63764;2.32862;1.08836;
-6.98754;2.10986;6.01245;-1.11699;-0.120194;-0.510927;4.63997;2.32906;1.0884;
-6.98898;2.11002;6.01318;-1.11705;-0.120459;-0.511406;4.6423;2.32951;1.08844;
-6.99042;2.11019;6.01392;-1.1171;-0.120724;-0.511884;4.64462;2.32995;1.08847;
-6.99186;2.11035;6.01466;-1.11716;-0.120988;-0.512361;4.64695;2.33039;1.08851;
-6.9933;2.11051;6.01539;-1.11722;-0.121252;-0.512836;4.64926;2.33083;1.08855;
-6.99473;2.11067;6.01612;-1.11727;-0.121516;-0.51331;4.65158;2.33127;1.08859;
-6.99616;2.11084;6.01685;-1.11733;-0.12178;-0.513783;4.65389;2.33171;1.08863;
-6.99759;2.111;6.01758;-1.11739;-0.122044;-0.514254;4.6562;2.33215;1.08867;
-6.99901;2.11116;6.0183;-1.11744;-0.122308;-0.514724;4.6585;2.33258;1.08871;
-7.00044;2.11132;6.01902;-1.1175;-0.122571;-0.515193;4.6608;2.33302;1.08875;
-7.00186;2.11148;6.01975;-1.11756;-0.122834;-0.515661;4.6631;2.33345;1.08879;
-7.00327;2.11164;6.02046;-1.11762;-0.123098;-0.516127;4.6654;2.33389;1.08883;
-7.00469;2.11181;6.02118;-1.11767;-0.123361;-0.516593;4.66769;2.33432;1.08887;
-7.0061;2.11197;6.0219;-1.11773;-0.123624;-0.517057;4.66998;2.33475;1.08891;
-7.00751;2.11213;6.02261;-1.11779;-0.123887;-0.517519;4.67226;2.33518;1.08895;
-7.00891;2.11229;6.02332;-1.11784;-0.124149;-0.517981;4.67454;2.33561;1.08899;
-7.01032;2.11244;6.02403;-1.1179;-0.124412;-0.518441;4.67682;2.33604;1.08903;
-7.01172;2.1126;6.02474;-1.11796;-0.124674;-0.5189;4.6791;2.33647;1.08907;
-7.01312;2.11276;6.02544;-1.11802;-0.124937;-0.519358;4.68137;2.3369;1.08911;
-7.01451;2.11292;6.02615;-1.11807;-0.125199;-0.519815;4.68364;2.33733;1.08915;
-7.0159;2.11308;6.02685;-1.11813;-0.125461;-0.52027;4.6859;2.33775;1.08919;
-7.01729;2.11324;6.02755;-1.11819;-0.125723;-0.520724;4.68817;2.33818;1.08923;
-7.01868;2.1134;6.02825;-1.11824;-0.125984;-0.521177;4.69042;2.3386;1.08927;
-7.02007;2.11355;6.02894;-1.1183;-0.126246;-0.521629;4.69268;2.33902;1.08931;
-7.02145;2.11371;6.02964;-1.11836;-0.126507;-0.52208;4.69493;2.33945;1.08935;
-7.02283;2.11387;6.03033;-1.11842;-0.126769;-0.522529;4.69718;2.33987;1.08939;
-7.02421;2.11402;6.03102;-1.11847;-0.12703;-0.522977;4.69943;2.34029;1.08943;
-7.02558;2.11418;6.03171;-1.11853;-0.127291;-0.523424;4.70167;2.34071;1.08947;
-7.02695;2.11434;6.03239;-1.11859;-0.127552;-0.52387;4.70391;2.34112;1.08951;
-7.02832;2.11449;6.03308;-1.11864;-0.127812;-0.524314;4.70614;2.34154;1.08955;
-7.02969;2.11465;6.03376;-1.1187;-0.128073;-0.524758;4.70838;2.34196;1.0896;
-7.03105;2.1148;6.03444;-1.11876;-0.128334;-0.5252;4.71061;2.34238;1.08964;
-7.03242;2.11496;6.03512;-1.11882;-0.128594;-0.525641;4.71283;2.34279;1.08968;
-7.03378;2.11511;6.0358;-1.11887;-0.128854;-0.526081;4.71506;2.3432;1.08972;
-7.03513;2.11527;6.03648;-1.11893;-0.129114;-0.52652;4.71728;2.34362;1.08976;
-7.03649;2.11542;6.03715;-1.11899;-0.129374;-0.526957;4.71949;2.34403;1.0898;
-7.03784;2.11557;6.03782;-1.11904;-0.129634;-0.527393;4.72171;2.34444;1.08984;
-7.03919;2.11573;6.03849;-1.1191;-0.129893;-0.527829;4.72392;2.34485;1.08989;
-7.04053;2.11588;6.03916;-1.11916;-0.130153;-0.528263;4.72612;2.34526;1.08993;
-7.04188;2.11603;6.03983;-1.11922;-0.130412;-0.528695;4.72833;2.34567;1.08997;
-7.04322;2.11618;6.04049;-1.11927;-0.130672;-0.529127;4.73053;2.34608;1.09001;
-7.04456;2.11634;6.04115;-1.11933;-0.130931;-0.529558;4.73273;2.34649;1.09005;
-7.0459;2.11649;6.04181;-1.11939;-0.13119;-0.529987;4.73492;2.34689;1.0901;
-7.04723;2.11664;6.04247;-1.11945;-0.131448;-0.530415;4.73711;2.3473;1.09014;
-7.04856;2.11679;6.04313;-1.1195;-0.131707;-0.530842;4.7393;2.3477;1.09018;
-7.04989;2.11694;6.04379;-1.11956;-0.131966;-0.531268;4.74149;2.34811;1.09022;
-7.05122;2.11709;6.04444;-1.11962;-0.132224;-0.531693;4.74367;2.34851;1.09026;
-7.05254;2.11725;6.04509;-1.11968;-0.132482;-0.532117;4.74585;2.34891;1.09031;
-7.05386;2.1174;6.04574;-1.11973;-0.13274;-0.532539;4.74802;2.34931;1.09035;
-7.05518;2.11755;6.04639;-1.11979;-0.132998;-0.532961;4.7502;2.34972;1.09039;
-7.0565;2.1177;6.04704;-1.11985;-0.133256;-0.533381;4.75237;2.35011;1.09044;
-7.05781;2.11785;6.04769;-1.1199;-0.133514;-0.5338;4.75453;2.35051;1.09048;
-7.05913;2.11799;6.04833;-1.11996;-0.133771;-0.534218;4.75669;2.35091;1.09052;
-7.06044;2.11814;6.04897;-1.12002;-0.134029;-0.534635;4.75886;2.35131;1.09056;
-7.06174;2.11829;6.04961;-1.12008;-0.134286;-0.535051;4.76101;2.35171;1.09061;
-7.06305;2.11844;6.05025;-1.12013;-0.134543;-0.535466;4.76317;2.3521;1.09065;
-7.06435;2.11859;6.05089;-1.12019;-0.1348;-0.535879;4.76532;2.3525;1.09069;
-7.06565;2.11874;6.05152;-1.12025;-0.135057;-0.536292;4.76746;2.35289;1.09074;
-7.06695;2.11888;6.05215;-1.12031;-0.135313;-0.536703;4.76961;2.35328;1.09078;
-7.06824;2.11903;6.05279;-1.12036;-0.13557;-0.537113;4.77175;2.35367;1.09082;
-7.06953;2.11918;6.05342;-1.12042;-0.135826;-0.537522;4.77389;2.35407;1.09087;
-7.07082;2.11933;6.05404;-1.12048;-0.136083;-0.537931;4.77603;2.35446;1.09091;
