-0.18895;-0.103087;0.296671;-0.174739;0.498701;0.771317;0.573833;0.289529;0.0799498;
-0.585819;-0.152387;0.104226;-0.391016;0.423906;0.730358;0.431776;0.22402;-0.0562235;
-0.673467;-0.133444;0.102317;-0.429017;0.410135;0.723514;0.415359;0.219888;-0.0637887;
-0.716058;-0.105134;0.127943;-0.441146;0.405473;0.721857;0.417287;0.224736;-0.0529989;
-0.750244;-0.0755141;0.158399;-0.448508;0.402527;0.721132;0.422587;0.231198;-0.0390696;
-0.782563;-0.0460133;0.189634;-0.454864;0.399976;0.720572;0.428586;0.237959;-0.0247095;
-0.814307;-0.0169089;0.22085;-0.460959;0.397556;0.720028;0.434756;0.244757;-0.0104506;
-0.845739;0.0117488;0.251888;-0.466941;0.395213;0.719468;0.44099;0.251541;0.0036027;
-0.876913;0.0399548;0.282717;-0.472843;0.392937;0.718886;0.447266;0.2583;0.0174322;
-0.907841;0.0677135;0.313332;-0.47867;0.390723;0.718282;0.453579;0.265032;0.0310372;
-0.938529;0.0950313;0.343735;-0.484425;0.388571;0.717655;0.459928;0.271737;0.0444201;
-0.968978;0.121915;0.373926;-0.490109;0.386479;0.717004;0.466311;0.278415;0.0575844;
-0.999191;0.14837;0.403907;-0.495722;0.384446;0.716331;0.472728;0.285066;0.0705334;
-1.02917;0.174404;0.43368;-0.501266;0.382471;0.715635;0.479179;0.291689;0.0832706;
-1.05892;0.200024;0.463247;-0.506741;0.380554;0.714917;0.485661;0.298285;0.0957993;
-1.08844;0.225235;0.492611;-0.512148;0.378692;0.714175;0.492176;0.304854;0.108123;
-1.11773;0.250044;0.521772;-0.517488;0.376885;0.713412;0.498722;0.311395;0.120245;
-1.14679;0.274458;0.550732;-0.522761;0.375132;0.712625;0.505298;0.31791;0.132168;
-1.17564;0.298483;0.579494;-0.527968;0.373432;0.711816;0.511904;0.324397;0.143896;
-1.20426;0.322125;0.60806;-0.533111;0.371784;0.710985;0.518539;0.330857;0.155432;
-1.23266;0.34539;0.63643;-0.538189;0.370187;0.710131;0.525203;0.33729;0.166779;
-1.26085;0.368284;0.664607;-0.543204;0.36864;0.709256;0.531894;0.343696;0.17794;
-1.28882;0.390814;0.692592;-0.548156;0.367142;0.708357;0.538613;0.350075;0.188919;
-1.31658;0.412985;0.720388;-0.553046;0.365692;0.707437;0.545358;0.356427;0.199718;
-1.34414;0.434803;0.747996;-0.557875;0.36429;0.706495;0.552129;0.362752;0.21034;
-1.37148;0.456274;0.775417;-0.562643;0.362933;0.705531;0.558925;0.369051;0.220788;
-1.39862;0.477405;0.802654;-0.567352;0.361622;0.704544;0.565746;0.375322;0.231066;
-1.42555;0.498199;0.829708;-0.572002;0.360355;0.703536;0.572591;0.381566;0.241176;
-1.45229;0.518664;0.85658;-0.576593;0.359132;0.702506;0.579459;0.387784;0.25112;
-1.47882;0.538805;0.883273;-0.581127;0.357952;0.701455;0.58635;0.393975;0.260902;
-1.50516;0.558627;0.909788;-0.585605;0.356813;0.700381;0.593264;0.40014;0.270525;
-1.5313;0.578135;0.936127;-0.590026;0.355715;0.699286;0.600198;0.406278;0.279991;
-1.55726;0.597336;0.962291;-0.594392;0.354658;0.69817;0.607154;0.412389;0.289302;
-1.58301;0.616233;0.988282;-0.598703;0.35364;0.697032;0.61413;0.418473;0.298462;
-1.60859;0.634833;1.0141;-0.60296;0.35266;0.695873;0.621126;0.424532;0.307473;
-1.63397;0.65314;1.03975;-0.607164;0.351718;0.694692;0.628141;0.430563;0.316337;
-1.65917;0.671159;1.06523;-0.611315;0.350812;0.69349;0.635175;0.436569;0.325057;
-1.68418;0.688895;1.09055;-0.615414;0.349943;0.692267;0.642227;0.442548;0.333636;
-1.70902;0.706354;1.11569;-0.619463;0.34911;0.691023;0.649297;0.448501;0.342075;
-1.73368;0.72354;1.14068;-0.62346;0.34831;0.689758;0.656383;0.454427;0.350378;
-1.75815;0.740457;1.1655;-0.627408;0.347545;0.688472;0.663486;0.460328;0.358546;
-1.78246;0.75711;1.19016;-0.631306;0.346813;0.687166;0.670605;0.466202;0.366583;
-1.80659;0.773504;1.21466;-0.635156;0.346113;0.685838;0.67774;0.472051;0.374489;
-1.83055;0.789643;1.23901;-0.638957;0.345446;0.68449;0.684889;0.477873;0.382268;
-1.85434;0.805532;1.26319;-0.642711;0.344809;0.683122;0.692053;0.48367;0.389921;
-1.87796;0.821175;1.28723;-0.646419;0.344202;0.681733;0.699231;0.48944;0.397451;
-1.90142;0.836577;1.3111;-0.65008;0.343625;0.680323;0.706423;0.495185;0.40486;
-1.92471;0.85174;1.33483;-0.653696;0.343078;0.678894;0.713627;0.500905;0.41215;
-1.94784;0.866671;1.3584;-0.657266;0.342558;0.677444;0.720844;0.506598;0.419323;
-1.9708;0.881371;1.38183;-0.660793;0.342067;0.675975;0.728073;0.512266;0.42638;
-1.99361;0.895847;1.4051;-0.664275;0.341603;0.674485;0.735314;0.517909;0.433325;
-2.01627;0.910101;1.42823;-0.667714;0.341165;0.672975;0.742565;0.523526;0.440158;
-2.03876;0.924137;1.45121;-0.671111;0.340753;0.671446;0.749828;0.529118;0.446882;
-2.0611;0.93796;1.47405;-0.674465;0.340367;0.669897;0.757101;0.534685;0.453499;
-2.08329;0.951572;1.49674;-0.677778;0.340005;0.668329;0.764384;0.540226;0.46001;
-2.10533;0.964978;1.5193;-0.681049;0.339668;0.666741;0.771676;0.545742;0.466417;
-2.12722;0.97818;1.54171;-0.684281;0.339355;0.665134;0.778977;0.551234;0.472723;
-2.14897;0.991184;1.56398;-0.687472;0.339064;0.663508;0.786287;0.5567;0.478928;
-2.17056;1.00399;1.58611;-0.690624;0.338797;0.661862;0.793605;0.562142;0.485035;
-2.19201;1.01661;1.60811;-0.693737;0.338551;0.660198;0.800931;0.567558;0.491044;
-2.21332;1.02903;1.62997;-0.696811;0.338327;0.658515;0.808264;0.57295;0.496959;
-2.23449;1.04127;1.65169;-0.699847;0.338124;0.656813;0.815605;0.578318;0.50278;
-2.25552;1.05333;1.67328;-0.702846;0.337942;0.655093;0.822952;0.58366;0.508509;
-2.27641;1.06521;1.69474;-0.705808;0.33778;0.653354;0.830306;0.588979;0.514147;
-2.29716;1.07691;1.71607;-0.708734;0.337638;0.651597;0.837665;0.594273;0.519697;
-2.31777;1.08844;1.73727;-0.711624;0.337515;0.649821;0.845031;0.599543;0.525159;
-2.33826;1.09979;1.75833;-0.714478;0.33741;0.648028;0.852401;0.604788;0.530535;
-2.35861;1.11098;1.77927;-0.717296;0.337324;0.646217;0.859777;0.61001;0.535827;
-2.37882;1.12201;1.80008;-0.720081;0.337256;0.644387;0.867157;0.615207;0.541036;
-2.39891;1.13287;1.82077;-0.722831;0.337206;0.64254;0.874542;0.620381;0.546163;
-2.41887;1.14358;1.84133;-0.725547;0.337172;0.640676;0.88193;0.625531;0.551209;
-2.4387;1.15412;1.86177;-0.72823;0.337155;0.638794;0.889323;0.630657;0.556177;
-2.4584;1.16452;1.88208;-0.73088;0.337155;0.636894;0.896718;0.635759;0.561067;
-2.47798;1.17476;1.90227;-0.733498;0.33717;0.634978;0.904117;0.640838;0.565881;
-2.49744;1.18486;1.92235;-0.736084;0.337201;0.633044;0.911519;0.645893;0.57062;
-2.51677;1.19481;1.9423;-0.738638;0.337247;0.631094;0.918923;0.650925;0.575285;
-2.53599;1.20461;1.96213;-0.74116;0.337307;0.629127;0.926329;0.655934;0.579878;
-2.55508;1.21428;1.98184;-0.743652;0.337382;0.627143;0.933738;0.660919;0.584399;
-2.57405;1.22381;2.00144;-0.746114;0.337471;0.625143;0.941148;0.665882;0.58885;
-2.59291;1.2332;2.02092;-0.748545;0.337574;0.623126;0.948559;0.670821;0.593232;
-2.61165;1.24246;2.04029;-0.750947;0.33769;0.621093;0.955972;0.675738;0.597546;
-2.63027;1.25158;2.05954;-0.753319;0.33782;0.619044;0.963385;0.680632;0.601794;
-2.64878;1.26058;2.07868;-0.755663;0.337961;0.616979;0.9708;0.685503;0.605976;
-2.66718;1.26945;2.09771;-0.757978;0.338116;0.614899;0.978214;0.690352;0.610093;
-2.68547;1.27819;2.11663;-0.760265;0.338282;0.612802;0.985629;0.695178;0.614147;
-2.70364;1.28682;2.13543;-0.762524;0.33846;0.61069;0.993044;0.699982;0.618138;
-2.72171;1.29532;2.15413;-0.764755;0.33865;0.608563;1.00046;0.704763;0.622068;
-2.73967;1.3037;2.17271;-0.766959;0.338851;0.606421;1.00787;0.709522;0.625938;
-2.75751;1.31197;2.19119;-0.769137;0.339063;0.604263;1.01529;0.71426;0.629748;
-2.77526;1.32012;2.20956;-0.771288;0.339285;0.602091;1.0227;0.718975;0.6335;
-2.79289;1.32816;2.22783;-0.773413;0.339518;0.599904;1.03011;0.723668;0.637195;
-2.81043;1.33608;2.24599;-0.775512;0.339761;0.597702;1.03752;0.72834;0.640832;
-2.82786;1.3439;2.26405;-0.777585;0.340014;0.595486;1.04493;0.73299;0.644415;
-2.84518;1.35161;2.282;-0.779634;0.340277;0.593255;1.05233;0.737618;0.647942;
-2.86241;1.35922;2.29985;-0.781657;0.340549;0.59101;1.05974;0.742225;0.651416;
-2.87953;1.36672;2.3176;-0.783656;0.34083;0.588751;1.06714;0.746811;0.654836;
-2.89656;1.37412;2.33524;-0.785631;0.341119;0.586478;1.07454;0.751375;0.658205;
-2.91348;1.38142;2.35279;-0.787582;0.341418;0.584191;1.08194;0.755918;0.661522;
-2.93031;1.38862;2.37023;-0.789509;0.341725;0.581891;1.08933;0.760441;0.664789;
-2.94704;1.39572;2.38758;-0.791413;0.34204;0.579577;1.09672;0.764942;0.668006;
-2.96368;1.40273;2.40483;-0.793294;0.342363;0.57725;1.10411;0.769422;0.671174;
-2.98022;1.40965;2.42198;-0.795152;0.342694;0.57491;1.1115;0.773882;0.674295;
-2.99667;1.41647;2.43904;-0.796988;0.343033;0.572557;1.11888;0.778321;0.677368;
-3.01302;1.4232;2.456;-0.798801;0.343379;0.57019;1.12626;0.782739;0.680394;
-3.02928;1.42985;2.47286;-0.800592;0.343732;0.567811;1.13363;0.787137;0.683375;
-3.04545;1.4364;2.48963;-0.802362;0.344092;0.56542;1.14101;0.791515;0.68631;
-3.06153;1.44287;2.5063;-0.804111;0.344459;0.563016;1.14837;0.795873;0.689202;
-3.07752;1.44925;2.52289;-0.805838;0.344832;0.560599;1.15574;0.80021;0.692049;
-3.09342;1.45555;2.53938;-0.807544;0.345212;0.558171;1.16309;0.804528;0.694854;
-3.10923;1.46177;2.55578;-0.80923;0.345598;0.55573;1.17045;0.808825;0.697616;
-3.12495;1.46791;2.57208;-0.810895;0.34599;0.553277;1.1778;0.813103;0.700337;
-3.14059;1.47397;2.5883;-0.81254;0.346388;0.550813;1.18514;0.817361;0.703016;
-3.15614;1.47994;2.60443;-0.814166;0.346792;0.548337;1.19248;0.821599;0.705656;
-3.17161;1.48585;2.62047;-0.815771;0.347202;0.54585;1.19982;0.825818;0.708256;
-3.18699;1.49167;2.63642;-0.817358;0.347617;0.543351;1.20715;0.830018;0.710816;
-3.20229;1.49742;2.65228;-0.818925;0.348037;0.540842;1.21447;0.834198;0.713338;
-3.2175;1.5031;2.66806;-0.820473;0.348462;0.538321;1.22179;0.83836;0.715823;
-3.23263;1.50871;2.68375;-0.822002;0.348893;0.535789;1.22911;0.842502;0.71827;
-3.24768;1.51424;2.69936;-0.823513;0.349328;0.533246;1.23642;0.846625;0.72068;
-3.26265;1.51971;2.71487;-0.825006;0.349768;0.530693;1.24372;0.850729;0.723054;
-3.27755;1.52511;2.73031;-0.826481;0.350212;0.52813;1.25101;0.854815;0.725393;
-3.29236;1.53044;2.74566;-0.827938;0.350661;0.525556;1.25831;0.858881;0.727696;
-3.30709;1.5357;2.76093;-0.829377;0.351114;0.522972;1.26559;0.86293;0.729965;
-3.32174;1.54089;2.77611;-0.830799;0.351572;0.520378;1.27287;0.86696;0.7322;
-3.33632;1.54603;2.79122;-0.832204;0.352033;0.517774;1.28014;0.870971;0.734402;
-3.35082;1.5511;2.80624;-0.833592;0.352499;0.51516;1.28741;0.874965;0.73657;
-3.36524;1.5561;2.82118;-0.834963;0.352968;0.512536;1.29467;0.87894;0.738707;
-3.37959;1.56105;2.83604;-0.836317;0.353441;0.509903;1.30192;0.882897;0.740811;
-3.39387;1.56593;2.85083;-0.837655;0.353917;0.507261;1.30917;0.886836;0.742884;
-3.40807;1.57076;2.86553;-0.838977;0.354397;0.504609;1.31641;0.890757;0.744925;
-3.42219;1.57552;2.88015;-0.840283;0.35488;0.501949;1.32364;0.894661;0.746937;
-3.43625;1.58023;2.8947;-0.841573;0.355367;0.499279;1.33087;0.898547;0.748918;
-3.45023;1.58488;2.90917;-0.842848;0.355857;0.496601;1.33809;0.902415;0.75087;
-3.46414;1.58948;2.92356;-0.844107;0.356349;0.493913;1.3453;0.906266;0.752792;
-3.47798;1.59402;2.93788;-0.845351;0.356845;0.491218;1.35251;0.9101;0.754686;
-3.49175;1.5985;2.95212;-0.84658;0.357344;0.488513;1.35971;0.913916;0.756552;
-3.50544;1.60294;2.96628;-0.847794;0.357845;0.485801;1.3669;0.917716;0.758389;
-3.51907;1.60732;2.98037;-0.848993;0.358349;0.48308;1.37408;0.921498;0.760199;
-3.53263;1.61164;2.99439;-0.850178;0.358856;0.480351;1.38126;0.925263;0.761983;
-3.54613;1.61592;3.00833;-0.851348;0.359365;0.477615;1.38843;0.929012;0.763739;
-3.55955;1.62015;3.0222;-0.852505;0.359876;0.47487;1.39559;0.932743;0.765469;
-3.57291;1.62433;3.036;-0.853647;0.36039;0.472118;1.40274;0.936458;0.767174;
-3.5862;1.62846;3.04972;-0.854775;0.360906;0.469358;1.40989;0.940157;0.768853;
-3.59942;1.63254;3.06338;-0.85589;0.361425;0.466591;1.41703;0.943839;0.770506;
-3.61258;1.63657;3.07696;-0.856991;0.361945;0.463817;1.42416;0.947504;0.772136;
-3.62568;1.64056;3.09047;-0.858079;0.362468;0.461035;1.43128;0.951154;0.77374;
-3.63871;1.6445;3.10391;-0.859154;0.362992;0.458247;1.4384;0.954787;0.775321;
-3.65167;1.6484;3.11728;-0.860215;0.363518;0.455451;1.44551;0.958404;0.776878;
-3.66457;1.65225;3.13059;-0.861264;0.364046;0.452649;1.4526;0.962005;0.778412;
-3.67741;1.65606;3.14382;-0.8623;0.364576;0.44984;1.4597;0.965591;0.779923;
-3.69019;1.65983;3.15699;-0.863324;0.365107;0.447025;1.46678;0.96916;0.781411;
-3.7029;1.66355;3.17009;-0.864335;0.36564;0.444203;1.47385;0.972714;0.782877;
-3.71556;1.66723;3.18312;-0.865333;0.366175;0.441374;1.48092;0.976252;0.784321;
-3.72815;1.67087;3.19608;-0.86632;0.366711;0.43854;1.48798;0.979774;0.785743;
-3.74068;1.67447;3.20898;-0.867294;0.367248;0.435699;1.49503;0.983282;0.787144;
-3.75315;1.67803;3.22181;-0.868257;0.367787;0.432853;1.50207;0.986773;0.788523;
-3.76557;1.68155;3.23458;-0.869208;0.368327;0.43;1.5091;0.99025;0.789882;
-3.77792;1.68503;3.24728;-0.870147;0.368869;0.427142;1.51613;0.993711;0.791221;
-3.79022;1.68848;3.25992;-0.871075;0.369411;0.424278;1.52314;0.997158;0.792539;
-3.80245;1.69188;3.2725;-0.871992;0.369955;0.421409;1.53015;1.00059;0.793838;
-3.81463;1.69525;3.28501;-0.872897;0.3705;0.418534;1.53715;1.00401;0.795117;
-3.82675;1.69858;3.29745;-0.873792;0.371045;0.415654;1.54414;1.00741;0.796376;
-3.83882;1.70188;3.30984;-0.874675;0.371592;0.412769;1.55112;1.01079;0.797617;
-3.85082;1.70514;3.32216;-0.875548;0.37214;0.409879;1.5581;1.01417;0.798839;
-3.86277;1.70837;3.33442;-0.87641;0.372688;0.406984;1.56506;1.01752;0.800042;
-3.87467;1.71156;3.34662;-0.877261;0.373238;0.404084;1.57202;1.02087;0.801227;
-3.88651;1.71472;3.35875;-0.878103;0.373788;0.401179;1.57896;1.0242;0.802395;
-3.8983;1.71784;3.37083;-0.878933;0.374339;0.398269;1.5859;1.02751;0.803544;
-3.91003;1.72093;3.38285;-0.879754;0.374891;0.395356;1.59283;1.03081;0.804676;
-3.92171;1.72399;3.3948;-0.880564;0.375443;0.392437;1.59975;1.0341;0.805791;
-3.93333;1.72702;3.4067;-0.881365;0.375996;0.389514;1.60666;1.03737;0.806888;
-3.9449;1.73001;3.41854;-0.882156;0.376549;0.386587;1.61356;1.04063;0.807969;
-3.95642;1.73298;3.43031;-0.882937;0.377103;0.383656;1.62046;1.04387;0.809034;
-3.96788;1.73591;3.44203;-0.883708;0.377658;0.380721;1.62734;1.0471;0.810082;
-3.9793;1.73882;3.4537;-0.88447;0.378213;0.377782;1.63422;1.05032;0.811114;
-3.99066;1.74169;3.4653;-0.885223;0.378768;0.37484;1.64108;1.05352;0.81213;
-4.00197;1.74453;3.47685;-0.885966;0.379324;0.371893;1.64794;1.05671;0.813131;
-4.01323;1.74735;3.48834;-0.8867;0.37988;0.368943;1.65479;1.05989;0.814116;
-4.02444;1.75014;3.49977;-0.887425;0.380436;0.365989;1.66163;1.06305;0.815086;
-4.0356;1.7529;3.51115;-0.888141;0.380993;0.363032;1.66846;1.0662;0.816041;
-4.04671;1.75563;3.52247;-0.888849;0.38155;0.360072;1.67528;1.06934;0.816982;
-4.05776;1.75833;3.53374;-0.889547;0.382107;0.357108;1.68209;1.07246;0.817907;
-4.06877;1.76101;3.54495;-0.890237;0.382665;0.354141;1.68889;1.07557;0.818819;
-4.07974;1.76366;3.55611;-0.890919;0.383222;0.351171;1.69568;1.07867;0.819716;
-4.09065;1.76628;3.56721;-0.891592;0.38378;0.348199;1.70247;1.08176;0.820599;
-4.10151;1.76888;3.57826;-0.892256;0.384338;0.345223;1.70924;1.08483;0.821468;
-4.11233;1.77146;3.58926;-0.892913;0.384896;0.342245;1.71601;1.08789;0.822324;
-4.1231;1.774;3.6002;-0.893561;0.385454;0.339263;1.72276;1.09093;0.823166;
-4.13382;1.77653;3.61109;-0.894201;0.386012;0.33628;1.72951;1.09397;0.823995;
-4.1445;1.77903;3.62193;-0.894834;0.38657;0.333294;1.73625;1.09699;0.824812;
-4.15513;1.7815;3.63271;-0.895458;0.387128;0.330305;1.74298;1.1;0.825615;
-4.16571;1.78395;3.64344;-0.896075;0.387685;0.327314;1.74969;1.10299;0.826405;
-4.17625;1.78638;3.65413;-0.896683;0.388243;0.324321;1.7564;1.10598;0.827183;
-4.18674;1.78878;3.66476;-0.897285;0.388801;0.321326;1.7631;1.10895;0.827949;
-4.19718;1.79117;3.67533;-0.897879;0.389359;0.318328;1.76979;1.11191;0.828702;
-4.20759;1.79353;3.68586;-0.898465;0.389916;0.315329;1.77647;1.11485;0.829443;
-4.21794;1.79586;3.69634;-0.899044;0.390473;0.312327;1.78314;1.11779;0.830173;
-4.22826;1.79818;3.70677;-0.899616;0.39103;0.309324;1.78981;1.12071;0.83089;
-4.23852;1.80047;3.71715;-0.900181;0.391587;0.306319;1.79646;1.12362;0.831596;
-4.24875;1.80275;3.72748;-0.900738;0.392144;0.303313;1.8031;1.12652;0.832291;
-4.25893;1.805;3.73776;-0.901289;0.3927;0.300305;1.80974;1.12941;0.832975;
-4.26907;1.80723;3.74799;-0.901833;0.393257;0.297295;1.81636;1.13229;0.833647;
-4.27916;1.80944;3.75817;-0.90237;0.393813;0.294284;1.82297;1.13515;0.834308;
-4.28922;1.81163;3.7683;-0.9029;0.394368;0.291272;1.82958;1.13801;0.834959;
-4.29923;1.8138;3.77839;-0.903423;0.394923;0.288258;1.83617;1.14085;0.835599;
-4.3092;1.81595;3.78843;-0.90394;0.395478;0.285244;1.84276;1.14368;0.836228;
-4.31912;1.81808;3.79842;-0.90445;0.396033;0.282228;1.84934;1.1465;0.836847;
-4.32901;1.8202;3.80837;-0.904954;0.396587;0.279211;1.8559;1.14931;0.837456;
-4.33885;1.82229;3.81827;-0.905452;0.397141;0.276193;1.86246;1.1521;0.838055;
-4.34866;1.82437;3.82812;-0.905943;0.397694;0.273174;1.86901;1.15489;0.838643;
-4.35842;1.82643;3.83792;-0.906428;0.398247;0.270155;1.87555;1.15766;0.839222;
-4.36814;1.82846;3.84768;-0.906907;0.3988;0.267134;1.88208;1.16043;0.839791;
-4.37783;1.83049;3.8574;-0.90738;0.399352;0.264113;1.88859;1.16318;0.84035;
-4.38747;1.83249;3.86707;-0.907847;0.399904;0.261092;1.8951;1.16592;0.8409;
-4.39707;1.83448;3.87669;-0.908308;0.400455;0.25807;1.9016;1.16865;0.841441;
-4.40664;1.83645;3.88627;-0.908763;0.401006;0.255047;1.9081;1.17137;0.841972;
-4.41616;1.8384;3.89581;-0.909212;0.401556;0.252024;1.91458;1.17408;0.842494;
-4.42565;1.84033;3.9053;-0.909655;0.402106;0.249001;1.92105;1.17678;0.843008;
-4.43509;1.84225;3.91475;-0.910093;0.402655;0.245977;1.92751;1.17947;0.843512;
-4.4445;1.84416;3.92415;-0.910525;0.403203;0.242953;1.93396;1.18215;0.844007;
-4.45387;1.84604;3.93351;-0.910952;0.403752;0.239929;1.9404;1.18481;0.844494;
-4.46321;1.84792;3.94283;-0.911373;0.404299;0.236906;1.94684;1.18747;0.844973;
-4.4725;1.84977;3.9521;-0.911789;0.404846;0.233882;1.95326;1.19012;0.845443;
-4.48176;1.85161;3.96134;-0.9122;0.405392;0.230858;1.95967;1.19275;0.845904;
-4.49098;1.85344;3.97053;-0.912605;0.405938;0.227834;1.96608;1.19538;0.846358;
-4.50017;1.85525;3.97967;-0.913005;0.406484;0.224811;1.97247;1.198;0.846803;
-4.50931;1.85704;3.98878;-0.9134;0.407028;0.221787;1.97886;1.2006;0.84724;
-4.51843;1.85882;3.99784;-0.91379;0.407572;0.218764;1.98523;1.2032;0.84767;
-4.5275;1.86059;4.00687;-0.914175;0.408115;0.215742;1.9916;1.20578;0.848092;
-4.53654;1.86234;4.01585;-0.914554;0.408658;0.21272;1.99796;1.20836;0.848505;
-4.54554;1.86408;4.02479;-0.914929;0.4092;0.209698;2.0043;1.21093;0.848912;
-4.55451;1.8658;4.03369;-0.915299;0.409742;0.206677;2.01064;1.21348;0.849311;
-4.56344;1.86751;4.04255;-0.915664;0.410282;0.203657;2.01697;1.21603;0.849702;
-4.57234;1.86921;4.05137;-0.916025;0.410822;0.200637;2.02329;1.21857;0.850086;
-4.5812;1.87089;4.06015;-0.916381;0.411362;0.197618;2.0296;1.2211;0.850463;
-4.59003;1.87256;4.0689;-0.916732;0.411901;0.1946;2.0359;1.22361;0.850833;
-4.59882;1.87422;4.0776;-0.917079;0.412439;0.191582;2.04218;1.22612;0.851195;
-4.60758;1.87586;4.08626;-0.917421;0.412976;0.188566;2.04846;1.22862;0.851551;
-4.61631;1.8775;4.09488;-0.917758;0.413512;0.18555;2.05474;1.23111;0.8519;
-4.625;1.87912;4.10347;-0.918092;0.414048;0.182536;2.061;1.23359;0.852242;
-4.63366;1.88072;4.11201;-0.91842;0.414583;0.179522;2.06725;1.23606;0.852577;
-4.64228;1.88232;4.12052;-0.918745;0.415118;0.17651;2.07349;1.23852;0.852906;
-4.65087;1.8839;4.12899;-0.919065;0.415652;0.173499;2.07972;1.24098;0.853228;
-4.65943;1.88547;4.13743;-0.919381;0.416184;0.170489;2.08594;1.24342;0.853544;
-4.66795;1.88703;4.14582;-0.919693;0.416717;0.16748;2.09216;1.24585;0.853853;
-4.67644;1.88857;4.15418;-0.920001;0.417248;0.164473;2.09836;1.24828;0.854157;
-4.6849;1.89011;4.1625;-0.920305;0.417779;0.161467;2.10456;1.2507;0.854453;
-4.69333;1.89163;4.17078;-0.920605;0.418309;0.158462;2.11074;1.2531;0.854744;
-4.70173;1.89315;4.17903;-0.9209;0.418838;0.155459;2.11692;1.2555;0.855029;
-4.71009;1.89465;4.18724;-0.921192;0.419366;0.152457;2.12308;1.25789;0.855308;
-4.71842;1.89614;4.19542;-0.92148;0.419894;0.149457;2.12924;1.26027;0.855581;
-4.72672;1.89762;4.20355;-0.921764;0.42042;0.146459;2.13538;1.26264;0.855848;
-4.73499;1.89909;4.21166;-0.922045;0.420946;0.143462;2.14152;1.26501;0.856109;
-4.74323;1.90054;4.21972;-0.922322;0.421472;0.140467;2.14765;1.26736;0.856365;
-4.75144;1.90199;4.22775;-0.922595;0.421996;0.137474;2.15377;1.26971;0.856615;
-4.75961;1.90343;4.23575;-0.922864;0.422519;0.134482;2.15988;1.27205;0.856859;
-4.76776;1.90486;4.24371;-0.92313;0.423042;0.131493;2.16598;1.27437;0.857098;
-4.77587;1.90628;4.25164;-0.923392;0.423564;0.128505;2.17207;1.2767;0.857332;
-4.78396;1.90768;4.25953;-0.923651;0.424085;0.125519;2.17815;1.27901;0.85756;
-4.79201;1.90908;4.26739;-0.923906;0.424606;0.122535;2.18422;1.28131;0.857783;
-4.80004;1.91047;4.27521;-0.924158;0.425125;0.119553;2.19028;1.28361;0.858001;
-4.80803;1.91185;4.283;-0.924406;0.425644;0.116573;2.19633;1.28589;0.858213;
-4.816;1.91322;4.29075;-0.924651;0.426161;0.113596;2.20238;1.28817;0.858421;
-4.82393;1.91458;4.29848;-0.924893;0.426678;0.11062;2.20841;1.29044;0.858623;
-4.83184;1.91593;4.30616;-0.925131;0.427194;0.107647;2.21443;1.29271;0.858821;
-4.83972;1.91727;4.31382;-0.925367;0.42771;0.104675;2.22045;1.29496;0.859014;
-4.84757;1.9186;4.32144;-0.925599;0.428224;0.101706;2.22645;1.29721;0.859201;
-4.85539;1.91992;4.32903;-0.925828;0.428738;0.0987398;2.23245;1.29945;0.859385;
-4.86318;1.92124;4.33658;-0.926053;0.42925;0.0957755;2.23844;1.30168;0.859563;
-4.87094;1.92254;4.34411;-0.926276;0.429762;0.0928135;2.24442;1.3039;0.859737;
-4.87868;1.92384;4.3516;-0.926496;0.430273;0.089854;2.25038;1.30611;0.859906;
-4.88638;1.92513;4.35906;-0.926713;0.430783;0.0868969;2.25634;1.30832;0.86007;
-4.89406;1.92641;4.36649;-0.926926;0.431292;0.0839423;2.26229;1.31052;0.86023;
-4.90171;1.92768;4.37388;-0.927137;0.431801;0.0809903;2.26823;1.31271;0.860386;
-4.90934;1.92894;4.38124;-0.927345;0.432308;0.0780407;2.27416;1.3149;0.860537;
-4.91693;1.9302;4.38858;-0.92755;0.432815;0.0750938;2.28009;1.31707;0.860684;
-4.9245;1.93144;4.39588;-0.927753;0.43332;0.0721495;2.286;1.31924;0.860827;
-4.93204;1.93268;4.40315;-0.927952;0.433825;0.0692079;2.2919;1.3214;0.860965;
-4.93956;1.93391;4.41039;-0.928149;0.434329;0.0662689;2.2978;1.32356;0.861099;
-4.94705;1.93514;4.4176;-0.928343;0.434832;0.0633327;2.30368;1.3257;0.86123;
-4.95451;1.93635;4.42477;-0.928535;0.435335;0.0603992;2.30956;1.32784;0.861356;
-4.96194;1.93756;4.43192;-0.928723;0.435836;0.0574686;2.31542;1.32997;0.861478;
-4.96935;1.93876;4.43904;-0.928909;0.436336;0.0545407;2.32128;1.33209;0.861596;
-4.97673;1.93996;4.44612;-0.929093;0.436836;0.0516158;2.32713;1.33421;0.86171;
-4.98408;1.94114;4.45318;-0.929274;0.437334;0.0486937;2.33297;1.33632;0.86182;
-4.99141;1.94232;4.46021;-0.929453;0.437832;0.0457745;2.33879;1.33842;0.861927;
-4.99872;1.94349;4.46721;-0.929629;0.438329;0.0428583;2.34462;1.34052;0.86203;
-5.00599;1.94466;4.47417;-0.929802;0.438825;0.0399451;2.35043;1.3426;0.862129;
-5.01325;1.94581;4.48111;-0.929973;0.43932;0.0370348;2.35623;1.34468;0.862224;
-5.02047;1.94696;4.48802;-0.930142;0.439814;0.0341277;2.36202;1.34676;0.862316;
-5.02767;1.94811;4.4949;-0.930308;0.440307;0.0312235;2.36781;1.34882;0.862404;
-5.03485;1.94924;4.50176;-0.930472;0.440799;0.0283225;2.37358;1.35088;0.862488;
-5.042;1.95037;4.50858;-0.930634;0.44129;0.0254246;2.37935;1.35293;0.862569;
-5.04913;1.9515;4.51537;-0.930794;0.441781;0.0225299;2.3851;1.35498;0.862647;
-5.05623;1.95261;4.52214;-0.930951;0.44227;0.0196384;2.39085;1.35701;0.862721;
-5.0633;1.95372;4.52888;-0.931106;0.442759;0.01675;2.39659;1.35905;0.862792;
-5.07036;1.95483;4.53559;-0.931259;0.443247;0.0138649;2.40232;1.36107;0.862859;
-5.07738;1.95593;4.54227;-0.931409;0.443733;0.0109831;2.40804;1.36309;0.862923;
-5.08439;1.95702;4.54893;-0.931558;0.444219;0.00810452;2.41375;1.3651;0.862984;
-5.09137;1.9581;4.55556;-0.931704;0.444704;0.00522929;2.41945;1.3671;0.863042;
-5.09832;1.95918;4.56216;-0.931849;0.445188;0.00235739;2.42514;1.3691;0.863096;
-5.10525;1.96025;4.56873;-0.931991;0.445671;-0.000511144;2.43083;1.37109;0.863147;
-5.11216;1.96132;4.57528;-0.932131;0.446153;-0.00337629;2.4365;1.37307;0.863196;
-5.11904;1.96238;4.58179;-0.932269;0.446635;-0.00623802;2.44217;1.37505;0.863241;
-5.1259;1.96344;4.58829;-0.932406;0.447115;-0.00909631;2.44783;1.37702;0.863283;
-5.13274;1.96448;4.59475;-0.93254;0.447594;-0.0119511;2.45348;1.37898;0.863322;
-5.13955;1.96553;4.60119;-0.932672;0.448073;-0.0148025;2.45911;1.38094;0.863358;
-5.14634;1.96656;4.6076;-0.932803;0.44855;-0.0176503;2.46475;1.38289;0.863391;
-5.15311;1.9676;4.61399;-0.932932;0.449027;-0.0204946;2.47037;1.38484;0.863422;
-5.15985;1.96862;4.62035;-0.933058;0.449502;-0.0233354;2.47598;1.38677;0.863449;
-5.16658;1.96964;4.62668;-0.933183;0.449977;-0.0261726;2.48158;1.38871;0.863474;
-5.17327;1.97066;4.63299;-0.933307;0.450451;-0.0290062;2.48718;1.39063;0.863496;
-5.17995;1.97167;4.63927;-0.933428;0.450924;-0.0318362;2.49276;1.39255;0.863515;
-5.1866;1.97267;4.64553;-0.933548;0.451396;-0.0346625;2.49834;1.39446;0.863532;
-5.19323;1.97367;4.65176;-0.933666;0.451867;-0.0374852;2.50391;1.39637;0.863546;
-5.19984;1.97466;4.65797;-0.933782;0.452337;-0.0403042;2.50947;1.39827;0.863557;
-5.20643;1.97565;4.66415;-0.933896;0.452806;-0.0431195;2.51502;1.40016;0.863565;
-5.213;1.97664;4.6703;-0.934009;0.453274;-0.0459311;2.52056;1.40205;0.863571;
-5.21954;1.97761;4.67644;-0.93412;0.453741;-0.0487389;2.5261;1.40393;0.863575;
-5.22606;1.97859;4.68254;-0.93423;0.454208;-0.051543;2.53162;1.40581;0.863576;
-5.23256;1.97956;4.68862;-0.934338;0.454673;-0.0543433;2.53714;1.40768;0.863574;
-5.23904;1.98052;4.69468;-0.934444;0.455137;-0.0571398;2.54264;1.40954;0.86357;
-5.24549;1.98148;4.70071;-0.934549;0.455601;-0.0599326;2.54814;1.4114;0.863564;
-5.25193;1.98243;4.70672;-0.934653;0.456063;-0.0627214;2.55363;1.41325;0.863555;
-5.25834;1.98338;4.71271;-0.934755;0.456525;-0.0655065;2.55911;1.41509;0.863544;
-5.26473;1.98432;4.71867;-0.934855;0.456986;-0.0682876;2.56458;1.41693;0.86353;
-5.2711;1.98526;4.7246;-0.934954;0.457445;-0.0710649;2.57005;1.41877;0.863514;
-5.27745;1.9862;4.73052;-0.935051;0.457904;-0.0738383;2.5755;1.42059;0.863496;
-5.28378;1.98713;4.73641;-0.935147;0.458362;-0.0766078;2.58095;1.42241;0.863476;
-5.29009;1.98805;4.74227;-0.935242;0.458819;-0.0793733;2.58638;1.42423;0.863453;
-5.29638;1.98897;4.74811;-0.935335;0.459275;-0.0821349;2.59181;1.42604;0.863428;
-5.30265;1.98989;4.75393;-0.935427;0.45973;-0.0848926;2.59723;1.42784;0.863401;
-5.3089;1.9908;4.75973;-0.935517;0.460184;-0.0876462;2.60264;1.42964;0.863372;
-5.31512;1.99171;4.7655;-0.935606;0.460637;-0.0903959;2.60805;1.43144;0.863341;
-5.32133;1.99261;4.77125;-0.935694;0.461089;-0.0931416;2.61344;1.43322;0.863308;
-5.32752;1.99351;4.77698;-0.935781;0.46154;-0.0958832;2.61883;1.435;0.863273;
-5.33368;1.99441;4.78268;-0.935866;0.46199;-0.0986208;2.6242;1.43678;0.863235;
-5.33983;1.9953;4.78836;-0.93595;0.46244;-0.101354;2.62957;1.43855;0.863196;
-5.34595;1.99618;4.79402;-0.936033;0.462888;-0.104084;2.63493;1.44031;0.863154;
-5.35206;1.99706;4.79966;-0.936114;0.463335;-0.106809;2.64028;1.44207;0.863111;
-5.35815;1.99794;4.80528;-0.936194;0.463782;-0.109531;2.64562;1.44383;0.863066;
-5.36422;1.99882;4.81087;-0.936273;0.464227;-0.112248;2.65096;1.44558;0.863019;
-5.37026;1.99969;4.81644;-0.936351;0.464672;-0.114961;2.65629;1.44732;0.86297;
-5.37629;2.00055;4.82199;-0.936428;0.465116;-0.11767;2.6616;1.44905;0.862919;
-5.3823;2.00141;4.82752;-0.936504;0.465558;-0.120375;2.66691;1.45079;0.862866;
-5.38829;2.00227;4.83302;-0.936578;0.466;-0.123075;2.67221;1.45251;0.862811;
-5.39426;2.00313;4.83851;-0.936652;0.466441;-0.125772;2.6775;1.45423;0.862755;
-5.40021;2.00398;4.84397;-0.936724;0.466881;-0.128464;2.68279;1.45595;0.862697;
-5.40615;2.00482;4.84941;-0.936795;0.467319;-0.131152;2.68806;1.45766;0.862637;
-5.41206;2.00567;4.85483;-0.936865;0.467757;-0.133836;2.69333;1.45936;0.862575;
-5.41796;2.00651;4.86023;-0.936934;0.468194;-0.136516;2.69859;1.46106;0.862512;
-5.42383;2.00734;4.86561;-0.937002;0.46863;-0.139191;2.70384;1.46276;0.862447;
-5.42969;2.00817;4.87096;-0.937069;0.469065;-0.141863;2.70908;1.46445;0.86238;
-5.43553;2.009;4.8763;-0.937135;0.4695;-0.14453;2.71431;1.46613;0.862312;
-5.44135;2.00982;4.88162;-0.9372;0.469933;-0.147192;2.71954;1.46781;0.862242;
-5.44715;2.01065;4.88691;-0.937265;0.470365;-0.149851;2.72476;1.46948;0.86217;
-5.45294;2.01146;4.89219;-0.937328;0.470796;-0.152505;2.72996;1.47115;0.862097;
-5.45871;2.01228;4.89744;-0.93739;0.471227;-0.155155;2.73516;1.47281;0.862023;
-5.46445;2.01309;4.90267;-0.937451;0.471656;-0.157801;2.74036;1.47447;0.861947;
-5.47018;2.01389;4.90789;-0.937511;0.472084;-0.160442;2.74554;1.47613;0.861869;
-5.4759;2.0147;4.91308;-0.937571;0.472512;-0.163079;2.75072;1.47777;0.86179;
-5.48159;2.0155;4.91825;-0.937629;0.472939;-0.165712;2.75588;1.47942;0.861709;
-5.48727;2.01629;4.92341;-0.937687;0.473364;-0.16834;2.76104;1.48105;0.861627;
-5.49293;2.01709;4.92854;-0.937744;0.473789;-0.170964;2.76619;1.48269;0.861543;
-5.49857;2.01788;4.93366;-0.9378;0.474212;-0.173584;2.77133;1.48432;0.861458;
-5.50419;2.01867;4.93875;-0.937855;0.474635;-0.176199;2.77647;1.48594;0.861372;
-5.5098;2.01945;4.94383;-0.937909;0.475057;-0.17881;2.78159;1.48756;0.861284;
-5.51539;2.02023;4.94888;-0.937963;0.475478;-0.181417;2.78671;1.48917;0.861195;
-5.52096;2.02101;4.95392;-0.938016;0.475898;-0.184019;2.79182;1.49078;0.861104;
-5.52651;2.02178;4.95894;-0.938068;0.476317;-0.186617;2.79692;1.49238;0.861012;
-5.53205;2.02255;4.96393;-0.938119;0.476735;-0.18921;2.80202;1.49398;0.860919;
-5.53757;2.02332;4.96891;-0.938169;0.477152;-0.191799;2.8071;1.49558;0.860825;
-5.54308;2.02409;4.97387;-0.938219;0.477568;-0.194384;2.81218;1.49716;0.860729;
-5.54856;2.02485;4.97882;-0.938268;0.477983;-0.196964;2.81725;1.49875;0.860632;
-5.55403;2.02561;4.98374;-0.938316;0.478397;-0.19954;2.82231;1.50033;0.860534;
-5.55949;2.02636;4.98864;-0.938363;0.478811;-0.202111;2.82736;1.5019;0.860434;
-5.56492;2.02711;4.99353;-0.93841;0.479223;-0.204678;2.83241;1.50347;0.860334;
-5.57034;2.02786;4.9984;-0.938456;0.479634;-0.207241;2.83745;1.50504;0.860232;
-5.57575;2.02861;5.00324;-0.938502;0.480045;-0.209799;2.84248;1.5066;0.860129;
-5.58113;2.02936;5.00808;-0.938547;0.480454;-0.212353;2.8475;1.50816;0.860025;
-5.5865;2.0301;5.01289;-0.938591;0.480863;-0.214902;2.85251;1.50971;0.859919;
-5.59186;2.03084;5.01768;-0.938634;0.48127;-0.217447;2.85751;1.51126;0.859813;
-5.5972;2.03157;5.02246;-0.938677;0.481677;-0.219987;2.86251;1.5128;0.859705;
-5.60252;2.0323;5.02722;-0.938719;0.482083;-0.222523;2.8675;1.51434;0.859597;
-5.60783;2.03304;5.03196;-0.938761;0.482487;-0.225054;2.87248;1.51587;0.859487;
-5.61312;2.03376;5.03668;-0.938802;0.482891;-0.227581;2.87746;1.5174;0.859376;
-5.61839;2.03449;5.04138;-0.938842;0.483294;-0.230103;2.88242;1.51892;0.859264;
-5.62365;2.03521;5.04607;-0.938882;0.483696;-0.232621;2.88738;1.52044;0.859151;
-5.62889;2.03593;5.05074;-0.938922;0.484097;-0.235135;2.89233;1.52196;0.859037;
-5.63412;2.03665;5.05539;-0.93896;0.484497;-0.237644;2.89727;1.52347;0.858922;
-5.63933;2.03736;5.06003;-0.938998;0.484896;-0.240148;2.9022;1.52497;0.858806;
-5.64452;2.03807;5.06465;-0.939036;0.485294;-0.242648;2.90713;1.52648;0.858689;
-5.6497;2.03878;5.06925;-0.939073;0.485691;-0.245144;2.91205;1.52797;0.858571;
-5.65487;2.03949;5.07383;-0.93911;0.486088;-0.247635;2.91696;1.52947;0.858452;
-5.66002;2.04019;5.0784;-0.939146;0.486483;-0.250121;2.92186;1.53096;0.858332;
-5.66515;2.04089;5.08295;-0.939181;0.486877;-0.252603;2.92675;1.53244;0.858212;
-5.67027;2.04159;5.08748;-0.939216;0.487271;-0.25508;2.93164;1.53392;0.85809;
-5.67537;2.04229;5.092;-0.939251;0.487663;-0.257553;2.93652;1.5354;0.857967;
-5.68046;2.04298;5.0965;-0.939285;0.488055;-0.260022;2.94139;1.53687;0.857844;
-5.68553;2.04367;5.10098;-0.939319;0.488445;-0.262485;2.94626;1.53834;0.85772;
-5.69059;2.04436;5.10545;-0.939352;0.488835;-0.264945;2.95111;1.5398;0.857594;
-5.69564;2.04505;5.1099;-0.939385;0.489224;-0.267399;2.95596;1.54126;0.857468;
-5.70066;2.04573;5.11433;-0.939417;0.489611;-0.26985;2.9608;1.54271;0.857341;
-5.70568;2.04641;5.11875;-0.939449;0.489998;-0.272295;2.96563;1.54416;0.857214;
-5.71068;2.04709;5.12315;-0.93948;0.490384;-0.274737;2.97046;1.54561;0.857085;
-5.71566;2.04777;5.12753;-0.939512;0.490769;-0.277173;2.97528;1.54705;0.856956;
-5.72063;2.04844;5.1319;-0.939542;0.491153;-0.279605;2.98009;1.54849;0.856826;
-5.72558;2.04911;5.13625;-0.939572;0.491536;-0.282033;2.98489;1.54993;0.856695;
-5.73052;2.04978;5.14059;-0.939602;0.491918;-0.284456;2.98968;1.55136;0.856563;
-5.73545;2.05045;5.14491;-0.939632;0.492299;-0.286875;2.99447;1.55278;0.856431;
-5.74036;2.05112;5.14922;-0.939661;0.49268;-0.289288;2.99925;1.5542;0.856297;
-5.74526;2.05178;5.15351;-0.93969;0.493059;-0.291698;3.00402;1.55562;0.856163;
-5.75014;2.05244;5.15778;-0.939718;0.493437;-0.294103;3.00878;1.55703;0.856029;
-5.75501;2.0531;5.16204;-0.939746;0.493815;-0.296503;3.01354;1.55844;0.855893;
-5.75987;2.05376;5.16628;-0.939774;0.494191;-0.298899;3.01829;1.55985;0.855757;
-5.76471;2.05441;5.17051;-0.939801;0.494567;-0.30129;3.02303;1.56125;0.855621;
-5.76953;2.05506;5.17472;-0.939828;0.494941;-0.303677;3.02777;1.56265;0.855483;
-5.77435;2.05571;5.17892;-0.939855;0.495315;-0.306059;3.03249;1.56404;0.855345;
-5.77915;2.05636;5.1831;-0.939881;0.495688;-0.308436;3.03721;1.56543;0.855206;
-5.78393;2.05701;5.18727;-0.939907;0.49606;-0.310809;3.04192;1.56682;0.855067;
-5.7887;2.05765;5.19142;-0.939933;0.49643;-0.313178;3.04663;1.5682;0.854927;
-5.79346;2.05829;5.19556;-0.939959;0.4968;-0.315542;3.05132;1.56958;0.854786;
-5.7982;2.05893;5.19968;-0.939984;0.497169;-0.317901;3.05601;1.57095;0.854645;
-5.80293;2.05957;5.20379;-0.940009;0.497538;-0.320256;3.06069;1.57232;0.854503;
-5.80765;2.06021;5.20788;-0.940033;0.497905;-0.322606;3.06537;1.57369;0.854361;
-5.81235;2.06084;5.21196;-0.940058;0.498271;-0.324952;3.07003;1.57505;0.854218;
-5.81704;2.06147;5.21602;-0.940082;0.498636;-0.327293;3.07469;1.57641;0.854074;
-5.82172;2.0621;5.22007;-0.940106;0.499;-0.32963;3.07935;1.57776;0.85393;
-5.82638;2.06273;5.2241;-0.940129;0.499364;-0.331962;3.08399;1.57912;0.853785;
-5.83103;2.06336;5.22812;-0.940153;0.499726;-0.33429;3.08863;1.58046;0.85364;
-5.83567;2.06398;5.23213;-0.940176;0.500088;-0.336613;3.09326;1.58181;0.853494;
-5.84029;2.0646;5.23612;-0.940199;0.500449;-0.338931;3.09788;1.58315;0.853348;
-5.8449;2.06522;5.24009;-0.940221;0.500808;-0.341245;3.1025;1.58448;0.853201;
-5.8495;2.06584;5.24406;-0.940244;0.501167;-0.343555;3.1071;1.58581;0.853054;
-5.85408;2.06646;5.248;-0.940266;0.501525;-0.345859;3.1117;1.58714;0.852906;
-5.85865;2.06707;5.25194;-0.940288;0.501882;-0.34816;3.1163;1.58847;0.852758;
-5.86321;2.06768;5.25586;-0.94031;0.502238;-0.350456;3.12088;1.58979;0.852609;
-5.86776;2.06829;5.25976;-0.940332;0.502593;-0.352747;3.12546;1.59111;0.852459;
-5.87229;2.0689;5.26366;-0.940353;0.502947;-0.355033;3.13003;1.59242;0.85231;
-5.87681;2.06951;5.26754;-0.940374;0.5033;-0.357316;3.1346;1.59373;0.852159;
-5.88132;2.07011;5.2714;-0.940396;0.503652;-0.359593;3.13916;1.59504;0.852009;
-5.88581;2.07072;5.27525;-0.940417;0.504004;-0.361866;3.14371;1.59634;0.851858;
-5.89029;2.07132;5.27909;-0.940437;0.504354;-0.364135;3.14825;1.59764;0.851706;
-5.89476;2.07192;5.28291;-0.940458;0.504704;-0.366399;3.15278;1.59894;0.851554;
-5.89922;2.07252;5.28672;-0.940478;0.505052;-0.368659;3.15731;1.60023;0.851402;
-5.90366;2.07311;5.29052;-0.940499;0.5054;-0.370914;3.16183;1.60152;0.851249;
-5.9081;2.07371;5.29431;-0.940519;0.505747;-0.373164;3.16635;1.6028;0.851096;
-5.91252;2.0743;5.29808;-0.940539;0.506092;-0.37541;3.17085;1.60408;0.850942;
-5.91692;2.07489;5.30183;-0.940559;0.506437;-0.377652;3.17535;1.60536;0.850788;
-5.92132;2.07548;5.30558;-0.940578;0.506781;-0.379889;3.17985;1.60664;0.850634;
-5.9257;2.07607;5.30931;-0.940598;0.507124;-0.382121;3.18433;1.60791;0.850479;
-5.93007;2.07665;5.31303;-0.940618;0.507466;-0.384349;3.18881;1.60918;0.850324;
-5.93443;2.07724;5.31673;-0.940637;0.507808;-0.386573;3.19328;1.61044;0.850168;
-5.93878;2.07782;5.32042;-0.940656;0.508148;-0.388792;3.19774;1.6117;0.850013;
-5.94311;2.0784;5.3241;-0.940675;0.508487;-0.391006;3.2022;1.61296;0.849856;
-5.94743;2.07898;5.32777;-0.940694;0.508826;-0.393216;3.20665;1.61421;0.8497;
-5.95174;2.07956;5.33142;-0.940713;0.509163;-0.395422;3.21109;1.61546;0.849543;
-5.95604;2.08013;5.33506;-0.940732;0.5095;-0.397623;3.21553;1.61671;0.849386;
-5.96033;2.08071;5.33869;-0.940751;0.509836;-0.399819;3.21996;1.61795;0.849229;
-5.96461;2.08128;5.34231;-0.94077;0.51017;-0.402011;3.22438;1.61919;0.849071;
-5.96887;2.08185;5.34591;-0.940788;0.510504;-0.404199;3.2288;1.62043;0.848913;
-5.97312;2.08242;5.3495;-0.940807;0.510837;-0.406382;3.23321;1.62166;0.848755;
-5.97736;2.08299;5.35308;-0.940825;0.511169;-0.40856;3.23761;1.62289;0.848596;
-5.98159;2.08355;5.35665;-0.940844;0.511501;-0.410735;3.242;1.62412;0.848437;
-5.98581;2.08412;5.3602;-0.940862;0.511831;-0.412904;3.24639;1.62535;0.848278;
-5.99001;2.08468;5.36374;-0.94088;0.51216;-0.415069;3.25077;1.62657;0.848119;
-5.99421;2.08524;5.36727;-0.940898;0.512488;-0.41723;3.25514;1.62778;0.847959;
-5.99839;2.0858;5.37079;-0.940917;0.512816;-0.419387;3.25951;1.629;0.847799;
-6.00256;2.08636;5.37429;-0.940935;0.513143;-0.421538;3.26387;1.63021;0.847639;
-6.00672;2.08692;5.37778;-0.940953;0.513468;-0.423686;3.26822;1.63141;0.847479;
-6.01087;2.08747;5.38126;-0.940971;0.513793;-0.425829;3.27257;1.63262;0.847318;
-6.015;2.08803;5.38473;-0.940989;0.514117;-0.427967;3.2769;1.63382;0.847157;
-6.01913;2.08858;5.38819;-0.941007;0.51444;-0.430101;3.28124;1.63502;0.846996;
-6.02325;2.08913;5.39163;-0.941024;0.514762;-0.432231;3.28556;1.63621;0.846835;
-6.02735;2.08968;5.39507;-0.941042;0.515083;-0.434356;3.28988;1.6374;0.846673;
-6.03144;2.09023;5.39849;-0.94106;0.515403;-0.436477;3.29419;1.63859;0.846512;
-6.03552;2.09078;5.4019;-0.941078;0.515722;-0.438594;3.2985;1.63978;0.84635;
-6.03959;2.09132;5.4053;-0.941096;0.516041;-0.440706;3.3028;1.64096;0.846188;
-6.04365;2.09187;5.40868;-0.941114;0.516358;-0.442813;3.30709;1.64214;0.846025;
-6.0477;2.09241;5.41206;-0.941131;0.516675;-0.444916;3.31137;1.64331;0.845863;
-6.05174;2.09295;5.41542;-0.941149;0.516991;-0.447015;3.31565;1.64448;0.8457;
-6.05577;2.09349;5.41877;-0.941167;0.517306;-0.449109;3.31992;1.64565;0.845537;
-6.05978;2.09403;5.42211;-0.941185;0.517619;-0.451199;3.32418;1.64682;0.845374;
-6.06379;2.09456;5.42544;-0.941202;0.517932;-0.453285;3.32844;1.64798;0.845211;
-6.06778;2.0951;5.42876;-0.94122;0.518245;-0.455366;3.33269;1.64914;0.845048;
-6.07177;2.09563;5.43207;-0.941238;0.518556;-0.457443;3.33694;1.6503;0.844885;
-6.07574;2.09617;5.43536;-0.941256;0.518866;-0.459516;3.34118;1.65145;0.844721;
-6.07971;2.0967;5.43865;-0.941274;0.519176;-0.461584;3.34541;1.6526;0.844557;
-6.08366;2.09723;5.44192;-0.941291;0.519484;-0.463647;3.34963;1.65375;0.844394;
-6.0876;2.09776;5.44518;-0.941309;0.519792;-0.465707;3.35385;1.6549;0.84423;
-6.09153;2.09828;5.44843;-0.941327;0.520098;-0.467762;3.35806;1.65604;0.844066;
-6.09545;2.09881;5.45167;-0.941345;0.520404;-0.469812;3.36226;1.65718;0.843901;
-6.09936;2.09933;5.4549;-0.941363;0.520709;-0.471859;3.36646;1.65831;0.843737;
-6.10326;2.09986;5.45812;-0.941381;0.521013;-0.473901;3.37065;1.65944;0.843573;
-6.10715;2.10038;5.46133;-0.941399;0.521316;-0.475938;3.37484;1.66057;0.843408;
-6.11103;2.1009;5.46453;-0.941417;0.521619;-0.477972;3.37901;1.6617;0.843244;
-6.1149;2.10142;5.46771;-0.941435;0.52192;-0.480001;3.38319;1.66283;0.843079;
-6.11876;2.10194;5.47089;-0.941453;0.522221;-0.482025;3.38735;1.66395;0.842914;
-6.12261;2.10245;5.47405;-0.941471;0.52252;-0.484046;3.39151;1.66506;0.842749;
-6.12645;2.10297;5.47721;-0.941489;0.522819;-0.486062;3.39566;1.66618;0.842584;
-6.13028;2.10348;5.48035;-0.941507;0.523117;-0.488074;3.39981;1.66729;0.842419;
-6.1341;2.104;5.48348;-0.941526;0.523414;-0.490081;3.40395;1.6684;0.842254;
-6.1379;2.10451;5.48661;-0.941544;0.52371;-0.492084;3.40808;1.66951;0.842089;
-6.1417;2.10502;5.48972;-0.941562;0.524005;-0.494083;3.4122;1.67061;0.841924;
-6.14549;2.10553;5.49282;-0.941581;0.524299;-0.496078;3.41632;1.67171;0.841759;
-6.14927;2.10604;5.49591;-0.941599;0.524593;-0.498068;3.42044;1.67281;0.841594;
-6.15304;2.10654;5.49899;-0.941618;0.524885;-0.500054;3.42454;1.6739;0.841428;
-6.1568;2.10705;5.50206;-0.941636;0.525177;-0.502036;3.42864;1.67499;0.841263;
-6.16055;2.10755;5.50512;-0.941655;0.525468;-0.504013;3.43274;1.67608;0.841097;
-6.16429;2.10805;5.50818;-0.941674;0.525757;-0.505987;3.43682;1.67717;0.840932;
-6.16802;2.10856;5.51122;-0.941693;0.526046;-0.507956;3.4409;1.67825;0.840766;
-6.17174;2.10906;5.51425;-0.941711;0.526335;-0.50992;3.44498;1.67933;0.840601;
-6.17545;2.10956;5.51727;-0.94173;0.526622;-0.511881;3.44904;1.68041;0.840435;
-6.17915;2.11005;5.52028;-0.941749;0.526908;-0.513837;3.45311;1.68149;0.84027;
-6.18284;2.11055;5.52328;-0.941769;0.527194;-0.515789;3.45716;1.68256;0.840104;
-6.18652;2.11105;5.52627;-0.941788;0.527478;-0.517737;3.46121;1.68363;0.839939;
-6.1902;2.11154;5.52925;-0.941807;0.527762;-0.519681;3.46525;1.6847;0.839773;
-6.19386;2.11204;5.53222;-0.941826;0.528045;-0.52162;3.46929;1.68576;0.839607;
-6.19751;2.11253;5.53518;-0.941846;0.528327;-0.523555;3.47332;1.68682;0.839442;
-6.20116;2.11302;5.53813;-0.941865;0.528608;-0.525486;3.47734;1.68788;0.839276;
-6.20479;2.11351;5.54107;-0.941885;0.528888;-0.527413;3.48136;1.68894;0.839111;
-6.20842;2.114;5.54401;-0.941905;0.529168;-0.529336;3.48537;1.68999;0.838945;
-6.21203;2.11449;5.54693;-0.941924;0.529446;-0.531254;3.48938;1.69104;0.83878;
-6.21564;2.11497;5.54984;-0.941944;0.529724;-0.533169;3.49337;1.69209;0.838614;
-6.21924;2.11546;5.55275;-0.941964;0.530001;-0.535079;3.49737;1.69313;0.838448;
-6.22282;2.11594;5.55564;-0.941984;0.530276;-0.536985;3.50135;1.69417;0.838283;
-6.2264;2.11642;5.55852;-0.942005;0.530551;-0.538886;3.50533;1.69521;0.838118;
-6.22997;2.11691;5.5614;-0.942025;0.530826;-0.540784;3.5093;1.69625;0.837952;
-6.23353;2.11739;5.56426;-0.942045;0.531099;-0.542678;3.51327;1.69729;0.837787;
-6.23708;2.11787;5.56712;-0.942066;0.531371;-0.544567;3.51723;1.69832;0.837621;
-6.24063;2.11835;5.56997;-0.942086;0.531643;-0.546452;3.52119;1.69935;0.837456;
-6.24416;2.11882;5.5728;-0.942107;0.531914;-0.548333;3.52514;1.70037;0.837291;
-6.24768;2.1193;5.57563;-0.942128;0.532184;-0.55021;3.52908;1.7014;0.837126;
-6.2512;2.11978;5.57845;-0.942149;0.532453;-0.552083;3.53301;1.70242;0.836961;
-6.25471;2.12025;5.58126;-0.94217;0.532721;-0.553952;3.53694;1.70344;0.836795;
-6.2582;2.12072;5.58406;-0.942191;0.532988;-0.555817;3.54087;1.70445;0.83663;
-6.26169;2.1212;5.58685;-0.942212;0.533254;-0.557677;3.54479;1.70547;0.836465;
-6.26517;2.12167;5.58964;-0.942233;0.53352;-0.559534;3.5487;1.70648;0.836301;
-6.26864;2.12214;5.59241;-0.942255;0.533785;-0.561386;3.5526;1.70749;0.836136;
-6.27211;2.12261;5.59518;-0.942277;0.534049;-0.563234;3.5565;1.70849;0.835971;
-6.27556;2.12307;5.59793;-0.942298;0.534312;-0.565079;3.5604;1.70949;0.835806;
-6.279;2.12354;5.60068;-0.94232;0.534574;-0.566919;3.56428;1.7105;0.835642;
-6.28244;2.12401;5.60342;-0.942342;0.534835;-0.568755;3.56817;1.71149;0.835477;
-6.28587;2.12447;5.60615;-0.942364;0.535096;-0.570587;3.57204;1.71249;0.835313;
-6.28929;2.12494;5.60887;-0.942386;0.535355;-0.572415;3.57591;1.71348;0.835148;
-6.2927;2.1254;5.61158;-0.942409;0.535614;-0.574239;3.57977;1.71447;0.834984;
-6.2961;2.12586;5.61428;-0.942431;0.535872;-0.576059;3.58363;1.71546;0.83482;
-6.29949;2.12632;5.61698;-0.942454;0.536129;-0.577875;3.58748;1.71645;0.834656;
-6.30288;2.12678;5.61966;-0.942476;0.536385;-0.579687;3.59133;1.71743;0.834492;
-6.30625;2.12724;5.62234;-0.942499;0.536641;-0.581495;3.59517;1.71841;0.834328;
-6.30962;2.1277;5.62501;-0.942522;0.536895;-0.583299;3.599;1.71939;0.834164;
-6.31298;2.12815;5.62767;-0.942545;0.537149;-0.585099;3.60283;1.72036;0.834;
-6.31633;2.12861;5.63032;-0.942568;0.537402;-0.586895;3.60665;1.72134;0.833837;
-6.31967;2.12906;5.63296;-0.942592;0.537654;-0.588687;3.61046;1.72231;0.833673;
-6.32301;2.12952;5.6356;-0.942615;0.537905;-0.590474;3.61427;1.72328;0.83351;
-6.32633;2.12997;5.63822;-0.942639;0.538155;-0.592258;3.61808;1.72424;0.833347;
-6.32965;2.13042;5.64084;-0.942663;0.538405;-0.594038;3.62187;1.72521;0.833184;
-6.33296;2.13087;5.64345;-0.942687;0.538653;-0.595815;3.62567;1.72617;0.833021;
-6.33626;2.13132;5.64605;-0.942711;0.538901;-0.597587;3.62945;1.72713;0.832858;
-6.33956;2.13177;5.64864;-0.942735;0.539148;-0.599355;3.63323;1.72808;0.832695;
-6.34284;2.13222;5.65123;-0.942759;0.539394;-0.601119;3.63701;1.72904;0.832533;
-6.34612;2.13267;5.6538;-0.942784;0.53964;-0.602879;3.64077;1.72999;0.83237;
-6.34939;2.13311;5.65637;-0.942808;0.539884;-0.604636;3.64454;1.73094;0.832208;
-6.35265;2.13356;5.65893;-0.942833;0.540128;-0.606388;3.64829;1.73188;0.832045;
-6.3559;2.134;5.66149;-0.942858;0.540371;-0.608137;3.65204;1.73283;0.831883;
-6.35914;2.13444;5.66403;-0.942883;0.540613;-0.609881;3.65579;1.73377;0.831721;
-6.36238;2.13489;5.66656;-0.942908;0.540854;-0.611622;3.65953;1.73471;0.83156;
-6.36561;2.13533;5.66909;-0.942933;0.541094;-0.613359;3.66326;1.73565;0.831398;
-6.36883;2.13577;5.67161;-0.942959;0.541334;-0.615092;3.66699;1.73658;0.831237;
-6.37204;2.13621;5.67412;-0.942984;0.541572;-0.616821;3.67071;1.73752;0.831075;
-6.37525;2.13665;5.67663;-0.94301;0.54181;-0.618546;3.67442;1.73845;0.830914;
-6.37844;2.13708;5.67912;-0.943036;0.542047;-0.620267;3.67813;1.73937;0.830753;
-6.38163;2.13752;5.68161;-0.943062;0.542283;-0.621985;3.68184;1.7403;0.830592;
-6.38481;2.13796;5.68409;-0.943088;0.542519;-0.623698;3.68554;1.74122;0.830431;
-6.38799;2.13839;5.68657;-0.943114;0.542753;-0.625408;3.68923;1.74214;0.830271;
-6.39115;2.13882;5.68903;-0.943141;0.542987;-0.627114;3.69292;1.74306;0.83011;
-6.39431;2.13926;5.69149;-0.943167;0.54322;-0.628816;3.6966;1.74398;0.82995;
-6.39746;2.13969;5.69394;-0.943194;0.543452;-0.630514;3.70027;1.74489;0.82979;
-6.4006;2.14012;5.69638;-0.943221;0.543684;-0.632209;3.70394;1.74581;0.82963;
-6.40374;2.14055;5.69881;-0.943248;0.543914;-0.633899;3.70761;1.74672;0.82947;
-6.40686;2.14098;5.70124;-0.943275;0.544144;-0.635586;3.71127;1.74762;0.829311;
-6.40998;2.14141;5.70366;-0.943303;0.544373;-0.637269;3.71492;1.74853;0.829151;
-6.4131;2.14183;5.70607;-0.94333;0.544601;-0.638948;3.71857;1.74943;0.828992;
-6.4162;2.14226;5.70847;-0.943358;0.544828;-0.640624;3.72221;1.75033;0.828833;
-6.4193;2.14269;5.71087;-0.943386;0.545054;-0.642296;3.72584;1.75123;0.828674;
-6.42239;2.14311;5.71326;-0.943414;0.54528;-0.643963;3.72947;1.75213;0.828515;
-6.42547;2.14354;5.71564;-0.943442;0.545505;-0.645628;3.7331;1.75302;0.828357;
-6.42854;2.14396;5.71801;-0.94347;0.545729;-0.647288;3.73672;1.75392;0.828199;
-6.43161;2.14438;5.72038;-0.943499;0.545952;-0.648945;3.74033;1.75481;0.82804;
-6.43467;2.1448;5.72274;-0.943527;0.546175;-0.650598;3.74394;1.75569;0.827882;
-6.43772;2.14522;5.72509;-0.943556;0.546396;-0.652247;3.74754;1.75658;0.827725;
-6.44077;2.14564;5.72744;-0.943585;0.546617;-0.653892;3.75114;1.75746;0.827567;
-6.4438;2.14606;5.72977;-0.943614;0.546837;-0.655534;3.75473;1.75834;0.82741;
-6.44683;2.14648;5.7321;-0.943643;0.547056;-0.657172;3.75831;1.75922;0.827252;
-6.44986;2.1469;5.73443;-0.943673;0.547275;-0.658806;3.76189;1.7601;0.827095;
-6.45287;2.14731;5.73674;-0.943702;0.547492;-0.660437;3.76547;1.76097;0.826939;
-6.45588;2.14773;5.73905;-0.943732;0.547709;-0.662064;3.76904;1.76185;0.826782;
-6.45888;2.14814;5.74135;-0.943762;0.547925;-0.663687;3.7726;1.76272;0.826626;
-6.46188;2.14856;5.74365;-0.943792;0.54814;-0.665306;3.77616;1.76359;0.826469;
-6.46486;2.14897;5.74593;-0.943822;0.548355;-0.666922;3.77971;1.76445;0.826313;
-6.46784;2.14938;5.74821;-0.943852;0.548569;-0.668534;3.78326;1.76532;0.826158;
-6.47082;2.14979;5.75049;-0.943883;0.548781;-0.670143;3.7868;1.76618;0.826002;
-6.47378;2.1502;5.75275;-0.943913;0.548993;-0.671748;3.79034;1.76704;0.825847;
-6.47674;2.15061;5.75501;-0.943944;0.549205;-0.673349;3.79387;1.7679;0.825691;
-6.47969;2.15102;5.75726;-0.943975;0.549415;-0.674946;3.79739;1.76875;0.825536;
-6.48263;2.15143;5.75951;-0.944006;0.549625;-0.67654;3.80091;1.7696;0.825382;
-6.48557;2.15183;5.76175;-0.944038;0.549834;-0.678131;3.80442;1.77046;0.825227;
-6.4885;2.15224;5.76398;-0.944069;0.550042;-0.679717;3.80793;1.77131;0.825073;
-6.49142;2.15265;5.7662;-0.944101;0.550249;-0.6813;3.81144;1.77215;0.824919;
-6.49434;2.15305;5.76842;-0.944132;0.550456;-0.68288;3.81493;1.773;0.824765;
-6.49725;2.15345;5.77063;-0.944164;0.550662;-0.684456;3.81843;1.77384;0.824611;
-6.50015;2.15386;5.77284;-0.944196;0.550867;-0.686028;3.82191;1.77468;0.824458;
-6.50305;2.15426;5.77504;-0.944229;0.551071;-0.687597;3.8254;1.77552;0.824304;
-6.50594;2.15466;5.77723;-0.944261;0.551275;-0.689162;3.82887;1.77636;0.824151;
-6.50882;2.15506;5.77941;-0.944294;0.551477;-0.690723;3.83234;1.77719;0.823999;
-6.51169;2.15546;5.78159;-0.944326;0.551679;-0.692281;3.83581;1.77803;0.823846;
-6.51456;2.15586;5.78376;-0.944359;0.55188;-0.693836;3.83927;1.77886;0.823694;
-6.51742;2.15626;5.78592;-0.944392;0.552081;-0.695387;3.84273;1.77969;0.823542;
-6.52028;2.15666;5.78808;-0.944426;0.55228;-0.696934;3.84618;1.78051;0.82339;
-6.52313;2.15705;5.79023;-0.944459;0.552479;-0.698478;3.84962;1.78134;0.823238;
-6.52597;2.15745;5.79238;-0.944492;0.552677;-0.700018;3.85306;1.78216;0.823087;
-6.5288;2.15784;5.79452;-0.944526;0.552875;-0.701555;3.85649;1.78298;0.822936;
-6.53163;2.15824;5.79665;-0.94456;0.553071;-0.703088;3.85992;1.7838;0.822785;
-6.53445;2.15863;5.79877;-0.944594;0.553267;-0.704618;3.86334;1.78462;0.822634;
-6.53727;2.15902;5.80089;-0.944628;0.553462;-0.706144;3.86676;1.78544;0.822483;
-6.54007;2.15942;5.80301;-0.944662;0.553656;-0.707667;3.87018;1.78625;0.822333;
-6.54287;2.15981;5.80511;-0.944697;0.55385;-0.709186;3.87358;1.78706;0.822183;
-6.54567;2.1602;5.80721;-0.944732;0.554042;-0.710702;3.87699;1.78787;0.822033;
-6.54846;2.16059;5.8093;-0.944766;0.554234;-0.712214;3.88038;1.78868;0.821884;
-6.55124;2.16098;5.81139;-0.944801;0.554425;-0.713723;3.88377;1.78948;0.821734;
-6.55402;2.16136;5.81347;-0.944836;0.554616;-0.715228;3.88716;1.79029;0.821585;
-6.55678;2.16175;5.81555;-0.944872;0.554806;-0.71673;3.89054;1.79109;0.821437;
-6.55955;2.16214;5.81761;-0.944907;0.554995;-0.718229;3.89392;1.79189;0.821288;
-6.5623;2.16252;5.81968;-0.944943;0.555183;-0.719724;3.89729;1.79268;0.82114;
-6.56505;2.16291;5.82173;-0.944979;0.55537;-0.721215;3.90066;1.79348;0.820992;
-6.56779;2.16329;5.82378;-0.945014;0.555557;-0.722703;3.90402;1.79427;0.820844;
-6.57053;2.16368;5.82583;-0.945051;0.555743;-0.724188;3.90737;1.79507;0.820696;
-6.57326;2.16406;5.82786;-0.945087;0.555928;-0.725669;3.91072;1.79586;0.820549;
-6.57599;2.16444;5.82989;-0.945123;0.556112;-0.727147;3.91407;1.79664;0.820402;
-6.5787;2.16482;5.83192;-0.94516;0.556296;-0.728622;3.91741;1.79743;0.820255;
-6.58142;2.1652;5.83394;-0.945196;0.556479;-0.730093;3.92074;1.79822;0.820108;
-6.58412;2.16558;5.83595;-0.945233;0.556661;-0.731561;3.92407;1.799;0.819962;
-6.58682;2.16596;5.83796;-0.94527;0.556843;-0.733025;3.9274;1.79978;0.819816;
-6.58951;2.16634;5.83996;-0.945308;0.557023;-0.734486;3.93072;1.80056;0.81967;
-6.5922;2.16672;5.84196;-0.945345;0.557203;-0.735944;3.93403;1.80133;0.819525;
-6.59488;2.1671;5.84394;-0.945382;0.557383;-0.737398;3.93734;1.80211;0.819379;
-6.59755;2.16747;5.84593;-0.94542;0.557561;-0.738849;3.94065;1.80288;0.819234;
-6.60022;2.16785;5.84791;-0.945458;0.557739;-0.740297;3.94394;1.80365;0.819089;
-6.60288;2.16822;5.84988;-0.945496;0.557916;-0.741741;3.94724;1.80442;0.818945;
-6.60554;2.1686;5.85184;-0.945534;0.558092;-0.743182;3.95053;1.80519;0.818801;
-6.60819;2.16897;5.8538;-0.945572;0.558268;-0.74462;3.95381;1.80596;0.818657;
-6.61083;2.16934;5.85576;-0.945611;0.558443;-0.746054;3.95709;1.80672;0.818513;
-6.61347;2.16972;5.8577;-0.945649;0.558617;-0.747485;3.96037;1.80748;0.818369;
-6.6161;2.17009;5.85965;-0.945688;0.55879;-0.748913;3.96363;1.80824;0.818226;
-6.61872;2.17046;5.86158;-0.945727;0.558963;-0.750337;3.9669;1.809;0.818083;
-6.62134;2.17083;5.86351;-0.945766;0.559135;-0.751758;3.97016;1.80976;0.81794;
-6.62396;2.1712;5.86544;-0.945805;0.559306;-0.753176;3.97341;1.81052;0.817798;
-6.62656;2.17156;5.86736;-0.945845;0.559477;-0.75459;3.97666;1.81127;0.817656;
-6.62916;2.17193;5.86927;-0.945884;0.559646;-0.756002;3.97991;1.81202;0.817514;
-6.63176;2.1723;5.87118;-0.945924;0.559815;-0.75741;3.98315;1.81277;0.817372;
-6.63435;2.17267;5.87308;-0.945964;0.559984;-0.758815;3.98638;1.81352;0.817231;
-6.63693;2.17303;5.87498;-0.946004;0.560151;-0.760216;3.98961;1.81426;0.817089;
-6.63951;2.1734;5.87687;-0.946044;0.560318;-0.761614;3.99283;1.81501;0.816949;
-6.64208;2.17376;5.87876;-0.946084;0.560484;-0.763009;3.99605;1.81575;0.816808;
-6.64465;2.17412;5.88064;-0.946125;0.56065;-0.764401;3.99927;1.81649;0.816668;
-6.64721;2.17449;5.88251;-0.946165;0.560814;-0.76579;4.00248;1.81723;0.816528;
-6.64976;2.17485;5.88438;-0.946206;0.560979;-0.767175;4.00568;1.81797;0.816388;
-6.65231;2.17521;5.88624;-0.946247;0.561142;-0.768557;4.00888;1.8187;0.816248;
-6.65485;2.17557;5.8881;-0.946288;0.561304;-0.769936;4.01208;1.81944;0.816109;
-6.65739;2.17593;5.88995;-0.946329;0.561466;-0.771312;4.01527;1.82017;0.81597;
-6.65992;2.17629;5.8918;-0.946371;0.561628;-0.772685;4.01845;1.8209;0.815831;
-6.66244;2.17665;5.89364;-0.946412;0.561788;-0.774054;4.02163;1.82163;0.815693;
-6.66496;2.17701;5.89548;-0.946454;0.561948;-0.775421;4.02481;1.82236;0.815555;
-6.66748;2.17737;5.89731;-0.946496;0.562107;-0.776784;4.02798;1.82308;0.815417;
-6.66999;2.17772;5.89914;-0.946537;0.562265;-0.778144;4.03114;1.8238;0.815279;
-6.67249;2.17808;5.90096;-0.94658;0.562423;-0.7795;4.03431;1.82453;0.815142;
-6.67499;2.17844;5.90277;-0.946622;0.56258;-0.780854;4.03746;1.82525;0.815005;
-6.67748;2.17879;5.90458;-0.946664;0.562736;-0.782204;4.04061;1.82597;0.814868;
-6.67996;2.17914;5.90639;-0.946707;0.562892;-0.783552;4.04376;1.82668;0.814731;
-6.68244;2.1795;5.90819;-0.94675;0.563047;-0.784896;4.0469;1.8274;0.814595;
-6.68492;2.17985;5.90998;-0.946792;0.563201;-0.786237;4.05004;1.82811;0.814459;
-6.68739;2.1802;5.91177;-0.946835;0.563354;-0.787575;4.05317;1.82882;0.814323;
-6.68985;2.18055;5.91355;-0.946879;0.563507;-0.78891;4.0563;1.82953;0.814188;
-6.69231;2.1809;5.91533;-0.946922;0.563659;-0.790242;4.05942;1.83024;0.814053;
-6.69476;2.18126;5.9171;-0.946965;0.563811;-0.791571;4.06254;1.83095;0.813918;
-6.69721;2.1816;5.91887;-0.947009;0.563961;-0.792896;4.06565;1.83165;0.813783;
-6.69965;2.18195;5.92063;-0.947053;0.564111;-0.794219;4.06876;1.83236;0.813649;
-6.70208;2.1823;5.92239;-0.947097;0.564261;-0.795538;4.07186;1.83306;0.813515;
-6.70451;2.18265;5.92415;-0.947141;0.564409;-0.796855;4.07496;1.83376;0.813381;
-6.70694;2.183;5.92589;-0.947185;0.564557;-0.798168;4.07806;1.83446;0.813248;
-6.70936;2.18334;5.92764;-0.947229;0.564705;-0.799478;4.08115;1.83515;0.813115;
-6.71177;2.18369;5.92937;-0.947273;0.564851;-0.800785;4.08423;1.83585;0.812982;
-6.71418;2.18403;5.93111;-0.947318;0.564997;-0.80209;4.08731;1.83654;0.812849;
-6.71658;2.18438;5.93283;-0.947363;0.565142;-0.803391;4.09039;1.83723;0.812717;
-6.71898;2.18472;5.93456;-0.947408;0.565287;-0.804689;4.09346;1.83793;0.812585;
-6.72137;2.18507;5.93627;-0.947453;0.565431;-0.805984;4.09653;1.83861;0.812453;
-6.72376;2.18541;5.93799;-0.947498;0.565574;-0.807276;4.09959;1.8393;0.812321;
-6.72614;2.18575;5.93969;-0.947543;0.565717;-0.808565;4.10264;1.83999;0.81219;
-6.72852;2.18609;5.9414;-0.947589;0.565859;-0.809851;4.1057;1.84067;0.812059;
-6.73089;2.18643;5.94309;-0.947634;0.566;-0.811135;4.10874;1.84135;0.811928;
-6.73326;2.18677;5.94479;-0.94768;0.56614;-0.812415;4.11179;1.84203;0.811798;
-6.73562;2.18711;5.94648;-0.947726;0.56628;-0.813692;4.11483;1.84271;0.811668;
-6.73797;2.18745;5.94816;-0.947772;0.566419;-0.814966;4.11786;1.84339;0.811538;
-6.74032;2.18779;5.94984;-0.947818;0.566558;-0.816237;4.12089;1.84407;0.811409;
-6.74267;2.18813;5.95151;-0.947864;0.566696;-0.817505;4.12391;1.84474;0.811279;
-6.74501;2.18846;5.95318;-0.947911;0.566833;-0.818771;4.12693;1.84541;0.81115;
-6.74734;2.1888;5.95484;-0.947957;0.56697;-0.820033;4.12995;1.84609;0.811022;
-6.74967;2.18913;5.9565;-0.948004;0.567105;-0.821292;4.13296;1.84676;0.810893;
-6.752;2.18947;5.95816;-0.948051;0.567241;-0.822549;4.13596;1.84742;0.810765;
-6.75432;2.1898;5.95981;-0.948098;0.567375;-0.823802;4.13897;1.84809;0.810637;
-6.75663;2.19014;5.96145;-0.948145;0.567509;-0.825053;4.14196;1.84876;0.81051;
-6.75894;2.19047;5.96309;-0.948192;0.567642;-0.826301;4.14496;1.84942;0.810383;
-6.76125;2.1908;5.96473;-0.948239;0.567775;-0.827545;4.14794;1.85008;0.810256;
-6.76354;2.19113;5.96636;-0.948287;0.567907;-0.828787;4.15093;1.85074;0.810129;
-6.76584;2.19147;5.96799;-0.948335;0.568038;-0.830026;4.15391;1.8514;0.810003;
-6.76813;2.1918;5.96961;-0.948382;0.568169;-0.831262;4.15688;1.85206;0.809876;
-6.77041;2.19213;5.97122;-0.94843;0.568299;-0.832496;4.15985;1.85271;0.809751;
-6.77269;2.19246;5.97284;-0.948478;0.568428;-0.833726;4.16282;1.85337;0.809625;
-6.77496;2.19279;5.97444;-0.948526;0.568557;-0.834953;4.16578;1.85402;0.8095;
-6.77723;2.19311;5.97605;-0.948575;0.568685;-0.836178;4.16873;1.85467;0.809375;
-6.7795;2.19344;5.97765;-0.948623;0.568813;-0.8374;4.17169;1.85532;0.80925;
-6.78176;2.19377;5.97924;-0.948672;0.568939;-0.838619;4.17463;1.85597;0.809126;
-6.78401;2.1941;5.98083;-0.94872;0.569066;-0.839835;4.17758;1.85662;0.809002;
-6.78626;2.19442;5.98242;-0.948769;0.569191;-0.841048;4.18052;1.85726;0.808878;
-6.7885;2.19475;5.984;-0.948818;0.569316;-0.842258;4.18345;1.85791;0.808754;
-6.79074;2.19507;5.98557;-0.948867;0.56944;-0.843466;4.18638;1.85855;0.808631;
-6.79298;2.1954;5.98714;-0.948916;0.569564;-0.84467;4.18931;1.85919;0.808508;
-6.79521;2.19572;5.98871;-0.948966;0.569687;-0.845872;4.19223;1.85983;0.808385;
-6.79743;2.19604;5.99027;-0.949015;0.569809;-0.847071;4.19514;1.86047;0.808263;
-6.79965;2.19637;5.99183;-0.949065;0.569931;-0.848268;4.19805;1.8611;0.808141;
-6.80187;2.19669;5.99339;-0.949114;0.570052;-0.849461;4.20096;1.86174;0.808019;
-6.80408;2.19701;5.99494;-0.949164;0.570172;-0.850652;4.20387;1.86237;0.807898;
-6.80628;2.19733;5.99648;-0.949214;0.570292;-0.85184;4.20676;1.86301;0.807776;
-6.80848;2.19765;5.99802;-0.949264;0.570411;-0.853025;4.20966;1.86364;0.807655;
-6.81068;2.19797;5.99956;-0.949314;0.57053;-0.854207;4.21255;1.86427;0.807535;
-6.81287;2.19829;6.00109;-0.949365;0.570648;-0.855387;4.21544;1.86489;0.807414;
-6.81506;2.19861;6.00262;-0.949415;0.570765;-0.856564;4.21832;1.86552;0.807294;
-6.81724;2.19892;6.00414;-0.949466;0.570882;-0.857738;4.22119;1.86614;0.807175;
-6.81941;2.19924;6.00566;-0.949516;0.570998;-0.858909;4.22407;1.86677;0.807055;
-6.82159;2.19956;6.00718;-0.949567;0.571113;-0.860078;4.22694;1.86739;0.806936;
-6.82375;2.19987;6.00869;-0.949618;0.571228;-0.861244;4.2298;1.86801;0.806817;
-6.82592;2.20019;6.0102;-0.949669;0.571342;-0.862407;4.23266;1.86863;0.806698;
-6.82807;2.2005;6.0117;-0.94972;0.571456;-0.863567;4.23551;1.86925;0.80658;
-6.83023;2.20082;6.0132;-0.949771;0.571569;-0.864725;4.23837;1.86986;0.806462;
-6.83238;2.20113;6.01469;-0.949823;0.571681;-0.86588;4.24121;1.87048;0.806344;
-6.83452;2.20145;6.01618;-0.949874;0.571793;-0.867032;4.24406;1.87109;0.806226;
-6.83666;2.20176;6.01767;-0.949926;0.571904;-0.868182;4.24689;1.8717;0.806109;
-6.8388;2.20207;6.01915;-0.949978;0.572014;-0.869329;4.24973;1.87231;0.805992;
-6.84093;2.20238;6.02063;-0.95003;0.572124;-0.870473;4.25256;1.87292;0.805876;
-6.84305;2.20269;6.0221;-0.950081;0.572234;-0.871614;4.25538;1.87353;0.805759;
-6.84517;2.203;6.02357;-0.950134;0.572342;-0.872753;4.2582;1.87414;0.805643;
-6.84729;2.20331;6.02503;-0.950186;0.57245;-0.873889;4.26102;1.87474;0.805528;
-6.8494;2.20362;6.02649;-0.950238;0.572558;-0.875023;4.26383;1.87535;0.805412;
-6.85151;2.20393;6.02795;-0.950291;0.572665;-0.876154;4.26664;1.87595;0.805297;
-6.85361;2.20424;6.0294;-0.950343;0.572771;-0.877282;4.26945;1.87655;0.805182;
-6.85571;2.20455;6.03085;-0.950396;0.572877;-0.878408;4.27225;1.87715;0.805067;
-6.85781;2.20485;6.0323;-0.950448;0.572982;-0.879531;4.27504;1.87775;0.804953;
-6.85989;2.20516;6.03374;-0.950501;0.573086;-0.880651;4.27783;1.87835;0.804839;
-6.86198;2.20547;6.03518;-0.950554;0.57319;-0.881769;4.28062;1.87894;0.804725;
-6.86406;2.20577;6.03661;-0.950607;0.573294;-0.882884;4.28341;1.87954;0.804612;
-6.86614;2.20608;6.03804;-0.950661;0.573396;-0.883996;4.28618;1.88013;0.804499;
-6.86821;2.20638;6.03946;-0.950714;0.573499;-0.885106;4.28896;1.88072;0.804386;
-6.87028;2.20669;6.04088;-0.950767;0.5736;-0.886213;4.29173;1.88131;0.804273;
-6.87234;2.20699;6.0423;-0.950821;0.573701;-0.887318;4.2945;1.8819;0.804161;
-6.8744;2.20729;6.04371;-0.950875;0.573801;-0.88842;4.29726;1.88249;0.804049;
-6.87645;2.20759;6.04512;-0.950928;0.573901;-0.889519;4.30002;1.88307;0.803937;
-6.8785;2.2079;6.04653;-0.950982;0.574;-0.890616;4.30277;1.88366;0.803825;
-6.88055;2.2082;6.04793;-0.951036;0.574099;-0.891711;4.30552;1.88424;0.803714;
-6.88259;2.2085;6.04933;-0.95109;0.574197;-0.892802;4.30827;1.88482;0.803603;
-6.88463;2.2088;6.05072;-0.951144;0.574295;-0.893892;4.31101;1.8854;0.803493;
-6.88666;2.2091;6.05211;-0.951199;0.574391;-0.894978;4.31375;1.88598;0.803382;
-6.88869;2.2094;6.05349;-0.951253;0.574488;-0.896062;4.31648;1.88656;0.803272;
-6.89071;2.20969;6.05488;-0.951307;0.574583;-0.897144;4.31921;1.88714;0.803163;
-6.89273;2.20999;6.05626;-0.951362;0.574679;-0.898223;4.32193;1.88771;0.803053;
-6.89474;2.21029;6.05763;-0.951417;0.574773;-0.899299;4.32466;1.88829;0.802944;
-6.89676;2.21059;6.059;-0.951472;0.574867;-0.900373;4.32737;1.88886;0.802835;
-6.89876;2.21088;6.06037;-0.951526;0.574961;-0.901445;4.33009;1.88943;0.802726;
-6.90076;2.21118;6.06173;-0.951581;0.575053;-0.902514;4.3328;1.89;0.802618;
-6.90276;2.21147;6.06309;-0.951636;0.575146;-0.90358;4.3355;1.89057;0.80251;
-6.90476;2.21177;6.06445;-0.951692;0.575237;-0.904644;4.3382;1.89114;0.802402;
-6.90675;2.21206;6.0658;-0.951747;0.575329;-0.905705;4.3409;1.89171;0.802295;
-6.90873;2.21236;6.06715;-0.951802;0.575419;-0.906764;4.34359;1.89227;0.802188;
-6.91071;2.21265;6.06849;-0.951858;0.575509;-0.907821;4.34628;1.89284;0.802081;
-6.91269;2.21294;6.06983;-0.951913;0.575599;-0.908875;4.34896;1.8934;0.801974;
-6.91466;2.21323;6.07117;-0.951969;0.575688;-0.909926;4.35165;1.89396;0.801868;
-6.91663;2.21353;6.0725;-0.952025;0.575776;-0.910975;4.35432;1.89452;0.801762;
-6.9186;2.21382;6.07383;-0.952081;0.575864;-0.912022;4.35699;1.89508;0.801656;
-6.92056;2.21411;6.07516;-0.952137;0.575951;-0.913066;4.35966;1.89564;0.80155;
-6.92252;2.2144;6.07648;-0.952193;0.576038;-0.914108;4.36233;1.89619;0.801445;
-6.92447;2.21469;6.0778;-0.952249;0.576124;-0.915147;4.36499;1.89675;0.80134;
-6.92642;2.21498;6.07912;-0.952305;0.576209;-0.916184;4.36765;1.8973;0.801236;
-6.92836;2.21526;6.08043;-0.952361;0.576294;-0.917218;4.3703;1.89785;0.801131;
-6.9303;2.21555;6.08174;-0.952418;0.576379;-0.91825;4.37295;1.8984;0.801027;
-6.93224;2.21584;6.08304;-0.952474;0.576463;-0.919279;4.37559;1.89895;0.800923;
-6.93417;2.21613;6.08434;-0.952531;0.576546;-0.920306;4.37823;1.8995;0.80082;
-6.9361;2.21641;6.08564;-0.952588;0.576629;-0.921331;4.38087;1.90005;0.800716;
-6.93802;2.2167;6.08693;-0.952645;0.576711;-0.922353;4.3835;1.9006;0.800614;
-6.93994;2.21698;6.08822;-0.952701;0.576793;-0.923373;4.38613;1.90114;0.800511;
-6.94186;2.21727;6.08951;-0.952758;0.576874;-0.92439;4.38876;1.90169;0.800408;
-6.94377;2.21755;6.09079;-0.952815;0.576955;-0.925406;4.39138;1.90223;0.800306;
-6.94568;2.21784;6.09207;-0.952873;0.577035;-0.926418;4.394;1.90277;0.800204;
-6.94758;2.21812;6.09335;-0.95293;0.577114;-0.927428;4.39661;1.90331;0.800103;
-6.94948;2.2184;6.09462;-0.952987;0.577193;-0.928436;4.39922;1.90385;0.800002;
-6.95138;2.21869;6.09589;-0.953045;0.577272;-0.929442;4.40182;1.90439;0.799901;
-6.95327;2.21897;6.09716;-0.953102;0.57735;-0.930445;4.40443;1.90492;0.7998;
-6.95516;2.21925;6.09842;-0.95316;0.577427;-0.931446;4.40702;1.90546;0.799699;
-6.95704;2.21953;6.09968;-0.953217;0.577504;-0.932444;4.40962;1.90599;0.799599;
-6.95893;2.21981;6.10094;-0.953275;0.57758;-0.933441;4.41221;1.90653;0.799499;
-6.9608;2.22009;6.10219;-0.953333;0.577656;-0.934434;4.41479;1.90706;0.7994;
-6.96267;2.22037;6.10344;-0.953391;0.577731;-0.935426;4.41738;1.90759;0.7993;
-6.96454;2.22065;6.10469;-0.953449;0.577806;-0.936415;4.41995;1.90812;0.799201;
-6.96641;2.22093;6.10593;-0.953507;0.57788;-0.937402;4.42253;1.90865;0.799103;
-6.96827;2.22121;6.10717;-0.953565;0.577954;-0.938386;4.4251;1.90917;0.799004;
-6.97013;2.22148;6.1084;-0.953623;0.578027;-0.939368;4.42767;1.9097;0.798906;
-6.97198;2.22176;6.10964;-0.953682;0.5781;-0.940348;4.43023;1.91022;0.798808;
-6.97383;2.22204;6.11087;-0.95374;0.578172;-0.941326;4.43279;1.91075;0.79871;
-6.97568;2.22231;6.11209;-0.953799;0.578244;-0.942301;4.43534;1.91127;0.798613;
-6.97752;2.22259;6.11331;-0.953857;0.578315;-0.943274;4.4379;1.91179;0.798516;
-6.97936;2.22286;6.11453;-0.953916;0.578385;-0.944245;4.44044;1.91231;0.798419;
-6.98119;2.22314;6.11575;-0.953975;0.578455;-0.945213;4.44299;1.91283;0.798322;
-6.98302;2.22341;6.11696;-0.954033;0.578525;-0.946179;4.44553;1.91335;0.798226;
-6.98485;2.22369;6.11817;-0.954092;0.578594;-0.947143;4.44807;1.91386;0.79813;
-6.98667;2.22396;6.11938;-0.954151;0.578662;-0.948105;4.4506;1.91438;0.798034;
-6.98849;2.22423;6.12058;-0.95421;0.57873;-0.949064;4.45313;1.91489;0.797939;
-6.9903;2.2245;6.12178;-0.954269;0.578798;-0.950021;4.45565;1.91541;0.797844;
-6.99212;2.22478;6.12298;-0.954329;0.578865;-0.950976;4.45817;1.91592;0.797749;
-6.99392;2.22505;6.12417;-0.954388;0.578931;-0.951928;4.46069;1.91643;0.797654;
-6.99573;2.22532;6.12536;-0.954447;0.578997;-0.952879;4.46321;1.91694;0.79756;
-6.99753;2.22559;6.12655;-0.954507;0.579063;-0.953827;4.46572;1.91745;0.797465;
-6.99933;2.22586;6.12773;-0.954566;0.579128;-0.954773;4.46822;1.91795;0.797372;
-7.00112;2.22613;6.12891;-0.954626;0.579192;-0.955716;4.47072;1.91846;0.797278;
-7.00291;2.2264;6.13009;-0.954685;0.579256;-0.956658;4.47322;1.91897;0.797185;
-7.0047;2.22666;6.13126;-0.954745;0.579319;-0.957597;4.47572;1.91947;0.797092;
-7.00648;2.22693;6.13243;-0.954805;0.579382;-0.958534;4.47821;1.91997;0.796999;
-7.00826;2.2272;6.1336;-0.954865;0.579445;-0.959469;4.4807;1.92047;0.796906;
-7.01003;2.22747;6.13477;-0.954924;0.579507;-0.960401;4.48318;1.92098;0.796814;
-7.0118;2.22773;6.13593;-0.954984;0.579568;-0.961332;4.48566;1.92147;0.796722;
-7.01357;2.228;6.13709;-0.955044;0.579629;-0.96226;4.48814;1.92197;0.796631;
-7.01533;2.22826;6.13824;-0.955105;0.57969;-0.963186;4.49061;1.92247;0.796539;
-7.0171;2.22853;6.13939;-0.955165;0.57975;-0.96411;4.49308;1.92297;0.796448;
-7.01885;2.22879;6.14054;-0.955225;0.579809;-0.965032;4.49555;1.92346;0.796357;
-7.02061;2.22906;6.14169;-0.955285;0.579868;-0.965951;4.49801;1.92396;0.796267;
-7.02236;2.22932;6.14283;-0.955346;0.579927;-0.966868;4.50047;1.92445;0.796176;
-7.0241;2.22958;6.14397;-0.955406;0.579985;-0.967784;4.50292;1.92494;0.796086;
-7.02584;2.22985;6.14511;-0.955467;0.580042;-0.968697;4.50538;1.92543;0.795996;
-7.02758;2.23011;6.14625;-0.955527;0.580099;-0.969608;4.50782;1.92592;0.795907;
-7.02932;2.23037;6.14738;-0.955588;0.580156;-0.970516;4.51027;1.92641;0.795818;
-7.03105;2.23063;6.14851;-0.955649;0.580212;-0.971423;4.51271;1.9269;0.795729;
-7.03278;2.23089;6.14963;-0.955709;0.580267;-0.972327;4.51514;1.92738;0.79564;
-7.0345;2.23115;6.15075;-0.95577;0.580322;-0.97323;4.51758;1.92787;0.795551;
-7.03623;2.23141;6.15187;-0.955831;0.580377;-0.97413;4.52001;1.92835;0.795463;
-7.03794;2.23167;6.15299;-0.955892;0.580431;-0.975028;4.52243;1.92884;0.795375;
-7.03966;2.23193;6.1541;-0.955953;0.580485;-0.975924;4.52485;1.92932;0.795288;
-7.04137;2.23219;6.15521;-0.956014;0.580538;-0.976818;4.52727;1.9298;0.7952;
-7.04308;2.23245;6.15632;-0.956075;0.580591;-0.97771;4.52969;1.93028;0.795113;
-7.04478;2.23271;6.15742;-0.956137;0.580643;-0.9786;4.5321;1.93076;0.795026;
-7.04648;2.23296;6.15853;-0.956198;0.580695;-0.979487;4.53451;1.93123;0.79494;
-7.04818;2.23322;6.15963;-0.956259;0.580746;-0.980373;4.53691;1.93171;0.794853;
-7.04987;2.23348;6.16072;-0.956321;0.580797;-0.981256;4.53931;1.93219;0.794767;
-7.05156;2.23373;6.16181;-0.956382;0.580847;-0.982138;4.54171;1.93266;0.794681;
-7.05325;2.23399;6.1629;-0.956443;0.580897;-0.983017;4.5441;1.93314;0.794596;
-7.05494;2.23424;6.16399;-0.956505;0.580947;-0.983894;4.54649;1.93361;0.79451;
-7.05662;2.2345;6.16508;-0.956567;0.580996;-0.984769;4.54888;1.93408;0.794425;
-7.05829;2.23475;6.16616;-0.956628;0.581044;-0.985642;4.55126;1.93455;0.79434;
-7.05997;2.23501;6.16724;-0.95669;0.581092;-0.986513;4.55364;1.93502;0.794256;
-7.06164;2.23526;6.16831;-0.956752;0.58114;-0.987382;4.55602;1.93549;0.794172;
-7.0633;2.23551;6.16938;-0.956814;0.581187;-0.988249;4.55839;1.93595;0.794088;
-7.06497;2.23576;6.17046;-0.956876;0.581234;-0.989114;4.56076;1.93642;0.794004;
-7.06663;2.23602;6.17152;-0.956937;0.58128;-0.989977;4.56313;1.93689;0.79392;
-7.06828;2.23627;6.17259;-0.956999;0.581326;-0.990838;4.56549;1.93735;0.793837;
-7.06994;2.23652;6.17365;-0.957062;0.581371;-0.991697;4.56785;1.93781;0.793754;
-7.07159;2.23677;6.17471;-0.957124;0.581416;-0.992554;4.5702;1.93828;0.793671;
-7.07323;2.23702;6.17576;-0.957186;0.58146;-0.993408;4.57255;1.93874;0.793589;
-7.07488;2.23727;6.17682;-0.957248;0.581504;-0.994261;4.5749;1.9392;0.793507;
-7.07652;2.23752;6.17787;-0.95731;0.581548;-0.995112;4.57725;1.93966;0.793425;
-7.07815;2.23777;6.17892;-0.957373;0.581591;-0.995961;4.57959;1.94011;0.793343;
-7.07979;2.23802;6.17996;-0.957435;0.581633;-0.996808;4.58193;1.94057;0.793262;
-7.08142;2.23826;6.181;-0.957497;0.581675;-0.997652;4.58426;1.94103;0.793181;
-7.08304;2.23851;6.18204;-0.95756;0.581717;-0.998495;4.58659;1.94148;0.7931;
-7.08467;2.23876;6.18308;-0.957622;0.581758;-0.999336;4.58892;1.94194;0.793019;
-7.08629;2.239;6.18411;-0.957685;0.581799;-1.00017;4.59124;1.94239;0.792938;
-7.08791;2.23925;6.18515;-0.957747;0.58184;-1.00101;4.59356;1.94284;0.792858;
-7.08952;2.2395;6.18618;-0.95781;0.58188;-1.00185;4.59588;1.94329;0.792778;
-7.09113;2.23974;6.1872;-0.957873;0.581919;-1.00268;4.59819;1.94374;0.792699;
-7.09274;2.23999;6.18823;-0.957935;0.581958;-1.00351;4.6005;1.94419;0.792619;
-7.09434;2.24023;6.18925;-0.957998;0.581997;-1.00434;4.60281;1.94464;0.79254;
-7.09595;2.24048;6.19026;-0.958061;0.582035;-1.00517;4.60512;1.94509;0.792461;
-7.09754;2.24072;6.19128;-0.958124;0.582073;-1.00599;4.60742;1.94553;0.792383;
-7.09914;2.24096;6.19229;-0.958187;0.58211;-1.00681;4.60971;1.94598;0.792304;
-7.10073;2.24121;6.1933;-0.95825;0.582147;-1.00764;4.61201;1.94642;0.792226;
-7.10232;2.24145;6.19431;-0.958313;0.582183;-1.00846;4.6143;1.94687;0.792148;
-7.1039;2.24169;6.19532;-0.958376;0.582219;-1.00927;4.61658;1.94731;0.79207;
-7.10549;2.24193;6.19632;-0.958439;0.582255;-1.01009;4.61887;1.94775;0.791993;
-7.10707;2.24217;6.19732;-0.958502;0.58229;-1.0109;4.62114;1.94819;0.791916;
-7.10864;2.24241;6.19832;-0.958565;0.582325;-1.01171;4.62342;1.94863;0.791839;
-7.11022;2.24265;6.19931;-0.958628;0.582359;-1.01252;4.62569;1.94907;0.791762;
-7.11178;2.24289;6.2003;-0.958692;0.582393;-1.01333;4.62796;1.94951;0.791686;
-7.11335;2.24313;6.20129;-0.958755;0.582427;-1.01414;4.63023;1.94994;0.79161;
-7.11492;2.24337;6.20228;-0.958818;0.58246;-1.01494;4.63249;1.95038;0.791534;
-7.11648;2.24361;6.20326;-0.958882;0.582492;-1.01574;4.63475;1.95081;0.791458;
-7.11803;2.24385;6.20425;-0.958945;0.582524;-1.01654;4.63701;1.95125;0.791383;
-7.11959;2.24409;6.20522;-0.959008;0.582556;-1.01734;4.63926;1.95168;0.791308;
-7.12114;2.24432;6.2062;-0.959072;0.582588;-1.01814;4.64151;1.95211;0.791233;
-7.12269;2.24456;6.20718;-0.959135;0.582619;-1.01893;4.64376;1.95254;0.791158;
-7.12423;2.2448;6.20815;-0.959199;0.582649;-1.01973;4.646;1.95297;0.791083;
-7.12577;2.24503;6.20912;-0.959263;0.582679;-1.02052;4.64824;1.9534;0.791009;
-7.12731;2.24527;6.21008;-0.959326;0.582709;-1.02131;4.65048;1.95383;0.790935;
-7.12885;2.2455;6.21105;-0.95939;0.582738;-1.02209;4.65271;1.95425;0.790862;
-7.13038;2.24574;6.21201;-0.959454;0.582767;-1.02288;4.65494;1.95468;0.790788;
-7.13191;2.24597;6.21297;-0.959517;0.582796;-1.02366;4.65717;1.95511;0.790715;
-7.13344;2.24621;6.21393;-0.959581;0.582824;-1.02444;4.65939;1.95553;0.790642;
-7.13496;2.24644;6.21488;-0.959645;0.582851;-1.02522;4.66161;1.95595;0.790569;
-7.13648;2.24667;6.21583;-0.959709;0.582879;-1.026;4.66383;1.95638;0.790497;
-7.138;2.24691;6.21678;-0.959773;0.582905;-1.02678;4.66604;1.9568;0.790424;
-7.13952;2.24714;6.21773;-0.959837;0.582932;-1.02755;4.66825;1.95722;0.790352;
-7.14103;2.24737;6.21867;-0.959901;0.582958;-1.02832;4.67046;1.95764;0.790281;
-7.14254;2.2476;6.21961;-0.959964;0.582983;-1.02909;4.67267;1.95806;0.790209;
-7.14404;2.24783;6.22055;-0.960028;0.583009;-1.02986;4.67487;1.95847;0.790138;
-7.14555;2.24806;6.22149;-0.960093;0.583034;-1.03063;4.67706;1.95889;0.790067;
-7.14705;2.2483;6.22243;-0.960157;0.583058;-1.0314;4.67926;1.95931;0.789996;
-7.14855;2.24853;6.22336;-0.960221;0.583082;-1.03216;4.68145;1.95972;0.789925;
-7.15004;2.24875;6.22429;-0.960285;0.583106;-1.03292;4.68364;1.96014;0.789855;
-7.15153;2.24898;6.22522;-0.960349;0.583129;-1.03368;4.68582;1.96055;0.789785;
-7.15302;2.24921;6.22614;-0.960413;0.583152;-1.03444;4.688;1.96096;0.789715;
-7.15451;2.24944;6.22707;-0.960477;0.583174;-1.0352;4.69018;1.96137;0.789645;
-7.15599;2.24967;6.22799;-0.960542;0.583196;-1.03595;4.69236;1.96178;0.789576;
-7.15747;2.2499;6.2289;-0.960606;0.583218;-1.0367;4.69453;1.96219;0.789507;
-7.15894;2.25012;6.22982;-0.96067;0.583239;-1.03745;4.6967;1.9626;0.789438;
-7.16042;2.25035;6.23073;-0.960734;0.58326;-1.0382;4.69886;1.96301;0.789369;
-7.16189;2.25058;6.23164;-0.960799;0.583281;-1.03895;4.70102;1.96342;0.7893;
-7.16336;2.2508;6.23255;-0.960863;0.583301;-1.0397;4.70318;1.96382;0.789232;
-7.16482;2.25103;6.23346;-0.960928;0.583321;-1.04044;4.70534;1.96423;0.789164;
-7.16629;2.25125;6.23436;-0.960992;0.58334;-1.04118;4.70749;1.96463;0.789096;
-7.16775;2.25148;6.23527;-0.961056;0.583359;-1.04192;4.70964;1.96504;0.789029;
-7.1692;2.2517;6.23617;-0.961121;0.583378;-1.04266;4.71179;1.96544;0.788961;
-7.17066;2.25193;6.23706;-0.961185;0.583396;-1.0434;4.71393;1.96584;0.788894;
-7.17211;2.25215;6.23796;-0.96125;0.583414;-1.04413;4.71607;1.96624;0.788828;
-7.17356;2.25237;6.23885;-0.961315;0.583431;-1.04487;4.71821;1.96664;0.788761;
-7.175;2.2526;6.23974;-0.961379;0.583448;-1.0456;4.72034;1.96704;0.788695;
-7.17644;2.25282;6.24063;-0.961444;0.583465;-1.04633;4.72247;1.96744;0.788628;
-7.17788;2.25304;6.24152;-0.961508;0.583481;-1.04706;4.7246;1.96784;0.788562;
-7.17932;2.25326;6.2424;-0.961573;0.583497;-1.04778;4.72673;1.96823;0.788497;
-7.18076;2.25349;6.24328;-0.961638;0.583513;-1.04851;4.72885;1.96863;0.788431;
-7.18219;2.25371;6.24416;-0.961702;0.583528;-1.04923;4.73097;1.96902;0.788366;
-7.18362;2.25393;6.24504;-0.961767;0.583543;-1.04995;4.73308;1.96942;0.788301;
-7.18504;2.25415;6.24591;-0.961832;0.583557;-1.05067;4.73519;1.96981;0.788236;
-7.18647;2.25437;6.24678;-0.961896;0.583571;-1.05139;4.7373;1.9702;0.788172;
-7.18789;2.25459;6.24765;-0.961961;0.583585;-1.05211;4.73941;1.97059;0.788107;
-7.1893;2.25481;6.24852;-0.962026;0.583598;-1.05282;4.74151;1.97099;0.788043;
-7.19072;2.25502;6.24939;-0.962091;0.583611;-1.05354;4.74361;1.97138;0.787979;
-7.19213;2.25524;6.25025;-0.962156;0.583624;-1.05425;4.74571;1.97176;0.787916;
-7.19354;2.25546;6.25111;-0.96222;0.583636;-1.05496;4.7478;1.97215;0.787852;
-7.19495;2.25568;6.25197;-0.962285;0.583648;-1.05567;4.74989;1.97254;0.787789;
-7.19635;2.25589;6.25283;-0.96235;0.58366;-1.05637;4.75198;1.97293;0.787726;
-7.19775;2.25611;6.25369;-0.962415;0.583671;-1.05708;4.75407;1.97331;0.787663;
-7.19915;2.25633;6.25454;-0.96248;0.583682;-1.05778;4.75615;1.9737;0.787601;
-7.20055;2.25654;6.25539;-0.962545;0.583692;-1.05848;4.75823;1.97408;0.787538;
-7.20194;2.25676;6.25624;-0.96261;0.583702;-1.05918;4.7603;1.97446;0.787476;
-7.20333;2.25697;6.25708;-0.962675;0.583712;-1.05988;4.76237;1.97485;0.787414;
-7.20472;2.25719;6.25793;-0.96274;0.583722;-1.06058;4.76444;1.97523;0.787353;
-7.20611;2.2574;6.25877;-0.962805;0.583731;-1.06127;4.76651;1.97561;0.787291;
-7.20749;2.25762;6.25961;-0.96287;0.583739;-1.06196;4.76857;1.97599;0.78723;
-7.20887;2.25783;6.26045;-0.962935;0.583748;-1.06266;4.77063;1.97637;0.787169;
-7.21025;2.25805;6.26128;-0.963;0.583756;-1.06335;4.77269;1.97674;0.787108;
-7.21162;2.25826;6.26212;-0.963065;0.583763;-1.06403;4.77474;1.97712;0.787048;
-7.21299;2.25847;6.26295;-0.96313;0.583771;-1.06472;4.7768;1.9775;0.786987;
-7.21436;2.25868;6.26378;-0.963195;0.583777;-1.06541;4.77884;1.97787;0.786927;
-7.21573;2.2589;6.26461;-0.96326;0.583784;-1.06609;4.78089;1.97825;0.786867;
-7.21709;2.25911;6.26543;-0.963325;0.58379;-1.06677;4.78293;1.97862;0.786808;
-7.21846;2.25932;6.26625;-0.96339;0.583796;-1.06745;4.78497;1.979;0.786748;
-7.21981;2.25953;6.26708;-0.963455;0.583802;-1.06813;4.78701;1.97937;0.786689;
-7.22117;2.25974;6.26789;-0.96352;0.583807;-1.06881;4.78904;1.97974;0.78663;
-7.22252;2.25995;6.26871;-0.963585;0.583812;-1.06948;4.79107;1.98011;0.786571;
-7.22388;2.26016;6.26953;-0.963651;0.583816;-1.07016;4.7931;1.98048;0.786512;
-7.22522;2.26037;6.27034;-0.963716;0.583821;-1.07083;4.79512;1.98085;0.786454;
-7.22657;2.26058;6.27115;-0.963781;0.583824;-1.0715;4.79715;1.98122;0.786396;
-7.22791;2.26079;6.27196;-0.963846;0.583828;-1.07217;4.79916;1.98159;0.786338;
-7.22926;2.26099;6.27277;-0.963911;0.583831;-1.07284;4.80118;1.98195;0.78628;
-7.23059;2.2612;6.27357;-0.963976;0.583834;-1.0735;4.80319;1.98232;0.786223;
-7.23193;2.26141;6.27437;-0.964042;0.583837;-1.07417;4.8052;1.98268;0.786165;
-7.23326;2.26162;6.27517;-0.964107;0.583839;-1.07483;4.80721;1.98305;0.786108;
-7.23459;2.26182;6.27597;-0.964172;0.583841;-1.07549;4.80921;1.98341;0.786051;
-7.23592;2.26203;6.27677;-0.964237;0.583842;-1.07615;4.81122;1.98378;0.785995;
-7.23725;2.26224;6.27756;-0.964302;0.583843;-1.07681;4.81321;1.98414;0.785938;
-7.23857;2.26244;6.27836;-0.964368;0.583844;-1.07747;4.81521;1.9845;0.785882;
-7.23989;2.26265;6.27915;-0.964433;0.583845;-1.07812;4.8172;1.98486;0.785826;
-7.24121;2.26285;6.27994;-0.964498;0.583845;-1.07878;4.81919;1.98522;0.78577;
-7.24252;2.26306;6.28072;-0.964563;0.583845;-1.07943;4.82118;1.98558;0.785714;
-7.24384;2.26326;6.28151;-0.964629;0.583844;-1.08008;4.82316;1.98594;0.785659;
-7.24515;2.26347;6.28229;-0.964694;0.583844;-1.08073;4.82514;1.98629;0.785604;
-7.24646;2.26367;6.28307;-0.964759;0.583842;-1.08138;4.82712;1.98665;0.785548;
-7.24776;2.26387;6.28385;-0.964824;0.583841;-1.08202;4.8291;1.98701;0.785494;
-7.24907;2.26408;6.28463;-0.96489;0.583839;-1.08267;4.83107;1.98736;0.785439;
-7.25037;2.26428;6.2854;-0.964955;0.583837;-1.08331;4.83304;1.98772;0.785385;
-7.25166;2.26448;6.28618;-0.96502;0.583835;-1.08395;4.835;1.98807;0.78533;
-7.25296;2.26468;6.28695;-0.965085;0.583832;-1.08459;4.83697;1.98842;0.785276;
-7.25425;2.26488;6.28772;-0.965151;0.583829;-1.08523;4.83893;1.98878;0.785223;
-7.25554;2.26508;6.28849;-0.965216;0.583826;-1.08587;4.84089;1.98913;0.785169;
-7.25683;2.26529;6.28925;-0.965281;0.583822;-1.0865;4.84284;1.98948;0.785116;
-7.25812;2.26549;6.29001;-0.965346;0.583818;-1.08714;4.84479;1.98983;0.785063;
