-0.977474;0.0957143;-0.389321;-0.603353;0.551638;0.214555;0.13608;0.112241;-0.532886;0;
-0.449105;0.287652;0.0464992;-0.284135;0.662563;0.294353;0.389674;0.245307;-0.259446;0;
-0.746158;0.290405;-0.0283699;-0.438123;0.608037;0.277642;0.307726;0.214637;-0.326421;0;
-0.666704;0.377363;0.128209;-0.375588;0.628369;0.303953;0.378432;0.258053;-0.238852;0;
-0.810643;0.410938;0.144701;-0.441646;0.604208;0.303902;0.358063;0.256911;-0.245026;0;
-0.822267;0.473052;0.241655;-0.431686;0.606413;0.318765;0.391208;0.281642;-0.197559;0;
-0.91161;0.515269;0.288751;-0.466566;0.59319;0.324189;0.392484;0.290662;-0.183559;0;
-0.953332;0.566674;0.36388;-0.474161;0.589478;0.334742;0.412864;0.30881;-0.150936;0;
-1.02197;0.610019;0.420731;-0.497366;0.580452;0.34177;0.422037;0.321318;-0.13065;0;
-1.07317;0.655683;0.486931;-0.510657;0.574925;0.350437;0.438044;0.336983;-0.104212;0;
-1.13329;0.697576;0.546098;-0.5292;0.567658;0.357685;0.450169;0.350584;-0.0825665;0;
-1.18674;0.739397;0.60798;-0.544019;0.561745;0.365336;0.464757;0.365217;-0.0591824;0;
-1.24276;0.779033;0.66684;-0.560434;0.555347;0.372319;0.478049;0.379053;-0.0378878;0;
-1.29593;0.81781;0.726091;-0.575324;0.549537;0.379274;0.492256;0.393172;-0.0163885;0;
-1.34946;0.855021;0.783753;-0.590538;0.543674;0.385833;0.506069;0.40694;0.00399986;0;
-1.40151;0.891152;0.841014;-0.605007;0.538123;0.392219;0.520249;0.42073;0.0240816;0;
-1.45318;0.925989;0.897206;-0.61937;0.532663;0.398308;0.534344;0.434324;0.0434186;0;
-1.50385;0.959725;0.952744;-0.633268;0.527412;0.40418;0.54861;0.447851;0.0622967;0;
-1.5539;0.992312;1.00741;-0.646922;0.522293;0.409795;0.562892;0.461237;0.0805797;0;
-1.60315;1.02384;1.06136;-0.660219;0.517341;0.415185;0.577273;0.474526;0.098375;0;
-1.65174;1.05432;1.11452;-0.673236;0.512528;0.420338;0.591699;0.487694;0.115649;0;
-1.69959;1.0838;1.16697;-0.685942;0.507861;0.425268;0.606195;0.500756;0.132447;0;
-1.74678;1.11232;1.21867;-0.698367;0.503328;0.429973;0.62074;0.513705;0.148768;0;
-1.79329;1.1399;1.26967;-0.710505;0.498929;0.434462;0.63534;0.526545;0.164639;0;
-1.83916;1.16659;1.31998;-0.722372;0.494656;0.438736;0.649987;0.539276;0.180069;0;
-1.88438;1.1924;1.3696;-0.733969;0.490507;0.442801;0.664679;0.551899;0.195075;0;
-1.92898;1.21739;1.41854;-0.745307;0.486475;0.446661;0.679413;0.564414;0.20967;0;
-1.97297;1.24156;1.46684;-0.75639;0.482558;0.450319;0.694185;0.576823;0.223868;0;
-2.01636;1.26496;1.51448;-0.767227;0.478751;0.453781;0.708992;0.589127;0.237682;0;
-2.05917;1.2876;1.5615;-0.777822;0.47505;0.457049;0.723831;0.601326;0.251124;0;
-2.10141;1.30953;1.60789;-0.788183;0.471451;0.460127;0.7387;0.613421;0.264208;0;
-2.14308;1.33075;1.65367;-0.798315;0.467951;0.463021;0.753595;0.625413;0.276943;0;
-2.18421;1.3513;1.69886;-0.808224;0.464546;0.465732;0.768514;0.637303;0.289343;0;
-2.22481;1.37121;1.74346;-0.817916;0.461234;0.468266;0.783455;0.649091;0.301417;0;
-2.26488;1.39048;1.78748;-0.827396;0.458009;0.470625;0.798414;0.66078;0.313177;0;
-2.30443;1.40915;1.83094;-0.83667;0.45487;0.472814;0.81339;0.672368;0.324632;0;
-2.34349;1.42724;1.87384;-0.845743;0.451814;0.474836;0.828379;0.683859;0.335792;0;
-2.38205;1.44476;1.9162;-0.854619;0.448837;0.476694;0.843381;0.695251;0.346666;0;
-2.42013;1.46174;1.95802;-0.863304;0.445937;0.478393;0.858392;0.706547;0.357264;0;
-2.45774;1.47819;1.99932;-0.871803;0.443111;0.479934;0.873411;0.717747;0.367595;0;
-2.49489;1.49414;2.0401;-0.88012;0.440357;0.481323;0.888435;0.728852;0.377666;0;
-2.53158;1.5096;2.08037;-0.888259;0.437671;0.482561;0.903464;0.739863;0.387486;0;
-2.56783;1.52459;2.12015;-0.896226;0.435053;0.483653;0.918494;0.750781;0.397063;0;
-2.60365;1.53912;2.15944;-0.904023;0.432498;0.484601;0.933525;0.761606;0.406404;0;
-2.63904;1.55321;2.19824;-0.911656;0.430006;0.485408;0.948554;0.77234;0.415517;0;
-2.67401;1.56687;2.23657;-0.919128;0.427574;0.486078;0.96358;0.782984;0.424408;0;
-2.70858;1.58012;2.27444;-0.926444;0.4252;0.486614;0.978601;0.793538;0.433085;0;
-2.74274;1.59298;2.31185;-0.933606;0.422882;0.487018;0.993616;0.804003;0.441554;0;
-2.77651;1.60546;2.34881;-0.940619;0.420619;0.487294;1.00862;0.81438;0.449821;0;
-2.80989;1.61756;2.38533;-0.947486;0.418407;0.487444;1.02362;0.824671;0.457893;0;
-2.84289;1.6293;2.42142;-0.954211;0.416247;0.487471;1.03861;0.834876;0.465774;0;
-2.87553;1.6407;2.45708;-0.960797;0.414135;0.487378;1.05359;0.844995;0.473472;0;
-2.90779;1.65177;2.49232;-0.967247;0.412071;0.487168;1.06855;0.85503;0.480991;0;
-2.9397;1.66251;2.52714;-0.973565;0.410052;0.486843;1.0835;0.864982;0.488337;0;
-2.97126;1.67294;2.56157;-0.979753;0.408078;0.486405;1.09844;0.874852;0.495514;0;
-3.00247;1.68307;2.59559;-0.985815;0.406147;0.485859;1.11336;0.88464;0.502528;0;
-3.03335;1.69291;2.62921;-0.991754;0.404258;0.485205;1.12826;0.894347;0.509384;0;
-3.06389;1.70246;2.66246;-0.997572;0.402409;0.484447;1.14315;0.903974;0.516085;0;
-3.09411;1.71174;2.69532;-1.00327;0.400598;0.483587;1.15801;0.913522;0.522637;0;
-3.124;1.72076;2.7278;-1.00886;0.398826;0.482627;1.17286;0.922992;0.529044;0;
-3.15359;1.72952;2.75992;-1.01433;0.39709;0.481569;1.18768;0.932384;0.535309;0;
-3.18286;1.73803;2.79167;-1.01969;0.39539;0.480417;1.20249;0.9417;0.541438;0;
-3.21183;1.74631;2.82307;-1.02495;0.393724;0.479172;1.21727;0.95094;0.547433;0;
-3.2405;1.75435;2.85412;-1.0301;0.392092;0.477836;1.23202;0.960106;0.553298;0;
-3.26887;1.76217;2.88482;-1.03515;0.390492;0.476412;1.24676;0.969197;0.559038;0;
-3.29696;1.76977;2.91517;-1.0401;0.388924;0.474901;1.26147;0.978215;0.564655;0;
-3.32476;1.77716;2.9452;-1.04495;0.387386;0.473306;1.27615;0.98716;0.570153;0;
-3.35229;1.78435;2.97489;-1.0497;0.385877;0.47163;1.29081;0.996034;0.575535;0;
-3.37954;1.79135;3.00426;-1.05436;0.384397;0.469873;1.30544;1.00484;0.580804;0;
-3.40652;1.79815;3.0333;-1.05893;0.382946;0.468037;1.32005;1.01357;0.585964;0;
-3.43324;1.80477;3.06203;-1.06341;0.381521;0.466126;1.33463;1.02223;0.591017;0;
-3.45969;1.81121;3.09045;-1.0678;0.380123;0.464141;1.34918;1.03083;0.595966;0;
-3.48589;1.81747;3.11856;-1.07211;0.37875;0.462083;1.3637;1.03936;0.600815;0;
-3.51184;1.82357;3.14638;-1.07633;0.377403;0.459954;1.37819;1.04782;0.605564;0;
-3.53753;1.82951;3.17389;-1.08047;0.37608;0.457757;1.39266;1.05621;0.610218;0;
-3.56299;1.83529;3.20111;-1.08453;0.37478;0.455492;1.40709;1.06454;0.614779;0;
-3.5882;1.84092;3.22804;-1.08851;0.373503;0.453163;1.42149;1.0728;0.619249;0;
-3.61317;1.8464;3.25468;-1.09242;0.372249;0.450769;1.43586;1.081;0.62363;0;
-3.63792;1.85173;3.28105;-1.09625;0.371016;0.448314;1.4502;1.08914;0.627925;0;
-3.66243;1.85693;3.30714;-1.1;0.369804;0.445798;1.46451;1.09721;0.632136;0;
-3.68672;1.862;3.33295;-1.10369;0.368614;0.443224;1.47879;1.10522;0.636265;0;
-3.71078;1.86693;3.3585;-1.1073;0.367443;0.440593;1.49304;1.11317;0.640314;0;
-3.73462;1.87174;3.38378;-1.11085;0.366292;0.437906;1.50725;1.12106;0.644286;0;
-3.75825;1.87642;3.4088;-1.11433;0.36516;0.435165;1.52143;1.12889;0.648181;0;
-3.78167;1.88099;3.43357;-1.11774;0.364047;0.432371;1.53558;1.13666;0.652003;0;
-3.80488;1.88544;3.45808;-1.12109;0.362951;0.429526;1.5497;1.14437;0.655752;0;
-3.82787;1.88978;3.48233;-1.12437;0.361874;0.426631;1.56378;1.15202;0.659431;0;
-3.85067;1.89401;3.50635;-1.1276;0.360814;0.423688;1.57783;1.15962;0.663041;0;
-3.87327;1.89814;3.53011;-1.13076;0.359771;0.420698;1.59184;1.16716;0.666584;0;
-3.89566;1.90217;3.55364;-1.13386;0.358744;0.417663;1.60582;1.17464;0.670062;0;
-3.91787;1.90609;3.57693;-1.13691;0.357733;0.414583;1.61976;1.18206;0.673476;0;
-3.93988;1.90992;3.59999;-1.1399;0.356738;0.41146;1.63367;1.18944;0.676827;0;
-3.9617;1.91366;3.62281;-1.14283;0.355759;0.408295;1.64755;1.19675;0.680118;0;
-3.98333;1.91731;3.64541;-1.14571;0.354795;0.40509;1.66139;1.20402;0.683349;0;
-4.00479;1.92086;3.66779;-1.14854;0.353845;0.401845;1.6752;1.21123;0.686523;0;
-4.02605;1.92434;3.68994;-1.15131;0.352909;0.398562;1.68897;1.21839;0.689639;0;
-4.04715;1.92773;3.71187;-1.15403;0.351988;0.395242;1.70271;1.22549;0.692701;0;
-4.06806;1.93104;3.73359;-1.1567;0.35108;0.391886;1.71641;1.23255;0.695708;0;
-4.0888;1.93428;3.75509;-1.15933;0.350186;0.388496;1.73007;1.23955;0.698663;0;
-4.10937;1.93743;3.77639;-1.1619;0.349305;0.385072;1.7437;1.24651;0.701565;0;
-4.12976;1.94052;3.79748;-1.16443;0.348437;0.381615;1.7573;1.25341;0.704418;0;
-4.14999;1.94353;3.81836;-1.16691;0.347581;0.378127;1.77085;1.26026;0.707221;0;
-4.17006;1.94648;3.83904;-1.16935;0.346738;0.374608;1.78438;1.26707;0.709976;0;
-4.18996;1.94935;3.85953;-1.17175;0.345907;0.37106;1.79786;1.27383;0.712684;0;
-4.20971;1.95217;3.87981;-1.1741;0.345087;0.367483;1.81131;1.28054;0.715346;0;
-4.22929;1.95491;3.8999;-1.1764;0.34428;0.363879;1.82473;1.2872;0.717962;0;
-4.24872;1.9576;3.9198;-1.17867;0.343483;0.360248;1.8381;1.29382;0.720535;0;
-4.26799;1.96023;3.93951;-1.1809;0.342698;0.356592;1.85144;1.30039;0.723064;0;
-4.28711;1.9628;3.95904;-1.18308;0.341923;0.352911;1.86475;1.30691;0.725552;0;
-4.30608;1.96531;3.97837;-1.18523;0.34116;0.349206;1.87802;1.31339;0.727998;0;
-4.3249;1.96777;3.99753;-1.18734;0.340406;0.345477;1.89125;1.31982;0.730404;0;
-4.34357;1.97017;4.01651;-1.18941;0.339663;0.341727;1.90445;1.32621;0.73277;0;
-4.3621;1.97253;4.03531;-1.19145;0.338931;0.337956;1.91761;1.33256;0.735098;0;
-4.38048;1.97483;4.05393;-1.19344;0.338208;0.334164;1.93073;1.33886;0.737387;0;
-4.39873;1.97708;4.07238;-1.19541;0.337494;0.330352;1.94382;1.34512;0.73964;0;
-4.41683;1.97929;4.09066;-1.19734;0.33679;0.326522;1.95687;1.35134;0.741856;0;
-4.4348;1.98145;4.10877;-1.19923;0.336096;0.322673;1.96988;1.35752;0.744037;0;
-4.45263;1.98356;4.12672;-1.20109;0.335411;0.318807;1.98286;1.36365;0.746183;0;
-4.47032;1.98563;4.1445;-1.20292;0.334734;0.314924;1.9958;1.36974;0.748296;0;
-4.48788;1.98766;4.16211;-1.20472;0.334067;0.311026;2.00871;1.37579;0.750374;0;
-4.50531;1.98965;4.17957;-1.20649;0.333408;0.307112;2.02157;1.38181;0.75242;0;
-4.52261;1.9916;4.19686;-1.20823;0.332757;0.303184;2.03441;1.38778;0.754434;0;
-4.53979;1.9935;4.214;-1.20993;0.332115;0.299242;2.0472;1.39371;0.756417;0;
-4.55683;1.99537;4.23099;-1.21161;0.331482;0.295286;2.05996;1.3996;0.758369;0;
-4.57375;1.99721;4.24782;-1.21326;0.330856;0.291319;2.07268;1.40546;0.760291;0;
-4.59055;1.999;4.2645;-1.21488;0.330238;0.287339;2.08537;1.41127;0.762183;0;
-4.60722;2.00076;4.28103;-1.21647;0.329628;0.283348;2.09802;1.41705;0.764046;0;
-4.62377;2.00249;4.29741;-1.21804;0.329025;0.279346;2.11063;1.42279;0.765881;0;
-4.6402;2.00419;4.31364;-1.21958;0.32843;0.275334;2.12321;1.42849;0.767688;0;
-4.65652;2.00585;4.32974;-1.22109;0.327843;0.271313;2.13575;1.43416;0.769468;0;
-4.67271;2.00748;4.34568;-1.22258;0.327262;0.267283;2.14825;1.43979;0.771221;0;
-4.6888;2.00908;4.36149;-1.22404;0.326689;0.263245;2.16072;1.44538;0.772948;0;
-4.70476;2.01065;4.37716;-1.22548;0.326123;0.259198;2.17315;1.45094;0.77465;0;
-4.72062;2.01219;4.39269;-1.22689;0.325564;0.255145;2.18555;1.45646;0.776326;0;
-4.73636;2.01371;4.40809;-1.22828;0.325011;0.251085;2.19791;1.46195;0.777977;0;
-4.75199;2.01519;4.42335;-1.22965;0.324465;0.247018;2.21024;1.4674;0.779604;0;
-4.76751;2.01665;4.43847;-1.23099;0.323925;0.242946;2.22252;1.47282;0.781207;0;
-4.78292;2.01809;4.45347;-1.23232;0.323392;0.238868;2.23478;1.4782;0.782787;0;
-4.79823;2.0195;4.46834;-1.23362;0.322866;0.234786;2.24699;1.48355;0.784344;0;
-4.81343;2.02088;4.48307;-1.2349;0.322345;0.230699;2.25917;1.48887;0.785878;0;
-4.82852;2.02224;4.49768;-1.23616;0.321831;0.226608;2.27132;1.49415;0.787391;0;
-4.84352;2.02358;4.51217;-1.2374;0.321322;0.222514;2.28343;1.4994;0.788881;0;
-4.8584;2.02489;4.52653;-1.23861;0.320819;0.218417;2.2955;1.50462;0.790351;0;
-4.87319;2.02618;4.54077;-1.23981;0.320323;0.214318;2.30754;1.5098;0.791799;0;
-4.88788;2.02745;4.55488;-1.24099;0.319831;0.210216;2.31954;1.51496;0.793227;0;
-4.90247;2.0287;4.56888;-1.24215;0.319346;0.206113;2.33151;1.52008;0.794635;0;
-4.91696;2.02993;4.58276;-1.2433;0.318866;0.202008;2.34344;1.52517;0.796024;0;
-4.93135;2.03114;4.59652;-1.24442;0.318391;0.197903;2.35534;1.53023;0.797392;0;
-4.94564;2.03233;4.61016;-1.24553;0.317922;0.193796;2.3672;1.53526;0.798742;0;
-4.95984;2.0335;4.62369;-1.24662;0.317458;0.18969;2.37903;1.54025;0.800073;0;
-4.97395;2.03465;4.6371;-1.24769;0.316999;0.185584;2.39082;1.54522;0.801386;0;
-4.98796;2.03579;4.65041;-1.24874;0.316545;0.181478;2.40258;1.55016;0.80268;0;
-5.00188;2.0369;4.6636;-1.24978;0.316096;0.177373;2.4143;1.55507;0.803957;0;
-5.01571;2.038;4.67668;-1.2508;0.315652;0.17327;2.42599;1.55995;0.805217;0;
-5.02945;2.03909;4.68966;-1.25181;0.315212;0.169167;2.43764;1.5648;0.806459;0;
-5.0431;2.04015;4.70252;-1.2528;0.314778;0.165067;2.44926;1.56962;0.807685;0;
-5.05666;2.0412;4.71529;-1.25378;0.314348;0.160969;2.46084;1.57441;0.808894;0;
-5.07013;2.04224;4.72794;-1.25474;0.313923;0.156874;2.47239;1.57917;0.810086;0;
-5.08352;2.04326;4.74049;-1.25569;0.313502;0.152781;2.4839;1.58391;0.811263;0;
-5.09682;2.04427;4.75294;-1.25662;0.313085;0.148691;2.49538;1.58862;0.812424;0;
-5.11003;2.04526;4.76529;-1.25754;0.312673;0.144605;2.50683;1.5933;0.81357;0;
-5.12316;2.04624;4.77753;-1.25844;0.312265;0.140522;2.51824;1.59795;0.814701;0;
-5.1362;2.0472;4.78968;-1.25933;0.311862;0.136444;2.52961;1.60257;0.815816;0;
-5.14916;2.04815;4.80173;-1.26021;0.311462;0.132369;2.54096;1.60717;0.816917;0;
-5.16204;2.04909;4.81368;-1.26108;0.311066;0.128299;2.55227;1.61174;0.818004;0;
-5.17484;2.05002;4.82553;-1.26193;0.310675;0.124234;2.56354;1.61629;0.819077;0;
-5.18756;2.05093;4.83729;-1.26277;0.310287;0.120173;2.57478;1.62081;0.820135;0;
-5.2002;2.05183;4.84896;-1.26359;0.309903;0.116118;2.58599;1.6253;0.82118;0;
-5.21276;2.05272;4.86053;-1.26441;0.309523;0.112068;2.59716;1.62977;0.822212;0;
-5.22524;2.0536;4.872;-1.26521;0.309147;0.108024;2.6083;1.63421;0.82323;0;
-5.23765;2.05447;4.88339;-1.26601;0.308774;0.103986;2.61941;1.63862;0.824235;0;
-5.24997;2.05533;4.89469;-1.26679;0.308405;0.0999536;2.63048;1.64301;0.825228;0;
-5.26222;2.05617;4.90589;-1.26756;0.30804;0.0959277;2.64152;1.64738;0.826208;0;
-5.2744;2.05701;4.91701;-1.26832;0.307677;0.0919084;2.65253;1.65172;0.827175;0;
-5.2865;2.05783;4.92804;-1.26907;0.307319;0.0878958;2.66351;1.65604;0.828131;0;
-5.29853;2.05865;4.93898;-1.2698;0.306963;0.0838901;2.67445;1.66033;0.829074;0;
-5.31048;2.05946;4.94984;-1.27053;0.306611;0.0798915;2.68535;1.6646;0.830006;0;
-5.32236;2.06025;4.96061;-1.27125;0.306262;0.0759002;2.69623;1.66884;0.830926;0;
-5.33417;2.06104;4.9713;-1.27196;0.305916;0.0719164;2.70707;1.67306;0.831835;0;
-5.34591;2.06182;4.9819;-1.27266;0.305574;0.0679403;2.71788;1.67726;0.832732;0;
-5.35757;2.06259;4.99243;-1.27334;0.305234;0.063972;2.72866;1.68143;0.833619;0;
-5.36917;2.06335;5.00287;-1.27402;0.304897;0.0600117;2.7394;1.68558;0.834494;0;
-5.3807;2.06411;5.01323;-1.27469;0.304563;0.0560595;2.75012;1.68971;0.835359;0;
-5.39215;2.06485;5.02351;-1.27536;0.304233;0.0521157;2.7608;1.69381;0.836214;0;
-5.40354;2.06559;5.03371;-1.27601;0.303905;0.0481803;2.77145;1.69789;0.837058;0;
-5.41487;2.06632;5.04383;-1.27665;0.303579;0.0442535;2.78206;1.70195;0.837892;0;
-5.42612;2.06704;5.05387;-1.27729;0.303257;0.0403356;2.79264;1.70599;0.838715;0;
-5.43731;2.06776;5.06384;-1.27792;0.302937;0.0364265;2.8032;1.71;0.839529;0;
-5.44843;2.06847;5.07373;-1.27854;0.30262;0.0325265;2.81372;1.71399;0.840334;0;
-5.45949;2.06917;5.08354;-1.27915;0.302305;0.0286357;2.82421;1.71796;0.841129;0;
-5.47049;2.06986;5.09328;-1.27975;0.301993;0.0247541;2.83466;1.72191;0.841914;0;
-5.48141;2.07055;5.10295;-1.28035;0.301683;0.0208821;2.84509;1.72584;0.84269;0;
-5.49228;2.07123;5.11254;-1.28094;0.301376;0.0170195;2.85548;1.72974;0.843457;0;
-5.50308;2.07191;5.12206;-1.28152;0.301071;0.0131667;2.86584;1.73363;0.844215;0;
-5.51382;2.07257;5.13151;-1.2821;0.300768;0.00932365;2.87617;1.73749;0.844964;0;
-5.5245;2.07324;5.14089;-1.28266;0.300468;0.00549052;2.88647;1.74134;0.845705;0;
-5.53511;2.07389;5.1502;-1.28322;0.30017;0.00166741;2.89674;1.74516;0.846437;0;
-5.54567;2.07454;5.15944;-1.28378;0.299874;-0.00214558;2.90698;1.74896;0.84716;0;
-5.55616;2.07519;5.16861;-1.28433;0.29958;-0.00594835;2.91719;1.75274;0.847875;0;
-5.5666;2.07583;5.17771;-1.28487;0.299289;-0.00974079;2.92736;1.7565;0.848583;0;
-5.57697;2.07646;5.18674;-1.2854;0.298999;-0.0135228;2.93751;1.76024;0.849282;0;
-5.58729;2.07709;5.19571;-1.28593;0.298711;-0.0172943;2.94762;1.76396;0.849973;0;
-5.59755;2.07771;5.20461;-1.28645;0.298426;-0.0210552;2.9577;1.76767;0.850656;0;
-5.60775;2.07833;5.21344;-1.28697;0.298142;-0.0248055;2.96776;1.77135;0.851332;0;
-5.61789;2.07894;5.22221;-1.28748;0.29786;-0.0285449;2.97778;1.77501;0.852;0;
-5.62798;2.07955;5.23091;-1.28798;0.29758;-0.0322735;2.98777;1.77865;0.85266;0;
-5.638;2.08015;5.23955;-1.28848;0.297302;-0.0359912;2.99773;1.78228;0.853313;0;
-5.64798;2.08075;5.24813;-1.28898;0.297026;-0.0396978;3.00767;1.78588;0.853959;0;
-5.65789;2.08135;5.25665;-1.28946;0.296751;-0.0433934;3.01757;1.78947;0.854598;0;
-5.66776;2.08194;5.2651;-1.28995;0.296478;-0.0470778;3.02744;1.79303;0.85523;0;
-5.67756;2.08252;5.27349;-1.29042;0.296207;-0.050751;3.03728;1.79658;0.855855;0;
-5.68731;2.0831;5.28182;-1.2909;0.295937;-0.0544129;3.0471;1.80011;0.856473;0;
-5.69701;2.08368;5.29009;-1.29136;0.295669;-0.0580635;3.05688;1.80362;0.857085;0;
-5.70666;2.08425;5.2983;-1.29183;0.295403;-0.0617027;3.06663;1.80712;0.857689;0;
-5.71625;2.08482;5.30645;-1.29228;0.295138;-0.0653304;3.07636;1.81059;0.858288;0;
-5.72579;2.08539;5.31454;-1.29274;0.294874;-0.0689466;3.08605;1.81405;0.85888;0;
-5.73528;2.08595;5.32257;-1.29319;0.294612;-0.0725512;3.09572;1.81749;0.859465;0;
-5.74471;2.08651;5.33055;-1.29363;0.294351;-0.0761442;3.10535;1.82091;0.860045;0;
-5.7541;2.08706;5.33847;-1.29407;0.294092;-0.0797255;3.11496;1.82431;0.860618;0;
-5.76343;2.08761;5.34633;-1.2945;0.293834;-0.0832951;3.12454;1.8277;0.861185;0;
-5.77271;2.08816;5.35414;-1.29494;0.293577;-0.0868529;3.13409;1.83107;0.861746;0;
-5.78195;2.0887;5.36189;-1.29536;0.293322;-0.090399;3.14361;1.83442;0.862302;0;
-5.79113;2.08924;5.36958;-1.29578;0.293068;-0.0939331;3.1531;1.83775;0.862851;0;
-5.80026;2.08977;5.37722;-1.2962;0.292815;-0.0974554;3.16256;1.84107;0.863395;0;
-5.80935;2.09031;5.38481;-1.29662;0.292563;-0.100966;3.17199;1.84437;0.863934;0;
-5.81838;2.09084;5.39234;-1.29703;0.292312;-0.104464;3.1814;1.84765;0.864466;0;
-5.82737;2.09136;5.39982;-1.29744;0.292062;-0.107951;3.19078;1.85092;0.864994;0;
-5.83631;2.09189;5.40725;-1.29784;0.291814;-0.111425;3.20013;1.85417;0.865516;0;
-5.8452;2.09241;5.41463;-1.29824;0.291566;-0.114887;3.20945;1.85741;0.866032;0;
-5.85404;2.09292;5.42195;-1.29864;0.29132;-0.118338;3.21874;1.86062;0.866544;0;
-5.86284;2.09344;5.42922;-1.29903;0.291074;-0.121776;3.228;1.86382;0.86705;0;
-5.87159;2.09395;5.43645;-1.29942;0.29083;-0.125202;3.23724;1.86701;0.867551;0;
-5.8803;2.09446;5.44362;-1.2998;0.290586;-0.128616;3.24645;1.87018;0.868047;0;
-5.88896;2.09497;5.45074;-1.30019;0.290344;-0.132017;3.25563;1.87333;0.868539;0;
-5.89757;2.09547;5.45781;-1.30057;0.290102;-0.135407;3.26478;1.87647;0.869025;0;
-5.90614;2.09597;5.46484;-1.30094;0.289861;-0.138784;3.27391;1.87959;0.869507;0;
-5.91466;2.09647;5.47181;-1.30132;0.289621;-0.142149;3.283;1.8827;0.869984;0;
-5.92314;2.09696;5.47874;-1.30169;0.289382;-0.145502;3.29207;1.88579;0.870456;0;
-5.93158;2.09746;5.48562;-1.30205;0.289143;-0.148842;3.30112;1.88886;0.870924;0;
-5.93997;2.09795;5.49245;-1.30242;0.288905;-0.15217;3.31013;1.89192;0.871387;0;
-5.94832;2.09844;5.49924;-1.30278;0.288668;-0.155486;3.31912;1.89497;0.871846;0;
-5.95662;2.09892;5.50598;-1.30314;0.288432;-0.15879;3.32808;1.898;0.8723;0;
-5.96488;2.09941;5.51267;-1.30349;0.288196;-0.162081;3.33702;1.90101;0.87275;0;
-5.9731;2.09989;5.51932;-1.30385;0.287961;-0.16536;3.34592;1.90401;0.873196;0;
-5.98128;2.10037;5.52592;-1.3042;0.287726;-0.168627;3.35481;1.907;0.873637;0;
-5.98941;2.10084;5.53248;-1.30455;0.287493;-0.171881;3.36366;1.90997;0.874075;0;
-5.99751;2.10132;5.53899;-1.30489;0.287259;-0.175123;3.37249;1.91292;0.874508;0;
-6.00556;2.10179;5.54546;-1.30524;0.287026;-0.178353;3.38129;1.91586;0.874938;0;
-6.01357;2.10226;5.55188;-1.30558;0.286794;-0.18157;3.39006;1.91879;0.875363;0;
-6.02154;2.10273;5.55827;-1.30591;0.286563;-0.184775;3.39881;1.9217;0.875784;0;
-6.02947;2.1032;5.5646;-1.30625;0.286331;-0.187968;3.40753;1.9246;0.876202;0;
-6.03736;2.10366;5.5709;-1.30658;0.286101;-0.191148;3.41623;1.92748;0.876616;0;
-6.04521;2.10412;5.57716;-1.30692;0.28587;-0.194316;3.42489;1.93035;0.877026;0;
-6.05302;2.10458;5.58337;-1.30725;0.28564;-0.197472;3.43354;1.93321;0.877432;0;
-6.06079;2.10504;5.58954;-1.30757;0.285411;-0.200615;3.44215;1.93605;0.877835;0;
-6.06852;2.1055;5.59567;-1.3079;0.285182;-0.203746;3.45075;1.93887;0.878234;0;
-6.07622;2.10595;5.60176;-1.30822;0.284953;-0.206865;3.45931;1.94169;0.878629;0;
-6.08387;2.10641;5.60781;-1.30854;0.284725;-0.209971;3.46785;1.94449;0.879021;0;
-6.09149;2.10686;5.61382;-1.30886;0.284497;-0.213066;3.47636;1.94728;0.87941;0;
-6.09907;2.10731;5.61979;-1.30918;0.284269;-0.216147;3.48485;1.95005;0.879795;0;
-6.10661;2.10775;5.62571;-1.30949;0.284041;-0.219217;3.49331;1.95281;0.880177;0;
-6.11411;2.1082;5.63161;-1.30981;0.283814;-0.222274;3.50175;1.95556;0.880555;0;
-6.12158;2.10864;5.63746;-1.31012;0.283587;-0.225319;3.51016;1.95829;0.880931;0;
-6.129;2.10909;5.64327;-1.31043;0.28336;-0.228352;3.51855;1.96101;0.881303;0;
-6.1364;2.10953;5.64905;-1.31074;0.283134;-0.231372;3.52691;1.96372;0.881671;0;
-6.14375;2.10997;5.65478;-1.31104;0.282907;-0.234381;3.53525;1.96641;0.882037;0;
-6.15107;2.11041;5.66048;-1.31135;0.282681;-0.237377;3.54356;1.96909;0.8824;0;
-6.15836;2.11084;5.66615;-1.31165;0.282455;-0.240361;3.55184;1.97176;0.882759;0;
-6.16561;2.11128;5.67177;-1.31195;0.282229;-0.243332;3.56011;1.97442;0.883116;0;
-6.17282;2.11171;5.67736;-1.31225;0.282004;-0.246292;3.56834;1.97706;0.88347;0;
-6.18;2.11214;5.68291;-1.31255;0.281778;-0.24924;3.57655;1.97969;0.88382;0;
-6.18714;2.11257;5.68843;-1.31285;0.281552;-0.252175;3.58474;1.98231;0.884168;0;
-6.19425;2.113;5.69391;-1.31314;0.281327;-0.255098;3.5929;1.98491;0.884513;0;
-6.20132;2.11343;5.69936;-1.31344;0.281102;-0.258009;3.60104;1.9875;0.884855;0;
-6.20836;2.11385;5.70477;-1.31373;0.280876;-0.260908;3.60916;1.99008;0.885195;0;
-6.21536;2.11428;5.71015;-1.31402;0.280651;-0.263795;3.61725;1.99265;0.885532;0;
-6.22233;2.1147;5.71549;-1.31431;0.280426;-0.26667;3.62531;1.99521;0.885866;0;
-6.22927;2.11512;5.72079;-1.3146;0.2802;-0.269533;3.63335;1.99775;0.886197;0;
-6.23618;2.11554;5.72607;-1.31489;0.279975;-0.272384;3.64137;2.00028;0.886526;0;
-6.24305;2.11596;5.73131;-1.31517;0.27975;-0.275223;3.64936;2.0028;0.886852;0;
-6.24989;2.11638;5.73651;-1.31546;0.279524;-0.27805;3.65733;2.00531;0.887176;0;
-6.25669;2.11679;5.74169;-1.31574;0.279299;-0.280866;3.66528;2.00781;0.887497;0;
-6.26346;2.11721;5.74683;-1.31602;0.279074;-0.283669;3.6732;2.01029;0.887815;0;
-6.2702;2.11762;5.75193;-1.31631;0.278848;-0.28646;3.6811;2.01277;0.888132;0;
-6.27691;2.11803;5.75701;-1.31659;0.278623;-0.28924;3.68897;2.01523;0.888446;0;
-6.28359;2.11844;5.76205;-1.31686;0.278397;-0.292008;3.69682;2.01768;0.888757;0;
-6.29023;2.11885;5.76706;-1.31714;0.278171;-0.294764;3.70465;2.02012;0.889066;0;
-6.29685;2.11926;5.77204;-1.31742;0.277945;-0.297508;3.71245;2.02254;0.889373;0;
-6.30343;2.11967;5.77699;-1.31769;0.277719;-0.300241;3.72024;2.02496;0.889677;0;
-6.30998;2.12008;5.78191;-1.31797;0.277493;-0.302961;3.72799;2.02736;0.88998;0;
-6.3165;2.12048;5.7868;-1.31824;0.277266;-0.305671;3.73573;2.02975;0.89028;0;
-6.32299;2.12088;5.79165;-1.31851;0.27704;-0.308368;3.74344;2.03214;0.890578;0;
-6.32945;2.12129;5.79648;-1.31879;0.276813;-0.311054;3.75113;2.03451;0.890873;0;
-6.33588;2.12169;5.80127;-1.31906;0.276586;-0.313728;3.75879;2.03687;0.891167;0;
-6.34228;2.12209;5.80604;-1.31932;0.276359;-0.316391;3.76643;2.03922;0.891458;0;
-6.34865;2.12249;5.81077;-1.31959;0.276132;-0.319042;3.77405;2.04155;0.891748;0;
-6.35499;2.12289;5.81548;-1.31986;0.275904;-0.321682;3.78165;2.04388;0.892035;0;
-6.36129;2.12328;5.82016;-1.32013;0.275676;-0.32431;3.78923;2.0462;0.892321;0;
-6.36758;2.12368;5.82481;-1.32039;0.275448;-0.326927;3.79678;2.0485;0.892604;0;
-6.37383;2.12407;5.82942;-1.32066;0.27522;-0.329532;3.80431;2.0508;0.892885;0;
-6.38005;2.12447;5.83402;-1.32092;0.274992;-0.332126;3.81181;2.05308;0.893165;0;
-6.38624;2.12486;5.83858;-1.32119;0.274763;-0.334709;3.8193;2.05535;0.893442;0;
-6.39241;2.12525;5.84311;-1.32145;0.274534;-0.33728;3.82676;2.05762;0.893718;0;
-6.39854;2.12564;5.84762;-1.32171;0.274305;-0.33984;3.8342;2.05987;0.893992;0;
-6.40465;2.12603;5.8521;-1.32197;0.274075;-0.342389;3.84162;2.06211;0.894264;0;
-6.41073;2.12642;5.85655;-1.32223;0.273845;-0.344926;3.84901;2.06434;0.894534;0;
-6.41678;2.1268;5.86097;-1.32249;0.273615;-0.347453;3.85639;2.06657;0.894802;0;
-6.42281;2.12719;5.86537;-1.32275;0.273384;-0.349968;3.86374;2.06878;0.895069;0;
-6.4288;2.12757;5.86974;-1.32301;0.273153;-0.352472;3.87107;2.07098;0.895334;0;
-6.43477;2.12796;5.87409;-1.32326;0.272922;-0.354965;3.87838;2.07317;0.895597;0;
-6.44072;2.12834;5.8784;-1.32352;0.272691;-0.357447;3.88566;2.07535;0.895858;0;
-6.44663;2.12872;5.88269;-1.32378;0.272459;-0.359917;3.89293;2.07752;0.896118;0;
-6.45252;2.1291;5.88696;-1.32403;0.272227;-0.362377;3.90017;2.07969;0.896376;0;
-6.45838;2.12948;5.8912;-1.32429;0.271994;-0.364826;3.9074;2.08184;0.896633;0;
-6.46422;2.12986;5.89541;-1.32454;0.271761;-0.367264;3.9146;2.08398;0.896888;0;
-6.47003;2.13024;5.8996;-1.32479;0.271528;-0.369691;3.92178;2.08611;0.897141;0;
-6.47581;2.13062;5.90376;-1.32505;0.271294;-0.372107;3.92893;2.08823;0.897393;0;
-6.48156;2.13099;5.9079;-1.3253;0.27106;-0.374513;3.93607;2.09035;0.897643;0;
-6.48729;2.13137;5.91201;-1.32555;0.270825;-0.376907;3.94319;2.09245;0.897892;0;
-6.493;2.13174;5.9161;-1.3258;0.27059;-0.379291;3.95028;2.09454;0.898139;0;
-6.49868;2.13211;5.92017;-1.32605;0.270355;-0.381664;3.95735;2.09663;0.898385;0;
-6.50433;2.13249;5.92421;-1.3263;0.270119;-0.384027;3.96441;2.0987;0.898629;0;
-6.50996;2.13286;5.92822;-1.32655;0.269883;-0.386379;3.97144;2.10077;0.898872;0;
-6.51556;2.13323;5.93221;-1.3268;0.269647;-0.38872;3.97845;2.10282;0.899113;0;
-6.52114;2.1336;5.93618;-1.32705;0.26941;-0.391051;3.98544;2.10487;0.899353;0;
-6.52669;2.13396;5.94013;-1.32729;0.269172;-0.393371;3.99241;2.10691;0.899592;0;
-6.53222;2.13433;5.94405;-1.32754;0.268935;-0.39568;3.99936;2.10894;0.899829;0;
-6.53773;2.1347;5.94794;-1.32779;0.268696;-0.397979;4.00628;2.11095;0.900065;0;
-6.54321;2.13506;5.95182;-1.32803;0.268458;-0.400268;4.01319;2.11296;0.900299;0;
-6.54866;2.13543;5.95567;-1.32828;0.268218;-0.402546;4.02008;2.11497;0.900532;0;
-6.55409;2.13579;5.9595;-1.32852;0.267979;-0.404814;4.02695;2.11696;0.900764;0;
-6.5595;2.13615;5.9633;-1.32877;0.267739;-0.407072;4.03379;2.11894;0.900995;0;
-6.56488;2.13652;5.96709;-1.32901;0.267498;-0.409319;4.04062;2.12091;0.901224;0;
-6.57024;2.13688;5.97085;-1.32926;0.267257;-0.411556;4.04743;2.12288;0.901453;0;
-6.57558;2.13724;5.97459;-1.3295;0.267016;-0.413783;4.05421;2.12484;0.901679;0;
-6.58089;2.1376;5.97831;-1.32974;0.266774;-0.415999;4.06098;2.12678;0.901905;0;
-6.58618;2.13795;5.982;-1.32998;0.266531;-0.418206;4.06773;2.12872;0.90213;0;
-6.59144;2.13831;5.98568;-1.33023;0.266288;-0.420402;4.07445;2.13065;0.902353;0;
-6.59669;2.13867;5.98933;-1.33047;0.266045;-0.422589;4.08116;2.13258;0.902575;0;
-6.60191;2.13902;5.99296;-1.33071;0.265801;-0.424765;4.08785;2.13449;0.902796;0;
-6.6071;2.13938;5.99657;-1.33095;0.265557;-0.426931;4.09451;2.13639;0.903016;0;
-6.61228;2.13973;6.00016;-1.33119;0.265312;-0.429088;4.10116;2.13829;0.903234;0;
-6.61743;2.14009;6.00373;-1.33143;0.265067;-0.431234;4.10779;2.14018;0.903452;0;
-6.62256;2.14044;6.00728;-1.33167;0.264821;-0.43337;4.1144;2.14206;0.903669;0;
-6.62767;2.14079;6.0108;-1.33191;0.264575;-0.435497;4.12099;2.14393;0.903884;0;
-6.63275;2.14114;6.01431;-1.33214;0.264328;-0.437614;4.12756;2.14579;0.904098;0;
-6.63782;2.14149;6.0178;-1.33238;0.26408;-0.439721;4.13411;2.14764;0.904312;0;
-6.64286;2.14184;6.02126;-1.33262;0.263832;-0.441818;4.14064;2.14949;0.904524;0;
-6.64788;2.14218;6.02471;-1.33286;0.263584;-0.443906;4.14715;2.15133;0.904735;0;
-6.65288;2.14253;6.02814;-1.3331;0.263335;-0.445984;4.15364;2.15316;0.904945;0;
-6.65785;2.14288;6.03154;-1.33333;0.263086;-0.448052;4.16012;2.15498;0.905155;0;
-6.66281;2.14322;6.03493;-1.33357;0.262836;-0.450111;4.16657;2.15679;0.905363;0;
-6.66774;2.14357;6.0383;-1.3338;0.262586;-0.45216;4.17301;2.1586;0.90557;0;
-6.67266;2.14391;6.04165;-1.33404;0.262335;-0.4542;4.17942;2.1604;0.905776;0;
-6.67755;2.14425;6.04498;-1.33428;0.262083;-0.45623;4.18582;2.16219;0.905982;0;
-6.68242;2.1446;6.04829;-1.33451;0.261831;-0.458251;4.1922;2.16397;0.906186;0;
-6.68727;2.14494;6.05158;-1.33474;0.261579;-0.460262;4.19856;2.16574;0.906389;0;
-6.6921;2.14528;6.05485;-1.33498;0.261326;-0.462264;4.2049;2.16751;0.906592;0;
-6.69691;2.14562;6.05811;-1.33521;0.261072;-0.464256;4.21123;2.16927;0.906794;0;
-6.70169;2.14596;6.06134;-1.33545;0.260818;-0.46624;4.21753;2.17102;0.906994;0;
-6.70646;2.14629;6.06456;-1.33568;0.260563;-0.468214;4.22382;2.17276;0.907194;0;
-6.71121;2.14663;6.06776;-1.33591;0.260308;-0.470179;4.23009;2.1745;0.907393;0;
-6.71594;2.14697;6.07094;-1.33615;0.260052;-0.472134;4.23634;2.17623;0.907591;0;
-6.72065;2.1473;6.0741;-1.33638;0.259796;-0.474081;4.24257;2.17795;0.907789;0;
-6.72533;2.14764;6.07725;-1.33661;0.259539;-0.476018;4.24878;2.17966;0.907985;0;
-6.73;2.14797;6.08037;-1.33684;0.259282;-0.477946;4.25498;2.18136;0.908181;0;
-6.73465;2.1483;6.08348;-1.33707;0.259024;-0.479865;4.26115;2.18306;0.908376;0;
-6.73928;2.14863;6.08658;-1.3373;0.258766;-0.481776;4.26731;2.18475;0.90857;0;
-6.74389;2.14897;6.08965;-1.33754;0.258507;-0.483677;4.27345;2.18644;0.908763;0;
-6.74848;2.1493;6.09271;-1.33777;0.258248;-0.485569;4.27957;2.18811;0.908955;0;
-6.75305;2.14963;6.09575;-1.338;0.257988;-0.487453;4.28568;2.18978;0.909147;0;
-6.7576;2.14996;6.09877;-1.33823;0.257727;-0.489327;4.29177;2.19144;0.909338;0;
-6.76213;2.15028;6.10178;-1.33846;0.257466;-0.491193;4.29784;2.1931;0.909528;0;
-6.76665;2.15061;6.10477;-1.33869;0.257205;-0.49305;4.30389;2.19474;0.909717;0;
-6.77114;2.15094;6.10775;-1.33891;0.256943;-0.494898;4.30992;2.19638;0.909906;0;
-6.77562;2.15126;6.1107;-1.33914;0.25668;-0.496738;4.31594;2.19801;0.910094;0;
-6.78008;2.15159;6.11364;-1.33937;0.256417;-0.498568;4.32194;2.19964;0.910281;0;
-6.78451;2.15191;6.11657;-1.3396;0.256153;-0.500391;4.32792;2.20126;0.910468;0;
-6.78894;2.15223;6.11947;-1.33983;0.255889;-0.502204;4.33388;2.20287;0.910653;0;
-6.79334;2.15256;6.12237;-1.34006;0.255624;-0.504009;4.33983;2.20447;0.910838;0;
-6.79772;2.15288;6.12524;-1.34028;0.255359;-0.505805;4.34576;2.20607;0.911023;0;
-6.80209;2.1532;6.1281;-1.34051;0.255093;-0.507593;4.35167;2.20766;0.911207;0;
-6.80644;2.15352;6.13095;-1.34074;0.254827;-0.509373;4.35757;2.20924;0.91139;0;
-6.81077;2.15384;6.13377;-1.34097;0.25456;-0.511144;4.36344;2.21082;0.911572;0;
-6.81508;2.15416;6.13659;-1.34119;0.254292;-0.512906;4.3693;2.21239;0.911754;0;
-6.81937;2.15448;6.13938;-1.34142;0.254024;-0.514661;4.37515;2.21395;0.911935;0;
-6.82365;2.15479;6.14217;-1.34164;0.253756;-0.516407;4.38097;2.21551;0.912115;0;
-6.82791;2.15511;6.14493;-1.34187;0.253487;-0.518144;4.38678;2.21706;0.912295;0;
-6.83215;2.15542;6.14768;-1.34209;0.253217;-0.519874;4.39258;2.2186;0.912474;0;
-6.83637;2.15574;6.15042;-1.34232;0.252947;-0.521595;4.39835;2.22014;0.912653;0;
-6.84058;2.15605;6.15314;-1.34255;0.252677;-0.523308;4.40411;2.22167;0.912831;0;
-6.84477;2.15637;6.15585;-1.34277;0.252405;-0.525013;4.40985;2.22319;0.913008;0;
-6.84894;2.15668;6.15854;-1.34299;0.252134;-0.526709;4.41558;2.22471;0.913185;0;
-6.8531;2.15699;6.16122;-1.34322;0.251862;-0.528398;4.42129;2.22622;0.913361;0;
-6.85724;2.1573;6.16388;-1.34344;0.251589;-0.530079;4.42698;2.22772;0.913537;0;
-6.86136;2.15761;6.16653;-1.34367;0.251316;-0.531751;4.43266;2.22922;0.913712;0;
-6.86546;2.15792;6.16916;-1.34389;0.251042;-0.533416;4.43832;2.23071;0.913887;0;
-6.86955;2.15823;6.17178;-1.34411;0.250768;-0.535073;4.44396;2.2322;0.91406;0;
-6.87362;2.15854;6.17439;-1.34434;0.250493;-0.536721;4.44959;2.23368;0.914234;0;
-6.87768;2.15884;6.17698;-1.34456;0.250218;-0.538362;4.4552;2.23515;0.914407;0;
-6.88172;2.15915;6.17955;-1.34478;0.249942;-0.539995;4.46079;2.23661;0.914579;0;
-6.88574;2.15945;6.18212;-1.345;0.249666;-0.541621;4.46637;2.23807;0.914751;0;
-6.88975;2.15976;6.18467;-1.34522;0.249389;-0.543238;4.47193;2.23953;0.914922;0;
-6.89374;2.16006;6.1872;-1.34545;0.249112;-0.544848;4.47748;2.24097;0.915093;0;
-6.89771;2.16037;6.18972;-1.34567;0.248834;-0.54645;4.48301;2.24241;0.915263;0;
-6.90167;2.16067;6.19223;-1.34589;0.248555;-0.548044;4.48852;2.24385;0.915433;0;
-6.90561;2.16097;6.19473;-1.34611;0.248277;-0.549631;4.49402;2.24528;0.915602;0;
-6.90954;2.16127;6.19721;-1.34633;0.247997;-0.55121;4.4995;2.2467;0.915771;0;
-6.91345;2.16157;6.19968;-1.34655;0.247718;-0.552782;4.50497;2.24812;0.915939;0;
-6.91734;2.16187;6.20213;-1.34677;0.247437;-0.554346;4.51042;2.24953;0.916106;0;
-6.92122;2.16217;6.20457;-1.34699;0.247156;-0.555902;4.51585;2.25093;0.916274;0;
-6.92509;2.16247;6.207;-1.34721;0.246875;-0.557451;4.52127;2.25233;0.91644;0;
-6.92894;2.16276;6.20942;-1.34743;0.246593;-0.558993;4.52668;2.25372;0.916607;0;
-6.93277;2.16306;6.21182;-1.34765;0.246311;-0.560527;4.53206;2.25511;0.916773;0;
-6.93659;2.16336;6.21421;-1.34787;0.246028;-0.562054;4.53744;2.25649;0.916938;0;
-6.94039;2.16365;6.21659;-1.34809;0.245745;-0.563573;4.54279;2.25786;0.917103;0;
-6.94418;2.16395;6.21896;-1.34831;0.245461;-0.565086;4.54813;2.25923;0.917267;0;
-6.94795;2.16424;6.22131;-1.34852;0.245177;-0.56659;4.55346;2.2606;0.917431;0;
-6.95171;2.16453;6.22365;-1.34874;0.244892;-0.568088;4.55877;2.26195;0.917595;0;
-6.95545;2.16482;6.22597;-1.34896;0.244607;-0.569579;4.56407;2.26331;0.917758;0;
-6.95918;2.16511;6.22829;-1.34918;0.244322;-0.571062;4.56935;2.26465;0.917921;0;
-6.96289;2.1654;6.23059;-1.3494;0.244036;-0.572538;4.57461;2.26599;0.918083;0;
-6.96659;2.16569;6.23288;-1.34961;0.243749;-0.574007;4.57986;2.26733;0.918245;0;
-6.97027;2.16598;6.23516;-1.34983;0.243462;-0.575469;4.5851;2.26866;0.918407;0;
-6.97394;2.16627;6.23743;-1.35005;0.243175;-0.576924;4.59031;2.26998;0.918568;0;
-6.9776;2.16656;6.23968;-1.35026;0.242887;-0.578372;4.59552;2.2713;0.918728;0;
-6.98124;2.16685;6.24193;-1.35048;0.242598;-0.579813;4.60071;2.27261;0.918889;0;
-6.98487;2.16713;6.24416;-1.35069;0.242309;-0.581247;4.60588;2.27392;0.919049;0;
-6.98848;2.16742;6.24638;-1.35091;0.24202;-0.582674;4.61104;2.27522;0.919208;0;
-6.99208;2.1677;6.24858;-1.35112;0.24173;-0.584094;4.61619;2.27652;0.919367;0;
-6.99566;2.16799;6.25078;-1.35134;0.24144;-0.585507;4.62132;2.27781;0.919526;0;
-6.99923;2.16827;6.25296;-1.35155;0.241149;-0.586913;4.62643;2.27909;0.919684;0;
-7.00279;2.16855;6.25514;-1.35177;0.240858;-0.588313;4.63153;2.28037;0.919842;0;
-7.00633;2.16883;6.2573;-1.35198;0.240567;-0.589706;4.63662;2.28165;0.92;0;
-7.00986;2.16911;6.25945;-1.3522;0.240275;-0.591092;4.64169;2.28291;0.920157;0;
-7.01337;2.16939;6.26159;-1.35241;0.239982;-0.592472;4.64675;2.28418;0.920314;0;
-7.01687;2.16967;6.26372;-1.35263;0.23969;-0.593844;4.65179;2.28544;0.92047;0;
-7.02036;2.16995;6.26584;-1.35284;0.239396;-0.59521;4.65682;2.28669;0.920626;0;
-7.02383;2.17023;6.26794;-1.35305;0.239103;-0.59657;4.66183;2.28794;0.920782;0;
-7.02729;2.17051;6.27004;-1.35326;0.238809;-0.597923;4.66683;2.28918;0.920938;0;
-7.03074;2.17078;6.27212;-1.35348;0.238514;-0.599269;4.67182;2.29042;0.921093;0;
-7.03417;2.17106;6.27419;-1.35369;0.238219;-0.600609;4.67679;2.29165;0.921247;0;
-7.03759;2.17133;6.27626;-1.3539;0.237924;-0.601942;4.68174;2.29288;0.921402;0;
-7.041;2.17161;6.27831;-1.35411;0.237628;-0.603269;4.68669;2.2941;0.921556;0;
-7.04439;2.17188;6.28035;-1.35433;0.237332;-0.60459;4.69162;2.29532;0.92171;0;
-7.04777;2.17215;6.28238;-1.35454;0.237035;-0.605904;4.69653;2.29653;0.921863;0;
-7.05114;2.17243;6.2844;-1.35475;0.236738;-0.607211;4.70143;2.29774;0.922016;0;
-7.05449;2.1727;6.28641;-1.35496;0.236441;-0.608512;4.70632;2.29894;0.922169;0;
-7.05784;2.17297;6.28841;-1.35517;0.236143;-0.609807;4.71119;2.30014;0.922321;0;
-7.06117;2.17324;6.2904;-1.35538;0.235845;-0.611096;4.71605;2.30133;0.922473;0;
-7.06448;2.17351;6.29238;-1.35559;0.235546;-0.612379;4.72089;2.30252;0.922625;0;
-7.06778;2.17378;6.29435;-1.3558;0.235247;-0.613655;4.72572;2.3037;0.922777;0;
-7.07108;2.17404;6.29631;-1.35601;0.234948;-0.614925;4.73054;2.30488;0.922928;0;
-7.07435;2.17431;6.29826;-1.35622;0.234648;-0.616188;4.73534;2.30605;0.923079;0;
-7.07762;2.17458;6.3002;-1.35643;0.234348;-0.617446;4.74013;2.30722;0.923229;0;
-7.08087;2.17484;6.30213;-1.35664;0.234048;-0.618698;4.7449;2.30838;0.92338;0;
-7.08411;2.17511;6.30404;-1.35684;0.233747;-0.619943;4.74967;2.30954;0.92353;0;
-7.08734;2.17537;6.30595;-1.35705;0.233446;-0.621182;4.75441;2.31069;0.923679;0;
-7.09056;2.17564;6.30785;-1.35726;0.233144;-0.622416;4.75915;2.31184;0.923829;0;
-7.09376;2.1759;6.30974;-1.35747;0.232842;-0.623643;4.76387;2.31298;0.923978;0;
-7.09695;2.17616;6.31162;-1.35768;0.23254;-0.624865;4.76858;2.31412;0.924127;0;
-7.10013;2.17642;6.3135;-1.35788;0.232237;-0.62608;4.77327;2.31526;0.924275;0;
-7.1033;2.17668;6.31536;-1.35809;0.231934;-0.627289;4.77795;2.31639;0.924423;0;
-7.10645;2.17694;6.31721;-1.3583;0.231631;-0.628493;4.78262;2.31751;0.924571;0;
-7.1096;2.1772;6.31905;-1.3585;0.231327;-0.629691;4.78728;2.31863;0.924719;0;
-7.11273;2.17746;6.32088;-1.35871;0.231023;-0.630883;4.79192;2.31975;0.924867;0;
-7.11585;2.17772;6.32271;-1.35892;0.230719;-0.632069;4.79655;2.32086;0.925014;0;
-7.11896;2.17798;6.32452;-1.35912;0.230414;-0.633249;4.80116;2.32197;0.925161;0;
-7.12205;2.17823;6.32633;-1.35933;0.230109;-0.634424;4.80576;2.32307;0.925307;0;
-7.12514;2.17849;6.32812;-1.35953;0.229804;-0.635592;4.81035;2.32417;0.925454;0;
-7.12821;2.17875;6.32991;-1.35974;0.229498;-0.636755;4.81493;2.32526;0.9256;0;
-7.13127;2.179;6.33169;-1.35994;0.229192;-0.637913;4.81949;2.32635;0.925746;0;
-7.13432;2.17925;6.33346;-1.36014;0.228886;-0.639065;4.82404;2.32743;0.925891;0;
-7.13736;2.17951;6.33522;-1.36035;0.228579;-0.640211;4.82858;2.32851;0.926037;0;
-7.14039;2.17976;6.33697;-1.36055;0.228272;-0.641351;4.8331;2.32959;0.926182;0;
-7.1434;2.18001;6.33871;-1.36076;0.227965;-0.642486;4.83761;2.33066;0.926327;0;
-7.14641;2.18026;6.34045;-1.36096;0.227657;-0.643616;4.84211;2.33173;0.926471;0;
-7.1494;2.18051;6.34217;-1.36116;0.227349;-0.64474;4.84659;2.33279;0.926616;0;
-7.15238;2.18076;6.34389;-1.36136;0.227041;-0.645858;4.85107;2.33385;0.92676;0;
-7.15535;2.18101;6.3456;-1.36157;0.226733;-0.646971;4.85553;2.3349;0.926904;0;
-7.15831;2.18126;6.3473;-1.36177;0.226424;-0.648078;4.85997;2.33595;0.927047;0;
-7.16126;2.18151;6.34899;-1.36197;0.226115;-0.64918;4.86441;2.337;0.927191;0;
-7.1642;2.18176;6.35067;-1.36217;0.225805;-0.650277;4.86883;2.33804;0.927334;0;
-7.16712;2.182;6.35234;-1.36237;0.225496;-0.651368;4.87324;2.33907;0.927477;0;
-7.17004;2.18225;6.35401;-1.36257;0.225186;-0.652454;4.87764;2.34011;0.927619;0;
-7.17294;2.18249;6.35567;-1.36278;0.224875;-0.653535;4.88202;2.34113;0.927762;0;
-7.17584;2.18274;6.35732;-1.36298;0.224565;-0.65461;4.8864;2.34216;0.927904;0;
-7.17872;2.18298;6.35896;-1.36318;0.224254;-0.655681;4.89076;2.34318;0.928046;0;
-7.18159;2.18322;6.36059;-1.36338;0.223943;-0.656745;4.8951;2.34419;0.928188;0;
-7.18446;2.18347;6.36221;-1.36358;0.223632;-0.657805;4.89944;2.3452;0.92833;0;
-7.18731;2.18371;6.36383;-1.36377;0.22332;-0.658859;4.90376;2.34621;0.928471;0;
-7.19015;2.18395;6.36544;-1.36397;0.223008;-0.659909;4.90807;2.34722;0.928612;0;
-7.19298;2.18419;6.36704;-1.36417;0.222696;-0.660953;4.91237;2.34822;0.928753;0;
-7.1958;2.18443;6.36863;-1.36437;0.222384;-0.661992;4.91666;2.34921;0.928894;0;
-7.19861;2.18467;6.37022;-1.36457;0.222072;-0.663026;4.92093;2.3502;0.929034;0;
-7.20141;2.18491;6.3718;-1.36477;0.221759;-0.664055;4.9252;2.35119;0.929174;0;
-7.2042;2.18514;6.37336;-1.36496;0.221446;-0.665078;4.92945;2.35217;0.929314;0;
-7.20697;2.18538;6.37493;-1.36516;0.221132;-0.666097;4.93369;2.35315;0.929454;0;
-7.20974;2.18562;6.37648;-1.36536;0.220819;-0.667111;4.93791;2.35413;0.929594;0;
-7.2125;2.18585;6.37803;-1.36556;0.220505;-0.66812;4.94213;2.3551;0.929733;0;
-7.21525;2.18609;6.37957;-1.36575;0.220191;-0.669124;4.94633;2.35607;0.929872;0;
-7.21799;2.18632;6.3811;-1.36595;0.219877;-0.670122;4.95052;2.35703;0.930011;0;
-7.22072;2.18655;6.38262;-1.36614;0.219562;-0.671116;4.9547;2.35799;0.93015;0;
-7.22343;2.18679;6.38414;-1.36634;0.219248;-0.672106;4.95887;2.35895;0.930289;0;
-7.22614;2.18702;6.38564;-1.36653;0.218933;-0.67309;4.96302;2.3599;0.930427;0;
-7.22884;2.18725;6.38715;-1.36673;0.218618;-0.674069;4.96717;2.36085;0.930565;0;
-7.23153;2.18748;6.38864;-1.36692;0.218302;-0.675044;4.9713;2.36179;0.930703;0;
-7.23421;2.18771;6.39013;-1.36712;0.217987;-0.676014;4.97542;2.36273;0.930841;0;
-7.23687;2.18794;6.3916;-1.36731;0.217671;-0.676979;4.97953;2.36367;0.930979;0;
-7.23953;2.18817;6.39308;-1.36751;0.217355;-0.677939;4.98363;2.3646;0.931116;0;
-7.24218;2.1884;6.39454;-1.3677;0.217039;-0.678895;4.98771;2.36553;0.931253;0;
-7.24482;2.18863;6.396;-1.36789;0.216723;-0.679846;4.99179;2.36646;0.93139;0;
-7.24745;2.18886;6.39745;-1.36809;0.216407;-0.680792;4.99585;2.36738;0.931527;0;
-7.25007;2.18908;6.39889;-1.36828;0.21609;-0.681733;4.9999;2.3683;0.931664;0;
-7.25268;2.18931;6.40033;-1.36847;0.215773;-0.68267;5.00394;2.36921;0.9318;0;
-7.25529;2.18953;6.40176;-1.36866;0.215456;-0.683603;5.00797;2.37012;0.931936;0;
-7.25788;2.18976;6.40318;-1.36885;0.215139;-0.68453;5.01199;2.37103;0.932072;0;
-7.26046;2.18998;6.4046;-1.36905;0.214821;-0.685453;5.01599;2.37193;0.932208;0;
-7.26303;2.19021;6.40601;-1.36924;0.214504;-0.686372;5.01999;2.37283;0.932344;0;
-7.2656;2.19043;6.40741;-1.36943;0.214186;-0.687286;5.02397;2.37373;0.932479;0;
-7.26815;2.19065;6.4088;-1.36962;0.213868;-0.688196;5.02794;2.37462;0.932615;0;
-7.2707;2.19087;6.41019;-1.36981;0.21355;-0.689101;5.03191;2.37551;0.93275;0;
-7.27323;2.19109;6.41157;-1.37;0.213232;-0.690002;5.03586;2.3764;0.932885;0;
-7.27576;2.19131;6.41295;-1.37019;0.212914;-0.690898;5.0398;2.37728;0.93302;0;
-7.27828;2.19153;6.41432;-1.37038;0.212595;-0.69179;5.04372;2.37816;0.933154;0;
-7.28079;2.19175;6.41568;-1.37056;0.212277;-0.692677;5.04764;2.37903;0.933289;0;
-7.28329;2.19197;6.41703;-1.37075;0.211958;-0.69356;5.05155;2.37991;0.933423;0;
-7.28578;2.19219;6.41838;-1.37094;0.211639;-0.694439;5.05544;2.38078;0.933557;0;
-7.28826;2.1924;6.41972;-1.37113;0.21132;-0.695313;5.05933;2.38164;0.933691;0;
-7.29074;2.19262;6.42106;-1.37132;0.211001;-0.696183;5.0632;2.3825;0.933824;0;
-7.2932;2.19284;6.42239;-1.3715;0.210681;-0.697049;5.06706;2.38336;0.933958;0;
-7.29566;2.19305;6.42371;-1.37169;0.210362;-0.69791;5.07092;2.38421;0.934091;0;
-7.2981;2.19327;6.42503;-1.37188;0.210042;-0.698767;5.07476;2.38507;0.934224;0;
-7.30054;2.19348;6.42634;-1.37207;0.209723;-0.69962;5.07859;2.38591;0.934357;0;
-7.30297;2.19369;6.42764;-1.37225;0.209403;-0.700469;5.08241;2.38676;0.93449;0;
-7.30539;2.19391;6.42894;-1.37244;0.209083;-0.701314;5.08621;2.3876;0.934623;0;
-7.3078;2.19412;6.43023;-1.37262;0.208763;-0.702154;5.09001;2.38844;0.934755;0;
-7.31021;2.19433;6.43152;-1.37281;0.208443;-0.702991;5.0938;2.38927;0.934888;0;
-7.3126;2.19454;6.43279;-1.37299;0.208122;-0.703823;5.09758;2.3901;0.93502;0;
-7.31499;2.19475;6.43407;-1.37318;0.207802;-0.704651;5.10134;2.39093;0.935152;0;
-7.31736;2.19496;6.43533;-1.37336;0.207482;-0.705475;5.1051;2.39176;0.935284;0;
-7.31973;2.19517;6.4366;-1.37355;0.207161;-0.706295;5.10885;2.39258;0.935415;0;
-7.32209;2.19538;6.43785;-1.37373;0.20684;-0.70711;5.11258;2.3934;0.935547;0;
-7.32445;2.19558;6.4391;-1.37391;0.20652;-0.707922;5.11631;2.39421;0.935678;0;
-7.32679;2.19579;6.44034;-1.3741;0.206199;-0.70873;5.12002;2.39502;0.935809;0;
-7.32913;2.196;6.44158;-1.37428;0.205878;-0.709534;5.12372;2.39583;0.93594;0;
-7.33146;2.1962;6.44281;-1.37446;0.205557;-0.710334;5.12742;2.39664;0.936071;0;
-7.33377;2.19641;6.44403;-1.37464;0.205236;-0.71113;5.1311;2.39744;0.936202;0;
-7.33609;2.19661;6.44525;-1.37482;0.204915;-0.711921;5.13477;2.39824;0.936332;0;
-7.33839;2.19682;6.44647;-1.37501;0.204593;-0.712709;5.13844;2.39903;0.936463;0;
-7.34068;2.19702;6.44768;-1.37519;0.204272;-0.713494;5.14209;2.39983;0.936593;0;
-7.34297;2.19723;6.44888;-1.37537;0.203951;-0.714274;5.14573;2.40062;0.936723;0;
-7.34525;2.19743;6.45007;-1.37555;0.203629;-0.71505;5.14936;2.4014;0.936853;0;
-7.34752;2.19763;6.45126;-1.37573;0.203308;-0.715823;5.15299;2.40219;0.936982;0;
-7.34978;2.19783;6.45245;-1.37591;0.202986;-0.716592;5.1566;2.40297;0.937112;0;
-7.35204;2.19803;6.45363;-1.37609;0.202665;-0.717356;5.1602;2.40374;0.937241;0;
-7.35428;2.19823;6.4548;-1.37627;0.202343;-0.718118;5.16379;2.40452;0.93737;0;
-7.35652;2.19843;6.45597;-1.37645;0.202021;-0.718875;5.16737;2.40529;0.937499;0;
-7.35875;2.19863;6.45713;-1.37662;0.2017;-0.719629;5.17095;2.40606;0.937628;0;
-7.36098;2.19883;6.45829;-1.3768;0.201378;-0.720378;5.17451;2.40682;0.937757;0;
-7.36319;2.19903;6.45944;-1.37698;0.201056;-0.721125;5.17806;2.40759;0.937886;0;
-7.3654;2.19922;6.46059;-1.37716;0.200734;-0.721867;5.1816;2.40835;0.938014;0;
-7.3676;2.19942;6.46173;-1.37733;0.200412;-0.722606;5.18514;2.4091;0.938142;0;
-7.36979;2.19962;6.46287;-1.37751;0.20009;-0.723341;5.18866;2.40985;0.93827;0;
-7.37198;2.19981;6.464;-1.37769;0.199768;-0.724073;5.19217;2.41061;0.938398;0;
-7.37415;2.20001;6.46512;-1.37786;0.199446;-0.7248;5.19567;2.41135;0.938526;0;
-7.37632;2.2002;6.46624;-1.37804;0.199124;-0.725525;5.19917;2.4121;0.938654;0;
-7.37849;2.20039;6.46736;-1.37822;0.198802;-0.726245;5.20265;2.41284;0.938781;0;
-7.38064;2.20059;6.46846;-1.37839;0.19848;-0.726962;5.20613;2.41358;0.938909;0;
-7.38279;2.20078;6.46957;-1.37857;0.198158;-0.727676;5.20959;2.41431;0.939036;0;
-7.38493;2.20097;6.47067;-1.37874;0.197836;-0.728386;5.21304;2.41505;0.939163;0;
-7.38706;2.20116;6.47176;-1.37892;0.197514;-0.729093;5.21649;2.41578;0.93929;0;
-7.38918;2.20135;6.47285;-1.37909;0.197192;-0.729796;5.21993;2.41651;0.939417;0;
-7.3913;2.20154;6.47393;-1.37926;0.19687;-0.730495;5.22335;2.41723;0.939543;0;
-7.39341;2.20173;6.47501;-1.37944;0.196548;-0.731191;5.22677;2.41795;0.93967;0;
-7.39551;2.20192;6.47609;-1.37961;0.196226;-0.731884;5.23018;2.41867;0.939796;0;
-7.39761;2.20211;6.47715;-1.37978;0.195904;-0.732573;5.23357;2.41939;0.939922;0;
-7.39969;2.2023;6.47822;-1.37995;0.195582;-0.733259;5.23696;2.4201;0.940048;0;
-7.40178;2.20249;6.47928;-1.38013;0.19526;-0.733941;5.24034;2.42081;0.940174;0;
-7.40385;2.20267;6.48033;-1.3803;0.194938;-0.73462;5.24371;2.42152;0.940299;0;
-7.40592;2.20286;6.48138;-1.38047;0.194616;-0.735295;5.24707;2.42222;0.940425;0;
-7.40797;2.20304;6.48242;-1.38064;0.194294;-0.735968;5.25042;2.42293;0.94055;0;
-7.41003;2.20323;6.48346;-1.38081;0.193972;-0.736636;5.25376;2.42363;0.940676;0;
-7.41207;2.20341;6.48449;-1.38098;0.19365;-0.737302;5.25709;2.42432;0.940801;0;
-7.41411;2.2036;6.48552;-1.38115;0.193328;-0.737964;5.26042;2.42502;0.940926;0;
-7.41614;2.20378;6.48655;-1.38132;0.193006;-0.738623;5.26373;2.42571;0.94105;0;
-7.41816;2.20396;6.48757;-1.38149;0.192684;-0.739279;5.26704;2.4264;0.941175;0;
-7.42018;2.20415;6.48858;-1.38166;0.192362;-0.739931;5.27033;2.42709;0.941299;0;
-7.42219;2.20433;6.48959;-1.38183;0.19204;-0.740581;5.27362;2.42777;0.941424;0;
-7.42419;2.20451;6.4906;-1.382;0.191719;-0.741227;5.2769;2.42845;0.941548;0;
-7.42619;2.20469;6.4916;-1.38217;0.191397;-0.741869;5.28017;2.42913;0.941672;0;
-7.42818;2.20487;6.4926;-1.38233;0.191075;-0.742509;5.28342;2.4298;0.941796;0;
-7.43016;2.20505;6.49359;-1.3825;0.190754;-0.743145;5.28668;2.43048;0.94192;0;
-7.43214;2.20523;6.49457;-1.38267;0.190432;-0.743778;5.28992;2.43115;0.942043;0;
-7.43411;2.20541;6.49556;-1.38283;0.190111;-0.744409;5.29315;2.43182;0.942167;0;
-7.43607;2.20559;6.49653;-1.383;0.189789;-0.745035;5.29637;2.43248;0.94229;0;
-7.43802;2.20576;6.49751;-1.38317;0.189468;-0.745659;5.29959;2.43315;0.942413;0;
-7.43997;2.20594;6.49848;-1.38333;0.189146;-0.74628;5.30279;2.43381;0.942536;0;
-7.44192;2.20612;6.49944;-1.3835;0.188825;-0.746898;5.30599;2.43446;0.942659;0;
-7.44385;2.20629;6.5004;-1.38366;0.188504;-0.747512;5.30918;2.43512;0.942782;0;
-7.44578;2.20647;6.50136;-1.38383;0.188183;-0.748124;5.31236;2.43577;0.942904;0;
-7.4477;2.20664;6.50231;-1.38399;0.187862;-0.748732;5.31553;2.43642;0.943027;0;
-7.44962;2.20682;6.50326;-1.38416;0.187541;-0.749338;5.31869;2.43707;0.943149;0;
-7.45153;2.20699;6.5042;-1.38432;0.18722;-0.74994;5.32184;2.43772;0.943271;0;
-7.45343;2.20717;6.50514;-1.38449;0.186899;-0.750539;5.32499;2.43836;0.943393;0;
-7.45533;2.20734;6.50607;-1.38465;0.186578;-0.751136;5.32812;2.439;0.943515;0;
-7.45722;2.20751;6.507;-1.38481;0.186257;-0.751729;5.33125;2.43964;0.943637;0;
-7.4591;2.20768;6.50793;-1.38497;0.185937;-0.75232;5.33437;2.44027;0.943759;0;
-7.46098;2.20785;6.50885;-1.38514;0.185616;-0.752907;5.33748;2.44091;0.94388;0;
-7.46285;2.20802;6.50976;-1.3853;0.185296;-0.753492;5.34058;2.44154;0.944001;0;
-7.46471;2.20819;6.51068;-1.38546;0.184976;-0.754074;5.34367;2.44217;0.944122;0;
-7.46657;2.20836;6.51159;-1.38562;0.184655;-0.754653;5.34676;2.44279;0.944243;0;
-7.46842;2.20853;6.51249;-1.38578;0.184335;-0.755228;5.34984;2.44341;0.944364;0;
-7.47027;2.2087;6.51339;-1.38594;0.184015;-0.755802;5.3529;2.44404;0.944485;0;
-7.4721;2.20887;6.51429;-1.3861;0.183695;-0.756372;5.35596;2.44466;0.944606;0;
-7.47394;2.20904;6.51518;-1.38626;0.183375;-0.756939;5.35901;2.44527;0.944726;0;
-7.47576;2.2092;6.51607;-1.38642;0.183056;-0.757504;5.36205;2.44589;0.944846;0;
-7.47759;2.20937;6.51695;-1.38658;0.182736;-0.758065;5.36509;2.4465;0.944966;0;
-7.4794;2.20954;6.51783;-1.38674;0.182417;-0.758624;5.36811;2.44711;0.945086;0;
-7.48121;2.2097;6.51871;-1.3869;0.182097;-0.75918;5.37113;2.44771;0.945206;0;
-7.48301;2.20987;6.51958;-1.38706;0.181778;-0.759734;5.37414;2.44832;0.945326;0;
-7.48481;2.21003;6.52045;-1.38721;0.181459;-0.760284;5.37714;2.44892;0.945446;0;
-7.4866;2.2102;6.52131;-1.38737;0.18114;-0.760832;5.38013;2.44952;0.945565;0;
-7.48838;2.21036;6.52217;-1.38753;0.180821;-0.761377;5.38312;2.45012;0.945684;0;
-7.49016;2.21052;6.52303;-1.38769;0.180502;-0.76192;5.38609;2.45072;0.945804;0;
-7.49193;2.21069;6.52388;-1.38784;0.180183;-0.76246;5.38906;2.45131;0.945923;0;
-7.4937;2.21085;6.52473;-1.388;0.179865;-0.762997;5.39202;2.4519;0.946041;0;
-7.49546;2.21101;6.52557;-1.38816;0.179547;-0.763531;5.39497;2.45249;0.94616;0;
-7.49721;2.21117;6.52641;-1.38831;0.179228;-0.764062;5.39792;2.45308;0.946279;0;
-7.49896;2.21133;6.52725;-1.38847;0.17891;-0.764591;5.40085;2.45366;0.946397;0;
-7.5007;2.21149;6.52808;-1.38862;0.178592;-0.765118;5.40378;2.45424;0.946515;0;
-7.50244;2.21165;6.52891;-1.38878;0.178274;-0.765642;5.4067;2.45482;0.946634;0;
-7.50417;2.21181;6.52974;-1.38893;0.177957;-0.766163;5.40961;2.4554;0.946752;0;
-7.50589;2.21197;6.53056;-1.38908;0.177639;-0.766681;5.41251;2.45598;0.946869;0;
-7.50761;2.21213;6.53138;-1.38924;0.177322;-0.767197;5.41541;2.45655;0.946987;0;
-7.50933;2.21228;6.53219;-1.38939;0.177004;-0.76771;5.4183;2.45712;0.947105;0;
-7.51104;2.21244;6.533;-1.38954;0.176687;-0.768221;5.42118;2.45769;0.947222;0;
-7.51274;2.2126;6.53381;-1.3897;0.17637;-0.768729;5.42405;2.45826;0.94734;0;
-7.51443;2.21275;6.53461;-1.38985;0.176053;-0.769235;5.42691;2.45882;0.947457;0;
-7.51613;2.21291;6.53541;-1.39;0.175737;-0.769738;5.42977;2.45939;0.947574;0;
-7.51781;2.21306;6.53621;-1.39015;0.17542;-0.770239;5.43262;2.45995;0.947691;0;
-7.51949;2.21322;6.537;-1.3903;0.175104;-0.770737;5.43546;2.46051;0.947807;0;
-7.52116;2.21337;6.53779;-1.39046;0.174788;-0.771233;5.43829;2.46106;0.947924;0;
-7.52283;2.21353;6.53858;-1.39061;0.174472;-0.771726;5.44112;2.46162;0.94804;0;
-7.5245;2.21368;6.53936;-1.39076;0.174156;-0.772217;5.44393;2.46217;0.948157;0;
-7.52615;2.21383;6.54014;-1.39091;0.17384;-0.772705;5.44674;2.46272;0.948273;0;
-7.5278;2.21399;6.54091;-1.39106;0.173525;-0.773191;5.44954;2.46327;0.948389;0;
-7.52945;2.21414;6.54169;-1.39121;0.173209;-0.773674;5.45234;2.46382;0.948505;0;
-7.53109;2.21429;6.54245;-1.39135;0.172894;-0.774155;5.45513;2.46436;0.948621;0;
-7.53273;2.21444;6.54322;-1.3915;0.172579;-0.774633;5.4579;2.4649;0.948736;0;
-7.53436;2.21459;6.54398;-1.39165;0.172264;-0.77511;5.46068;2.46544;0.948852;0;
-7.53598;2.21474;6.54474;-1.3918;0.17195;-0.775583;5.46344;2.46598;0.948967;0;
-7.5376;2.21489;6.54549;-1.39195;0.171635;-0.776055;5.4662;2.46652;0.949082;0;
-7.53922;2.21504;6.54624;-1.39209;0.171321;-0.776524;5.46894;2.46705;0.949197;0;
-7.54082;2.21519;6.54699;-1.39224;0.171007;-0.77699;5.47169;2.46758;0.949312;0;
-7.54243;2.21534;6.54774;-1.39239;0.170693;-0.777455;5.47442;2.46811;0.949427;0;
-7.54403;2.21548;6.54848;-1.39254;0.170379;-0.777917;5.47715;2.46864;0.949542;0;
-7.54562;2.21563;6.54921;-1.39268;0.170066;-0.778377;5.47987;2.46917;0.949656;0;
-7.54721;2.21578;6.54995;-1.39283;0.169753;-0.778834;5.48258;2.46969;0.94977;0;
-7.54879;2.21592;6.55068;-1.39297;0.16944;-0.779289;5.48528;2.47021;0.949885;0;
-7.55036;2.21607;6.55141;-1.39312;0.169127;-0.779742;5.48798;2.47074;0.949999;0;
-7.55194;2.21622;6.55213;-1.39326;0.168814;-0.780192;5.49067;2.47125;0.950113;0;
-7.5535;2.21636;6.55285;-1.39341;0.168501;-0.780641;5.49335;2.47177;0.950226;0;
-7.55506;2.2165;6.55357;-1.39355;0.168189;-0.781087;5.49602;2.47228;0.95034;0;
-7.55662;2.21665;6.55429;-1.3937;0.167877;-0.781531;5.49869;2.4728;0.950454;0;
-7.55817;2.21679;6.555;-1.39384;0.167565;-0.781972;5.50135;2.47331;0.950567;0;
-7.55972;2.21694;6.55571;-1.39398;0.167253;-0.782411;5.504;2.47382;0.95068;0;
-7.56126;2.21708;6.55641;-1.39413;0.166942;-0.782849;5.50665;2.47432;0.950793;0;
-7.5628;2.21722;6.55712;-1.39427;0.16663;-0.783284;5.50929;2.47483;0.950906;0;
-7.56433;2.21736;6.55781;-1.39441;0.166319;-0.783716;5.51192;2.47533;0.951019;0;
-7.56585;2.2175;6.55851;-1.39455;0.166009;-0.784147;5.51454;2.47583;0.951132;0;
-7.56737;2.21764;6.5592;-1.39469;0.165698;-0.784575;5.51716;2.47633;0.951244;0;
-7.56889;2.21779;6.55989;-1.39484;0.165387;-0.785002;5.51977;2.47683;0.951356;0;
-7.5704;2.21793;6.56058;-1.39498;0.165077;-0.785426;5.52237;2.47733;0.951469;0;
-7.57191;2.21807;6.56127;-1.39512;0.164767;-0.785848;5.52497;2.47782;0.951581;0;
-7.57341;2.2182;6.56195;-1.39526;0.164457;-0.786268;5.52756;2.47831;0.951693;0;
-7.5749;2.21834;6.56262;-1.3954;0.164148;-0.786686;5.53014;2.4788;0.951805;0;
-7.5764;2.21848;6.5633;-1.39554;0.163839;-0.787101;5.53272;2.47929;0.951916;0;
-7.57788;2.21862;6.56397;-1.39568;0.16353;-0.787515;5.53528;2.47978;0.952028;0;
-7.57936;2.21876;6.56464;-1.39582;0.163221;-0.787926;5.53784;2.48026;0.952139;0;
-7.58084;2.21889;6.56531;-1.39595;0.162912;-0.788336;5.5404;2.48075;0.95225;0;
-7.58231;2.21903;6.56597;-1.39609;0.162604;-0.788743;5.54294;2.48123;0.952361;0;
-7.58378;2.21917;6.56663;-1.39623;0.162295;-0.789149;5.54548;2.48171;0.952472;0;
-7.58524;2.2193;6.56729;-1.39637;0.161988;-0.789552;5.54802;2.48219;0.952583;0;
-7.5867;2.21944;6.56794;-1.39651;0.16168;-0.789953;5.55054;2.48266;0.952694;0;
-7.58815;2.21957;6.56859;-1.39664;0.161372;-0.790352;5.55306;2.48314;0.952804;0;
-7.5896;2.21971;6.56924;-1.39678;0.161065;-0.79075;5.55557;2.48361;0.952915;0;
-7.59105;2.21984;6.56989;-1.39692;0.160758;-0.791145;5.55808;2.48408;0.953025;0;
-7.59248;2.21998;6.57053;-1.39705;0.160451;-0.791538;5.56058;2.48455;0.953135;0;
-7.59392;2.22011;6.57117;-1.39719;0.160145;-0.791929;5.56307;2.48502;0.953245;0;
-7.59535;2.22024;6.57181;-1.39732;0.159839;-0.792319;5.56556;2.48548;0.953355;0;
-7.59677;2.22037;6.57244;-1.39746;0.159533;-0.792706;5.56804;2.48595;0.953465;0;
-7.59819;2.22051;6.57307;-1.39759;0.159227;-0.793092;5.57051;2.48641;0.953574;0;
-7.59961;2.22064;6.5737;-1.39773;0.158921;-0.793475;5.57297;2.48687;0.953684;0;
-7.60102;2.22077;6.57433;-1.39786;0.158616;-0.793857;5.57543;2.48733;0.953793;0;
-7.60243;2.2209;6.57495;-1.398;0.158311;-0.794236;5.57788;2.48779;0.953902;0;
-7.60383;2.22103;6.57557;-1.39813;0.158006;-0.794614;5.58033;2.48824;0.954011;0;
-7.60523;2.22116;6.57619;-1.39827;0.157702;-0.79499;5.58277;2.48869;0.95412;0;
-7.60662;2.22129;6.5768;-1.3984;0.157398;-0.795363;5.5852;2.48915;0.954229;0;
-7.60801;2.22142;6.57742;-1.39853;0.157094;-0.795736;5.58762;2.4896;0.954337;0;
-7.60939;2.22155;6.57803;-1.39866;0.15679;-0.796106;5.59004;2.49005;0.954446;0;
-7.61077;2.22168;6.57863;-1.3988;0.156487;-0.796474;5.59245;2.49049;0.954554;0;
-7.61215;2.2218;6.57924;-1.39893;0.156183;-0.79684;5.59486;2.49094;0.954662;0;
-7.61352;2.22193;6.57984;-1.39906;0.15588;-0.797205;5.59726;2.49138;0.95477;0;
-7.61488;2.22206;6.58044;-1.39919;0.155578;-0.797568;5.59965;2.49183;0.954878;0;
-7.61624;2.22218;6.58104;-1.39932;0.155275;-0.797929;5.60204;2.49227;0.954986;0;
-7.6176;2.22231;6.58163;-1.39945;0.154973;-0.798288;5.60442;2.49271;0.955093;0;
-7.61895;2.22244;6.58222;-1.39958;0.154671;-0.798645;5.60679;2.49314;0.955201;0;
-7.6203;2.22256;6.58281;-1.39971;0.15437;-0.799;5.60916;2.49358;0.955308;0;
-7.62165;2.22269;6.5834;-1.39984;0.154068;-0.799354;5.61152;2.49401;0.955415;0;
-7.62299;2.22281;6.58398;-1.39997;0.153767;-0.799706;5.61387;2.49445;0.955522;0;
-7.62432;2.22294;6.58456;-1.4001;0.153467;-0.800056;5.61622;2.49488;0.955629;0;
-7.62566;2.22306;6.58514;-1.40023;0.153166;-0.800404;5.61856;2.49531;0.955736;0;
-7.62698;2.22318;6.58572;-1.40036;0.152866;-0.800751;5.6209;2.49574;0.955842;0;
-7.62831;2.22331;6.58629;-1.40049;0.152566;-0.801096;5.62323;2.49616;0.955949;0;
-7.62962;2.22343;6.58686;-1.40061;0.152266;-0.801439;5.62555;2.49659;0.956055;0;
-7.63094;2.22355;6.58743;-1.40074;0.151967;-0.80178;5.62786;2.49701;0.956161;0;
-7.63225;2.22367;6.588;-1.40087;0.151668;-0.80212;5.63017;2.49743;0.956267;0;
-7.63356;2.2238;6.58856;-1.401;0.151369;-0.802458;5.63248;2.49785;0.956373;0;
-7.63486;2.22392;6.58912;-1.40112;0.15107;-0.802794;5.63478;2.49827;0.956479;0;
-7.63615;2.22404;6.58968;-1.40125;0.150772;-0.803128;5.63707;2.49869;0.956584;0;
-7.63745;2.22416;6.59024;-1.40137;0.150474;-0.803461;5.63935;2.49911;0.95669;0;
-7.63874;2.22428;6.59079;-1.4015;0.150177;-0.803792;5.64163;2.49952;0.956795;0;
-7.64002;2.2244;6.59134;-1.40163;0.149879;-0.804122;5.6439;2.49993;0.9569;0;
-7.6413;2.22452;6.59189;-1.40175;0.149582;-0.804449;5.64617;2.50034;0.957005;0;
-7.64258;2.22464;6.59244;-1.40188;0.149285;-0.804776;5.64843;2.50075;0.95711;0;
-7.64385;2.22476;6.59298;-1.402;0.148989;-0.8051;5.65069;2.50116;0.957215;0;
-7.64512;2.22487;6.59352;-1.40212;0.148693;-0.805423;5.65293;2.50157;0.957319;0;
-7.64639;2.22499;6.59406;-1.40225;0.148397;-0.805744;5.65518;2.50197;0.957424;0;
-7.64765;2.22511;6.5946;-1.40237;0.148101;-0.806064;5.65741;2.50238;0.957528;0;
-7.64891;2.22523;6.59514;-1.4025;0.147806;-0.806381;5.65964;2.50278;0.957632;0;
-7.65016;2.22534;6.59567;-1.40262;0.147511;-0.806698;5.66187;2.50318;0.957736;0;
-7.65141;2.22546;6.5962;-1.40274;0.147216;-0.807013;5.66409;2.50358;0.95784;0;
-7.65265;2.22558;6.59673;-1.40286;0.146921;-0.807326;5.6663;2.50398;0.957944;0;
-7.6539;2.22569;6.59725;-1.40299;0.146627;-0.807637;5.6685;2.50438;0.958047;0;
-7.65513;2.22581;6.59778;-1.40311;0.146333;-0.807947;5.67071;2.50477;0.958151;0;
-7.65637;2.22592;6.5983;-1.40323;0.14604;-0.808256;5.6729;2.50517;0.958254;0;
-7.65759;2.22604;6.59882;-1.40335;0.145747;-0.808562;5.67509;2.50556;0.958357;0;
-7.65882;2.22615;6.59933;-1.40347;0.145454;-0.808868;5.67727;2.50595;0.95846;0;
-7.66004;2.22626;6.59985;-1.40359;0.145161;-0.809171;5.67945;2.50634;0.958563;0;
-7.66126;2.22638;6.60036;-1.40371;0.144869;-0.809473;5.68162;2.50673;0.958666;0;
-7.66247;2.22649;6.60087;-1.40383;0.144577;-0.809774;5.68378;2.50712;0.958769;0;
-7.66368;2.2266;6.60138;-1.40395;0.144285;-0.810073;5.68594;2.5075;0.958871;0;
-7.66489;2.22672;6.60188;-1.40407;0.143994;-0.810371;5.6881;2.50788;0.958973;0;
-7.66609;2.22683;6.60239;-1.40419;0.143703;-0.810667;5.69024;2.50827;0.959075;0;
-7.66729;2.22694;6.60289;-1.40431;0.143412;-0.810962;5.69239;2.50865;0.959177;0;
-7.66848;2.22705;6.60339;-1.40443;0.143121;-0.811255;5.69452;2.50903;0.959279;0;
-7.66968;2.22716;6.60389;-1.40455;0.142831;-0.811546;5.69665;2.50941;0.959381;0;
-7.67086;2.22727;6.60438;-1.40467;0.142541;-0.811836;5.69878;2.50979;0.959483;0;
-7.67205;2.22738;6.60487;-1.40478;0.142252;-0.812125;5.7009;2.51016;0.959584;0;
-7.67323;2.22749;6.60537;-1.4049;0.141963;-0.812412;5.70301;2.51054;0.959685;0;
-7.6744;2.2276;6.60585;-1.40502;0.141674;-0.812698;5.70512;2.51091;0.959787;0;
-7.67557;2.22771;6.60634;-1.40513;0.141385;-0.812982;5.70722;2.51128;0.959888;0;
-7.67674;2.22782;6.60683;-1.40525;0.141097;-0.813265;5.70932;2.51165;0.959988;0;
-7.67791;2.22793;6.60731;-1.40537;0.140809;-0.813546;5.71141;2.51202;0.960089;0;
-7.67907;2.22804;6.60779;-1.40548;0.140521;-0.813826;5.71349;2.51239;0.96019;0;
-7.68023;2.22815;6.60827;-1.4056;0.140234;-0.814105;5.71557;2.51276;0.96029;0;
-7.68138;2.22825;6.60874;-1.40571;0.139947;-0.814382;5.71764;2.51312;0.960391;0;
-7.68253;2.22836;6.60922;-1.40583;0.139661;-0.814658;5.71971;2.51349;0.960491;0;
-7.68368;2.22847;6.60969;-1.40594;0.139374;-0.814932;5.72178;2.51385;0.960591;0;
-7.68482;2.22857;6.61016;-1.40606;0.139088;-0.815205;5.72383;2.51421;0.960691;0;
-7.68596;2.22868;6.61063;-1.40617;0.138803;-0.815476;5.72588;2.51457;0.96079;0;
-7.6871;2.22879;6.61109;-1.40629;0.138517;-0.815746;5.72793;2.51493;0.96089;0;
-7.68823;2.22889;6.61156;-1.4064;0.138232;-0.816015;5.72997;2.51529;0.960989;0;
-7.68936;2.229;6.61202;-1.40651;0.137947;-0.816282;5.73201;2.51564;0.961089;0;
-7.69048;2.2291;6.61248;-1.40663;0.137663;-0.816548;5.73404;2.516;0.961188;0;
-7.69161;2.22921;6.61294;-1.40674;0.137379;-0.816813;5.73606;2.51635;0.961287;0;
-7.69272;2.22931;6.6134;-1.40685;0.137095;-0.817076;5.73808;2.5167;0.961386;0;
-7.69384;2.22941;6.61385;-1.40697;0.136812;-0.817338;5.74009;2.51706;0.961485;0;
-7.69495;2.22952;6.6143;-1.40708;0.136529;-0.817599;5.7421;2.51741;0.961583;0;
-7.69606;2.22962;6.61475;-1.40719;0.136246;-0.817858;5.7441;2.51775;0.961682;0;
-7.69716;2.22972;6.6152;-1.4073;0.135964;-0.818116;5.7461;2.5181;0.96178;0;
-7.69826;2.22982;6.61565;-1.40741;0.135682;-0.818373;5.74809;2.51845;0.961878;0;
-7.69936;2.22993;6.61609;-1.40752;0.1354;-0.818628;5.75008;2.51879;0.961976;0;
-7.70045;2.23003;6.61654;-1.40763;0.135119;-0.818882;5.75206;2.51914;0.962074;0;
-7.70155;2.23013;6.61698;-1.40774;0.134838;-0.819135;5.75404;2.51948;0.962172;0;
-7.70263;2.23023;6.61742;-1.40785;0.134557;-0.819386;5.75601;2.51982;0.962269;0;
-7.70372;2.23033;6.61785;-1.40796;0.134277;-0.819636;5.75797;2.52016;0.962367;0;
-7.7048;2.23043;6.61829;-1.40807;0.133997;-0.819885;5.75993;2.5205;0.962464;0;
-7.70587;2.23053;6.61872;-1.40818;0.133717;-0.820133;5.76189;2.52084;0.962561;0;
-7.70695;2.23063;6.61915;-1.40829;0.133438;-0.820379;5.76384;2.52118;0.962658;0;
-7.70802;2.23073;6.61958;-1.4084;0.133159;-0.820624;5.76578;2.52151;0.962755;0;
-7.70909;2.23083;6.62001;-1.40851;0.13288;-0.820868;5.76772;2.52185;0.962852;0;
-7.71015;2.23093;6.62044;-1.40862;0.132602;-0.821111;5.76966;2.52218;0.962948;0;
-7.71121;2.23103;6.62086;-1.40873;0.132324;-0.821352;5.77159;2.52251;0.963045;0;
-7.71227;2.23113;6.62129;-1.40883;0.132046;-0.821592;5.77351;2.52284;0.963141;0;
-7.71332;2.23123;6.62171;-1.40894;0.131769;-0.821831;5.77543;2.52317;0.963237;0;
-7.71437;2.23132;6.62213;-1.40905;0.131492;-0.822069;5.77734;2.5235;0.963333;0;
-7.71542;2.23142;6.62254;-1.40915;0.131215;-0.822305;5.77925;2.52383;0.963429;0;
-7.71646;2.23152;6.62296;-1.40926;0.130939;-0.82254;5.78115;2.52415;0.963525;0;
-7.7175;2.23162;6.62337;-1.40937;0.130663;-0.822774;5.78305;2.52448;0.963621;0;
-7.71854;2.23171;6.62379;-1.40947;0.130388;-0.823007;5.78495;2.5248;0.963716;0;
-7.71958;2.23181;6.6242;-1.40958;0.130112;-0.823239;5.78683;2.52513;0.963811;0;
-7.72061;2.2319;6.6246;-1.40968;0.129837;-0.823469;5.78872;2.52545;0.963907;0;
-7.72164;2.232;6.62501;-1.40979;0.129563;-0.823698;5.79059;2.52577;0.964002;0;
-7.72266;2.23209;6.62542;-1.40989;0.129289;-0.823927;5.79247;2.52609;0.964096;0;
-7.72368;2.23219;6.62582;-1.41;0.129015;-0.824153;5.79434;2.52641;0.964191;0;
-7.7247;2.23228;6.62622;-1.4101;0.128741;-0.824379;5.7962;2.52672;0.964286;0;
-7.72572;2.23238;6.62662;-1.41021;0.128468;-0.824604;5.79806;2.52704;0.96438;0;
-7.72673;2.23247;6.62702;-1.41031;0.128196;-0.824827;5.79991;2.52735;0.964475;0;
-7.72774;2.23257;6.62742;-1.41042;0.127923;-0.825049;5.80176;2.52767;0.964569;0;
-7.72874;2.23266;6.62781;-1.41052;0.127651;-0.825271;5.8036;2.52798;0.964663;0;
-7.72975;2.23275;6.62821;-1.41062;0.127379;-0.825491;5.80544;2.52829;0.964757;0;
-7.73075;2.23285;6.6286;-1.41072;0.127108;-0.825709;5.80727;2.5286;0.96485;0;
-7.73174;2.23294;6.62899;-1.41083;0.126837;-0.825927;5.8091;2.52891;0.964944;0;
-7.73274;2.23303;6.62938;-1.41093;0.126566;-0.826144;5.81092;2.52922;0.965037;0;
-7.73373;2.23312;6.62976;-1.41103;0.126296;-0.826359;5.81274;2.52953;0.965131;0;
-7.73471;2.23321;6.63015;-1.41113;0.126026;-0.826574;5.81456;2.52984;0.965224;0;
-7.7357;2.23331;6.63053;-1.41123;0.125757;-0.826787;5.81637;2.53014;0.965317;0;
-7.73668;2.2334;6.63091;-1.41134;0.125487;-0.826999;5.81817;2.53045;0.96541;0;
-7.73766;2.23349;6.63129;-1.41144;0.125218;-0.82721;5.81997;2.53075;0.965503;0;
-7.73863;2.23358;6.63167;-1.41154;0.12495;-0.82742;5.82176;2.53105;0.965595;0;
-7.73961;2.23367;6.63205;-1.41164;0.124682;-0.827629;5.82355;2.53135;0.965688;0;
-7.74058;2.23376;6.63243;-1.41174;0.124414;-0.827837;5.82534;2.53165;0.96578;0;
-7.74154;2.23385;6.6328;-1.41184;0.124146;-0.828044;5.82712;2.53195;0.965872;0;
-7.74251;2.23394;6.63317;-1.41194;0.123879;-0.82825;5.8289;2.53225;0.965964;0;
-7.74347;2.23403;6.63354;-1.41204;0.123613;-0.828454;5.83067;2.53254;0.966056;0;
-7.74442;2.23412;6.63391;-1.41214;0.123346;-0.828658;5.83243;2.53284;0.966148;0;
-7.74538;2.2342;6.63428;-1.41224;0.12308;-0.82886;5.83419;2.53314;0.966239;0;
-7.74633;2.23429;6.63465;-1.41233;0.122815;-0.829062;5.83595;2.53343;0.966331;0;
-7.74728;2.23438;6.63501;-1.41243;0.122549;-0.829262;5.8377;2.53372;0.966422;0;
-7.74823;2.23447;6.63537;-1.41253;0.122284;-0.829462;5.83945;2.53401;0.966513;0;
-7.74917;2.23456;6.63574;-1.41263;0.12202;-0.82966;5.84119;2.5343;0.966605;0;
-7.75011;2.23464;6.6361;-1.41273;0.121756;-0.829858;5.84293;2.53459;0.966695;0;
-7.75105;2.23473;6.63646;-1.41282;0.121492;-0.830054;5.84466;2.53488;0.966786;0;
-7.75198;2.23482;6.63681;-1.41292;0.121228;-0.830249;5.84639;2.53517;0.966877;0;
-7.75291;2.2349;6.63717;-1.41302;0.120965;-0.830444;5.84812;2.53546;0.966967;0;
-7.75384;2.23499;6.63752;-1.41311;0.120702;-0.830637;5.84984;2.53574;0.967058;0;
-7.75477;2.23507;6.63788;-1.41321;0.12044;-0.830829;5.85155;2.53603;0.967148;0;
-7.75569;2.23516;6.63823;-1.41331;0.120178;-0.831021;5.85326;2.53631;0.967238;0;
-7.75661;2.23525;6.63858;-1.4134;0.119916;-0.831211;5.85497;2.53659;0.967328;0;
-7.75753;2.23533;6.63892;-1.4135;0.119655;-0.8314;5.85667;2.53688;0.967417;0;
-7.75844;2.23542;6.63927;-1.41359;0.119394;-0.831589;5.85837;2.53716;0.967507;0;
-7.75935;2.2355;6.63962;-1.41369;0.119133;-0.831776;5.86006;2.53744;0.967597;0;
-7.76026;2.23558;6.63996;-1.41378;0.118873;-0.831963;5.86175;2.53772;0.967686;0;
-7.76117;2.23567;6.6403;-1.41388;0.118613;-0.832148;5.86343;2.53799;0.967775;0;
-7.76207;2.23575;6.64065;-1.41397;0.118354;-0.832333;5.86511;2.53827;0.967864;0;
-7.76297;2.23583;6.64098;-1.41407;0.118095;-0.832516;5.86678;2.53855;0.967953;0;
-7.76387;2.23592;6.64132;-1.41416;0.117836;-0.832699;5.86845;2.53882;0.968042;0;
-7.76477;2.236;6.64166;-1.41425;0.117578;-0.832881;5.87012;2.5391;0.968131;0;
-7.76566;2.23608;6.642;-1.41435;0.11732;-0.833061;5.87178;2.53937;0.968219;0;
-7.76655;2.23617;6.64233;-1.41444;0.117062;-0.833241;5.87344;2.53964;0.968307;0;
-7.76744;2.23625;6.64266;-1.41453;0.116805;-0.83342;5.87509;2.53991;0.968396;0;
-7.76832;2.23633;6.64299;-1.41463;0.116548;-0.833598;5.87674;2.54018;0.968484;0;
-7.7692;2.23641;6.64332;-1.41472;0.116291;-0.833775;5.87838;2.54045;0.968572;0;
-7.77008;2.23649;6.64365;-1.41481;0.116035;-0.833951;5.88002;2.54072;0.968659;0;
-7.77096;2.23657;6.64398;-1.4149;0.115779;-0.834126;5.88166;2.54099;0.968747;0;
-7.77183;2.23665;6.64431;-1.415;0.115524;-0.8343;5.88329;2.54126;0.968834;0;
-7.7727;2.23673;6.64463;-1.41509;0.115269;-0.834474;5.88491;2.54152;0.968922;0;
-7.77357;2.23681;6.64495;-1.41518;0.115014;-0.834646;5.88653;2.54179;0.969009;0;
-7.77444;2.23689;6.64528;-1.41527;0.11476;-0.834818;5.88815;2.54205;0.969096;0;
-7.7753;2.23697;6.6456;-1.41536;0.114506;-0.834988;5.88977;2.54231;0.969183;0;
-7.77616;2.23705;6.64592;-1.41545;0.114252;-0.835158;5.89137;2.54258;0.96927;0;
-7.77702;2.23713;6.64623;-1.41554;0.113999;-0.835327;5.89298;2.54284;0.969357;0;
-7.77787;2.23721;6.64655;-1.41563;0.113746;-0.835495;5.89458;2.5431;0.969443;0;
-7.77873;2.23729;6.64687;-1.41572;0.113494;-0.835662;5.89618;2.54336;0.969529;0;
-7.77958;2.23737;6.64718;-1.41581;0.113242;-0.835828;5.89777;2.54362;0.969616;0;
-7.78043;2.23745;6.64749;-1.4159;0.11299;-0.835994;5.89936;2.54387;0.969702;0;
-7.78127;2.23752;6.6478;-1.41599;0.112739;-0.836158;5.90094;2.54413;0.969788;0;
-7.78211;2.2376;6.64811;-1.41608;0.112488;-0.836322;5.90252;2.54439;0.969874;0;
-7.78295;2.23768;6.64842;-1.41617;0.112237;-0.836485;5.90409;2.54464;0.969959;0;
-7.78379;2.23776;6.64873;-1.41626;0.111987;-0.836647;5.90567;2.5449;0.970045;0;
-7.78462;2.23783;6.64904;-1.41634;0.111737;-0.836808;5.90723;2.54515;0.97013;0;
-7.78546;2.23791;6.64934;-1.41643;0.111488;-0.836968;5.9088;2.5454;0.970215;0;
-7.78629;2.23799;6.64965;-1.41652;0.111238;-0.837128;5.91035;2.54565;0.970301;0;
-7.78711;2.23806;6.64995;-1.41661;0.11099;-0.837286;5.91191;2.5459;0.970386;0;
-7.78794;2.23814;6.65025;-1.41669;0.110741;-0.837444;5.91346;2.54615;0.97047;0;
-7.78876;2.23822;6.65055;-1.41678;0.110493;-0.837601;5.915;2.5464;0.970555;0;
-7.78958;2.23829;6.65085;-1.41687;0.110246;-0.837757;5.91655;2.54665;0.97064;0;
-7.7904;2.23837;6.65115;-1.41695;0.109998;-0.837912;5.91808;2.5469;0.970724;0;
-7.79121;2.23844;6.65144;-1.41704;0.109752;-0.838067;5.91962;2.54714;0.970808;0;
-7.79203;2.23852;6.65174;-1.41713;0.109505;-0.838221;5.92115;2.54739;0.970892;0;
-7.79284;2.23859;6.65203;-1.41721;0.109259;-0.838374;5.92267;2.54764;0.970976;0;
-7.79364;2.23866;6.65232;-1.4173;0.109013;-0.838526;5.9242;2.54788;0.97106;0;
-7.79445;2.23874;6.65262;-1.41738;0.108768;-0.838677;5.92571;2.54812;0.971144;0;
-7.79525;2.23881;6.65291;-1.41747;0.108523;-0.838827;5.92723;2.54836;0.971228;0;
-7.79605;2.23889;6.65319;-1.41755;0.108278;-0.838977;5.92874;2.54861;0.971311;0;
-7.79685;2.23896;6.65348;-1.41764;0.108034;-0.839126;5.93024;2.54885;0.971394;0;
-7.79765;2.23903;6.65377;-1.41772;0.10779;-0.839274;5.93175;2.54909;0.971478;0;
-7.79844;2.23911;6.65406;-1.41781;0.107546;-0.839422;5.93324;2.54933;0.971561;0;
-7.79923;2.23918;6.65434;-1.41789;0.107303;-0.839568;5.93474;2.54956;0.971644;0;
-7.80002;2.23925;6.65462;-1.41798;0.107061;-0.839714;5.93623;2.5498;0.971726;0;
-7.80081;2.23932;6.65491;-1.41806;0.106818;-0.839859;5.93771;2.55004;0.971809;0;
-7.80159;2.23939;6.65519;-1.41814;0.106576;-0.840004;5.93919;2.55027;0.971891;0;
-7.80237;2.23947;6.65547;-1.41823;0.106335;-0.840147;5.94067;2.55051;0.971974;0;
-7.80315;2.23954;6.65574;-1.41831;0.106093;-0.84029;5.94215;2.55074;0.972056;0;
-7.80393;2.23961;6.65602;-1.41839;0.105852;-0.840432;5.94362;2.55098;0.972138;0;
-7.8047;2.23968;6.6563;-1.41848;0.105612;-0.840573;5.94508;2.55121;0.97222;0;
-7.80547;2.23975;6.65657;-1.41856;0.105372;-0.840714;5.94655;2.55144;0.972302;0;
-7.80624;2.23982;6.65685;-1.41864;0.105132;-0.840854;5.94801;2.55167;0.972383;0;
-7.80701;2.23989;6.65712;-1.41872;0.104893;-0.840993;5.94946;2.5519;0.972465;0;
-7.80777;2.23996;6.65739;-1.4188;0.104654;-0.841131;5.95091;2.55213;0.972546;0;
-7.80854;2.24003;6.65766;-1.41888;0.104415;-0.841269;5.95236;2.55236;0.972627;0;
-7.8093;2.2401;6.65793;-1.41897;0.104177;-0.841406;5.9538;2.55259;0.972709;0;
-7.81006;2.24017;6.6582;-1.41905;0.103939;-0.841542;5.95524;2.55282;0.972789;0;
-7.81081;2.24024;6.65847;-1.41913;0.103701;-0.841677;5.95668;2.55304;0.97287;0;
-7.81157;2.24031;6.65874;-1.41921;0.103464;-0.841812;5.95811;2.55327;0.972951;0;
-7.81232;2.24038;6.659;-1.41929;0.103227;-0.841946;5.95954;2.5535;0.973032;0;
-7.81307;2.24045;6.65927;-1.41937;0.102991;-0.842079;5.96096;2.55372;0.973112;0;
-7.81381;2.24052;6.65953;-1.41945;0.102755;-0.842212;5.96238;2.55394;0.973192;0;
-7.81456;2.24058;6.65979;-1.41953;0.102519;-0.842344;5.9638;2.55417;0.973272;0;
-7.8153;2.24065;6.66005;-1.41961;0.102284;-0.842475;5.96521;2.55439;0.973352;0;
-7.81604;2.24072;6.66031;-1.41969;0.102049;-0.842606;5.96662;2.55461;0.973432;0;
-7.81678;2.24079;6.66057;-1.41977;0.101815;-0.842736;5.96803;2.55483;0.973512;0;
-7.81752;2.24085;6.66083;-1.41985;0.10158;-0.842865;5.96943;2.55505;0.973592;0;
-7.81825;2.24092;6.66109;-1.41992;0.101347;-0.842993;5.97083;2.55527;0.973671;0;
-7.81898;2.24099;6.66134;-1.42;0.101113;-0.843121;5.97222;2.55549;0.97375;0;
-7.81971;2.24106;6.6616;-1.42008;0.10088;-0.843248;5.97361;2.5557;0.973829;0;
-7.82044;2.24112;6.66185;-1.42016;0.100648;-0.843375;5.975;2.55592;0.973909;0;
-7.82116;2.24119;6.6621;-1.42024;0.100415;-0.8435;5.97638;2.55614;0.973987;0;
-7.82189;2.24125;6.66235;-1.42032;0.100184;-0.843625;5.97776;2.55635;0.974066;0;
-7.82261;2.24132;6.6626;-1.42039;0.099952;-0.84375;5.97914;2.55657;0.974145;0;
-7.82333;2.24139;6.66285;-1.42047;0.0997209;-0.843874;5.98051;2.55678;0.974223;0;
-7.82404;2.24145;6.6631;-1.42055;0.0994901;-0.843997;5.98188;2.55699;0.974302;0;
-7.82476;2.24152;6.66335;-1.42062;0.0992597;-0.844119;5.98325;2.55721;0.97438;0;
-7.82547;2.24158;6.6636;-1.4207;0.0990297;-0.844241;5.98461;2.55742;0.974458;0;
-7.82618;2.24165;6.66384;-1.42078;0.0988001;-0.844362;5.98597;2.55763;0.974536;0;
-7.82689;2.24171;6.66409;-1.42085;0.0985708;-0.844483;5.98732;2.55784;0.974614;0;
-7.82759;2.24178;6.66433;-1.42093;0.0983419;-0.844603;5.98867;2.55805;0.974691;0;
-7.8283;2.24184;6.66457;-1.42101;0.0981134;-0.844722;5.99002;2.55826;0.974769;0;
-7.829;2.2419;6.66481;-1.42108;0.0978853;-0.844841;5.99136;2.55847;0.974846;0;
-7.8297;2.24197;6.66505;-1.42116;0.0976575;-0.844959;5.9927;2.55868;0.974924;0;
-7.8304;2.24203;6.66529;-1.42123;0.0974301;-0.845076;5.99404;2.55888;0.975001;0;
-7.83109;2.24209;6.66553;-1.42131;0.0972031;-0.845193;5.99537;2.55909;0.975078;0;
-7.83179;2.24216;6.66577;-1.42138;0.0969765;-0.845309;5.9967;2.55929;0.975155;0;
-7.83248;2.24222;6.66601;-1.42146;0.0967502;-0.845424;5.99803;2.5595;0.975231;0;
-7.83317;2.24228;6.66624;-1.42153;0.0965243;-0.845539;5.99935;2.5597;0.975308;0;
-7.83385;2.24235;6.66648;-1.4216;0.0962988;-0.845654;6.00067;2.55991;0.975385;0;
-7.83454;2.24241;6.66671;-1.42168;0.0960737;-0.845767;6.00199;2.56011;0.975461;0;
-7.83522;2.24247;6.66695;-1.42175;0.0958489;-0.84588;6.0033;2.56031;0.975537;0;
-7.8359;2.24253;6.66718;-1.42183;0.0956245;-0.845993;6.00461;2.56051;0.975613;0;
-7.83658;2.24259;6.66741;-1.4219;0.0954005;-0.846105;6.00592;2.56071;0.975689;0;
-7.83726;2.24266;6.66764;-1.42197;0.0951768;-0.846216;6.00722;2.56091;0.975765;0;
-7.83794;2.24272;6.66787;-1.42205;0.0949535;-0.846327;6.00852;2.56111;0.975841;0;
-7.83861;2.24278;6.6681;-1.42212;0.0947306;-0.846437;6.00981;2.56131;0.975916;0;
-7.83928;2.24284;6.66832;-1.42219;0.0945081;-0.846546;6.0111;2.56151;0.975991;0;
-7.83995;2.2429;6.66855;-1.42226;0.0942859;-0.846655;6.01239;2.56171;0.976067;0;
-7.84062;2.24296;6.66878;-1.42234;0.0940642;-0.846763;6.01368;2.56191;0.976142;0;
-7.84128;2.24302;6.669;-1.42241;0.0938427;-0.846871;6.01496;2.5621;0.976217;0;
-7.84195;2.24308;6.66922;-1.42248;0.0936217;-0.846978;6.01624;2.5623;0.976292;0;
-7.84261;2.24314;6.66945;-1.42255;0.093401;-0.847085;6.01751;2.56249;0.976366;0;
-7.84327;2.2432;6.66967;-1.42262;0.0931807;-0.847191;6.01878;2.56269;0.976441;0;
-7.84392;2.24326;6.66989;-1.42269;0.0929608;-0.847296;6.02005;2.56288;0.976516;0;
-7.84458;2.24332;6.67011;-1.42277;0.0927413;-0.847401;6.02132;2.56307;0.97659;0;
-7.84523;2.24338;6.67033;-1.42284;0.0925221;-0.847506;6.02258;2.56327;0.976664;0;
-7.84589;2.24344;6.67055;-1.42291;0.0923033;-0.847609;6.02384;2.56346;0.976738;0;
-7.84654;2.2435;6.67077;-1.42298;0.0920848;-0.847713;6.02509;2.56365;0.976812;0;
-7.84718;2.24356;6.67098;-1.42305;0.0918668;-0.847815;6.02634;2.56384;0.976886;0;
-7.84783;2.24361;6.6712;-1.42312;0.0916491;-0.847917;6.02759;2.56403;0.97696;0;
-7.84847;2.24367;6.67141;-1.42319;0.0914318;-0.848019;6.02884;2.56422;0.977033;0;
-7.84912;2.24373;6.67163;-1.42326;0.0912148;-0.84812;6.03008;2.56441;0.977107;0;
-7.84976;2.24379;6.67184;-1.42333;0.0909982;-0.84822;6.03132;2.56459;0.97718;0;
-7.85039;2.24385;6.67205;-1.4234;0.090782;-0.84832;6.03255;2.56478;0.977253;0;
-7.85103;2.2439;6.67226;-1.42347;0.0905662;-0.84842;6.03378;2.56497;0.977326;0;
-7.85167;2.24396;6.67247;-1.42353;0.0903507;-0.848519;6.03501;2.56516;0.977399;0;
-7.8523;2.24402;6.67268;-1.4236;0.0901356;-0.848617;6.03624;2.56534;0.977472;0;
-7.85293;2.24408;6.67289;-1.42367;0.0899209;-0.848715;6.03746;2.56553;0.977544;0;
-7.85356;2.24413;6.6731;-1.42374;0.0897065;-0.848812;6.03868;2.56571;0.977617;0;
-7.85419;2.24419;6.67331;-1.42381;0.0894925;-0.848909;6.0399;2.56589;0.977689;0;
-7.85481;2.24425;6.67352;-1.42388;0.0892789;-0.849005;6.04111;2.56608;0.977761;0;
-7.85544;2.2443;6.67372;-1.42394;0.0890657;-0.849101;6.04232;2.56626;0.977833;0;
-7.85606;2.24436;6.67393;-1.42401;0.0888528;-0.849196;6.04352;2.56644;0.977905;0;
-7.85668;2.24442;6.67413;-1.42408;0.0886403;-0.84929;6.04473;2.56662;0.977977;0;
-7.8573;2.24447;6.67433;-1.42415;0.0884281;-0.849385;6.04593;2.5668;0.978049;0;
-7.85791;2.24453;6.67454;-1.42421;0.0882163;-0.849478;6.04712;2.56698;0.978121;0;
-7.85853;2.24458;6.67474;-1.42428;0.0880049;-0.849571;6.04832;2.56716;0.978192;0;
-7.85914;2.24464;6.67494;-1.42435;0.0877939;-0.849664;6.04951;2.56734;0.978263;0;
-7.85975;2.24469;6.67514;-1.42442;0.0875832;-0.849756;6.0507;2.56752;0.978334;0;
-7.86036;2.24475;6.67534;-1.42448;0.0873729;-0.849848;6.05188;2.5677;0.978406;0;
-7.86097;2.2448;6.67554;-1.42455;0.087163;-0.849939;6.05306;2.56788;0.978476;0;
-7.86157;2.24486;6.67573;-1.42461;0.0869534;-0.85003;6.05424;2.56805;0.978547;0;
-7.86218;2.24491;6.67593;-1.42468;0.0867442;-0.85012;6.05542;2.56823;0.978618;0;
-7.86278;2.24497;6.67613;-1.42475;0.0865354;-0.850209;6.05659;2.5684;0.978688;0;
-7.86338;2.24502;6.67632;-1.42481;0.0863269;-0.850299;6.05776;2.56858;0.978759;0;
-7.86398;2.24507;6.67652;-1.42488;0.0861188;-0.850387;6.05892;2.56875;0.978829;0;
-7.86457;2.24513;6.67671;-1.42494;0.085911;-0.850476;6.06009;2.56893;0.978899;0;
-7.86517;2.24518;6.6769;-1.42501;0.0857037;-0.850563;6.06124;2.5691;0.978969;0;
-7.86576;2.24523;6.67709;-1.42507;0.0854967;-0.850651;6.0624;2.56927;0.979039;0;
-7.86635;2.24529;6.67729;-1.42514;0.08529;-0.850737;6.06356;2.56944;0.979109;0;
-7.86694;2.24534;6.67748;-1.4252;0.0850837;-0.850824;6.06471;2.56962;0.979179;0;
-7.86753;2.24539;6.67767;-1.42527;0.0848778;-0.85091;6.06585;2.56979;0.979248;0;
-7.86812;2.24545;6.67785;-1.42533;0.0846723;-0.850995;6.067;2.56996;0.979318;0;
-7.8687;2.2455;6.67804;-1.42539;0.0844671;-0.85108;6.06814;2.57013;0.979387;0;
-7.86929;2.24555;6.67823;-1.42546;0.0842623;-0.851164;6.06928;2.5703;0.979456;0;
-7.86987;2.2456;6.67842;-1.42552;0.0840578;-0.851248;6.07041;2.57046;0.979525;0;
-7.87045;2.24566;6.6786;-1.42558;0.0838537;-0.851332;6.07155;2.57063;0.979594;0;
-7.87103;2.24571;6.67879;-1.42565;0.08365;-0.851415;6.07268;2.5708;0.979663;0;
-7.8716;2.24576;6.67897;-1.42571;0.0834466;-0.851497;6.0738;2.57097;0.979731;0;
-7.87218;2.24581;6.67916;-1.42577;0.0832436;-0.85158;6.07493;2.57113;0.9798;0;
-7.87275;2.24586;6.67934;-1.42584;0.083041;-0.851661;6.07605;2.5713;0.979868;0;
-7.87332;2.24591;6.67952;-1.4259;0.0828387;-0.851743;6.07717;2.57147;0.979936;0;
-7.87389;2.24596;6.6797;-1.42596;0.0826368;-0.851823;6.07828;2.57163;0.980004;0;
-7.87446;2.24602;6.67989;-1.42602;0.0824352;-0.851904;6.07939;2.57179;0.980072;0;
-7.87503;2.24607;6.68007;-1.42609;0.082234;-0.851984;6.0805;2.57196;0.98014;0;
-7.87559;2.24612;6.68025;-1.42615;0.0820332;-0.852063;6.08161;2.57212;0.980208;0;
-7.87615;2.24617;6.68042;-1.42621;0.0818327;-0.852142;6.08271;2.57228;0.980276;0;
-7.87671;2.24622;6.6806;-1.42627;0.0816326;-0.852221;6.08381;2.57245;0.980343;0;
-7.87727;2.24627;6.68078;-1.42633;0.0814329;-0.852299;6.08491;2.57261;0.98041;0;
-7.87783;2.24632;6.68096;-1.42639;0.0812335;-0.852377;6.086;2.57277;0.980478;0;
-7.87839;2.24637;6.68113;-1.42645;0.0810344;-0.852454;6.0871;2.57293;0.980545;0;
