-0.662995;-0.241341;-0.810823;-0.399628;0.125668;-0.0585097;-0.357236;0.602247;-0.394136;
-0.109864;-0.0481589;-0.342205;-0.0612419;0.244827;0.0307342;-0.0883881;0.737803;-0.110152;
-0.414562;-0.045073;-0.403357;-0.214881;0.197231;0.0233537;-0.165024;0.702697;-0.180496;
-0.343652;0.0400474;-0.233527;-0.15239;0.222515;0.0576849;-0.0904567;0.741387;-0.0961628;
-0.497029;0.0730262;-0.204797;-0.219202;0.204071;0.0659601;-0.106794;0.735277;-0.10625;
-0.51614;0.134322;-0.0945689;-0.208875;0.21163;0.0887843;-0.069298;0.755375;-0.0617233;
-0.614816;0.175833;-0.0357481;-0.244568;0.203608;0.101909;-0.0643196;0.759348;-0.0515594;
-0.663907;0.226776;0.0520723;-0.251888;0.205123;0.120026;-0.0396835;0.772797;-0.021913;
-0.741294;0.26956;0.120401;-0.275701;0.201029;0.13428;-0.0268572;0.780292;-0.00524374;
-0.799902;0.314928;0.198635;-0.288882;0.20048;0.150052;-0.00680736;0.791176;0.0181395;
-0.868197;0.356446;0.269034;-0.307831;0.19794;0.164102;0.00895991;0.799808;0.0363663;
-0.929009;0.398084;0.342364;-0.32265;0.196747;0.178408;0.027394;0.809604;0.0566524;
-0.992732;0.437511;0.412156;-0.339328;0.194881;0.191789;0.044294;0.818505;0.0746738;
-1.05313;0.476204;0.482348;-0.354268;0.193552;0.204975;0.0621876;0.827757;0.0930732;
-1.114;0.51334;0.550602;-0.369649;0.192027;0.217541;0.0795475;0.836615;0.110292;
-1.17308;0.549481;0.618358;-0.384176;0.19074;0.229759;0.0972857;0.84553;0.127298;
-1.23175;0.584353;0.684784;-0.39864;0.189424;0.241481;0.11485;0.854235;0.143542;
-1.28924;0.618183;0.750409;-0.412581;0.188235;0.25281;0.132566;0.862895;0.159382;
-1.34603;0.650895;0.814951;-0.426287;0.187073;0.263702;0.150233;0.871414;0.174635;
-1.40185;0.682594;0.878609;-0.4396;0.185993;0.274197;0.167966;0.879854;0.189436;
-1.45691;0.713275;0.941296;-0.452627;0.184959;0.284285;0.185692;0.888181;0.203733;
-1.51111;0.742996;1.00309;-0.465319;0.183986;0.293988;0.203449;0.896419;0.217583;
-1.56453;0.771776;1.06398;-0.477716;0.183061;0.303308;0.221211;0.904556;0.230978;
-1.61715;0.799657;1.124;-0.489807;0.182187;0.312256;0.238988;0.912604;0.243947;
-1.66902;0.826663;1.18315;-0.501611;0.181359;0.320841;0.25677;0.920558;0.256496;
-1.72014;0.852829;1.24146;-0.513129;0.180577;0.329071;0.274558;0.928425;0.268645;
-1.77052;0.878182;1.29895;-0.524371;0.179836;0.336954;0.292349;0.936203;0.280405;
-1.82019;0.902751;1.35563;-0.535343;0.179135;0.3445;0.31014;0.943896;0.291789;
-1.86916;0.926563;1.41151;-0.546053;0.178472;0.351715;0.327928;0.951505;0.302811;
-1.91745;0.949645;1.46662;-0.556506;0.177845;0.358608;0.345713;0.959032;0.313484;
-1.96506;0.972021;1.52097;-0.566711;0.177253;0.365187;0.363491;0.966479;0.323817;
-2.01202;0.993717;1.57456;-0.576672;0.176692;0.371458;0.381261;0.973847;0.333825;
-2.05834;1.01476;1.62743;-0.586396;0.176163;0.377431;0.39902;0.981138;0.343516;
-2.10403;1.03516;1.67957;-0.59589;0.175662;0.383111;0.416767;0.988353;0.352903;
-2.14911;1.05495;1.73101;-0.605159;0.175189;0.388507;0.4345;0.995494;0.361995;
-2.19359;1.07415;1.78176;-0.614209;0.174742;0.393624;0.452217;1.00256;0.370802;
-2.23748;1.09279;1.83183;-0.623045;0.174319;0.39847;0.469917;1.00956;0.379335;
-2.28079;1.11087;1.88123;-0.631673;0.17392;0.403052;0.487598;1.01649;0.387601;
-2.32354;1.12841;1.92998;-0.640099;0.173543;0.407376;0.505258;1.02335;0.39561;
-2.36574;1.14545;1.97809;-0.648327;0.173187;0.411449;0.522896;1.03014;0.403371;
-2.4074;1.16199;2.02557;-0.656362;0.172851;0.415276;0.540511;1.03686;0.410892;
-2.44853;1.17805;2.07243;-0.66421;0.172534;0.418864;0.558101;1.04352;0.41818;
-2.48914;1.19365;2.11869;-0.671874;0.172234;0.422218;0.575665;1.05012;0.425244;
-2.52925;1.2088;2.16435;-0.67936;0.171951;0.425346;0.593202;1.05666;0.43209;
-2.56886;1.22351;2.20943;-0.686673;0.171684;0.428251;0.610711;1.06313;0.438727;
-2.60798;1.23782;2.25393;-0.693815;0.171432;0.43094;0.628191;1.06954;0.44516;
-2.64662;1.25172;2.29788;-0.700793;0.171194;0.433419;0.64564;1.0759;0.451396;
-2.6848;1.26522;2.34126;-0.707609;0.170969;0.435692;0.663058;1.0822;0.457443;
-2.72252;1.27836;2.38411;-0.714268;0.170757;0.437764;0.680444;1.08844;0.463305;
-2.75979;1.29113;2.42642;-0.720773;0.170557;0.439641;0.697796;1.09462;0.468989;
-2.79662;1.30355;2.4682;-0.727129;0.170369;0.441328;0.715114;1.10075;0.474501;
-2.83301;1.31562;2.50948;-0.733339;0.170191;0.44283;0.732398;1.10683;0.479846;
-2.86899;1.32737;2.55024;-0.739407;0.170023;0.44415;0.749646;1.11285;0.485029;
-2.90454;1.3388;2.59051;-0.745336;0.169865;0.445295;0.766858;1.11882;0.490056;
-2.93969;1.34993;2.63028;-0.75113;0.169716;0.446267;0.784033;1.12474;0.494931;
-2.97445;1.36076;2.66958;-0.756791;0.169575;0.447073;0.80117;1.13061;0.49966;
-3.0088;1.3713;2.7084;-0.762324;0.169442;0.447715;0.818269;1.13643;0.504246;
-3.04278;1.38156;2.74676;-0.767731;0.169317;0.448198;0.835329;1.1422;0.508694;
-3.07637;1.39155;2.78466;-0.773015;0.169199;0.448527;0.852349;1.14792;0.513009;
-3.1096;1.40128;2.82212;-0.778179;0.169088;0.448705;0.86933;1.1536;0.517195;
-3.14245;1.41076;2.85913;-0.783226;0.168984;0.448735;0.886271;1.15923;0.521256;
-3.17496;1.42;2.8957;-0.788159;0.168885;0.448623;0.90317;1.16481;0.525195;
-3.20711;1.429;2.93185;-0.792981;0.168792;0.448371;0.920029;1.17035;0.529016;
-3.23891;1.43777;2.96758;-0.797694;0.168705;0.447984;0.936846;1.17585;0.532723;
-3.27038;1.44632;3.00289;-0.802301;0.168622;0.447464;0.95362;1.1813;0.53632;
-3.30152;1.45465;3.0378;-0.806804;0.168545;0.446815;0.970353;1.18671;0.539809;
-3.33232;1.46278;3.0723;-0.811206;0.168472;0.446041;0.987042;1.19208;0.543194;
-3.36281;1.47071;3.10641;-0.815509;0.168403;0.445145;1.00369;1.19741;0.546478;
-3.39298;1.47844;3.14014;-0.819716;0.168339;0.44413;1.02029;1.2027;0.549664;
-3.42284;1.48598;3.17348;-0.823828;0.168278;0.443;1.03685;1.20794;0.552755;
-3.45239;1.49334;3.20644;-0.827848;0.168221;0.441756;1.05337;1.21315;0.555754;
-3.48165;1.50053;3.23903;-0.831779;0.168167;0.440403;1.06984;1.21832;0.558664;
-3.51061;1.50754;3.27126;-0.835621;0.168117;0.438943;1.08627;1.22345;0.561486;
-3.53927;1.51438;3.30314;-0.839378;0.168069;0.43738;1.10265;1.22854;0.564225;
-3.56766;1.52107;3.33465;-0.843051;0.168025;0.435715;1.11899;1.2336;0.566881;
-3.59576;1.52759;3.36582;-0.846642;0.167983;0.433952;1.13528;1.23862;0.569458;
-3.62359;1.53397;3.39665;-0.850153;0.167944;0.432093;1.15153;1.2436;0.571958;
-3.65114;1.5402;3.42714;-0.853586;0.167908;0.430141;1.16773;1.24855;0.574383;
-3.67843;1.54628;3.45729;-0.856943;0.167874;0.428099;1.18389;1.25347;0.576735;
-3.70546;1.55223;3.48712;-0.860225;0.167842;0.425969;1.2;1.25834;0.579017;
-3.73222;1.55804;3.51663;-0.863434;0.167812;0.423753;1.21606;1.26319;0.58123;
-3.75873;1.56373;3.54582;-0.866572;0.167784;0.421454;1.23208;1.268;0.583376;
-3.785;1.56928;3.57469;-0.869641;0.167758;0.419074;1.24806;1.27278;0.585457;
-3.81101;1.57471;3.60326;-0.872641;0.167734;0.416615;1.26399;1.27753;0.587476;
-3.83678;1.58003;3.63152;-0.875575;0.167711;0.41408;1.27987;1.28225;0.589433;
-3.86231;1.58523;3.65949;-0.878444;0.167691;0.411471;1.29571;1.28693;0.591331;
-3.88761;1.59031;3.68715;-0.881249;0.167671;0.408789;1.3115;1.29158;0.593171;
-3.91267;1.59529;3.71453;-0.883993;0.167654;0.406038;1.32724;1.2962;0.594955;
-3.9375;1.60016;3.74162;-0.886675;0.167637;0.403218;1.34294;1.3008;0.596684;
-3.96211;1.60493;3.76842;-0.889299;0.167622;0.400332;1.35859;1.30536;0.59836;
-3.9865;1.6096;3.79495;-0.891864;0.167608;0.397382;1.3742;1.30989;0.599984;
-4.01067;1.61417;3.8212;-0.894373;0.167596;0.39437;1.38976;1.3144;0.601559;
-4.03462;1.61865;3.84719;-0.896826;0.167584;0.391298;1.40527;1.31887;0.603084;
-4.05836;1.62304;3.8729;-0.899225;0.167574;0.388166;1.42074;1.32332;0.604562;
-4.0819;1.62733;3.89835;-0.901571;0.167565;0.384978;1.43616;1.32774;0.605994;
-4.10522;1.63154;3.92354;-0.903866;0.167556;0.381735;1.45154;1.33213;0.60738;
-4.12834;1.63567;3.94847;-0.90611;0.167549;0.378438;1.46687;1.3365;0.608723;
-4.15126;1.63972;3.97316;-0.908304;0.167543;0.375089;1.48215;1.34084;0.610024;
-4.17399;1.64368;3.99759;-0.910449;0.167537;0.371691;1.49739;1.34515;0.611283;
-4.19652;1.64757;4.02177;-0.912548;0.167532;0.368243;1.51258;1.34944;0.612502;
-4.21885;1.65138;4.04572;-0.9146;0.167529;0.364748;1.52772;1.3537;0.613681;
-4.241;1.65513;4.06942;-0.916607;0.167525;0.361208;1.54282;1.35793;0.614822;
-4.26296;1.65879;4.09289;-0.91857;0.167523;0.357623;1.55788;1.36214;0.615927;
-4.28473;1.66239;4.11612;-0.920489;0.167521;0.353995;1.57288;1.36633;0.616995;
-4.30633;1.66593;4.13913;-0.922366;0.16752;0.350327;1.58785;1.37049;0.618028;
-4.32774;1.6694;4.16191;-0.924201;0.16752;0.346618;1.60276;1.37463;0.619026;
-4.34898;1.6728;4.18446;-0.925997;0.16752;0.34287;1.61763;1.37874;0.619992;
-4.37004;1.67614;4.20679;-0.927752;0.167521;0.339085;1.63246;1.38283;0.620925;
-4.39093;1.67942;4.22891;-0.929469;0.167523;0.335264;1.64724;1.3869;0.621826;
-4.41165;1.68265;4.25081;-0.931148;0.167525;0.331408;1.66197;1.39094;0.622696;
-4.4322;1.68581;4.2725;-0.932789;0.167527;0.327518;1.67666;1.39496;0.623537;
-4.45259;1.68892;4.29398;-0.934395;0.167531;0.323596;1.69131;1.39896;0.624348;
-4.47281;1.69198;4.31525;-0.935965;0.167534;0.319642;1.7059;1.40294;0.625131;
-4.49287;1.69498;4.33632;-0.9375;0.167538;0.315658;1.72046;1.40689;0.625886;
-4.51278;1.69794;4.35718;-0.939002;0.167543;0.311645;1.73497;1.41083;0.626614;
-4.53252;1.70084;4.37785;-0.94047;0.167548;0.307604;1.74943;1.41474;0.627316;
-4.55211;1.70369;4.39832;-0.941906;0.167553;0.303536;1.76385;1.41863;0.627992;
-4.57154;1.7065;4.4186;-0.94331;0.167559;0.299442;1.77823;1.4225;0.628644;
-4.59083;1.70926;4.43868;-0.944683;0.167565;0.295323;1.79256;1.42635;0.629271;
-4.60996;1.71197;4.45858;-0.946026;0.167572;0.29118;1.80684;1.43017;0.629874;
-4.62895;1.71465;4.47829;-0.947339;0.167578;0.287015;1.82109;1.43398;0.630455;
-4.64779;1.71727;4.49781;-0.948623;0.167586;0.282827;1.83528;1.43777;0.631012;
-4.66649;1.71986;4.51715;-0.949879;0.167593;0.278618;1.84944;1.44154;0.631548;
-4.68504;1.72241;4.53632;-0.951106;0.167601;0.274388;1.86355;1.44529;0.632063;
-4.70345;1.72491;4.5553;-0.952307;0.167609;0.27014;1.87761;1.44902;0.632557;
-4.72173;1.72738;4.57411;-0.953481;0.167618;0.265873;1.89163;1.45273;0.63303;
-4.73986;1.72981;4.59275;-0.954629;0.167626;0.261588;1.90561;1.45642;0.633484;
-4.75786;1.7322;4.61121;-0.955751;0.167635;0.257286;1.91955;1.46009;0.633919;
-4.77573;1.73456;4.62951;-0.956849;0.167645;0.252968;1.93344;1.46374;0.634335;
-4.79346;1.73688;4.64764;-0.957922;0.167654;0.248635;1.94729;1.46738;0.634732;
-4.81107;1.73917;4.6656;-0.958971;0.167664;0.244288;1.96109;1.47099;0.635112;
-4.82854;1.74142;4.6834;-0.959997;0.167673;0.239927;1.97485;1.47459;0.635475;
-4.84589;1.74365;4.70104;-0.961;0.167683;0.235552;1.98857;1.47817;0.63582;
-4.8631;1.74584;4.71852;-0.961981;0.167693;0.231166;2.00225;1.48174;0.636149;
-4.8802;1.748;4.73585;-0.962941;0.167704;0.226767;2.01588;1.48528;0.636463;
-4.89717;1.75012;4.75301;-0.963878;0.167714;0.222358;2.02947;1.48881;0.63676;
-4.91402;1.75222;4.77003;-0.964795;0.167725;0.217939;2.04302;1.49232;0.637042;
-4.93074;1.75429;4.78689;-0.965692;0.167736;0.21351;2.05653;1.49582;0.637309;
-4.94735;1.75634;4.8036;-0.966568;0.167746;0.209071;2.06999;1.4993;0.637562;
-4.96384;1.75835;4.82017;-0.967425;0.167757;0.204625;2.08341;1.50276;0.637801;
-4.98021;1.76034;4.83659;-0.968263;0.167768;0.20017;2.09679;1.5062;0.638026;
-4.99647;1.7623;4.85286;-0.969082;0.167779;0.195709;2.11013;1.50963;0.638237;
-5.01261;1.76424;4.86899;-0.969883;0.16779;0.19124;2.12343;1.51304;0.638436;
-5.02864;1.76615;4.88498;-0.970666;0.167801;0.186766;2.13668;1.51644;0.638621;
-5.04456;1.76804;4.90083;-0.971431;0.167812;0.182286;2.1499;1.51982;0.638795;
-5.06036;1.7699;4.91654;-0.97218;0.167823;0.177801;2.16307;1.52318;0.638956;
-5.07606;1.77174;4.93212;-0.972911;0.167834;0.173312;2.1762;1.52653;0.639105;
-5.09165;1.77356;4.94755;-0.973627;0.167846;0.168819;2.18929;1.52986;0.639243;
-5.10713;1.77535;4.96286;-0.974326;0.167857;0.164322;2.20234;1.53318;0.63937;
-5.12251;1.77712;4.97803;-0.97501;0.167867;0.159822;2.21535;1.53648;0.639486;
-5.13778;1.77887;4.99308;-0.975678;0.167878;0.15532;2.22831;1.53977;0.639591;
-5.15295;1.7806;5.00799;-0.976332;0.167889;0.150815;2.24124;1.54304;0.639686;
-5.16801;1.78231;5.02278;-0.97697;0.1679;0.14631;2.25413;1.5463;0.63977;
-5.18298;1.784;5.03744;-0.977595;0.16791;0.141802;2.26698;1.54954;0.639845;
-5.19784;1.78567;5.05198;-0.978205;0.167921;0.137295;2.27978;1.55277;0.63991;
-5.2126;1.78732;5.06639;-0.978802;0.167931;0.132787;2.29255;1.55598;0.639966;
-5.22727;1.78896;5.08068;-0.979385;0.167941;0.128279;2.30528;1.55918;0.640013;
-5.24184;1.79057;5.09485;-0.979956;0.167951;0.123771;2.31796;1.56236;0.640051;
-5.25631;1.79217;5.1089;-0.980513;0.167961;0.119264;2.33061;1.56553;0.640081;
-5.27068;1.79375;5.12283;-0.981058;0.167971;0.114759;2.34322;1.56869;0.640102;
-5.28496;1.79531;5.13665;-0.981591;0.16798;0.110255;2.35579;1.57183;0.640115;
-5.29915;1.79685;5.15035;-0.982112;0.16799;0.105754;2.36832;1.57496;0.64012;
-5.31324;1.79838;5.16394;-0.982621;0.167999;0.101254;2.38081;1.57808;0.640117;
-5.32725;1.79989;5.17741;-0.983119;0.168007;0.0967578;2.39326;1.58118;0.640106;
-5.34116;1.80139;5.19077;-0.983605;0.168016;0.0922642;2.40567;1.58427;0.640088;
-5.35498;1.80287;5.20402;-0.984081;0.168024;0.087774;2.41804;1.58734;0.640063;
-5.36872;1.80434;5.21717;-0.984546;0.168032;0.0832874;2.43038;1.5904;0.640031;
-5.38236;1.80579;5.2302;-0.985;0.168039;0.0788049;2.44268;1.59345;0.639993;
-5.39592;1.80722;5.24313;-0.985445;0.168046;0.0743266;2.45494;1.59648;0.639947;
-5.40939;1.80864;5.25595;-0.985879;0.168053;0.069853;2.46716;1.5995;0.639896;
-5.42278;1.81005;5.26867;-0.986304;0.16806;0.0653842;2.47934;1.60251;0.639838;
-5.43608;1.81145;5.28128;-0.986719;0.168066;0.0609206;2.49148;1.60551;0.639774;
-5.4493;1.81283;5.29379;-0.987125;0.168072;0.0564624;2.50359;1.60849;0.639704;
-5.46243;1.8142;5.3062;-0.987522;0.168077;0.05201;2.51566;1.61146;0.639628;
-5.47548;1.81555;5.31851;-0.98791;0.168082;0.0475635;2.52769;1.61442;0.639547;
-5.48845;1.81689;5.33072;-0.988289;0.168086;0.0431232;2.53968;1.61737;0.63946;
-5.50134;1.81822;5.34283;-0.98866;0.16809;0.0386893;2.55164;1.6203;0.639368;
-5.51415;1.81954;5.35484;-0.989022;0.168094;0.0342622;2.56356;1.62322;0.639271;
-5.52688;1.82085;5.36676;-0.989377;0.168097;0.029842;2.57544;1.62613;0.639168;
-5.53953;1.82214;5.37859;-0.989723;0.1681;0.025429;2.58729;1.62902;0.639061;
-5.55211;1.82342;5.39031;-0.990062;0.168102;0.0210233;2.5991;1.63191;0.63895;
-5.5646;1.82469;5.40195;-0.990393;0.168103;0.0166252;2.61087;1.63478;0.638833;
-5.57702;1.82595;5.41349;-0.990717;0.168104;0.012235;2.62261;1.63764;0.638713;
-5.58937;1.8272;5.42495;-0.991034;0.168105;0.00785273;2.63431;1.64049;0.638587;
-5.60164;1.82844;5.43631;-0.991344;0.168105;0.0034787;2.64597;1.64333;0.638458;
-5.61383;1.82967;5.44758;-0.991647;0.168104;-0.000886943;2.6576;1.64615;0.638325;
-5.62595;1.83089;5.45876;-0.991943;0.168103;-0.00524399;2.66919;1.64897;0.638187;
-5.638;1.8321;5.46986;-0.992232;0.168101;-0.00959227;2.68074;1.65177;0.638046;
-5.64998;1.83329;5.48087;-0.992516;0.168099;-0.0139316;2.69226;1.65456;0.637901;
-5.66188;1.83448;5.49179;-0.992793;0.168096;-0.0182618;2.70375;1.65734;0.637753;
-5.67372;1.83566;5.50263;-0.993064;0.168092;-0.0225827;2.7152;1.66011;0.637601;
-5.68548;1.83683;5.51339;-0.993329;0.168087;-0.0268942;2.72661;1.66286;0.637445;
-5.69717;1.83799;5.52406;-0.993588;0.168082;-0.0311961;2.73799;1.66561;0.637287;
-5.7088;1.83914;5.53464;-0.993842;0.168077;-0.0354882;2.74933;1.66834;0.637125;
-5.72035;1.84028;5.54515;-0.99409;0.16807;-0.0397704;2.76064;1.67107;0.63696;
-5.73184;1.84141;5.55558;-0.994333;0.168063;-0.0440426;2.77191;1.67378;0.636792;
-5.74326;1.84254;5.56592;-0.994571;0.168055;-0.0483045;2.78315;1.67648;0.636621;
-5.75461;1.84365;5.57619;-0.994803;0.168046;-0.0525562;2.79435;1.67917;0.636448;
-5.7659;1.84476;5.58638;-0.995031;0.168037;-0.0567973;2.80552;1.68185;0.636271;
-5.77712;1.84586;5.59649;-0.995253;0.168027;-0.0610279;2.81666;1.68452;0.636092;
-5.78828;1.84695;5.60652;-0.995471;0.168016;-0.0652478;2.82776;1.68718;0.635911;
-5.79937;1.84804;5.61648;-0.995685;0.168004;-0.0694568;2.83882;1.68983;0.635727;
-5.8104;1.84911;5.62636;-0.995893;0.167992;-0.0736549;2.84985;1.69246;0.635541;
-5.82137;1.85018;5.63617;-0.996098;0.167978;-0.0778419;2.86085;1.69509;0.635352;
-5.83227;1.85124;5.6459;-0.996298;0.167964;-0.0820178;2.87182;1.69771;0.635162;
-5.84311;1.85229;5.65556;-0.996494;0.167949;-0.0861824;2.88275;1.70031;0.634969;
-5.85388;1.85334;5.66515;-0.996686;0.167933;-0.0903356;2.89364;1.70291;0.634774;
-5.8646;1.85438;5.67467;-0.996874;0.167916;-0.0944773;2.90451;1.70549;0.634578;
-5.87526;1.85541;5.68411;-0.997058;0.167898;-0.0986075;2.91534;1.70807;0.634379;
-5.88585;1.85643;5.69349;-0.997238;0.16788;-0.102726;2.92613;1.71063;0.634179;
-5.89639;1.85745;5.70279;-0.997415;0.16786;-0.106833;2.9369;1.71319;0.633976;
-5.90686;1.85846;5.71203;-0.997588;0.16784;-0.110928;2.94763;1.71573;0.633773;
-5.91728;1.85946;5.72119;-0.997758;0.167819;-0.115011;2.95833;1.71827;0.633567;
-5.92764;1.86046;5.73029;-0.997924;0.167796;-0.119082;2.96899;1.72079;0.63336;
-5.93794;1.86145;5.73933;-0.998087;0.167773;-0.123141;2.97962;1.72331;0.633152;
-5.94819;1.86244;5.74829;-0.998247;0.167749;-0.127187;2.99022;1.72581;0.632942;
-5.95838;1.86342;5.75719;-0.998404;0.167724;-0.131222;3.00079;1.72831;0.632731;
-5.96851;1.86439;5.76603;-0.998557;0.167698;-0.135244;3.01133;1.7308;0.632519;
-5.97858;1.86535;5.77479;-0.998708;0.16767;-0.139254;3.02183;1.73327;0.632305;
-5.9886;1.86631;5.7835;-0.998856;0.167642;-0.143252;3.0323;1.73574;0.63209;
-5.99857;1.86727;5.79214;-0.999001;0.167613;-0.147237;3.04274;1.7382;0.631874;
-6.00848;1.86822;5.80072;-0.999143;0.167583;-0.151209;3.05315;1.74064;0.631657;
-6.01833;1.86916;5.80924;-0.999283;0.167551;-0.155169;3.06352;1.74308;0.631439;
-6.02813;1.87009;5.81769;-0.99942;0.167519;-0.159116;3.07387;1.74551;0.631221;
-6.03788;1.87103;5.82609;-0.999555;0.167486;-0.163051;3.08418;1.74793;0.631001;
-6.04758;1.87195;5.83442;-0.999688;0.167451;-0.166973;3.09446;1.75034;0.63078;
-6.05722;1.87287;5.8427;-0.999818;0.167416;-0.170882;3.10471;1.75274;0.630559;
-6.06681;1.87379;5.85091;-0.999945;0.167379;-0.174778;3.11493;1.75513;0.630337;
-6.07635;1.87469;5.85906;-1.00007;0.167341;-0.178661;3.12511;1.75751;0.630114;
-6.08584;1.8756;5.86716;-1.00019;0.167302;-0.182532;3.13527;1.75989;0.62989;
-6.09528;1.8765;5.8752;-1.00032;0.167262;-0.186389;3.1454;1.76225;0.629666;
-6.10466;1.87739;5.88318;-1.00043;0.167221;-0.190234;3.15549;1.76461;0.629442;
-6.114;1.87828;5.89111;-1.00055;0.167179;-0.194065;3.16555;1.76695;0.629217;
-6.12329;1.87916;5.89898;-1.00067;0.167136;-0.197884;3.17559;1.76929;0.628991;
-6.13252;1.88004;5.90679;-1.00078;0.167091;-0.201689;3.18559;1.77162;0.628765;
-6.14171;1.88092;5.91455;-1.00089;0.167045;-0.205481;3.19556;1.77394;0.628539;
-6.15085;1.88179;5.92225;-1.001;0.166999;-0.20926;3.20551;1.77625;0.628312;
-6.15994;1.88265;5.9299;-1.00111;0.16695;-0.213026;3.21542;1.77855;0.628085;
-6.16899;1.88351;5.93749;-1.00122;0.166901;-0.216779;3.2253;1.78084;0.627858;
-6.17798;1.88436;5.94503;-1.00132;0.166851;-0.220518;3.23515;1.78313;0.627631;
-6.18693;1.88521;5.95252;-1.00143;0.166799;-0.224245;3.24498;1.7854;0.627403;
-6.19584;1.88606;5.95996;-1.00153;0.166746;-0.227958;3.25477;1.78767;0.627175;
-6.20469;1.8869;5.96734;-1.00163;0.166692;-0.231657;3.26453;1.78993;0.626947;
-6.2135;1.88774;5.97468;-1.00173;0.166637;-0.235344;3.27427;1.79217;0.626719;
-6.22227;1.88857;5.98196;-1.00183;0.16658;-0.239017;3.28397;1.79442;0.626491;
-6.23099;1.8894;5.98919;-1.00193;0.166522;-0.242677;3.29365;1.79665;0.626263;
-6.23966;1.89022;5.99637;-1.00202;0.166463;-0.246324;3.30329;1.79887;0.626035;
-6.24829;1.89104;6.0035;-1.00212;0.166403;-0.249957;3.31291;1.80109;0.625807;
-6.25688;1.89186;6.01059;-1.00221;0.166342;-0.253577;3.3225;1.80329;0.625579;
-6.26542;1.89267;6.01762;-1.0023;0.166279;-0.257183;3.33206;1.80549;0.625351;
-6.27391;1.89348;6.02461;-1.00239;0.166215;-0.260777;3.34159;1.80768;0.625124;
-6.28237;1.89428;6.03154;-1.00248;0.166149;-0.264357;3.35109;1.80987;0.624896;
-6.29078;1.89508;6.03843;-1.00257;0.166082;-0.267923;3.36056;1.81204;0.624669;
-6.29915;1.89588;6.04528;-1.00266;0.166015;-0.271476;3.37;1.81421;0.624442;
-6.30747;1.89667;6.05207;-1.00275;0.165945;-0.275016;3.37942;1.81636;0.624215;
-6.31576;1.89746;6.05882;-1.00284;0.165875;-0.278543;3.38881;1.81851;0.623989;
-6.324;1.89824;6.06553;-1.00292;0.165803;-0.282056;3.39817;1.82066;0.623762;
-6.3322;1.89902;6.07219;-1.00301;0.16573;-0.285556;3.4075;1.82279;0.623537;
-6.34036;1.8998;6.0788;-1.00309;0.165655;-0.289042;3.4168;1.82491;0.623311;
-6.34847;1.90057;6.08537;-1.00318;0.165579;-0.292515;3.42608;1.82703;0.623086;
-6.35655;1.90134;6.09189;-1.00326;0.165502;-0.295975;3.43533;1.82914;0.622861;
-6.36459;1.9021;6.09837;-1.00334;0.165423;-0.299421;3.44455;1.83124;0.622637;
-6.37258;1.90286;6.10481;-1.00342;0.165344;-0.302855;3.45374;1.83334;0.622413;
-6.38054;1.90362;6.11121;-1.0035;0.165262;-0.306274;3.4629;1.83542;0.62219;
-6.38846;1.90438;6.11756;-1.00358;0.16518;-0.309681;3.47204;1.8375;0.621967;
-6.39633;1.90513;6.12387;-1.00366;0.165096;-0.313074;3.48115;1.83957;0.621744;
-6.40417;1.90587;6.13013;-1.00374;0.165011;-0.316454;3.49023;1.84163;0.621522;
-6.41197;1.90662;6.13636;-1.00382;0.164924;-0.319821;3.49929;1.84369;0.621301;
-6.41974;1.90736;6.14254;-1.0039;0.164836;-0.323174;3.50832;1.84573;0.62108;
-6.42746;1.9081;6.14868;-1.00398;0.164747;-0.326515;3.51732;1.84777;0.62086;
-6.43514;1.90883;6.15478;-1.00406;0.164656;-0.329842;3.5263;1.8498;0.62064;
-6.44279;1.90956;6.16084;-1.00413;0.164564;-0.333156;3.53524;1.85183;0.620421;
-6.4504;1.91029;6.16687;-1.00421;0.16447;-0.336456;3.54417;1.85385;0.620203;
-6.45798;1.91101;6.17285;-1.00429;0.164375;-0.339744;3.55306;1.85585;0.619986;
-6.46551;1.91173;6.17879;-1.00436;0.164279;-0.343018;3.56193;1.85786;0.619769;
-6.47301;1.91245;6.18469;-1.00444;0.164181;-0.346279;3.57077;1.85985;0.619552;
-6.48048;1.91317;6.19056;-1.00452;0.164082;-0.349527;3.57959;1.86184;0.619337;
-6.4879;1.91388;6.19638;-1.00459;0.163982;-0.352762;3.58838;1.86382;0.619122;
-6.49529;1.91458;6.20217;-1.00467;0.16388;-0.355984;3.59714;1.86579;0.618908;
-6.50265;1.91529;6.20792;-1.00474;0.163777;-0.359193;3.60588;1.86775;0.618694;
-6.50997;1.91599;6.21363;-1.00482;0.163672;-0.362389;3.61459;1.86971;0.618482;
-6.51726;1.91669;6.21931;-1.00489;0.163566;-0.365572;3.62328;1.87166;0.61827;
-6.52451;1.91739;6.22495;-1.00497;0.163458;-0.368742;3.63194;1.8736;0.618059;
-6.53172;1.91808;6.23055;-1.00504;0.16335;-0.371899;3.64057;1.87554;0.617849;
-6.5389;1.91877;6.23611;-1.00512;0.163239;-0.375043;3.64918;1.87747;0.617639;
-6.54605;1.91946;6.24164;-1.00519;0.163128;-0.378174;3.65776;1.87939;0.617431;
-6.55316;1.92014;6.24714;-1.00526;0.163015;-0.381292;3.66632;1.8813;0.617223;
-6.56024;1.92082;6.25259;-1.00534;0.1629;-0.384397;3.67485;1.88321;0.617016;
-6.56729;1.9215;6.25802;-1.00541;0.162784;-0.38749;3.68336;1.88511;0.61681;
-6.5743;1.92217;6.26341;-1.00549;0.162667;-0.39057;3.69184;1.887;0.616605;
-6.58128;1.92285;6.26876;-1.00556;0.162548;-0.393637;3.7003;1.88888;0.616401;
-6.58822;1.92352;6.27408;-1.00564;0.162428;-0.396691;3.70873;1.89076;0.616198;
-6.59514;1.92418;6.27937;-1.00571;0.162306;-0.399732;3.71714;1.89263;0.615995;
-6.60202;1.92485;6.28462;-1.00578;0.162183;-0.402761;3.72552;1.8945;0.615794;
-6.60887;1.92551;6.28984;-1.00586;0.162059;-0.405777;3.73388;1.89636;0.615593;
-6.61568;1.92617;6.29502;-1.00593;0.161933;-0.408781;3.74221;1.89821;0.615394;
-6.62247;1.92682;6.30017;-1.00601;0.161805;-0.411772;3.75052;1.90005;0.615195;
-6.62922;1.92748;6.30529;-1.00608;0.161677;-0.41475;3.7588;1.90189;0.614997;
-6.63594;1.92813;6.31038;-1.00616;0.161546;-0.417716;3.76706;1.90372;0.614801;
-6.64264;1.92877;6.31544;-1.00623;0.161415;-0.420669;3.7753;1.90554;0.614605;
-6.64929;1.92942;6.32046;-1.00631;0.161282;-0.42361;3.78351;1.90736;0.61441;
-6.65592;1.93006;6.32545;-1.00638;0.161147;-0.426538;3.7917;1.90917;0.614216;
-6.66252;1.9307;6.33041;-1.00646;0.161012;-0.429454;3.79986;1.91097;0.614024;
-6.66909;1.93134;6.33534;-1.00653;0.160874;-0.432358;3.808;1.91277;0.613832;
-6.67563;1.93197;6.34024;-1.00661;0.160736;-0.435249;3.81611;1.91456;0.613641;
-6.68213;1.93261;6.34511;-1.00668;0.160596;-0.438128;3.8242;1.91634;0.613451;
-6.68861;1.93324;6.34995;-1.00676;0.160454;-0.440995;3.83227;1.91812;0.613263;
-6.69506;1.93386;6.35475;-1.00683;0.160311;-0.443849;3.84031;1.91989;0.613075;
-6.70148;1.93449;6.35953;-1.00691;0.160167;-0.446692;3.84833;1.92165;0.612888;
-6.70787;1.93511;6.36428;-1.00699;0.160021;-0.449522;3.85633;1.92341;0.612703;
-6.71423;1.93573;6.369;-1.00706;0.159874;-0.452339;3.8643;1.92516;0.612518;
-6.72056;1.93635;6.37368;-1.00714;0.159725;-0.455145;3.87225;1.9269;0.612335;
-6.72686;1.93696;6.37834;-1.00722;0.159575;-0.457939;3.88018;1.92864;0.612152;
-6.73313;1.93757;6.38297;-1.0073;0.159424;-0.460721;3.88808;1.93037;0.611971;
-6.73938;1.93818;6.38758;-1.00737;0.159271;-0.46349;3.89596;1.9321;0.611791;
-6.74559;1.93879;6.39215;-1.00745;0.159116;-0.466248;3.90382;1.93382;0.611611;
-6.75178;1.9394;6.3967;-1.00753;0.158961;-0.468994;3.91166;1.93553;0.611433;
-6.75794;1.94;6.40121;-1.00761;0.158804;-0.471728;3.91947;1.93723;0.611256;
-6.76408;1.9406;6.4057;-1.00769;0.158645;-0.47445;3.92726;1.93893;0.61108;
-6.77018;1.9412;6.41017;-1.00777;0.158485;-0.47716;3.93502;1.94063;0.610906;
-6.77626;1.94179;6.4146;-1.00784;0.158324;-0.479859;3.94277;1.94231;0.610732;
-6.78231;1.94239;6.41901;-1.00792;0.158161;-0.482545;3.95049;1.94399;0.610559;
-6.78834;1.94298;6.42339;-1.008;0.157997;-0.48522;3.95819;1.94567;0.610388;
-6.79434;1.94357;6.42775;-1.00808;0.157831;-0.487884;3.96586;1.94734;0.610217;
-6.80031;1.94415;6.43207;-1.00817;0.157664;-0.490535;3.97351;1.949;0.610048;
-6.80625;1.94474;6.43638;-1.00825;0.157496;-0.493176;3.98115;1.95065;0.60988;
-6.81217;1.94532;6.44065;-1.00833;0.157326;-0.495804;3.98876;1.9523;0.609713;
-6.81806;1.9459;6.4449;-1.00841;0.157155;-0.498421;3.99634;1.95395;0.609547;
-6.82392;1.94648;6.44913;-1.00849;0.156983;-0.501027;4.00391;1.95558;0.609382;
-6.82976;1.94705;6.45332;-1.00857;0.156809;-0.503621;4.01145;1.95722;0.609218;
-6.83558;1.94762;6.4575;-1.00866;0.156634;-0.506204;4.01897;1.95884;0.609055;
-6.84137;1.94819;6.46165;-1.00874;0.156457;-0.508775;4.02647;1.96046;0.608894;
-6.84713;1.94876;6.46577;-1.00882;0.156279;-0.511335;4.03395;1.96207;0.608734;
-6.85287;1.94933;6.46987;-1.0089;0.1561;-0.513884;4.0414;1.96368;0.608574;
-6.85858;1.94989;6.47394;-1.00899;0.155919;-0.516421;4.04884;1.96528;0.608416;
-6.86427;1.95046;6.47799;-1.00907;0.155737;-0.518947;4.05625;1.96688;0.608259;
-6.86993;1.95102;6.48202;-1.00916;0.155554;-0.521462;4.06364;1.96847;0.608104;
-6.87557;1.95157;6.48602;-1.00924;0.155369;-0.523966;4.07101;1.97005;0.607949;
-6.88118;1.95213;6.48999;-1.00933;0.155183;-0.526459;4.07836;1.97163;0.607795;
-6.88677;1.95268;6.49395;-1.00941;0.154995;-0.528941;4.08569;1.9732;0.607643;
-6.89233;1.95324;6.49788;-1.0095;0.154806;-0.531412;4.093;1.97477;0.607492;
-6.89787;1.95378;6.50179;-1.00959;0.154616;-0.533872;4.10028;1.97633;0.607342;
-6.90339;1.95433;6.50567;-1.00967;0.154424;-0.53632;4.10755;1.97789;0.607193;
-6.90888;1.95488;6.50953;-1.00976;0.154231;-0.538758;4.11479;1.97943;0.607045;
-6.91435;1.95542;6.51337;-1.00985;0.154037;-0.541185;4.12201;1.98098;0.606898;
-6.9198;1.95596;6.51718;-1.00994;0.153842;-0.543602;4.12921;1.98252;0.606753;
-6.92522;1.9565;6.52098;-1.01002;0.153645;-0.546007;4.13639;1.98405;0.606608;
-6.93062;1.95704;6.52475;-1.01011;0.153446;-0.548402;4.14355;1.98557;0.606465;
-6.93599;1.95757;6.52849;-1.0102;0.153247;-0.550786;4.15069;1.98709;0.606323;
-6.94134;1.95811;6.53222;-1.01029;0.153046;-0.553159;4.15781;1.98861;0.606182;
-6.94667;1.95864;6.53592;-1.01038;0.152844;-0.555522;4.16491;1.99012;0.606042;
-6.95198;1.95917;6.53961;-1.01047;0.15264;-0.557874;4.17199;1.99162;0.605904;
-6.95726;1.9597;6.54327;-1.01056;0.152435;-0.560216;4.17905;1.99312;0.605766;
-6.96253;1.96022;6.54691;-1.01065;0.152229;-0.562547;4.18608;1.99462;0.60563;
-6.96777;1.96074;6.55053;-1.01074;0.152022;-0.564867;4.1931;1.9961;0.605495;
-6.97298;1.96127;6.55412;-1.01084;0.151813;-0.567178;4.2001;1.99758;0.605361;
-6.97818;1.96179;6.5577;-1.01093;0.151603;-0.569477;4.20707;1.99906;0.605228;
-6.98335;1.9623;6.56126;-1.01102;0.151392;-0.571767;4.21403;2.00053;0.605096;
-6.9885;1.96282;6.56479;-1.01111;0.151179;-0.574046;4.22097;2.002;0.604965;
-6.99363;1.96333;6.56831;-1.01121;0.150966;-0.576315;4.22789;2.00346;0.604836;
-6.99874;1.96384;6.5718;-1.0113;0.15075;-0.578573;4.23478;2.00491;0.604707;
-7.00382;1.96435;6.57527;-1.01139;0.150534;-0.580822;4.24166;2.00636;0.60458;
-7.00889;1.96486;6.57873;-1.01149;0.150316;-0.58306;4.24852;2.00781;0.604454;
-7.01393;1.96537;6.58216;-1.01158;0.150098;-0.585288;4.25536;2.00925;0.604329;
-7.01896;1.96587;6.58558;-1.01168;0.149877;-0.587506;4.26218;2.01068;0.604205;
-7.02396;1.96638;6.58897;-1.01177;0.149656;-0.589714;4.26898;2.01211;0.604082;
-7.02894;1.96688;6.59235;-1.01187;0.149433;-0.591912;4.27576;2.01353;0.603961;
-7.0339;1.96738;6.5957;-1.01197;0.149209;-0.5941;4.28252;2.01495;0.60384;
-7.03884;1.96787;6.59904;-1.01206;0.148984;-0.596278;4.28926;2.01636;0.603721;
-7.04375;1.96837;6.60236;-1.01216;0.148758;-0.598447;4.29598;2.01777;0.603603;
-7.04865;1.96886;6.60565;-1.01226;0.14853;-0.600605;4.30268;2.01917;0.603486;
-7.05353;1.96935;6.60893;-1.01235;0.148301;-0.602754;4.30937;2.02057;0.60337;
-7.05839;1.96984;6.61219;-1.01245;0.148071;-0.604892;4.31603;2.02196;0.603255;
-7.06323;1.97033;6.61544;-1.01255;0.14784;-0.607022;4.32268;2.02335;0.603141;
-7.06804;1.97082;6.61866;-1.01265;0.147608;-0.609141;4.3293;2.02473;0.603029;
-7.07284;1.9713;6.62187;-1.01275;0.147374;-0.611251;4.33591;2.0261;0.602917;
-7.07762;1.97178;6.62505;-1.01285;0.147139;-0.613351;4.3425;2.02747;0.602807;
-7.08238;1.97226;6.62822;-1.01295;0.146903;-0.615441;4.34907;2.02884;0.602698;
-7.08711;1.97274;6.63137;-1.01305;0.146666;-0.617522;4.35562;2.0302;0.60259;
-7.09183;1.97322;6.63451;-1.01315;0.146428;-0.619594;4.36216;2.03156;0.602482;
-7.09653;1.9737;6.63762;-1.01325;0.146188;-0.621656;4.36867;2.03291;0.602377;
-7.10121;1.97417;6.64072;-1.01335;0.145947;-0.623709;4.37517;2.03426;0.602272;
-7.10587;1.97464;6.6438;-1.01345;0.145705;-0.625752;4.38165;2.0356;0.602168;
-7.11052;1.97511;6.64687;-1.01356;0.145462;-0.627786;4.3881;2.03693;0.602065;
-7.11514;1.97558;6.64991;-1.01366;0.145218;-0.629811;4.39455;2.03827;0.601964;
-7.11975;1.97605;6.65294;-1.01376;0.144973;-0.631826;4.40097;2.03959;0.601863;
-7.12433;1.97651;6.65595;-1.01386;0.144726;-0.633832;4.40737;2.04091;0.601764;
-7.1289;1.97698;6.65895;-1.01397;0.144478;-0.635829;4.41376;2.04223;0.601666;
-7.13345;1.97744;6.66193;-1.01407;0.14423;-0.637817;4.42013;2.04354;0.601568;
-7.13798;1.9779;6.66489;-1.01418;0.14398;-0.639796;4.42648;2.04485;0.601472;
-7.14249;1.97836;6.66784;-1.01428;0.143729;-0.641765;4.43281;2.04615;0.601377;
-7.14698;1.97881;6.67076;-1.01438;0.143476;-0.643726;4.43913;2.04745;0.601283;
-7.15146;1.97927;6.67368;-1.01449;0.143223;-0.645677;4.44542;2.04874;0.60119;
-7.15592;1.97972;6.67657;-1.0146;0.142969;-0.64762;4.4517;2.05003;0.601098;
-7.16035;1.98017;6.67945;-1.0147;0.142713;-0.649554;4.45796;2.05131;0.601008;
-7.16478;1.98062;6.68232;-1.01481;0.142457;-0.651479;4.46421;2.05259;0.600918;
-7.16918;1.98107;6.68517;-1.01491;0.142199;-0.653395;4.47043;2.05387;0.600829;
-7.17357;1.98152;6.688;-1.01502;0.14194;-0.655302;4.47664;2.05514;0.600742;
-7.17794;1.98197;6.69082;-1.01513;0.14168;-0.6572;4.48283;2.0564;0.600655;
-7.18229;1.98241;6.69362;-1.01524;0.141419;-0.65909;4.489;2.05766;0.60057;
-7.18662;1.98285;6.6964;-1.01534;0.141157;-0.660971;4.49516;2.05892;0.600485;
-7.19094;1.98329;6.69918;-1.01545;0.140894;-0.662843;4.5013;2.06017;0.600402;
-7.19524;1.98373;6.70193;-1.01556;0.14063;-0.664706;4.50742;2.06141;0.600319;
-7.19952;1.98417;6.70467;-1.01567;0.140365;-0.666561;4.51352;2.06265;0.600238;
-7.20378;1.9846;6.7074;-1.01578;0.140099;-0.668408;4.51961;2.06389;0.600158;
-7.20803;1.98504;6.71011;-1.01589;0.139831;-0.670246;4.52568;2.06512;0.600078;
-7.21226;1.98547;6.7128;-1.016;0.139563;-0.672075;4.53173;2.06635;0.6;
-7.21648;1.9859;6.71548;-1.01611;0.139294;-0.673896;4.53777;2.06757;0.599923;
-7.22068;1.98633;6.71815;-1.01622;0.139023;-0.675709;4.54379;2.06879;0.599847;
-7.22486;1.98676;6.7208;-1.01633;0.138752;-0.677513;4.54979;2.07001;0.599772;
-7.22902;1.98719;6.72344;-1.01644;0.13848;-0.679309;4.55578;2.07122;0.599697;
-7.23317;1.98761;6.72606;-1.01655;0.138206;-0.681096;4.56175;2.07242;0.599624;
-7.2373;1.98803;6.72867;-1.01666;0.137932;-0.682876;4.5677;2.07362;0.599552;
-7.24142;1.98846;6.73126;-1.01677;0.137656;-0.684647;4.57363;2.07482;0.599481;
-7.24552;1.98888;6.73384;-1.01689;0.13738;-0.68641;4.57955;2.07601;0.599411;
-7.2496;1.9893;6.73641;-1.017;0.137103;-0.688164;4.58545;2.0772;0.599342;
-7.25367;1.98971;6.73896;-1.01711;0.136824;-0.689911;4.59134;2.07838;0.599273;
-7.25772;1.99013;6.7415;-1.01722;0.136545;-0.691649;4.59721;2.07956;0.599206;
-7.26176;1.99054;6.74403;-1.01734;0.136265;-0.69338;4.60306;2.08074;0.59914;
-7.26578;1.99096;6.74654;-1.01745;0.135983;-0.695102;4.6089;2.08191;0.599075;
-7.26978;1.99137;6.74904;-1.01756;0.135701;-0.696817;4.61471;2.08307;0.599011;
-7.27377;1.99178;6.75152;-1.01768;0.135418;-0.698523;4.62052;2.08424;0.598947;
-7.27774;1.99219;6.75399;-1.01779;0.135134;-0.700222;4.62631;2.08539;0.598885;
-7.2817;1.99259;6.75645;-1.01791;0.134849;-0.701912;4.63208;2.08655;0.598824;
-7.28564;1.993;6.75889;-1.01802;0.134563;-0.703595;4.63783;2.0877;0.598763;
-7.28957;1.9934;6.76132;-1.01814;0.134276;-0.70527;4.64357;2.08884;0.598704;
-7.29348;1.9938;6.76374;-1.01825;0.133988;-0.706937;4.64929;2.08998;0.598646;
-7.29738;1.9942;6.76615;-1.01837;0.133699;-0.708597;4.655;2.09112;0.598588;
-7.30126;1.9946;6.76854;-1.01848;0.13341;-0.710248;4.66069;2.09225;0.598532;
-7.30513;1.995;6.77092;-1.0186;0.133119;-0.711892;4.66637;2.09338;0.598476;
-7.30898;1.9954;6.77329;-1.01871;0.132828;-0.713529;4.67203;2.0945;0.598421;
-7.31282;1.99579;6.77564;-1.01883;0.132536;-0.715158;4.67767;2.09562;0.598368;
-7.31664;1.99619;6.77798;-1.01895;0.132242;-0.716779;4.6833;2.09674;0.598315;
-7.32045;1.99658;6.78031;-1.01906;0.131948;-0.718393;4.68891;2.09785;0.598263;
-7.32424;1.99697;6.78263;-1.01918;0.131653;-0.719999;4.69451;2.09896;0.598212;
-7.32802;1.99736;6.78493;-1.0193;0.131357;-0.721597;4.70009;2.10006;0.598162;
-7.33178;1.99775;6.78722;-1.01942;0.131061;-0.723189;4.70566;2.10116;0.598113;
-7.33553;1.99814;6.7895;-1.01953;0.130763;-0.724772;4.71121;2.10226;0.598065;
-7.33927;1.99852;6.79177;-1.01965;0.130465;-0.726349;4.71674;2.10335;0.598018;
-7.34299;1.99891;6.79403;-1.01977;0.130165;-0.727918;4.72226;2.10444;0.597971;
-7.3467;1.99929;6.79627;-1.01989;0.129865;-0.72948;4.72777;2.10552;0.597926;
-7.35039;1.99967;6.7985;-1.02001;0.129564;-0.731034;4.73325;2.1066;0.597881;
-7.35407;2.00005;6.80072;-1.02013;0.129263;-0.732581;4.73873;2.10767;0.597838;
-7.35773;2.00043;6.80293;-1.02024;0.12896;-0.734121;4.74419;2.10875;0.597795;
-7.36138;2.0008;6.80513;-1.02036;0.128657;-0.735654;4.74963;2.10981;0.597753;
-7.36502;2.00118;6.80732;-1.02048;0.128353;-0.73718;4.75506;2.11088;0.597712;
-7.36864;2.00155;6.80949;-1.0206;0.128048;-0.738698;4.76047;2.11194;0.597672;
-7.37225;2.00193;6.81165;-1.02072;0.127742;-0.74021;4.76587;2.11299;0.597633;
-7.37585;2.0023;6.8138;-1.02084;0.127435;-0.741714;4.77125;2.11404;0.597594;
-7.37943;2.00267;6.81594;-1.02096;0.127128;-0.743212;4.77662;2.11509;0.597557;
-7.383;2.00304;6.81807;-1.02108;0.12682;-0.744702;4.78198;2.11614;0.59752;
-7.38656;2.00341;6.82019;-1.0212;0.126511;-0.746186;4.78732;2.11718;0.597484;
-7.3901;2.00377;6.8223;-1.02132;0.126201;-0.747662;4.79264;2.11821;0.597449;
-7.39363;2.00414;6.82439;-1.02144;0.125891;-0.749132;4.79795;2.11925;0.597415;
-7.39714;2.0045;6.82648;-1.02157;0.125579;-0.750594;4.80325;2.12028;0.597382;
-7.40064;2.00486;6.82855;-1.02169;0.125267;-0.75205;4.80853;2.1213;0.59735;
-7.40413;2.00523;6.83061;-1.02181;0.124955;-0.753499;4.81379;2.12232;0.597318;
-7.40761;2.00559;6.83267;-1.02193;0.124641;-0.754942;4.81904;2.12334;0.597287;
-7.41107;2.00594;6.83471;-1.02205;0.124327;-0.756377;4.82428;2.12436;0.597257;
-7.41452;2.0063;6.83674;-1.02217;0.124012;-0.757806;4.8295;2.12537;0.597228;
-7.41796;2.00666;6.83876;-1.02229;0.123697;-0.759228;4.83471;2.12637;0.5972;
-7.42138;2.00701;6.84077;-1.02242;0.12338;-0.760643;4.83991;2.12738;0.597173;
-7.42479;2.00737;6.84277;-1.02254;0.123063;-0.762052;4.84508;2.12838;0.597146;
-7.42819;2.00772;6.84476;-1.02266;0.122745;-0.763455;4.85025;2.12937;0.59712;
-7.43158;2.00807;6.84674;-1.02278;0.122427;-0.76485;4.8554;2.13036;0.597095;
-7.43495;2.00842;6.84871;-1.02291;0.122108;-0.766239;4.86054;2.13135;0.597071;
-7.43831;2.00877;6.85067;-1.02303;0.121788;-0.767622;4.86566;2.13234;0.597048;
-7.44166;2.00911;6.85261;-1.02315;0.121467;-0.768998;4.87077;2.13332;0.597025;
-7.445;2.00946;6.85455;-1.02328;0.121146;-0.770368;4.87586;2.1343;0.597004;
-7.44832;2.0098;6.85648;-1.0234;0.120824;-0.771731;4.88095;2.13527;0.596983;
-7.45164;2.01015;6.8584;-1.02352;0.120502;-0.773088;4.88601;2.13624;0.596962;
-7.45494;2.01049;6.86031;-1.02365;0.120179;-0.774438;4.89107;2.13721;0.596943;
-7.45822;2.01083;6.86221;-1.02377;0.119855;-0.775783;4.8961;2.13817;0.596924;
-7.4615;2.01117;6.8641;-1.02389;0.11953;-0.777121;4.90113;2.13913;0.596906;
-7.46476;2.01151;6.86598;-1.02402;0.119205;-0.778452;4.90614;2.14009;0.596889;
-7.46801;2.01184;6.86785;-1.02414;0.118879;-0.779778;4.91114;2.14104;0.596873;
-7.47125;2.01218;6.86971;-1.02426;0.118553;-0.781097;4.91612;2.14199;0.596857;
-7.47448;2.01252;6.87156;-1.02439;0.118226;-0.78241;4.92109;2.14293;0.596843;
-7.4777;2.01285;6.8734;-1.02451;0.117898;-0.783716;4.92605;2.14388;0.596829;
-7.4809;2.01318;6.87523;-1.02464;0.11757;-0.785017;4.93099;2.14482;0.596815;
-7.48409;2.01351;6.87705;-1.02476;0.117241;-0.786312;4.93592;2.14575;0.596803;
-7.48727;2.01384;6.87887;-1.02489;0.116912;-0.7876;4.94084;2.14668;0.596791;
-7.49044;2.01417;6.88067;-1.02501;0.116582;-0.788882;4.94574;2.14761;0.59678;
-7.4936;2.0145;6.88247;-1.02513;0.116251;-0.790159;4.95063;2.14854;0.596769;
-7.49674;2.01483;6.88425;-1.02526;0.11592;-0.791429;4.95551;2.14946;0.59676;
-7.49988;2.01515;6.88603;-1.02538;0.115588;-0.792694;4.96037;2.15038;0.596751;
-7.503;2.01547;6.8878;-1.02551;0.115255;-0.793952;4.96522;2.15129;0.596743;
-7.50611;2.0158;6.88956;-1.02563;0.114922;-0.795205;4.97006;2.15221;0.596735;
-7.50921;2.01612;6.89131;-1.02576;0.114589;-0.796451;4.97488;2.15312;0.596729;
-7.5123;2.01644;6.89305;-1.02588;0.114255;-0.797692;4.97969;2.15402;0.596723;
-7.51538;2.01676;6.89478;-1.02601;0.11392;-0.798927;4.98449;2.15492;0.596717;
-7.51845;2.01708;6.8965;-1.02613;0.113585;-0.800156;4.98927;2.15582;0.596713;
-7.5215;2.01739;6.89822;-1.02626;0.113249;-0.80138;4.99404;2.15672;0.596709;
-7.52455;2.01771;6.89993;-1.02639;0.112913;-0.802597;4.9988;2.15761;0.596705;
-7.52758;2.01802;6.90162;-1.02651;0.112576;-0.803809;5.00355;2.1585;0.596703;
-7.5306;2.01834;6.90331;-1.02664;0.112239;-0.805016;5.00828;2.15938;0.596701;
-7.53362;2.01865;6.90499;-1.02676;0.111901;-0.806216;5.013;2.16027;0.5967;
-7.53662;2.01896;6.90667;-1.02689;0.111563;-0.807411;5.0177;2.16115;0.596699;
-7.53961;2.01927;6.90833;-1.02701;0.111224;-0.8086;5.0224;2.16202;0.5967;
-7.54259;2.01958;6.90999;-1.02714;0.110884;-0.809784;5.02708;2.1629;0.596701;
-7.54555;2.01989;6.91163;-1.02727;0.110544;-0.810962;5.03175;2.16377;0.596702;
-7.54851;2.0202;6.91327;-1.02739;0.110204;-0.812135;5.0364;2.16463;0.596704;
-7.55146;2.0205;6.9149;-1.02752;0.109863;-0.813302;5.04104;2.1655;0.596707;
-7.5544;2.02081;6.91653;-1.02764;0.109522;-0.814463;5.04568;2.16636;0.596711;
-7.55732;2.02111;6.91814;-1.02777;0.10918;-0.815619;5.05029;2.16721;0.596715;
-7.56024;2.02141;6.91975;-1.02789;0.108838;-0.81677;5.0549;2.16807;0.59672;
-7.56315;2.02171;6.92135;-1.02802;0.108495;-0.817915;5.05949;2.16892;0.596725;
-7.56604;2.02202;6.92294;-1.02815;0.108152;-0.819055;5.06407;2.16977;0.596731;
-7.56893;2.02231;6.92452;-1.02827;0.107808;-0.82019;5.06864;2.17061;0.596738;
-7.5718;2.02261;6.92609;-1.0284;0.107464;-0.821319;5.07319;2.17145;0.596745;
-7.57467;2.02291;6.92766;-1.02853;0.107119;-0.822443;5.07774;2.17229;0.596753;
-7.57752;2.02321;6.92922;-1.02865;0.106774;-0.823561;5.08227;2.17313;0.596762;
-7.58036;2.0235;6.93077;-1.02878;0.106429;-0.824674;5.08679;2.17396;0.596771;
-7.5832;2.02379;6.93231;-1.0289;0.106083;-0.825782;5.09129;2.17479;0.596781;
-7.58602;2.02409;6.93385;-1.02903;0.105737;-0.826885;5.09579;2.17561;0.596792;
-7.58884;2.02438;6.93538;-1.02916;0.10539;-0.827983;5.10027;2.17644;0.596803;
-7.59164;2.02467;6.9369;-1.02928;0.105043;-0.829075;5.10474;2.17726;0.596815;
-7.59443;2.02496;6.93841;-1.02941;0.104695;-0.830162;5.1092;2.17808;0.596827;
-7.59722;2.02525;6.93992;-1.02953;0.104347;-0.831244;5.11364;2.17889;0.59684;
-7.59999;2.02554;6.94142;-1.02966;0.103999;-0.832321;5.11808;2.1797;0.596854;
-7.60276;2.02582;6.94291;-1.02979;0.10365;-0.833393;5.1225;2.18051;0.596868;
-7.60551;2.02611;6.94439;-1.02991;0.103301;-0.83446;5.12691;2.18132;0.596882;
-7.60826;2.02639;6.94587;-1.03004;0.102951;-0.835522;5.13131;2.18212;0.596898;
-7.61099;2.02668;6.94734;-1.03017;0.102601;-0.836579;5.1357;2.18292;0.596914;
-7.61372;2.02696;6.9488;-1.03029;0.102251;-0.837631;5.14007;2.18372;0.59693;
-7.61644;2.02724;6.95025;-1.03042;0.1019;-0.838678;5.14443;2.18451;0.596947;
-7.61914;2.02752;6.9517;-1.03054;0.101549;-0.83972;5.14878;2.1853;0.596965;
-7.62184;2.0278;6.95314;-1.03067;0.101198;-0.840757;5.15312;2.18609;0.596983;
-7.62453;2.02808;6.95458;-1.0308;0.100846;-0.841789;5.15745;2.18688;0.597002;
-7.62721;2.02835;6.956;-1.03092;0.100494;-0.842816;5.16177;2.18766;0.597021;
-7.62988;2.02863;6.95742;-1.03105;0.100142;-0.843839;5.16607;2.18844;0.597041;
-7.63254;2.02891;6.95883;-1.03118;0.0997889;-0.844856;5.17036;2.18922;0.597062;
-7.63519;2.02918;6.96024;-1.0313;0.0994357;-0.845869;5.17465;2.18999;0.597083;
-7.63783;2.02945;6.96164;-1.03143;0.0990823;-0.846877;5.17891;2.19076;0.597104;
-7.64046;2.02973;6.96303;-1.03155;0.0987285;-0.847881;5.18317;2.19153;0.597126;
-7.64309;2.03;6.96442;-1.03168;0.0983743;-0.848879;5.18742;2.1923;0.597149;
-7.6457;2.03027;6.96579;-1.03181;0.0980199;-0.849873;5.19166;2.19306;0.597172;
-7.6483;2.03054;6.96717;-1.03193;0.0976652;-0.850862;5.19588;2.19382;0.597196;
-7.6509;2.03081;6.96853;-1.03206;0.0973101;-0.851847;5.20009;2.19458;0.59722;
-7.65349;2.03107;6.96989;-1.03218;0.0969548;-0.852826;5.20429;2.19533;0.597245;
-7.65606;2.03134;6.97124;-1.03231;0.0965991;-0.853802;5.20848;2.19608;0.59727;
-7.65863;2.0316;6.97259;-1.03244;0.0962431;-0.854772;5.21266;2.19683;0.597296;
-7.66119;2.03187;6.97393;-1.03256;0.0958869;-0.855738;5.21683;2.19758;0.597323;
-7.66375;2.03213;6.97526;-1.03269;0.0955304;-0.8567;5.22099;2.19832;0.597349;
-7.66629;2.0324;6.97658;-1.03281;0.0951736;-0.857657;5.22513;2.19906;0.597377;
-7.66882;2.03266;6.9779;-1.03294;0.0948165;-0.858609;5.22927;2.1998;0.597405;
-7.67135;2.03292;6.97922;-1.03306;0.0944591;-0.859557;5.23339;2.20054;0.597433;
-7.67386;2.03318;6.98052;-1.03319;0.0941015;-0.8605;5.2375;2.20127;0.597462;
-7.67637;2.03344;6.98182;-1.03332;0.0937436;-0.861439;5.2416;2.202;0.597492;
-7.67887;2.03369;6.98312;-1.03344;0.0933855;-0.862374;5.2457;2.20273;0.597521;
-7.68136;2.03395;6.9844;-1.03357;0.0930271;-0.863304;5.24977;2.20346;0.597552;
-7.68384;2.03421;6.98569;-1.03369;0.0926685;-0.86423;5.25384;2.20418;0.597583;
-7.68632;2.03446;6.98696;-1.03382;0.0923096;-0.865151;5.2579;2.2049;0.597614;
-7.68878;2.03472;6.98823;-1.03394;0.0919505;-0.866068;5.26195;2.20562;0.597646;
-7.69124;2.03497;6.98949;-1.03407;0.0915911;-0.866981;5.26598;2.20633;0.597678;
-7.69368;2.03522;6.99075;-1.03419;0.0912315;-0.867889;5.27001;2.20704;0.597711;
-7.69612;2.03547;6.992;-1.03432;0.0908717;-0.868793;5.27402;2.20775;0.597744;
-7.69856;2.03572;6.99325;-1.03444;0.0905116;-0.869693;5.27803;2.20846;0.597778;
-7.70098;2.03597;6.99449;-1.03457;0.0901514;-0.870588;5.28202;2.20917;0.597812;
-7.70339;2.03622;6.99572;-1.03469;0.0897909;-0.87148;5.286;2.20987;0.597847;
-7.7058;2.03647;6.99695;-1.03482;0.0894302;-0.872367;5.28998;2.21057;0.597882;
-7.7082;2.03672;6.99817;-1.03494;0.0890693;-0.87325;5.29394;2.21126;0.597918;
-7.71059;2.03696;6.99938;-1.03507;0.0887083;-0.874128;5.29789;2.21196;0.597954;
-7.71297;2.03721;7.00059;-1.03519;0.088347;-0.875003;5.30183;2.21265;0.597991;
-7.71534;2.03745;7.0018;-1.03532;0.0879855;-0.875873;5.30576;2.21334;0.598028;
-7.71771;2.03769;7.00299;-1.03544;0.0876238;-0.87674;5.30968;2.21403;0.598065;
-7.72007;2.03794;7.00419;-1.03556;0.087262;-0.877602;5.31359;2.21471;0.598103;
-7.72242;2.03818;7.00537;-1.03569;0.0869;-0.87846;5.31748;2.21539;0.598141;
-7.72476;2.03842;7.00655;-1.03581;0.0865378;-0.879314;5.32137;2.21607;0.59818;
-7.72709;2.03866;7.00773;-1.03594;0.0861754;-0.880164;5.32525;2.21675;0.598219;
-7.72942;2.0389;7.0089;-1.03606;0.0858129;-0.88101;5.32912;2.21743;0.598259;
-7.73174;2.03914;7.01006;-1.03619;0.0854502;-0.881852;5.33298;2.2181;0.598299;
-7.73405;2.03937;7.01122;-1.03631;0.0850873;-0.88269;5.33682;2.21877;0.598339;
-7.73635;2.03961;7.01237;-1.03643;0.0847243;-0.883524;5.34066;2.21944;0.59838;
-7.73865;2.03985;7.01352;-1.03656;0.0843611;-0.884354;5.34449;2.2201;0.598421;
-7.74093;2.04008;7.01466;-1.03668;0.0839978;-0.885181;5.3483;2.22076;0.598463;
-7.74321;2.04031;7.0158;-1.0368;0.0836343;-0.886003;5.35211;2.22142;0.598505;
-7.74548;2.04055;7.01693;-1.03693;0.0832708;-0.886821;5.3559;2.22208;0.598548;
-7.74775;2.04078;7.01806;-1.03705;0.082907;-0.887636;5.35969;2.22274;0.598591;
-7.75;2.04101;7.01918;-1.03717;0.0825432;-0.888447;5.36347;2.22339;0.598634;
-7.75225;2.04124;7.0203;-1.0373;0.0821792;-0.889253;5.36723;2.22404;0.598678;
-7.75449;2.04147;7.02141;-1.03742;0.0818151;-0.890056;5.37099;2.22469;0.598722;
-7.75673;2.0417;7.02251;-1.03754;0.0814508;-0.890856;5.37474;2.22534;0.598766;
-7.75895;2.04193;7.02361;-1.03767;0.0810865;-0.891651;5.37847;2.22598;0.598811;
-7.76117;2.04215;7.0247;-1.03779;0.0807221;-0.892443;5.3822;2.22662;0.598857;
-7.76339;2.04238;7.02579;-1.03791;0.0803575;-0.893231;5.38591;2.22726;0.598902;
-7.76559;2.0426;7.02688;-1.03803;0.0799928;-0.894015;5.38962;2.2279;0.598948;
-7.76779;2.04283;7.02796;-1.03816;0.0796281;-0.894795;5.39332;2.22854;0.598995;
-7.76998;2.04305;7.02903;-1.03828;0.0792632;-0.895572;5.39701;2.22917;0.599042;
-7.77216;2.04328;7.0301;-1.0384;0.0788983;-0.896345;5.40068;2.2298;0.599089;
-7.77433;2.0435;7.03116;-1.03852;0.0785332;-0.897115;5.40435;2.23043;0.599136;
-7.7765;2.04372;7.03222;-1.03864;0.0781681;-0.897881;5.40801;2.23105;0.599184;
-7.77866;2.04394;7.03328;-1.03877;0.0778029;-0.898643;5.41166;2.23168;0.599233;
-7.78081;2.04416;7.03433;-1.03889;0.0774376;-0.899401;5.4153;2.2323;0.599281;
-7.78296;2.04438;7.03537;-1.03901;0.0770723;-0.900156;5.41893;2.23292;0.59933;
-7.7851;2.0446;7.03641;-1.03913;0.0767068;-0.900908;5.42254;2.23353;0.59938;
-7.78723;2.04481;7.03744;-1.03925;0.0763414;-0.901656;5.42615;2.23415;0.59943;
-7.78936;2.04503;7.03847;-1.03937;0.0759758;-0.9024;5.42976;2.23476;0.59948;
-7.79147;2.04525;7.0395;-1.03949;0.0756102;-0.903141;5.43335;2.23537;0.59953;
-7.79358;2.04546;7.04052;-1.03961;0.0752445;-0.903878;5.43693;2.23598;0.599581;
-7.79569;2.04568;7.04153;-1.03974;0.0748788;-0.904612;5.4405;2.23659;0.599632;
-7.79778;2.04589;7.04254;-1.03986;0.0745131;-0.905342;5.44406;2.23719;0.599684;
-7.79987;2.0461;7.04355;-1.03998;0.0741472;-0.906069;5.44762;2.23779;0.599736;
-7.80196;2.04631;7.04455;-1.0401;0.0737814;-0.906793;5.45116;2.23839;0.599788;
-7.80403;2.04652;7.04555;-1.04022;0.0734155;-0.907513;5.45469;2.23899;0.59984;
-7.8061;2.04674;7.04654;-1.04034;0.0730496;-0.908229;5.45822;2.23958;0.599893;
-7.80816;2.04694;7.04752;-1.04046;0.0726836;-0.908942;5.46174;2.24018;0.599946;
-7.81022;2.04715;7.04851;-1.04058;0.0723177;-0.909652;5.46524;2.24077;0.6;
-7.81227;2.04736;7.04949;-1.0407;0.0719517;-0.910359;5.46874;2.24136;0.600054;
-7.81431;2.04757;7.05046;-1.04082;0.0715856;-0.911062;5.47223;2.24194;0.600108;
-7.81635;2.04778;7.05143;-1.04094;0.0712196;-0.911762;5.47571;2.24253;0.600162;
-7.81838;2.04798;7.05239;-1.04106;0.0708536;-0.912458;5.47918;2.24311;0.600217;
-7.8204;2.04819;7.05335;-1.04118;0.0704875;-0.913151;5.48264;2.24369;0.600272;
-7.82241;2.04839;7.05431;-1.0413;0.0701214;-0.913841;5.48609;2.24427;0.600328;
-7.82442;2.04859;7.05526;-1.04141;0.0697554;-0.914528;5.48953;2.24485;0.600383;
-7.82642;2.0488;7.0562;-1.04153;0.0693893;-0.915211;5.49297;2.24542;0.600439;
-7.82842;2.049;7.05715;-1.04165;0.0690232;-0.915891;5.49639;2.24599;0.600496;
-7.83041;2.0492;7.05808;-1.04177;0.0686572;-0.916568;5.49981;2.24656;0.600552;
-7.83239;2.0494;7.05902;-1.04189;0.0682911;-0.917242;5.50321;2.24713;0.600609;
-7.83437;2.0496;7.05995;-1.04201;0.0679251;-0.917912;5.50661;2.2477;0.600666;
-7.83634;2.0498;7.06087;-1.04213;0.0675591;-0.91858;5.51;2.24826;0.600724;
-7.8383;2.05;7.06179;-1.04224;0.0671931;-0.919244;5.51338;2.24883;0.600782;
-7.84026;2.0502;7.06271;-1.04236;0.0668271;-0.919905;5.51675;2.24939;0.60084;
-7.84221;2.05039;7.06362;-1.04248;0.0664612;-0.920563;5.52011;2.24994;0.600898;
-7.84415;2.05059;7.06453;-1.0426;0.0660953;-0.921217;5.52347;2.2505;0.600957;
-7.84609;2.05078;7.06543;-1.04271;0.0657294;-0.921869;5.52681;2.25106;0.601016;
-7.84802;2.05098;7.06633;-1.04283;0.0653635;-0.922518;5.53015;2.25161;0.601075;
-7.84995;2.05117;7.06723;-1.04295;0.0649977;-0.923163;5.53348;2.25216;0.601135;
-7.85187;2.05137;7.06812;-1.04307;0.0646319;-0.923806;5.5368;2.25271;0.601194;
-7.85378;2.05156;7.06901;-1.04318;0.0642662;-0.924445;5.54011;2.25325;0.601255;
-7.85569;2.05175;7.06989;-1.0433;0.0639005;-0.925081;5.54341;2.2538;0.601315;
-7.85759;2.05194;7.07077;-1.04342;0.0635349;-0.925715;5.5467;2.25434;0.601375;
-7.85948;2.05213;7.07164;-1.04353;0.0631693;-0.926345;5.54998;2.25488;0.601436;
-7.86137;2.05232;7.07251;-1.04365;0.0628038;-0.926972;5.55326;2.25542;0.601497;
-7.86325;2.05251;7.07338;-1.04377;0.0624384;-0.927597;5.55653;2.25596;0.601559;
-7.86513;2.0527;7.07424;-1.04388;0.062073;-0.928218;5.55978;2.25649;0.601621;
-7.867;2.05289;7.0751;-1.044;0.0617077;-0.928837;5.56303;2.25703;0.601682;
-7.86886;2.05308;7.07596;-1.04411;0.0613424;-0.929452;5.56628;2.25756;0.601745;
-7.87072;2.05326;7.07681;-1.04423;0.0609772;-0.930065;5.56951;2.25809;0.601807;
-7.87257;2.05345;7.07766;-1.04434;0.0606121;-0.930675;5.57273;2.25861;0.60187;
-7.87442;2.05363;7.0785;-1.04446;0.0602471;-0.931281;5.57595;2.25914;0.601933;
-7.87626;2.05382;7.07934;-1.04457;0.0598821;-0.931885;5.57916;2.25966;0.601996;
-7.87809;2.054;7.08018;-1.04469;0.0595173;-0.932486;5.58236;2.26019;0.602059;
-7.87992;2.05419;7.08101;-1.0448;0.0591525;-0.933085;5.58555;2.26071;0.602123;
-7.88174;2.05437;7.08184;-1.04492;0.0587878;-0.93368;5.58873;2.26122;0.602187;
-7.88356;2.05455;7.08266;-1.04503;0.0584232;-0.934273;5.5919;2.26174;0.602251;
-7.88537;2.05473;7.08348;-1.04515;0.0580587;-0.934862;5.59507;2.26226;0.602315;
-7.88717;2.05491;7.0843;-1.04526;0.0576943;-0.935449;5.59823;2.26277;0.60238;
-7.88897;2.05509;7.08511;-1.04538;0.05733;-0.936034;5.60138;2.26328;0.602444;
-7.89077;2.05527;7.08592;-1.04549;0.0569658;-0.936615;5.60452;2.26379;0.60251;
-7.89255;2.05545;7.08673;-1.0456;0.0566017;-0.937194;5.60765;2.2643;0.602575;
-7.89434;2.05563;7.08753;-1.04572;0.0562377;-0.937769;5.61078;2.2648;0.60264;
-7.89611;2.0558;7.08833;-1.04583;0.0558739;-0.938343;5.61389;2.26531;0.602706;
-7.89788;2.05598;7.08912;-1.04594;0.0555101;-0.938913;5.617;2.26581;0.602772;
-7.89965;2.05616;7.08991;-1.04606;0.0551465;-0.939481;5.6201;2.26631;0.602838;
-7.90141;2.05633;7.0907;-1.04617;0.0547829;-0.940046;5.6232;2.26681;0.602904;
-7.90316;2.05651;7.09148;-1.04628;0.0544195;-0.940608;5.62628;2.2673;0.602971;
-7.90491;2.05668;7.09226;-1.04639;0.0540563;-0.941168;5.62936;2.2678;0.603038;
-7.90665;2.05685;7.09304;-1.04651;0.0536931;-0.941725;5.63243;2.26829;0.603105;
-7.90839;2.05703;7.09381;-1.04662;0.0533301;-0.942279;5.63549;2.26878;0.603172;
-7.91012;2.0572;7.09458;-1.04673;0.0529672;-0.942831;5.63854;2.26927;0.603239;
-7.91184;2.05737;7.09535;-1.04684;0.0526044;-0.94338;5.64159;2.26976;0.603307;
-7.91356;2.05754;7.09611;-1.04695;0.0522418;-0.943927;5.64462;2.27025;0.603375;
-7.91528;2.05771;7.09687;-1.04707;0.0518793;-0.944471;5.64765;2.27073;0.603443;
-7.91699;2.05788;7.09763;-1.04718;0.051517;-0.945012;5.65067;2.27122;0.603511;
-7.91869;2.05805;7.09838;-1.04729;0.0511548;-0.945551;5.65369;2.2717;0.603579;
-7.92039;2.05822;7.09913;-1.0474;0.0507928;-0.946087;5.65669;2.27218;0.603648;
-7.92209;2.05839;7.09988;-1.04751;0.0504309;-0.946621;5.65969;2.27266;0.603717;
-7.92377;2.05855;7.10062;-1.04762;0.0500692;-0.947152;5.66268;2.27313;0.603786;
-7.92546;2.05872;7.10136;-1.04773;0.0497076;-0.947681;5.66566;2.27361;0.603855;
-7.92713;2.05889;7.1021;-1.04784;0.0493462;-0.948207;5.66864;2.27408;0.603924;
-7.9288;2.05905;7.10283;-1.04795;0.0489849;-0.94873;5.6716;2.27455;0.603994;
-7.93047;2.05922;7.10356;-1.04806;0.0486238;-0.949252;5.67456;2.27502;0.604064;
-7.93213;2.05938;7.10428;-1.04817;0.0482628;-0.94977;5.67751;2.27549;0.604133;
-7.93379;2.05954;7.10501;-1.04828;0.0479021;-0.950286;5.68046;2.27595;0.604204;
-7.93544;2.05971;7.10573;-1.04839;0.0475415;-0.9508;5.68339;2.27642;0.604274;
-7.93709;2.05987;7.10644;-1.0485;0.047181;-0.951311;5.68632;2.27688;0.604344;
-7.93873;2.06003;7.10716;-1.04861;0.0468208;-0.95182;5.68924;2.27734;0.604415;
-7.94036;2.06019;7.10787;-1.04872;0.0464607;-0.952327;5.69216;2.2778;0.604486;
-7.94199;2.06035;7.10857;-1.04883;0.0461008;-0.952831;5.69506;2.27826;0.604557;
-7.94362;2.06051;7.10928;-1.04893;0.0457411;-0.953333;5.69796;2.27872;0.604628;
-7.94524;2.06067;7.10998;-1.04904;0.0453815;-0.953832;5.70085;2.27917;0.604699;
-7.94685;2.06083;7.11067;-1.04915;0.0450222;-0.954329;5.70374;2.27963;0.60477;
-7.94846;2.06099;7.11137;-1.04926;0.044663;-0.954823;5.70661;2.28008;0.604842;
-7.95007;2.06115;7.11206;-1.04937;0.044304;-0.955316;5.70948;2.28053;0.604914;
-7.95167;2.0613;7.11275;-1.04947;0.0439453;-0.955805;5.71234;2.28098;0.604986;
-7.95326;2.06146;7.11343;-1.04958;0.0435867;-0.956293;5.7152;2.28143;0.605058;
-7.95485;2.06162;7.11411;-1.04969;0.0432283;-0.956778;5.71804;2.28187;0.60513;
-7.95644;2.06177;7.11479;-1.0498;0.0428701;-0.957261;5.72088;2.28232;0.605202;
-7.95802;2.06193;7.11547;-1.0499;0.0425121;-0.957742;5.72371;2.28276;0.605275;
-7.95959;2.06208;7.11614;-1.05001;0.0421543;-0.95822;5.72654;2.2832;0.605348;
-7.96116;2.06223;7.11681;-1.05012;0.0417967;-0.958696;5.72935;2.28364;0.60542;
-7.96273;2.06239;7.11748;-1.05022;0.0414393;-0.95917;5.73216;2.28408;0.605493;
-7.96429;2.06254;7.11814;-1.05033;0.0410821;-0.959641;5.73497;2.28451;0.605567;
-7.96584;2.06269;7.1188;-1.05043;0.0407252;-0.960111;5.73776;2.28495;0.60564;
-7.96739;2.06284;7.11946;-1.05054;0.0403684;-0.960578;5.74055;2.28538;0.605713;
-7.96894;2.06299;7.12011;-1.05065;0.0400119;-0.961043;5.74333;2.28581;0.605787;
-7.97048;2.06315;7.12077;-1.05075;0.0396556;-0.961505;5.74611;2.28625;0.60586;
-7.97202;2.0633;7.12141;-1.05086;0.0392995;-0.961966;5.74887;2.28667;0.605934;
-7.97355;2.06344;7.12206;-1.05096;0.0389436;-0.962424;5.75163;2.2871;0.606008;
-7.97507;2.06359;7.1227;-1.05107;0.0385879;-0.96288;5.75438;2.28753;0.606082;
-7.9766;2.06374;7.12334;-1.05117;0.0382325;-0.963334;5.75713;2.28795;0.606157;
-7.97811;2.06389;7.12398;-1.05128;0.0378773;-0.963786;5.75987;2.28838;0.606231;
-7.97962;2.06404;7.12462;-1.05138;0.0375223;-0.964235;5.7626;2.2888;0.606305;
-7.98113;2.06418;7.12525;-1.05149;0.0371676;-0.964683;5.76532;2.28922;0.60638;
-7.98264;2.06433;7.12588;-1.05159;0.0368131;-0.965128;5.76804;2.28964;0.606455;
-7.98413;2.06447;7.1265;-1.05169;0.0364588;-0.965571;5.77075;2.29005;0.60653;
-7.98563;2.06462;7.12713;-1.0518;0.0361048;-0.966013;5.77346;2.29047;0.606605;
-7.98712;2.06476;7.12775;-1.0519;0.035751;-0.966452;5.77615;2.29088;0.60668;
-7.9886;2.06491;7.12837;-1.052;0.0353974;-0.966888;5.77884;2.2913;0.606755;
-7.99008;2.06505;7.12898;-1.05211;0.0350441;-0.967323;5.78152;2.29171;0.60683;
-7.99156;2.06519;7.1296;-1.05221;0.034691;-0.967756;5.7842;2.29212;0.606906;
-7.99303;2.06534;7.13021;-1.05231;0.0343382;-0.968187;5.78687;2.29253;0.606981;
-7.99449;2.06548;7.13081;-1.05242;0.0339856;-0.968615;5.78953;2.29293;0.607057;
-7.99596;2.06562;7.13142;-1.05252;0.0336333;-0.969042;5.79219;2.29334;0.607133;
-7.99741;2.06576;7.13202;-1.05262;0.0332812;-0.969467;5.79483;2.29374;0.607208;
-7.99887;2.0659;7.13262;-1.05272;0.0329294;-0.969889;5.79748;2.29415;0.607284;
-8.00031;2.06604;7.13322;-1.05282;0.0325778;-0.97031;5.80011;2.29455;0.607361;
-8.00176;2.06618;7.13381;-1.05293;0.0322265;-0.970728;5.80274;2.29495;0.607437;
-8.0032;2.06632;7.1344;-1.05303;0.0318755;-0.971145;5.80536;2.29535;0.607513;
-8.00463;2.06646;7.13499;-1.05313;0.0315247;-0.97156;5.80797;2.29574;0.60759;
-8.00606;2.0666;7.13558;-1.05323;0.0311742;-0.971972;5.81058;2.29614;0.607666;
-8.00749;2.06673;7.13616;-1.05333;0.0308239;-0.972383;5.81318;2.29654;0.607743;
-8.00891;2.06687;7.13674;-1.05343;0.0304739;-0.972792;5.81578;2.29693;0.607819;
-8.01033;2.06701;7.13732;-1.05353;0.0301241;-0.973198;5.81837;2.29732;0.607896;
-8.01174;2.06714;7.13789;-1.05363;0.0297747;-0.973603;5.82095;2.29771;0.607973;
-8.01315;2.06728;7.13847;-1.05373;0.0294255;-0.974006;5.82352;2.2981;0.60805;
-8.01455;2.06741;7.13904;-1.05383;0.0290766;-0.974407;5.82609;2.29849;0.608127;
-8.01595;2.06755;7.13961;-1.05393;0.0287279;-0.974806;5.82865;2.29888;0.608204;
-8.01735;2.06768;7.14017;-1.05403;0.0283795;-0.975203;5.83121;2.29926;0.608282;
-8.01874;2.06781;7.14074;-1.05413;0.0280314;-0.975599;5.83375;2.29964;0.608359;
-8.02013;2.06795;7.1413;-1.05423;0.0276836;-0.975992;5.8363;2.30003;0.608436;
-8.02151;2.06808;7.14186;-1.05433;0.0273361;-0.976383;5.83883;2.30041;0.608514;
-8.02289;2.06821;7.14241;-1.05443;0.0269888;-0.976773;5.84136;2.30079;0.608592;
-8.02427;2.06834;7.14297;-1.05453;0.0266418;-0.977161;5.84388;2.30117;0.608669;
-8.02564;2.06847;7.14352;-1.05463;0.0262951;-0.977547;5.8464;2.30155;0.608747;
-8.027;2.06861;7.14407;-1.05472;0.0259487;-0.977931;5.84891;2.30192;0.608825;
-8.02836;2.06874;7.14461;-1.05482;0.0256026;-0.978313;5.85141;2.3023;0.608903;
-8.02972;2.06886;7.14516;-1.05492;0.0252568;-0.978694;5.85391;2.30267;0.608981;
-8.03108;2.06899;7.1457;-1.05502;0.0249112;-0.979072;5.8564;2.30304;0.609059;
-8.03243;2.06912;7.14624;-1.05511;0.024566;-0.979449;5.85888;2.30341;0.609137;
-8.03377;2.06925;7.14677;-1.05521;0.024221;-0.979824;5.86136;2.30378;0.609215;
-8.03511;2.06938;7.14731;-1.05531;0.0238764;-0.980198;5.86383;2.30415;0.609294;
-8.03645;2.06951;7.14784;-1.05541;0.023532;-0.980569;5.8663;2.30452;0.609372;
-8.03778;2.06963;7.14837;-1.0555;0.0231879;-0.980939;5.86876;2.30488;0.609451;
-8.03911;2.06976;7.1489;-1.0556;0.0228442;-0.981307;5.87121;2.30525;0.609529;
-8.04044;2.06988;7.14942;-1.0557;0.0225007;-0.981673;5.87365;2.30561;0.609608;
-8.04176;2.07001;7.14995;-1.05579;0.0221575;-0.982037;5.87609;2.30598;0.609686;
-8.04308;2.07014;7.15047;-1.05589;0.0218147;-0.9824;5.87853;2.30634;0.609765;
-8.04439;2.07026;7.15099;-1.05598;0.0214721;-0.982761;5.88096;2.3067;0.609844;
-8.0457;2.07038;7.1515;-1.05608;0.0211299;-0.98312;5.88338;2.30705;0.609923;
-8.04701;2.07051;7.15202;-1.05618;0.0207879;-0.983478;5.88579;2.30741;0.610002;
-8.04831;2.07063;7.15253;-1.05627;0.0204463;-0.983834;5.8882;2.30777;0.610081;
-8.0496;2.07075;7.15304;-1.05637;0.020105;-0.984188;5.8906;2.30812;0.61016;
-8.0509;2.07088;7.15354;-1.05646;0.0197639;-0.98454;5.893;2.30848;0.610239;
-8.05219;2.071;7.15405;-1.05656;0.0194232;-0.984891;5.89539;2.30883;0.610318;
-8.05347;2.07112;7.15455;-1.05665;0.0190829;-0.98524;5.89778;2.30918;0.610397;
-8.05476;2.07124;7.15505;-1.05674;0.0187428;-0.985588;5.90015;2.30953;0.610476;
-8.05603;2.07136;7.15555;-1.05684;0.018403;-0.985933;5.90253;2.30988;0.610556;
-8.05731;2.07148;7.15605;-1.05693;0.0180636;-0.986278;5.90489;2.31023;0.610635;
-8.05858;2.0716;7.15654;-1.05703;0.0177245;-0.98662;5.90725;2.31057;0.610714;
-8.05984;2.07172;7.15703;-1.05712;0.0173857;-0.986961;5.90961;2.31092;0.610794;
-8.06111;2.07184;7.15752;-1.05721;0.0170472;-0.9873;5.91196;2.31126;0.610873;
-8.06237;2.07196;7.15801;-1.05731;0.0167091;-0.987638;5.9143;2.31161;0.610953;
-8.06362;2.07207;7.1585;-1.0574;0.0163712;-0.987974;5.91664;2.31195;0.611032;
-8.06487;2.07219;7.15898;-1.05749;0.0160337;-0.988308;5.91897;2.31229;0.611112;
-8.06612;2.07231;7.15946;-1.05759;0.0156966;-0.988641;5.92129;2.31263;0.611192;
-8.06736;2.07243;7.15994;-1.05768;0.0153597;-0.988972;5.92361;2.31297;0.611271;
-8.0686;2.07254;7.16042;-1.05777;0.0150232;-0.989302;5.92592;2.3133;0.611351;
-8.06984;2.07266;7.1609;-1.05786;0.014687;-0.98963;5.92823;2.31364;0.611431;
-8.07107;2.07277;7.16137;-1.05795;0.0143511;-0.989956;5.93053;2.31397;0.611511;
-8.0723;2.07289;7.16184;-1.05805;0.0140156;-0.990281;5.93283;2.31431;0.611591;
-8.07353;2.073;7.16231;-1.05814;0.0136804;-0.990605;5.93511;2.31464;0.611671;
-8.07475;2.07312;7.16278;-1.05823;0.0133456;-0.990927;5.9374;2.31497;0.611751;
-8.07597;2.07323;7.16324;-1.05832;0.013011;-0.991247;5.93968;2.3153;0.611831;
-8.07718;2.07334;7.16371;-1.05841;0.0126769;-0.991566;5.94195;2.31563;0.611911;
-8.07839;2.07346;7.16417;-1.0585;0.012343;-0.991883;5.94421;2.31596;0.611991;
-8.0796;2.07357;7.16463;-1.05859;0.0120095;-0.992199;5.94648;2.31629;0.612071;
-8.0808;2.07368;7.16508;-1.05868;0.0116763;-0.992513;5.94873;2.31661;0.612151;
-8.082;2.07379;7.16554;-1.05877;0.0113435;-0.992826;5.95098;2.31694;0.612231;
-8.0832;2.07391;7.16599;-1.05886;0.011011;-0.993137;5.95322;2.31726;0.612311;
-8.08439;2.07402;7.16644;-1.05895;0.0106789;-0.993447;5.95546;2.31758;0.612391;
-8.08558;2.07413;7.16689;-1.05904;0.0103471;-0.993755;5.95769;2.31791;0.612472;
-8.08677;2.07424;7.16734;-1.05913;0.0100156;-0.994062;5.95992;2.31823;0.612552;
-8.08795;2.07435;7.16779;-1.05922;0.00968453;-0.994367;5.96214;2.31855;0.612632;
-8.08913;2.07446;7.16823;-1.05931;0.00935377;-0.994671;5.96435;2.31886;0.612713;
-8.0903;2.07456;7.16867;-1.0594;0.00902336;-0.994973;5.96656;2.31918;0.612793;
-8.09147;2.07467;7.16911;-1.05949;0.00869329;-0.995274;5.96877;2.3195;0.612873;
-8.09264;2.07478;7.16955;-1.05958;0.00836358;-0.995574;5.97097;2.31981;0.612954;
-8.09381;2.07489;7.16998;-1.05967;0.00803422;-0.995872;5.97316;2.32013;0.613034;
-8.09497;2.075;7.17042;-1.05976;0.00770522;-0.996168;5.97535;2.32044;0.613114;
-8.09613;2.0751;7.17085;-1.05984;0.00737656;-0.996464;5.97753;2.32075;0.613195;
-8.09728;2.07521;7.17128;-1.05993;0.00704826;-0.996758;5.9797;2.32106;0.613275;
-8.09843;2.07532;7.17171;-1.06002;0.00672031;-0.99705;5.98187;2.32137;0.613356;
-8.09958;2.07542;7.17214;-1.06011;0.00639272;-0.997341;5.98404;2.32168;0.613436;
-8.10072;2.07553;7.17256;-1.06019;0.00606549;-0.997631;5.9862;2.32199;0.613517;
-8.10186;2.07563;7.17299;-1.06028;0.00573862;-0.997919;5.98835;2.3223;0.613597;
-8.103;2.07574;7.17341;-1.06037;0.0054121;-0.998206;5.9905;2.3226;0.613678;
-8.10414;2.07584;7.17383;-1.06045;0.00508594;-0.998491;5.99264;2.32291;0.613758;
-8.10527;2.07595;7.17424;-1.06054;0.00476014;-0.998775;5.99478;2.32321;0.613839;
-8.10639;2.07605;7.17466;-1.06063;0.00443471;-0.999058;5.99692;2.32351;0.613919;
-8.10752;2.07615;7.17507;-1.06071;0.00410963;-0.99934;5.99904;2.32381;0.614;
-8.10864;2.07626;7.17549;-1.0608;0.00378492;-0.99962;6.00116;2.32411;0.61408;
-8.10975;2.07636;7.1759;-1.06089;0.00346058;-0.999899;6.00328;2.32441;0.614161;
-8.11087;2.07646;7.17631;-1.06097;0.00313659;-1.00018;6.00539;2.32471;0.614242;
-8.11198;2.07656;7.17671;-1.06106;0.00281298;-1.00045;6.0075;2.32501;0.614322;
-8.11309;2.07666;7.17712;-1.06114;0.00248972;-1.00073;6.0096;2.32531;0.614403;
-8.11419;2.07676;7.17752;-1.06123;0.00216684;-1.001;6.01169;2.3256;0.614483;
-8.11529;2.07687;7.17793;-1.06131;0.00184432;-1.00127;6.01378;2.3259;0.614564;
-8.11639;2.07697;7.17833;-1.0614;0.00152218;-1.00154;6.01587;2.32619;0.614645;
-8.11748;2.07707;7.17872;-1.06148;0.0012004;-1.00181;6.01795;2.32648;0.614725;
-8.11858;2.07716;7.17912;-1.06157;0.00087899;-1.00208;6.02002;2.32678;0.614806;
-8.11966;2.07726;7.17952;-1.06165;0.000557953;-1.00235;6.02209;2.32707;0.614886;
-8.12075;2.07736;7.17991;-1.06173;0.000237287;-1.00261;6.02415;2.32736;0.614967;
-8.12183;2.07746;7.1803;-1.06182;-8.30058e-005;-1.00288;6.02621;2.32764;0.615048;
-8.12291;2.07756;7.18069;-1.0619;-0.000402926;-1.00314;6.02826;2.32793;0.615128;
-8.12398;2.07766;7.18108;-1.06199;-0.000722472;-1.0034;6.03031;2.32822;0.615209;
-8.12506;2.07775;7.18147;-1.06207;-0.00104164;-1.00366;6.03235;2.3285;0.615289;
-8.12612;2.07785;7.18185;-1.06215;-0.00136044;-1.00392;6.03439;2.32879;0.61537;
-8.12719;2.07795;7.18224;-1.06224;-0.00167886;-1.00418;6.03643;2.32907;0.61545;
-8.12825;2.07804;7.18262;-1.06232;-0.0019969;-1.00444;6.03845;2.32936;0.615531;
-8.12931;2.07814;7.183;-1.0624;-0.00231457;-1.00469;6.04047;2.32964;0.615612;
-8.13037;2.07824;7.18338;-1.06248;-0.00263186;-1.00495;6.04249;2.32992;0.615692;
-8.13142;2.07833;7.18375;-1.06257;-0.00294877;-1.0052;6.0445;2.3302;0.615773;
-8.13247;2.07843;7.18413;-1.06265;-0.0032653;-1.00545;6.04651;2.33048;0.615853;
-8.13352;2.07852;7.1845;-1.06273;-0.00358145;-1.0057;6.04851;2.33076;0.615934;
-8.13456;2.07862;7.18488;-1.06281;-0.00389722;-1.00595;6.05051;2.33104;0.616014;
-8.13561;2.07871;7.18525;-1.06289;-0.0042126;-1.0062;6.0525;2.33131;0.616095;
-8.13664;2.0788;7.18562;-1.06297;-0.00452761;-1.00645;6.05449;2.33159;0.616175;
-8.13768;2.0789;7.18598;-1.06306;-0.00484223;-1.0067;6.05647;2.33186;0.616256;
-8.13871;2.07899;7.18635;-1.06314;-0.00515647;-1.00694;6.05845;2.33214;0.616336;
-8.13974;2.07908;7.18672;-1.06322;-0.00547033;-1.00718;6.06042;2.33241;0.616416;
-8.14077;2.07918;7.18708;-1.0633;-0.0057838;-1.00743;6.06239;2.33268;0.616497;
-8.14179;2.07927;7.18744;-1.06338;-0.00609689;-1.00767;6.06435;2.33295;0.616577;
-8.14281;2.07936;7.1878;-1.06346;-0.00640959;-1.00791;6.06631;2.33322;0.616658;
-8.14383;2.07945;7.18816;-1.06354;-0.0067219;-1.00815;6.06826;2.33349;0.616738;
-8.14484;2.07954;7.18852;-1.06362;-0.00703383;-1.00838;6.07021;2.33376;0.616818;
-8.14585;2.07963;7.18887;-1.0637;-0.00734537;-1.00862;6.07215;2.33403;0.616899;
-8.14686;2.07972;7.18923;-1.06378;-0.00765652;-1.00886;6.07409;2.33429;0.616979;
-8.14786;2.07981;7.18958;-1.06386;-0.00796729;-1.00909;6.07602;2.33456;0.617059;
-8.14887;2.0799;7.18993;-1.06394;-0.00827766;-1.00932;6.07795;2.33482;0.617139;
-8.14987;2.07999;7.19028;-1.06402;-0.00858765;-1.00956;6.07987;2.33509;0.61722;
-8.15086;2.08008;7.19063;-1.06409;-0.00889724;-1.00979;6.08179;2.33535;0.6173;
-8.15186;2.08017;7.19097;-1.06417;-0.00920645;-1.01002;6.0837;2.33561;0.61738;
-8.15285;2.08026;7.19132;-1.06425;-0.00951526;-1.01025;6.08561;2.33587;0.61746;
-8.15383;2.08035;7.19166;-1.06433;-0.00982368;-1.01047;6.08751;2.33613;0.61754;
-8.15482;2.08043;7.192;-1.06441;-0.0101317;-1.0107;6.08941;2.33639;0.617621;
-8.1558;2.08052;7.19234;-1.06449;-0.0104393;-1.01093;6.09131;2.33665;0.617701;
-8.15678;2.08061;7.19268;-1.06456;-0.0107466;-1.01115;6.0932;2.33691;0.617781;
-8.15776;2.0807;7.19302;-1.06464;-0.0110534;-1.01138;6.09508;2.33717;0.617861;
-8.15873;2.08078;7.19336;-1.06472;-0.0113599;-1.0116;6.09696;2.33742;0.617941;
-8.1597;2.08087;7.19369;-1.0648;-0.011666;-1.01182;6.09884;2.33768;0.618021;
-8.16067;2.08095;7.19403;-1.06487;-0.0119716;-1.01204;6.10071;2.33793;0.618101;
-8.16164;2.08104;7.19436;-1.06495;-0.0122769;-1.01226;6.10257;2.33819;0.618181;
-8.1626;2.08113;7.19469;-1.06503;-0.0125818;-1.01248;6.10443;2.33844;0.61826;
-8.16356;2.08121;7.19502;-1.0651;-0.0128863;-1.01269;6.10629;2.33869;0.61834;
-8.16451;2.08129;7.19535;-1.06518;-0.0131903;-1.01291;6.10814;2.33894;0.61842;
-8.16547;2.08138;7.19568;-1.06526;-0.013494;-1.01312;6.10999;2.33919;0.6185;
-8.16642;2.08146;7.196;-1.06533;-0.0137973;-1.01334;6.11183;2.33944;0.61858;
-8.16737;2.08155;7.19632;-1.06541;-0.0141002;-1.01355;6.11367;2.33969;0.618659;
-8.16831;2.08163;7.19665;-1.06549;-0.0144027;-1.01376;6.1155;2.33994;0.618739;
-8.16926;2.08171;7.19697;-1.06556;-0.0147048;-1.01397;6.11733;2.34019;0.618819;
-8.1702;2.0818;7.19729;-1.06564;-0.0150065;-1.01418;6.11916;2.34043;0.618898;
-8.17114;2.08188;7.19761;-1.06571;-0.0153078;-1.01439;6.12098;2.34068;0.618978;
-8.17207;2.08196;7.19792;-1.06579;-0.0156087;-1.0146;6.12279;2.34092;0.619057;
-8.173;2.08204;7.19824;-1.06586;-0.0159092;-1.01481;6.1246;2.34117;0.619137;
-8.17393;2.08213;7.19856;-1.06594;-0.0162092;-1.01501;6.12641;2.34141;0.619216;
-8.17486;2.08221;7.19887;-1.06601;-0.0165089;-1.01522;6.12821;2.34165;0.619296;
-8.17578;2.08229;7.19918;-1.06609;-0.0168082;-1.01542;6.13001;2.34189;0.619375;
-8.17671;2.08237;7.19949;-1.06616;-0.0171071;-1.01562;6.1318;2.34213;0.619455;
-8.17762;2.08245;7.1998;-1.06623;-0.0174056;-1.01583;6.13359;2.34237;0.619534;
-8.17854;2.08253;7.20011;-1.06631;-0.0177037;-1.01603;6.13537;2.34261;0.619613;
-8.17945;2.08261;7.20042;-1.06638;-0.0180014;-1.01623;6.13715;2.34285;0.619692;
-8.18037;2.08269;7.20072;-1.06645;-0.0182986;-1.01643;6.13892;2.34309;0.619772;
-8.18127;2.08277;7.20103;-1.06653;-0.0185955;-1.01662;6.14069;2.34332;0.619851;
-8.18218;2.08285;7.20133;-1.0666;-0.018892;-1.01682;6.14246;2.34356;0.61993;
-8.18308;2.08293;7.20163;-1.06667;-0.019188;-1.01702;6.14422;2.3438;0.620009;
-8.18398;2.08301;7.20193;-1.06675;-0.0194837;-1.01721;6.14598;2.34403;0.620088;
-8.18488;2.08308;7.20223;-1.06682;-0.019779;-1.01741;6.14773;2.34426;0.620167;
-8.18578;2.08316;7.20253;-1.06689;-0.0200738;-1.0176;6.14948;2.3445;0.620246;
-8.18667;2.08324;7.20283;-1.06697;-0.0203683;-1.01779;6.15122;2.34473;0.620325;
-8.18756;2.08332;7.20312;-1.06704;-0.0206623;-1.01798;6.15296;2.34496;0.620403;
-8.18845;2.0834;7.20342;-1.06711;-0.0209559;-1.01817;6.1547;2.34519;0.620482;
-8.18933;2.08347;7.20371;-1.06718;-0.0212492;-1.01836;6.15643;2.34542;0.620561;
-8.19022;2.08355;7.204;-1.06725;-0.021542;-1.01855;6.15816;2.34565;0.62064;
-8.1911;2.08363;7.20429;-1.06733;-0.0218344;-1.01874;6.15988;2.34588;0.620718;
-8.19198;2.0837;7.20458;-1.0674;-0.0221264;-1.01893;6.1616;2.34611;0.620797;
-8.19285;2.08378;7.20487;-1.06747;-0.022418;-1.01911;6.16331;2.34633;0.620875;
-8.19372;2.08385;7.20516;-1.06754;-0.0227092;-1.0193;6.16502;2.34656;0.620954;
-8.19459;2.08393;7.20544;-1.06761;-0.023;-1.01948;6.16672;2.34678;0.621032;
-8.19546;2.084;7.20573;-1.06768;-0.0232904;-1.01967;6.16842;2.34701;0.621111;
-8.19633;2.08408;7.20601;-1.06775;-0.0235803;-1.01985;6.17012;2.34723;0.621189;
-8.19719;2.08415;7.20629;-1.06782;-0.0238699;-1.02003;6.17181;2.34746;0.621267;
-8.19805;2.08423;7.20658;-1.06789;-0.024159;-1.02021;6.1735;2.34768;0.621346;
-8.19891;2.0843;7.20686;-1.06796;-0.0244478;-1.02039;6.17518;2.3479;0.621424;
-8.19976;2.08437;7.20713;-1.06803;-0.0247361;-1.02057;6.17686;2.34812;0.621502;
-8.20062;2.08445;7.20741;-1.0681;-0.0250241;-1.02075;6.17854;2.34834;0.62158;
-8.20147;2.08452;7.20769;-1.06817;-0.0253116;-1.02092;6.18021;2.34856;0.621658;
-8.20232;2.08459;7.20796;-1.06824;-0.0255987;-1.0211;6.18188;2.34878;0.621736;
-8.20316;2.08467;7.20824;-1.06831;-0.0258854;-1.02128;6.18354;2.349;0.621814;
-8.204;2.08474;7.20851;-1.06838;-0.0261717;-1.02145;6.1852;2.34921;0.621892;
-8.20485;2.08481;7.20878;-1.06845;-0.0264575;-1.02162;6.18686;2.34943;0.621969;
-8.20568;2.08488;7.20905;-1.06852;-0.026743;-1.0218;6.18851;2.34965;0.622047;
-8.20652;2.08496;7.20932;-1.06859;-0.0270281;-1.02197;6.19015;2.34986;0.622125;
-8.20735;2.08503;7.20959;-1.06865;-0.0273127;-1.02214;6.19179;2.35008;0.622203;
-8.20819;2.0851;7.20986;-1.06872;-0.027597;-1.02231;6.19343;2.35029;0.62228;
-8.20902;2.08517;7.21013;-1.06879;-0.0278808;-1.02248;6.19507;2.3505;0.622358;
-8.20984;2.08524;7.21039;-1.06886;-0.0281642;-1.02265;6.1967;2.35072;0.622435;
-8.21067;2.08531;7.21066;-1.06893;-0.0284472;-1.02282;6.19832;2.35093;0.622512;
-8.21149;2.08538;7.21092;-1.06899;-0.0287298;-1.02299;6.19995;2.35114;0.62259;
-8.21231;2.08545;7.21118;-1.06906;-0.029012;-1.02315;6.20156;2.35135;0.622667;
-8.21313;2.08552;7.21144;-1.06913;-0.0292937;-1.02332;6.20318;2.35156;0.622744;
-8.21394;2.08559;7.2117;-1.0692;-0.0295751;-1.02348;6.20479;2.35177;0.622822;
-8.21475;2.08566;7.21196;-1.06926;-0.029856;-1.02365;6.20639;2.35198;0.622899;
-8.21556;2.08573;7.21222;-1.06933;-0.0301366;-1.02381;6.208;2.35219;0.622976;
-8.21637;2.0858;7.21248;-1.0694;-0.0304167;-1.02397;6.20959;2.35239;0.623053;
-8.21718;2.08586;7.21273;-1.06946;-0.0306964;-1.02413;6.21119;2.3526;0.62313;
-8.21798;2.08593;7.21299;-1.06953;-0.0309757;-1.02429;6.21278;2.35281;0.623206;
-8.21878;2.086;7.21324;-1.0696;-0.0312546;-1.02445;6.21436;2.35301;0.623283;
-8.21958;2.08607;7.21349;-1.06966;-0.0315331;-1.02461;6.21595;2.35321;0.62336;
-8.22038;2.08614;7.21375;-1.06973;-0.0318111;-1.02477;6.21752;2.35342;0.623437;
-8.22117;2.0862;7.214;-1.0698;-0.0320888;-1.02493;6.2191;2.35362;0.623513;
-8.22197;2.08627;7.21425;-1.06986;-0.032366;-1.02509;6.22067;2.35382;0.62359;
-8.22276;2.08634;7.21449;-1.06993;-0.0326429;-1.02524;6.22224;2.35403;0.623666;
-8.22355;2.0864;7.21474;-1.06999;-0.0329193;-1.0254;6.2238;2.35423;0.623743;
-8.22433;2.08647;7.21499;-1.07006;-0.0331953;-1.02555;6.22536;2.35443;0.623819;
-8.22511;2.08654;7.21523;-1.07012;-0.0334709;-1.02571;6.22691;2.35463;0.623895;
-8.2259;2.0866;7.21548;-1.07019;-0.033746;-1.02586;6.22846;2.35483;0.623971;
-8.22667;2.08667;7.21572;-1.07025;-0.0340208;-1.02601;6.23001;2.35503;0.624048;
-8.22745;2.08673;7.21596;-1.07032;-0.0342951;-1.02616;6.23155;2.35522;0.624124;
-8.22823;2.0868;7.2162;-1.07038;-0.0345691;-1.02631;6.23309;2.35542;0.6242;
-8.229;2.08686;7.21645;-1.07045;-0.0348426;-1.02646;6.23463;2.35562;0.624276;
-8.22977;2.08693;7.21668;-1.07051;-0.0351157;-1.02661;6.23616;2.35581;0.624352;
-8.23054;2.08699;7.21692;-1.07057;-0.0353884;-1.02676;6.23769;2.35601;0.624427;
-8.2313;2.08706;7.21716;-1.07064;-0.0356607;-1.02691;6.23921;2.3562;0.624503;
-8.23207;2.08712;7.2174;-1.0707;-0.0359326;-1.02706;6.24073;2.3564;0.624579;
-8.23283;2.08719;7.21763;-1.07076;-0.036204;-1.0272;6.24225;2.35659;0.624654;
-8.23359;2.08725;7.21787;-1.07083;-0.0364751;-1.02735;6.24376;2.35678;0.62473;
-8.23435;2.08731;7.2181;-1.07089;-0.0367457;-1.0275;6.24527;2.35698;0.624805;
-8.2351;2.08738;7.21833;-1.07095;-0.0370159;-1.02764;6.24678;2.35717;0.624881;
-8.23586;2.08744;7.21857;-1.07102;-0.0372857;-1.02778;6.24828;2.35736;0.624956;
-8.23661;2.0875;7.2188;-1.07108;-0.0375551;-1.02793;6.24978;2.35755;0.625031;
-8.23736;2.08756;7.21903;-1.07114;-0.0378241;-1.02807;6.25127;2.35774;0.625107;
-8.2381;2.08763;7.21926;-1.07121;-0.0380927;-1.02821;6.25276;2.35793;0.625182;
-8.23885;2.08769;7.21948;-1.07127;-0.0383608;-1.02835;6.25425;2.35812;0.625257;
-8.23959;2.08775;7.21971;-1.07133;-0.0386286;-1.02849;6.25573;2.35831;0.625332;
-8.24033;2.08781;7.21994;-1.07139;-0.0388959;-1.02863;6.25721;2.35849;0.625407;
-8.24107;2.08787;7.22016;-1.07145;-0.0391628;-1.02877;6.25869;2.35868;0.625481;
-8.24181;2.08793;7.22039;-1.07152;-0.0394293;-1.02891;6.26016;2.35887;0.625556;
-8.24254;2.08799;7.22061;-1.07158;-0.0396954;-1.02905;6.26163;2.35905;0.625631;
-8.24327;2.08806;7.22083;-1.07164;-0.0399611;-1.02918;6.26309;2.35924;0.625706;
-8.244;2.08812;7.22105;-1.0717;-0.0402263;-1.02932;6.26455;2.35942;0.62578;
-8.24473;2.08818;7.22127;-1.07176;-0.0404912;-1.02945;6.26601;2.35961;0.625855;
-8.24546;2.08824;7.22149;-1.07182;-0.0407556;-1.02959;6.26747;2.35979;0.625929;
-8.24618;2.0883;7.22171;-1.07188;-0.0410197;-1.02972;6.26892;2.35997;0.626003;
-8.2469;2.08836;7.22193;-1.07194;-0.0412833;-1.02986;6.27036;2.36015;0.626078;
-8.24762;2.08842;7.22215;-1.072;-0.0415465;-1.02999;6.27181;2.36034;0.626152;
-8.24834;2.08847;7.22236;-1.07207;-0.0418093;-1.03012;6.27325;2.36052;0.626226;
-8.24906;2.08853;7.22258;-1.07213;-0.0420717;-1.03025;6.27468;2.3607;0.6263;
-8.24977;2.08859;7.22279;-1.07219;-0.0423336;-1.03039;6.27612;2.36088;0.626374;
-8.25049;2.08865;7.22301;-1.07225;-0.0425952;-1.03052;6.27754;2.36106;0.626448;
-8.2512;2.08871;7.22322;-1.07231;-0.0428563;-1.03065;6.27897;2.36124;0.626521;
-8.2519;2.08877;7.22343;-1.07237;-0.0431171;-1.03077;6.28039;2.36141;0.626595;
-8.25261;2.08883;7.22364;-1.07243;-0.0433774;-1.0309;6.28181;2.36159;0.626669;
-8.25332;2.08888;7.22385;-1.07248;-0.0436373;-1.03103;6.28323;2.36177;0.626742;
-8.25402;2.08894;7.22406;-1.07254;-0.0438968;-1.03116;6.28464;2.36194;0.626816;
-8.25472;2.089;7.22427;-1.0726;-0.0441559;-1.03128;6.28604;2.36212;0.626889;
-8.25542;2.08906;7.22448;-1.07266;-0.0444145;-1.03141;6.28745;2.3623;0.626963;
-8.25611;2.08911;7.22469;-1.07272;-0.0446728;-1.03154;6.28885;2.36247;0.627036;
-8.25681;2.08917;7.22489;-1.07278;-0.0449307;-1.03166;6.29025;2.36265;0.627109;
-8.2575;2.08923;7.2251;-1.07284;-0.0451881;-1.03178;6.29164;2.36282;0.627182;
-8.25819;2.08928;7.2253;-1.0729;-0.0454451;-1.03191;6.29303;2.36299;0.627255;
-8.25888;2.08934;7.22551;-1.07296;-0.0457017;-1.03203;6.29442;2.36316;0.627328;
-8.25957;2.0894;7.22571;-1.07301;-0.045958;-1.03215;6.2958;2.36334;0.627401;
-8.26025;2.08945;7.22591;-1.07307;-0.0462138;-1.03228;6.29718;2.36351;0.627474;
-8.26094;2.08951;7.22611;-1.07313;-0.0464691;-1.0324;6.29856;2.36368;0.627546;
-8.26162;2.08956;7.22631;-1.07319;-0.0467241;-1.03252;6.29993;2.36385;0.627619;
-8.2623;2.08962;7.22651;-1.07324;-0.0469787;-1.03264;6.3013;2.36402;0.627692;
-8.26297;2.08967;7.22671;-1.0733;-0.0472328;-1.03276;6.30267;2.36419;0.627764;
-8.26365;2.08973;7.22691;-1.07336;-0.0474866;-1.03287;6.30403;2.36436;0.627836;
-8.26432;2.08978;7.2271;-1.07342;-0.0477399;-1.03299;6.30539;2.36453;0.627909;
-8.26499;2.08984;7.2273;-1.07347;-0.0479929;-1.03311;6.30675;2.36469;0.627981;
-8.26566;2.08989;7.2275;-1.07353;-0.0482454;-1.03323;6.3081;2.36486;0.628053;
-8.26633;2.08995;7.22769;-1.07359;-0.0484975;-1.03334;6.30945;2.36503;0.628125;
-8.267;2.09;7.22788;-1.07364;-0.0487492;-1.03346;6.3108;2.36519;0.628197;
-8.26766;2.09005;7.22808;-1.0737;-0.0490005;-1.03358;6.31214;2.36536;0.628269;
-8.26833;2.09011;7.22827;-1.07376;-0.0492514;-1.03369;6.31348;2.36552;0.628341;
-8.26899;2.09016;7.22846;-1.07381;-0.0495019;-1.0338;6.31482;2.36569;0.628413;
-8.26965;2.09021;7.22865;-1.07387;-0.0497519;-1.03392;6.31616;2.36585;0.628484;
-8.2703;2.09027;7.22884;-1.07393;-0.0500016;-1.03403;6.31749;2.36602;0.628556;
-8.27096;2.09032;7.22903;-1.07398;-0.0502508;-1.03414;6.31881;2.36618;0.628627;
-8.27161;2.09037;7.22922;-1.07404;-0.0504997;-1.03426;6.32014;2.36634;0.628699;
-8.27226;2.09042;7.22941;-1.07409;-0.0507481;-1.03437;6.32146;2.3665;0.62877;
-8.27291;2.09048;7.22959;-1.07415;-0.0509961;-1.03448;6.32277;2.36667;0.628841;
-8.27356;2.09053;7.22978;-1.0742;-0.0512438;-1.03459;6.32409;2.36683;0.628912;
-8.27421;2.09058;7.22997;-1.07426;-0.051491;-1.0347;6.3254;2.36699;0.628984;
-8.27485;2.09063;7.23015;-1.07431;-0.0517378;-1.03481;6.3267;2.36715;0.629054;
-8.2755;2.09068;7.23033;-1.07437;-0.0519842;-1.03492;6.32801;2.36731;0.629125;
-8.27614;2.09074;7.23052;-1.07442;-0.0522302;-1.03502;6.32931;2.36747;0.629196;
-8.27678;2.09079;7.2307;-1.07448;-0.0524758;-1.03513;6.33061;2.36762;0.629267;
