0.0297915;0.416668;0.289296;0.127088;-0.0383764;0.305145;0.326439;-0.0157554;0.459087;
-0.48932;0.328258;0.0229053;-0.162602;-0.129657;0.260321;0.137135;-0.102929;0.263257;
-0.606315;0.329824;0.00628777;-0.21982;-0.141887;0.261071;0.111562;-0.109611;0.23614;
-0.646;0.348128;0.0358377;-0.232558;-0.140716;0.270395;0.114091;-0.102938;0.237879;
-0.672316;0.368608;0.0697058;-0.241262;-0.137982;0.280346;0.121093;-0.093828;0.245017;
-0.709404;0.386659;0.0978894;-0.254309;-0.135551;0.289251;0.126727;-0.0852765;0.249555;
-0.739004;0.407784;0.134621;-0.259082;-0.131281;0.298979;0.135715;-0.0753758;0.257472;
-0.766332;0.426192;0.166416;-0.267324;-0.128383;0.30823;0.143801;-0.0662546;0.26295;
-0.805232;0.444274;0.196581;-0.277324;-0.126307;0.317474;0.150176;-0.0582969;0.267175;
-0.837698;0.463739;0.228526;-0.284803;-0.122071;0.326576;0.159289;-0.0495991;0.274944;
-0.863947;0.482502;0.261255;-0.29134;-0.119113;0.335825;0.166691;-0.0422504;0.279952;
-0.883231;0.501271;0.297337;-0.294975;-0.114771;0.345603;0.17639;-0.0321722;0.288112;
-0.919141;0.518548;0.326631;-0.305837;-0.113297;0.353092;0.17932;-0.0241713;0.292695;
-0.949966;0.536537;0.359201;-0.311891;-0.109772;0.361228;0.186971;-0.0151204;0.298056;
-0.969549;0.555935;0.394814;-0.313614;-0.10496;0.370218;0.198582;-0.00487496;0.306807;
-1.01447;0.569974;0.420373;-0.326629;-0.104224;0.377741;0.201996;0.00178285;0.306299;
-1.04043;0.588113;0.45003;-0.333889;-0.101911;0.386221;0.210456;0.0104851;0.314834;
-1.06784;0.605297;0.481485;-0.338851;-0.0977235;0.394982;0.220008;0.0198192;0.321644;
-1.10847;0.617962;0.502383;-0.352328;-0.0972316;0.402204;0.225998;0.02694;0.325148;
-1.11272;0.641228;0.547607;-0.344783;-0.0899985;0.412561;0.242311;0.0384729;0.336953;
-1.15582;0.653427;0.570005;-0.359222;-0.0887521;0.418959;0.245826;0.0438457;0.33803;
-1.18416;0.669632;0.601614;-0.365401;-0.0854155;0.426082;0.254415;0.0520685;0.344507;
-1.21504;0.684882;0.632888;-0.371685;-0.0824115;0.433532;0.261919;0.0602334;0.350369;
-1.24229;0.699894;0.664431;-0.378647;-0.0793847;0.440592;0.270008;0.0688218;0.355468;
-1.26494;0.716013;0.696803;-0.383122;-0.0758856;0.44843;0.280239;0.0778314;0.362125;
-1.29442;0.731951;0.728575;-0.389969;-0.0727144;0.455735;0.289038;0.0860127;0.367216;
-1.32089;0.744659;0.755506;-0.395434;-0.0705316;0.462186;0.296521;0.0942679;0.371707;
-1.34637;0.758489;0.783213;-0.401947;-0.0677187;0.468666;0.303329;0.101634;0.375319;
-1.3691;0.77382;0.813264;-0.40536;-0.0633888;0.475651;0.314205;0.110414;0.383237;
-1.39203;0.788439;0.843533;-0.409142;-0.060203;0.482214;0.323308;0.119093;0.388088;
-1.42448;0.801326;0.870214;-0.418862;-0.058608;0.487979;0.328211;0.125693;0.390367;
-1.45532;0.814269;0.895263;-0.426748;-0.0562607;0.494124;0.334929;0.132051;0.392056;
-1.47453;0.829218;0.925322;-0.427916;-0.0520977;0.500888;0.344737;0.140308;0.398843;
-1.50233;0.841826;0.952549;-0.434456;-0.0504465;0.506622;0.353943;0.148053;0.403939;
-1.52596;0.855582;0.98115;-0.43984;-0.0473975;0.512533;0.362729;0.15539;0.409267;
-1.54988;0.868144;1.0073;-0.446599;-0.0452675;0.518343;0.371121;0.16243;0.413768;
-1.57109;0.880044;1.03564;-0.44964;-0.0423231;0.524546;0.379986;0.170255;0.418806;
-1.60126;0.891687;1.06021;-0.455596;-0.04026;0.529779;0.386744;0.176579;0.42143;
-1.6232;0.903148;1.08752;-0.461723;-0.0373152;0.535192;0.393843;0.183607;0.426207;
-1.65053;0.91455;1.11158;-0.468316;-0.0354799;0.540258;0.40001;0.190801;0.429686;
-1.67479;0.92629;1.13884;-0.473575;-0.0331764;0.545435;0.407846;0.198396;0.433803;
-1.69059;0.939588;1.17089;-0.474811;-0.02989;0.551565;0.417553;0.206324;0.439299;
-1.71385;0.947078;1.19417;-0.483444;-0.0283283;0.556991;0.424633;0.213078;0.442836;
-1.73643;0.958681;1.22152;-0.487612;-0.0257196;0.561929;0.433717;0.221213;0.447164;
-1.76004;0.969418;1.24612;-0.493587;-0.0240204;0.566411;0.441581;0.228471;0.450866;
-1.78278;0.983683;1.27731;-0.495257;-0.0221608;0.570818;0.450075;0.235709;0.454761;
-1.81348;0.990142;1.29505;-0.503668;-0.0214814;0.575268;0.457686;0.241897;0.457889;
-1.83612;1.00138;1.31999;-0.507766;-0.0191067;0.579849;0.466386;0.24943;0.462193;
-1.8636;1.01196;1.3431;-0.513713;-0.0176153;0.583894;0.473632;0.255458;0.465847;
-1.88451;1.02206;1.36895;-0.517733;-0.0149157;0.588757;0.483385;0.26294;0.469638;
-1.90653;1.03125;1.39341;-0.521206;-0.0125374;0.59293;0.492689;0.270443;0.474872;
-1.91992;1.04269;1.42332;-0.521025;-0.00953201;0.597678;0.503436;0.277648;0.479334;
-1.94834;1.04969;1.44142;-0.530577;-0.00890956;0.600185;0.509308;0.282351;0.479176;
-1.97288;1.0593;1.46706;-0.534763;-0.00685533;0.6045;0.51793;0.289559;0.482052;
-1.99471;1.07023;1.49225;-0.538338;-0.00448696;0.608164;0.527424;0.297005;0.487356;
-2.01516;1.08061;1.51765;-0.541821;-0.00215701;0.612095;0.536024;0.303848;0.490363;
-2.03813;1.09112;1.5406;-0.546386;-0.000830766;0.615693;0.546058;0.311466;0.49461;
-2.06114;1.10057;1.56491;-0.550501;0.000672141;0.61869;0.553111;0.31754;0.49654;
-2.07132;1.1114;1.59042;-0.550839;0.00413839;0.622595;0.53196;0.324673;0.501977;
-2.09466;1.12048;1.61372;-0.555237;0.00586296;0.625517;0.540396;0.331093;0.504996;
-2.11493;1.13015;1.63765;-0.55758;0.00711098;0.629257;0.550273;0.337796;0.509464;
-2.13724;1.14056;1.66119;-0.560387;0.00921017;0.632579;0.559038;0.344684;0.512378;
-2.15715;1.14893;1.68102;-0.566537;0.0108232;0.635823;0.566527;0.350628;0.5145;
-2.16949;1.16095;1.70917;-0.566549;0.0131826;0.639388;0.576125;0.357959;0.518397;
-2.18609;1.1726;1.73246;-0.569231;0.0150019;0.642367;0.582889;0.363197;0.519013;
-2.21427;1.17917;1.7485;-0.579407;0.0155539;0.643914;0.588585;0.36827;0.518095;
-2.23545;1.1877;1.77044;-0.583257;0.0178627;0.646912;0.597136;0.375076;0.521114;
-2.2533;1.19499;1.79089;-0.587443;0.0199542;0.649282;0.605053;0.381347;0.5235;
-2.27419;1.20259;1.81208;-0.591484;0.0214798;0.651796;0.611759;0.387319;0.524913;
-2.29642;1.20948;1.83336;-0.594748;0.0232462;0.653802;0.619462;0.393216;0.527232;
-2.31248;1.21855;1.85486;-0.597056;0.0253452;0.656338;0.628774;0.399813;0.53043;
-2.33949;1.22534;1.87131;-0.603206;0.025749;0.658002;0.633101;0.405198;0.532226;
-2.34474;1.23621;1.90038;-0.600547;0.0298442;0.661221;0.644863;0.413668;0.538518;
-2.37475;1.243;1.91834;-0.608416;0.0302302;0.662558;0.649754;0.418277;0.537782;
-2.39974;1.25092;1.93784;-0.613594;0.0320543;0.664523;0.656384;0.424191;0.539022;
-2.41401;1.25762;1.96314;-0.614263;0.0344742;0.666626;0.666003;0.430248;0.542988;
-2.43346;1.26449;1.98292;-0.61764;0.0356782;0.668594;0.673339;0.436278;0.544921;
-2.45034;1.2727;2.00503;-0.619906;0.0375613;0.67076;0.681791;0.442384;0.548735;
-2.47005;1.28058;2.02619;-0.623269;0.0393053;0.672502;0.689834;0.447786;0.550685;
-2.49433;1.28737;2.04605;-0.628244;0.040377;0.673989;0.696523;0.453223;0.551722;
-2.51012;1.29417;2.06752;-0.630505;0.0423147;0.675769;0.703471;0.458272;0.553295;
-2.52726;1.30134;2.08819;-0.633568;0.0437176;0.677461;0.711916;0.464061;0.556166;
-2.53921;1.30904;2.10842;-0.633963;0.0456894;0.679021;0.720178;0.469891;0.559403;
-2.55845;1.3178;2.1251;-0.639089;0.0473673;0.680795;0.728257;0.475975;0.562088;
-2.57704;1.32548;2.14632;-0.642566;0.048843;0.681455;0.735376;0.480781;0.564647;
-2.60126;1.33224;2.16435;-0.646803;0.0503734;0.682214;0.742444;0.487104;0.565436;
-2.61901;1.33957;2.18547;-0.648787;0.0515948;0.683706;0.751223;0.493511;0.567963;
-2.63695;1.34542;2.20537;-0.650572;0.0530719;0.685299;0.759456;0.499181;0.570418;
-2.65163;1.35215;2.22671;-0.6532;0.0547705;0.686555;0.76712;0.505043;0.573269;
-2.66479;1.35642;2.24407;-0.656681;0.0560633;0.687607;0.772272;0.510415;0.57443;
-2.68915;1.36172;2.26001;-0.660854;0.0561336;0.688266;0.778451;0.514957;0.574225;
-2.70613;1.3667;2.27891;-0.663875;0.0572895;0.68924;0.786008;0.520461;0.575508;
-2.71367;1.37596;2.30549;-0.662159;0.0600666;0.690604;0.796724;0.526602;0.580211;
-2.72533;1.38279;2.32616;-0.663565;0.0619235;0.691922;0.804919;0.531917;0.581957;
-2.75099;1.38733;2.34267;-0.670209;0.0617107;0.691552;0.810019;0.53557;0.581208;
-2.77867;1.39096;2.35501;-0.677805;0.0611018;0.692047;0.815271;0.539098;0.581348;
-2.79771;1.39657;2.37617;-0.680753;0.0631914;0.692339;0.823891;0.544807;0.584457;
-2.80985;1.40529;2.39905;-0.679296;0.0659289;0.693639;0.833882;0.551354;0.588185;
-2.82535;1.40922;2.41738;-0.683003;0.0672762;0.69442;0.842838;0.556682;0.590878;
-2.83671;1.4164;2.4399;-0.681789;0.0700155;0.696169;0.851887;0.562222;0.593828;
-2.85869;1.42144;2.45638;-0.685821;0.0705553;0.696221;0.857113;0.5658;0.592513;
-2.87639;1.42627;2.4731;-0.688739;0.0710164;0.696684;0.863257;0.570102;0.593332;
-2.89183;1.43248;2.49308;-0.68968;0.0727129;0.696821;0.872926;0.576312;0.594935;
-2.90549;1.43734;2.51169;-0.691555;0.0739984;0.696973;0.882048;0.581131;0.596873;
-2.92622;1.44172;2.52494;-0.696188;0.0738713;0.696143;0.888137;0.585241;0.596671;
-2.94014;1.44841;2.54494;-0.697603;0.0759517;0.696663;0.896947;0.590569;0.598824;
-2.95613;1.4548;2.56381;-0.698041;0.0769529;0.696947;0.90521;0.596131;0.600264;
-2.96943;1.45828;2.57724;-0.703576;0.0769253;0.696551;0.912247;0.600157;0.597635;
-2.98553;1.46359;2.59618;-0.704656;0.0780828;0.696664;0.919464;0.605152;0.598899;
-3.00272;1.46796;2.61245;-0.70771;0.0790981;0.696788;0.926108;0.610112;0.599476;
-3.01989;1.47146;2.62828;-0.711909;0.0799215;0.696338;0.932836;0.614318;0.59907;
-3.03155;1.47746;2.64694;-0.712055;0.0814374;0.696343;0.941886;0.620035;0.60065;
-3.04474;1.48401;2.6649;-0.713604;0.0823929;0.696328;0.949481;0.624519;0.601151;
-3.06306;1.48856;2.67868;-0.718734;0.0822106;0.696127;0.956994;0.628885;0.601766;
-3.07874;1.49258;2.69431;-0.720382;0.0834885;0.695855;0.962757;0.633505;0.602684;
-3.09532;1.49749;2.71129;-0.722129;0.0846176;0.69583;0.970769;0.638235;0.603846;
-3.10825;1.50201;2.7277;-0.723884;0.0856947;0.695465;0.979141;0.64294;0.605483;
-3.13227;1.5037;2.7397;-0.730021;0.086045;0.694429;0.985104;0.647137;0.605114;
-3.14081;1.51007;2.76009;-0.728418;0.0880801;0.694916;0.995831;0.653155;0.609207;
-3.15496;1.51493;2.77698;-0.72962;0.0892794;0.694701;1.00351;0.658224;0.611178;
-3.16801;1.51886;2.79472;-0.729083;0.0914918;0.694835;1.01202;0.663517;0.612914;
-3.17457;1.52592;2.81532;-0.728842;0.0932101;0.694884;1.02049;0.667974;0.613798;
-3.19685;1.52893;2.82705;-0.734483;0.0924201;0.693553;1.02508;0.670984;0.612076;
-3.21332;1.53346;2.84111;-0.737446;0.0930035;0.692996;1.03199;0.675093;0.612327;
-3.2196;1.53973;2.86146;-0.736219;0.0943858;0.692991;1.04036;0.679798;0.613946;
-3.24205;1.54224;2.87377;-0.742151;0.0940185;0.692099;1.04542;0.682585;0.61115;
-3.26154;1.54567;2.88963;-0.742302;0.0949242;0.691825;1.05353;0.686588;0.612893;
-3.26989;1.55019;2.90639;-0.742574;0.096883;0.691886;1.06204;0.691532;0.615028;
-3.28036;1.55582;2.92503;-0.742563;0.0980656;0.691249;1.06967;0.695859;0.616823;
-3.29416;1.56233;2.94064;-0.744176;0.0992595;0.692782;1.07718;0.700252;0.61807;
-3.31008;1.56528;2.95491;-0.747321;0.0990199;0.691715;1.08333;0.703819;0.617582;
-3.32636;1.5695;2.97213;-0.750281;0.1007;0.691866;1.09125;0.70891;0.618226;
-3.34242;1.57362;2.98693;-0.753187;0.10112;0.69085;1.09734;0.712772;0.619575;
-3.3566;1.57731;3.00584;-0.751917;0.101974;0.690066;1.10443;0.71699;0.620067;
-3.36946;1.58053;3.01708;-0.755719;0.102204;0.689743;1.11207;0.721601;0.620158;
-3.37478;1.58578;3.03605;-0.752805;0.1033;0.689075;1.11992;0.72595;0.620665;
-3.40146;1.5871;3.04464;-0.760496;0.102753;0.687309;1.12362;0.728592;0.618;
-3.41191;1.5918;3.05988;-0.760246;0.104224;0.686829;1.13186;0.733388;0.619836;
-3.42222;1.59589;3.07645;-0.760499;0.105657;0.686243;1.14082;0.737969;0.621447;
-3.43582;1.59912;3.09017;-0.763461;0.106555;0.685169;1.14722;0.741963;0.621369;
-3.45264;1.60128;3.102;-0.766525;0.107409;0.684458;1.1549;0.746666;0.621202;
-3.46315;1.60603;3.11902;-0.765829;0.108512;0.683563;1.16302;0.751256;0.621596;
-3.48705;1.61185;3.13503;-0.770522;0.108514;0.682141;1.17019;0.755365;0.620425;
-3.5002;1.61612;3.14966;-0.771184;0.109713;0.681333;1.1782;0.759754;0.621568;
-3.5048;1.62279;3.16941;-0.768203;0.111847;0.680695;1.18721;0.764722;0.624716;
-3.51987;1.62361;3.17958;-0.773191;0.111527;0.679344;1.1931;0.767819;0.623379;
-3.5377;1.62734;3.19105;-0.776156;0.112099;0.678158;1.20013;0.772161;0.623963;
-3.54365;1.63348;3.21065;-0.773561;0.113148;0.67858;1.20926;0.777465;0.626432;
-3.55846;1.63652;3.22347;-0.775116;0.113109;0.676969;1.21632;0.780888;0.627164;
-3.57488;1.63905;3.23494;-0.77989;0.112977;0.67542;1.22078;0.784214;0.625774;
-3.58293;1.64351;3.25064;-0.781052;0.114108;0.674661;1.22801;0.788137;0.62758;
-3.58897;1.64828;3.26743;-0.780345;0.115426;0.673282;1.23454;0.792265;0.627166;
-3.60269;1.64995;3.27673;-0.7833;0.115159;0.672061;1.24128;0.795227;0.626332;
-3.6315;1.65109;3.28435;-0.788778;0.114559;0.670149;1.24663;0.797473;0.625692;
-3.6394;1.65553;3.30209;-0.78734;0.11637;0.669345;1.25606;0.802922;0.629227;
-3.65505;1.65761;3.31331;-0.789789;0.117043;0.667014;1.2623;0.806535;0.629063;
-3.66399;1.6616;3.32818;-0.789397;0.118257;0.666037;1.27031;0.811403;0.631126;
-3.66953;1.66531;3.34453;-0.788589;0.119664;0.665867;1.27906;0.815622;0.632561;
-3.68386;1.667;3.3575;-0.788642;0.119471;0.66422;1.28852;0.819025;0.631769;
-3.69948;1.66958;3.37027;-0.789939;0.119204;0.662577;1.29504;0.822525;0.631946;
-3.7132;1.67259;3.38127;-0.793058;0.119406;0.661166;1.30155;0.826506;0.631056;
-3.71927;1.6758;3.39638;-0.79247;0.1208;0.659873;1.31019;0.831162;0.632116;
-3.73137;1.67919;3.40987;-0.793475;0.121502;0.658297;1.31701;0.834662;0.632017;
-3.74225;1.68197;3.4226;-0.795885;0.122107;0.656464;1.32446;0.837285;0.631385;
-3.75419;1.6847;3.43656;-0.79735;0.122172;0.654862;1.3322;0.840919;0.631959;
-3.76436;1.68962;3.45128;-0.796527;0.123067;0.653853;1.34074;0.844733;0.633529;
-3.77936;1.69222;3.46336;-0.799442;0.123257;0.651809;1.3473;0.847889;0.632397;
-3.78549;1.69266;3.47512;-0.801322;0.122823;0.650028;1.35336;0.851522;0.632806;
-3.799;1.6949;3.48575;-0.80407;0.123228;0.648224;1.36029;0.854732;0.63307;
-3.80374;1.69988;3.5006;-0.803315;0.12389;0.64651;1.36886;0.859207;0.634741;
-3.81934;1.70089;3.50823;-0.807016;0.123923;0.644332;1.37301;0.861691;0.632802;
-3.82465;1.70342;3.51953;-0.807621;0.125391;0.642837;1.37932;0.865016;0.632857;
-3.83968;1.70606;3.52899;-0.809953;0.124817;0.640284;1.38295;0.867336;0.631802;
-3.8493;1.70955;3.54192;-0.810587;0.125992;0.638258;1.39102;0.871073;0.632219;
-3.86291;1.71183;3.55327;-0.81321;0.126031;0.635803;1.39707;0.873827;0.63191;
-3.87499;1.71487;3.56532;-0.813981;0.126327;0.634238;1.4039;0.87721;0.632144;
-3.88249;1.71843;3.57958;-0.812777;0.127264;0.633158;1.41327;0.881856;0.634918;
-3.89464;1.7211;3.59095;-0.814199;0.127838;0.631404;1.42059;0.885309;0.634991;
-3.90449;1.72479;3.60218;-0.815873;0.127663;0.629839;1.42682;0.888447;0.635622;
-3.91946;1.72662;3.6131;-0.818737;0.12711;0.62742;1.43218;0.890968;0.634848;
-3.93732;1.72655;3.62017;-0.823485;0.127035;0.625611;1.43664;0.893176;0.632909;
-3.94442;1.72933;3.63512;-0.822429;0.128771;0.6243;1.44598;0.896871;0.636227;
-3.93936;1.73347;3.64848;-0.821543;0.130052;0.622631;1.45382;0.900702;0.637852;
-3.95923;1.73355;3.65329;-0.829124;0.129284;0.619609;1.45759;0.902298;0.635715;
-3.96628;1.73839;3.66669;-0.828162;0.130815;0.619006;1.46613;0.905978;0.638086;
-3.97834;1.73972;3.67661;-0.832166;0.130613;0.616917;1.47116;0.908096;0.63612;
-3.98944;1.74104;3.68601;-0.83379;0.13062;0.615249;1.47779;0.911192;0.637065;
-3.99757;1.74463;3.70062;-0.832233;0.131976;0.613879;1.48512;0.915004;0.639067;
-4.01087;1.74577;3.70982;-0.832278;0.131553;0.611264;1.491;0.918251;0.637852;
-4.0257;1.74947;3.72387;-0.833178;0.132169;0.609179;1.49543;0.920577;0.637456;
-4.0358;1.75108;3.73487;-0.834173;0.132347;0.606809;1.50227;0.923632;0.635887;
-4.04709;1.75385;3.74542;-0.836916;0.1326;0.605227;1.50837;0.927183;0.63379;
-4.04306;1.76086;3.76519;-0.829982;0.135273;0.604813;1.51839;0.931942;0.637406;
-4.05904;1.76183;3.7731;-0.834931;0.134789;0.602094;1.52256;0.934308;0.636198;
-4.0867;1.76099;3.77407;-0.841884;0.132545;0.599106;1.52491;0.935923;0.63418;
-4.08792;1.76535;3.79058;-0.837467;0.134611;0.597601;1.53474;0.940862;0.638582;
-4.09755;1.76764;3.80131;-0.83875;0.135657;0.595578;1.54226;0.944203;0.639894;
-4.10635;1.7705;3.81291;-0.838667;0.135417;0.593349;1.54882;0.947438;0.639178;
-4.11518;1.77126;3.82162;-0.841313;0.135367;0.592089;1.55492;0.9498;0.638419;
-4.13184;1.77377;3.83306;-0.842956;0.135313;0.590028;1.55995;0.952019;0.638116;
-4.13736;1.77552;3.84551;-0.840996;0.136468;0.588536;1.56737;0.955984;0.639968;
-4.14598;1.77731;3.85674;-0.841897;0.13688;0.586536;1.5733;0.959285;0.640051;
-4.15669;1.77924;3.86785;-0.842934;0.137078;0.584369;1.5798;0.962218;0.639648;
-4.16647;1.78072;3.87719;-0.844598;0.137858;0.583124;1.58479;0.964466;0.638918;
-4.17468;1.78385;3.88956;-0.84513;0.137852;0.581085;1.59254;0.967379;0.640613;
-4.18343;1.78649;3.90176;-0.844632;0.138821;0.579185;1.59927;0.970715;0.641156;
-4.1972;1.78755;3.91036;-0.847265;0.138653;0.5764;1.60386;0.972618;0.639866;
-4.20803;1.78982;3.92175;-0.846465;0.13917;0.573676;1.61074;0.976682;0.641023;
-4.22942;1.78901;3.9236;-0.851245;0.138049;0.570841;1.61412;0.9787;0.638965;
-4.24518;1.79122;3.93585;-0.85073;0.138367;0.569344;1.62248;0.982005;0.640958;
-4.25;1.79536;3.94972;-0.845757;0.14003;0.567771;1.63142;0.986481;0.64492;
-4.25555;1.7986;3.9629;-0.844378;0.141238;0.566081;1.63983;0.990586;0.646959;
-4.2625;1.80082;3.97422;-0.842604;0.142485;0.56415;1.64695;0.994207;0.647367;
-4.27088;1.80285;3.9866;-0.842006;0.143247;0.56176;1.65447;0.997405;0.646699;
-4.29181;1.80314;3.99317;-0.843533;0.142253;0.558969;1.65881;1.00043;0.645849;
-4.29144;1.80843;4.00888;-0.838487;0.144115;0.557736;1.6684;1.00467;0.648496;
-4.31507;1.80758;4.01057;-0.846546;0.143363;0.554645;1.67058;1.00629;0.646347;
-4.32666;1.80886;4.02068;-0.848352;0.143931;0.552666;1.67802;1.00958;0.646755;
-4.33041;1.81242;4.03401;-0.846017;0.145064;0.551003;1.68665;1.01354;0.648358;
-4.34177;1.81342;4.04336;-0.847896;0.145227;0.548659;1.6923;1.016;0.648133;
-4.34824;1.81615;4.0564;-0.845813;0.146136;0.547862;1.70086;1.0192;0.649806;
-4.35651;1.81793;4.06689;-0.847183;0.146343;0.545756;1.70619;1.02211;0.649936;
-4.37024;1.81967;4.0769;-0.847203;0.146664;0.543567;1.71139;1.0237;0.648802;
-4.38194;1.82013;4.08356;-0.849868;0.146159;0.541093;1.71699;1.02709;0.648682;
-4.38967;1.82139;4.0942;-0.849586;0.14665;0.538599;1.7248;1.03057;0.649253;
-4.39484;1.82406;4.10714;-0.847167;0.147934;0.536919;1.73385;1.03462;0.651612;
-4.40626;1.82519;4.11253;-0.848191;0.148259;0.534844;1.74028;1.03718;0.651392;
-4.41434;1.82841;4.12204;-0.848591;0.148854;0.532348;1.7456;1.04043;0.651225;
-4.42438;1.83083;4.13238;-0.848151;0.149028;0.529926;1.75265;1.04359;0.652094;
-4.43204;1.83332;4.14192;-0.846422;0.149648;0.528156;1.75956;1.04657;0.652617;
-4.44048;1.83404;4.1495;-0.84765;0.150172;0.525895;1.76586;1.04965;0.653093;
-4.44422;1.83688;4.16032;-0.848626;0.151231;0.524402;1.77485;1.05342;0.654412;
-4.45737;1.83768;4.16823;-0.849822;0.150439;0.522153;1.77904;1.05551;0.65264;
-4.46408;1.84081;4.17888;-0.850074;0.151355;0.519935;1.78672;1.0591;0.653213;
-4.47662;1.84127;4.1845;-0.852313;0.151627;0.517404;1.79199;1.06119;0.652309;
-4.48796;1.8419;4.1932;-0.854586;0.152219;0.515323;1.7982;1.06285;0.651272;
-4.49417;1.84408;4.20263;-0.854407;0.152759;0.512991;1.80533;1.06574;0.65184;
-4.50253;1.84682;4.21323;-0.852864;0.153214;0.510627;1.81256;1.06853;0.65244;
-4.51089;1.85065;4.22337;-0.851932;0.153421;0.508239;1.81848;1.07101;0.652353;
-4.51326;1.85374;4.23622;-0.851095;0.154114;0.506254;1.82654;1.07477;0.652691;
-4.52532;1.85486;4.24364;-0.853184;0.15317;0.503779;1.83145;1.07645;0.650969;
-4.5346;1.85581;4.25147;-0.855543;0.153269;0.501289;1.83725;1.07895;0.64999;
-4.54388;1.85757;4.26031;-0.855574;0.15386;0.498428;1.843;1.08141;0.649634;
-4.55652;1.8577;4.26828;-0.856412;0.153429;0.49554;1.84867;1.08419;0.649649;
-4.56806;1.8589;4.27409;-0.8595;0.153888;0.493012;1.85402;1.08654;0.649421;
-4.56763;1.86119;4.28659;-0.856755;0.155444;0.491526;1.859;1.08958;0.649051;
-4.58061;1.86199;4.29357;-0.860861;0.155268;0.488854;1.86409;1.09129;0.646643;
-4.59011;1.86408;4.30222;-0.861099;0.155374;0.485995;1.87002;1.09386;0.645907;
-4.6004;1.86627;4.31279;-0.861005;0.155893;0.483742;1.87662;1.09683;0.646695;
-4.61164;1.86878;4.3231;-0.860258;0.155895;0.481331;1.88339;1.09915;0.647412;
-4.60939;1.87208;4.33666;-0.857118;0.157114;0.479722;1.8916;1.10268;0.649117;
-4.6214;1.87246;4.34286;-0.861672;0.156045;0.476814;1.89495;1.10444;0.646572;
-4.62974;1.87416;4.35051;-0.863675;0.155533;0.474163;1.89931;1.10631;0.646119;
-4.63092;1.87787;4.36272;-0.861908;0.156402;0.472203;1.90637;1.10893;0.647442;
-4.65034;1.87735;4.36657;-0.866787;0.155503;0.46834;1.90859;1.10943;0.643777;
-4.65643;1.88025;4.37487;-0.866123;0.156066;0.465852;1.91455;1.11235;0.642776;
-4.66149;1.88297;4.38687;-0.863573;0.156739;0.463397;1.92251;1.11575;0.645463;
-4.66605;1.88573;4.39607;-0.862152;0.157333;0.461258;1.92868;1.11841;0.645269;
-4.6767;1.88663;4.40294;-0.864125;0.156892;0.458519;1.93173;1.11959;0.643264;
-4.68271;1.88942;4.41219;-0.864;0.157112;0.455854;1.93832;1.12242;0.643974;
-4.70347;1.88956;4.41591;-0.867439;0.15645;0.452548;1.94245;1.12434;0.642955;
-4.70912;1.89157;4.42521;-0.866419;0.157329;0.450496;1.94894;1.12708;0.642486;
-4.71686;1.8929;4.43215;-0.867754;0.157337;0.447664;1.95501;1.12954;0.643415;
-4.73253;1.89179;4.43664;-0.870527;0.15647;0.445337;1.96093;1.13124;0.642806;
-4.73457;1.8945;4.44861;-0.86801;0.158185;0.443692;1.96916;1.13457;0.645025;
-4.73791;1.8955;4.45523;-0.866249;0.158691;0.441639;1.97594;1.13712;0.645515;
-4.74984;1.8968;4.46296;-0.866519;0.158553;0.43888;1.98064;1.13939;0.644919;
-4.75844;1.89958;4.47362;-0.863872;0.159497;0.436765;1.98813;1.14276;0.645073;
-4.75696;1.90388;4.48773;-0.860149;0.160956;0.43546;1.99737;1.14735;0.647739;
-4.76985;1.90381;4.4925;-0.863232;0.160006;0.432175;2.00126;1.14811;0.645952;
-4.77888;1.90385;4.49951;-0.864731;0.160172;0.429736;2.00651;1.14989;0.644841;
-4.78705;1.90373;4.50791;-0.863401;0.159901;0.427735;2.01174;1.15202;0.645598;
-4.79463;1.90637;4.51638;-0.863166;0.160273;0.425282;2.01811;1.15441;0.645425;
-4.80238;1.90822;4.52671;-0.863276;0.160739;0.423366;2.02503;1.15664;0.645234;
-4.81278;1.90925;4.53329;-0.864037;0.160917;0.420746;2.03128;1.15888;0.644374;
-4.81635;1.91158;4.54162;-0.861278;0.161416;0.419316;2.03831;1.16196;0.644735;
-4.83283;1.91135;4.5432;-0.864999;0.16036;0.416128;2.04146;1.16327;0.643218;
-4.84166;1.91294;4.55295;-0.863945;0.161127;0.413974;2.04755;1.16607;0.643796;
-4.84917;1.91478;4.56205;-0.862931;0.161927;0.411104;2.05435;1.16857;0.643642;
-4.85364;1.91699;4.57292;-0.859242;0.163327;0.409191;2.06107;1.17161;0.645594;
-4.86111;1.91817;4.58097;-0.859313;0.163259;0.406283;2.06663;1.17419;0.645098;
-4.87377;1.91831;4.58528;-0.862036;0.162566;0.403155;2.07105;1.17576;0.643323;
-4.88088;1.91992;4.59409;-0.861429;0.162936;0.400865;2.07744;1.17825;0.643296;
-4.88972;1.9211;4.60161;-0.861209;0.163265;0.398122;2.08226;1.18015;0.642368;
-4.89753;1.92252;4.60956;-0.861651;0.163051;0.395563;2.08795;1.18278;0.641765;
-4.90635;1.92474;4.61742;-0.861268;0.162868;0.393022;2.09399;1.18499;0.643085;
-4.91494;1.92539;4.62455;-0.862899;0.162034;0.390626;2.09954;1.18715;0.642887;
-4.92228;1.92758;4.63444;-0.861919;0.162394;0.388465;2.11529;1.19009;0.643764;
-4.92146;1.92923;4.64353;-0.862029;0.163116;0.385841;2.12155;1.19297;0.643249;
-4.93383;1.92947;4.64938;-0.864434;0.162275;0.383603;2.12565;1.1943;0.641585;
-4.94368;1.93049;4.65646;-0.864662;0.162592;0.381203;2.1316;1.19594;0.640694;
-4.95012;1.93204;4.66315;-0.867076;0.162324;0.379391;2.13821;1.19718;0.641422;
-4.9558;1.93373;4.67054;-0.867193;0.163033;0.377506;2.14517;1.19967;0.641776;
-4.96745;1.93425;4.67459;-0.869896;0.162672;0.373922;2.15026;1.20169;0.642421;
-4.96662;1.9369;4.68569;-0.867443;0.164312;0.372199;2.1581;1.20561;0.64416;
-4.97392;1.93862;4.69299;-0.867145;0.164356;0.369564;2.1637;1.20798;0.644124;
-4.97808;1.94064;4.70394;-0.865295;0.164514;0.366989;2.16974;1.20987;0.64348;
-4.98589;1.94152;4.70829;-0.867878;0.164673;0.364475;2.17563;1.2117;0.642082;
-4.99393;1.94257;4.71513;-0.868695;0.164343;0.361631;2.18046;1.21313;0.639561;
-5.00254;1.94297;4.71983;-0.869596;0.16307;0.359195;2.18409;1.21473;0.638434;
-5.01256;1.94353;4.72622;-0.870657;0.162683;0.356429;2.18878;1.21636;0.637889;
-5.02047;1.9446;4.73381;-0.870638;0.163144;0.354455;2.1942;1.21818;0.63763;
-5.02426;1.94622;4.74189;-0.870286;0.163905;0.352304;2.19989;1.22042;0.637666;
-5.02852;1.94707;4.74929;-0.869296;0.16411;0.349637;2.20313;1.22178;0.637246;
-5.04101;1.94702;4.75398;-0.871665;0.163924;0.3465;2.20709;1.22277;0.635484;
-5.03844;1.95179;4.7655;-0.865931;0.167149;0.344574;2.21423;1.2252;0.637967;
-5.04815;1.95204;4.76956;-0.86813;0.165863;0.34115;2.21799;1.22603;0.635009;
-5.05568;1.95309;4.77512;-0.869645;0.165661;0.33845;2.2233;1.2279;0.634222;
-5.06609;1.95276;4.78037;-0.87139;0.16579;0.336119;2.22798;1.22996;0.634347;
-5.07025;1.95479;4.7904;-0.868779;0.16691;0.334241;2.23485;1.23292;0.636074;
-5.08101;1.95388;4.792;-0.872943;0.165857;0.331034;2.23849;1.23441;0.634656;
-5.08594;1.9548;4.79822;-0.872866;0.166596;0.329216;2.24521;1.2371;0.635085;
-5.09189;1.95609;4.80705;-0.871989;0.166845;0.326845;2.25167;1.23924;0.635445;
-5.10597;1.9559;4.81162;-0.874499;0.166566;0.324335;2.25678;1.24066;0.634101;
-5.11571;1.95693;4.81921;-0.873028;0.167407;0.321462;2.26155;1.24299;0.633326;
-5.12374;1.9578;4.82735;-0.872393;0.166716;0.31931;2.26876;1.24534;0.63452;
-5.1307;1.95752;4.83229;-0.873062;0.167382;0.317202;2.27508;1.24718;0.635236;
-5.12898;1.95891;4.84294;-0.869466;0.169566;0.315624;2.2841;1.25106;0.637711;
-5.136;1.95853;4.84778;-0.870793;0.168407;0.312375;2.28853;1.25209;0.63613;
-5.1399;1.95905;4.85475;-0.871194;0.168865;0.309931;2.29469;1.25457;0.635654;
-5.14697;1.9593;4.8579;-0.87287;0.16866;0.307175;2.2988;1.25648;0.634688;
-5.15219;1.96004;4.86401;-0.873009;0.16878;0.304381;2.30445;1.25845;0.634501;
-5.15628;1.9622;4.8721;-0.871552;0.169074;0.302156;2.31027;1.26064;0.634403;
-5.16513;1.96279;4.87727;-0.872959;0.16893;0.299521;2.31526;1.26273;0.634884;
-5.17341;1.9648;4.88479;-0.873709;0.169215;0.297093;2.32029;1.26552;0.634809;
-5.17994;1.96559;4.9223;-0.873633;0.168898;0.294399;2.32659;1.26775;0.634961;
-5.18391;1.9647;4.92437;-0.875855;0.167876;0.291522;2.32909;1.26897;0.634115;
-5.19116;1.96275;4.92615;-0.880598;0.1661;0.28811;2.33217;1.26995;0.631195;
-5.19861;1.96251;4.93198;-0.881608;0.165502;0.285688;2.33779;1.27273;0.63255;
-5.19919;1.96495;4.94155;-0.880684;0.165818;0.282586;2.34362;1.27519;0.633477;
-5.22141;1.96084;4.93815;-0.88713;0.163549;0.279045;2.34518;1.2749;0.630401;
-5.22323;1.96319;4.94747;-0.883942;0.165091;0.277295;2.35311;1.27809;0.632455;
-5.23355;1.96417;4.9549;-0.88346;0.165221;0.274543;2.35815;1.27976;0.6317;
-5.24285;1.96586;4.962;-0.882697;0.166189;0.272419;2.36489;1.28247;0.633202;
-5.24345;1.9686;4.97223;-0.878339;0.167963;0.270782;2.37361;1.28575;0.635972;
-5.25418;1.96823;4.97735;-0.8782;0.168255;0.268485;2.37623;1.28717;0.635558;
-5.25529;1.97044;4.98564;-0.876122;0.168708;0.266543;2.383;1.29042;0.635513;
-5.26852;1.97023;4.985;-0.880492;0.168123;0.263736;2.38392;1.29185;0.634533;
-5.27408;1.97216;4.99263;-0.879206;0.168259;0.261573;2.3904;1.29418;0.634619;
-5.27758;1.97466;4.99814;-0.879626;0.16904;0.259245;2.39654;1.29682;0.636421;
-5.28526;1.97327;4.9987;-0.881309;0.168144;0.257029;2.40024;1.29893;0.635486;
-5.28975;1.97544;5.00551;-0.880453;0.169042;0.255096;2.4077;1.3018;0.638096;
-5.29585;1.97625;5.01162;-0.880196;0.169462;0.252883;2.41344;1.30392;0.638276;
-5.29634;1.97552;5.00931;-0.883592;0.169093;0.25149;2.41972;1.30552;0.639136;
-5.29955;1.97674;5.01611;-0.882624;0.169564;0.249367;2.42532;1.30776;0.639913;
-5.30374;1.97696;5.02268;-0.8821;0.169844;0.247078;2.43042;1.30953;0.640047;
-5.31669;1.97487;5.02377;-0.886474;0.168728;0.244366;2.43495;1.31144;0.63928;
-5.31433;1.97784;5.03502;-0.881875;0.169903;0.242526;2.44235;1.31438;0.640783;
-5.31781;1.97937;5.04224;-0.880986;0.170708;0.240629;2.44857;1.31611;0.639395;
-5.32544;1.97906;5.04292;-0.883596;0.17003;0.237719;2.45149;1.31649;0.635503;
-5.34085;1.97853;5.04359;-0.887317;0.168936;0.234887;2.45475;1.31761;0.634007;
-5.3488;1.98109;5.05157;-0.884181;0.170826;0.232786;2.46172;1.31926;0.634685;
-5.34622;1.98373;5.06109;-0.87929;0.172678;0.231807;2.46874;1.32294;0.63673;
-5.35466;1.98444;5.06638;-0.881104;0.172512;0.228861;2.47249;1.32416;0.63438;
-5.3568;1.98526;5.07104;-0.881098;0.172902;0.226806;2.4759;1.3252;0.633813;
-5.36825;1.98584;5.07457;-0.882646;0.172698;0.224344;2.48023;1.32716;0.633025;
-5.37879;1.98571;5.07696;-0.884862;0.171506;0.221668;2.48466;1.32835;0.632845;
-5.38061;1.98779;5.08502;-0.881932;0.172902;0.219935;2.49297;1.3312;0.635569;
-5.38088;1.99009;5.093;-0.879456;0.173983;0.217873;2.49982;1.33371;0.636404;
-5.37921;1.99563;5.10305;-0.876065;0.174187;0.215434;2.50634;1.33638;0.636992;
-5.39136;1.99495;5.10286;-0.881559;0.172628;0.21276;2.50728;1.33618;0.633786;
-5.39469;1.99741;5.10883;-0.880984;0.173024;0.210417;2.51289;1.3387;0.634641;
-5.39508;2.00037;5.11616;-0.878711;0.173301;0.208074;2.51836;1.34061;0.634842;
-5.40616;2.00105;5.12081;-0.880556;0.173157;0.205429;2.52221;1.34162;0.632872;
-5.41336;2.00153;5.12492;-0.882292;0.172505;0.202914;2.52612;1.3427;0.63158;
-5.42012;2.00336;5.13303;-0.881493;0.172532;0.200994;2.53083;1.34532;0.629208;
-5.42279;2.00506;5.13991;-0.881154;0.172539;0.198406;2.5341;1.34649;0.629132;
-5.44402;2.00179;5.13917;-0.888143;0.170792;0.195284;2.53617;1.34666;0.625176;
-5.44331;2.00313;5.14606;-0.886142;0.172204;0.193717;2.54306;1.34872;0.626777;
-5.45573;2.00143;5.14634;-0.88844;0.171132;0.191217;2.54662;1.34964;0.624846;
-5.46164;2.00262;5.15342;-0.885865;0.171322;0.189049;2.5523;1.35219;0.624886;
-5.46476;2.00434;5.16;-0.884531;0.171706;0.18683;2.55479;1.35414;0.626118;
-5.4617;2.00692;5.17124;-0.880772;0.173686;0.18559;2.56244;1.35756;0.629093;
-5.4687;2.0085;5.17734;-0.87988;0.173773;0.183377;2.56873;1.35891;0.628882;
-5.47287;2.0093;5.1814;-0.879898;0.174403;0.183039;2.57428;1.36102;0.629874;
-5.48091;2.00848;5.18649;-0.880329;0.174082;0.18026;2.57797;1.36173;0.6295;
-5.48693;2.00988;5.19251;-0.880968;0.173933;0.178154;2.58339;1.36257;0.629533;
-5.49372;2.01046;5.1965;-0.880184;0.173939;0.175435;2.58823;1.36467;0.630037;
-5.49782;2.01194;5.20216;-0.878956;0.174281;0.173243;2.59316;1.36642;0.63091;
-5.49889;2.01373;5.21104;-0.877671;0.176239;0.172433;2.59939;1.36841;0.631761;
-5.50794;2.01356;5.21299;-0.880181;0.175721;0.169899;2.60302;1.36981;0.628538;
-5.51354;2.01401;5.21686;-0.881092;0.175231;0.167799;2.60698;1.3714;0.626106;
-5.51711;2.01554;5.22166;-0.878728;0.175503;0.165553;2.61254;1.37334;0.626821;
-5.52379;2.01562;5.22554;-0.879553;0.175452;0.163196;2.61735;1.37543;0.626456;
-5.53498;2.0138;5.22598;-0.883851;0.174226;0.16049;2.62082;1.37656;0.626239;
-5.53995;2.0159;5.23292;-0.880702;0.175282;0.158518;2.62582;1.37823;0.627092;
-5.54459;2.01752;5.23907;-0.879835;0.175856;0.156481;2.63114;1.38035;0.627854;
-5.54673;2.02041;5.24657;-0.879017;0.176591;0.154043;2.63776;1.38181;0.628861;
-5.53991;2.02443;5.25814;-0.872687;0.177593;0.152537;2.64593;1.38319;0.629615;
-5.54675;2.02373;5.25799;-0.878557;0.177497;0.14938;2.6473;1.3829;0.625312;
-5.55625;2.0233;5.26077;-0.880873;0.176816;0.146496;2.64958;1.38367;0.623523;
-5.56699;2.02326;5.26264;-0.883213;0.176082;0.143904;2.65233;1.3841;0.621118;
-5.56531;2.02396;5.27121;-0.879398;0.176793;0.141682;2.65827;1.38655;0.621613;
-5.57156;2.02255;5.27273;-0.882794;0.176205;0.139099;2.66146;1.38801;0.619959;
-5.57308;2.02332;5.27907;-0.880344;0.177273;0.137805;2.66699;1.39056;0.621146;
-5.58139;2.02221;5.28211;-0.882643;0.176516;0.135177;2.67033;1.39119;0.619506;
-5.5901;2.02318;5.28707;-0.88281;0.176537;0.132744;2.67527;1.39307;0.620037;
-5.59429;2.02301;5.292;-0.883748;0.176691;0.130443;2.68038;1.39446;0.620393;
-5.59719;2.024;5.29757;-0.883658;0.176583;0.127898;2.68354;1.39615;0.619853;
-5.59712;2.02458;5.30138;-0.883949;0.175746;0.125085;2.68768;1.39728;0.620069;
-5.61083;2.02224;5.29998;-0.8867;0.175251;0.12222;2.69036;1.35605;0.618949;
-5.61192;2.02478;5.30816;-0.88402;0.176136;0.120442;2.69627;1.35878;0.620596;
-5.61763;2.026;5.31415;-0.883477;0.177042;0.118395;2.70139;1.36146;0.620342;
-5.61607;2.02942;5.3248;-0.879384;0.178422;0.116747;2.70755;1.36407;0.621313;
-5.62113;2.02998;5.32964;-0.879652;0.178684;0.114726;2.71165;1.36553;0.620749;
-5.62383;2.03098;5.33448;-0.878795;0.178983;0.112173;2.71633;1.367;0.619309;
-5.6311;2.02988;5.33558;-0.880909;0.178439;0.109038;2.71913;1.36767;0.617518;
-5.64345;2.03209;5.34067;-0.881717;0.177274;0.1066;2.72422;1.36906;0.619334;
-5.6505;2.03273;5.34381;-0.88135;0.177744;0.104608;2.72887;1.3708;0.61873;
-5.64557;2.03601;5.35151;-0.879015;0.179623;0.103597;2.73583;1.37431;0.622306;
-5.6506;2.03733;5.35953;-0.876264;0.17973;0.101465;2.74059;1.37624;0.621541;
-5.65616;2.03743;5.36322;-0.877678;0.179927;0.0998774;2.74573;1.37889;0.62069;
-5.6644;2.03682;5.36643;-0.878117;0.180242;0.0978267;2.74951;1.38028;0.62034;
-5.67197;2.0365;5.37077;-0.879556;0.179809;0.0956234;2.75342;1.3817;0.618862;
-5.67919;2.03675;5.3743;-0.879709;0.180058;0.0936407;2.75815;1.3838;0.618983;
-5.68124;2.03821;5.37845;-0.877255;0.181182;0.0921866;2.76246;1.38509;0.618225;
-5.69126;2.03702;5.37869;-0.878767;0.180598;0.0896869;2.7663;1.3861;0.617358;
-5.69133;2.03898;5.38512;-0.876892;0.181268;0.0879495;2.77246;1.3885;0.617331;
-5.68489;2.04428;5.39398;-0.871962;0.182643;0.0864742;2.77972;1.39149;0.619265;
-5.69214;2.04361;5.39783;-0.875437;0.181972;0.0839244;2.78224;1.39207;0.616787;
-5.70111;2.04311;5.40032;-0.876284;0.181397;0.0814593;2.7856;1.39302;0.613752;
-5.70296;2.04364;5.40533;-0.876049;0.182001;0.0797605;2.78976;1.39409;0.612164;
-5.70938;2.04298;5.40811;-0.87863;0.18199;0.077604;2.79348;1.39528;0.611631;
-5.71888;2.04369;5.41062;-0.879738;0.181833;0.0751035;2.79765;1.39683;0.611447;
-5.72211;2.04373;5.41535;-0.879867;0.182571;0.0735474;2.80374;1.39893;0.611378;
-5.72673;2.04414;5.42025;-0.879145;0.182848;0.0716094;2.80841;1.40009;0.611842;
-5.72982;2.04501;5.42482;-0.87901;0.182749;0.0693718;2.81211;1.40172;0.611284;
-5.73703;2.04557;5.42988;-0.878039;0.182126;0.067184;2.81639;1.40343;0.610137;
-5.74342;2.0466;5.4346;-0.877983;0.18234;0.0648715;2.82079;1.40526;0.609712;
-5.75067;2.04715;5.4387;-0.877457;0.182138;0.0627926;2.82573;1.40674;0.609917;
-5.75831;2.04722;5.44008;-0.880272;0.181547;0.0606023;2.82866;1.40823;0.6091;
-5.7649;2.04788;5.44303;-0.880708;0.181689;0.0582234;2.83234;1.40988;0.608422;
-5.76469;2.05045;5.44936;-0.87782;0.183038;0.0568105;2.83916;1.41264;0.610277;
-5.77768;2.05079;5.44932;-0.88256;0.181621;0.0543424;2.84189;1.41289;0.608613;
-5.78019;2.0524;5.45408;-0.880337;0.182559;0.0530428;2.84827;1.41588;0.610434;
-5.78046;2.05442;5.46234;-0.875752;0.183524;0.0515565;2.85492;1.41869;0.612381;
-5.78349;2.05469;5.46594;-0.876084;0.183217;0.0494843;2.85954;1.42031;0.612279;
-5.7874;2.05612;5.47053;-0.875213;0.183277;0.0472753;2.86428;1.42224;0.611519;
-5.79042;2.05641;5.47386;-0.87503;0.183402;0.0448464;2.8696;1.42391;0.610944;
-5.79003;2.05828;5.48107;-0.871232;0.184614;0.0430033;2.87648;1.42595;0.612045;
-5.79253;2.06122;5.48504;-0.870363;0.185095;0.0410318;2.88059;1.42781;0.611947;
-5.79942;2.06121;5.48687;-0.872061;0.183595;0.0382287;2.8831;1.42877;0.610664;
-5.80718;2.06109;5.4892;-0.874762;0.1832;0.0359431;2.88509;1.42963;0.608708;
-5.81593;2.06013;5.49419;-0.874859;0.183105;0.0338759;2.88963;1.43118;0.608477;
-5.8267;2.05907;5.49779;-0.875185;0.182528;0.0310771;2.89325;1.43181;0.608041;
-5.83245;2.05997;5.50095;-0.877894;0.181693;0.0286962;2.89847;1.43327;0.60873;
-5.84308;2.05953;5.50269;-0.880808;0.181919;0.026795;2.90352;1.43482;0.608516;
-5.83972;2.06168;5.51084;-0.876568;0.183379;0.0253162;2.91024;1.43707;0.610658;
-5.84286;2.0623;5.51663;-0.874823;0.18402;0.0242212;2.91563;1.43867;0.611202;
-5.8437;2.06384;5.52317;-0.871863;0.185323;0.0226632;2.92118;1.44091;0.611651;
-5.85146;2.06431;5.52582;-0.873803;0.18515;0.0203223;2.92446;1.44183;0.61035;
-5.85576;2.0656;5.52905;-0.870546;0.184979;0.017775;2.92878;1.44289;0.609281;
-5.86225;2.06362;5.52896;-0.873314;0.18421;0.0152896;2.932;1.44378;0.607119;
-5.85869;2.06169;5.53224;-0.873283;0.184303;0.0133064;2.93762;1.44635;0.607972;
-5.85895;2.06334;5.53762;-0.872384;0.184174;0.0121977;2.94256;1.44815;0.609525;
-5.86584;2.06359;5.54171;-0.873354;0.183783;0.00996598;2.9466;1.44946;0.608757;
-5.88486;2.06153;5.53911;-0.875506;0.183136;0.00790467;2.9489;1.45027;0.60728;
-5.88561;2.06393;5.54692;-0.872737;0.184221;0.00635285;2.95531;1.4528;0.608944;
-5.88712;2.06569;5.55211;-0.870865;0.184482;0.00443705;2.96059;1.45507;0.610405;
-5.887;2.06691;5.55764;-0.871528;0.184157;0.00215319;2.96502;1.45643;0.609542;
-5.89748;2.06658;5.55806;-0.873588;0.183734;-0.000189159;2.9683;1.45653;0.606536;
-5.89745;2.06868;5.56503;-0.871765;0.18462;-0.00156888;2.97382;1.45899;0.607284;
-5.90385;2.06931;5.56882;-0.873724;0.184495;-0.00339518;2.97762;1.46045;0.606933;
-5.90528;2.06977;5.57181;-0.873366;0.184953;-0.00555679;2.98214;1.46212;0.607009;
-5.91164;2.07045;5.5752;-0.875765;0.184842;-0.00765119;2.98642;1.46348;0.60655;
-5.92179;2.0701;5.57598;-0.877448;0.185224;-0.00954225;2.98999;1.4646;0.606163;
-5.9219;2.0708;5.58076;-0.874843;0.185863;-0.0109778;2.99602;1.46598;0.607164;
-5.92114;2.07291;5.58656;-0.873263;0.186028;-0.0125193;3.00152;1.4681;0.607934;
-5.93221;2.07537;5.593;-0.873095;0.18584;-0.0150433;3.0064;1.4705;0.608024;
-5.93663;2.07626;5.59593;-0.873952;0.185862;-0.0166249;3.01135;1.47268;0.607616;
-5.94323;2.07719;5.60018;-0.873326;0.185961;-0.0177095;3.01581;1.47442;0.607131;
-5.94219;2.07884;5.60491;-0.871844;0.185759;-0.0199158;3.02058;1.47616;0.607369;
-5.94712;2.07896;5.6078;-0.873831;0.185643;-0.0213968;3.02414;1.47773;0.605772;
-5.95484;2.07884;5.6091;-0.877962;0.185542;-0.0238223;3.02677;1.47901;0.604476;
-5.95782;2.07968;5.61406;-0.877362;0.185389;-0.0257539;3.03124;1.48071;0.604573;
-5.96181;2.08015;5.6192;-0.876178;0.185867;-0.027278;3.03518;1.4821;0.603703;
-5.9666;2.0811;5.62179;-0.87589;0.186459;-0.0296143;3.03912;1.48378;0.603579;
-5.97473;2.08242;5.62544;-0.876205;0.186087;-0.0320424;3.04347;1.48524;0.604603;
-5.97947;2.08235;5.62677;-0.877043;0.185959;-0.0343482;3.04763;1.4861;0.604154;
-5.98554;2.08221;5.63107;-0.877427;0.185741;-0.0362332;3.05239;1.48812;0.603637;
-5.99268;2.0832;5.63785;-0.875784;0.186238;-0.038038;3.05618;1.48906;0.603762;
-5.99554;2.08467;5.64486;-0.875314;0.186483;-0.0396533;3.06146;1.49101;0.60477;
-6.00245;2.08568;5.64468;-0.878402;0.186593;-0.0415522;3.06546;1.49317;0.605458;
-6.00287;2.08797;5.64987;-0.876071;0.187176;-0.04288;3.0717;1.49481;0.606835;
-6.01081;2.08706;5.65074;-0.877441;0.186831;-0.0450859;3.07527;1.49539;0.604606;
-6.01352;2.08821;5.65558;-0.876794;0.187469;-0.0468962;3.08005;1.4971;0.605372;
-6.02063;2.08732;5.65791;-0.878594;0.187663;-0.0491189;3.08299;1.49859;0.604864;
-6.02412;2.08775;5.66221;-0.877938;0.188072;-0.0500887;3.08806;1.50068;0.605224;
-6.02348;2.08892;5.6679;-0.876097;0.189329;-0.0509561;3.0937;1.50193;0.60582;
-6.0361;2.08899;5.6671;-0.879289;0.188152;-0.0544476;3.09643;1.50254;0.605238;
-6.03539;2.09005;5.67264;-0.876447;0.189092;-0.0557549;3.10242;1.50502;0.607404;
-6.03502;2.09178;5.67939;-0.873595;0.189896;-0.0569784;3.10784;1.50708;0.608077;
-6.03971;2.09129;5.68207;-0.873953;0.189522;-0.0590992;3.11097;1.50802;0.605963;
-6.04403;2.0911;5.68559;-0.87532;0.18981;-0.0610072;3.11388;1.50961;0.60605;
-6.04093;2.09119;5.68842;-0.875487;0.190115;-0.0620903;3.11874;1.51057;0.605654;
-6.04988;2.09221;5.68818;-0.877355;0.18922;-0.0643165;3.12113;1.51103;0.604329;
-6.0517;2.09365;5.69467;-0.874744;0.189355;-0.0658742;3.12696;1.513;0.604834;
-6.0556;2.09362;5.69571;-0.876251;0.189198;-0.0683156;3.13086;1.51396;0.602942;
-6.05724;2.09523;5.7013;-0.874324;0.190544;-0.0698705;3.13548;1.51566;0.602611;
-6.06182;2.09622;5.7067;-0.873969;0.190769;-0.0716501;3.1398;1.51772;0.602102;
-6.06152;2.09766;5.71111;-0.871624;0.191322;-0.0733526;3.1447;1.51947;0.6019;
-6.06132;2.09867;5.71565;-0.870717;0.19205;-0.0747242;3.15038;1.52095;0.602879;
-6.06318;2.09916;5.71756;-0.869391;0.1918;-0.0768672;3.15437;1.52321;0.602896;
-6.07384;2.09821;5.71677;-0.873586;0.190677;-0.0794759;3.15626;1.52332;0.599702;
-6.08381;2.09829;5.71809;-0.874463;0.189989;-0.0817507;3.16032;1.52478;0.598806;
-6.0845;2.09877;5.7217;-0.875833;0.190026;-0.0834889;3.16582;1.52677;0.598948;
-6.09026;2.0986;5.72304;-0.877754;0.189482;-0.0859052;3.16932;1.52801;0.597984;
-6.08671;2.10049;5.73053;-0.872604;0.190846;-0.0870462;3.17634;1.53075;0.600193;
-6.09444;2.09966;5.7303;-0.875673;0.189822;-0.0891695;3.17866;1.53141;0.597438;
-6.09515;2.10112;5.73298;-0.876261;0.190013;-0.0907712;3.18193;1.53238;0.59714;
-6.09922;2.10274;5.73916;-0.874181;0.189985;-0.0925815;3.18678;1.53383;0.596781;
-6.10246;2.10351;5.7433;-0.874756;0.190893;-0.0939805;3.19116;1.53501;0.596697;
-6.10924;2.10415;5.74513;-0.876452;0.190997;-0.0952712;3.19524;1.53574;0.596083;
-6.11223;2.1045;5.74885;-0.877814;0.191637;-0.097137;3.19954;1.53703;0.596042;
-6.1183;2.10522;5.75304;-0.878993;0.191361;-0.0989438;3.20327;1.53813;0.595108;
-6.11895;2.10543;5.75677;-0.877421;0.191414;-0.100755;3.2061;1.53876;0.593478;
-6.12133;2.10636;5.76025;-0.876469;0.191665;-0.102279;3.20984;1.5404;0.593627;
-6.12641;2.10681;5.76215;-0.877123;0.191714;-0.103676;3.21325;1.54123;0.592709;
-6.13273;2.1068;5.76671;-0.877631;0.192171;-0.110646;3.21762;1.54206;0.591357;
-6.13745;2.10604;5.76977;-0.878649;0.19138;-0.112665;3.22091;1.54228;0.590662;
-6.14179;2.10723;5.77462;-0.877452;0.191523;-0.114623;3.22508;1.54352;0.590565;
-6.14676;2.10897;5.77647;-0.878986;0.191522;-0.116604;3.22704;1.54452;0.590539;
-6.14724;2.11041;5.78184;-0.877741;0.192114;-0.118131;3.23186;1.54614;0.591718;
-6.16179;2.11202;5.78721;-0.880343;0.193924;-0.119386;3.23686;1.5469;0.590282;
-6.16062;2.11413;5.79348;-0.875969;0.195249;-0.12068;3.24323;1.54962;0.591096;
-6.15552;2.11711;5.80027;-0.87378;0.196593;-0.121585;3.24905;1.55245;0.593323;
-6.15759;2.11853;5.80569;-0.872717;0.196654;-0.123794;3.25175;1.55317;0.591922;
-6.16836;2.11774;5.80498;-0.876962;0.1954;-0.125825;3.25314;1.55264;0.588971;
-6.17944;2.1165;5.80232;-0.880959;0.194169;-0.128981;3.25501;1.55233;0.585679;
-6.18367;2.11753;5.80444;-0.879548;0.19549;-0.130299;3.25987;1.55393;0.586372;
-6.1831;2.11916;5.81051;-0.876831;0.196394;-0.131633;3.26576;1.55593;0.588125;
-6.18676;2.12031;5.81429;-0.875625;0.197081;-0.133342;3.27142;1.55725;0.587793;
-6.19927;2.11925;5.81329;-0.88082;0.196046;-0.1359;3.27283;1.557;0.584635;
-6.1975;2.12148;5.82023;-0.877295;0.196832;-0.136896;3.27904;1.55953;0.587209;
-6.20273;2.12107;5.82109;-0.878953;0.196846;-0.138686;3.28188;1.5605;0.586451;
-6.20999;2.12105;5.82233;-0.87947;0.196434;-0.140617;3.28376;1.56129;0.585658;
-6.20932;2.12289;5.82691;-0.876435;0.196936;-0.141918;3.28941;1.5631;0.586682;
-6.21323;2.12286;5.82872;-0.87873;0.196757;-0.143611;3.29375;1.56411;0.585812;
-6.21722;2.12481;5.83302;-0.879449;0.196567;-0.145204;3.29758;1.56554;0.585842;
-6.22553;2.12293;5.83296;-0.880982;0.196087;-0.147037;3.30152;1.56726;0.586365;
-6.22816;2.12298;5.83374;-0.882198;0.196791;-0.148331;3.30448;1.56807;0.586622;
-6.22835;2.12331;5.83751;-0.88027;0.197182;-0.149778;3.30912;1.56975;0.587293;
-6.23444;2.12352;5.83589;-0.882075;0.196854;-0.151371;3.31086;1.56968;0.585664;
-6.23345;2.12549;5.84158;-0.878767;0.197991;-0.152594;3.31627;1.5719;0.587282;
-6.23213;2.12705;5.84506;-0.876283;0.198708;-0.15304;3.3214;1.57363;0.587982;
-6.23881;2.12773;5.84717;-0.876675;0.198605;-0.154828;3.32555;1.57481;0.587658;
-6.23746;2.12655;5.84883;-0.875885;0.198693;-0.15697;3.32893;1.57602;0.587291;
-6.24874;2.12415;5.84878;-0.877611;0.197702;-0.159045;3.33212;1.57638;0.585217;
-6.2421;2.12622;5.85467;-0.874639;0.198913;-0.159642;3.33854;1.57825;0.588549;
-6.24817;2.12561;5.85615;-0.875817;0.198426;-0.161455;3.34152;1.57883;0.587654;
-6.25487;2.12439;5.85741;-0.876706;0.198213;-0.163064;3.34447;1.5793;0.586867;
-6.25207;2.12662;5.86309;-0.873875;0.199548;-0.163765;3.35027;1.58137;0.588483;
-6.25042;2.12905;5.86948;-0.87089;0.199587;-0.164527;3.35621;1.58436;0.589523;
-6.25749;2.12931;5.87026;-0.873005;0.199082;-0.166555;3.35942;1.58516;0.587946;
-6.26123;2.12911;5.871;-0.872639;0.19851;-0.168616;3.3623;1.58645;0.58729;
-6.26814;2.12929;5.87167;-0.874941;0.19751;-0.170503;3.36479;1.58701;0.585413;
-6.27187;2.12956;5.874;-0.875217;0.197759;-0.172266;3.36864;1.58792;0.5852;
-6.28531;2.12812;5.87179;-0.879824;0.196381;-0.174283;3.36966;1.58911;0.583624;
-6.29019;2.12898;5.87569;-0.879671;0.196179;-0.176112;3.37422;1.59179;0.584285;
-6.29108;2.12999;5.88207;-0.877652;0.196654;-0.177316;3.37892;1.5935;0.584789;
-6.29821;2.13004;5.88466;-0.876794;0.19687;-0.178723;3.38236;1.59444;0.583912;
-6.29534;2.13127;5.88982;-0.872569;0.1981;-0.179907;3.38765;1.59651;0.585522;
-6.29053;2.13366;5.89756;-0.870836;0.198957;-0.180325;3.39209;1.59859;0.586297;
-6.3016;2.13016;5.89476;-0.875775;0.197533;-0.182658;3.39302;1.59745;0.582143;
-6.30334;2.13168;5.89816;-0.874396;0.198191;-0.183833;3.3978;1.59872;0.582216;
-6.30348;2.13274;5.90261;-0.872619;0.199005;-0.185345;3.40196;1.60022;0.582956;
-6.30707;2.13393;5.90573;-0.872137;0.198806;-0.186806;3.40588;1.60173;0.582779;
-6.31058;2.13429;5.90887;-0.872012;0.198789;-0.188322;3.40976;1.60259;0.581805;
-6.3189;2.13379;5.90984;-0.873406;0.19837;-0.190106;3.41304;1.6036;0.581493;
-6.32042;2.13465;5.9142;-0.872778;0.198598;-0.19149;3.41712;1.60486;0.581068;
-6.32702;2.13404;5.91621;-0.874695;0.198235;-0.193277;3.42001;1.60569;0.580032;
-6.32729;2.13478;5.91863;-0.873169;0.198644;-0.194792;3.42469;1.6072;0.58109;
-6.3301;2.13551;5.92078;-0.873554;0.198351;-0.196477;3.42796;1.60918;0.581287;
-6.33538;2.1365;5.92235;-0.873436;0.198382;-0.198139;3.43099;1.6101;0.581405;
-6.34257;2.13712;5.92481;-0.874171;0.198427;-0.199876;3.43436;1.61123;0.580617;
-6.34109;2.13847;5.93032;-0.871996;0.198716;-0.200941;3.43951;1.61288;0.581386;
-6.34157;2.13978;5.93397;-0.872299;0.198974;-0.20262;3.4433;1.61437;0.581366;
-6.35957;2.13652;5.92984;-0.878224;0.197249;-0.20513;3.44401;1.61417;0.57727;
-6.36683;2.13667;5.93363;-0.876258;0.197382;-0.206407;3.44911;1.61515;0.580004;
-6.36406;2.1379;5.93748;-0.873316;0.198365;-0.207326;3.45464;1.61641;0.582124;
-6.36343;2.13942;5.94223;-0.87107;0.19858;-0.208317;3.45932;1.61811;0.583316;
-6.3615;2.1412;5.94829;-0.86682;0.199622;-0.209671;3.46498;1.62021;0.584952;
-6.35988;2.1418;5.95046;-0.867874;0.19918;-0.210865;3.46972;1.62128;0.583709;
-6.36417;2.14194;5.95154;-0.869044;0.198905;-0.21265;3.47325;1.62235;0.58331;
-6.36993;2.14256;5.95312;-0.869568;0.198696;-0.214097;3.47648;1.62305;0.582505;
-6.37487;2.1435;5.95421;-0.869651;0.1985;-0.215083;3.47946;1.62385;0.584187;
-6.37849;2.1445;5.95715;-0.869713;0.198899;-0.216205;3.48438;1.62527;0.585728;
-6.38657;2.14411;5.95797;-0.871609;0.198331;-0.217882;3.48688;1.62585;0.584535;
-6.38859;2.14669;5.9627;-0.869782;0.198514;-0.219828;3.49363;1.62819;0.585596;
-6.38385;2.14788;5.96616;-0.866891;0.199637;-0.220769;3.49993;1.63054;0.58859;
-6.39191;2.14708;5.96689;-0.868688;0.198986;-0.222757;3.50189;1.63088;0.586411;
-6.39766;2.1475;5.96929;-0.86959;0.199011;-0.224424;3.50432;1.6317;0.585455;
-6.4041;2.14699;5.97071;-0.870437;0.197827;-0.225718;3.50595;1.63206;0.583562;
-6.40209;2.14925;5.97733;-0.868246;0.198182;-0.22746;3.51086;1.63367;0.586259;
-6.40422;2.14985;5.97899;-0.866746;0.198431;-0.228371;3.5162;1.63427;0.585693;
-6.40932;2.14909;5.97902;-0.869013;0.197687;-0.230458;3.51856;1.63464;0.584284;
-6.41287;2.14936;5.98106;-0.869292;0.19714;-0.231832;3.52208;1.63597;0.584618;
-6.41108;2.15002;5.98314;-0.8688;0.197066;-0.233429;3.52642;1.63681;0.585318;
-6.41528;2.14995;5.98383;-0.869117;0.196578;-0.235308;3.52874;1.63714;0.582744;
-6.41771;2.1501;5.9867;-0.869754;0.196773;-0.236625;3.53282;1.63822;0.582436;
-6.42265;2.14972;5.98798;-0.871656;0.196954;-0.238045;3.53564;1.63848;0.580679;
-6.42438;2.15059;5.99127;-0.871159;0.196554;-0.239528;3.54054;1.6394;0.580494;
-6.42707;2.15126;5.99289;-0.871923;0.196422;-0.24122;3.54374;1.63987;0.580803;
-6.42993;2.15036;5.9954;-0.87161;0.195918;-0.242722;3.54637;1.63971;0.580825;
-6.43763;2.1491;5.99401;-0.874042;0.195492;-0.244683;3.54879;1.6406;0.580104;
-6.43649;2.15228;6.00127;-0.871654;0.197197;-0.245558;3.55419;1.64319;0.583687;
-6.44025;2.15171;6.00395;-0.872571;0.196153;-0.247608;3.5578;1.64436;0.583388;
-6.44196;2.15148;6.0071;-0.87235;0.195986;-0.249736;3.56146;1.64565;0.584111;
-6.43798;2.15385;6.01226;-0.872605;0.196443;-0.251376;3.56648;1.64719;0.585133;
-6.45055;2.15263;6.00921;-0.875014;0.195899;-0.253126;3.56857;1.64661;0.584219;
-6.46116;2.15187;6.00625;-0.8791;0.194666;-0.255406;3.57032;1.64672;0.58169;
-6.46323;2.15284;6.0097;-0.8765;0.195519;-0.256172;3.57486;1.64872;0.582776;
-6.46098;2.15438;6.01554;-0.872815;0.196701;-0.256441;3.58118;1.65082;0.584767;
-6.46379;2.15511;6.01706;-0.873777;0.196335;-0.257946;3.58417;1.65149;0.584135;
-6.46113;2.15706;6.02089;-0.872908;0.196613;-0.258973;3.58867;1.65357;0.585643;
-6.46046;2.15841;6.02479;-0.871059;0.196392;-0.260282;3.59212;1.65439;0.585208;
-6.4671;2.15821;6.02463;-0.873486;0.195727;-0.262407;3.59291;1.65481;0.58331;
-6.46527;2.15914;6.02929;-0.872936;0.195971;-0.264106;3.59823;1.65578;0.58394;
-6.47956;2.1564;6.02489;-0.880354;0.193366;-0.266534;3.60023;1.65539;0.581121;
-6.47918;2.15782;6.03071;-0.877797;0.194093;-0.267165;3.60542;1.6572;0.582449;
-6.47392;2.15998;6.03764;-0.873189;0.194916;-0.268317;3.6109;1.6591;0.583927;
-6.47997;2.16004;6.03985;-0.87469;0.194455;-0.269968;3.61366;1.6597;0.582345;
-6.48697;2.15926;6.03926;-0.878236;0.193573;-0.271588;3.61449;1.65991;0.581879;
-6.48448;2.161;6.04336;-0.876132;0.19388;-0.272468;3.61929;1.66129;0.582491;
-6.48341;2.16256;6.04819;-0.875164;0.194066;-0.273443;3.62291;1.66218;0.582453;
-6.49095;2.16086;6.04638;-0.879365;0.19272;-0.275164;3.62458;1.66186;0.579517;
-6.49279;2.16108;6.04709;-0.879618;0.192729;-0.275594;3.62795;1.66279;0.580349;
-6.48774;2.16347;6.05352;-0.875266;0.193688;-0.276006;3.63448;1.66482;0.5815;
-6.49605;2.16269;6.05327;-0.878853;0.19253;-0.2783;3.6362;1.66484;0.579065;
-6.50494;2.16256;6.05386;-0.880045;0.191607;-0.280051;3.6372;1.66448;0.575617;
-6.51005;2.16388;6.05794;-0.878407;0.19194;-0.281393;3.64152;1.66648;0.576805;
-6.5104;2.16543;6.06367;-0.875912;0.192627;-0.282625;3.64648;1.66799;0.578224;
-6.51541;2.16552;6.06518;-0.87883;0.192565;-0.284353;3.64755;1.66682;0.576638;
-6.51906;2.16616;6.06788;-0.879051;0.192632;-0.286038;3.65107;1.66759;0.576702;
-6.52805;2.16576;6.06893;-0.880758;0.191841;-0.288367;3.65239;1.66787;0.57542;
-6.527;2.16721;6.07391;-0.878523;0.192574;-0.289282;3.65726;1.66957;0.576671;
-6.52527;2.1695;6.0779;-0.878495;0.193385;-0.290067;3.66314;1.67155;0.57785;
-6.52434;2.1703;6.08263;-0.876701;0.194402;-0.291182;3.6684;1.67297;0.578847;
-6.53008;2.16919;6.08202;-0.880365;0.193469;-0.293474;3.66995;1.67283;0.577729;
-6.53337;2.16978;6.08534;-0.879323;0.193875;-0.295709;3.67282;1.67339;0.577463;
-6.54381;2.17022;6.08473;-0.882616;0.193288;-0.297198;3.67475;1.67477;0.576591;
-6.55221;2.17072;6.08446;-0.88329;0.193198;-0.298723;3.67733;1.67532;0.575816;
-6.54965;2.17234;6.08938;-0.880262;0.19455;-0.299077;3.68315;1.67721;0.578031;
-6.54971;2.1744;6.09374;-0.879808;0.195171;-0.30026;3.68856;1.67851;0.578926;
-6.55014;2.17512;6.09625;-0.879792;0.195698;-0.30111;3.69305;1.68006;0.579277;
-6.55639;2.17425;6.09501;-0.882542;0.194673;-0.302698;3.69544;1.67989;0.577127;
-6.55094;2.17506;6.10098;-0.879536;0.195399;-0.303218;3.70058;1.68132;0.578462;
-6.55872;2.17507;6.1015;-0.881375;0.194718;-0.304856;3.70268;1.68165;0.575984;
-6.5625;2.17475;6.10245;-0.881895;0.194045;-0.306252;3.70499;1.68213;0.574811;
-6.56627;2.17487;6.10527;-0.881851;0.194081;-0.306528;3.70836;1.68311;0.574543;
-6.57436;2.17489;6.10783;-0.882688;0.193926;-0.307862;3.71196;1.68387;0.57407;
-6.57586;2.17638;6.11456;-0.882015;0.194023;-0.309176;3.71581;1.68558;0.57481;
-6.58004;2.17537;6.11728;-0.881387;0.19393;-0.310869;3.7183;1.68627;0.574246;
-6.57907;2.17516;6.12205;-0.881432;0.193542;-0.312312;3.72263;1.68711;0.575127;
-6.57632;2.17663;6.12625;-0.879646;0.19453;-0.313249;3.72816;1.68846;0.576159;
-6.58324;2.17605;6.12516;-0.881239;0.193648;-0.315072;3.72949;1.68828;0.574526;
-6.59276;2.17561;6.1248;-0.882421;0.193037;-0.316941;3.73224;1.68801;0.573047;
-6.59554;2.17731;6.1288;-0.881968;0.19338;-0.318663;3.73435;1.68913;0.573084;
-6.59146;2.17867;6.1341;-0.879765;0.194376;-0.319004;3.7394;1.69148;0.575337;
-6.59199;2.17968;6.13611;-0.880527;0.194448;-0.320325;3.74196;1.69246;0.574875;
-6.59493;2.17933;6.13772;-0.882912;0.193875;-0.322433;3.74398;1.69275;0.57387;
-6.59954;2.17907;6.13827;-0.88467;0.193383;-0.323875;3.74663;1.69341;0.573306;
-6.6103;2.17864;6.13712;-0.887314;0.192688;-0.325965;3.74776;1.69394;0.572233;
-6.60923;2.17949;6.14174;-0.884308;0.193319;-0.326874;3.75271;1.69578;0.575108;
-6.60995;2.17904;6.1443;-0.885163;0.193435;-0.328027;3.75557;1.69667;0.575669;
-6.61501;2.17879;6.14506;-0.885445;0.193451;-0.329208;3.75862;1.69757;0.574866;
-6.61539;2.18024;6.148;-0.884711;0.19382;-0.330305;3.76269;1.6989;0.576356;
-6.61857;2.18062;6.14962;-0.883854;0.193905;-0.331921;3.76538;1.69941;0.576381;
-6.61597;2.18192;6.15377;-0.882017;0.194796;-0.331529;3.77106;1.70138;0.577319;
-6.62066;2.17991;6.152;-0.884971;0.193798;-0.333426;3.77217;1.70114;0.575876;
-6.62563;2.17886;6.15159;-0.88659;0.193155;-0.335284;3.77392;1.70129;0.574694;
-6.62806;2.17942;6.15517;-0.885791;0.193101;-0.336754;3.77696;1.70206;0.574867;
-6.63095;2.17966;6.15703;-0.885002;0.192825;-0.338932;3.78111;1.70312;0.575306;
-6.63129;2.17961;6.15761;-0.884623;0.19297;-0.340324;3.78408;1.70367;0.575325;
-6.62623;2.18119;6.16148;-0.882655;0.193869;-0.34106;3.7877;1.70526;0.576997;
-6.63302;2.18068;6.15917;-0.885082;0.193549;-0.342628;3.78921;1.70574;0.576089;
-6.63768;2.17996;6.16054;-0.884158;0.192578;-0.344295;3.79233;1.70652;0.576706;
-6.64107;2.1805;6.16567;-0.884153;0.192576;-0.344778;3.79733;1.70746;0.578099;
-6.65342;2.17938;6.16371;-0.887867;0.19104;-0.346929;3.79852;1.70762;0.577673;
-6.65164;2.18095;6.16897;-0.884865;0.191772;-0.347678;3.80351;1.70894;0.579601;
-6.65244;2.18132;6.16953;-0.885739;0.192952;-0.347979;3.80522;1.71063;0.579721;
-6.65637;2.18077;6.16866;-0.886966;0.19347;-0.348812;3.80741;1.71102;0.578718;
-6.65834;2.1812;6.17077;-0.886644;0.193962;-0.349688;3.81182;1.71264;0.580256;
-6.65152;2.18161;6.17466;-0.885382;0.195219;-0.350579;3.81659;1.71429;0.582151;
-6.65085;2.18171;6.17697;-0.887054;0.194998;-0.352013;3.81894;1.71465;0.580639;
-6.65048;2.18257;6.18079;-0.888065;0.195396;-0.353274;3.82227;1.7153;0.579991;
-6.65704;2.18291;6.18029;-0.890714;0.194478;-0.355072;3.82418;1.71538;0.57878;
-6.6573;2.18322;6.18302;-0.888996;0.195449;-0.356178;3.82806;1.71624;0.578325;
-6.66105;2.18403;6.18521;-0.888905;0.195002;-0.357192;3.8307;1.71719;0.578548;
-6.66317;2.18504;6.18801;-0.888341;0.195025;-0.358503;3.83374;1.71807;0.578149;
-6.66268;2.18601;6.19254;-0.886134;0.195208;-0.359817;3.83632;1.71851;0.577418;
-6.6708;2.18514;6.1927;-0.889496;0.194302;-0.361338;3.83762;1.71908;0.576419;
-6.66698;2.18705;6.19715;-0.886917;0.195366;-0.362379;3.84206;1.72034;0.576689;
-6.65989;2.18934;6.20155;-0.884165;0.195184;-0.363858;3.84658;1.72147;0.577102;
-6.66804;2.18756;6.19799;-0.889087;0.193873;-0.365941;3.84558;1.72062;0.572825;
-6.67532;2.18704;6.18522;-0.892765;0.192825;-0.367205;3.84628;1.72044;0.570155;
-6.67612;2.18622;6.18466;-0.894555;0.192011;-0.368602;3.84901;1.72018;0.569296;
-6.67653;2.18665;6.18739;-0.895289;0.191348;-0.370211;3.85207;1.72073;0.569744;
-6.67884;2.18702;6.18931;-0.896012;0.191238;-0.371499;3.85444;1.72107;0.569654;
-6.68195;2.18819;6.19084;-0.896916;0.191071;-0.372603;3.85781;1.72169;0.569558;
-6.68171;2.1893;6.19201;-0.898856;0.19106;-0.373202;3.86167;1.72316;0.571751;
-6.68183;2.18846;6.19348;-0.896802;0.191002;-0.374997;3.8633;1.72416;0.571291;
-6.67655;2.19081;6.19779;-0.894063;0.192558;-0.375295;3.86897;1.72595;0.57151;
-6.6854;2.18968;6.19503;-0.897291;0.191106;-0.376866;3.87031;1.72573;0.569846;
-6.69373;2.1906;6.19468;-0.895504;0.191361;-0.378378;3.87471;1.7274;0.567524;
-6.68368;2.19441;6.20506;-0.88771;0.192702;-0.379497;3.87978;1.73151;0.572081;
-6.69389;2.19314;6.20257;-0.890368;0.191682;-0.381526;3.88067;1.73069;0.56962;
-6.69752;2.19351;6.20362;-0.891841;0.191488;-0.382464;3.88369;1.73171;0.568109;
-6.70694;2.19274;6.20111;-0.893229;0.189672;-0.383997;3.88573;1.73194;0.567532;
-6.70249;2.19588;6.20768;-0.889013;0.191219;-0.384863;3.89057;1.7338;0.569195;
-6.71003;2.19463;6.2044;-0.891031;0.190796;-0.386325;3.89203;1.73393;0.567119;
-6.71315;2.19482;6.20528;-0.8907;0.191081;-0.387058;3.89488;1.7353;0.567602;
-6.71292;2.19495;6.20779;-0.890036;0.190746;-0.38815;3.89785;1.73597;0.568162;
-6.71304;2.19718;6.21201;-0.88781;0.191883;-0.387593;3.90224;1.73716;0.569323;
-6.71258;2.19833;6.21742;-0.885678;0.192964;-0.387839;3.90861;1.73865;0.570843;
-6.73181;2.19503;6.20793;-0.893144;0.190671;-0.390054;3.90902;1.73819;0.567179;
-6.72003;2.19653;6.21382;-0.890989;0.192029;-0.389909;3.91516;1.74105;0.57245;
-6.72617;2.19627;6.21399;-0.892752;0.191676;-0.391329;3.91789;1.74088;0.570601;
-6.72146;2.19741;6.21803;-0.890216;0.192534;-0.39203;3.92127;1.74166;0.570554;
-6.72669;2.19761;6.21911;-0.891417;0.191693;-0.393614;3.92362;1.74232;0.569382;
-6.73198;2.19834;6.22183;-0.890624;0.191595;-0.394542;3.92646;1.74303;0.567911;
-6.73478;2.199;6.22332;-0.890658;0.191623;-0.395657;3.92939;1.744;0.568548;
-6.7347;2.20013;6.22729;-0.889404;0.191737;-0.396466;3.93374;1.74523;0.569701;
-6.74053;2.19918;6.22515;-0.891708;0.191125;-0.397856;3.93586;1.7461;0.569517;
-6.74193;2.20124;6.2306;-0.888953;0.192263;-0.398182;3.93968;1.74732;0.570842;
-6.74316;2.20153;6.23081;-0.88842;0.192264;-0.39909;3.94323;1.74808;0.570973;
-6.75186;2.20111;6.23094;-0.890214;0.191455;-0.400718;3.94541;1.74794;0.569122;
-6.75415;2.20182;6.2336;-0.888868;0.191399;-0.401963;3.94733;1.74876;0.568787;
-6.75794;2.20189;6.23587;-0.888099;0.191163;-0.403099;3.94973;1.7494;0.568748;
-6.75546;2.204;6.24067;-0.884451;0.192368;-0.402698;3.95572;1.7511;0.57054;
-6.76006;2.20308;6.23962;-0.886005;0.190805;-0.403906;3.95721;1.75111;0.569715;
-6.76784;2.20294;6.23768;-0.888503;0.189832;-0.405785;3.95903;1.75113;0.568514;
-6.76543;2.2045;6.2424;-0.886228;0.190946;-0.406514;3.9629;1.75282;0.570043;
-6.76884;2.2051;6.24509;-0.887268;0.191117;-0.407339;3.96634;1.75369;0.570064;
-6.7787;2.20248;6.2413;-0.891513;0.190249;-0.408902;3.96816;1.7535;0.568268;
-6.77778;2.20343;6.24387;-0.890149;0.191472;-0.408393;3.97206;1.75547;0.569776;
-6.77897;2.20438;6.24576;-0.89004;0.19052;-0.409899;3.97597;1.75674;0.569439;
-6.78416;2.20375;6.24654;-0.889989;0.190416;-0.410943;3.97957;1.75775;0.56891;
-6.78775;2.20665;6.25158;-0.888649;0.190487;-0.411971;3.98553;1.76001;0.572568;
-6.77896;2.21012;6.26075;-0.885071;0.192562;-0.411901;3.99226;1.76212;0.575308;
-6.78715;2.2084;6.26011;-0.887208;0.191591;-0.413397;3.99361;1.76203;0.573253;
-6.79584;2.20873;6.2593;-0.89117;0.190477;-0.414524;3.9939;1.76246;0.573123;
-6.80199;2.20804;6.25822;-0.891812;0.189831;-0.415866;3.99572;1.76315;0.572508;
-6.80051;2.20762;6.26056;-0.889956;0.189606;-0.417048;3.99804;1.76412;0.572449;
-6.79629;2.20811;6.26461;-0.888133;0.190874;-0.417747;4.00171;1.76539;0.573045;
-6.79721;2.20786;6.26507;-0.888424;0.19069;-0.418847;4.00521;1.76605;0.571997;
-6.79977;2.20867;6.26694;-0.8871;0.191707;-0.41957;4.00822;1.7673;0.572946;
-6.80744;2.20927;6.27016;-0.886895;0.191745;-0.420959;4.00987;1.76803;0.573198;
-6.80594;2.20956;6.27361;-0.884989;0.191653;-0.422351;4.01337;1.76904;0.57357;
-6.80835;2.20937;6.2752;-0.88585;0.191388;-0.42347;4.01584;1.76988;0.573106;
-6.8141;2.2083;6.27586;-0.88733;0.191189;-0.424756;4.0178;1.77008;0.572001;
-6.81645;2.20934;6.27884;-0.887748;0.191133;-0.425581;4.02072;1.77094;0.572922;
-6.81874;2.20904;6.28037;-0.885698;0.191294;-0.426226;4.02418;1.77238;0.575088;
-6.82307;2.20883;6.28095;-0.884633;0.19128;-0.427146;4.02722;1.77308;0.575607;
-6.82475;2.21081;6.28487;-0.882249;0.191302;-0.428067;4.03104;1.77417;0.575887;
-6.82716;2.21174;6.2874;-0.880723;0.191342;-0.429841;4.03363;1.77458;0.576108;
-6.82964;2.21189;6.28916;-0.880722;0.191093;-0.431171;4.03521;1.77464;0.574847;
-6.83367;2.21235;6.29088;-0.881188;0.190539;-0.432084;4.03796;1.77523;0.573787;
-6.83248;2.21377;6.29397;-0.878666;0.190904;-0.43276;4.0418;1.77648;0.574303;
-6.84017;2.21247;6.29202;-0.880886;0.190433;-0.434033;4.04369;1.77662;0.572108;
-6.84616;2.21135;6.29215;-0.882983;0.189503;-0.435072;4.04645;1.77671;0.572117;
-6.84885;2.21139;6.29554;-0.882647;0.189668;-0.435661;4.05004;1.77788;0.572665;
-6.85211;2.1698;6.29762;-0.882364;0.19035;-0.436279;4.0533;1.77877;0.572934;
-6.85141;2.17153;6.30162;-0.880793;0.191194;-0.436536;4.05543;1.78033;0.574741;
-6.85303;2.17218;6.30382;-0.879903;0.191316;-0.437706;4.05832;1.78145;0.574091;
-6.85365;2.17155;6.30367;-0.880888;0.190604;-0.439533;4.06066;1.78163;0.573633;
-6.84783;2.17357;6.31066;-0.877226;0.192443;-0.439437;4.06601;1.78349;0.575595;
-6.84822;2.17342;6.31193;-0.877095;0.192226;-0.440414;4.06762;1.7843;0.57465;
-6.85571;2.17309;6.3114;-0.879297;0.191863;-0.441828;4.06912;1.78438;0.572605;
-6.85696;2.17375;6.31356;-0.878105;0.192003;-0.44262;4.07175;1.7853;0.573658;
-6.86093;2.17453;6.31691;-0.877623;0.192067;-0.443254;4.0745;1.78593;0.573112;
-6.85276;2.17579;6.32247;-0.874686;0.192366;-0.444101;4.07918;1.78776;0.57425;
-6.85723;2.17578;6.32258;-0.876377;0.191959;-0.445269;4.08056;1.78777;0.57321;
-6.86095;2.17473;6.3222;-0.878512;0.191351;-0.446648;4.08204;1.78806;0.571805;
-6.86072;2.17601;6.32424;-0.879404;0.191541;-0.447571;4.08554;1.78905;0.572081;
-6.86689;2.17541;6.32442;-0.880011;0.191421;-0.448954;4.08702;1.78903;0.570556;
-6.86891;2.17537;6.32441;-0.880907;0.190836;-0.450288;4.08901;1.78929;0.56982;
-6.87147;2.17607;6.3272;-0.881611;0.191152;-0.450686;4.09185;1.79017;0.569001;
-6.86645;2.17849;6.33364;-0.877106;0.192573;-0.451148;4.09608;1.79184;0.570971;
-6.87048;2.17925;6.33306;-0.879524;0.193057;-0.451997;4.09707;1.79223;0.568904;
-6.87723;2.17814;6.33076;-0.882668;0.191956;-0.453612;4.0971;1.79219;0.5665;
-6.88138;2.17952;6.33276;-0.882722;0.192001;-0.45447;4.09936;1.7928;0.566559;
-6.87779;2.1815;6.33823;-0.881103;0.192649;-0.454376;4.10446;1.7956;0.567401;
-6.88098;2.1815;6.33774;-0.881702;0.192243;-0.456162;4.10501;1.79416;0.567157;
-6.8844;2.18101;6.3358;-0.883542;0.190725;-0.457595;4.10646;1.79419;0.567006;
-6.88741;2.18281;6.33713;-0.883254;0.19014;-0.458405;4.10998;1.79502;0.566494;
-6.885;2.18494;6.34184;-0.881967;0.191808;-0.458855;4.11382;1.79624;0.568547;
-6.88822;2.18505;6.34159;-0.881827;0.190988;-0.460438;4.11516;1.7964;0.567921;
-6.89016;2.18575;6.34306;-0.882154;0.190839;-0.461432;4.11761;1.79706;0.568184;
-6.89424;2.18588;6.34405;-0.883991;0.19044;-0.462768;4.11871;1.79744;0.568326;
-6.89425;2.18788;6.34838;-0.882536;0.191221;-0.462788;4.12258;1.79892;0.569661;
-6.89741;2.18782;6.34998;-0.883518;0.191221;-0.463909;4.12479;1.79954;0.569468;
-6.9008;2.18845;6.35023;-0.884358;0.190987;-0.465369;4.12722;1.80021;0.569345;
-6.92326;2.18381;6.34015;-0.891528;0.187961;-0.467386;4.1261;1.79934;0.566417;
-6.91528;2.18601;6.34538;-0.88666;0.189842;-0.466159;4.13239;1.80194;0.569653;
-6.91219;2.18731;6.34947;-0.884455;0.190395;-0.467062;4.13726;1.80354;0.571574;
-6.9117;2.18813;6.34999;-0.885299;0.190314;-0.469193;4.14008;1.80422;0.572132;
-6.91377;2.18844;6.34973;-0.886424;0.19017;-0.470495;4.14228;1.8041;0.571119;
-6.9152;2.1892;6.35301;-0.88568;0.190495;-0.471463;4.14619;1.80508;0.57258;
-6.91528;2.18927;6.35284;-0.886151;0.190424;-0.472668;4.14876;1.80625;0.574878;
-6.92194;2.18856;6.35209;-0.888103;0.19015;-0.474031;4.15043;1.80711;0.573918;
-6.92027;2.19137;6.35618;-0.885822;0.190755;-0.474287;4.15475;1.80848;0.575399;
-6.91817;2.19295;6.35971;-0.883045;0.190652;-0.475072;4.15891;1.80959;0.575933;
-6.92506;2.19281;6.35871;-0.885624;0.190073;-0.476172;4.16042;1.80962;0.574667;
-6.93645;2.19176;6.35445;-0.889827;0.188183;-0.477356;4.1608;1.80931;0.573624;
-6.92075;2.19684;6.36456;-0.881972;0.191062;-0.476617;4.16995;1.8128;0.579033;
-6.91881;2.19961;6.36798;-0.880221;0.19133;-0.47785;4.17291;1.81351;0.576979;
-6.92581;2.1989;6.36624;-0.8827;0.190357;-0.47937;4.17316;1.81332;0.574751;
-6.92314;2.19999;6.37052;-0.881769;0.191524;-0.479407;4.17772;1.81501;0.574839;
-6.92752;2.20026;6.37003;-0.88401;0.190872;-0.480442;4.17894;1.81422;0.572588;
-6.94117;2.19828;6.36458;-0.890268;0.189347;-0.482355;4.17881;1.81366;0.570848;
-6.94052;2.19958;6.36714;-0.889456;0.189824;-0.483175;4.18209;1.81415;0.571634;
-6.94396;2.20008;6.36967;-0.887892;0.189769;-0.483897;4.18394;1.81395;0.571491;
-6.94414;2.20094;6.3718;-0.887073;0.190909;-0.483878;4.18742;1.81491;0.572762;
-6.95221;2.2015;6.37139;-0.891127;0.189377;-0.485239;4.18822;1.81472;0.572613;
-6.949;2.20117;6.37092;-0.890104;0.190128;-0.48605;4.19272;1.81711;0.574286;
-6.94466;2.20208;6.37515;-0.887597;0.190223;-0.486084;4.19689;1.81822;0.575553;
-6.94897;2.20265;6.37521;-0.889016;0.189998;-0.487232;4.19861;1.81787;0.57467;
-6.95318;2.20277;6.37506;-0.890895;0.189801;-0.488381;4.20163;1.8189;0.574931;
-6.95464;2.2016;6.37508;-0.891069;0.190023;-0.488925;4.20334;1.81914;0.574316;
-6.95239;2.2023;6.3777;-0.888236;0.19067;-0.489938;4.20656;1.81981;0.574139;
-6.94505;2.20357;6.37977;-0.886843;0.190846;-0.490479;4.20809;1.82032;0.574626;
-6.95194;2.20236;6.37902;-0.889472;0.190269;-0.492242;4.20846;1.8197;0.572764;
-6.95311;2.20233;6.38023;-0.88977;0.189858;-0.493443;4.21078;1.82022;0.572446;
-6.94595;2.20445;6.38521;-0.887002;0.189694;-0.49415;4.21377;1.82202;0.574185;
-6.9488;2.20355;6.385;-0.886921;0.189355;-0.495661;4.21512;1.82242;0.573054;
-6.95725;2.20242;6.38264;-0.890037;0.188058;-0.497367;4.21561;1.82201;0.571384;
-6.96602;2.20173;6.38146;-0.892646;0.187012;-0.499168;4.21608;1.82132;0.569608;
-6.95986;2.20433;6.38713;-0.890163;0.188174;-0.499656;4.22034;1.82284;0.572476;
-6.97707;2.20087;6.37847;-0.897235;0.185881;-0.501991;4.21878;1.82225;0.569428;
-6.98741;2.20169;6.37832;-0.897551;0.185354;-0.50323;4.221;1.82272;0.56948;
-6.98245;2.20514;6.38652;-0.892119;0.187091;-0.502963;4.22751;1.82502;0.571911;
-6.98283;2.20609;6.38864;-0.892043;0.187515;-0.503457;4.23012;1.826;0.572324;
-6.97814;2.20761;6.39225;-0.889264;0.188722;-0.503791;4.23445;1.82816;0.574627;
-6.9802;2.20838;6.3951;-0.888587;0.18906;-0.50492;4.23722;1.82934;0.574226;
-6.98342;2.20815;6.39599;-0.889679;0.188569;-0.505821;4.23909;1.82926;0.572897;
-6.9733;2.21167;6.40387;-0.884083;0.19026;-0.505397;4.2459;1.8312;0.57673;
-6.96829;2.21331;6.40645;-0.883308;0.190086;-0.506751;4.24761;1.83124;0.575592;
-6.97017;2.21432;6.40475;-0.886698;0.189001;-0.508266;4.24832;1.83084;0.573404;
-6.97591;2.21371;6.40304;-0.889181;0.187839;-0.509635;4.24876;1.83063;0.570921;
-6.98259;2.2125;6.40141;-0.890592;0.186755;-0.510648;4.24964;1.83069;0.570276;
-6.98564;2.21231;6.40139;-0.890749;0.186714;-0.511472;4.25152;1.83059;0.569101;
-6.98544;2.21421;6.40471;-0.889997;0.186878;-0.51237;4.25492;1.83236;0.570412;
-6.99338;2.21312;6.40193;-0.893433;0.185727;-0.513846;4.25589;1.83264;0.569631;
-6.99384;2.21399;6.40441;-0.892994;0.185761;-0.514441;4.25856;1.83351;0.569452;
-7.00779;2.21114;6.39937;-0.898169;0.184516;-0.515468;4.25837;1.83309;0.567217;
-6.99402;2.21526;6.40923;-0.890833;0.186716;-0.515696;4.2649;1.83543;0.571038;
-7.00248;2.21456;6.40877;-0.892512;0.186455;-0.516749;4.26533;1.83546;0.569755;
-7.00072;2.21605;6.41054;-0.890884;0.187116;-0.517478;4.26946;1.8368;0.571648;
-6.99834;2.21533;6.41328;-0.890805;0.186874;-0.517893;4.27174;1.83742;0.573248;
-7.0029;2.21499;6.41552;-0.892123;0.186148;-0.518542;4.27399;1.83772;0.573235;
-7.00553;2.21504;6.4174;-0.893275;0.185842;-0.51947;4.27622;1.83796;0.572745;
-7.0069;2.21482;6.41894;-0.893491;0.186214;-0.520559;4.27464;1.83868;0.571976;
-7.01158;2.21366;6.41812;-0.896105;0.185333;-0.521981;4.27523;1.83909;0.570417;
-7.01226;2.2156;6.42146;-0.894858;0.185337;-0.522629;4.2784;1.84017;0.571063;
-7.00159;2.21844;6.42907;-0.890975;0.186277;-0.521751;4.28249;1.84186;0.573727;
-7.00855;2.21719;6.42683;-0.893393;0.185502;-0.522714;4.28109;1.84149;0.572481;
-7.0083;2.21508;6.42413;-0.896894;0.184156;-0.524027;4.28184;1.84137;0.571589;
-7.01407;2.21424;6.42261;-0.898848;0.183021;-0.52426;4.28364;1.84143;0.570761;
-7.01694;2.21561;6.42341;-0.897843;0.183404;-0.525035;4.28561;1.84205;0.571033;
-7.01608;2.21639;6.4262;-0.896515;0.183587;-0.525679;4.28897;1.84311;0.572391;
-7.00823;2.21922;6.43163;-0.893048;0.184519;-0.525717;4.29237;1.84401;0.573478;
-7.01708;2.21811;6.42804;-0.896591;0.182087;-0.527608;4.29266;1.84327;0.572056;
-7.02278;2.21737;6.42698;-0.900187;0.180952;-0.529044;4.29398;1.84325;0.570017;
-7.02029;2.21892;6.43126;-0.897737;0.181746;-0.529503;4.29843;1.84471;0.571593;
-7.02448;2.21969;6.43252;-0.899509;0.181516;-0.530589;4.30005;1.84475;0.571289;
-7.02725;2.21979;6.43294;-0.899819;0.181152;-0.531398;4.30236;1.84493;0.571226;
-7.02772;2.22022;6.43471;-0.900204;0.180625;-0.532382;4.30505;1.84587;0.571381;
-7.02632;2.22105;6.43562;-0.901885;0.179682;-0.533128;4.30813;1.84672;0.571437;
-7.02717;2.22015;6.43723;-0.899399;0.1797;-0.53322;4.31009;1.84729;0.571844;
-7.07829;2.21545;6.42876;-0.906778;0.177592;-0.534709;4.30802;1.84599;0.568205;
-7.06459;2.2193;6.43887;-0.897896;0.180184;-0.533924;4.31541;1.84902;0.574931;
-7.05662;2.22043;6.44297;-0.894859;0.181097;-0.533724;4.32017;1.85147;0.578167;
-7.05549;2.22034;6.44565;-0.892847;0.181758;-0.534112;4.32426;1.85216;0.579643;
-7.05003;2.22231;6.45109;-0.889062;0.182412;-0.534858;4.32777;1.85344;0.580442;
-7.05407;2.22254;6.45236;-0.891348;0.181111;-0.536129;4.32905;1.85369;0.579793;
-7.06107;2.2214;6.45015;-0.894898;0.180447;-0.537809;4.32795;1.8531;0.57712;
-7.05963;2.22223;6.45312;-0.893632;0.181013;-0.537851;4.33064;1.85407;0.57784;
-7.06605;2.22198;6.45276;-0.89519;0.181143;-0.538841;4.33274;1.85486;0.577571;
-7.06651;2.22313;6.4564;-0.892831;0.181522;-0.539195;4.33609;1.85611;0.579547;
-7.06583;2.22369;6.45861;-0.891889;0.181635;-0.539618;4.33929;1.85663;0.579509;
-7.06795;2.22367;6.45697;-0.894822;0.18096;-0.540473;4.34125;1.8574;0.579647;
-7.06912;2.22337;6.45623;-0.894068;0.181208;-0.541161;4.34338;1.85784;0.577913;
-7.06941;2.22328;6.45833;-0.893984;0.180873;-0.54204;4.34537;1.85828;0.578056;
-7.07451;2.22376;6.46133;-0.893211;0.181076;-0.542385;4.34579;1.85874;0.577645;
-7.07198;2.22481;6.46344;-0.89114;0.181938;-0.541978;4.3501;1.85971;0.579534;
-7.07451;2.22523;6.46419;-0.892313;0.1818;-0.542839;4.35223;1.86016;0.578776;
-7.06839;2.22531;6.46807;-0.890658;0.181968;-0.543114;4.35562;1.86124;0.58011;
-7.07778;2.2248;6.46493;-0.893527;0.180518;-0.545106;4.3559;1.86035;0.576632;
-7.08303;2.22489;6.46431;-0.895624;0.180052;-0.546256;4.35747;1.8605;0.575994;
-7.08678;2.22505;6.465;-0.896698;0.180133;-0.54736;4.3599;1.86133;0.576579;
-7.08701;2.22583;6.46731;-0.89527;0.180545;-0.547577;4.36432;1.86234;0.577644;
-7.0879;2.2262;6.46877;-0.895748;0.180778;-0.548377;4.36649;1.86268;0.577733;
-7.0887;2.22646;6.46935;-0.896255;0.180828;-0.548489;4.36876;1.86389;0.578531;
-7.09001;2.22692;6.46942;-0.895375;0.180383;-0.54901;4.37185;1.86561;0.579511;
-7.0872;2.22785;6.47254;-0.893521;0.181113;-0.549422;4.37516;1.86615;0.580324;
-7.09226;2.22758;6.47379;-0.893709;0.18073;-0.550074;4.37673;1.86621;0.578881;
-7.09041;2.22748;6.4745;-0.89428;0.181171;-0.550641;4.37853;1.86676;0.578302;
-7.08493;2.22926;6.47968;-0.891771;0.182241;-0.550354;4.38271;1.86864;0.580166;
-7.08955;2.22917;6.47974;-0.892777;0.181749;-0.551511;4.38385;1.8691;0.579566;
-7.09515;2.22875;6.47831;-0.895566;0.180898;-0.552897;4.38486;1.86912;0.578033;
-7.09933;2.22858;6.47972;-0.896467;0.18057;-0.554051;4.38777;1.869;0.578646;
-7.10093;2.22878;6.47941;-0.8958;0.180838;-0.555299;4.38937;1.86904;0.577264;
-7.1037;2.22828;6.47947;-0.895652;0.180205;-0.556113;4.39194;1.86973;0.578553;
-7.10569;2.22878;6.48077;-0.895182;0.180201;-0.556249;4.39417;1.87056;0.578593;
-7.10193;2.23099;6.48488;-0.892195;0.181679;-0.556247;4.39807;1.87179;0.579611;
-7.1022;2.23221;6.48741;-0.891799;0.181791;-0.556648;4.40046;1.87145;0.579279;
-7.10463;2.23354;6.48959;-0.892477;0.181126;-0.557965;4.40197;1.8721;0.579379;
-7.11129;2.23263;6.48741;-0.895582;0.179783;-0.559973;4.4006;1.87143;0.576336;
-7.10811;2.23336;6.49105;-0.894607;0.179733;-0.5605;4.40275;1.87196;0.577385;
-7.11123;2.23311;6.49205;-0.896593;0.178476;-0.561397;4.40426;1.8722;0.575826;
-7.10848;2.23407;6.49363;-0.895764;0.179005;-0.561905;4.40727;1.87291;0.577038;
-7.11267;2.23321;6.49203;-0.897866;0.178487;-0.563034;4.4074;1.87363;0.575941;
-7.10497;2.23723;6.50075;-0.892305;0.180573;-0.561881;4.41211;1.87582;0.578541;
-7.11554;2.23638;6.49715;-0.897406;0.179007;-0.563006;4.41105;1.87468;0.575809;
-7.11496;2.23608;6.49751;-0.897768;0.17904;-0.564521;4.41346;1.87483;0.574365;
-7.11206;2.23546;6.49614;-0.898663;0.178539;-0.565486;4.41579;1.87527;0.573564;
-7.11673;2.2354;6.49555;-0.899983;0.177435;-0.567211;4.41678;1.875;0.572087;
-7.1189;2.23477;6.49716;-0.900924;0.177654;-0.567526;4.41921;1.87547;0.573134;
-7.12616;2.23489;6.49519;-0.903311;0.177717;-0.567987;4.42114;1.87576;0.573419;
-7.12055;2.23631;6.49914;-0.901855;0.178265;-0.56844;4.42487;1.87642;0.574696;
-7.12642;2.23557;6.49344;-0.904717;0.177306;-0.569213;4.42568;1.8767;0.573523;
-7.13386;2.2355;6.49182;-0.904493;0.177055;-0.570503;4.42846;1.87714;0.57324;
-7.14301;2.23447;6.49008;-0.905865;0.176848;-0.570986;4.43136;1.87759;0.573953;
-7.13852;2.23249;6.49019;-0.908212;0.177188;-0.571009;4.43449;1.87924;0.575131;
-7.13525;2.23384;6.49369;-0.905322;0.177791;-0.570802;4.43955;1.88061;0.57725;
-7.14077;2.23397;6.49332;-0.90721;0.17765;-0.571731;4.44171;1.88096;0.576264;
-7.13682;2.23579;6.49849;-0.904555;0.178438;-0.571587;4.44613;1.88232;0.578349;
-7.14126;2.23501;6.49845;-0.90098;0.177223;-0.572786;4.44672;1.88264;0.578223;
-7.13807;2.23524;6.50032;-0.900818;0.177167;-0.573198;4.44989;1.88287;0.578852;
-7.13855;2.23626;6.50282;-0.899734;0.177992;-0.573663;4.45317;1.88377;0.579484;
-7.14543;2.23719;6.50012;-0.903105;0.177652;-0.575096;4.45453;1.88406;0.578175;
-7.13589;2.23959;6.50481;-0.897827;0.178977;-0.575073;4.46039;1.88635;0.581144;
-7.1416;2.23939;6.50392;-0.899194;0.177629;-0.576221;4.46134;1.88633;0.580174;
-7.14419;2.23908;6.50406;-0.899381;0.176966;-0.577021;4.46174;1.88647;0.579407;
-7.14483;2.23905;6.50428;-0.899969;0.176993;-0.577382;4.46299;1.88668;0.579049;
-7.16678;2.23789;6.49986;-0.902929;0.176136;-0.577588;4.46262;1.88728;0.57686;
-7.15734;2.24151;6.50941;-0.897245;0.177521;-0.576767;4.47165;1.89009;0.580056;
-7.16171;2.24098;6.50741;-0.899658;0.177659;-0.576962;4.47392;1.89208;0.579743;
-7.16144;2.24227;6.50988;-0.898073;0.17806;-0.576892;4.47736;1.89372;0.580731;
-7.16316;2.24087;6.50735;-0.902359;0.177417;-0.577889;4.47588;1.89404;0.579135;
-7.15897;2.24256;6.51084;-0.90026;0.177426;-0.578533;4.47912;1.89573;0.580536;
-7.16219;2.24168;6.5095;-0.901773;0.176621;-0.579417;4.48061;1.89561;0.579157;
-7.163;2.24344;6.51412;-0.900094;0.177363;-0.579769;4.48454;1.89647;0.58056;
-7.16801;2.24309;6.51117;-0.901462;0.175959;-0.581547;4.48538;1.89618;0.580364;
-7.16968;2.24393;6.51034;-0.90231;0.17619;-0.582617;4.48732;1.89566;0.579738;
-7.16977;2.2472;6.51765;-0.899505;0.175987;-0.582801;4.4904;1.89751;0.581457;
-7.16872;2.24788;6.51944;-0.898358;0.176517;-0.58343;4.49337;1.89829;0.581906;
-7.16944;2.2476;6.51768;-0.900549;0.175939;-0.584331;4.49448;1.89848;0.581173;
-7.1772;2.24611;6.51498;-0.903263;0.175587;-0.585745;4.49516;1.89813;0.579882;
-7.17742;2.247;6.51788;-0.90234;0.176324;-0.586148;4.4984;1.89884;0.580788;
-7.18097;2.24629;6.51871;-0.902898;0.176408;-0.586537;4.50053;1.89879;0.580607;
-7.18263;2.24741;6.5209;-0.901072;0.177509;-0.587092;4.50329;1.89955;0.581204;
-7.18745;2.24724;6.51908;-0.90238;0.177129;-0.58776;4.50564;1.90005;0.58082;
-7.19151;2.24849;6.52054;-0.903906;0.177775;-0.588253;4.50877;1.90094;0.581299;
-7.18623;2.24908;6.52301;-0.901532;0.177828;-0.588819;4.51198;1.90179;0.582177;
-7.18862;2.25156;6.52596;-0.900914;0.178538;-0.589303;4.51548;1.90229;0.582898;
-7.18688;2.25161;6.52568;-0.899742;0.178417;-0.589802;4.51834;1.90282;0.583185;
-7.19128;2.24868;6.52199;-0.903594;0.17745;-0.590938;4.52008;1.90251;0.580357;
-7.19233;2.24854;6.52392;-0.903671;0.176244;-0.59162;4.52229;1.9025;0.580205;
-7.18973;2.25032;6.52781;-0.900421;0.177035;-0.591942;4.52608;1.90359;0.582085;
-7.18557;2.25105;6.52883;-0.899984;0.176932;-0.592802;4.52796;1.90383;0.580912;
-7.18746;2.25101;6.52914;-0.901165;0.176067;-0.592495;4.52994;1.9052;0.581067;
-7.19096;2.25105;6.52867;-0.903679;0.175801;-0.593672;4.53133;1.90553;0.579315;
-7.18742;2.25228;6.53271;-0.902146;0.176826;-0.593905;4.53611;1.90658;0.581434;
-7.19031;2.25045;6.52927;-0.904843;0.176256;-0.59473;4.53647;1.90541;0.578645;
-7.19116;2.24976;6.52809;-0.906729;0.175319;-0.595925;4.53712;1.90469;0.578406;
-7.19376;2.24979;6.52858;-0.906852;0.174909;-0.596693;4.53889;1.90513;0.578104;
-7.19694;2.24951;6.52852;-0.907491;0.174815;-0.597477;4.54115;1.9056;0.57718;
-7.1968;2.24941;6.52896;-0.905913;0.174767;-0.598505;4.54201;1.90611;0.576919;
-7.19931;2.25083;6.53237;-0.90573;0.174908;-0.599389;4.54356;1.90674;0.576319;
-7.20073;2.25063;6.5331;-0.907128;0.174678;-0.599839;4.5453;1.9072;0.576138;
-7.20182;2.25099;6.53455;-0.905583;0.174768;-0.600607;4.54723;1.90772;0.575187;
-7.1989;2.25287;6.53857;-0.902962;0.175406;-0.600599;4.55047;1.90833;0.576173;
-7.20163;2.25278;6.53877;-0.903843;0.17499;-0.601463;4.55202;1.90857;0.575219;
-7.20038;2.25185;6.53816;-0.903882;0.174564;-0.602264;4.55422;1.90817;0.573277;
-7.20037;2.25296;6.53998;-0.902653;0.17461;-0.602798;4.55689;1.90867;0.573455;
-7.20335;2.25333;6.54046;-0.903726;0.173689;-0.60351;4.55879;1.90917;0.572992;
-7.2091;2.25386;6.54063;-0.905604;0.173166;-0.60397;4.56012;1.9092;0.572688;
-7.21398;2.25286;6.53765;-0.907833;0.172119;-0.605985;4.56174;1.90893;0.571232;
-7.21366;2.25373;6.54012;-0.906325;0.172379;-0.606539;4.56388;1.91001;0.571945;
-7.21151;2.25531;6.54311;-0.904137;0.173047;-0.60688;4.56722;1.91066;0.57181;
-7.2219;2.2541;6.53987;-0.907525;0.172373;-0.606902;4.56764;1.91089;0.572362;
-7.21658;2.25574;6.54384;-0.904051;0.173416;-0.606621;4.57181;1.91187;0.574292;
-7.2172;2.25657;6.54608;-0.903831;0.173129;-0.607675;4.57386;1.91262;0.574437;
-7.22085;2.25719;6.54829;-0.903022;0.173182;-0.608078;4.57678;1.91309;0.574457;
-7.22336;2.25693;6.54911;-0.902718;0.172407;-0.608923;4.57872;1.91309;0.573685;
-7.2222;2.25878;6.55328;-0.90129;0.172757;-0.608076;4.58171;1.91412;0.574155;
-7.2387;2.25573;6.54577;-0.905823;0.170275;-0.609699;4.57856;1.91314;0.57065;
-7.23816;2.2552;6.54533;-0.905494;0.170739;-0.610214;4.58149;1.91437;0.572322;
-7.22934;2.25848;6.55091;-0.901364;0.171753;-0.610327;4.58599;1.91587;0.574531;
-7.23213;2.2594;6.55291;-0.902038;0.171762;-0.61072;4.58704;1.91641;0.574479;
-7.23305;2.26009;6.55419;-0.903111;0.171172;-0.61112;4.58887;1.91671;0.575302;
-7.23236;2.26029;6.55413;-0.903003;0.170869;-0.612083;4.59023;1.91642;0.575312;
-7.23695;2.25962;6.5534;-0.904788;0.170742;-0.612998;4.59109;1.91602;0.574537;
-7.22457;2.26262;6.5624;-0.899034;0.172765;-0.612899;4.59628;1.91773;0.577198;
-7.22099;2.26427;6.56886;-0.895391;0.174239;-0.612361;4.60027;1.91884;0.577056;
-7.23452;2.26113;6.56313;-0.902268;0.172542;-0.614405;4.59823;1.91691;0.571719;
-7.24785;2.25901;6.5577;-0.907287;0.170782;-0.615553;4.59716;1.9153;0.567713;
-7.24198;2.26049;6.56324;-0.903273;0.171661;-0.615387;4.60161;1.91662;0.569133;
